<?xml version="1.0"?>
<opencv_storage>
<my_svm type_id="opencv-ml-svm">
  <svm_type>C_SVC</svm_type>
  <kernel><type>LINEAR</type></kernel>
  <C>1.</C>
  <term_criteria><epsilon>1.1920928955078125e-07</epsilon>
    <iterations>1000</iterations></term_criteria>
  <var_all>17424</var_all>
  <var_count>17424</var_count>
  <class_count>3</class_count>
  <class_labels type_id="opencv-matrix">
    <rows>1</rows>
    <cols>3</cols>
    <dt>i</dt>
    <data>
      0 1 2</data></class_labels>
  <sv_total>3</sv_total>
  <support_vectors>
    <_>
      1.03348298e-02 5.29724080e-03 5.44715393e-03 3.37293348e-03
      1.06066652e-02 1.78611348e-03 4.64266259e-03 3.12487967e-03
      1.11132674e-02 1.32874278e-02 6.81098970e-03 7.00424565e-03
      4.33662441e-03 1.36364745e-02 2.29655579e-03 5.96954348e-03
      4.01780009e-03 1.42882755e-02 1.32879158e-02 6.81067118e-03
      7.00328453e-03 4.33662767e-03 1.36364745e-02 2.29643704e-03
      5.96908433e-03 4.01768275e-03 1.42887551e-02 1.70841925e-02
      8.75690114e-03 9.00520198e-03 5.57565829e-03 1.75317544e-02
      2.95272167e-03 7.67505821e-03 5.16571803e-03 1.83709860e-02
      1.02940043e-02 5.11944713e-03 5.41162025e-03 3.11323954e-03
      1.00747459e-02 2.11884989e-03 4.01813351e-03 4.16121492e-03
      1.05249742e-02 1.32348780e-02 6.58206968e-03 6.95747230e-03
      4.00273083e-03 1.29531147e-02 2.72423215e-03 5.16619720e-03
      5.35014598e-03 1.35318367e-02 1.32355262e-02 6.58215303e-03
      6.95782434e-03 4.00267821e-03 1.29525578e-02 2.72423704e-03
      5.16623864e-03 5.35015855e-03 1.35324942e-02 1.70167573e-02
      8.46266933e-03 8.94535519e-03 5.14629344e-03 1.66531224e-02
      3.50258616e-03 6.64233975e-03 6.87879138e-03 1.73985716e-02
      6.74718991e-03 4.31723474e-03 6.40375260e-03 3.86959128e-03
      7.65466131e-03 2.47276761e-03 5.14061749e-03 3.84269981e-03
      7.45370518e-03 8.67537968e-03 5.55022852e-03 8.23197793e-03
      4.97519178e-03 9.84258391e-03 3.17927264e-03 6.60977047e-03
      4.94090468e-03 9.58379265e-03 8.67526233e-03 5.55068161e-03
      8.23328923e-03 4.97519551e-03 9.84031428e-03 3.17918393e-03
      6.60759117e-03 4.93963901e-03 9.58356913e-03 1.11544495e-02
      7.13594584e-03 1.05838347e-02 6.39668340e-03 1.26529597e-02
      4.08752216e-03 8.49599484e-03 6.35133823e-03 1.23223197e-02
      4.03432595e-03 2.50954553e-03 4.27759392e-03 4.81066341e-03
      7.23152282e-03 3.81757598e-03 7.58539746e-03 4.35838103e-03
      4.74715792e-03 5.18654892e-03 3.22654075e-03 5.49970521e-03
      6.18512975e-03 9.29883774e-03 4.90831397e-03 9.75274108e-03
      5.60355233e-03 6.10254146e-03 5.18676126e-03 3.22626578e-03
      5.49893221e-03 6.18514698e-03 9.29697137e-03 4.90831630e-03
      9.75351036e-03 5.60394023e-03 6.10326324e-03 6.66812435e-03
      4.14803298e-03 7.06998073e-03 7.95232039e-03 1.19547471e-02
      6.31069485e-03 1.25403386e-02 7.20496336e-03 7.84583483e-03
      4.79479833e-03 4.27340565e-04 3.44287115e-03 2.59878789e-03
      6.49259845e-03 2.93835928e-03 5.90440072e-03 3.75627703e-03
      5.10637695e-03 6.16439199e-03 5.49394055e-04 4.42648958e-03
      3.34121427e-03 8.34788010e-03 3.77788907e-03 7.59190321e-03
      4.82967682e-03 6.56502694e-03 6.16477430e-03 5.49283228e-04
      4.42624884e-03 3.34128272e-03 8.34713038e-03 3.77788907e-03
      7.59140169e-03 4.82920324e-03 6.56421017e-03 7.92569015e-03
      7.06165505e-04 5.69081493e-03 4.29582642e-03 1.07323499e-02
      4.85728355e-03 9.76105500e-03 6.20920397e-03 8.43929406e-03
      4.51125531e-03 8.74474528e-04 3.61792324e-03 2.93244212e-03
      7.16929906e-04 1.52023986e-03 5.79054654e-03 3.89204780e-03
      6.91706175e-03 5.79972193e-03 1.12440402e-03 4.65185242e-03
      3.77028249e-03 9.22280480e-04 1.95111276e-03 7.44246924e-03
      5.00423927e-03 8.89288634e-03 5.79940435e-03 1.12442020e-03
      4.65190271e-03 3.77026992e-03 9.20984836e-04 1.95756112e-03
      7.44548859e-03 5.00372285e-03 8.89256876e-03 7.45578157e-03
      1.44578633e-03 5.98132145e-03 4.84748976e-03 1.18478294e-03
      2.51238793e-03 9.56953224e-03 6.43358706e-03 1.14326868e-02
      3.80395795e-03 1.78031484e-03 2.94199656e-03 1.70963816e-03
      6.42018905e-03 2.80506187e-03 1.99698401e-03 3.91090801e-03
      4.55720164e-03 4.88984911e-03 2.28919229e-03 3.78318620e-03
      2.19810591e-03 8.25482886e-03 3.60610918e-03 2.56740511e-03
      5.02832420e-03 5.85831096e-03 4.89094760e-03 2.28896271e-03
      3.78260366e-03 2.19810382e-03 8.25393014e-03 3.60637764e-03
      2.56757205e-03 5.02870651e-03 5.85958455e-03 6.28713472e-03
      2.94322963e-03 4.86414367e-03 2.82613304e-03 1.06125819e-02
      4.63625882e-03 3.30097624e-03 6.46549789e-03 7.53253186e-03
      2.79203663e-03 3.15231155e-03 6.13503857e-03 2.47066724e-03
      4.56212042e-03 4.11613059e-04 1.40982261e-03 4.52144397e-03
      5.33422735e-03 3.59038846e-03 4.05276427e-03 7.88731687e-03
      3.17657087e-03 5.86533500e-03 5.29031618e-04 1.81263487e-03
      5.81378629e-03 6.85933651e-03 3.58794769e-03 4.05315729e-03
      7.88850524e-03 3.17656924e-03 5.86488144e-03 5.29219571e-04
      1.81255012e-03 5.81186963e-03 6.85351808e-03 4.61388286e-03
      5.21093607e-03 1.01416036e-02 4.08415869e-03 7.54024228e-03
      6.80187077e-04 2.33042892e-03 7.47304829e-03 8.81300867e-03
      5.00649773e-03 1.62083644e-03 5.74936019e-03 1.59360457e-03
      4.39170189e-03 3.28272604e-03 1.89375284e-03 2.83206883e-03
      6.79936353e-03 6.43716939e-03 2.08362541e-03 7.39114778e-03
      2.04891735e-03 5.64721227e-03 4.22064727e-03 2.43497780e-03
      3.64130130e-03 8.74228496e-03 6.43665716e-03 2.08355580e-03
      7.39149470e-03 2.04857881e-03 5.64613566e-03 4.22065658e-03
      2.43432075e-03 3.64105683e-03 8.74209777e-03 8.27601552e-03
      2.67846300e-03 9.50221065e-03 2.63388315e-03 7.26026669e-03
      5.42655773e-03 3.13003710e-03 4.68144845e-03 1.12401573e-02
      6.46286353e-04 3.14099877e-03 4.18057526e-03 1.54611806e-03
      1.06245400e-02 4.48599597e-03 4.72602621e-03 3.07717570e-03
      3.07002384e-03 8.30931705e-04 4.03818674e-03 5.37431613e-03
      1.98786100e-03 1.36609823e-02 5.76772867e-03 6.07709168e-03
      3.95709882e-03 3.94724216e-03 8.29975354e-04 4.03835159e-03
      5.37481206e-03 1.98786752e-03 1.36597538e-02 5.76753123e-03
      6.07508654e-03 3.95628903e-03 3.94626148e-03 1.06710207e-03
      5.19185793e-03 6.90955995e-03 2.55582342e-03 1.75636467e-02
      7.41542177e-03 7.81181920e-03 5.08759636e-03 5.07385330e-03
      2.50190333e-03 2.85636773e-03 5.29703824e-03 2.96139834e-03
      7.77926948e-03 2.79308180e-03 8.23919836e-04 2.40416429e-03
      3.15431505e-03 3.21718282e-03 3.67251970e-03 6.81065256e-03
      3.80750559e-03 1.00025525e-02 3.59113025e-03 1.05921121e-03
      3.09102354e-03 4.05598385e-03 3.21643800e-03 3.67265777e-03
      6.81088958e-03 3.80750583e-03 1.00018447e-02 3.59109556e-03
      1.05938595e-03 3.09104542e-03 4.05523553e-03 4.13599890e-03
      4.72204946e-03 8.75708181e-03 4.89535602e-03 1.28603308e-02
      4.61715506e-03 1.36192073e-03 3.97414342e-03 5.21443458e-03
      1.28285261e-03 2.62610475e-03 4.55953833e-03 2.67278031e-03
      4.11133654e-03 3.25192092e-03 3.84819717e-03 2.69533065e-03
      -3.75155272e-04 1.64935738e-03 3.37638427e-03 5.86215639e-03
      3.43642500e-03 5.28678205e-03 4.18115081e-03 4.94802790e-03
      3.46554141e-03 -4.82364849e-04 1.64598459e-03 3.37647926e-03
      5.86227095e-03 3.43642221e-03 5.28513175e-03 4.18104138e-03
      4.94790170e-03 3.46549693e-03 -4.85989556e-04 2.11623358e-03
      4.34114179e-03 7.53706694e-03 4.41824831e-03 6.79616909e-03
      5.37576526e-03 6.36203215e-03 4.45578899e-03 -6.24874025e-04
      3.61896586e-03 1.87615782e-03 3.81246046e-03 4.52684611e-03
      7.30932923e-03 2.11065635e-03 4.06875368e-03 2.21133232e-03
      7.51824584e-04 4.65370761e-03 2.41213851e-03 4.90158377e-03
      5.82022732e-03 9.39738378e-03 2.71369587e-03 5.23129152e-03
      2.84294155e-03 9.67107713e-04 4.64621745e-03 2.41207588e-03
      4.90176305e-03 5.82023337e-03 9.39776748e-03 2.71371100e-03
      5.23104705e-03 2.84303725e-03 9.47740162e-04 5.97467460e-03
      3.10115796e-03 6.30207174e-03 7.48315267e-03 1.20824268e-02
      3.48904985e-03 6.72567822e-03 3.65507696e-03 1.21913536e-03
      5.96072059e-03 2.27257540e-03 8.43425747e-03 5.77554246e-03
      3.33815091e-03 1.71253190e-03 3.82250594e-03 2.83879368e-03
      4.92044026e-03 7.66345160e-03 2.92191282e-03 1.08440174e-02
      7.42569938e-03 4.29249927e-03 2.20238301e-03 4.91540227e-03
      3.64966085e-03 6.32590149e-03 7.66255939e-03 2.92204157e-03
      1.08442148e-02 7.42591731e-03 4.29176865e-03 2.20129080e-03
      4.91465069e-03 3.65016260e-03 6.32516947e-03 9.85143520e-03
      3.75694945e-03 1.39425248e-02 9.54760984e-03 5.51874889e-03
      2.83094612e-03 6.31980272e-03 4.69278777e-03 8.13187193e-03
      7.16007641e-03 5.20827901e-03 6.64751558e-03 3.84677784e-03
      5.06276637e-03 1.74643646e-03 1.18469121e-03 7.37307186e-04
      4.82615316e-03 9.20544006e-03 6.69639651e-03 8.54692422e-03
      4.94586024e-03 6.50915643e-03 2.24542711e-03 1.52317551e-03
      9.48081783e-04 6.20469963e-03 9.20548849e-03 6.69626892e-03
      8.54634028e-03 4.94584767e-03 6.50903303e-03 2.24541547e-03
      1.52333721e-03 9.48034693e-04 6.20471220e-03 1.18351495e-02
      8.60953797e-03 1.09883025e-02 6.35895040e-03 8.36860947e-03
      2.88697379e-03 1.95857836e-03 1.21905038e-03 7.97703117e-03
      5.99787664e-03 3.73292738e-03 7.83549342e-03 2.37450330e-03
      6.44743256e-03 2.45197234e-03 6.12096628e-03 -2.88747135e-04
      3.77768325e-03 7.71096209e-03 4.79945354e-03 1.00741349e-02
      3.05292523e-03 8.28997977e-03 3.15255951e-03 7.86999054e-03
      -3.71196278e-04 4.85645467e-03 7.71189621e-03 4.79916763e-03
      1.00733321e-02 3.05293966e-03 8.28898326e-03 3.15237022e-03
      7.86924455e-03 -3.71413393e-04 4.85734688e-03 9.91453137e-03
      6.17032684e-03 1.29513359e-02 3.92519869e-03 1.06578097e-02
      4.05307766e-03 1.01178279e-02 -4.77467140e-04 6.24443125e-03
      6.78180763e-03 2.11855816e-03 7.67407054e-03 2.68113520e-03
      7.33347051e-03 3.54207843e-03 4.82047582e-03 1.84948999e-03
      6.90336432e-03 8.71944800e-03 2.72384030e-03 9.86661948e-03
      3.44716804e-03 9.42933839e-03 4.55408823e-03 6.19777292e-03
      2.37792591e-03 8.87573790e-03 8.71776324e-03 2.72407383e-03
      9.86672379e-03 3.44716990e-03 9.42746457e-03 4.55410127e-03
      6.19754801e-03 2.37782323e-03 8.87396373e-03 1.12085287e-02
      3.50235542e-03 1.26857311e-02 4.43206821e-03 1.21217854e-02
      5.85525716e-03 7.96829909e-03 3.05721466e-03 1.14093609e-02
      6.71572611e-03 4.52462677e-03 7.42124580e-03 3.95433232e-03
      7.15193246e-03 2.30098632e-03 5.73321246e-03 3.63025861e-03
      5.45711303e-03 8.63441359e-03 5.81739238e-03 9.54164937e-03
      5.08415420e-03 9.19449981e-03 2.95841414e-03 7.37117324e-03
      4.66748327e-03 7.01624714e-03 8.63413885e-03 5.81739144e-03
      9.54159442e-03 5.08413790e-03 9.19534639e-03 2.95841228e-03
      7.37139396e-03 4.66751074e-03 7.01590953e-03 1.11009181e-02
      7.47952284e-03 1.22678261e-02 6.53676456e-03 1.18215065e-02
      3.80367669e-03 9.47737787e-03 6.00109529e-03 9.02040303e-03
      5.43151423e-03 4.57034353e-03 6.17607310e-03 2.27096537e-03
      1.04254754e-02 3.77603661e-04 7.86791462e-03 4.79193591e-03
      5.73955523e-03 6.98325364e-03 5.87610109e-03 7.94048514e-03
      2.91980733e-03 1.34070208e-02 4.85553028e-04 1.01156589e-02
      6.16096286e-03 7.37930927e-03 6.98362431e-03 5.87606430e-03
      7.94041250e-03 2.91980710e-03 1.34039838e-02 4.85488999e-04
      1.01161078e-02 6.16115611e-03 7.37968227e-03 8.97878781e-03
      7.55486963e-03 1.02088684e-02 3.75403068e-03 1.72373429e-02
      6.24280598e-04 1.30061256e-02 7.92136043e-03 9.48800985e-03
      5.04312199e-03 4.67619300e-03 7.85537064e-03 2.64484319e-03
      8.85330234e-03 1.15162262e-03 4.73416271e-03 3.99161084e-03
      7.04100588e-03 6.48416765e-03 6.01235731e-03 1.01001002e-02
      3.40012158e-03 1.13824056e-02 1.48065924e-03 6.08644029e-03
      5.13196178e-03 9.05287173e-03 6.48405310e-03 6.01236569e-03
      1.01001067e-02 3.40051553e-03 1.13827530e-02 1.48065644e-03
      6.08741865e-03 5.13229007e-03 9.05276462e-03 8.33683740e-03
      7.73032475e-03 1.29862856e-02 4.37158858e-03 1.46344388e-02
      1.90370344e-03 7.82624353e-03 6.59851776e-03 1.16394609e-02
      8.16496555e-03 4.89193248e-03 8.07444658e-03 3.14203231e-03
      8.50418769e-03 2.09986558e-03 5.15968679e-03 4.52602748e-03
      8.62579886e-03 1.04978317e-02 6.28958875e-03 1.03813056e-02
      4.04031668e-03 1.09357880e-02 2.69983080e-03 6.63393084e-03
      5.81941847e-03 1.10903792e-02 1.04977675e-02 6.29068725e-03
      1.03817880e-02 4.03975556e-03 1.09340763e-02 2.69964035e-03
      6.63353829e-03 5.81906131e-03 1.10901762e-02 1.34971524e-02
      8.08797777e-03 1.33478502e-02 5.19469241e-03 1.40604535e-02
      3.47097078e-03 8.52889568e-03 7.48195872e-03 1.42588839e-02
      7.72639876e-03 5.53770829e-03 8.62867199e-03 2.29993928e-03
      1.05798161e-02 2.75677978e-03 6.80643599e-03 5.52370120e-03
      7.62510858e-03 9.93358716e-03 7.11987540e-03 1.10938940e-02
      2.95706769e-03 1.36021841e-02 3.54443328e-03 8.75108689e-03
      7.10188225e-03 9.80335567e-03 9.93396807e-03 7.11979112e-03
      1.10936910e-02 2.95714196e-03 1.36016207e-02 3.54443234e-03
      8.75113159e-03 7.10190134e-03 9.80373193e-03 1.27717890e-02
      9.15397238e-03 1.42631708e-02 3.80204339e-03 1.74872354e-02
      4.55713039e-03 1.12513965e-02 9.13099200e-03 1.26043409e-02
      7.95747712e-03 4.37173340e-03 8.02575797e-03 2.74567492e-03
      7.82168657e-03 4.59267804e-03 1.31742156e-03 1.84183882e-03
      7.90356193e-03 1.02310730e-02 5.62082976e-03 1.03189107e-02
      3.53015633e-03 1.00562191e-02 5.90486825e-03 1.69383280e-03
      2.36807903e-03 1.01617547e-02 1.02313990e-02 5.62083721e-03
      1.03189386e-02 3.53015750e-03 1.00558428e-02 5.90487709e-03
      1.69349683e-03 2.36796518e-03 1.01620816e-02 1.31546957e-02
      7.22682849e-03 1.32673075e-02 4.53877775e-03 1.29286386e-02
      7.59198051e-03 2.17735954e-03 3.04452726e-03 1.30655756e-02
      3.11647030e-03 4.49898886e-03 8.13697465e-03 3.78615176e-03
      6.71770889e-03 2.74487864e-03 4.48286394e-03 3.90992546e-03
      4.43766685e-03 4.00659675e-03 5.78453019e-03 1.04622208e-02
      4.86786989e-03 8.63735564e-03 3.52932280e-03 5.76374587e-03
      5.02706971e-03 5.70527650e-03 4.00860049e-03 5.78507129e-03
      1.04621090e-02 4.86790715e-03 8.63625761e-03 3.52914096e-03
      5.76391956e-03 5.02667204e-03 5.70616033e-03 5.15353726e-03
      7.43809761e-03 1.34517914e-02 6.25868654e-03 1.11041460e-02
      4.53771558e-03 7.41083501e-03 6.46289298e-03 7.33611220e-03
      6.32259063e-03 2.79732491e-03 1.86866336e-03 1.58077711e-03
      6.44672848e-03 4.88508679e-03 5.70406299e-03 3.61501286e-03
      5.35106938e-03 8.12870450e-03 3.59658781e-03 2.40266952e-03
      2.03246227e-03 8.29033554e-03 6.28090510e-03 7.33328611e-03
      4.64793341e-03 6.87963841e-03 8.12891405e-03 3.59657570e-03
      2.40259990e-03 2.03242176e-03 8.28811619e-03 6.28083106e-03
      7.33362231e-03 4.64795344e-03 6.87983911e-03 1.04510225e-02
      4.62420378e-03 3.08918906e-03 2.61315773e-03 1.06583163e-02
      8.07545613e-03 9.42828879e-03 5.97601710e-03 8.84511136e-03
      2.50073476e-03 1.27943524e-03 2.75781099e-03 3.71111557e-03
      4.58462397e-03 2.41693854e-03 4.96453885e-03 4.52866172e-03
      4.74889576e-03 3.21555883e-03 1.64877996e-03 3.54562816e-03
      4.77157207e-03 5.89386420e-03 3.10749654e-03 6.38305768e-03
      5.82258962e-03 6.10604929e-03 3.21366382e-03 1.64918695e-03
      3.54759186e-03 4.77104308e-03 5.89430053e-03 3.10748909e-03
      6.38259994e-03 5.82213374e-03 6.10371958e-03 4.13227594e-03
      2.12525809e-03 4.56102286e-03 6.13437546e-03 7.57754734e-03
      3.99534823e-03 8.20630230e-03 7.48563278e-03 7.84805883e-03
      -1.79003808e-04 -2.65037437e-04 3.40448169e-05 2.13742303e-03
      8.51431862e-03 4.80945921e-03 5.46981813e-03 3.44671332e-03
      -2.06714892e-03 -2.30284641e-04 -3.40736791e-04 4.36791634e-05
      2.74776691e-03 1.09478934e-02 6.18361263e-03 7.03263981e-03
      4.43164911e-03 -2.65795994e-03 -2.34557156e-04 -3.40751489e-04
      4.40154363e-05 2.74863979e-03 1.09473746e-02 6.18332019e-03
      7.03245774e-03 4.43149172e-03 -2.66536232e-03 -3.01749504e-04
      -4.38076211e-04 5.64722541e-05 3.53351771e-03 1.40763689e-02
      7.95001164e-03 9.04175173e-03 5.69783803e-03 -3.42714717e-03
      1.96591648e-03 1.45328231e-03 3.55793536e-03 1.93709054e-03
      3.16667906e-03 2.90645775e-03 3.59225622e-03 1.97696825e-03
      1.50926830e-03 2.52744113e-03 1.86869362e-03 4.57508536e-03
      2.49055494e-03 4.07202030e-03 3.73685709e-03 4.61866800e-03
      2.54138792e-03 1.93969859e-03 2.52829981e-03 1.86850433e-03
      4.57442272e-03 2.49053747e-03 4.07097675e-03 3.73687292e-03
      4.61857067e-03 2.54245056e-03 1.94133120e-03 3.25045711e-03
      2.40260386e-03 5.88216819e-03 3.20213242e-03 5.23485336e-03
      4.80452878e-03 5.93823008e-03 3.26831406e-03 2.49498198e-03
      4.25541279e-04 1.34329451e-03 5.34368213e-03 1.41532137e-03
      6.48690993e-03 2.78910878e-03 -6.60166843e-05 -8.59804684e-04
      1.49997475e-03 5.46880648e-04 1.72707648e-03 6.87044160e-03
      1.81968685e-03 8.34047887e-03 3.58591811e-03 -8.47702613e-05
      -1.10542541e-03 1.92830863e-03 5.47467847e-04 1.72699522e-03
      6.87033636e-03 1.81970024e-03 8.34020227e-03 3.58599960e-03
      -8.47470219e-05 -1.10523961e-03 1.92980189e-03 7.03574624e-04
      2.22040061e-03 8.83328170e-03 2.33959896e-03 1.07233301e-02
      4.61046910e-03 -1.08821674e-04 -1.42097462e-03 2.48087803e-03
      3.18790227e-03 -8.95718171e-04 4.04678099e-03 1.02219556e-03
      3.72549496e-03 1.60802319e-03 1.62670074e-03 2.01505679e-03
      4.35448997e-03 4.09813132e-03 -1.15142623e-03 5.20361494e-03
      1.31424342e-03 4.78903344e-03 2.06746161e-03 2.09150976e-03
      2.59077945e-03 5.59801096e-03 4.09402698e-03 -1.15162239e-03
      5.20309946e-03 1.31425739e-03 4.78974264e-03 2.06743903e-03
      2.09166436e-03 2.59088422e-03 5.59387961e-03 5.26297837e-03
      -1.48038554e-03 6.69048307e-03 1.68974930e-03 6.15709834e-03
      2.65813991e-03 2.68933014e-03 3.33112665e-03 7.19133578e-03
      7.78083131e-03 -1.70090515e-03 -1.00145677e-04 1.44601718e-03
      2.91619217e-03 4.76709194e-03 -5.44998387e-04 -7.15517031e-04
      5.44313341e-03 1.00036692e-02 -2.18679360e-03 -1.28440239e-04
      1.85923849e-03 3.73993488e-03 6.12929929e-03 -6.99890486e-04
      -9.19727900e-04 6.99794292e-03 1.00045912e-02 -2.18704110e-03
      -1.29263630e-04 1.85916515e-03 3.74952029e-03 6.12912700e-03
      -7.00379023e-04 -9.19748854e-04 6.99895015e-03 1.28627168e-02
      -2.81180185e-03 -1.65787686e-04 2.39044963e-03 4.80865454e-03
      7.88053870e-03 -8.99431354e-04 -1.18224777e-03 8.99817329e-03
      4.17429954e-03 4.35007940e-04 -9.13068594e-04 1.37347856e-03
      6.11827197e-03 2.34560831e-03 1.12094230e-03 4.13601426e-03
      2.33853888e-03 5.36726974e-03 5.59500768e-04 -1.17351464e-03
      1.76598213e-03 7.86646083e-03 3.01569747e-03 1.44167291e-03
      5.31792501e-03 3.00702290e-03 5.35958679e-03 5.59559907e-04
      -1.17322349e-03 1.76594860e-03 7.86595698e-03 3.01578315e-03
      1.44116976e-03 5.31670405e-03 2.99915555e-03 6.89129997e-03
      7.19697506e-04 -1.50787656e-03 2.27060984e-03 1.01135159e-02
      3.87732708e-03 1.85352494e-03 6.83600968e-03 3.85648129e-03
      8.49978242e-04 4.40162746e-03 4.36700135e-03 2.08379771e-03
      3.79187404e-03 2.09693494e-03 1.32127141e-03 1.11735694e-03
      -2.33442080e-03 1.09236746e-03 5.65932179e-03 5.61501784e-03
      2.67918874e-03 4.87594120e-03 2.69548479e-03 1.69829477e-03
      1.43655133e-03 -3.00185010e-03 1.09239831e-03 5.65915601e-03
      5.61436219e-03 2.67916918e-03 4.87479009e-03 2.69631809e-03
      1.69844856e-03 1.43657450e-03 -3.00184824e-03 1.40391779e-03
      7.27616949e-03 7.21885357e-03 3.44467280e-03 6.26845518e-03
      3.46595608e-03 2.18309904e-03 1.84695923e-03 -3.86010041e-03
      -1.70849729e-04 3.76039697e-03 3.17491428e-03 3.46285244e-03
      4.85729985e-03 3.71709163e-03 1.57467474e-03 9.32179741e-04
      2.92352226e-04 -2.19723777e-04 4.83458955e-03 4.08219034e-03
      4.45173215e-03 6.24450110e-03 4.77930345e-03 2.02460098e-03
      1.19860470e-03 3.75948119e-04 -2.20852497e-04 4.83495649e-03
      4.08243248e-03 4.45234263e-03 6.24500448e-03 4.77920938e-03
      2.02445360e-03 1.19849434e-03 3.73649877e-04 -2.84030481e-04
      6.21610740e-03 5.24904393e-03 5.72378887e-03 8.02852213e-03
      6.14493620e-03 2.60289363e-03 1.54103385e-03 4.80492396e-04
      2.28735013e-03 2.44984287e-03 5.26681170e-03 1.67618669e-03
      6.08881470e-03 -4.88036283e-04 4.18138457e-03 6.57939236e-04
      3.12032527e-03 2.94028595e-03 3.14975018e-03 6.77158404e-03
      2.15509557e-03 7.82871712e-03 -6.27469213e-04 5.37650613e-03
      8.46064300e-04 4.01128316e-03 2.94088409e-03 3.14978533e-03
      6.77154120e-03 2.15506414e-03 7.82834273e-03 -6.27493311e-04
      5.37577225e-03 8.45827220e-04 4.01183404e-03 3.78037430e-03
      4.04966250e-03 8.70622788e-03 2.77079502e-03 1.00653227e-02
      -8.06770287e-04 6.91227382e-03 1.08767534e-03 5.15734684e-03
      -1.01471914e-03 4.54049325e-04 5.23612974e-03 3.39445192e-03
      5.80375129e-03 2.77725718e-04 4.93364083e-03 2.35994183e-03
      1.32314698e-03 -1.30518025e-03 5.83634072e-04 6.73173415e-03
      4.36421810e-03 7.46200839e-03 3.57077719e-04 6.34352723e-03
      3.03430855e-03 1.70066929e-03 -1.31055329e-03 5.83363581e-04
      6.73174392e-03 4.36426792e-03 7.46146403e-03 3.57079378e-04
      6.34292373e-03 3.03407689e-03 1.69529615e-03 -1.68569328e-03
      7.49854138e-04 8.65454320e-03 5.61110256e-03 9.59336571e-03
      4.59104282e-04 8.15554056e-03 3.90108209e-03 2.17899843e-03
      3.36137181e-03 1.14153256e-03 5.12251258e-03 4.26414562e-03
      6.37027249e-03 2.62819207e-03 2.18604226e-03 -1.11457438e-03
      2.22892780e-03 4.32172557e-03 1.46756589e-03 6.58571068e-03
      5.48247434e-03 8.19229148e-03 3.38218058e-03 2.81088962e-03
      -1.43294327e-03 2.86573661e-03 4.32155887e-03 1.46752037e-03
      6.58568088e-03 5.48196165e-03 8.18896107e-03 3.37912887e-03
      2.81059626e-03 -1.43303780e-03 2.86556152e-03 5.55624021e-03
      1.88665930e-03 8.46682023e-03 7.04823853e-03 1.05311610e-02
      4.34854953e-03 3.61396349e-03 -1.84237398e-03 3.68425786e-03
      4.34415555e-03 2.06769770e-03 4.19841427e-03 2.16593547e-03
      3.24569526e-03 1.76709390e-03 6.92317588e-03 1.01190596e-03
      4.10712697e-03 5.58476616e-03 2.65793153e-03 5.39779570e-03
      2.78478232e-03 4.17280942e-03 2.27195886e-03 8.90135486e-03
      1.30107207e-03 5.28013241e-03 5.58493380e-03 2.65833852e-03
      5.39770629e-03 2.78477836e-03 4.17245924e-03 2.27158819e-03
      8.90129339e-03 1.30157080e-03 5.28031541e-03 7.17988750e-03
      3.41717387e-03 6.93969429e-03 3.58043984e-03 5.36429835e-03
      2.92058894e-03 1.14446860e-02 1.67351193e-03 6.78838696e-03
      6.63201557e-03 1.49616937e-03 4.02949518e-03 3.00416048e-03
      5.13590546e-03 2.80673616e-03 4.56695067e-04 -2.20206892e-03
      5.59689989e-03 8.52654409e-03 1.92364072e-03 5.18074306e-03
      3.86247574e-03 6.60382677e-03 3.60844331e-03 5.87028509e-04
      -2.83118174e-03 7.19568180e-03 8.52693152e-03 1.92336994e-03
      5.18033328e-03 3.86249018e-03 6.60303747e-03 3.60866985e-03
      5.88162919e-04 -2.83032167e-03 7.19610276e-03 1.09627685e-02
      2.47289729e-03 6.66038040e-03 4.96603828e-03 8.49028770e-03
      4.63943882e-03 7.56015303e-04 -3.63892224e-03 9.25170537e-03
      6.63370453e-03 4.42830799e-03 4.80861263e-03 2.45633395e-03
      6.74524438e-03 7.53618253e-04 5.14287176e-03 8.45381990e-04
      4.25541680e-03 8.52878299e-03 5.69355860e-03 6.18257280e-03
      3.15814186e-03 8.67303554e-03 9.68937820e-04 6.61304314e-03
      1.08716125e-03 5.47097763e-03 8.52429401e-03 5.69360889e-03
      6.18276419e-03 3.15819331e-03 8.67240690e-03 9.68931359e-04
      6.61138771e-03 1.08671410e-03 5.46888588e-03 1.09594660e-02
      7.32037984e-03 7.94935878e-03 4.06053197e-03 1.11509813e-02
      1.24576909e-03 8.50135740e-03 1.39751448e-03 7.03107566e-03
      7.34118419e-03 4.58194967e-03 5.99865895e-03 1.87501661e-03
      8.28857720e-03 1.34540268e-03 -2.63967959e-04 1.55861897e-03
      7.23588513e-03 9.43903811e-03 5.89108234e-03 7.71257840e-03
      2.41073919e-03 1.06585165e-02 1.72979757e-03 -3.39532533e-04
      2.00403039e-03 9.30367503e-03 9.43881739e-03 5.89110376e-03
      7.71262730e-03 2.41073687e-03 1.06554739e-02 1.72981003e-03
      -3.39603401e-04 2.00382783e-03 9.30343848e-03 1.21361017e-02
      7.57428212e-03 9.91625618e-03 3.09952325e-03 1.37021765e-02
      2.22403370e-03 -4.36820352e-04 2.57646851e-03 1.19620701e-02
      6.92739664e-03 2.63290107e-03 4.20222944e-03 3.63060320e-03
      1.13542136e-02 2.12436588e-03 5.60407853e-03 4.47976030e-03
      7.05976877e-03 8.90642777e-03 3.38520599e-03 5.40303299e-03
      4.66791680e-03 1.45974103e-02 2.73133442e-03 7.20526511e-03
      5.75981941e-03 9.07671358e-03 8.90647247e-03 3.38530540e-03
      5.40331518e-03 4.66792472e-03 1.45977186e-02 2.73125293e-03
      7.20474962e-03 5.75953536e-03 9.07667819e-03 1.14508895e-02
      4.35259612e-03 6.94733346e-03 6.00161543e-03 1.87673848e-02
      3.51161952e-03 9.26327612e-03 7.40528107e-03 1.16698444e-02
      6.88757654e-03 5.22565376e-03 1.02818711e-02 4.41128993e-03
      7.98029453e-03 2.09676824e-03 3.69375641e-03 3.19394795e-03
      7.06123235e-03 8.85542482e-03 6.71871146e-03 1.32196033e-02
      5.67166135e-03 1.02637764e-02 2.69839633e-03 4.74935025e-03
      4.10630042e-03 9.07864049e-03 8.85597803e-03 6.71867840e-03
      1.32196182e-02 5.67166600e-03 1.02599701e-02 2.69584008e-03
      4.74830298e-03 4.10635723e-03 9.07973200e-03 1.13862175e-02
      8.63831956e-03 1.69967208e-02 7.29214586e-03 1.31957587e-02
      3.46936099e-03 6.10526325e-03 5.27933985e-03 1.16738304e-02
      8.69223755e-03 4.35838988e-03 4.41877963e-03 4.34543379e-03
      9.33847670e-03 2.69101840e-03 5.38296672e-03 4.80031036e-03
      1.04284985e-02 1.11757452e-02 5.60340891e-03 5.68090612e-03
      5.58698410e-03 1.20077897e-02 3.45989247e-03 6.92176307e-03
      6.17210055e-03 1.34081030e-02 1.11758914e-02 5.60343731e-03
      5.68067376e-03 5.58655104e-03 1.20066898e-02 3.45987664e-03
      6.92008063e-03 6.17173081e-03 1.34082204e-02 1.43690165e-02
      7.20411725e-03 7.30323233e-03 7.18270615e-03 1.54386861e-02
      4.44842782e-03 8.89828149e-03 7.93543365e-03 1.72391832e-02
      4.77567408e-03 4.71699890e-03 5.79778617e-03 4.53780033e-03
      6.67246059e-03 3.22028645e-03 5.46562998e-03 3.83923319e-03
      3.71963414e-03 6.14036852e-03 6.06463337e-03 7.45412428e-03
      5.83431730e-03 8.57707206e-03 4.13943455e-03 7.02761672e-03
      4.93628066e-03 4.78263665e-03 6.14050217e-03 6.06493652e-03
      7.45443348e-03 5.83429309e-03 8.57947953e-03 4.14008740e-03
      7.02767028e-03 4.93630208e-03 4.78270883e-03 7.89520983e-03
      7.79767334e-03 9.58405063e-03 7.50123709e-03 1.10284379e-02
      5.32176904e-03 9.03606229e-03 6.34683296e-03 6.14951877e-03
      3.73884989e-03 4.76893829e-03 5.14776167e-03 3.02820047e-03
      4.83470829e-03 1.55746180e-03 5.13412990e-03 2.42577540e-03
      3.40929115e-03 4.80719050e-03 6.13131886e-03 6.61784876e-03
      3.89307085e-03 6.21588295e-03 2.00232468e-03 6.60112780e-03
      3.11890617e-03 4.38346853e-03 4.80672391e-03 6.13157311e-03
      6.61831629e-03 3.89329786e-03 6.21598260e-03 2.00245110e-03
      6.60074176e-03 3.11875297e-03 4.38297773e-03 6.18019979e-03
      7.88322929e-03 8.50836094e-03 5.00524463e-03 7.99175818e-03
      2.57441751e-03 8.48680083e-03 4.00989270e-03 5.63537795e-03
      8.15824512e-03 1.30529096e-03 1.41202530e-03 -2.69831478e-04
      4.99746297e-03 4.28871205e-03 6.04357990e-03 4.14174702e-03
      6.27654837e-03 1.04882969e-02 1.67523313e-03 1.81427167e-03
      -3.46781453e-04 6.42560516e-03 5.51403221e-03 7.77009455e-03
      5.32502728e-03 8.06951243e-03 1.04877083e-02 1.67306117e-03
      1.81508681e-03 -3.47941561e-04 6.42452389e-03 5.51406248e-03
      7.77052809e-03 5.32550644e-03 8.06990545e-03 1.34830708e-02
      2.14722450e-03 2.33215257e-03 -4.47167549e-04 8.26048199e-03
      7.08947564e-03 9.99039318e-03 6.84698252e-03 1.03751626e-02
      4.06388193e-03 -1.45142816e-03 -9.36475175e-04 1.74034620e-03
      9.06385668e-03 2.26519373e-03 4.40767547e-03 3.17703863e-03
      1.83931773e-03 5.22468891e-03 -1.86618080e-03 -1.20416877e-03
      2.23777699e-03 1.16538201e-02 2.91239959e-03 5.66701125e-03
      4.08460014e-03 2.36531254e-03 5.22486959e-03 -1.86621898e-03
      -1.20449474e-03 2.23722449e-03 1.16538480e-02 2.91265571e-03
      5.66689810e-03 4.08475008e-03 2.36492441e-03 6.71730144e-03
      -2.39949976e-03 -1.54880260e-03 2.87667429e-03 1.49838924e-02
      3.74485296e-03 7.28601171e-03 5.25161019e-03 3.04122898e-03
      1.59720087e-03 1.00977987e-03 4.33004927e-03 1.57793530e-03
      3.88953043e-03 1.81211054e-03 2.07337178e-03 2.57548131e-03
      1.12684676e-03 2.05314625e-03 1.29828230e-03 5.56718744e-03
      2.02878681e-03 5.00212563e-03 2.32986291e-03 2.66577327e-03
      3.31133301e-03 1.44840160e-03 2.05380330e-03 1.29835424e-03
      5.56739513e-03 2.02877400e-03 5.00045996e-03 2.32988643e-03
      2.66636629e-03 3.31154838e-03 1.44813838e-03 2.64009298e-03
      1.66930468e-03 7.15805497e-03 2.60843965e-03 6.43083500e-03
      2.99557671e-03 3.42819770e-03 4.25770506e-03 1.86137564e-03
      2.33681151e-03 3.32880719e-03 3.95804236e-04 5.11343265e-03
      4.30652779e-03 1.36147696e-03 3.33671365e-03 2.07602023e-03
      -1.53656036e-03 3.00458097e-03 4.27984353e-03 5.08712546e-04
      6.57440303e-03 5.53796627e-03 1.75046676e-03 4.29005362e-03
      2.66897306e-03 -1.97549397e-03 3.00382753e-03 4.27977601e-03
      5.09392295e-04 6.57451432e-03 5.53706149e-03 1.75047503e-03
      4.28949576e-03 2.66898843e-03 -1.97605928e-03 3.86220426e-03
      5.50250243e-03 6.54702773e-04 8.45293235e-03 7.12036714e-03
      2.25060643e-03 5.51505759e-03 3.43130459e-03 -2.54054065e-03
      -9.90126049e-04 1.05323689e-03 1.76705630e-03 -1.64578692e-03
      2.69047078e-03 2.90389452e-03 5.50791761e-03 1.90223043e-03
      -2.43244623e-03 -1.27335044e-03 1.35420868e-03 2.27206526e-03
      -2.11601937e-03 3.45975952e-03 3.73357930e-03 7.08204694e-03
      2.44586705e-03 -3.12775606e-03 -1.27262017e-03 1.35417143e-03
      2.27190717e-03 -2.11601029e-03 3.45797022e-03 3.73357208e-03
      7.08118500e-03 2.44557485e-03 -3.12702800e-03 -1.63665169e-03
      1.74113770e-03 2.92119733e-03 -2.72059417e-03 4.44671139e-03
      4.80030803e-03 9.10494383e-03 3.14449379e-03 -4.02088324e-03
      2.49709818e-03 3.92039772e-03 2.73184618e-03 9.85995750e-04
      7.26410747e-03 -2.33227294e-03 2.42378004e-03 -8.60358006e-04
      3.27106827e-04 3.21068149e-03 5.04010823e-03 3.51121416e-03
      1.26774167e-03 9.33931209e-03 -2.99857720e-03 3.11662140e-03
      -1.10608595e-03 4.20696568e-04 3.21060442e-03 5.04036015e-03
      3.51181603e-03 1.26770651e-03 9.33881942e-03 -2.99862749e-03
      3.11628822e-03 -1.10616977e-03 4.20679833e-04 4.12808219e-03
      6.47994550e-03 4.51370096e-03 1.62995071e-03 1.20067270e-02
      -3.85530200e-03 4.00708383e-03 -1.42210489e-03 5.41041256e-04
      -4.40074873e-05 3.79473763e-03 1.37656403e-03 1.93814677e-03
      7.49490876e-03 1.13827584e-03 2.48720706e-03 -1.84629392e-03
      1.16996211e-03 -5.67457864e-05 4.87886602e-03 1.76972197e-03
      2.49281665e-03 9.63672623e-03 1.46341661e-03 3.19837523e-03
      -2.37361947e-03 1.50407420e-03 -5.64207548e-05 4.87894146e-03
      1.77004014e-03 2.49201735e-03 9.63645987e-03 1.46350567e-03
      3.19784647e-03 -2.37403903e-03 1.50068884e-03 -7.27543666e-05
      6.27281889e-03 2.27557751e-03 3.20519693e-03 1.23902671e-02
      1.88154599e-03 4.11220826e-03 -3.05209518e-03 1.92924670e-03
      4.03301604e-03 6.21257024e-03 3.91578907e-03 1.77808839e-03
      1.53835316e-03 3.45218484e-03 1.82690436e-03 -1.90402148e-03
      1.70638284e-03 5.18538849e-03 7.98749272e-03 5.03476802e-03
      2.28612497e-03 1.97776267e-03 4.43852320e-03 2.34878133e-03
      -2.44807196e-03 2.19402974e-03 5.18125389e-03 7.98789319e-03
      5.03552146e-03 2.28628539e-03 1.97790959e-03 4.43855673e-03
      2.34880461e-03 -2.44805263e-03 2.19160179e-03 6.66171778e-03
      1.02700237e-02 6.47447677e-03 2.93952459e-03 2.54287221e-03
      5.70671540e-03 3.01976921e-03 -3.14755295e-03 2.81791389e-03
      -1.64559064e-03 3.92761733e-03 2.36587506e-03 1.79323647e-03
      3.70480493e-03 2.14192970e-03 4.82526887e-03 2.57660262e-03
      -1.85729074e-03 -2.11629318e-03 5.04981633e-03 3.04200267e-03
      2.30560312e-03 4.76382440e-03 2.75430665e-03 6.20455947e-03
      3.31328716e-03 -2.38842587e-03 -2.11532554e-03 5.04963147e-03
      3.04145948e-03 2.30558496e-03 4.76308260e-03 2.75361794e-03
      6.20319229e-03 3.31228669e-03 -2.38753785e-03 -2.72039138e-03
      6.49241172e-03 3.91065702e-03 2.96434038e-03 6.12461194e-03
      3.54087679e-03 7.97635783e-03 4.25931253e-03 -3.07030976e-03
      2.62470893e-03 -2.84817885e-04 2.29950459e-03 4.07332927e-03
      5.82320662e-03 3.22294468e-03 1.78331940e-03 5.05528366e-03
      -5.15506545e-04 3.37508391e-03 -3.66082939e-04 2.95678410e-03
      5.23715559e-03 7.48666050e-03 4.14380245e-03 2.29325681e-03
      6.50013704e-03 -6.62272098e-04 3.36498837e-03 -3.66086431e-04
      2.95679551e-03 5.23713510e-03 7.48648588e-03 4.14358918e-03
      2.29214481e-03 6.49894914e-03 -6.75029354e-04 4.32700291e-03
      -4.70538653e-04 3.80195212e-03 6.73348224e-03 9.62507166e-03
      5.32749249e-03 2.94758007e-03 8.35641660e-03 -8.67223134e-04
      3.05835111e-03 5.87959029e-03 6.10840414e-03 3.92516796e-03
      6.66576205e-03 2.00574170e-03 5.22512302e-04 -1.97002455e-03
      7.08138861e-04 3.93284950e-03 7.55944755e-03 7.85358995e-03
      5.04664797e-03 8.57094396e-03 2.57797446e-03 6.71783055e-04
      -2.53279717e-03 9.11134819e-04 3.92507622e-03 7.55923893e-03
      7.85304047e-03 5.04669501e-03 8.56989436e-03 2.57891975e-03
      6.71583170e-04 -2.53268215e-03 9.02561878e-04 5.04740607e-03
      9.71898809e-03 1.00966720e-02 6.48861192e-03 1.10193072e-02
      3.31467832e-03 8.63439986e-04 -3.25618731e-03 1.16129941e-03
      -4.14790033e-04 1.80898199e-03 7.49682728e-03 1.19463436e-03
      7.94009585e-03 2.32507731e-03 2.16734316e-03 1.77819107e-03
      1.39986898e-03 -5.33521757e-04 2.32597464e-03 9.63901076e-03
      1.53554836e-03 1.02082826e-02 2.98939436e-03 2.78654159e-03
      2.28623371e-03 1.79965724e-03 -5.33304352e-04 2.32558325e-03
      9.63903684e-03 1.53600867e-03 1.02079948e-02 2.98998458e-03
      2.78684171e-03 2.28701183e-03 1.79989543e-03 -6.85960404e-04
      2.99021648e-03 1.23933451e-02 1.97434146e-03 1.31240357e-02
      3.84427747e-03 3.58302798e-03 2.94042844e-03 2.31392775e-03
      -2.14719633e-03 1.96464546e-03 5.72392764e-03 3.01938434e-03
      6.49921782e-03 2.56126688e-04 3.34204268e-03 3.05106328e-03
      1.18568249e-03 -2.76090181e-03 2.52662739e-03 7.35918805e-03
      3.88207217e-03 8.35685432e-03 3.29314847e-04 4.29626415e-03
      3.92269809e-03 1.52410613e-03 -2.76799314e-03 2.52613076e-03
      7.35982135e-03 3.88206868e-03 8.35614838e-03 3.29301693e-04
      4.29680850e-03 3.92277306e-03 1.51627313e-03 -3.55913211e-03
      3.24872439e-03 9.46243759e-03 4.99123987e-03 1.07445410e-02
      4.23399382e-04 5.52363554e-03 5.04343957e-03 1.94905268e-03
      -6.11714786e-05 1.94705278e-03 6.28289394e-03 2.00395263e-03
      9.41521581e-03 -2.31174636e-04 -5.33466635e-04 1.81078375e-03
      1.09363266e-03 -7.81837807e-05 2.50334619e-03 8.07794277e-03
      2.57650949e-03 1.21048242e-02 -2.97119492e-04 -6.85976585e-04
      2.32807035e-03 1.40647811e-03 -7.90667764e-05 2.50330148e-03
      8.07805266e-03 2.57680868e-03 1.21054621e-02 -2.97214894e-04
      -6.85329898e-04 2.32833833e-03 1.40599976e-03 -1.01059406e-04
      3.21852136e-03 1.03859846e-02 3.31303803e-03 1.55635830e-02
      -3.81998747e-04 -8.81254848e-04 2.99347518e-03 1.80820038e-03
      4.95150033e-03 1.17313745e-03 3.59305786e-03 3.64362425e-03
      7.37116858e-03 9.51658934e-04 1.73719702e-04 -5.79756801e-04
      3.99308139e-03 6.36635441e-03 1.50824396e-03 4.61943634e-03
      4.68465127e-03 9.47751757e-03 1.22356764e-03 2.23026553e-04
      -7.45520229e-04 5.13409637e-03 6.36656163e-03 1.50803337e-03
      4.61881142e-03 4.68465500e-03 9.47675295e-03 1.22355553e-03
      2.22963878e-04 -7.45509402e-04 5.13424072e-03 8.18575919e-03
      1.93880347e-03 5.93820168e-03 6.02311781e-03 1.21847838e-02
      1.57315086e-03 2.86244962e-04 -9.58665041e-04 6.60133921e-03
      8.73236451e-03 4.26749745e-03 7.88827799e-03 1.84958277e-03
      6.21562265e-03 3.75359028e-04 -3.62795545e-03 -7.80565781e-04
      6.52041985e-03 1.12274624e-02 5.48682502e-03 1.01422248e-02
      2.37803743e-03 7.99216423e-03 4.82866337e-04 -4.66398010e-03
      -1.00345816e-03 8.38352460e-03 1.12180812e-02 5.48681850e-03
      1.01422025e-02 2.37803138e-03 7.99148344e-03 4.82610427e-04
      -4.66508418e-03 -1.00412359e-03 8.37498996e-03 1.44234234e-02
      7.05453660e-03 1.30401701e-02 3.05747194e-03 1.02755995e-02
      6.20835577e-04 -5.99727780e-03 -1.29085372e-03 1.07680093e-02
      2.91392300e-03 3.21886037e-03 7.65099237e-03 3.83402780e-03
      4.89878701e-03 6.77241595e-04 1.85892498e-03 1.91275554e-03
      3.38932825e-03 3.74595146e-03 4.13848646e-03 9.83684976e-03
      4.92945733e-03 6.29917812e-03 8.70743126e-04 2.39007734e-03
      2.45927065e-03 4.35720524e-03 3.74551327e-03 4.13836166e-03
      9.83669329e-03 4.92946478e-03 6.29840745e-03 8.70745222e-04
      2.39033881e-03 2.45936587e-03 4.35710093e-03 4.81499080e-03
      5.32068918e-03 1.26469936e-02 6.33787410e-03 8.09890032e-03
      1.11953425e-03 3.07333190e-03 3.16205900e-03 5.60134230e-03
      9.29551944e-03 3.40175931e-03 5.11407945e-03 3.14419926e-03
      6.05354086e-03 -1.18740171e-03 2.48923711e-03 1.96455512e-03
      7.15889642e-03 1.19522121e-02 4.37387452e-03 6.57514436e-03
      4.04253090e-03 7.78338080e-03 -1.52664701e-03 3.20090493e-03
      2.52544205e-03 9.20496415e-03 1.19508561e-02 4.37360723e-03
      6.57499116e-03 4.04254114e-03 7.78292352e-03 -1.52665877e-03
      3.20013682e-03 2.52557686e-03 9.19967797e-03 1.53664537e-02
      5.62344538e-03 8.45343061e-03 5.19753853e-03 1.00069456e-02
      -1.96283124e-03 4.11504926e-03 3.24663729e-03 1.18290177e-02
      4.16613184e-03 4.02367488e-03 7.88672362e-03 3.34854564e-03
      1.30539164e-02 3.88756185e-03 2.55434820e-03 2.66493578e-03
      2.92027206e-03 5.35633462e-03 5.17329434e-03 1.01400651e-02
      4.30527143e-03 1.67841911e-02 4.99871187e-03 3.28406552e-03
      3.42623866e-03 3.75450798e-03 5.35560818e-03 5.17338142e-03
      1.01403492e-02 4.30527702e-03 1.67825092e-02 4.99823689e-03
      3.28500266e-03 3.42653273e-03 3.75375547e-03 6.88562682e-03
      6.65148767e-03 1.30375791e-02 5.53535391e-03 2.15782635e-02
      6.42684149e-03 4.22345055e-03 4.40540444e-03 4.82609309e-03
      3.91775556e-03 2.75560585e-03 4.63539595e-03 3.43489740e-03
      1.00054452e-02 3.04869260e-03 6.48935698e-03 3.83627391e-03
      5.34459203e-03 5.03699062e-03 3.54292849e-03 5.95980044e-03
      4.41629626e-03 1.28647331e-02 3.91973928e-03 8.34371243e-03
      4.93247481e-03 6.87149260e-03 5.03798900e-03 3.54254851e-03
      5.95986983e-03 4.41629952e-03 1.28638893e-02 3.91973276e-03
      8.34331382e-03 4.93231788e-03 6.87257899e-03 6.47725537e-03
      4.55471361e-03 7.66269676e-03 5.67809865e-03 1.65400431e-02
      5.03964536e-03 1.07274447e-02 6.34170976e-03 8.83601140e-03
      6.15142984e-03 3.24171642e-03 4.93907603e-03 3.85475112e-03
      4.02194774e-03 4.23069298e-03 4.63495171e-03 3.91318137e-03
      6.49172068e-03 7.90829584e-03 4.16786550e-03 6.34970935e-03
      4.95579792e-03 5.17025823e-03 5.43928985e-03 5.95863722e-03
      5.03117079e-03 8.34582001e-03 7.90979806e-03 4.16757446e-03
      6.34910539e-03 4.95579140e-03 5.17063262e-03 5.43946028e-03
      5.95920952e-03 5.03122760e-03 8.34731106e-03 1.01688607e-02
      5.35823870e-03 8.16245191e-03 6.37133187e-03 6.64690556e-03
      6.99336966e-03 7.66108697e-03 6.46864111e-03 1.07313860e-02
      6.51664520e-03 2.28896854e-03 -6.95493829e-04 -5.86287875e-04
      6.26239274e-03 2.91654211e-03 5.77243418e-03 3.91839491e-03
      6.25996385e-03 8.37762468e-03 2.94319447e-03 -8.94188590e-04
      -7.53804925e-04 8.05008970e-03 3.74983437e-03 7.42192613e-03
      5.03792521e-03 8.04826152e-03 8.37844517e-03 2.94288015e-03
      -8.93976248e-04 -7.53156375e-04 8.05066153e-03 3.74984345e-03
      7.42149632e-03 5.03785815e-03 8.04857071e-03 1.07711041e-02
      3.78400530e-03 -1.14937616e-03 -9.68351786e-04 1.03488471e-02
      4.82121995e-03 9.54221375e-03 6.47723256e-03 1.03478245e-02
      6.92613004e-03 6.63332641e-04 -6.90823933e-03 4.91841522e-04
      1.11580044e-02 3.72990617e-03 4.60183015e-03 2.74154870e-03
      5.07678883e-03 8.90434813e-03 8.52882222e-04 -8.89032613e-03
      6.30234601e-04 1.43443262e-02 4.79432242e-03 5.91647858e-03
      3.52467038e-03 6.52584899e-03 8.90391879e-03 8.52980244e-04
      -8.88633542e-03 6.29158283e-04 1.43450974e-02 4.79613105e-03
      5.91784250e-03 3.52567527e-03 6.52740942e-03 1.14470264e-02
      1.09672209e-03 -1.14359651e-02 8.06174881e-04 1.84415374e-02
      6.16481947e-03 7.60844909e-03 4.53278190e-03 8.39051884e-03
      5.29297255e-03 3.70903616e-03 -2.27733981e-03 1.45265437e-03
      2.70378520e-03 6.89435110e-04 3.76360654e-03 5.06284740e-03
      5.49692893e-03 6.80505717e-03 4.76878788e-03 -2.92791193e-03
      1.86768174e-03 3.47648514e-03 8.86418333e-04 4.83884616e-03
      6.50920905e-03 7.06725894e-03 6.80502085e-03 4.76871850e-03
      -2.92810518e-03 1.86769501e-03 3.47684370e-03 8.86415946e-04
      4.83890111e-03 6.50927052e-03 7.06726080e-03 8.74906406e-03
      6.13124436e-03 -3.76458257e-03 2.40130117e-03 4.47047176e-03
      1.13967957e-03 6.22134563e-03 8.36884882e-03 9.08619445e-03
      1.84429518e-03 1.57403562e-03 4.09414759e-03 -2.42116768e-03
      2.78862542e-03 4.06113500e-03 5.05123939e-03 7.77565502e-03
      4.09141695e-03 2.37075053e-03 2.02415907e-03 5.26511390e-03
      -3.11291334e-03 3.58487293e-03 5.22137154e-03 6.49444154e-03
      9.99721605e-03 5.25989942e-03 2.37070746e-03 2.02379772e-03
      5.26431203e-03 -3.11292917e-03 3.58471018e-03 5.22144232e-03
      6.49458263e-03 9.99731291e-03 5.25985332e-03 3.04742693e-03
      2.60253856e-03 6.76995609e-03 -4.00231546e-03 4.60826699e-03
      6.71316963e-03 8.35016556e-03 1.28536178e-02 6.76203426e-03
      3.81080928e-04 3.96075146e-03 2.82534445e-03 1.38054567e-03
      1.94049359e-03 2.52306368e-03 3.01465252e-03 3.79141676e-03
      1.07745465e-03 4.89304541e-04 5.09254215e-03 3.63302883e-03
      1.77498662e-03 2.49499059e-03 3.24392319e-03 3.87598225e-03
      4.87436913e-03 1.38459424e-03 4.73780732e-04 5.09246439e-03
      3.63252289e-03 1.77499605e-03 2.49349535e-03 3.24391620e-03
      3.87534010e-03 4.87452047e-03 1.37130567e-03 6.08302536e-04
      6.54764334e-03 4.67095524e-03 2.28213682e-03 3.20601370e-03
      4.17072931e-03 4.98257997e-03 6.26684306e-03 1.76220178e-03
      3.61768529e-03 4.45639994e-03 -1.46591116e-03 -4.52816719e-04
      5.25343092e-03 4.35756845e-03 3.96624999e-03 3.00062122e-03
      5.44833834e-04 4.65124287e-03 5.72968507e-03 -1.88464927e-03
      -5.82290115e-04 6.75442349e-03 5.60260238e-03 5.09940367e-03
      3.85791343e-03 7.00410979e-04 4.64752689e-03 5.72982477e-03
      -1.88507687e-03 -5.82201756e-04 6.75438624e-03 5.60258795e-03
      5.09929704e-03 3.85788502e-03 6.96774805e-04 5.97530650e-03
      7.36695342e-03 -2.42355024e-03 -7.48670485e-04 8.68422631e-03
      7.20334565e-03 6.55616075e-03 4.96010203e-03 8.95737438e-04
      3.17010493e-03 5.28664840e-03 1.49273279e-03 1.43680908e-03
      1.15011993e-03 -1.17099704e-03 5.19088469e-03 -1.90971838e-03
      -1.07177813e-03 4.07597190e-03 6.79799542e-03 1.91959913e-03
      1.84731279e-03 1.47795794e-03 -1.50555477e-03 6.67413324e-03
      -2.45531998e-03 -1.37800502e-03 4.07505594e-03 6.79728808e-03
      1.92005781e-03 1.84791791e-03 1.47826562e-03 -1.50556583e-03
      6.67350413e-03 -2.45553255e-03 -1.37884624e-03 5.23951603e-03
      8.74049682e-03 2.46912357e-03 2.37587770e-03 1.89963973e-03
      -1.93571066e-03 8.58039781e-03 -3.15707154e-03 -1.77280768e-03
      7.53995322e-04 2.28103716e-03 1.66241406e-03 2.34852056e-03
      1.27692346e-03 2.50286888e-03 2.04063649e-03 -9.97653115e-04
      -1.66740816e-03 9.69469082e-04 2.93265935e-03 2.13714922e-03
      3.01953894e-03 1.64220552e-03 3.21798585e-03 2.62328540e-03
      -1.28284958e-03 -2.14375765e-03 9.69695218e-04 2.93327053e-03
      2.13724398e-03 3.01949470e-03 1.64149900e-03 3.21796932e-03
      2.62318878e-03 -1.28284504e-03 -2.14401353e-03 1.24680996e-03
      3.77121591e-03 2.74757575e-03 3.88222304e-03 2.11107288e-03
      4.13740426e-03 3.37216957e-03 -1.64956925e-03 -2.75652087e-03
      1.79037824e-03 5.60651626e-03 3.67458537e-03 1.45808200e-03
      3.66802257e-03 1.39024912e-03 -2.35606940e-03 7.62884665e-05
      1.68575847e-03 2.30192137e-03 7.20835617e-03 4.72446112e-03
      1.87466561e-03 4.71681589e-03 1.78735016e-03 -3.02918814e-03
      9.81437115e-05 2.16743792e-03 2.29427870e-03 7.20827188e-03
      4.72443923e-03 1.87469821e-03 4.71602008e-03 1.78744283e-03
      -3.02885380e-03 9.81835474e-05 2.16140598e-03 2.94979592e-03
      9.26775020e-03 6.07427070e-03 2.41031172e-03 6.06446574e-03
      2.29799584e-03 -3.89418425e-03 1.26311817e-04 2.77899485e-03
      3.49309586e-04 1.78813434e-03 5.00320597e-03 2.20757560e-04
      5.48297167e-03 4.69277427e-03 1.14455307e-03 -1.80049217e-03
      7.00016040e-04 4.49095329e-04 2.29901448e-03 6.43264782e-03
      2.83836824e-04 7.05096219e-03 6.03355933e-03 1.47159025e-03
      -2.31431611e-03 9.00400861e-04 4.43718745e-04 2.29901937e-03
      6.43302128e-03 2.83831730e-04 7.04847462e-03 6.03303080e-03
      1.47153798e-03 -2.31496012e-03 8.95084348e-04 5.70472097e-04
      2.95586232e-03 8.27096775e-03 3.64933599e-04 9.06416029e-03
      7.75674451e-03 1.89200649e-03 -2.97560170e-03 1.15131179e-03
      8.41142086e-04 1.79936376e-03 4.37184423e-03 1.13208045e-03
      2.85364175e-03 1.80834543e-03 -3.57894460e-04 4.95239068e-03
      -1.99119817e-03 1.08129112e-03 2.31322460e-03 5.62018389e-03
      1.45561795e-03 3.66987078e-03 2.32554297e-03 -4.59695497e-04
      6.36724569e-03 -2.56032753e-03 1.08034583e-03 2.31344020e-03
      5.62086608e-03 1.45553029e-03 3.66908661e-03 2.32528825e-03
      -4.60266019e-04 6.36603124e-03 -2.56224629e-03 1.38878752e-03
      2.97411135e-03 7.22585293e-03 1.87150622e-03 4.71855793e-03
      2.99033383e-03 -5.91187098e-04 8.18475150e-03 -3.29459389e-03
      3.56635870e-03 -4.10604815e-04 4.51155147e-03 1.70033635e-03
      2.85177841e-03 2.21900106e-03 -2.92534637e-03 2.20403261e-03
      2.17356929e-03 4.58505750e-03 -5.27965021e-04 5.80045860e-03
      2.18616310e-03 3.66622070e-03 2.85316096e-03 -3.76054528e-03
      2.83413031e-03 2.79436633e-03 4.58435249e-03 -5.27957862e-04
      5.80045534e-03 2.18616519e-03 3.66504281e-03 2.85300310e-03
      -3.76083842e-03 2.83357687e-03 2.79338798e-03 5.89383254e-03
      -6.78859418e-04 7.45758926e-03 2.81080487e-03 4.71174577e-03
      3.66835203e-03 -4.83457511e-03 3.64365103e-03 3.59121338e-03
      4.82987333e-03 2.13614595e-03 4.59856121e-03 8.78595805e-04
      2.98420503e-03 1.89446961e-03 6.69501023e-03 1.94662390e-03
      3.49486084e-03 6.21008361e-03 2.74677901e-03 5.91260241e-03
      1.12961535e-03 3.83705203e-03 2.43595103e-03 8.60832352e-03
      2.50274758e-03 4.49335296e-03 6.20805938e-03 2.74619949e-03
      5.91180986e-03 1.12964003e-03 3.83709720e-03 2.43515684e-03
      8.60744156e-03 2.50292663e-03 4.49165236e-03 7.98210502e-03
      3.53122223e-03 7.60111213e-03 1.45238440e-03 4.93368926e-03
      3.13117914e-03 1.10672917e-02 3.21797794e-03 5.77493105e-03
      4.52935463e-03 7.09677290e-04 1.72416866e-03 1.49087224e-03
      6.63754018e-03 -3.28818453e-03 2.73804902e-03 6.92834053e-03
      6.06867904e-03 5.82307111e-03 9.12250311e-04 2.21700058e-03
      1.91687909e-03 8.53429455e-03 -4.22762474e-03 3.52009758e-03
      8.90782010e-03 7.80224195e-03 5.82289696e-03 9.12396645e-04
      2.21669301e-03 1.91683066e-03 8.53299163e-03 -4.22763173e-03
      3.52055323e-03 8.90796352e-03 7.80206639e-03 7.48608727e-03
      1.17283408e-03 2.85030669e-03 2.46455218e-03 1.09713934e-02
      -5.43547468e-03 4.52610245e-03 1.14530372e-02 1.00307837e-02
      1.09882117e-03 1.47911068e-03 5.04676346e-03 2.47554551e-03
      3.56280571e-03 1.83039287e-03 6.23546587e-03 2.07722536e-03
      1.44187757e-03 1.41286827e-03 1.90178875e-03 6.48874696e-03
      3.18251899e-03 4.58128192e-03 2.35333573e-03 8.01732484e-03
      2.67095515e-03 1.85399456e-03 1.41188351e-03 1.90170354e-03
      6.48865430e-03 3.18285590e-03 4.58132802e-03 2.35348451e-03
      8.01657327e-03 2.66986410e-03 1.85284554e-03 1.81540439e-03
      2.44514411e-03 8.34261999e-03 4.09182534e-03 5.89096267e-03
      3.02587519e-03 1.03074051e-02 3.43298772e-03 2.38242489e-03
      2.59473315e-03 6.30962895e-05 3.43623711e-03 3.27893329e-04
      7.37135718e-03 -2.10858160e-03 4.77353256e-04 2.11276230e-03
      4.04312508e-03 3.33623216e-03 8.09200938e-05 4.41760151e-03
      4.21573990e-04 9.47923865e-03 -2.71176361e-03 6.13415730e-04
      2.71642557e-03 5.19848010e-03 3.33568780e-03 8.11480859e-05
      4.41795914e-03 4.21570236e-04 9.47621558e-03 -2.71102390e-03
      6.13976154e-04 2.71660928e-03 5.19797625e-03 4.28892998e-03
      1.04071682e-04 5.67969680e-03 5.42014954e-04 1.21859955e-02
      -3.48654063e-03 7.88981153e-04 3.49280541e-03 6.68333890e-03
      4.09540674e-03 -1.11347483e-03 3.14460811e-03 2.20216834e-03
      1.85340107e-03 1.45373715e-03 4.97183437e-03 4.49235877e-03
      5.62513620e-03 5.26532577e-03 -1.43154361e-03 4.04309900e-03
      2.83128745e-03 2.38319696e-03 1.86907907e-03 6.39232295e-03
      5.77591266e-03 7.23219384e-03 5.26553346e-03 -1.43156864e-03
      4.04303009e-03 2.83152098e-03 2.38311407e-03 1.86902750e-03
      6.39228988e-03 5.77591453e-03 7.23232143e-03 6.76971814e-03
      -1.84050272e-03 5.19822119e-03 3.64043470e-03 3.06432974e-03
      2.40302086e-03 8.21861252e-03 7.42620556e-03 9.29853879e-03
      4.83894069e-03 4.45751566e-03 4.85751126e-03 1.61922059e-03
      3.20424442e-03 3.06328409e-04 5.58923522e-04 3.23772826e-03
      6.79064216e-03 6.22151978e-03 5.73097263e-03 6.24537515e-03
      2.08188011e-03 4.12088260e-03 3.93914845e-04 7.18668045e-04
      4.16278606e-03 8.73087067e-03 6.22169254e-03 5.73079288e-03
      6.24524755e-03 2.08185706e-03 4.11941158e-03 3.93820024e-04
      7.18231604e-04 4.16272320e-03 8.73272307e-03 7.99935032e-03
      7.36800954e-03 8.02960806e-03 2.67670536e-03 5.29785221e-03
      5.06422308e-04 9.23507672e-04 5.35206357e-03 1.12278452e-02
      5.00455685e-03 5.82764298e-03 5.72480913e-03 2.42948462e-03
      4.91362112e-03 1.23674201e-03 -2.09306643e-04 1.99929136e-03
      4.74384148e-03 6.43436471e-03 7.49254366e-03 7.36004766e-03
      3.12362728e-03 6.31729700e-03 1.59009313e-03 -2.69287906e-04
      2.57045752e-03 6.09916216e-03 6.43408950e-03 7.49242306e-03
      7.36013474e-03 3.12362146e-03 6.31752238e-03 1.59055728e-03
      -2.68424337e-04 2.57065077e-03 6.09894237e-03 8.27231631e-03
      9.63293482e-03 9.46248882e-03 4.01609018e-03 8.12225137e-03
      2.04499741e-03 -3.45348206e-04 3.30504542e-03 7.84141663e-03
      4.55346145e-03 5.33434330e-03 6.24961546e-03 1.88410364e-03
      9.37661529e-03 -7.05630926e-04 2.40174122e-03 4.13568132e-03
      3.24973185e-03 5.85414423e-03 6.85851835e-03 8.03546235e-03
      2.42241379e-03 1.20562259e-02 -9.07253125e-04 3.08765331e-03
      5.31706028e-03 4.17789211e-03 5.85450558e-03 6.85840845e-03
      8.03504977e-03 2.42222380e-03 1.20560583e-02 -9.07236303e-04
      3.08898836e-03 5.31757995e-03 4.17827675e-03 7.52682798e-03
      8.81805271e-03 1.03310896e-02 3.11428122e-03 1.55013902e-02
      -1.16646430e-03 3.97117110e-03 6.83657452e-03 5.37163997e-03
      8.70240107e-03 3.81940673e-03 6.31065201e-03 4.30186745e-03
      3.63773829e-03 2.09755427e-03 3.59964394e-03 4.47960151e-03
      8.52342043e-03 1.11887259e-02 4.91075218e-03 8.11395328e-03
      5.53098321e-03 4.67929104e-03 2.69688852e-03 4.62826621e-03
      5.75951207e-03 1.09586054e-02 1.11887455e-02 4.91073076e-03
      8.11384618e-03 5.53090731e-03 4.67625167e-03 2.69679422e-03
      4.62843897e-03 5.75961033e-03 1.09586278e-02 1.43854339e-02
      6.31390791e-03 1.04324184e-02 7.11118057e-03 6.01515127e-03
      3.46734934e-03 5.95104601e-03 7.40524521e-03 1.40895648e-02
      6.24565361e-03 2.05173972e-03 8.27420969e-04 -8.94521712e-04
      4.46595019e-03 3.56402062e-03 5.53196389e-03 4.88861883e-03
      7.52561213e-03 8.03018454e-03 2.63817399e-03 1.06293568e-03
      -1.15198595e-03 5.74146211e-03 4.58227983e-03 7.11244065e-03
      6.28533075e-03 9.67585202e-03 8.03030469e-03 2.63813580e-03
      1.06442731e-03 -1.14999700e-03 5.73997013e-03 4.58231661e-03
      7.11293053e-03 6.28536055e-03 9.67593398e-03 1.03247538e-02
      3.39217600e-03 1.36740285e-03 -1.48099335e-03 7.37935258e-03
      5.89150842e-03 9.14508756e-03 8.08113068e-03 1.24405697e-02
      5.18227182e-03 8.43860471e-05 8.11261358e-04 -2.44493689e-03
      3.49358143e-03 4.72570118e-03 6.35456573e-03 4.86317975e-03
      6.97587011e-03 6.66279532e-03 1.08357686e-04 1.04558060e-03
      -3.14255501e-03 4.49085748e-03 6.07589260e-03 8.17036722e-03
      6.25274144e-03 8.96888878e-03 6.66297413e-03 1.08448723e-04
      1.04461820e-03 -3.14284675e-03 4.49139951e-03 6.07592566e-03
      8.16995930e-03 6.25258731e-03 8.96902941e-03 8.56651925e-03
      1.39255790e-04 1.34633284e-03 -4.03960049e-03 5.77351125e-03
      7.81189324e-03 1.05045056e-02 8.03914573e-03 1.15314974e-02
      4.11748001e-03 -1.58373034e-04 -2.34625791e-03 1.83058286e-03
      6.22979132e-03 2.88784248e-03 2.48936587e-03 3.47056706e-03
      5.57891512e-03 5.29399188e-03 -2.03590447e-04 -3.01652355e-03
      2.35365913e-03 8.00737832e-03 3.71256773e-03 3.20069236e-03
      4.46218764e-03 7.17298826e-03 5.29184006e-03 -2.03615491e-04
      -3.01650818e-03 2.35380256e-03 8.00970662e-03 3.71295190e-03
      3.20078782e-03 4.46222443e-03 7.17084529e-03 6.80390839e-03
      -2.61750451e-04 -3.87824816e-03 3.02638486e-03 1.02951685e-02
      4.77331644e-03 4.11540037e-03 5.73718408e-03 9.21978429e-03
      1.56535138e-03 -6.03749650e-05 6.81275997e-05 -1.52567506e-03
      3.05807078e-03 4.57037846e-03 4.11467068e-03 3.95686785e-03
      5.86682791e-03 2.01227353e-03 -7.76394809e-05 8.75459955e-05
      -1.96158700e-03 3.93348513e-03 5.87620307e-03 5.29057486e-03
      5.08749392e-03 7.54273962e-03 2.01243791e-03 -7.76499437e-05
      8.75251062e-05 -1.96155650e-03 3.93219944e-03 5.87619143e-03
      5.29001793e-03 5.08755399e-03 7.54291611e-03 2.58700689e-03
      -9.98542455e-05 1.12471382e-04 -2.52200733e-03 5.05784526e-03
      7.55510619e-03 6.80181663e-03 6.54125912e-03 9.69761610e-03
      1.34280080e-03 4.59882058e-03 4.16747853e-03 1.22577767e-03
      4.39100387e-03 5.65642142e-04 8.22669244e-05 -5.12349827e-04
      -4.25785605e-04 1.72618043e-03 5.91322361e-03 5.35761192e-03
      1.57616206e-03 5.64566813e-03 7.26962229e-04 1.05400177e-04
      -6.57922588e-04 -5.47851494e-04 1.72030623e-03 5.91340801e-03
      5.35785686e-03 1.57622178e-03 5.64551726e-03 7.27427599e-04
      1.06323634e-04 -6.58917183e-04 -5.50178578e-04 2.21146503e-03
      7.60353776e-03 6.88793417e-03 2.02677934e-03 7.25864014e-03
      9.34887910e-04 1.36223971e-04 -8.46133684e-04 -7.07903237e-04
      6.68144366e-03 6.91325730e-03 4.58574854e-03 -3.53798689e-03
      7.15226168e-04 3.49067478e-03 -9.99207376e-04 1.33572938e-03
      1.21717004e-03 8.59033223e-03 8.88854638e-03 5.89618552e-03
      -4.54884954e-03 9.20090708e-04 4.48793359e-03 -1.28483947e-03
      1.71730260e-03 1.56482845e-03 8.58740509e-03 8.88891704e-03
      5.89732314e-03 -4.54883976e-03 9.19410551e-04 4.48648073e-03
      -1.28463469e-03 1.71736022e-03 1.56005949e-03 1.10408263e-02
      1.14287017e-02 7.58255972e-03 -5.84852090e-03 1.18276034e-03
      5.76823344e-03 -1.65185845e-03 2.20795232e-03 2.00565602e-03
      5.43180853e-03 6.95373071e-03 1.32633315e-04 -2.53375946e-03
      2.72120204e-04 5.30368416e-04 -7.72256681e-05 4.40762582e-04
      2.48020771e-03 6.98329089e-03 8.94072372e-03 1.70413274e-04
      -3.25814681e-03 3.44191300e-04 6.80966245e-04 -9.92277928e-05
      5.66708564e-04 3.18832579e-03 6.98047783e-03 8.93951301e-03
      1.69969164e-04 -3.25774169e-03 3.49636073e-04 6.81902573e-04
      -9.93020076e-05 5.66750648e-04 3.18231690e-03 8.97430442e-03
      1.14939334e-02 2.18382251e-04 -4.18911176e-03 4.42232209e-04
      8.75528785e-04 -1.27593288e-04 7.28695828e-04 4.09089122e-03
      4.20193141e-03 5.01285726e-03 -1.71462179e-03 8.30656034e-04
      4.17796662e-04 -2.14119721e-03 -1.90109224e-03 1.05430966e-03
      4.23418358e-03 5.40245604e-03 6.44513080e-03 -2.20450177e-03
      1.06802303e-03 5.37489308e-04 -2.75294040e-03 -2.44421768e-03
      1.35551998e-03 5.44395437e-03 5.40263439e-03 6.44507911e-03
      -2.20439490e-03 1.06800650e-03 5.37126500e-04 -2.75293831e-03
      -2.44424655e-03 1.35555828e-03 5.44414902e-03 6.94620982e-03
      8.28656740e-03 -2.83420575e-03 1.37319858e-03 6.91004330e-04
      -3.53945675e-03 -3.14254547e-03 1.74283481e-03 6.99962536e-03
      1.28929480e-03 -3.19675123e-03 2.33753677e-03 2.78113247e-03
      4.11934173e-03 1.37649616e-03 6.22357940e-04 -1.05622329e-03
      3.02710873e-03 1.65750692e-03 -4.11005039e-03 3.00540007e-03
      3.57572315e-03 5.29643102e-03 1.76943513e-03 8.01283284e-04
      -1.35798636e-03 3.89185804e-03 1.65711658e-03 -4.11015935e-03
      3.00538749e-03 3.57573177e-03 5.29609248e-03 1.77021301e-03
      8.00371345e-04 -1.35938230e-03 3.89168318e-03 2.13037618e-03
      -5.28441556e-03 3.86406388e-03 4.59734583e-03 6.80943392e-03
      2.27554399e-03 1.03047362e-03 -1.74775813e-03 5.00341412e-03
      -1.43978395e-03 -9.26998968e-04 2.03499151e-03 2.56859977e-03
      3.17610847e-03 3.48035339e-03 -4.63585183e-03 -2.45947065e-03
      4.79599275e-03 -1.84974354e-03 -1.19184458e-03 2.61595659e-03
      3.30229476e-03 4.08836314e-03 4.47539380e-03 -5.96035924e-03
      -3.16220010e-03 6.16593100e-03 -1.85122446e-03 -1.19161711e-03
      2.61640223e-03 3.30250105e-03 4.08369442e-03 4.47483826e-03
      -5.96067030e-03 -3.16326064e-03 6.16551470e-03 -2.37833732e-03
      -1.53206568e-03 3.36335297e-03 4.24582651e-03 5.25662908e-03
      5.75420354e-03 -7.66369188e-03 -4.06707777e-03 7.92664662e-03
      -2.36491603e-03 -7.06475752e-04 -4.53995104e-04 8.53129430e-04
      6.21228665e-03 4.80916491e-03 5.00332704e-03 -1.04280119e-03
      -3.03922873e-03 -3.04085831e-03 -9.11431329e-04 -5.83861256e-04
      1.09671080e-03 7.98731949e-03 6.18347339e-03 6.43290626e-03
      -1.33962510e-03 -3.90637526e-03 -3.04604368e-03 -9.11226845e-04
      -5.83761896e-04 1.09688216e-03 7.98657723e-03 6.18319539e-03
      6.43270882e-03 -1.34070450e-03 -3.91510781e-03 -3.91666545e-03
      -1.17557088e-03 -7.50748557e-04 1.41005812e-03 1.02685774e-02
      7.95015879e-03 8.27069860e-03 -1.72232452e-03 -5.03216125e-03
      -2.05972907e-03 2.81102001e-03 1.58851733e-04 -5.55649342e-04
      3.06297443e-03 3.04608693e-04 1.70935993e-03 -5.12739411e-04
      8.33057449e-04 -2.64828862e-03 3.61418957e-03 2.04115568e-04
      -7.14446069e-04 3.93804302e-03 3.91658425e-04 2.19786470e-03
      -6.59231970e-04 1.07098615e-03 -2.65029119e-03 3.61430389e-03
      2.04398864e-04 -7.14500551e-04 3.93821020e-03 3.91633454e-04
      2.19767564e-03 -6.59235171e-04 1.06881652e-03 -3.40760173e-03
      4.64698952e-03 2.62640475e-04 -9.18694539e-04 5.06332703e-03
      5.03552437e-04 2.82573281e-03 -8.47582472e-04 1.37407996e-03
      -1.63353013e-03 4.92278207e-03 2.22305930e-03 -1.00177196e-04
      2.99309473e-03 9.75471805e-04 -1.26760118e-04 4.02778713e-03
      -1.80825719e-03 -2.10029073e-03 6.32927567e-03 2.85818242e-03
      -1.28778178e-04 3.84885469e-03 1.25412201e-03 -1.63299963e-04
      5.17849904e-03 -2.32489966e-03 -2.10302602e-03 6.32917881e-03
      2.85807066e-03 -1.28792308e-04 3.84824583e-03 1.25416648e-03
      -1.63308272e-04 5.17848833e-03 -2.32765684e-03 -2.70394050e-03
      8.13749526e-03 3.67461424e-03 -1.65562582e-04 4.94850334e-03
      1.61242834e-03 -2.10383092e-04 6.65794918e-03 -2.99269892e-03
      3.30364541e-03 -5.48036827e-04 -4.23946913e-04 6.98349148e-04
      -8.49227188e-04 3.70693090e-03 1.87545479e-03 -1.19531213e-03
      4.53403220e-03 4.24720813e-03 -7.04668346e-04 -5.45208866e-04
      8.97925231e-04 -1.09252229e-03 4.76564653e-03 2.41145468e-03
      -1.53679680e-03 5.82914706e-03 4.24662186e-03 -7.04503153e-04
      -5.45009098e-04 8.97886232e-04 -1.09217037e-03 4.76605864e-03
      2.41152593e-03 -1.53673929e-03 5.82856080e-03 5.45951026e-03
      -9.05853580e-04 -7.00898527e-04 1.15448621e-03 -1.40506576e-03
      6.12726528e-03 3.10073374e-03 -1.97576522e-03 7.49344938e-03
      -4.46915714e-04 -8.23843060e-04 2.19369167e-03 2.24450091e-03
      4.17508231e-03 8.78366700e-04 3.18420469e-03 4.73640207e-03
      -1.74058566e-03 -5.73874102e-04 -1.05925673e-03 2.82040681e-03
      2.88584456e-03 5.36796730e-03 1.12935854e-03 4.09416575e-03
      6.08973904e-03 -2.23714998e-03 -5.72751567e-04 -1.05929119e-03
      2.82032345e-03 2.88578682e-03 5.36781736e-03 1.12934364e-03
      4.09403956e-03 6.08727941e-03 -2.23985990e-03 -7.35454261e-04
      -1.36198418e-03 3.62606021e-03 3.71037214e-03 6.90148678e-03
      1.45205192e-03 5.26400749e-03 7.82660302e-03 -2.87886127e-03
      1.85687409e-03 1.93808856e-03 1.56485487e-03 6.65654021e-04
      1.39271806e-03 1.68565370e-03 4.96523548e-03 4.30933852e-03
      4.15771594e-03 2.38756998e-03 2.49176403e-03 2.01184209e-03
      8.55678401e-04 1.79560052e-03 2.16968101e-03 6.38391450e-03
      5.54056792e-03 5.34577761e-03 2.38538184e-03 2.49184924e-03
      2.01203418e-03 8.55843304e-04 1.79009291e-03 2.16727634e-03
      6.38360437e-03 5.54047246e-03 5.34360576e-03 3.06712533e-03
      3.20372381e-03 2.58675427e-03 1.10016076e-03 2.30792887e-03
      2.78959912e-03 8.20754189e-03 7.12345121e-03 6.87053381e-03
      5.00943046e-04 -1.47953688e-03 3.69461230e-03 3.08900513e-03
      2.24470301e-03 -1.28018891e-03 6.08812505e-03 2.05144030e-03
      2.11904384e-03 6.43073814e-04 -1.90198491e-03 4.75059217e-03
      3.97157762e-03 2.88597052e-03 -1.64592825e-03 7.82691687e-03
      2.63732392e-03 2.72342702e-03 6.40117622e-04 -1.90234487e-03
      4.74998215e-03 3.97157623e-03 2.88563408e-03 -1.64596783e-03
      7.82770384e-03 2.63762847e-03 2.72244890e-03 8.21727794e-04
      -2.44551571e-03 6.10760367e-03 5.10631176e-03 3.71000334e-03
      -2.11620680e-03 1.00633260e-02 3.39092547e-03 3.49893048e-03
      1.60655670e-03 3.14448425e-03 4.61238623e-03 -1.04095566e-03
      3.62797827e-03 -3.75080534e-04 5.36146993e-03 2.88916589e-03
      1.51257962e-04 2.06600153e-03 4.04304918e-03 5.93061140e-03
      -1.33834407e-03 4.66454215e-03 -4.82327305e-04 6.89340429e-03
      3.71462340e-03 1.94895649e-04 2.06533843e-03 4.04285919e-03
      5.93003305e-03 -1.33836083e-03 4.66415752e-03 -4.82237636e-04
      6.89335540e-03 3.71275307e-03 1.92921667e-04 2.65598623e-03
      5.19814296e-03 7.62484269e-03 -1.72071415e-03 5.99677255e-03
      -6.20124105e-04 8.86299554e-03 4.77351621e-03 2.48583732e-04
      2.05386803e-03 4.06845426e-03 4.94092889e-03 3.21263750e-03
      7.62769952e-03 -2.78131163e-04 2.08013109e-03 2.50424328e-03
      2.49823602e-03 2.64007365e-03 5.23076393e-03 6.35229237e-03
      4.13069455e-03 9.80663672e-03 -3.57666082e-04 2.67478731e-03
      3.22003686e-03 3.21143679e-03 2.63643311e-03 5.23080630e-03
      6.35239668e-03 4.13047802e-03 9.80624184e-03 -3.57024546e-04
      2.67480593e-03 3.21942195e-03 3.20777250e-03 3.38890962e-03
      6.72518555e-03 8.16694181e-03 5.31082135e-03 1.26075046e-02
      -4.59119998e-04 3.43946368e-03 4.13963664e-03 4.12353221e-03
      4.44896473e-03 3.55338911e-03 7.55250361e-03 3.37216235e-03
      2.35371687e-03 -8.08459823e-04 1.93738801e-04 9.69299348e-04
      1.32403011e-03 5.71998162e-03 4.56878589e-03 9.71141458e-03
      4.33563860e-03 3.02809593e-03 -1.03946042e-03 2.48836470e-04
      1.24616432e-03 1.70224498e-03 5.72046451e-03 4.56890557e-03
      9.71037615e-03 4.33562277e-03 3.02654109e-03 -1.03955332e-03
      2.49363016e-04 1.24625093e-03 1.70257711e-03 7.35473307e-03
      5.87449130e-03 1.24861216e-02 5.57437399e-03 3.89369577e-03
      -1.33658433e-03 3.20280436e-04 1.60222268e-03 2.18892540e-03
      6.99238386e-03 1.56393356e-03 3.98586504e-03 3.50970053e-03
      8.27859528e-03 1.10934360e-03 3.08895455e-04 1.78710569e-03
      5.60439657e-03 8.99000373e-03 2.01084279e-03 5.12463879e-03
      4.51246928e-03 1.06445933e-02 1.42661727e-03 3.99116689e-04
      2.29790434e-03 7.20542995e-03 8.99054576e-03 2.01063231e-03
      5.12425834e-03 4.51246509e-03 1.06441388e-02 1.42629922e-03
      3.95493815e-04 2.29713367e-03 7.20572658e-03 1.15590114e-02
      2.58519012e-03 6.58827415e-03 5.80173684e-03 1.36862015e-02
      1.83422200e-03 5.11018327e-04 2.95371097e-03 9.26421862e-03
      6.65285857e-03 2.58723740e-03 2.53781327e-03 2.46835593e-03
      6.67974679e-03 2.90508801e-03 5.28466422e-03 3.70986364e-03
      7.19947089e-03 8.55375919e-03 3.32673732e-03 3.26378667e-03
      3.17360484e-03 8.58881697e-03 3.73608898e-03 6.79476094e-03
      4.76967404e-03 9.25654359e-03 8.55364278e-03 3.32673616e-03
      3.26380902e-03 3.17360018e-03 8.58781021e-03 3.73514765e-03
      6.79468969e-03 4.76978300e-03 9.25642531e-03 1.09976484e-02
      4.27760370e-03 4.19746200e-03 4.08034865e-03 1.10422047e-02
      4.80358722e-03 8.73627700e-03 6.13238476e-03 1.19012231e-02
      5.44306496e-03 3.73749109e-03 7.20340526e-04 -1.20091368e-03
      2.81590852e-03 2.00862437e-03 2.45366292e-03 3.19635239e-03
      4.77335835e-03 6.99791266e-03 4.80533531e-03 9.26143199e-04
      -1.54402293e-03 3.61945154e-03 2.58247810e-03 3.15476209e-03
      4.10963781e-03 6.13688957e-03 6.99825771e-03 4.80522867e-03
      9.25984292e-04 -1.54404412e-03 3.62033467e-03 2.58252118e-03
      3.15468549e-03 4.10963828e-03 6.13723369e-03 8.99735652e-03
      6.17813785e-03 1.19053933e-03 -1.98518950e-03 4.65342728e-03
      3.32033425e-03 4.05609189e-03 5.28387399e-03 7.89036136e-03
      6.23840559e-03 -2.08328338e-03 -4.09393979e-04 2.09646346e-03
      4.18631593e-03 2.22195708e-03 1.99486478e-03 1.26262999e-03
      6.27208035e-03 8.02081730e-03 -2.67857849e-03 -5.26504766e-04
      2.69547501e-03 5.38258068e-03 2.85678939e-03 2.56516761e-03
      1.62319816e-03 8.06411263e-03 8.02089646e-03 -2.67858827e-03
      -5.26493939e-04 2.69549247e-03 5.38175600e-03 2.85677123e-03
      2.56508356e-03 1.62314798e-03 8.06415826e-03 1.03125954e-02
      -3.44399177e-03 -6.77101896e-04 3.46566178e-03 6.91962428e-03
      3.67297512e-03 3.29840370e-03 2.08666897e-03 1.03682149e-02
      2.40951171e-03 2.07574409e-03 1.10623741e-03 1.54695910e-04
      5.09315496e-03 1.77985313e-03 4.38639754e-03 -7.04320018e-06
      4.27721115e-03 3.09771486e-03 2.66886712e-03 1.42244203e-03
      1.98010093e-04 6.54674228e-03 2.28820322e-03 5.63985482e-03
      -9.01181738e-06 5.49904117e-03 3.09783965e-03 2.66870693e-03
      1.42192142e-03 1.98819558e-04 6.54871017e-03 2.28836853e-03
      5.63991116e-03 -8.48513355e-06 5.49926609e-03 3.98264267e-03
      3.43126338e-03 1.82836084e-03 2.54487415e-04 8.41771346e-03
      2.94195721e-03 7.25157233e-03 -1.08533823e-05 7.07018934e-03
      2.77224765e-03 2.84930551e-03 2.80842331e-04 1.05980528e-03
      4.32797847e-03 -1.63958466e-03 3.94863030e-03 4.56121471e-03
      2.11791927e-03 3.56416474e-03 3.66339600e-03 3.61138489e-04
      1.36106985e-03 5.57125406e-03 -2.10852525e-03 5.07696206e-03
      5.86448051e-03 2.72290828e-03 3.56466719e-03 3.66354291e-03
      3.60858481e-04 1.36261014e-03 5.56403119e-03 -2.10805307e-03
      5.07711526e-03 5.86444652e-03 2.72334530e-03 4.58294572e-03
      4.71027382e-03 4.64032026e-04 1.74995116e-03 7.16238189e-03
      -2.71098106e-03 6.52791513e-03 7.54008209e-03 3.50127532e-03
      4.36224276e-04 6.88317581e-04 8.22076341e-04 3.30701750e-03
      2.46210676e-03 1.48565613e-03 1.77361513e-03 2.67380290e-03
      1.19769049e-03 5.60352113e-04 8.84968147e-04 1.05692982e-03
      4.25189314e-03 3.15531692e-03 1.91011606e-03 2.28022225e-03
      3.43767181e-03 1.53941195e-03 5.60967193e-04 8.84954119e-04
      1.05683785e-03 4.25186893e-03 3.16599221e-03 1.91013142e-03
      2.28071120e-03 3.43769114e-03 1.53976365e-03 7.20591168e-04
      1.13778352e-03 1.35875912e-03 5.46670612e-03 4.05738363e-03
      2.45586573e-03 2.93216319e-03 4.41979198e-03 1.97908422e-03
      -1.19857059e-03 2.95601576e-03 5.05480636e-03 8.09692836e-04
      -4.74807853e-03 3.18090757e-03 9.45705338e-04 -1.52343931e-03
      1.08041370e-03 -1.54099276e-03 3.80049716e-03 6.49880432e-03
      1.04098604e-03 -6.10404834e-03 4.08974662e-03 1.21586258e-03
      -1.95872411e-03 1.38910755e-03 -1.54121011e-03 3.79977166e-03
      6.49884949e-03 1.04097824e-03 -6.10434217e-03 4.08974756e-03
      1.21587794e-03 -1.95869757e-03 1.38920371e-03 -1.98152126e-03
      4.88529960e-03 8.35536513e-03 1.33833953e-03 -7.84763787e-03
      5.25825610e-03 1.56321435e-03 -2.51834583e-03 1.78612408e-03
      -2.43456475e-03 -2.48065987e-03 2.24367529e-03 3.13118449e-03
      5.88274933e-03 2.64036120e-03 -2.27962901e-05 -6.49318972e-04
      -6.92734786e-04 -3.13020661e-03 -3.18931276e-03 2.88506015e-03
      4.02581878e-03 7.55550340e-03 3.39479721e-03 -2.92547629e-05
      -8.34776787e-04 -8.90806259e-04 -3.13042384e-03 -3.18903313e-03
      2.88528693e-03 4.02565813e-03 7.56310113e-03 3.39473458e-03
      -2.92979403e-05 -8.34922655e-04 -8.90597585e-04 -4.02489724e-03
      -4.10004798e-03 3.71008529e-03 5.17585920e-03 9.71366093e-03
      4.36471915e-03 -3.75989766e-05 -1.07339188e-03 -1.14524341e-03
      4.50742955e-04 -1.16710179e-03 -1.94520355e-04 3.64461122e-03
      4.00278810e-03 1.75534596e-03 1.88756117e-03 -2.04318622e-03
      -1.11697079e-03 5.79540443e-04 -1.50045089e-03 -2.50101439e-04
      4.68580797e-03 5.14550740e-03 2.25759833e-03 2.42721476e-03
      -2.62696249e-03 -1.43616751e-03 5.79130778e-04 -1.50057476e-03
      -2.50067504e-04 4.68609622e-03 5.14631998e-03 2.25696387e-03
      2.42747925e-03 -2.62676761e-03 -1.43652759e-03 7.44613935e-04
      -1.92917034e-03 -3.21520783e-04 6.02482585e-03 6.61549531e-03
      2.90274178e-03 3.12149595e-03 -3.37728416e-03 -1.84704328e-03
      2.64200941e-03 2.60431290e-04 5.83997171e-04 -1.83939538e-03
      2.68517714e-03 2.53621442e-03 1.19756034e-03 -2.33032368e-03
      -1.73485931e-03 3.39682563e-03 3.34831391e-04 7.50844483e-04
      -2.36525550e-03 3.45265656e-03 3.26046674e-03 1.53969962e-03
      -2.99608358e-03 -2.23053712e-03 3.39693855e-03 3.34552140e-04
      7.50832085e-04 -2.36491580e-03 3.45217087e-03 3.26085091e-03
      1.53978658e-03 -2.99655576e-03 -2.23051663e-03 4.36743628e-03
      4.30127198e-04 9.65343323e-04 -3.04101571e-03 4.43887338e-03
      4.19203332e-03 1.97969982e-03 -3.85265425e-03 -2.86781229e-03
      -3.42035806e-03 -3.13532446e-03 3.03071644e-03 1.88478176e-03
      2.98119104e-03 2.60212156e-03 1.11954357e-03 -2.01082730e-04
      -2.03177406e-04 -4.39765910e-03 -4.03138576e-03 3.89662990e-03
      2.42330600e-03 3.83298635e-03 3.34550068e-03 1.43932481e-03
      -2.58533051e-04 -2.61212466e-04 -4.39963536e-03 -4.03115992e-03
      3.89646366e-03 2.42330390e-03 3.83315235e-03 3.34557379e-03
      1.43946707e-03 -2.58609944e-04 -2.61971349e-04 -5.65674575e-03
      -5.18324645e-03 5.00973128e-03 3.11569520e-03 4.92837373e-03
      4.30134358e-03 1.85062923e-03 -3.32496595e-04 -3.36799538e-04
      1.22662971e-03 2.44316179e-03 1.87636597e-05 -2.97954917e-04
      4.12298134e-03 -5.04298776e-04 -6.31150673e-04 -8.95556470e-04
      -2.27109948e-03 1.57718628e-03 3.14115267e-03 2.40640893e-05
      -3.83146980e-04 5.30048693e-03 -6.48049172e-04 -8.11313163e-04
      -1.15143729e-03 -2.91985669e-03 1.57671387e-03 3.14128422e-03
      2.45464180e-05 -3.83203005e-04 5.30096376e-03 -6.48367219e-04
      -8.11491802e-04 -1.15139328e-03 -2.92009744e-03 2.02731998e-03
      4.03872319e-03 3.14808894e-05 -4.92769002e-04 6.81489613e-03
      -8.33184167e-04 -1.04313274e-03 -1.48037227e-03 -3.75424791e-03
      -8.32549576e-03 1.47514115e-03 -2.64639821e-04 1.83682982e-03
      6.10533229e-04 2.77554244e-03 3.58833536e-03 1.70641427e-03
      -2.35021813e-03 -1.07042249e-02 1.89655204e-03 -3.40474769e-04
      2.36162683e-03 7.85183627e-04 3.56822507e-03 4.61424561e-03
      2.19410518e-03 -3.02172918e-03 -1.07038524e-02 1.89667847e-03
      -3.40390165e-04 2.36163544e-03 7.84926408e-04 3.56833171e-03
      4.61347774e-03 2.19373708e-03 -3.02144769e-03 -1.37621164e-02
      2.43851217e-03 -4.37932671e-04 3.03637353e-03 1.00946415e-03
      4.58743190e-03 5.93247777e-03 2.82070460e-03 -3.88474460e-03
      -3.47183575e-03 2.19810684e-03 -1.60864170e-03 1.25184306e-03
      2.71975482e-03 2.66154204e-03 -8.73817015e-04 1.95819838e-03
      -2.43076170e-03 -4.46404563e-03 2.82620871e-03 -2.06801109e-03
      1.60951365e-03 3.49691208e-03 3.42198648e-03 -1.12327316e-03
      2.51791696e-03 -3.12544336e-03 -4.46233759e-03 2.82604410e-03
      -2.06852984e-03 1.60952925e-03 3.49624036e-03 3.42198834e-03
      -1.12384500e-03 2.51754699e-03 -3.12380120e-03 -5.73762180e-03
      3.63357738e-03 -2.65922700e-03 2.06939504e-03 4.49527474e-03
      4.39970428e-03 -1.44467875e-03 3.23714642e-03 -4.01654467e-03
      3.32166208e-03 -2.11662933e-04 1.92999549e-04 2.41766986e-03
      5.55926992e-04 1.41868507e-03 6.31483388e-04 -3.51960305e-03
      -8.55279271e-04 4.27070120e-03 -2.72120582e-04 2.48198514e-04
      3.10843717e-03 7.16969080e-04 1.82436116e-03 8.12196231e-04
      -4.52526007e-03 -1.09963561e-03 4.27099364e-03 -2.72049045e-04
      2.48146389e-04 3.10844881e-03 7.14795664e-04 1.82392495e-03
      8.11811129e-04 -4.52539558e-03 -1.09951466e-03 5.49126929e-03
      -3.49755544e-04 3.19117273e-04 3.99658270e-03 9.21859173e-04
      2.34548049e-03 1.04412786e-03 -5.81843778e-03 -1.41364918e-03
      1.00452089e-04 8.17673164e-04 6.27760484e-04 1.27525243e-03
      3.98597540e-03 -1.75879497e-04 2.09772005e-03 -8.47303541e-04
      3.57886381e-03 1.29374661e-04 1.05135527e-03 8.07217439e-04
      1.63886778e-03 5.12475800e-03 -2.26288175e-04 2.69671832e-03
      -1.08899898e-03 4.60224971e-03 1.28123560e-04 1.05133536e-03
      8.07184086e-04 1.63960014e-03 5.12375263e-03 -2.26078279e-04
      2.69700936e-03 -1.08941842e-03 4.60133795e-03 1.65015226e-04
      1.35179539e-03 1.03793177e-03 2.10710266e-03 6.58759521e-03
      -2.90874392e-04 3.46713373e-03 -1.40017678e-03 5.91710443e-03
      5.04099589e-04 2.34638597e-03 9.57830052e-04 2.57184915e-03
      2.79975287e-03 -2.13207139e-04 4.11334122e-03 1.81018506e-04
      -2.17883289e-03 6.48156041e-04 3.01686348e-03 1.23168039e-03
      3.30629828e-03 3.59901460e-03 -2.74657068e-04 5.28885052e-03
      2.32850609e-04 -2.80130072e-03 6.48453424e-04 3.01649841e-03
      1.23136479e-03 3.30676557e-03 3.59947956e-03 -2.74132093e-04
      5.28806867e-03 2.32809456e-04 -2.80098547e-03 8.33761180e-04
      3.87846027e-03 1.58342102e-03 4.25108662e-03 4.62704385e-03
      -3.53141921e-04 6.79929042e-03 2.99472507e-04 -3.60119622e-03
      5.48512768e-03 4.38042218e-03 1.88098196e-03 7.73498177e-05
      -5.66872535e-04 1.56846188e-04 -2.88553099e-04 1.48453156e-03
      6.36176579e-03 7.05248164e-03 5.63166244e-03 2.41834763e-03
      9.99443291e-05 -7.23974255e-04 2.02783413e-04 -3.71203816e-04
      1.90867833e-03 8.17973260e-03 7.03839771e-03 5.63187525e-03
      2.41844356e-03 9.94398360e-05 -7.29206193e-04 2.01671137e-04
      -3.70634429e-04 1.90873386e-03 8.16530548e-03 9.04959161e-03
      7.24058505e-03 3.10935196e-03 1.28487591e-04 -9.31299932e-04
      2.60738016e-04 -4.76795889e-04 2.45407969e-03 1.04986597e-02
      3.40263615e-03 2.83046218e-04 -2.40606183e-04 -3.91653681e-04
      4.75112116e-03 -1.08012720e-03 4.39138664e-03 5.43336803e-03
      2.45365012e-03 4.37496882e-03 3.63859930e-04 -3.09479423e-04
      -5.03505813e-04 6.10847212e-03 -1.38867099e-03 5.64664649e-03
      6.98594982e-03 3.15487059e-03 4.37487988e-03 3.63953470e-04
      -3.09232128e-04 -5.03555755e-04 6.10801345e-03 -1.38870033e-03
      5.64561645e-03 6.98570814e-03 3.15475510e-03 5.62504074e-03
      4.67867445e-04 -3.97749711e-04 -6.47365523e-04 7.85301626e-03
      -1.78538950e-03 7.25939218e-03 8.98187049e-03 4.05634101e-03
      -1.19843287e-03 1.06657797e-03 1.04159117e-03 -6.30243623e-04
      3.61523801e-03 2.11753394e-03 8.04009102e-03 3.92452488e-03
      2.46263720e-04 -1.54093676e-03 1.37121114e-03 1.33888319e-03
      -8.10296682e-04 4.64814715e-03 2.72257626e-03 1.03371330e-02
      5.04577626e-03 3.16539343e-04 -1.54120382e-03 1.37130311e-03
      1.33912161e-03 -8.10331083e-04 4.64792224e-03 2.72253994e-03
      1.03370110e-02 5.04567847e-03 3.16213176e-04 -1.98166934e-03
      1.76297151e-03 1.72133464e-03 -1.04183296e-03 5.97588019e-03
      3.50045087e-03 1.32902786e-02 6.48724847e-03 4.06449806e-04
      4.44234721e-03 3.87351261e-03 4.36258130e-03 7.34967529e-04
      8.31962377e-03 8.68447765e-04 3.52965435e-03 -1.82398979e-03
      -1.34725065e-03 5.71164163e-03 4.98024048e-03 5.60877053e-03
      9.44737694e-04 1.06983455e-02 1.11666531e-03 4.53884201e-03
      -2.34519946e-03 -1.73212972e-03 5.71158295e-03 4.98057529e-03
      5.60889626e-03 9.44948872e-04 1.06958337e-02 1.11657812e-03
      4.53766063e-03 -2.34567630e-03 -1.73217058e-03 7.34353159e-03
      6.40360964e-03 7.21109938e-03 1.21465058e-03 1.37539553e-02
      1.43571594e-03 5.83505398e-03 -3.01595917e-03 -2.22701230e-03
      6.64675049e-03 4.90912655e-03 6.79213740e-03 -4.48358915e-05
      4.12942981e-03 -2.10634875e-03 6.22460432e-03 1.91794010e-03
      3.25375306e-03 8.54617730e-03 6.31178590e-03 8.73286743e-03
      -5.76441780e-05 5.30774100e-03 -2.70798849e-03 8.00322462e-03
      2.46593263e-03 4.18374082e-03 8.54578055e-03 6.31180080e-03
      8.73294473e-03 -5.76477032e-05 5.30902669e-03 -2.70815054e-03
      8.00299831e-03 2.46590911e-03 4.18335060e-03 1.09878890e-02
      8.11523851e-03 1.12282233e-02 -7.41157710e-05 6.82393042e-03
      -3.48168425e-03 1.02897761e-02 3.17046721e-03 5.37903560e-03
      6.90938858e-03 3.48613574e-03 4.87969816e-03 2.64672842e-03
      5.67457289e-04 -2.21877662e-03 2.91232881e-03 1.36755325e-03
      7.55031081e-03 8.88315961e-03 4.48203692e-03 6.27348432e-03
      3.40293092e-03 7.31517677e-04 -2.85257585e-03 3.74474307e-03
      1.75838126e-03 9.70720593e-03 8.88295006e-03 4.48236382e-03
      6.27446640e-03 3.40293581e-03 7.30112428e-04 -2.85249460e-03
      3.74408276e-03 1.75815704e-03 9.70699638e-03 1.14204995e-02
      5.76286297e-03 8.06663837e-03 4.37519606e-03 9.41197213e-04
      -3.66731687e-03 4.81423223e-03 2.26061419e-03 1.24799907e-02
      4.01468249e-03 1.49963409e-04 -2.25764397e-03 -2.65905354e-03
      3.72342835e-03 1.03734306e-03 4.41931002e-03 4.49091289e-03
      6.49514142e-03 5.16152289e-03 1.92815962e-04 -2.90263351e-03
      -3.41888168e-03 4.78639966e-03 1.33366487e-03 5.68162603e-03
      5.77393780e-03 8.35068710e-03 5.16176363e-03 1.92851425e-04
      -2.90257833e-03 -3.41879064e-03 4.78719035e-03 1.33381144e-03
      5.68213826e-03 5.77407423e-03 8.35092459e-03 6.63628103e-03
      2.47959804e-04 -3.73182050e-03 -4.39571403e-03 6.15384616e-03
      1.71482062e-03 7.30516296e-03 7.42369005e-03 1.07366340e-02
      3.04413587e-03 1.09609507e-03 2.43155961e-03 -3.68289929e-03
      2.92651495e-03 1.95644773e-03 2.94374186e-03 3.48586892e-03
      4.19923756e-03 3.91348312e-03 1.40924868e-03 3.12606362e-03
      -4.73560207e-03 3.76347103e-03 2.51524174e-03 3.78430635e-03
      4.48174495e-03 5.39860735e-03 3.91428871e-03 1.40922400e-03
      3.12626408e-03 -4.73502139e-03 3.76184494e-03 2.51558307e-03
      3.78443208e-03 4.48171003e-03 5.39941015e-03 5.03213471e-03
      1.81183952e-03 4.01919009e-03 -6.08845754e-03 4.83769784e-03
      3.23407515e-03 4.86504892e-03 5.76208672e-03 6.94156904e-03
      2.94078630e-03 -8.75734899e-04 4.99054696e-03 -7.88500241e-04
      2.55951402e-03 2.29794485e-03 1.53605710e-03 1.71131466e-03
      8.08103103e-03 3.78069794e-03 -1.12606527e-03 6.41603069e-03
      -1.01380597e-03 3.29109072e-03 2.95440294e-03 1.97437452e-03
      2.20008823e-03 1.03895776e-02 3.78104718e-03 -1.12662232e-03
      6.41644839e-03 -1.01379119e-03 3.29051865e-03 2.95449607e-03
      1.97588326e-03 2.20072386e-03 1.03900442e-02 4.86094505e-03
      -1.44866901e-03 8.24922137e-03 -1.30347162e-03 4.23103571e-03
      3.79851297e-03 2.53970618e-03 2.82927905e-03 1.33582177e-02
      5.58061700e-04 2.66528688e-03 2.74433871e-03 1.52823969e-03
      2.23208219e-03 -2.07768258e-04 1.90258259e-03 6.70884037e-04
      4.30424698e-03 7.17517687e-04 3.42660863e-03 3.52808041e-03
      1.96528551e-03 2.86899996e-03 -2.66648975e-04 2.44640838e-03
      8.62563087e-04 5.53403469e-03 7.17169489e-04 3.42734135e-03
      3.52860941e-03 1.96490251e-03 2.86865863e-03 -2.67125171e-04
      2.44621909e-03 8.62573448e-04 5.53359464e-03 9.22087696e-04
      4.40633902e-03 4.53632744e-03 2.52682483e-03 3.68722202e-03
      -3.42826883e-04 3.14543559e-03 1.10902020e-03 7.11462554e-03
      -6.07963884e-04 -1.25602959e-03 3.97475407e-04 1.96561625e-04
      -6.52631279e-04 2.92393425e-03 3.86280823e-03 1.16013375e-03
      3.10868328e-03 -7.81882030e-04 -1.61493220e-03 5.08601195e-04
      2.53216276e-04 -8.39953602e-04 3.75961955e-03 4.96701570e-03
      1.49184954e-03 3.99659667e-03 -7.81732728e-04 -1.61475164e-03
      5.10411512e-04 2.51835212e-04 -8.38851323e-04 3.75934830e-03
      4.96658031e-03 1.49177702e-03 3.99688957e-03 -1.00536097e-03
      -2.07615690e-03 6.53107883e-04 3.24423192e-04 -1.07962464e-03
      4.83380165e-03 6.38630753e-03 1.91831973e-03 5.13849687e-03
      1.01480517e-03 2.90310918e-03 6.80881611e-04 -1.94255344e-03
      5.31797018e-03 7.48694409e-04 1.74603262e-03 -9.47264896e-04
      2.86220503e-03 1.30559178e-03 3.73256113e-03 8.75092868e-04
      -2.49752798e-03 6.83655124e-03 9.62629332e-04 2.24502035e-03
      -1.21769926e-03 3.68010532e-03 1.30449689e-03 3.73262470e-03
      8.75608122e-04 -2.49777269e-03 6.83694845e-03 9.62471589e-04
      2.24415842e-03 -1.21828157e-03 3.68021801e-03 1.67829334e-03
      4.79907868e-03 1.12536224e-03 -3.21136904e-03 8.78928322e-03
      1.23749149e-03 2.88550276e-03 -1.56608771e-03 4.73187305e-03
      4.17681549e-05 1.86060288e-03 5.00517944e-03 -3.05267074e-03
      3.58066784e-04 3.17928987e-03 -1.00219878e-03 -5.31864644e-04
      5.88888419e-04 5.36844163e-05 2.39219679e-03 6.43522525e-03
      -3.92490486e-03 4.60341835e-04 4.08763997e-03 -1.28863147e-03
      -6.84009225e-04 7.57095171e-04 5.36169064e-05 2.39222334e-03
      6.43523876e-03 -3.92488949e-03 4.60251031e-04 4.08765767e-03
      -1.28840073e-03 -6.83723949e-04 7.57322006e-04 6.89136868e-05
      3.07570724e-03 8.27387068e-03 -5.04634017e-03 5.91713004e-04
      5.25553618e-03 -1.65663159e-03 -8.79309082e-04 9.73639137e-04
      -1.31242350e-03 1.99451856e-03 -1.15093810e-03 2.43797968e-03
      -3.15353624e-03 8.61335662e-04 4.48196242e-03 3.36178159e-03
      -5.05561417e-04 -1.68735348e-03 2.56391801e-03 -1.47984107e-03
      3.13450373e-03 -4.05477872e-03 1.10743963e-03 5.76251000e-03
      4.32225550e-03 -6.49902620e-04 -1.68753485e-03 2.56440369e-03
      -1.47985062e-03 3.13455402e-03 -4.05510841e-03 1.10742496e-03
      5.76254586e-03 4.32229182e-03 -6.50148373e-04 -2.16962537e-03
      3.29649518e-03 -1.90274615e-03 4.03008750e-03 -5.21401037e-03
      1.42384134e-03 7.40896957e-03 5.55718783e-03 -8.35769868e-04
      -1.49007200e-03 -9.53888346e-04 -3.87968705e-03 -1.54990226e-03
      6.56219141e-04 4.08210605e-03 4.25757375e-03 1.86068262e-03
      8.00744165e-04 -1.91594136e-03 -1.22643472e-03 -4.98824613e-03
      -1.99273368e-03 8.44851427e-04 5.24840364e-03 5.47402073e-03
      2.39249715e-03 1.02944125e-03 -1.91601773e-03 -1.22647837e-03
      -4.98833368e-03 -1.99275441e-03 8.43555201e-04 5.24843670e-03
      5.47424238e-03 2.39237444e-03 1.02927082e-03 -2.46362481e-03
      -1.57690875e-03 -6.41367165e-03 -2.56211474e-03 1.08603830e-03
      6.74796617e-03 7.03830924e-03 3.07615590e-03 1.32323639e-03
      -4.35213232e-03 -4.86368925e-04 1.21421542e-03 1.70807308e-03
      1.58627518e-04 3.50912334e-03 2.62729428e-03 -6.38116500e-04
      -2.83481693e-03 -5.59528684e-03 -6.25097775e-04 1.56112737e-03
      2.19609286e-03 2.04199576e-04 4.51171631e-03 3.37748532e-03
      -8.20445945e-04 -3.64449434e-03 -5.59557229e-03 -6.25343935e-04
      1.56112900e-03 2.19605700e-03 2.04153577e-04 4.51120548e-03
      3.37766181e-03 -8.20488844e-04 -3.64474114e-03 -7.19390623e-03
      -8.03711882e-04 2.00715684e-03 2.82350020e-03 2.62805057e-04
      5.80010423e-03 4.34211129e-03 -1.05492782e-03 -4.68574790e-03
      -6.30571274e-03 6.31798583e-04 1.28293829e-03 3.92534165e-03
      4.43249149e-03 -6.48988178e-04 -2.33862246e-03 2.14181235e-03
      -1.57554779e-04 -8.10719188e-03 8.12297571e-04 1.64947682e-03
      5.04714297e-03 5.69921639e-03 -8.34409730e-04 -3.00666597e-03
      2.75373552e-03 -2.02454481e-04 -8.10764916e-03 8.12740182e-04
      1.64961128e-03 5.04704565e-03 5.69874886e-03 -8.34395119e-04
      -3.00648576e-03 2.75368663e-03 -2.02995434e-04 -1.04239238e-02
      1.04493240e-03 2.12090858e-03 6.48941286e-03 7.32734753e-03
      -1.07278966e-03 -3.86530929e-03 3.54042463e-03 -2.60845671e-04
      -5.21348696e-03 1.99275528e-04 1.19057368e-03 4.99878079e-04
      5.38117532e-03 1.36659481e-03 -3.87395819e-04 4.47008788e-04
      -1.77445984e-03 -6.70330180e-03 2.56294647e-04 1.53094833e-03
      6.42693893e-04 6.91890111e-03 1.75702455e-03 -4.98186040e-04
      5.74750709e-04 -2.28162459e-03 -6.70867786e-03 2.56228639e-04
      1.53076486e-03 6.43202686e-04 6.91870740e-03 1.75688230e-03
      -4.98572714e-04 5.74747100e-04 -2.28639971e-03 -8.62576161e-03
      3.29544127e-04 1.96839683e-03 8.26966425e-04 8.89580045e-03
      2.25881534e-03 -6.41158374e-04 7.38993345e-04 -2.93988315e-03
      7.91251310e-04 1.26162067e-03 -6.97372947e-04 3.20169725e-04
      -2.88723881e-04 2.73102522e-03 -1.07627711e-03 -1.21911208e-03
      -1.43931899e-03 1.01734640e-03 1.62205775e-03 -8.96646874e-04
      4.11887042e-04 -3.70884227e-04 3.51105165e-03 -1.38395501e-03
      -1.56748283e-03 -1.85052282e-03 1.01739820e-03 1.62221806e-03
      -8.96646641e-04 4.11526969e-04 -3.71434260e-04 3.51132848e-03
      -1.38368178e-03 -1.56708830e-03 -1.85055751e-03 1.30811369e-03
      2.08567549e-03 -1.15286431e-03 5.29415207e-04 -4.77131311e-04
      4.51422296e-03 -1.77923730e-03 -2.01489520e-03 -2.37924932e-03
      -2.62189098e-03 -1.05877081e-03 1.61186175e-03 2.18646019e-03
      4.67015244e-03 3.47702391e-03 -1.26179727e-03 -1.63724390e-03
      -1.76596921e-03 -3.37125687e-03 -1.36119837e-03 2.07256083e-03
      2.81115994e-03 6.00456167e-03 4.47083311e-03 -1.62294542e-03
      -2.10528914e-03 -2.27079797e-03 -3.37114884e-03 -1.36127102e-03
      2.07221205e-03 2.81079672e-03 6.00490812e-03 4.47074603e-03
      -1.62206951e-03 -2.10512965e-03 -2.27074232e-03 -4.33466211e-03
      -1.75010459e-03 2.66448734e-03 3.61387734e-03 7.72069907e-03
      5.74858300e-03 -2.08633370e-03 -2.70693167e-03 -2.91986694e-03
      -1.23395142e-03 -5.57403720e-04 1.86785706e-03 1.85699156e-03
      6.54091593e-03 1.87692291e-03 -4.87437763e-04 -3.04265739e-03
      -1.21695758e-03 -1.58632954e-03 -7.16677168e-04 2.40168767e-03
      2.38756509e-03 8.40971898e-03 2.41323770e-03 -6.26564841e-04
      -3.91192222e-03 -1.56445091e-03 -1.58679136e-03 -7.15683389e-04
      2.40166811e-03 2.38753273e-03 8.40956252e-03 2.41316832e-03
      -6.27005822e-04 -3.91205540e-03 -1.56483322e-03 -2.03992939e-03
      -9.20183898e-04 3.08806146e-03 3.06969020e-03 1.08122565e-02
      3.10271000e-03 -8.05970340e-04 -5.02970023e-03 -2.01166002e-03
      2.00487513e-04 -2.07824662e-04 -5.92140539e-04 2.19306978e-03
      4.46553156e-03 4.70607978e-04 2.99686054e-03 -5.50041092e-04
      -1.71456591e-03 2.57702486e-04 -2.67164374e-04 -7.61173491e-04
      2.81944335e-03 5.74189285e-03 6.05055422e-04 3.85317253e-03
      -7.07158179e-04 -2.20448477e-03 2.58046930e-04 -2.67247815e-04
      -7.61436415e-04 2.81945802e-03 5.74142998e-03 6.05081499e-04
      3.85314994e-03 -7.07085826e-04 -2.20409618e-03 3.31688527e-04
      -3.43554071e-04 -9.78796976e-04 3.62473773e-03 7.38247577e-03
      7.77946610e-04 4.95413272e-03 -9.09062801e-04 -2.83389329e-03
      4.22973745e-03 6.57401688e-04 -4.50460240e-04 -1.67356420e-03
      3.26752616e-03 2.34108907e-03 3.59409908e-03 2.87915650e-03
      1.94239477e-03 5.43820020e-03 8.45251023e-04 -5.79101790e-04
      -2.15173233e-03 4.20144666e-03 3.01001198e-03 4.62145684e-03
      3.70156718e-03 2.49730982e-03 5.43813873e-03 8.45173839e-04
      -5.79197775e-04 -2.15172488e-03 4.20114677e-03 3.01027764e-03
      4.62041749e-03 3.70163540e-03 2.49729236e-03 6.99185021e-03
      1.08667812e-03 -7.44604564e-04 -2.76651210e-03 5.40191261e-03
      3.87040875e-03 5.94114373e-03 4.75898106e-03 3.21073318e-03
      3.07512324e-04 -2.44420487e-04 2.66187242e-03 -3.36564372e-05
      1.77561154e-03 -3.04471730e-04 4.66808351e-03 4.84806346e-03
      1.35982363e-03 3.95400391e-04 -3.14375793e-04 3.42205260e-03
      -4.32937632e-05 2.28317408e-03 -3.91422014e-04 6.00218168e-03
      6.23330427e-03 1.74837199e-03 3.95481329e-04 -3.14441917e-04
      3.42190033e-03 -4.32787674e-05 2.28222460e-03 -3.91192560e-04
      6.00191904e-03 6.23351242e-03 1.74816581e-03 5.08510857e-04
      -4.04437771e-04 4.39913012e-03 -5.56712184e-05 2.93460279e-03
      -5.02908602e-04 7.71721452e-03 8.01461842e-03 2.24767812e-03
      3.33958352e-03 -6.32577576e-04 5.16167795e-03 1.97306834e-03
      7.77183427e-03 1.38928834e-03 3.65719013e-03 1.80447567e-03
      6.32036943e-04 4.29482292e-03 -8.13363178e-04 6.63689198e-03
      2.53684376e-03 9.99223255e-03 1.78624562e-03 4.70237387e-03
      2.32094619e-03 8.13344552e-04 4.29272419e-03 -8.12728598e-04
      6.63678441e-03 2.53786915e-03 9.99292172e-03 1.78624410e-03
      4.70029889e-03 2.31844629e-03 8.11471313e-04 5.52059524e-03
      -1.04499911e-03 8.53358489e-03 3.26302811e-03 1.28478799e-02
      2.29662214e-03 6.04359107e-03 2.98202387e-03 1.04425335e-03
      1.85695558e-03 2.10848893e-03 3.44559690e-03 4.32271603e-03
      3.16486065e-03 8.51802819e-04 7.04066688e-03 -7.85765296e-04
      2.35316111e-03 2.38714670e-03 2.71093473e-03 4.42924537e-03
      5.54606970e-03 4.07132087e-03 1.09517947e-03 9.05333273e-03
      -1.00990385e-03 3.02514085e-03 2.37824023e-03 2.71071075e-03
      4.42947680e-03 5.55668632e-03 4.06819396e-03 1.09517761e-03
      9.05195158e-03 -1.01030699e-03 3.01620271e-03 3.05726449e-03
      3.48522561e-03 5.69400238e-03 7.12925754e-03 5.23338234e-03
      1.40809035e-03 1.16395680e-02 -1.29849522e-03 3.87752196e-03
      8.34707078e-03 9.61658196e-04 -2.74167105e-04 1.04160875e-03
      1.88820995e-03 -1.06097385e-03 5.99652948e-03 3.06649692e-03
      7.43026752e-03 1.07314903e-02 1.23631302e-03 -3.52867617e-04
      1.33916573e-03 2.42824480e-03 -1.36419630e-03 7.70999584e-03
      3.94271920e-03 9.55273490e-03 1.07320519e-02 1.23628811e-03
      -3.52898292e-04 1.33924710e-03 2.42709718e-03 -1.36407791e-03
      7.71032460e-03 3.94294271e-03 9.55316331e-03 1.37977656e-02
      1.58937904e-03 -4.54198685e-04 1.72183057e-03 3.12125636e-03
      -1.75392639e-03 9.91349574e-03 5.06960135e-03 1.22820409e-02
      7.43631134e-03 3.65612609e-03 4.39918134e-03 1.48698990e-03
      1.68712239e-03 -6.43277948e-04 -1.01664185e-03 1.62911962e-03
      7.24278716e-03 9.56079271e-03 4.70057596e-03 5.65541256e-03
      1.91147148e-03 2.17052735e-03 -8.26970441e-04 -1.30755221e-03
      2.09439523e-03 9.31195170e-03 9.56084114e-03 4.69994405e-03
      5.65550150e-03 1.91183458e-03 2.16868753e-03 -8.27031094e-04
      -1.30673673e-03 2.09538825e-03 9.31219570e-03 1.22922799e-02
      6.04258245e-03 7.27048749e-03 2.45759403e-03 2.79007386e-03
      -1.06319587e-03 -1.68065762e-03 2.69382959e-03 1.19725624e-02
      5.23475697e-03 9.79684526e-04 -1.22615357e-03 -3.54771060e-03
      4.74329665e-03 7.23031815e-04 6.87985262e-03 4.05405881e-03
      3.72367050e-03 6.73019979e-03 1.25927094e-03 -1.57743692e-03
      -4.56133997e-03 6.09963993e-03 9.32289287e-04 8.84564407e-03
      5.21203736e-03 4.78730910e-03 6.73021562e-03 1.25908677e-03
      -1.57702027e-03 -4.56132414e-03 6.09679148e-03 9.29424423e-04
      8.84629972e-03 5.21283038e-03 4.78820130e-03 8.65287427e-03
      1.61840965e-03 -2.02882499e-03 -5.86455688e-03 7.84016587e-03
      1.19841623e-03 1.13739669e-02 6.70179399e-03 6.15591463e-03
      2.73487810e-03 -5.67058974e-04 -1.69647543e-03 -1.80177012e-04
      5.48557239e-03 1.34512840e-03 3.88547406e-03 1.31597498e-03
      3.42056295e-03 3.51626566e-03 -7.29097053e-04 -2.18129437e-03
      -2.31586004e-04 7.05255754e-03 1.72945438e-03 4.99542151e-03
      1.69190858e-03 4.39785188e-03 3.51581560e-03 -7.29053107e-04
      -2.18116888e-03 -2.31657876e-04 7.05286907e-03 1.72944309e-03
      4.99543082e-03 1.69189845e-03 4.39741369e-03 4.52032685e-03
      -9.37380944e-04 -2.80450471e-03 -2.97756167e-04 9.06756055e-03
      2.22357363e-03 6.42245403e-03 2.17522215e-03 5.65379858e-03
      2.53213942e-03 1.67305546e-03 1.65020395e-03 -1.10416979e-04
      4.36714990e-03 1.34311419e-03 7.19586620e-04 1.50773313e-03
      4.29699291e-03 3.25570023e-03 2.15088017e-03 2.12116074e-03
      -1.41944329e-04 5.61503600e-03 1.72455492e-03 9.23433166e-04
      1.93840952e-03 5.52476803e-03 3.25586158e-03 2.15110765e-03
      2.12156121e-03 -1.42068049e-04 5.61579410e-03 1.72739150e-03
      9.25314380e-04 1.93845830e-03 5.52495802e-03 4.18622745e-03
      2.76546436e-03 2.72704032e-03 -1.82632051e-04 7.22047174e-03
      2.21796683e-03 1.18743978e-03 2.49216845e-03 7.10359821e-03
      -1.77013734e-03 -2.80677387e-03 3.87015333e-03 2.67480384e-03
      2.53014662e-03 4.89257509e-03 3.60544608e-03 1.38140371e-04
      4.60288161e-03 -2.27570930e-03 -3.60880629e-03 4.97564487e-03
      3.43901617e-03 3.25187622e-03 6.29048655e-03 4.63557849e-03
      1.77620139e-04 5.91816241e-03 -2.27595982e-03 -3.60881630e-03
      4.97561926e-03 3.43903247e-03 3.25290766e-03 6.29043952e-03
      4.63513145e-03 1.77400230e-04 5.91805484e-03 -2.92600086e-03
      -4.64003067e-03 6.39687991e-03 4.42159083e-03 4.18080715e-03
      8.08775052e-03 5.95946098e-03 2.28100631e-04 7.60914804e-03
      -3.49874492e-03 -6.60185979e-05 7.76692003e-04 1.76631834e-03
      -2.75319326e-03 5.01475390e-03 1.13616767e-03 1.42996199e-03
      2.95929913e-03 -4.49838024e-03 -8.48339187e-05 9.98678035e-04
      2.27087876e-03 -3.54025559e-03 6.44740649e-03 1.46046036e-03
      1.83842191e-03 3.80483805e-03 -4.49812878e-03 -8.48308482e-05
      9.98702249e-04 2.27096048e-03 -3.54069890e-03 6.44755969e-03
      1.46079215e-03 1.83852238e-03 3.80508904e-03 -5.78329992e-03
      -1.09007378e-04 1.28414074e-03 2.91967485e-03 -4.55288729e-03
      8.28954671e-03 1.87774189e-03 2.36368645e-03 4.89228917e-03
      -8.21357127e-04 -2.28619203e-03 -2.73824466e-04 4.67072800e-03
      -3.91999492e-03 2.22206209e-03 5.42501081e-03 1.28249219e-03
      8.70109870e-05 -1.05610141e-03 -2.93935207e-03 -3.51974566e-04
      6.00517774e-03 -5.04004210e-03 2.85679777e-03 6.97487919e-03
      1.64890231e-03 1.11792891e-04 -1.05571467e-03 -2.93954741e-03
      -3.52058065e-04 6.00521639e-03 -5.03993081e-03 2.85689067e-03
      6.97532715e-03 1.64902699e-03 1.12241236e-04 -1.35743897e-03
      -3.77936964e-03 -4.52536915e-04 7.72093516e-03 -6.47997251e-03
      3.67296697e-03 8.96810368e-03 2.12015677e-03 1.44209873e-04
      -1.45510014e-03 -2.77232705e-03 -8.44824361e-04 -1.00924529e-03
      -3.59675661e-03 1.16267975e-03 1.72774482e-03 6.18052343e-03
      3.83497332e-03 -1.87081646e-03 -3.56478407e-03 -1.08613877e-03
      -1.29763503e-03 -4.62389830e-03 1.49532477e-03 2.22122972e-03
      7.94578344e-03 4.93074674e-03 -1.87115709e-03 -3.56473518e-03
      -1.08638953e-03 -1.29762071e-03 -4.62442543e-03 1.49508670e-03
      2.22165277e-03 7.94696249e-03 4.93049109e-03 -2.40574032e-03
      -4.58369870e-03 -1.39670470e-03 -1.66841352e-03 -5.94504317e-03
      1.92283397e-03 2.85621011e-03 1.02167465e-02 6.33928878e-03
      -1.31395971e-03 2.22014985e-03 5.19758090e-03 3.32230888e-03
      -4.73296316e-03 -2.36764294e-03 -2.87155830e-03 -9.01213672e-04
      -5.83323592e-04 -1.68913463e-03 2.85445247e-03 6.68189302e-03
      4.27167211e-03 -6.08525611e-03 -3.04409815e-03 -3.69183579e-03
      -1.15862896e-03 -7.49747269e-04 -1.68919761e-03 2.85335095e-03
      6.68202713e-03 4.27203206e-03 -6.08547917e-03 -3.04411678e-03
      -3.69209424e-03 -1.15844072e-03 -7.49759551e-04 -2.17151362e-03
      3.66856041e-03 8.59026331e-03 5.49278222e-03 -7.82420859e-03
      -3.91384587e-03 -4.74676210e-03 -1.48932822e-03 -9.63666767e-04
      -3.33246659e-03 -1.48013188e-03 -2.05753115e-03 -1.50597515e-03
      2.04089665e-04 3.15040466e-03 6.45774975e-03 1.93706388e-03
      2.01445655e-03 -4.28480050e-03 -1.90304255e-03 -2.64532142e-03
      -1.93609786e-03 2.62597692e-04 4.05054633e-03 8.30284320e-03
      2.49050860e-03 2.58987583e-03 -4.29026131e-03 -1.90310215e-03
      -2.64539127e-03 -1.93625421e-03 2.62441958e-04 4.05050348e-03
      8.30286741e-03 2.49067438e-03 2.58437917e-03 -5.51630743e-03
      -2.44686659e-03 -3.40112019e-03 -2.48926878e-03 3.37678357e-04
      5.20782499e-03 1.06751435e-02 3.20229307e-03 3.32259294e-03
      2.48830975e-03 -2.94014602e-03 -1.44217411e-04 3.57413641e-03
      1.92468893e-03 5.21019800e-04 -2.95380945e-03 -1.20218599e-03
      1.65790232e-04 3.19921225e-03 -3.78018036e-03 -1.85375859e-04
      4.59540542e-03 2.47465353e-03 6.69891364e-04 -3.79780750e-03
      -1.54569384e-03 2.13144318e-04 3.19607859e-03 -3.78024951e-03
      -1.85390236e-04 4.59537888e-03 2.47458182e-03 6.69898058e-04
      -3.79775744e-03 -1.54565636e-03 2.09976090e-04 4.10918891e-03
      -4.86031175e-03 -2.38299006e-04 5.90845617e-03 3.18167312e-03
      8.61309352e-04 -4.88289865e-03 -1.98730594e-03 2.69950368e-04
      -4.30884818e-03 2.35194748e-04 -1.64709100e-03 -8.88332434e-04
      1.99627224e-03 3.96694086e-04 2.35364423e-03 2.23144051e-03
      -1.05974090e-03 -5.54034812e-03 3.02312430e-04 -2.11773114e-03
      -1.14216679e-03 2.56667263e-03 5.10241778e-04 3.02641164e-03
      2.86897947e-03 -1.36304111e-03 -5.55181177e-03 3.02667904e-04
      -2.11778167e-03 -1.14213012e-03 2.56667752e-03 5.10031939e-04
      3.02611594e-03 2.86957948e-03 -1.37052441e-03 -7.13855866e-03
      3.89039778e-04 -2.72291782e-03 -1.46848569e-03 3.30006192e-03
      6.56020944e-04 3.89110367e-03 3.68944020e-03 -1.76276779e-03
      -1.04249491e-04 5.97469555e-03 1.26469461e-03 -1.47301599e-03
      1.41930964e-03 -1.94666244e-03 -1.69752003e-03 -2.09980970e-03
      -1.25524460e-03 -1.34004280e-04 7.68173672e-03 1.62606547e-03
      -1.89388508e-03 1.82474800e-03 -2.50265514e-03 -2.18265108e-03
      -2.69980845e-03 -1.61383627e-03 -1.33960042e-04 7.68176373e-03
