<?xml version="1.0"?>
<opencv_storage>
<my_svm type_id="opencv-ml-svm">
  <svm_type>C_SVC</svm_type>
  <kernel><type>LINEAR</type></kernel>
  <C>1.</C>
  <term_criteria><epsilon>1.1920928955078125e-07</epsilon>
    <iterations>1000</iterations></term_criteria>
  <var_all>17424</var_all>
  <var_count>17424</var_count>
  <class_count>2</class_count>
  <class_labels type_id="opencv-matrix">
    <rows>1</rows>
    <cols>2</cols>
    <dt>i</dt>
    <data>
      5 6</data></class_labels>
  <sv_total>1</sv_total>
  <support_vectors>
    <_>
      1.69837649e-03 3.96297546e-03 5.64858690e-03 -5.94533514e-03
      2.43478804e-03 -7.80162960e-03 -7.17594707e-03 -3.42045189e-03
      2.35195737e-03 2.18231627e-03 5.09483088e-03 7.26137869e-03
      -7.64254108e-03 3.12695536e-03 -1.00307399e-02 -9.22657643e-03
      -4.39785141e-03 3.02263373e-03 2.18326924e-03 5.09536685e-03
      7.26157287e-03 -7.64401862e-03 3.13208019e-03 -1.00306980e-02
      -9.22599435e-03 -4.39730892e-03 3.02366959e-03 2.80537596e-03
      6.55064080e-03 9.33489949e-03 -9.82614513e-03 4.02247952e-03
      -1.28967036e-02 -1.18624549e-02 -5.65384747e-03 3.88588943e-03
      -2.11917004e-03 -5.18040918e-03 4.87206643e-03 -3.58782895e-03
      1.08761285e-02 -8.18485953e-03 5.40309958e-03 -5.37150400e-03
      -1.48642157e-05 -2.72371108e-03 -6.66040834e-03 6.26474153e-03
      -4.61292174e-03 1.39885964e-02 -1.05238464e-02 6.94535812e-03
      -6.90634828e-03 -1.75858349e-05 -2.72558583e-03 -6.66127587e-03
      6.26408262e-03 -4.61261766e-03 1.39854401e-02 -1.05229001e-02
      6.94575021e-03 -6.90625515e-03 -1.77419970e-05 -3.50312260e-03
      -8.56434740e-03 8.05466529e-03 -5.93050383e-03 1.79877132e-02
      -1.35300271e-02 8.92834179e-03 -8.87963455e-03 -2.08503316e-05
      -3.28335958e-03 2.61045247e-03 1.08667952e-03 -8.65130592e-03
      5.74597390e-03 -6.73495186e-03 6.49534306e-03 -5.70575427e-03
      -1.02955836e-03 -4.22145473e-03 3.35605303e-03 1.39667769e-03
      -1.11226514e-02 7.39225326e-03 -8.65985360e-03 8.35071970e-03
      -7.33608007e-03 -1.32370624e-03 -4.22229571e-03 3.35564232e-03
      1.39520061e-03 -1.11231152e-02 7.39024067e-03 -8.65924079e-03
      8.35122168e-03 -7.33586587e-03 -1.32567785e-03 -5.42865554e-03
      4.31408407e-03 1.79321284e-03 -1.43005587e-02 9.50761884e-03
      -1.11341178e-02 1.07367225e-02 -9.43196658e-03 -1.70442986e-03
      1.14297811e-02 -2.85386411e-03 2.66332179e-03 -1.31462533e-02
      -7.84865580e-03 -1.08631831e-02 7.48689054e-03 -3.28907394e-03
      1.13549577e-02 1.46954078e-02 -3.66904773e-03 3.42388963e-03
      -1.69011988e-02 -1.00920303e-02 -1.39661245e-02 9.62455571e-03
      -4.22964757e-03 1.45986490e-02 1.46962283e-02 -3.66950827e-03
      3.42332013e-03 -1.69020481e-02 -1.00894850e-02 -1.39675159e-02
      9.62534733e-03 -4.23018681e-03 1.45969335e-02 1.88951194e-02
      -4.71767550e-03 4.40091919e-03 -2.17297561e-02 -1.29733551e-02
      -1.79571752e-02 1.23735853e-02 -5.43988962e-03 1.87667385e-02
      -4.36594477e-03 2.18828185e-03 -1.97406895e-02 -1.17223877e-02
      9.83275566e-03 -6.87685749e-03 -1.34017738e-03 5.07782027e-03
      -2.28281016e-03 -5.61595894e-03 2.81186844e-03 -2.53818631e-02
      -1.50706219e-02 1.26475440e-02 -8.84139258e-03 -1.72348705e-03
      6.52813818e-03 -2.93636927e-03 -5.61584719e-03 2.81292642e-03
      -2.53836531e-02 -1.50717609e-02 1.26438858e-02 -8.84061679e-03
      -1.72238972e-03 6.52850745e-03 -2.93717743e-03 -7.22372113e-03
      3.61451786e-03 -3.26373838e-02 -1.93766654e-02 1.62634030e-02
      -1.13661448e-02 -2.21501663e-03 8.39316659e-03 -3.77807859e-03
      8.07339512e-03 -1.15111209e-02 -1.02716368e-02 -1.27185183e-02
      9.28070955e-03 -7.15465611e-03 -4.67593269e-03 -2.76597892e-03
      5.65010589e-03 1.03801750e-02 -1.48000894e-02 -1.32068861e-02
      -1.63534116e-02 1.19382693e-02 -9.19856783e-03 -6.01205090e-03
      -3.55614093e-03 7.26452051e-03 1.03782928e-02 -1.47999851e-02
      -1.32062044e-02 -1.63523704e-02 1.19323730e-02 -9.19885281e-03
      -6.01224927e-03 -3.55630531e-03 7.26266485e-03 1.33436415e-02
      -1.90286525e-02 -1.69800408e-02 -2.10257992e-02 1.53492447e-02
      -1.18267434e-02 -7.73021299e-03 -4.57224203e-03 9.33783967e-03
      -6.20715274e-03 5.67502389e-03 8.61550216e-03 -6.68767188e-03
      -4.77502216e-03 -1.20229032e-02 -3.01892404e-03 -4.10871534e-03
      -7.95017928e-03 -7.98178185e-03 7.29702739e-03 1.10780429e-02
      -8.59923195e-03 -6.13328768e-03 -1.54577047e-02 -3.88171338e-03
      -5.28325513e-03 -1.02250632e-02 -7.98562076e-03 7.29543949e-03
      1.10776015e-02 -8.59844685e-03 -6.13927655e-03 -1.54560665e-02
      -3.88128636e-03 -5.28180599e-03 -1.02257356e-02 -1.02687143e-02
      9.38058272e-03 1.42438747e-02 -1.10561671e-02 -7.88560882e-03
      -1.98716819e-02 -4.99053346e-03 -6.79169036e-03 -1.31517509e-02
      -7.39589147e-03 -5.70062362e-03 2.23964662e-03 -7.75593566e-03
      6.18539518e-04 3.09816911e-03 -2.86503346e-03 1.25329185e-03
      5.27069264e-04 -9.50930081e-03 -7.32943462e-03 2.87802727e-03
      -9.97396838e-03 8.01269372e-04 3.98283545e-03 -3.68455402e-03
      1.61038805e-03 6.78377401e-04 -9.50982515e-03 -7.32925162e-03
      2.87871854e-03 -9.97194182e-03 7.93614658e-04 3.98354372e-03
      -3.68232490e-03 1.61107525e-03 6.76653755e-04 -1.22273024e-02
      -9.42340214e-03 3.69925634e-03 -1.28237056e-02 1.02808606e-03
      5.12102293e-03 -4.73562675e-03 2.07011518e-03 8.70906457e-04
      -1.05615817e-02 -5.57871070e-03 3.74572468e-03 -9.24620312e-03
      1.27968041e-03 -1.01833961e-04 4.74398211e-03 -2.07060762e-03
      -7.73284119e-03 -1.35790417e-02 -7.17270374e-03 4.81727580e-03
      -1.18863294e-02 1.64110016e-03 -1.30797838e-04 6.09931769e-03
      -2.66030501e-03 -9.94131621e-03 -1.35831051e-02 -7.17382180e-03
      4.81732422e-03 -1.18880095e-02 1.64769928e-03 -1.30958448e-04
      6.09806832e-03 -2.66102003e-03 -9.94494744e-03 -1.74638163e-02
      -9.22358222e-03 6.19542925e-03 -1.52824624e-02 2.11306778e-03
      -1.68204671e-04 7.84025900e-03 -3.41886282e-03 -1.27851944e-02
      -7.47623853e-03 -1.55464523e-02 -5.98757155e-03 -6.87132170e-03
      2.59068608e-02 1.02205351e-02 4.89795068e-03 -2.84521841e-03
      -9.11684055e-03 -9.61336959e-03 -1.99882835e-02 -7.69796502e-03
      -8.83490406e-03 3.33144255e-02 1.31406467e-02 6.29739882e-03
      -3.65814613e-03 -1.17226606e-02 -9.61495284e-03 -1.99890975e-02
      -7.69837573e-03 -8.83453060e-03 3.33096497e-02 1.31399473e-02
      6.29761210e-03 -3.65800387e-03 -1.17216362e-02 -1.23634506e-02
      -2.57002506e-02 -9.89747327e-03 -1.13591291e-02 4.28339019e-02
      1.68941654e-02 8.09697341e-03 -4.70315572e-03 -1.50719713e-02
      -1.53386686e-02 -1.67333223e-02 -6.66770479e-03 -9.73807462e-03
      7.04470323e-03 3.66118946e-03 1.10987052e-02 1.04576070e-02
      -6.24651462e-03 -1.97200570e-02 -2.15143673e-02 -8.57243314e-03
      -1.25198001e-02 9.05655511e-03 4.70763259e-03 1.42681357e-02
      1.34447739e-02 -8.03014264e-03 -1.97260529e-02 -2.15132833e-02
      -8.57186504e-03 -1.25203682e-02 9.05977562e-03 4.70720511e-03
      1.42699145e-02 1.34462751e-02 -8.03182926e-03 -2.53606699e-02
      -2.76600588e-02 -1.10205458e-02 -1.60968676e-02 1.16471024e-02
      6.05262117e-03 1.83449369e-02 1.72871388e-02 -1.03252307e-02
      -4.82122740e-03 -1.17584215e-02 -5.14662452e-03 -2.88839592e-03
      1.39973667e-02 1.42912311e-03 3.91189288e-03 -9.40929819e-03
      -8.47817771e-03 -6.19844394e-03 -1.51182003e-02 -6.61668088e-03
      -3.71365668e-03 1.79972947e-02 1.83895684e-03 5.02940174e-03
      -1.20977862e-02 -1.09002758e-02 -6.19895104e-03 -1.51179777e-02
      -6.61732117e-03 -3.71366157e-03 1.79941654e-02 1.83772563e-03
      5.03064552e-03 -1.20974211e-02 -1.08998818e-02 -7.96972588e-03
      -1.94376986e-02 -8.50745849e-03 -4.77471203e-03 2.31362320e-02
      2.36473512e-03 6.46774750e-03 -1.55539736e-02 -1.40138259e-02
      -3.22427563e-02 -7.53057050e-03 8.68219137e-03 -7.23283971e-04
      8.14884622e-03 -4.15714370e-04 -2.85447785e-03 5.94345154e-04
      -1.93263106e-02 -4.14549895e-02 -9.68209747e-03 1.11629749e-02
      -9.29853530e-04 1.04753794e-02 -5.34620136e-04 -3.66988545e-03
      7.64137483e-04 -2.48481836e-02 -4.14561071e-02 -9.68357641e-03
      1.11626117e-02 -9.29952832e-04 1.04771117e-02 -5.34485909e-04
      -3.66971851e-03 7.64315366e-04 -2.48488076e-02 -5.33007272e-02
      -1.24502331e-02 1.43521307e-02 -1.19554799e-03 1.34683754e-02
      -6.87364023e-04 -4.71800892e-03 9.82664060e-04 -3.19485590e-02
      -9.55175608e-03 -8.89700744e-03 -8.27798154e-03 -1.20448638e-02
      4.95607872e-03 -4.45633382e-03 5.28086349e-03 -2.94217700e-03
      -3.90501134e-03 -1.22820325e-02 -1.14395907e-02 -1.06408484e-02
      -1.54875070e-02 6.36873301e-03 -5.72923152e-03 6.78953156e-03
      -3.78324674e-03 -5.02173090e-03 -1.22827971e-02 -1.14388177e-02
      -1.06417192e-02 -1.54862432e-02 6.37399219e-03 -5.72928088e-03
      6.79017883e-03 -3.78234894e-03 -5.02415607e-03 -1.57937109e-02
      -1.47077991e-02 -1.36792939e-02 -1.99124925e-02 8.19080230e-03
      -7.36577949e-03 8.73003434e-03 -4.86359512e-03 -6.46091485e-03
      -9.70521756e-03 -4.89104446e-03 -3.66702280e-03 -8.18682183e-03
      -8.92221928e-03 -1.25525566e-02 3.11341882e-03 1.98146631e-03
      -2.70116143e-03 -1.24766305e-02 -6.28766650e-03 -4.71331738e-03
      -1.05255647e-02 -1.14768939e-02 -1.61389485e-02 4.00350476e-03
      2.54744501e-03 -3.47237545e-03 -1.24758203e-02 -6.28725626e-03
      -4.71523078e-03 -1.05267474e-02 -1.14727598e-02 -1.61401760e-02
      4.00334410e-03 2.54799356e-03 -3.47131654e-03 -1.60384048e-02
      -8.08256399e-03 -6.06060494e-03 -1.35339415e-02 -1.47577208e-02
      -2.07515862e-02 5.14784921e-03 3.27579072e-03 -4.46242001e-03
      -8.12417828e-03 -8.82444531e-03 -1.85051386e-03 -4.38909233e-03
      5.29741962e-03 -7.12307589e-03 3.25622852e-03 -8.49852525e-03
      -1.61990765e-02 -1.04454765e-02 -1.13458103e-02 -2.38022301e-03
      -5.64402016e-03 6.81657623e-03 -9.15678963e-03 4.18571103e-03
      -1.09258750e-02 -2.08271947e-02 -1.04427552e-02 -1.13462657e-02
      -2.37961905e-03 -5.64340735e-03 6.81289053e-03 -9.15821549e-03
      4.18538461e-03 -1.09294439e-02 -2.08247527e-02 -1.34265348e-02
      -1.45881781e-02 -3.06078466e-03 -7.25696608e-03 8.76664557e-03
      -1.17729837e-02 5.38009265e-03 -1.40511123e-02 -2.67744400e-02
      -1.94248576e-02 -7.41222920e-03 -1.94920856e-03 -5.46763744e-03
      1.61309652e-02 -9.57464147e-03 3.21840891e-03 2.07476667e-04
      -2.81819119e-03 -2.49750800e-02 -9.53027979e-03 -2.50696577e-03
      -7.03007681e-03 2.07412001e-02 -1.23075219e-02 4.13809484e-03
      2.66755116e-04 -3.62359313e-03 -2.49760989e-02 -9.52905696e-03
      -2.50541279e-03 -7.02980673e-03 2.07391735e-02 -1.23103457e-02
      4.13825363e-03 2.66883435e-04 -3.62339499e-03 -3.21124680e-02
      -1.22519936e-02 -3.22232489e-03 -9.03865416e-03 2.66664363e-02
      -1.58240739e-02 5.32079162e-03 3.43134365e-04 -4.65891324e-03
      -6.40353328e-03 2.73590046e-03 -1.01774069e-03 -5.79551328e-04
      9.25026834e-03 -2.97857751e-03 -2.48286966e-03 -7.55081838e-03
      -1.32750263e-02 -8.23288411e-03 3.51816346e-03 -1.30778342e-03
      -7.44661433e-04 1.18907755e-02 -3.83096118e-03 -3.19391885e-03
      -9.70704481e-03 -1.70674101e-02 -8.23517237e-03 3.51692201e-03
      -1.30837667e-03 -7.45354511e-04 1.18936645e-02 -3.82964266e-03
      -3.19113303e-03 -9.70957521e-03 -1.70685630e-02 -1.05877863e-02
      4.52250009e-03 -1.68124808e-03 -9.57701937e-04 1.52887329e-02
      -4.92557418e-03 -4.10501938e-03 -1.24822594e-02 -2.19446775e-02
      4.19232808e-03 -4.68659634e-03 -8.89769383e-03 -1.74780264e-02
      1.53837614e-02 -1.98118575e-03 3.22985603e-03 -8.05811724e-04
      -1.33045937e-03 5.39048482e-03 -6.02469919e-03 -1.14354640e-02
      -2.24720296e-02 1.97789017e-02 -2.54504615e-03 4.14980855e-03
      -1.03703968e-03 -1.70984364e-03 5.38937049e-03 -6.02538558e-03
      -1.14393877e-02 -2.24729329e-02 1.97796468e-02 -2.54744710e-03
      4.15135175e-03 -1.03744201e-03 -1.71204028e-03 6.92964206e-03
      -7.74573768e-03 -1.47020891e-02 -2.88941283e-02 2.54306886e-02
      -3.27247079e-03 5.33377007e-03 -1.33513450e-03 -2.20023398e-03
      -1.42786521e-02 -1.19368089e-02 2.86533905e-04 1.22374222e-02
      1.57584380e-02 -1.04108416e-02 2.45773536e-03 -2.41538952e-03
      -1.39537854e-02 -1.83582027e-02 -1.53473821e-02 3.67769768e-04
      1.57310721e-02 2.02622451e-02 -1.33862654e-02 3.15984804e-03
      -3.10543296e-03 -1.79405604e-02 -1.83615293e-02 -1.53479762e-02
      3.68107343e-04 1.57338195e-02 2.02612765e-02 -1.33853946e-02
      3.16011789e-03 -3.10455449e-03 -1.79425105e-02 -2.36075949e-02
      -1.97331868e-02 4.72470128e-04 2.02256534e-02 2.60520093e-02
      -1.72109473e-02 4.06288216e-03 -3.99148418e-03 -2.30689105e-02
      -2.59800872e-04 2.56652734e-03 3.67393764e-03 3.91978683e-04
      1.16331344e-02 -6.52887067e-03 -1.02516152e-02 -3.24551971e-03
      -2.78271479e-03 -3.33261210e-04 3.30112432e-03 4.72569047e-03
      5.04100171e-04 1.49593875e-02 -8.39293376e-03 -1.31806871e-02
      -4.17323876e-03 -3.57740908e-03 -3.32136697e-04 3.30021791e-03
      4.72392933e-03 5.03812917e-04 1.49591239e-02 -8.39426182e-03
      -1.31816203e-02 -4.17233491e-03 -3.57745797e-03 -4.26047976e-04
      4.24481370e-03 6.07626559e-03 6.47926005e-04 1.92363765e-02
      -1.07909115e-02 -1.69478469e-02 -5.36497915e-03 -4.59911814e-03
      6.31762610e-04 -1.61663326e-03 9.58663411e-03 2.84091779e-03
      1.29746888e-02 1.20977720e-03 -6.41284091e-03 -2.08395417e-03
      4.25078766e-03 8.11427424e-04 -2.07893038e-03 1.23261008e-02
      3.65313608e-03 1.66950803e-02 1.55490404e-03 -8.24356452e-03
      -2.67814286e-03 5.46473078e-03 8.12444079e-04 -2.07850803e-03
      1.23257386e-02 3.65265436e-03 1.66796558e-02 1.55538623e-03
      -8.24534707e-03 -2.67883902e-03 5.46560995e-03 1.04349200e-03
      -2.67288391e-03 1.58479288e-02 4.69694659e-03 2.14624181e-02
      1.99910975e-03 -1.05992118e-02 -3.44264577e-03 7.02648284e-03
      -9.96259972e-04 -5.19748125e-03 1.31101871e-03 -1.09213106e-02
      1.20775886e-02 -6.61902316e-03 2.25981278e-03 2.36020098e-03
      -1.23236806e-03 -1.28042197e-03 -6.68302365e-03 1.68675231e-03
      -1.40428990e-02 1.55183300e-02 -8.51043873e-03 2.90643587e-03
      3.03488667e-03 -1.58388296e-03 -1.27753522e-03 -6.68155216e-03
      1.68558769e-03 -1.40416753e-02 1.55280735e-02 -8.51097796e-03
      2.90504843e-03 3.03510064e-03 -1.58025254e-03 -1.64192379e-03
      -8.59127007e-03 2.16867006e-03 -1.80551447e-02 1.99518129e-02
      -1.09430272e-02 3.73629970e-03 3.90271121e-03 -2.03099335e-03
      5.93761401e-03 4.33373637e-03 -2.98546831e-04 -1.04959616e-02
      8.35242774e-03 -1.11359386e-02 4.13144706e-03 -7.35385204e-03
      -6.91220723e-03 7.63575640e-03 5.57185523e-03 -3.84042651e-04
      -1.34946890e-02 1.07382229e-02 -1.43178832e-02 5.31163765e-03
      -9.45500471e-03 -8.88541248e-03 7.63593800e-03 5.57454396e-03
      -3.83410050e-04 -1.34948147e-02 1.07379714e-02 -1.43178226e-02
      5.31163579e-03 -9.45513416e-03 -8.88592564e-03 9.81979631e-03
      7.16715213e-03 -4.93211846e-04 -1.73503235e-02 1.38051799e-02
      -1.84089467e-02 6.82895770e-03 -1.21566663e-02 -1.14225624e-02
      -1.24217374e-02 3.16735124e-03 -3.28209251e-03 -1.38939042e-02
      -2.28816364e-03 -1.81985646e-03 4.40667197e-03 8.57240427e-03
      -8.26643687e-03 -1.59710851e-02 4.07159980e-03 -4.22003679e-03
      -1.78636760e-02 -2.93521816e-03 -2.34033726e-03 5.66451531e-03
      1.10223871e-02 -1.06276348e-02 -1.59699190e-02 4.07115510e-03
      -4.21981094e-03 -1.78635642e-02 -2.93982821e-03 -2.33936938e-03
      5.66572091e-03 1.10216495e-02 -1.06271785e-02 -2.05331147e-02
      5.23343123e-03 -5.42573584e-03 -2.29675472e-02 -3.77115281e-03
      -3.00842756e-03 7.28294766e-03 1.41716227e-02 -1.36626884e-02
      9.71662533e-03 -3.76405567e-03 -2.75626453e-03 -1.53158950e-02
      -8.38814676e-03 4.53142542e-03 -3.03066289e-03 3.66728939e-03
      6.02331571e-03 1.24930292e-02 -4.83928993e-03 -3.54249030e-03
      -1.96913034e-02 -1.07838036e-02 5.82268136e-03 -3.89824435e-03
      4.71506827e-03 7.74450041e-03 1.24976076e-02 -4.83938586e-03
      -3.54399998e-03 -1.96918473e-02 -1.07850293e-02 5.82614960e-03
      -3.89594003e-03 4.71530063e-03 7.74355978e-03 1.60686448e-02
      -6.22179732e-03 -4.55492921e-03 -2.53173690e-02 -1.38652381e-02
      7.48634478e-03 -5.01122419e-03 6.06250623e-03 9.95631143e-03
      9.72260535e-03 1.43545528e-03 -8.02423339e-03 -4.08443902e-03
      9.83474497e-03 -8.98923900e-04 1.13145623e-04 -9.15251207e-03
      1.82292319e-03 1.24994824e-02 1.84494990e-03 -1.03177456e-02
      -5.25532430e-03 1.26498928e-02 -1.15355977e-03 1.44351434e-04
      -1.17678642e-02 2.34287442e-03 1.24994861e-02 1.84599485e-03
      -1.03155700e-02 -5.25141368e-03 1.26432888e-02 -1.15574163e-03
      1.47399260e-04 -1.17668631e-02 2.34362832e-03 1.60694700e-02
      2.37260549e-03 -1.32639976e-02 -6.75683422e-03 1.62623730e-02
      -1.48312596e-03 1.88072343e-04 -1.51292719e-02 3.01209954e-03
      -1.20300064e-02 -1.04082823e-02 1.53059908e-03 -1.46474559e-02
      4.37145168e-03 -1.07072957e-03 9.79803689e-03 5.39058959e-03
      4.82801767e-03 -1.54681504e-02 -1.33819385e-02 1.96856260e-03
      -1.88342705e-02 5.62354270e-03 -1.37747836e-03 1.25982575e-02
      6.93051331e-03 6.20627869e-03 -1.54667273e-02 -1.33831371e-02
      1.96774281e-03 -1.88322105e-02 5.62064257e-03 -1.37665973e-03
      1.25962663e-02 6.93053473e-03 6.20836997e-03 -1.98870786e-02
      -1.72067117e-02 2.53078784e-03 -2.42151879e-02 7.23053236e-03
      -1.77105574e-03 1.61962081e-02 8.91037378e-03 7.98068196e-03
      -6.95968280e-03 -6.24429435e-03 -3.55855376e-03 -4.79983073e-03
      1.35822338e-03 -1.30700902e-03 -1.68907951e-04 -7.80993747e-03
      -8.14691279e-03 -8.94929655e-03 -8.02844577e-03 -4.57422482e-03
      -6.17176061e-03 1.74749934e-03 -1.68311014e-03 -2.17987952e-04
      -1.00410320e-02 -1.04757221e-02 -8.94955732e-03 -8.02767463e-03
      -4.57656849e-03 -6.17117947e-03 1.74525473e-03 -1.68047997e-03
      -2.16362663e-04 -1.00410711e-02 -1.04762111e-02 -1.15080271e-02
      -1.03213815e-02 -5.88279963e-03 -7.93508161e-03 2.24546040e-03
      -2.16404907e-03 -2.79236847e-04 -1.29095428e-02 -1.34708537e-02
      -2.28138324e-02 -9.47394036e-03 -5.83585235e-04 -7.91145489e-03
      1.16223646e-02 -9.40108113e-03 -3.44048836e-03 2.05027359e-03
      7.65523582e-04 -2.93322690e-02 -1.21808350e-02 -7.50893785e-04
      -1.01706842e-02 1.49430251e-02 -1.20877894e-02 -4.42436803e-03
      2.63593532e-03 9.84049169e-04 -2.93325055e-02 -1.21802716e-02
      -7.49489001e-04 -1.01718511e-02 1.49415648e-02 -1.20871114e-02
      -4.42152331e-03 2.63670692e-03 9.83553706e-04 -3.77134755e-02
      -1.56604182e-02 -9.64360253e-04 -1.30765690e-02 1.92105658e-02
      -1.55414501e-02 -5.68595110e-03 3.38988448e-03 1.26431556e-03
      -9.24383989e-04 -1.54359387e-02 -8.84895492e-03 -5.08161588e-03
      -9.95819736e-03 7.33332476e-03 7.25300843e-03 -1.31916790e-03
      6.60201674e-03 -1.18809927e-03 -1.98462661e-02 -1.13774659e-02
      -6.53361948e-03 -1.28021408e-02 9.42796376e-03 9.32534877e-03
      -1.69604691e-03 8.48867837e-03 -1.18821429e-03 -1.98461525e-02
      -1.13768997e-02 -6.53354079e-03 -1.28045492e-02 9.42857191e-03
      9.32559650e-03 -1.69594621e-03 8.48853495e-03 -1.52719603e-03
      -2.55165603e-02 -1.46277463e-02 -8.40041135e-03 -1.64613724e-02
      1.21216839e-02 1.19901225e-02 -2.18046573e-03 1.09143099e-02
      -6.04876550e-03 -1.99782066e-02 -9.44356993e-03 -4.42706933e-03
      1.40418103e-02 1.09503204e-02 4.21934808e-03 -1.67279562e-03
      -3.09665524e-03 -7.77682429e-03 -2.56856401e-02 -1.21421823e-02
      -5.69181656e-03 1.80517919e-02 1.40784886e-02 5.42507321e-03
      -2.15153140e-03 -3.98152322e-03 -7.77590834e-03 -2.56862622e-02
      -1.21428855e-02 -5.69193065e-03 1.80523992e-02 1.40789403e-02
      5.42502804e-03 -2.15068529e-03 -3.98172066e-03 -9.99738928e-03
      -3.30243930e-02 -1.56128611e-02 -7.31803197e-03 2.32077017e-02
      1.81008596e-02 6.97528897e-03 -2.76618684e-03 -5.11949370e-03
      -2.12259665e-02 -1.99580453e-02 3.01576196e-03 6.19573984e-03
      8.72918870e-03 -9.75734962e-04 1.22786313e-02 2.43424694e-03
      -1.05945754e-03 -2.72900742e-02 -2.56602652e-02 3.87768750e-03
      7.96574447e-03 1.12236356e-02 -1.25453924e-03 1.57867465e-02
      3.12842149e-03 -1.36199163e-03 -2.72904616e-02 -2.56599486e-02
      3.87778599e-03 7.96407554e-03 1.12233125e-02 -1.25450583e-03
      1.57867000e-02 3.12975678e-03 -1.36316090e-03 -3.50871533e-02
      -3.29912603e-02 4.98608267e-03 1.02392612e-02 1.44304801e-02
      -1.61296339e-03 2.02970970e-02 4.02227277e-03 -1.75241882e-03
      -1.32575049e-03 -8.87893513e-03 -3.93111305e-03 -5.05342754e-03
      -4.42508329e-03 -3.70789948e-03 4.48589213e-03 -7.67750898e-04
      2.77074566e-03 -1.70399109e-03 -1.14159733e-02 -5.05472301e-03
      -6.49577752e-03 -5.68824168e-03 -4.76811780e-03 5.76755032e-03
      -9.87299602e-04 3.56243365e-03 -1.70167105e-03 -1.14159118e-02
      -5.05446177e-03 -6.49732538e-03 -5.68908732e-03 -4.76734433e-03
      5.76763321e-03 -9.87291802e-04 3.56386905e-03 -2.18716240e-03
      -1.46778589e-02 -6.49914984e-03 -8.35179631e-03 -7.31306057e-03
      -6.13049511e-03 7.41549628e-03 -1.26962154e-03 4.58217319e-03
      -5.98031329e-03 -3.06380680e-03 5.06086508e-03 4.05650912e-03
      -7.60205695e-03 -9.36307572e-03 -5.33586321e-03 8.40467750e-04
      -1.54533438e-04 -7.68919662e-03 -3.93949496e-03 6.50671031e-03
      5.21572493e-03 -9.77697317e-03 -1.20387077e-02 -6.86188927e-03
      1.08016701e-03 -1.98516078e-04 -7.68683758e-03 -3.93923279e-03
      6.50616642e-03 5.21526905e-03 -9.77317523e-03 -1.20382681e-02
      -6.85930811e-03 1.08077435e-03 -1.96927605e-04 -9.88336373e-03
      -5.06513380e-03 8.36491864e-03 6.70562126e-03 -1.25692375e-02
      -1.54783754e-02 -8.82102922e-03 1.38900650e-03 -2.52978323e-04
      3.56427883e-03 -8.06165207e-03 5.07318007e-04 4.88488982e-03
      2.40471354e-03 4.20924462e-03 1.58988649e-03 -1.52494414e-02
      -1.74992848e-02 4.58168844e-03 -1.03646368e-02 6.53205090e-04
      6.28055027e-03 3.09224683e-03 5.41073363e-03 2.04436807e-03
      -1.96062550e-02 -2.24998668e-02 4.58493782e-03 -1.03649432e-02
      6.52382732e-04 6.28059730e-03 3.09215160e-03 5.41184237e-03
      2.04477459e-03 -1.96068753e-02 -2.24977601e-02 5.89369237e-03
      -1.33259119e-02 8.39983055e-04 8.07502214e-03 3.97622865e-03
      6.95660245e-03 2.62928661e-03 -2.52086222e-02 -2.89266985e-02
      -7.68876029e-03 -1.07141752e-02 -2.84909125e-04 7.47042184e-04
      3.24877026e-03 -6.73836935e-03 6.29250484e-04 -1.65953971e-02
      -1.03762941e-02 -9.88621078e-03 -1.37752183e-02 -3.65881191e-04
      9.60242469e-04 4.18071728e-03 -8.66448320e-03 8.08925543e-04
      -2.13369504e-02 -1.33415861e-02 -9.88270622e-03 -1.37758274e-02
      -3.67716420e-04 9.60465637e-04 4.17772355e-03 -8.66361428e-03
      8.09037709e-04 -2.13369187e-02 -1.33390948e-02 -1.27071859e-02
      -1.77115817e-02 -4.72227344e-04 1.23457564e-03 5.37615269e-03
      -1.11400420e-02 1.04004401e-03 -2.74331942e-02 -1.71510801e-02
      -1.37370722e-02 -2.00827066e-02 -7.60831172e-03 -3.76250106e-03
      1.71443857e-02 -8.23860057e-03 1.17217312e-02 -3.95866204e-03
      -8.57391674e-03 -1.76613294e-02 -2.58199815e-02 -9.78113897e-03
      -4.83747385e-03 2.20372286e-02 -1.05965063e-02 1.50704700e-02
      -5.08985575e-03 -1.10230427e-02 -1.76604576e-02 -2.58203857e-02
      -9.78159718e-03 -4.83745011e-03 2.20435560e-02 -1.05924644e-02
      1.50713306e-02 -5.08984597e-03 -1.10210488e-02 -2.27055028e-02
      -3.31968144e-02 -1.25750890e-02 -6.21954305e-03 2.83345785e-02
      -1.36240507e-02 1.93770044e-02 -6.54427614e-03 -1.41691938e-02
      -6.35434873e-03 -9.24054720e-03 -6.18151389e-03 1.99791306e-04
      2.32378254e-03 -9.31909680e-03 -1.10643925e-02 -5.33584692e-03
      5.43644652e-04 -8.16918351e-03 -1.18806604e-02 -7.94772152e-03
      2.56654661e-04 2.99216295e-03 -1.19813094e-02 -1.42261023e-02
      -6.86064269e-03 6.99616852e-04 -8.16801563e-03 -1.18810162e-02
      -7.94789381e-03 2.56805186e-04 2.98882229e-03 -1.19817043e-02
      -1.42262448e-02 -6.86090766e-03 7.01243698e-04 -1.05008427e-02
      -1.52755380e-02 -1.02188010e-02 3.29896633e-04 3.84848542e-03
      -1.54045532e-02 -1.82914734e-02 -8.82150978e-03 9.02431726e-04
      -1.04025081e-02 -2.06067064e-03 1.87951350e-03 2.15819455e-03
      6.94235368e-03 -1.48017546e-02 -1.64213520e-03 -1.23379845e-02
      -8.72194581e-03 -1.33744814e-02 -2.64903787e-03 2.41749198e-03
      2.77504488e-03 8.92695133e-03 -1.90290119e-02 -2.11286475e-03
      -1.58635061e-02 -1.12115340e-02 -1.33739859e-02 -2.64942925e-03
      2.41680397e-03 2.77530635e-03 8.92668311e-03 -1.90301649e-02
      -2.10808031e-03 -1.58622898e-02 -1.12130828e-02 -1.71948988e-02
      -3.40590021e-03 3.10857082e-03 3.56853940e-03 1.14785386e-02
      -2.44650207e-02 -2.71237921e-03 -2.03948654e-02 -1.44137377e-02
      2.38486496e-03 -4.46275948e-03 9.86876059e-03 -5.25848381e-03
      -1.43518194e-03 -1.88233834e-02 -1.42546641e-02 -8.58583301e-03
      -3.06405826e-03 3.06756259e-03 -5.73777733e-03 1.26893939e-02
      -6.76113134e-03 -1.84166071e-03 -2.42014155e-02 -1.83276646e-02
      -1.10389926e-02 -3.93817015e-03 3.06983478e-03 -5.73834730e-03
      1.26883658e-02 -6.76088920e-03 -1.84635550e-03 -2.42015123e-02
      -1.83268841e-02 -1.10386852e-02 -3.93546233e-03 3.94861028e-03
      -7.37780053e-03 1.63148809e-02 -8.69285874e-03 -2.36928836e-03
      -3.11161354e-02 -2.35634446e-02 -1.41926790e-02 -5.05816564e-03
      -4.48602857e-03 -4.66070836e-03 -2.94378231e-04 7.46760343e-04
      1.08304974e-02 -4.72181663e-03 -2.03126343e-03 -1.06809717e-02
      -1.80289485e-02 -5.76714147e-03 -5.99268265e-03 -3.79425503e-04
      9.60335019e-04 1.39179658e-02 -6.06948277e-03 -2.61170580e-03
      -1.37326913e-02 -2.31794566e-02 -5.76575333e-03 -5.99199347e-03
      -3.77488992e-04 9.60153702e-04 1.39230210e-02 -6.07091375e-03
      -2.61219661e-03 -1.37328552e-02 -2.31780913e-02 -7.41232838e-03
      -7.70443538e-03 -4.86550940e-04 1.23475993e-03 1.78920813e-02
      -7.80362869e-03 -3.35864443e-03 -1.76565479e-02 -2.97996048e-02
      5.32307662e-04 -3.05827521e-03 -4.52383049e-03 -5.64871449e-03
      7.38136517e-03 -8.63900874e-03 -5.20765036e-03 -6.11440046e-03
      -1.79345557e-03 6.81435748e-04 -3.93227115e-03 -5.81597490e-03
      -7.26313470e-03 9.49258823e-03 -1.11055868e-02 -6.69479650e-03
      -7.86134228e-03 -2.30874727e-03 6.86154817e-04 -3.93218920e-03
      -5.81656117e-03 -7.26588815e-03 9.49045736e-03 -1.11073460e-02
      -6.69500791e-03 -7.86109548e-03 -2.30341335e-03 8.78394407e-04
      -5.05593326e-03 -7.47794518e-03 -9.34250280e-03 1.22049265e-02
      -1.42786736e-02 -8.60689580e-03 -1.01070823e-02 -2.96522677e-03
      1.07121402e-02 -2.85995984e-03 3.47994291e-03 6.18759403e-03
      1.92127645e-03 1.21743549e-04 -4.51643672e-03 -2.77504721e-03
      3.53314122e-03 1.37714893e-02 -3.67717864e-03 4.47409507e-03
      7.96257053e-03 2.48356117e-03 1.56603579e-04 -5.80734015e-03
      -3.56914685e-03 4.54116100e-03 1.37741147e-02 -3.67754907e-03
      4.47325641e-03 7.95546453e-03 2.46840669e-03 1.56542432e-04
      -5.80626773e-03 -3.56756616e-03 4.54406999e-03 1.77079551e-02
      -4.72838990e-03 5.75117767e-03 1.02375727e-02 3.19082430e-03
      2.01368370e-04 -7.46583752e-03 -4.58845077e-03 5.84051292e-03
      -2.55005038e-03 -7.59062916e-03 5.02289180e-03 -1.36770615e-02
      7.30952900e-03 -3.82145052e-03 2.75461143e-03 -2.50322022e-03
      8.64525151e-04 -3.27833276e-03 -9.75951087e-03 6.45774044e-03
      -1.75846945e-02 9.38535109e-03 -4.91292542e-03 3.54106235e-03
      -3.21864989e-03 1.11187191e-03 -3.27827292e-03 -9.75938328e-03
      6.45701773e-03 -1.75847746e-02 9.39961337e-03 -4.91277501e-03
      3.54090822e-03 -3.21896188e-03 1.11129880e-03 -4.21453267e-03
      -1.25479437e-02 8.30153655e-03 -2.26088688e-02 1.20690009e-02
      -6.31595077e-03 4.55184979e-03 -4.13895212e-03 1.42924837e-03
      1.10421861e-04 -1.00551946e-02 -7.35719968e-03 -6.39698794e-03
      5.75816259e-03 -2.84722284e-03 4.94106999e-03 3.91730136e-04
      -1.39708091e-02 1.41404584e-04 -1.29280677e-02 -9.45935678e-03
      -8.22502282e-03 7.40628876e-03 -3.66068655e-03 6.35505561e-03
      5.04191092e-04 -1.79630648e-02 1.41031342e-04 -1.29264323e-02
      -9.45944339e-03 -8.22471082e-03 7.40402797e-03 -3.66106350e-03
      6.35325164e-03 5.03178046e-04 -1.79637764e-02 1.80603543e-04
      -1.66196488e-02 -1.21622682e-02 -1.05750458e-02 9.52323526e-03
      -4.70704306e-03 8.17135721e-03 6.47634966e-04 -2.30970476e-02
      -1.22837583e-02 3.88226565e-03 -3.26605118e-03 -6.10559667e-03
      -5.21970028e-03 -6.93193497e-03 6.51364960e-03 4.10803687e-03
      -8.53802171e-03 -1.57937519e-02 4.99112345e-03 -4.20025131e-03
      -7.85003603e-03 -6.70846971e-03 -8.91151093e-03 8.37445259e-03
      5.28095057e-03 -1.09779947e-02 -1.57957524e-02 4.99104429e-03
      -4.20049019e-03 -7.84938876e-03 -6.71054143e-03 -8.91243387e-03
      8.37472826e-03 5.28173242e-03 -1.09798061e-02 -2.03092732e-02
      6.41659228e-03 -5.40197175e-03 -1.00920470e-02 -8.62452481e-03
      -1.14575867e-02 1.07672019e-02 6.78975694e-03 -1.41175846e-02
      -1.76889207e-02 8.24423449e-04 -6.99279655e-04 -7.94223044e-03
      -1.57175702e-03 -3.89032182e-03 2.04115221e-03 8.34008027e-03
      -3.48166563e-03 -2.27433760e-02 1.06003904e-03 -8.98541301e-04
      -1.02095641e-02 -2.02261307e-03 -5.00144716e-03 2.62470241e-03
      1.07229939e-02 -4.47689369e-03 -2.27426589e-02 1.06033543e-03
      -8.98059050e-04 -1.02114920e-02 -2.02181074e-03 -5.00163576e-03
      2.62411125e-03 1.07228616e-02 -4.47684526e-03 -2.92411726e-02
      1.36337394e-03 -1.15396420e-03 -1.31266490e-02 -2.60176207e-03
      -6.43016677e-03 3.37432255e-03 1.37865804e-02 -5.75654255e-03
      -6.11200975e-03 2.07387260e-04 -6.47167675e-03 -3.82756605e-03
      1.01215532e-02 7.26719009e-05 1.63046247e-03 -7.88448902e-04
      -1.55675672e-02 -7.85808079e-03 2.65606155e-04 -8.32110550e-03
      -4.92396671e-03 1.30124865e-02 9.50566682e-05 2.09557777e-03
      -1.01245975e-03 -2.00147498e-02 -7.85842631e-03 2.68005882e-04
      -8.32055043e-03 -4.92101721e-03 1.30137503e-02 9.34341660e-05
      2.09618267e-03 -1.01420633e-03 -2.00159214e-02 -1.01034138e-02
      3.43251741e-04 -1.06983390e-02 -6.33063214e-03 1.67307593e-02
      1.22212878e-04 2.69414997e-03 -1.30235776e-03 -2.57338677e-02
      -5.10899164e-03 2.23560492e-03 -7.69181689e-03 -9.27430298e-03
      5.87211875e-03 -2.64492561e-03 3.25917406e-03 -3.89863434e-03
      -6.49044756e-03 -6.56876387e-03 2.87380163e-03 -9.88946296e-03
      -1.19258203e-02 7.55364867e-03 -3.39976070e-03 4.19090176e-03
      -5.01237484e-03 -8.34477320e-03 -6.56939391e-03 2.87514995e-03
      -9.88874491e-03 -1.19254747e-02 7.54792057e-03 -3.40166618e-03
      4.18968871e-03 -5.01267146e-03 -8.34558997e-03 -8.44644010e-03
      3.69591638e-03 -1.27140786e-02 -1.53349610e-02 9.70933493e-03
      -4.37246822e-03 5.38742868e-03 -6.44466328e-03 -1.07299322e-02
      -3.13938246e-03 -3.01352656e-03 3.09004332e-03 3.57727916e-03
      -1.35437921e-02 -1.39500620e-02 6.58858055e-03 3.94167192e-03
      -4.50977543e-03 -4.03626263e-03 -3.87505163e-03 3.97394644e-03
      4.59976541e-03 -1.74164549e-02 -1.79357044e-02 8.47072341e-03
      5.06776292e-03 -5.79806883e-03 -4.03794320e-03 -3.87410750e-03
      3.97268776e-03 4.59923502e-03 -1.74128730e-02 -1.79354660e-02
      8.47099535e-03 5.06774569e-03 -5.79993566e-03 -5.19152824e-03
      -4.98166028e-03 5.10907080e-03 5.91382384e-03 -2.23918464e-02
      -2.30597686e-02 1.08908834e-02 6.51554158e-03 -7.45678414e-03
      -5.15962811e-03 -1.86580103e-02 -6.61600265e-04 4.54688165e-03
      9.28701833e-03 -6.81154849e-03 2.42340472e-03 -1.98855159e-05
      -8.71244073e-03 -6.63402071e-03 -2.39897277e-02 -8.50343145e-04
      5.84639283e-03 1.19378921e-02 -8.75769835e-03 3.11580487e-03
      -2.51341535e-05 -1.12016555e-02 -6.63413061e-03 -2.39890199e-02
      -8.51742865e-04 5.84569573e-03 1.19386939e-02 -8.75771604e-03
      3.11621628e-03 -2.49558670e-05 -1.12018390e-02 -8.52987170e-03
      -3.08441278e-02 -1.09473302e-03 7.51641020e-03 1.53464573e-02
      -1.12599134e-02 4.00656369e-03 -3.15281977e-05 -1.44022973e-02
      -8.80046934e-03 -4.97290306e-03 -2.53358972e-04 -6.78616948e-03
      -6.92868605e-03 -5.93490025e-04 8.58404581e-03 -5.90717932e-03
      -4.01891954e-03 -1.13153812e-02 -6.39385963e-03 -3.26111767e-04
      -8.72379914e-03 -8.90399236e-03 -7.62843527e-04 1.10370172e-02
      -7.59299332e-03 -5.16695529e-03 -1.13132941e-02 -6.39362633e-03
      -3.25475616e-04 -8.72567389e-03 -8.90689064e-03 -7.63108081e-04
      1.10366289e-02 -7.59482337e-03 -5.16564678e-03 -1.45462975e-02
      -8.22054129e-03 -4.18941083e-04 -1.12170829e-02 -1.14461649e-02
      -9.80863813e-04 1.41904466e-02 -9.76226106e-03 -6.64125197e-03
      -1.88332032e-02 -1.72597151e-02 3.58393718e-03 -6.20832620e-03
      3.17508751e-03 -4.06202348e-03 7.36337435e-03 -4.57183085e-03
      -7.42941583e-03 -2.42142361e-02 -2.21910737e-02 4.60811704e-03
      -7.98187591e-03 4.08074865e-03 -5.22271590e-03 9.46713053e-03
      -5.87807642e-03 -9.55220126e-03 -2.42154785e-02 -2.21913718e-02
      4.60723508e-03 -7.98214972e-03 4.08275006e-03 -5.22253988e-03
      9.46703367e-03 -5.87797957e-03 -9.55337659e-03 -3.11343428e-02
      -2.85317805e-02 5.92384301e-03 -1.02624334e-02 5.24731399e-03
      -6.71484042e-03 1.21718151e-02 -7.55741308e-03 -1.22830356e-02
      -1.14896614e-02 -8.54016282e-03 -4.79872571e-04 2.92164832e-03
      -6.04068162e-03 9.28358291e-04 5.36915613e-04 -4.45335126e-03
      7.51440506e-03 -1.47719430e-02 -1.09806573e-02 -6.18715072e-04
      3.76652693e-03 -7.76882889e-03 1.19407289e-03 6.90771791e-04
      -5.72564732e-03 9.66187753e-03 -1.47735737e-02 -1.09806638e-02
      -6.18160993e-04 3.75597202e-03 -7.76659977e-03 1.19364960e-03
      6.90522313e-04 -5.72473696e-03 9.66155436e-03 -1.89939793e-02
      -1.41185736e-02 -7.97014625e-04 4.84212022e-03 -9.98850446e-03
      1.53529737e-03 8.88395181e-04 -7.36025907e-03 1.24226436e-02
      -1.36211226e-02 -1.48054643e-03 4.05814825e-03 -3.43133602e-03
      3.36579536e-03 -4.58056340e-03 2.99377856e-03 -1.18263867e-02
      6.37597684e-03 -1.75140947e-02 -1.90322951e-03 5.21800295e-03
      -4.41097096e-03 4.32882970e-03 -5.88848349e-03 3.85027798e-03
      -1.52050620e-02 8.19704216e-03 -1.75170731e-02 -1.90428575e-03
      5.21798851e-03 -4.41169739e-03 4.32765530e-03 -5.88926021e-03
      3.84691078e-03 -1.52054867e-02 8.19465891e-03 -2.25235205e-02
      -2.44794367e-03 6.70933444e-03 -5.67122130e-03 5.56589989e-03
      -7.57086137e-03 4.94748307e-03 -1.95495393e-02 1.05351619e-02
      -1.61523391e-02 -9.65010200e-04 -1.64598168e-03 2.78335123e-04
      -4.97453497e-04 -9.18874890e-03 3.02865147e-03 -2.31688749e-03
      -6.74131280e-03 -2.07663830e-02 -1.24086218e-03 -2.11659772e-03
      3.57998884e-04 -6.41883467e-04 -1.18140383e-02 3.89396842e-03
      -2.97882850e-03 -8.66637938e-03 -2.07671076e-02 -1.24053005e-03
      -2.11586151e-03 3.57852725e-04 -6.38861500e-04 -1.18151754e-02
      3.89322592e-03 -2.97877123e-03 -8.66655819e-03 -2.66993940e-02
      -1.59514055e-03 -2.72082957e-03 4.60276264e-04 -8.24352552e-04
      -1.51908500e-02 5.00555988e-03 -3.82981263e-03 -1.11414054e-02
      -5.89113357e-03 4.06001578e-04 9.73884482e-03 7.31263170e-03
      -3.23335268e-03 -1.29205473e-02 7.81147555e-03 -1.91685501e-02
      -8.84085800e-03 -7.57450704e-03 5.20009780e-04 1.25226919e-02
      9.40330978e-03 -4.15799627e-03 -1.66123603e-02 1.00416616e-02
      -2.46461891e-02 -1.13674775e-02 -7.57264858e-03 5.20678412e-04
      1.25219468e-02 9.40082595e-03 -4.15729592e-03 -1.66115686e-02
      1.00441864e-02 -2.46450901e-02 -1.13678342e-02 -9.73650906e-03
      6.66879001e-04 1.61013380e-02 1.20885186e-02 -5.34615759e-03
      -2.13580243e-02 1.29118152e-02 -3.16877142e-02 -1.46166366e-02
      -6.53543323e-03 7.66268524e-04 7.33452337e-03 2.72742426e-03
      -1.17832795e-02 -3.45441885e-03 -4.15045908e-03 -3.16533190e-03
      -1.36819165e-02 -8.40169098e-03 9.86336847e-04 9.42839868e-03
      3.50534474e-03 -1.51457675e-02 -4.43866709e-03 -5.33683971e-03
      -4.06987593e-03 -1.75903738e-02 -8.40201415e-03 9.85564082e-04
      9.43022687e-03 3.50629515e-03 -1.51497340e-02 -4.44138888e-03
      -5.33695798e-03 -4.06885380e-03 -1.75901782e-02 -1.08012911e-02
      1.26860931e-03 1.21223880e-02 4.50636772e-03 -1.94728747e-02
      -5.70684858e-03 -6.86249323e-03 -5.23159187e-03 -2.26150919e-02
      -1.41895108e-03 -1.05434458e-03 1.32185062e-02 -3.53568839e-03
      -2.17116205e-03 -9.39400308e-03 -8.84941127e-03 7.97487388e-04
      -4.68022563e-03 -1.82351703e-03 -1.35527994e-03 1.69954281e-02
      -4.54610586e-03 -2.79287645e-03 -1.20782675e-02 -1.13776447e-02
      1.02533412e-03 -6.01665862e-03 -1.82592799e-03 -1.35526492e-03
      1.69958510e-02 -4.54622507e-03 -2.79190135e-03 -1.20779723e-02
      -1.13780107e-02 1.02648593e-03 -6.01881044e-03 -2.34653358e-03
      -1.74208975e-03 2.18520667e-02 -5.84543031e-03 -3.59136402e-03
      -1.55291585e-02 -1.46286534e-02 1.31975510e-03 -7.73747638e-03
      -2.45433860e-03 -5.02443698e-04 2.00853916e-03 -8.65150895e-03
      -1.41161820e-02 -5.89839183e-03 1.11610694e-02 2.16473104e-03
      1.14275736e-03 -3.15532181e-03 -6.45476743e-04 2.58319895e-03
      -1.11249005e-02 -1.81492697e-02 -7.58355344e-03 1.43504646e-02
      2.78315181e-03 1.46951317e-03 -3.15560959e-03 -6.46727800e-04
      2.58254353e-03 -1.11233341e-02 -1.81492232e-02 -7.58369360e-03
      1.43497894e-02 2.78259022e-03 1.46962155e-03 -4.05688351e-03
      -8.30835546e-04 3.32142971e-03 -1.43033965e-02 -2.33345814e-02
      -9.75034572e-03 1.84503943e-02 3.57751991e-03 1.88983500e-03
      2.68065976e-03 -8.15131702e-03 -3.13488510e-03 2.04131613e-03
      1.73144545e-02 -9.84999537e-03 -9.46877711e-03 -7.14679435e-03
      -3.96318641e-03 3.44591890e-03 -1.04802167e-02 -4.03125817e-03
      2.62205419e-03 2.22631581e-02 -1.26590319e-02 -1.21729132e-02
      -9.18893144e-03 -5.09621296e-03 3.44617409e-03 -1.04804421e-02
      -4.02996596e-03 2.62453756e-03 2.22591218e-02 -1.26642948e-02
      -1.21737299e-02 -9.18824412e-03 -5.09681180e-03 4.42996901e-03
      -1.34747904e-02 -5.18227648e-03 3.37119494e-03 2.86210813e-02
      -1.62759162e-02 -1.56503599e-02 -1.18137086e-02 -6.55392790e-03
      6.48102537e-03 -3.49011994e-03 7.74539169e-03 -1.65546853e-02
      2.48060725e-03 -9.90612619e-03 -4.44029551e-03 -1.49704898e-02
      -1.82090956e-03 8.33227020e-03 -4.48713778e-03 9.95866209e-03
      -2.12843902e-02 3.19849444e-03 -1.27331028e-02 -5.70778456e-03
      -1.92476623e-02 -2.34170724e-03 8.33098963e-03 -4.48779576e-03
      9.95819364e-03 -2.12844498e-02 3.18867108e-03 -1.27364574e-02
      -5.70919318e-03 -1.92485973e-02 -2.34299526e-03 1.07106622e-02
      -5.76981762e-03 1.28037771e-02 -2.73654573e-02 4.11147578e-03
      -1.63711440e-02 -7.33889127e-03 -2.47480553e-02 -3.01311095e-03
      1.82523043e-03 9.63547674e-04 4.32930328e-03 -4.46612760e-03
      4.31236904e-03 -2.55813487e-02 1.29210719e-04 -9.82204732e-03
      -1.45680376e-03 2.34591030e-03 1.23900373e-03 5.56671713e-03
      -5.73972799e-03 5.54482872e-03 -3.28903534e-02 1.66388505e-04
      -1.26278158e-02 -1.87386619e-03 2.34682532e-03 1.23904308e-03
      5.56782074e-03 -5.74213732e-03 5.54542802e-03 -3.28902565e-02
      1.65498044e-04 -1.26282768e-02 -1.87278690e-03 3.01629840e-03
      1.59325753e-03 7.15922937e-03 -7.37961661e-03 7.13029131e-03
      -4.22875322e-02 2.13113643e-04 -1.62356757e-02 -2.40893965e-03
      -4.44959805e-05 3.39825870e-03 5.84268884e-04 2.26431852e-03
      -3.31210834e-03 1.71551539e-03 -1.36623411e-02 -1.15276296e-02
      -2.84751598e-03 -5.65817863e-05 4.36879508e-03 7.51957647e-04
      2.91259075e-03 -4.26192209e-03 2.20520166e-03 -1.75659321e-02
      -1.48211112e-02 -3.66036431e-03 -5.73798061e-05 4.36892360e-03
      7.50329986e-04 2.91002961e-03 -4.25856980e-03 2.20562820e-03
      -1.75660960e-02 -1.48175061e-02 -3.66023672e-03 -7.29683597e-05
      5.61668351e-03 9.65678308e-04 3.74316867e-03 -5.47979539e-03
      2.83521670e-03 -2.25850642e-02 -1.90509167e-02 -4.70508216e-03
      8.00370984e-03 1.15850791e-02 1.31445779e-02 -8.04104202e-04
      -2.80138850e-03 1.90380902e-03 -7.10698543e-03 -1.62088964e-02
      -4.15059738e-03 1.02888420e-02 1.48951374e-02 1.69008262e-02
      -1.03315467e-03 -3.59930820e-03 2.44773179e-03 -9.13711824e-03
      -2.08394341e-02 -5.33797545e-03 1.02885831e-02 1.48954242e-02
      1.68999843e-02 -1.03381637e-03 -3.60184815e-03 2.44777394e-03
      -9.13688727e-03 -2.08392125e-02 -5.33835404e-03 1.32260667e-02
      1.91513076e-02 2.17293929e-02 -1.32830080e-03 -4.62776748e-03
      3.14710825e-03 -1.17468666e-02 -2.67925281e-02 -6.86551584e-03
      -1.05234459e-02 -6.10175962e-03 -6.55178819e-03 -1.60572734e-02
      6.54161861e-03 9.57316603e-04 6.43447833e-03 4.66159172e-03
      -3.15910857e-03 -1.35299060e-02 -7.84535520e-03 -8.42363853e-03
      -2.06444021e-02 8.39889143e-03 1.23190891e-03 8.27263203e-03
      5.99327637e-03 -4.06139856e-03 -1.35298725e-02 -7.84413796e-03
      -8.42374843e-03 -2.06449796e-02 8.41022749e-03 1.23087037e-03
      8.27338081e-03 5.99348824e-03 -4.06212313e-03 -1.73952412e-02
      -1.00856256e-02 -1.08304182e-02 -2.65426934e-02 1.07980305e-02
      1.58392743e-03 1.06368568e-02 7.70565774e-03 -5.22232475e-03
      -4.69536847e-03 -1.22450036e-03 2.90303258e-03 -1.40930060e-02
      8.64969753e-03 -9.22410400e-04 1.41121494e-03 -3.21392249e-03
      -6.92769652e-03 -6.03670487e-03 -1.57421641e-03 3.73277743e-03
      -1.81171820e-02 1.11221708e-02 -1.18627434e-03 1.81273406e-03
      -4.13175300e-03 -8.90663452e-03 -6.03348669e-03 -1.57407485e-03
      3.73332901e-03 -1.81195792e-02 1.11193834e-02 -1.18622009e-03
      1.81396585e-03 -4.13331017e-03 -8.90389644e-03 -7.75708677e-03
      -2.02363031e-03 4.80038626e-03 -2.32935175e-02 1.42978039e-02
      -1.52554899e-03 2.33007455e-03 -5.31369727e-03 -1.14473486e-02
      -5.56741143e-03 -4.53350320e-03 -6.80410024e-03 -5.05628809e-03
      -4.20452841e-03 -2.09519803e-03 3.11289611e-03 4.89792507e-03
      -8.54091719e-03 -7.15835392e-03 -5.82888443e-03 -8.74835439e-03
      -6.49968674e-03 -5.40576875e-03 -2.69237440e-03 4.00137622e-03
      6.29710779e-03 -1.09814508e-02 -7.15922564e-03 -5.82747115e-03
      -8.74825567e-03 -6.50094962e-03 -5.40517224e-03 -2.69386708e-03
      4.00222791e-03 6.29875343e-03 -1.09815095e-02 -9.20504611e-03
      -7.49258371e-03 -1.12480493e-02 -8.35674629e-03 -6.94943499e-03
      -3.46167828e-03 5.14453929e-03 8.09810776e-03 -1.41194304e-02
      -1.44655153e-03 -6.59257453e-03 -1.38723534e-02 -1.65417492e-02
      3.44308629e-03 -1.02044200e-03 -1.81286398e-03 7.08406325e-03
      2.76651327e-03 -1.85899425e-03 -8.47505033e-03 -1.78353898e-02
      -2.12682635e-02 4.42567980e-03 -1.31151883e-03 -2.33192905e-03
      9.10761952e-03 3.55684990e-03 -1.86305575e-03 -8.47593229e-03
      -1.78355183e-02 -2.12679133e-02 4.42960439e-03 -1.31091184e-03
      -2.32987152e-03 9.10808239e-03 3.55387712e-03 -2.39425502e-03
      -1.08961938e-02 -2.29307432e-02 -2.73448434e-02 5.69373090e-03
      -1.68484158e-03 -2.99696950e-03 1.17098000e-02 4.56914818e-03
      -6.13729516e-03 -5.99771179e-03 3.52027779e-03 -6.25262735e-03
      5.01619186e-03 -1.01623693e-02 1.13978069e-02 4.79987916e-03
      -9.33178328e-03 -7.89168011e-03 -7.71148084e-03 4.52693691e-03
      -8.03807098e-03 6.45379769e-03 -1.30649358e-02 1.46554131e-02
      6.17028587e-03 -1.19989272e-02 -7.89023563e-03 -7.71125173e-03
      4.52633109e-03 -8.03890079e-03 6.45174459e-03 -1.30668031e-02
      1.46526173e-02 6.17149845e-03 -1.19972508e-02 -1.01457098e-02
      -9.91464313e-03 5.82067948e-03 -1.03344172e-02 8.30077007e-03
      -1.67989321e-02 1.88404806e-02 7.93351419e-03 -1.54262176e-02
      -5.85303642e-03 -1.76591135e-03 -1.01746910e-03 -1.20650027e-02
      1.70930307e-02 -1.74607765e-02 8.10522214e-03 1.41477154e-03
      -1.16742076e-02 -7.52547709e-03 -2.27072323e-03 -1.30931311e-03
      -1.55140627e-02 2.19844431e-02 -2.24494059e-02 1.04213944e-02
      1.81940105e-03 -1.50097487e-02 -7.52801588e-03 -2.27010739e-03
      -1.30728423e-03 -1.55121461e-02 2.19764579e-02 -2.24497300e-02
      1.04222065e-02 1.81942375e-03 -1.50123369e-02 -9.67906415e-03
      -2.91905273e-03 -1.68225670e-03 -1.99466497e-02 2.82653309e-02
      -2.88637243e-02 1.34004867e-02 2.33978545e-03 -1.93016455e-02
      -2.33182358e-03 -5.93989622e-03 4.26901242e-04 -1.26390569e-02
      4.75482969e-03 -1.04161454e-02 5.52398199e-03 2.05602264e-03
      2.61473167e-03 -2.99926405e-03 -7.63735268e-03 5.47845615e-04
      -1.62505955e-02 6.11611083e-03 -1.33926235e-02 7.10294954e-03
      2.64453958e-03 3.36063490e-03 -2.99984845e-03 -7.63626350e-03
      5.49253135e-04 -1.62509661e-02 6.11093780e-03 -1.33914379e-02
      7.10272184e-03 2.64372351e-03 3.35931475e-03 -3.85849737e-03
      -9.81849246e-03 7.04862119e-04 -2.08945870e-02 7.86046963e-03
      -1.72181223e-02 9.13295615e-03 3.40046710e-03 4.31762263e-03
      -1.33790998e-02 -5.96920773e-03 1.62738761e-05 -8.79270863e-03
      -3.70135345e-03 2.96143559e-03 -5.78673836e-03 -5.39595843e-04
      -5.26529504e-03 -1.72021259e-02 -7.67455250e-03 2.11480419e-05
      -1.13064824e-02 -4.75274445e-03 3.80712305e-03 -7.44118448e-03
      -6.94088347e-04 -6.77039428e-03 -1.72001943e-02 -7.67494692e-03
      2.01837011e-05 -1.13049066e-02 -4.76014661e-03 3.80693655e-03
      -7.43937353e-03 -6.93777460e-04 -6.76782662e-03 -2.21150853e-02
      -9.86760296e-03 2.62371705e-05 -1.45368995e-02 -6.11229800e-03
      4.89407405e-03 -9.56631545e-03 -8.92412500e-04 -8.70242994e-03
      -1.16214948e-02 -1.48105221e-02 6.65755058e-03 -2.69578164e-03
      -1.11350520e-02 -1.13175828e-02 1.08678015e-02 -4.16536815e-03
      6.31069113e-03 -1.49422539e-02 -1.90416854e-02 8.56138393e-03
      -3.46370414e-03 -1.43167302e-02 -1.45511078e-02 1.39722396e-02
      -5.35570364e-03 8.11339263e-03 -1.49418768e-02 -1.90410670e-02
      8.56098067e-03 -3.46570439e-03 -1.43172974e-02 -1.45512000e-02
      1.39733637e-02 -5.35570458e-03 8.11359845e-03 -1.92114115e-02
      -2.44808383e-02 1.10091278e-02 -4.45294753e-03 -1.84082482e-02
      -1.87085941e-02 1.79649219e-02 -6.88620424e-03 1.04313167e-02
      -7.43334740e-03 -1.10699190e-02 7.12541514e-04 -5.80176525e-03
      -4.15345479e-04 -1.25370699e-03 5.34961792e-03 3.22931097e-03
      -7.40563482e-05 -9.55662038e-03 -1.42328721e-02 9.15669953e-04
      -7.45880790e-03 -5.44750015e-04 -1.61179423e-03 6.87834295e-03
      4.15179878e-03 -9.46382570e-05 -9.55790188e-03 -1.42324911e-02
      9.16858029e-04 -7.45932618e-03 -5.33765473e-04 -1.61227304e-03
      6.87792525e-03 4.15244745e-03 -9.59533063e-05 -1.22880386e-02
      -1.82990655e-02 1.17822899e-03 -9.58978478e-03 -7.00072909e-04
      -2.07277341e-03 8.84338189e-03 5.33864042e-03 -1.22626516e-04
      -1.31288997e-03 -1.51430815e-02 -4.35461523e-03 2.35851825e-04
      2.17241305e-03 -2.68258300e-04 7.64044095e-03 -4.35412489e-03
      -2.20680516e-03 -1.68753602e-03 -1.94685273e-02 -5.59878256e-03
      3.03236680e-04 2.79361312e-03 -3.44865228e-04 9.82320122e-03
      -5.59902098e-03 -2.83714617e-03 -1.68714020e-03 -1.94693469e-02
      -5.59813064e-03 3.04112153e-04 2.79113674e-03 -3.44930770e-04
      9.82193649e-03 -5.59968036e-03 -2.83677666e-03 -2.16858322e-03
      -2.50305403e-02 -7.19758263e-03 3.91001289e-04 3.58926435e-03
      -4.43432422e-04 1.26279183e-02 -7.20069464e-03 -3.64705827e-03
      -5.57132647e-04 -8.23810603e-03 9.52999666e-03 4.51075891e-03
      -4.03779140e-03 -9.56272893e-03 5.82614727e-03 -8.74713995e-03
      -1.17386859e-02 -7.15299742e-04 -1.05920257e-02 1.22527750e-02
      5.79975918e-03 -5.19082695e-03 -1.22962771e-02 7.49216694e-03
      -1.12477085e-02 -1.50928646e-02 -7.16614828e-04 -1.05913412e-02
      1.22528616e-02 5.79955243e-03 -5.19117014e-03 -1.22941732e-02
      7.49214180e-03 -1.12461960e-02 -1.50939943e-02 -9.20059334e-04
      -1.36176646e-02 1.57535765e-02 7.45683908e-03 -6.67356513e-03
      -1.58085171e-02 9.63456184e-03 -1.44611783e-02 -1.94069073e-02
      -9.33012809e-04 6.83329115e-03 4.98157274e-03 9.92394425e-03
      5.62185887e-04 -2.39058938e-02 5.10441931e-03 -9.88965388e-03
      -1.66997928e-02 -1.19973568e-03 8.78628343e-03 6.40470907e-03
      1.27564287e-02 7.20520504e-04 -3.07362825e-02 6.56295987e-03
      -1.27158221e-02 -2.14713681e-02 -1.20080740e-03 8.78595747e-03
      6.40541222e-03 1.27590355e-02 7.22433382e-04 -3.07361241e-02
      6.56418037e-03 -1.27144502e-02 -2.14725006e-02 -1.54408463e-03
      1.12970332e-02 8.23531393e-03 1.64007079e-02 9.25899949e-04
      -3.95180397e-02 8.43983609e-03 -1.63478628e-02 -2.76077669e-02
      -7.57798366e-03 -5.57087408e-03 4.92345728e-03 -6.66310871e-03
      1.36576814e-03 -9.11761017e-04 1.30614964e-03 -8.89197644e-03
      -1.08166169e-02 -9.74310655e-03 -7.16259656e-03 6.32981863e-03
      -8.57084431e-03 1.75370602e-03 -1.17212604e-03 1.67867634e-03
      -1.14325359e-02 -1.39071317e-02 -9.74302739e-03 -7.16261426e-03
      6.32959418e-03 -8.56743753e-03 1.75563572e-03 -1.17221568e-03
      1.67932606e-03 -1.14336871e-02 -1.39071206e-02 -1.25267310e-02
      -9.20913368e-03 8.13761167e-03 -1.10204071e-02 2.25431519e-03
      -1.50695664e-03 2.15828791e-03 -1.47004509e-02 -1.78806484e-02
      3.08126537e-03 -1.69761502e-03 1.18702045e-03 -2.11717430e-04
      7.80568505e-03 -1.11017860e-02 -6.15714584e-03 -1.84220038e-02
      6.03632675e-03 3.96174518e-03 -2.18219939e-03 1.52673095e-03
      -2.71717407e-04 1.00378897e-02 -1.42739434e-02 -7.91610125e-03
      -2.36830767e-02 7.76143698e-03 3.96217033e-03 -2.18279916e-03
      1.52534561e-03 -2.71661207e-04 1.00366315e-02 -1.42738642e-02
      -7.91672990e-03 -2.36855168e-02 7.75782904e-03 5.09437220e-03
      -2.80588097e-03 1.96187804e-03 -3.48646572e-04 1.29068261e-02
      -1.83523931e-02 -1.01783583e-02 -3.04497797e-02 9.97492485e-03
      -2.80877529e-03 -9.70351789e-03 2.33912654e-03 -8.77340324e-03
      6.61522662e-03 3.05131171e-03 -3.52818565e-03 -1.06334444e-02
      -5.66445244e-03 -3.61112575e-03 -1.24757271e-02 3.00752278e-03
      -1.12792701e-02 8.51035863e-03 3.92176071e-03 -4.53809742e-03
      -1.36721777e-02 -7.28279306e-03 -3.61154578e-03 -1.24756154e-02
      3.00764851e-03 -1.12801231e-02 8.50425567e-03 3.92306875e-03
      -4.53558937e-03 -1.36721311e-02 -7.28332344e-03 -4.64321766e-03
      -1.60397887e-02 3.86707345e-03 -1.45019647e-02 1.09405527e-02
      5.04220463e-03 -5.83386235e-03 -1.75792370e-02 -9.36417654e-03
      3.09823803e-03 -2.34893197e-03 3.61529458e-03 -1.31432049e-03
      -3.50647769e-03 1.56187895e-03 1.24405531e-04 -1.71363205e-02
      -1.11994464e-02 3.98407970e-03 -3.02033266e-03 4.64757113e-03
      -1.69044605e-03 -4.50738752e-03 2.00879085e-03 1.61806369e-04
      -2.20335536e-02 -1.44008650e-02 3.98305664e-03 -3.02014477e-03
      4.64818999e-03 -1.68988435e-03 -4.50842036e-03 2.00814824e-03
      1.61961565e-04 -2.20334288e-02 -1.43996002e-02 5.12188207e-03
      -3.88339860e-03 5.97538939e-03 -2.17348710e-03 -5.79532981e-03
      2.58275820e-03 2.10622078e-04 -2.83301640e-02 -1.85158011e-02
      -1.24851884e-02 1.38158863e-02 5.41040534e-03 -1.01635978e-02
      -7.36328913e-03 -1.17776927e-03 3.00660799e-03 -7.63096940e-03
      -1.46052344e-02 -1.60523970e-02 1.77632701e-02 6.95623131e-03
      -1.30672716e-02 -9.46671516e-03 -1.51424145e-03 3.86534189e-03
      -9.81137436e-03 -1.87780708e-02 -1.60508007e-02 1.77627597e-02
      6.95461314e-03 -1.30675174e-02 -9.46809351e-03 -1.51406578e-03
      3.86557216e-03 -9.81128216e-03 -1.87765881e-02 -2.06367560e-02
      2.28378214e-02 8.94163735e-03 -1.68008246e-02 -1.21727865e-02
      -1.94661319e-03 4.96963738e-03 -1.26146693e-02 -2.41412129e-02
      -5.73239801e-03 -2.13428610e-03 3.44911404e-03 -8.25177785e-03
      -1.79267768e-03 -9.71659459e-03 3.87392775e-03 1.14611338e-03
      -5.14641125e-03 -7.37021677e-03 -2.74410122e-03 4.43382515e-03
      -1.06116030e-02 -2.29187543e-03 -1.24923820e-02 4.98181581e-03
      1.47341017e-03 -6.61683222e-03 -7.36923097e-03 -2.74362089e-03
      4.43505682e-03 -1.06094386e-02 -2.30606180e-03 -1.24927601e-02
      4.98051103e-03 1.47305103e-03 -6.61775982e-03 -9.47471336e-03
      -3.52753699e-03 5.70124807e-03 -1.36435023e-02 -2.94822734e-03
      -1.60616301e-02 6.40486693e-03 1.89371244e-03 -8.50857142e-03
      -5.89194475e-03 3.41616827e-03 4.42217849e-03 1.80492480e-03
      -9.94985108e-04 -4.66689141e-03 -3.34651046e-03 -3.68935941e-03
      -9.25710425e-03 -7.57501042e-03 4.39241016e-03 5.68653597e-03
      2.32250546e-03 -1.28352724e-03 -6.00018911e-03 -4.30318201e-03
      -4.74283518e-03 -1.19014988e-02 -7.57502625e-03 4.39267047e-03
      5.68617927e-03 2.32025655e-03 -1.27964094e-03 -6.00026594e-03
      -4.30407748e-03 -4.74391924e-03 -1.19016804e-02 -9.73887369e-03
      5.64796804e-03 7.31193041e-03 2.98561249e-03 -1.65073131e-03
      -7.71449879e-03 -5.53449197e-03 -6.09851768e-03 -1.53015275e-02
      4.85167326e-03 2.54234555e-03 2.90283002e-04 4.26458986e-03
      -6.01794338e-03 -2.05398723e-03 -5.19962702e-03 -1.25096710e-02
      5.21631585e-03 6.23702677e-03 3.26958019e-03 3.74965603e-04
      5.48391137e-03 -7.72512797e-03 -2.64197402e-03 -6.68478897e-03
      -1.60834547e-02 6.70577912e-03 6.23790314e-03 3.26860719e-03
      3.74353054e-04 5.48304105e-03 -7.73912016e-03 -2.64082453e-03
      -6.68509910e-03 -1.60827246e-02 6.70703640e-03 8.01907945e-03
      4.20358730e-03 4.83551208e-04 7.05073914e-03 -9.93457530e-03
      -3.39679932e-03 -8.59455299e-03 -2.06772592e-02 8.62216018e-03
      7.96120055e-03 6.81631360e-03 2.69480050e-03 3.47847189e-03
      7.95361213e-03 -7.08320783e-03 -3.64979915e-03 -9.72867478e-03
      -2.21859221e-03 1.02375252e-02 8.76459852e-03 3.46488203e-03
      4.47212067e-03 1.02301715e-02 -9.10839718e-03 -4.69318219e-03
      -1.25090303e-02 -2.85182544e-03 1.02386288e-02 8.76347627e-03
      3.46696447e-03 4.47194092e-03 1.02231819e-02 -9.10705142e-03
      -4.69121290e-03 -1.25077711e-02 -2.84947245e-03 1.31661315e-02
      1.12683121e-02 4.45770659e-03 5.74937975e-03 1.31493602e-02
      -1.17108878e-02 -6.03231043e-03 -1.60823632e-02 -3.66277271e-03
      -5.62357018e-03 -5.27820177e-03 -2.13049134e-04 -1.51286488e-02
      -1.34460179e-05 2.36949581e-03 1.57731876e-03 -3.23943282e-03
      7.66093424e-03 -7.23062083e-03 -6.78630313e-03 -2.74233724e-04
      -1.94507856e-02 -1.79819144e-05 3.04643856e-03 2.02788948e-03
      -4.16503148e-03 9.84947383e-03 -7.23140221e-03 -6.78638322e-03
      -2.74225720e-04 -1.94511283e-02 -1.58112980e-05 3.04647000e-03
      2.02822615e-03 -4.16490389e-03 9.84868780e-03 -9.29792412e-03
      -8.72540567e-03 -3.52982839e-04 -2.50081643e-02 -2.12217928e-05
      3.91681818e-03 2.60759937e-03 -5.35493298e-03 1.26622152e-02
      -6.74650166e-03 8.00996786e-04 7.82993995e-03 -1.74805317e-02
      1.57876611e-02 -2.50250800e-03 -4.19082306e-03 -8.03539529e-03
      -2.59222405e-04 -8.67689587e-03 1.02944823e-03 1.00681726e-02
      -2.24758200e-02 2.03029811e-02 -3.21694254e-03 -5.38935978e-03
      -1.03315953e-02 -3.35069519e-04 -8.67469050e-03 1.02954463e-03
      1.00661861e-02 -2.24749818e-02 2.03006286e-02 -3.21592577e-03
      -5.38719166e-03 -1.03291459e-02 -3.32114374e-04 -1.11568011e-02
      1.32318051e-03 1.29436618e-02 -2.88974941e-02 2.61066724e-02
      -4.13403008e-03 -6.92787766e-03 -1.32808117e-02 -4.29295906e-04
      1.86550396e-03 -5.31197852e-03 3.10759875e-03 -1.80524867e-02
      -4.68018232e-03 -8.25830363e-03 2.47666682e-03 1.58496911e-03
      -3.55306733e-03 2.39854702e-03 -6.82856562e-03 3.99715174e-03
      -2.32107714e-02 -6.01530354e-03 -1.06174331e-02 3.18348128e-03
      2.03745556e-03 -4.56812698e-03 2.39948882e-03 -6.82891626e-03
      3.99594381e-03 -2.32103784e-02 -6.01560064e-03 -1.06178913e-02
      3.18424287e-03 2.03810190e-03 -4.56731766e-03 3.08511173e-03
      -8.77859350e-03 5.13978302e-03 -2.98424698e-02 -7.73167564e-03
      -1.36510758e-02 4.09299275e-03 2.61995126e-03 -5.87213598e-03
      -1.58387717e-04 -6.10244414e-03 4.67980700e-03 -1.18908854e-02
      -4.97999834e-03 -5.17108291e-03 7.13240914e-03 1.94062432e-03
      3.36744683e-03 -2.03640680e-04 -7.84618966e-03 6.01614965e-03
      -1.52894212e-02 -6.40279707e-03 -6.64787740e-03 9.17327590e-03
      2.49566743e-03 4.32959385e-03 -2.03282034e-04 -7.84610771e-03
      6.01736084e-03 -1.52883148e-02 -6.40471373e-03 -6.64857961e-03
      9.17029288e-03 2.49513402e-03 4.33001248e-03 -2.61362671e-04
      -1.00880945e-02 7.73564586e-03 -1.96578708e-02 -8.23455304e-03
      -8.54732562e-03 1.17942775e-02 3.20877437e-03 5.56718186e-03
      -6.52764877e-03 -6.66120742e-03 -7.98901543e-03 6.36868877e-04
      4.51210624e-04 2.12796871e-03 2.51888018e-03 5.71849151e-03
      5.42393466e-03 -8.39506462e-03 -8.56429618e-03 -1.02712866e-02
      8.18116416e-04 5.71497658e-04 2.73789535e-03 3.23784142e-03
      7.35204294e-03 6.97127590e-03 -8.39636289e-03 -8.56520329e-03
      -1.02720438e-02 8.18796514e-04 5.82210196e-04 2.73594796e-03
      3.23922210e-03 7.35265994e-03 6.97083073e-03 -1.07983788e-02
      -1.10122580e-02 -1.32065201e-02 1.05181988e-03 7.37458526e-04
      3.52013693e-03 4.16378863e-03 9.45302844e-03 8.95946752e-03
      1.34646296e-04 -4.93091904e-03 7.74917193e-03 -1.78724825e-02
      -1.12625258e-02 -5.52675501e-03 -1.28672039e-03 -6.89384295e-03
      -7.38557242e-03 1.73493288e-04 -6.34134095e-03 9.96271800e-03
      -2.29783617e-02 -1.44775445e-02 -7.10822735e-03 -1.65436836e-03
      -8.86411313e-03 -9.49482620e-03 1.72851200e-04 -6.33954164e-03
      9.96271800e-03 -2.29789875e-02 -1.44816563e-02 -7.10575236e-03
      -1.65244541e-03 -8.86149611e-03 -9.49538685e-03 2.22719202e-04
      -8.15287977e-03 1.28085585e-02 -2.95437127e-02 -1.86156109e-02
      -9.13905445e-03 -2.12458964e-03 -1.13941254e-02 -1.22071831e-02
      -7.93356448e-03 -7.71847181e-03 -2.78647826e-03 -8.16823822e-03
      -9.26625542e-03 -1.55941909e-03 1.28637431e-02 1.69038016e-03
      -2.26831017e-03 -1.01996893e-02 -9.92382225e-03 -3.58318072e-03
      -1.05036069e-02 -1.19142234e-02 -2.00475310e-03 1.65375359e-02
      2.17286753e-03 -2.91580963e-03 -1.02014113e-02 -9.92515124e-03
      -3.58316232e-03 -1.05020152e-02 -1.19134113e-02 -2.00438173e-03
      1.65395606e-02 2.17416696e-03 -2.91655702e-03 -1.31153185e-02
      -1.27610005e-02 -4.60765325e-03 -1.35046300e-02 -1.53178405e-02
      -2.57678819e-03 2.12631375e-02 2.79474142e-03 -3.74910072e-03
      -8.98188725e-03 -1.64522678e-02 7.33492197e-04 8.49782198e-04
      -5.01010381e-03 -1.67856608e-02 6.16675243e-03 9.84724797e-03
      2.29317998e-03 -1.15487929e-02 -2.11532861e-02 9.43335413e-04
      1.09254452e-03 -6.43386832e-03 -2.15840787e-02 7.92884547e-03
      1.26604652e-02 2.94799195e-03 -1.15472525e-02 -2.11528726e-02
      9.43130639e-04 1.09250809e-03 -6.44082157e-03 -2.15822458e-02
      7.92760216e-03 1.26607958e-02 2.94964504e-03 -1.48473056e-02
      -2.71970239e-02 1.21294858e-03 1.40461395e-03 -8.27116054e-03
      -2.77518332e-02 1.01928450e-02 1.62778031e-02 3.79190943e-03
      -1.24968379e-03 -1.17348051e-02 2.01721769e-03 -2.86626699e-03
      -5.96714579e-03 -6.78686285e-03 -2.37281478e-04 -2.20023305e-03
      -4.45831174e-05 -1.60662632e-03 -1.50876874e-02 2.59297132e-03
      -3.68970144e-03 -7.67839653e-03 -8.72669369e-03 -3.05647060e-04
      -2.82873050e-03 -5.71700621e-05 -1.60661701e-03 -1.50878467e-02
      2.59250053e-03 -3.68608185e-03 -7.67203281e-03 -8.72547086e-03
      -3.04248300e-04 -2.82912352e-03 -5.79065709e-05 -2.06550490e-03
      -1.93987656e-02 3.33244912e-03 -4.74503497e-03 -9.87221021e-03
      -1.12193972e-02 -3.91912006e-04 -3.63726285e-03 -7.42570992e-05
      -1.74369605e-03 -1.19556719e-02 3.23813036e-03 -9.22526792e-03
      -4.94650006e-03 -1.97615451e-03 8.00455548e-03 8.10496602e-03
      2.41806661e-03 -2.24186480e-03 -1.53716719e-02 4.16323682e-03
      -1.18606873e-02 -6.35982817e-03 -2.54047522e-03 1.02922423e-02
      1.04206642e-02 3.10895732e-03 -2.24338518e-03 -1.53728481e-02
      4.16339189e-03 -1.18601248e-02 -6.35920605e-03 -2.54047103e-03
      1.02919182e-02 1.04222596e-02 3.10807792e-03 -2.88431440e-03
      -1.97652113e-02 5.35283657e-03 -1.52482502e-02 -8.17617215e-03
      -3.26593709e-03 1.32333282e-02 1.34000424e-02 3.99611937e-03
      -1.39450720e-02 -1.71040883e-03 1.02315322e-02 7.35634053e-03
      -4.50151879e-03 -8.85268208e-03 5.83201926e-03 3.99249280e-03
      -2.52895500e-03 -1.79283209e-02 -2.19949568e-03 1.31552676e-02
      9.45678912e-03 -5.78715233e-03 -1.13820760e-02 7.49559421e-03
      5.13281114e-03 -3.25046317e-03 -1.79331526e-02 -2.19876342e-03
      1.31558971e-02 9.45812743e-03 -5.79046831e-03 -1.13822501e-02
      7.49798212e-03 5.13357483e-03 -3.25505296e-03 -2.30555516e-02
      -2.82749766e-03 1.69152878e-02 1.21586975e-02 -7.44422665e-03
      -1.46343932e-02 9.63677093e-03 6.59980299e-03 -4.18371614e-03
      -5.10799419e-03 1.49861607e-03 8.49904027e-03 -6.01119222e-03
      -1.64320301e-02 1.00189727e-03 1.26665058e-02 1.61009002e-03
      -1.58309136e-02 -6.56776596e-03 1.92701910e-03 1.09278709e-02
      -7.72889936e-03 -2.11275406e-02 1.28627010e-03 1.62867848e-02
      2.07046070e-03 -2.03544777e-02 -6.56804675e-03 1.92696915e-03
      1.09277284e-02 -7.72866094e-03 -2.11263280e-02 1.28795626e-03
      1.62864290e-02 2.07069749e-03 -2.03546491e-02 -8.44507385e-03
      2.47782399e-03 1.40506234e-02 -9.93714016e-03 -2.71632485e-02
      1.65352086e-03 2.09413338e-02 2.66276905e-03 -2.61708386e-02
      -6.16000150e-04 4.53502452e-03 8.14500730e-03 -1.15047880e-02
      -4.32406040e-03 -1.21508585e-02 6.86502550e-03 1.63071696e-03
      -2.77112122e-03 -7.92057137e-04 5.83081460e-03 1.04704369e-02
      -1.47917438e-02 -5.56101417e-03 -1.56223606e-02 8.82633496e-03
      2.09683157e-03 -3.56248929e-03 -7.92479143e-04 5.83073916e-03
      1.04721384e-02 -1.47919124e-02 -5.55942440e-03 -1.56225525e-02
      8.82652029e-03 2.09662411e-03 -3.56315030e-03 -1.01897633e-03
      7.49675464e-03 1.34619754e-02 -1.90180130e-02 -7.14977039e-03
      -2.00859196e-02 1.13482205e-02 2.69591063e-03 -4.58070450e-03
      -2.98004918e-04 -1.40663078e-02 3.35358735e-03 -1.78071344e-03
      -1.45263877e-03 -1.37738958e-02 1.53358618e-03 2.17005028e-03
      9.64628626e-03 -3.82794358e-04 -1.80851482e-02 4.31235880e-03
      -2.28737993e-03 -1.86764344e-03 -1.77079402e-02 1.97215099e-03
      2.79017049e-03 1.24026984e-02 -3.82833474e-04 -1.80852544e-02
      4.31179767e-03 -2.28944188e-03 -1.86927104e-03 -1.77091081e-02
      1.97178894e-03 2.78900657e-03 1.24023622e-02 -4.91757120e-04
      -2.32523344e-02 5.54451579e-03 -2.94085476e-03 -2.40330328e-03
      -2.27671117e-02 2.53566657e-03 3.58600053e-03 1.59463212e-02
      9.23374854e-03 -6.57484541e-03 5.33418846e-04 -5.77898277e-03
      -2.49947002e-03 -6.68320525e-03 6.21391227e-03 -3.69890477e-03
      -6.16467791e-03 1.18721137e-02 -8.45337752e-03 6.85706269e-04
      -7.42941676e-03 -3.21146124e-03 -8.59338604e-03 7.98884686e-03
      -4.75621689e-03 -7.92657118e-03 1.18716666e-02 -8.45355727e-03
      6.84917031e-04 -7.43068010e-03 -3.21126916e-03 -8.59270338e-03
      7.98910670e-03 -4.75587556e-03 -7.92631879e-03 1.52637688e-02
      -1.08688632e-02 8.80454492e-04 -9.55282710e-03 -4.12601884e-03
      -1.10486532e-02 1.02711068e-02 -6.11531734e-03 -1.01916958e-02
      1.72210066e-03 1.53684395e-03 4.88407770e-03 -1.47612551e-02
      2.15492118e-03 -5.15813648e-04 -3.84982349e-03 -1.31438216e-02
      -1.10343033e-04 2.21402757e-03 1.97646301e-03 6.28115004e-03
      -1.89790223e-02 2.76652933e-03 -6.65748958e-04 -4.94977646e-03
      -1.68993659e-02 -1.42044388e-04 2.21307832e-03 1.97584275e-03
      6.27938565e-03 -1.89781897e-02 2.76956195e-03 -6.63078565e-04
      -4.95008519e-03 -1.68995541e-02 -1.42979130e-04 2.84525519e-03
      2.54103681e-03 8.07558000e-03 -2.44008712e-02 3.55561636e-03
      -8.55823106e-04 -6.36439724e-03 -2.17282102e-02 -1.84053002e-04
      1.76612905e-03 -7.30354385e-03 8.42603482e-03 8.90013544e-05
      2.61769583e-03 -1.39471292e-02 -6.67114975e-03 -4.24092216e-03
      -3.32570891e-03 2.27050972e-03 -9.39013250e-03 1.08323796e-02
      1.13527654e-04 3.36769503e-03 -1.79317854e-02 -8.57787952e-03
      -5.45266690e-03 -4.27626958e-03 2.27151043e-03 -9.38971527e-03
      1.08331833e-02 1.13798298e-04 3.36418976e-03 -1.79320294e-02
      -8.57635308e-03 -5.45272278e-03 -4.27645724e-03 2.92021874e-03
      -1.20723126e-02 1.39269782e-02 1.45156984e-04 4.32806835e-03
      -2.30551548e-02 -1.10276258e-02 -7.01071089e-03 -5.49876085e-03
      -3.82300327e-03 -7.12702749e-03 2.33931397e-03 -6.59802696e-03
      -8.74108635e-03 -1.47112226e-03 1.69333571e-03 -4.45000734e-03
      9.54399072e-03 -4.91513545e-03 -9.15887114e-03 3.00899707e-03
      -8.48344807e-03 -1.12379557e-02 -1.89158774e-03 2.17668689e-03
      -5.72140515e-03 1.22705000e-02 -4.91706841e-03 -9.16385185e-03
      3.00786830e-03 -8.48325808e-03 -1.12378849e-02 -1.88928179e-03
      2.17675813e-03 -5.72124636e-03 1.22714937e-02 -6.32174546e-03
      -1.17763737e-02 3.86894308e-03 -1.09073920e-02 -1.44479526e-02
      -2.42926390e-03 2.79809907e-03 -7.35584460e-03 1.57771930e-02
      -3.47802788e-03 4.15514223e-03 1.39949201e-02 -9.49777197e-03
      -1.47273317e-02 3.14193591e-03 1.45563541e-03 -1.11620994e-02
      -9.29314550e-03 -4.47129784e-03 5.34163509e-03 1.79932583e-02
      -1.22093977e-02 -1.89248174e-02 4.03788732e-03 1.87252660e-03
      -1.43493833e-02 -1.19477790e-02 -4.47270134e-03 5.34231914e-03
      1.79937202e-02 -1.22124692e-02 -1.89364105e-02 4.04173043e-03
      1.87120598e-03 -1.43513773e-02 -1.19492626e-02 -5.75003540e-03
      6.86780689e-03 2.31345128e-02 -1.56991463e-02 -2.43335385e-02
      5.19426819e-03 2.40711286e-03 -1.84493437e-02 -1.53626315e-02
      4.45957994e-03 7.81782810e-03 1.02212122e-02 1.80308547e-04
      -1.15647307e-03 -9.37704276e-03 -4.80589550e-03 2.80123251e-03
      -7.42814736e-03 5.73385926e-03 1.00521240e-02 1.31414374e-02
      2.31870494e-04 -1.48774218e-03 -1.20550450e-02 -6.17926987e-03
      3.60152428e-03 -9.54800006e-03 5.73376706e-03 1.00520467e-02
      1.31413043e-02 2.35774918e-04 -1.48738502e-03 -1.20581826e-02
      -6.18065381e-03 3.60220997e-03 -9.55043361e-03 7.37213157e-03
      1.29248695e-02 1.68958064e-02 3.03195324e-04 -1.91343599e-03
      -1.55018950e-02 -7.94688612e-03 4.63133585e-03 -1.22759473e-02
      3.56671936e-03 3.29510099e-03 1.45119410e-02 -5.74106630e-03
      -1.75277349e-02 -6.03807485e-03 -1.76013517e-03 -1.94881193e-03
      -2.56813224e-03 4.58639814e-03 4.23649186e-03 1.86580811e-02
      -7.38103967e-03 -2.25263108e-02 -7.76433526e-03 -2.26312946e-03
      -2.50548334e-03 -3.30128125e-03 4.58346168e-03 4.23650816e-03
      1.86581351e-02 -7.38105504e-03 -2.25352235e-02 -7.76379090e-03
      -2.26301071e-03 -2.50539975e-03 -3.30417464e-03 5.89381531e-03
      5.44685218e-03 2.39888653e-02 -9.48950090e-03 -2.89618354e-02
      -9.98342689e-03 -2.90971226e-03 -3.22105852e-03 -4.24744841e-03
      9.81508987e-04 -5.20094857e-03 -4.36996575e-03 6.22421736e-04
      6.35522138e-03 5.03641379e-04 9.24434885e-03 4.34279937e-04
      -2.09254416e-04 1.26087375e-03 -6.68693054e-03 -5.61776385e-03
      8.00913374e-04 8.17297585e-03 6.48289977e-04 1.18840132e-02
      5.57686610e-04 -2.70084391e-04 1.26065908e-03 -6.68727467e-03
      -5.61847491e-03 7.99131230e-04 8.16975627e-03 6.46616681e-04
      1.18849436e-02 5.58292726e-04 -2.70249351e-04 1.61947461e-03
      -8.59791972e-03 -7.22277397e-03 1.02830026e-03 1.05065145e-02
      8.32329795e-04 1.52786095e-02 7.16941897e-04 -3.48804926e-04
      -8.41700286e-03 -7.49322446e-03 -2.44514877e-03 -8.83891340e-03
      8.14562757e-03 -4.92631877e-03 8.45858734e-03 -1.56595302e-03
      -4.74824384e-03 -1.08229090e-02 -9.63331666e-03 -3.14349122e-03
      -1.13645950e-02 1.04786819e-02 -6.33246871e-03 1.08754216e-02
      -2.01346911e-03 -6.10607304e-03 -1.08227432e-02 -9.63535998e-03
      -3.14440019e-03 -1.13639394e-02 1.04744788e-02 -6.33378699e-03
      1.08738532e-02 -2.01417250e-03 -6.10661972e-03 -1.39163015e-02
      -1.23872533e-02 -4.04245174e-03 -1.46111362e-02 1.34745585e-02
      -8.14167783e-03 1.39807891e-02 -2.58977991e-03 -7.85289705e-03
      -4.03845310e-03 2.14553176e-04 1.94558862e-03 -2.22411621e-02
      -2.71719787e-03 5.99334994e-03 2.93506449e-03 -4.88182204e-03
      4.52120090e-03 -5.19317714e-03 2.75748811e-04 2.50320812e-03
      -2.85954010e-02 -3.49105452e-03 7.70647172e-03 3.77228670e-03
      -6.27706572e-03 5.81223145e-03 -5.19294711e-03 2.76582665e-04
      2.50086887e-03 -2.85957865e-02 -3.49273556e-03 7.70574156e-03
      3.77272838e-03 -6.27709460e-03 5.81323262e-03 -6.67777890e-03
      3.55471944e-04 3.21763591e-03 -3.67655195e-02 -4.48746001e-03
      9.90833063e-03 4.84889187e-03 -8.07111245e-03 7.47320382e-03
      -7.13232253e-03 -1.27401901e-03 -8.98874551e-03 -9.46800038e-03
      1.61222776e-03 6.91132899e-03 1.02321170e-02 1.29708369e-05
      -1.50539074e-02 -9.16958321e-03 -1.63802493e-03 -1.15570286e-02
      -1.21723255e-02 2.07992946e-03 8.88425950e-03 1.31559409e-02
      1.68184924e-05 -1.93544962e-02 -9.17087868e-03 -1.63730246e-03
      -1.15573080e-02 -1.21736648e-02 2.07365514e-03 8.88603460e-03
      1.31557947e-02 1.67834460e-05 -1.93560906e-02 -1.17904274e-02
      -2.10509985e-03 -1.48594845e-02 -1.56508014e-02 2.67521106e-03
      1.14226704e-02 1.69150587e-02 2.17627548e-05 -2.48857252e-02
      2.83042109e-03 1.05063813e-02 9.63618886e-03 -1.80579517e-02
      -1.10782869e-02 3.87284276e-03 9.93382465e-03 2.35638721e-03
      -3.14584468e-03 3.63894436e-03 1.35084428e-02 1.23898555e-02
      -2.32183896e-02 -1.42427869e-02 4.98063117e-03 1.27725182e-02
      3.02984915e-03 -4.04480286e-03 3.63745331e-03 1.35080004e-02
      1.23883234e-02 -2.32172124e-02 -1.42446272e-02 4.97937389e-03
      1.27722621e-02 3.02963681e-03 -4.04634373e-03 4.67651105e-03
      1.73677355e-02 1.59284454e-02 -2.98520103e-02 -1.83135867e-02
      6.40367344e-03 1.64220668e-02 3.89551558e-03 -5.20262728e-03
      -4.32042312e-03 3.03322286e-03 -2.17104703e-03 -2.60862289e-03
      5.08600660e-03 -1.48331290e-02 7.34721683e-03 -1.19935221e-03
      -3.01011652e-03 -5.55627188e-03 3.89969000e-03 -2.79148365e-03
      -3.35417967e-03 6.54287217e-03 -1.90733988e-02 9.44608916e-03
      -1.54214713e-03 -3.87160736e-03 -5.55722043e-03 3.89995147e-03
      -2.79117166e-03 -3.35399993e-03 6.53956737e-03 -1.90711338e-02
      9.44686681e-03 -1.54163386e-03 -3.87409772e-03 -7.14685209e-03
      5.01400651e-03 -3.58882709e-03 -4.31258650e-03 8.41280073e-03
      -2.45228987e-02 1.21455444e-02 -1.98225863e-03 -4.98285703e-03
      -1.93608685e-05 -8.90708715e-03 -1.17468159e-03 -6.63467450e-03
      -8.58905551e-04 -5.09728538e-03 -1.35996484e-03 4.55444818e-03
      2.26703379e-03 -2.42658552e-05 -1.14519773e-02 -1.50975550e-03
      -8.52858461e-03 -1.10422226e-03 -6.55550277e-03 -1.74796279e-03
      5.85635612e-03 2.91593676e-03 -2.42693350e-05 -1.14506958e-02
      -1.50948367e-03 -8.53033829e-03 -1.10535044e-03 -6.55364664e-03
      -1.74817035e-03 5.85585227e-03 2.91491905e-03 -3.04007917e-05
      -1.47223342e-02 -1.94005785e-03 -1.09653799e-02 -1.42105762e-03
      -8.42849445e-03 -2.24692561e-03 7.52976956e-03 3.74927092e-03
      -7.58209126e-03 -3.02259461e-03 -6.79782033e-03 -4.41366388e-03
      -2.91440426e-03 3.58927273e-03 -5.22579685e-05 1.64464954e-03
      4.59396368e-04 -9.74823814e-03 -3.88643728e-03 -8.74064956e-03
      -5.67425368e-03 -3.74699826e-03 4.61484678e-03 -6.76551281e-05
      2.11445871e-03 5.90827025e-04 -9.74906702e-03 -3.88769060e-03
      -8.73996783e-03 -5.67418290e-03 -3.74546531e-03 4.61512897e-03
      -6.77928474e-05 2.11471017e-03 5.90336043e-04 -1.25343017e-02
      -4.99877334e-03 -1.12378690e-02 -7.29479082e-03 -4.81547089e-03
      5.93382493e-03 -8.77630882e-05 2.71879788e-03 7.59226852e-04
      -3.55487084e-03 -1.68507900e-02 1.07394848e-02 -1.31802226e-03
      -1.46445353e-02 -6.02854299e-04 -8.39626533e-04 5.04934695e-04
      9.36441775e-03 -4.57013119e-03 -2.16646064e-02 1.38069568e-02
      -1.69629778e-03 -1.88095272e-02 -7.73928536e-04 -1.08039577e-03
      6.48569549e-04 1.20388139e-02 -4.57240315e-03 -2.16670595e-02
      1.38088195e-02 -1.69351930e-03 -1.88298784e-02 -7.75052467e-04
      -1.07858260e-03 6.49981957e-04 1.20386332e-02 -5.87826408e-03
      -2.78567579e-02 1.77529696e-02 -2.17956468e-03 -2.41852123e-02
      -9.94992093e-04 -1.38787588e-03 8.34877661e-04 1.54767632e-02
      -6.76265080e-03 1.15593814e-03 1.94498687e-03 5.01998235e-03
      -1.33187938e-02 -9.44500417e-03 5.51783247e-03 5.27264820e-05
      -5.47833787e-03 -8.69538542e-03 1.48648093e-03 2.50134501e-03
      6.45489944e-03 -1.71225443e-02 -1.21435951e-02 7.09409360e-03
      6.76635027e-05 -7.04415468e-03 -8.69545620e-03 1.48650142e-03
      2.50157411e-03 6.45425916e-03 -1.71241332e-02 -1.21437525e-02
      7.09465519e-03 6.84343031e-05 -7.04403268e-03 -1.11805787e-02
      1.91156822e-03 3.21714301e-03 8.29914957e-03 -2.20146645e-02
      -1.56134218e-02 9.12136026e-03 8.78249630e-05 -9.05735604e-03
      -1.72577437e-03 7.43123749e-03 -2.49993964e-03 -9.60009813e-04
      8.92367121e-03 5.43642440e-04 8.36299453e-03 -4.30245418e-03
      -1.13096237e-02 -2.21858430e-03 9.55477171e-03 -3.21424264e-03
      -1.23485224e-03 1.14707928e-02 6.99901080e-04 1.07515203e-02
      -5.53223770e-03 -1.45407626e-02 -2.22013798e-03 9.55410954e-03
      -3.21513368e-03 -1.23537949e-03 1.14736687e-02 7.00207136e-04
      1.07530830e-02 -5.53112244e-03 -1.45415384e-02 -2.85411836e-03
      1.22842696e-02 -4.13378701e-03 -1.58905715e-03 1.47486487e-02
      9.01466003e-04 1.38242347e-02 -7.11210212e-03 -1.86960269e-02
      -7.38020474e-03 3.33685632e-04 -8.05826421e-05 4.41988185e-03
      -9.75388475e-03 -3.97036085e-03 6.11553155e-03 1.07643418e-02
      1.64374511e-03 -9.48900823e-03 4.28870466e-04 -1.04440936e-04
      5.68139134e-03 -1.25393299e-02 -5.10332454e-03 7.86335673e-03
      1.38402991e-02 2.11319793e-03 -9.48948599e-03 4.29077423e-04
      -1.04050167e-04 5.68274176e-03 -1.25404960e-02 -5.10473922e-03
      7.86177907e-03 1.38395652e-02 2.11261236e-03 -1.22009926e-02
      5.51472825e-04 -1.34848495e-04 7.30469357e-03 -1.61217190e-02
      -6.56140456e-03 1.01086842e-02 1.77942812e-02 2.71597272e-03
      -1.56946033e-02 -9.97862592e-03 1.35694295e-02 1.90587062e-02
      -5.33039542e-03 -5.82674239e-03 9.64184571e-03 1.17020207e-02
      -8.10142432e-04 -2.01784205e-02 -1.28298411e-02 1.74450073e-02
      2.45029740e-02 -6.82563055e-03 -7.48916343e-03 1.23969363e-02
      1.50454976e-02 -1.04127347e-03 -2.01837588e-02 -1.28291352e-02
      1.74461473e-02 2.45040227e-02 -6.85358560e-03 -7.49150384e-03
      1.23977698e-02 1.50491586e-02 -1.04456022e-03 -2.59500910e-02
      -1.64948311e-02 2.24289596e-02 3.15037891e-02 -8.77609290e-03
      -9.62889474e-03 1.59403458e-02 1.93489734e-02 -1.34257320e-03
      -1.48788432e-03 1.49447797e-03 -1.97045621e-03 -8.37833900e-03
      -1.66658275e-02 -2.49054725e-03 1.32545205e-02 1.07890237e-02
      1.73499528e-02 -1.91314984e-03 1.92122336e-03 -2.53406167e-03
      -1.07719228e-02 -2.14295685e-02 -3.20176431e-03 1.70414951e-02
      1.38717480e-02 2.23068967e-02 -1.91391178e-03 1.92156027e-03
      -2.53376481e-03 -1.07721342e-02 -2.14273501e-02 -3.20216548e-03
      1.70412362e-02 1.38712423e-02 2.23055631e-02 -2.46094749e-03
      2.47025699e-03 -3.25849140e-03 -1.38495937e-02 -2.75521241e-02
      -4.11659712e-03 2.19101198e-02 1.78346410e-02 2.86783446e-02
      -7.06066028e-04 7.06647942e-03 -5.45554387e-04 6.41705189e-03
      -9.67016350e-03 -4.72206296e-03 1.37819303e-02 -1.23087298e-02
      -1.44889122e-02 -9.07582289e-04 9.08509921e-03 -7.02986843e-04
      8.25056992e-03 -1.24378465e-02 -6.07211515e-03 1.77193172e-02
      -1.58252530e-02 -1.86283495e-02 -9.07525769e-04 9.08551831e-03
      -7.01231882e-04 8.25052243e-03 -1.24331908e-02 -6.07168116e-03
      1.77191515e-02 -1.58247240e-02 -1.86275300e-02 -1.16653950e-03
      1.16809011e-02 -9.03592387e-04 1.06079131e-02 -1.59916785e-02
      -7.80759519e-03 2.27813702e-02 -2.03457456e-02 -2.39493549e-02
      3.28253326e-03 6.63654180e-04 5.39017748e-03 -2.39982246e-03
      -4.49811388e-03 -1.37567464e-02 -1.81900931e-03 1.40519149e-03
      -4.05445276e-03 4.22128895e-03 8.53011152e-04 6.92998664e-03
      -3.08591337e-03 -5.78084122e-03 -1.76872257e-02 -2.33952445e-03
      1.80641306e-03 -5.21201780e-03 4.22011362e-03 8.52748868e-04
      6.92989351e-03 -3.08549078e-03 -5.78240678e-03 -1.76872350e-02
      -2.33870093e-03 1.80599769e-03 -5.21313213e-03 5.42700198e-03
      1.09605864e-03 8.90954956e-03 -3.96760926e-03 -7.43137393e-03
      -2.27407049e-02 -3.00792721e-03 2.32166238e-03 -6.70150574e-03
      7.94709381e-03 -2.03241198e-03 7.26880459e-03 4.44439985e-03
      -1.03959749e-02 -1.77421831e-02 2.04851106e-03 -9.92247742e-03
      -1.35007612e-02 1.02180606e-02 -2.61296565e-03 9.34595801e-03
      5.71520440e-03 -1.33649996e-02 -2.28113607e-02 2.63406779e-03
      -1.27570881e-02 -1.73576921e-02 1.02182906e-02 -2.61313468e-03
      9.34548490e-03 5.71397180e-03 -1.33669032e-02 -2.28113178e-02
      2.63365428e-03 -1.27574140e-02 -1.73575152e-02 1.31382765e-02
      -3.35957110e-03 1.20160794e-02 7.34778913e-03 -1.71844047e-02
      -2.93288194e-02 3.38647189e-03 -1.64018981e-02 -2.23162547e-02
      -2.38191662e-03 -6.27368037e-03 5.96039055e-04 -1.11662140e-02
      -2.25956086e-02 2.48389738e-03 4.46444424e-03 1.44578260e-03
      -3.73016531e-03 -3.06232530e-03 -8.06735922e-03 7.63747434e-04
      -1.43572008e-02 -2.90508159e-02 3.19231884e-03 5.73938712e-03
      1.86403224e-03 -4.79331007e-03 -3.06310924e-03 -8.06488376e-03
      7.66173005e-04 -1.43564250e-02 -2.90494990e-02 3.19683505e-03
      5.73821878e-03 1.85274216e-03 -4.79703443e-03 -3.93810542e-03
      -1.03706801e-02 9.81750782e-04 -1.84590835e-02 -3.73484828e-02
      4.10859287e-03 7.37692090e-03 2.38874345e-03 -6.16425183e-03
      2.16868147e-03 3.78940790e-03 -6.49978453e-03 -1.12148123e-02
      -7.79586146e-03 -1.67109445e-02 -7.34539703e-03 -8.52436572e-03
      8.60670023e-03 2.78783077e-03 4.87183547e-03 -8.35763849e-03
      -1.44214025e-02 -1.00370198e-02 -2.14843284e-02 -9.44352243e-03
      -1.09598655e-02 1.10653117e-02 2.78738816e-03 4.87185549e-03
      -8.35759100e-03 -1.44191096e-02 -1.00232344e-02 -2.14854944e-02
      -9.44410078e-03 -1.09611684e-02 1.10646151e-02 3.58317629e-03
      6.26347866e-03 -1.07464641e-02 -1.85418874e-02 -1.29047185e-02
      -2.76226997e-02 -1.21416971e-02 -1.40928905e-02 1.42253609e-02
      -1.23822680e-02 3.08018527e-03 1.02156894e-02 -1.24319689e-02
      -8.12682882e-03 5.10515645e-03 -8.83252267e-03 -1.44482800e-03
      6.18258666e-04 -1.59193631e-02 3.96032259e-03 1.31348176e-02
      -1.59860197e-02 -1.04419421e-02 6.56379340e-03 -1.13562951e-02
      -1.85796095e-03 7.95581727e-04 -1.59224588e-02 3.95995472e-03
      1.31336795e-02 -1.59840845e-02 -1.04483813e-02 6.56378735e-03
      -1.13568567e-02 -1.85796700e-03 7.92715175e-04 -2.04708353e-02
      5.09148091e-03 1.68866217e-02 -2.05536149e-02 -1.34248389e-02
      8.43918417e-03 -1.46019226e-02 -2.38923309e-03 1.02007808e-03
      6.52594632e-03 8.56666826e-03 -5.39662736e-03 -1.33308340e-02
      -1.50659923e-02 -5.44717535e-03 9.02228989e-04 5.28821675e-03
      6.19637175e-03 8.38992000e-03 1.10138627e-02 -6.93983817e-03
      -1.71396788e-02 -1.93625521e-02 -7.00300327e-03 1.16011687e-03
      6.79863291e-03 7.96555262e-03 8.38940777e-03 1.10142389e-02
      -6.93864096e-03 -1.71397068e-02 -1.93723887e-02 -7.00346427e-03
      1.16032758e-03 6.79925224e-03 7.96512607e-03 1.07856328e-02
      1.41606182e-02 -8.92280135e-03 -2.20368113e-02 -2.48970594e-02
      -9.00380127e-03 1.49198913e-03 8.74125026e-03 1.02393171e-02
      4.66821995e-03 1.88446883e-03 -5.44190593e-03 -8.43838602e-03
      -5.36436494e-03 -1.68814976e-02 2.47172615e-03 2.59985356e-03
      1.22817466e-03 6.00079400e-03 2.42035813e-03 -6.99709542e-03
      -1.08487140e-02 -6.88927202e-03 -2.17020027e-02 3.17773968e-03
      3.34234349e-03 1.57949049e-03 5.99882472e-03 2.41984171e-03
      -6.99966634e-03 -1.08501771e-02 -6.89365016e-03 -2.17053760e-02
      3.17764049e-03 3.34313815e-03 1.57664984e-03 7.71122798e-03
      3.10797151e-03 -9.00002941e-03 -1.39494045e-02 -8.85327347e-03
      -2.79033370e-02 4.08529071e-03 4.29790048e-03 2.02764734e-03
      7.71403313e-03 2.88861943e-03 1.62044410e-02 -1.89411792e-03
      6.87897264e-04 -8.36540572e-03 3.29795992e-03 -5.58924489e-03
      1.03044593e-04 9.91874002e-03 3.71389743e-03 2.08330713e-02
      -2.43534520e-03 8.82930355e-04 -1.07555166e-02 4.24075872e-03
      -7.18594855e-03 1.33103342e-04 9.91393533e-03 3.71379592e-03
      2.08338648e-02 -2.43531354e-03 8.87101924e-04 -1.07549587e-02
      4.23987349e-03 -7.18598580e-03 1.28481959e-04 1.27473865e-02
      4.77482611e-03 2.67848391e-02 -3.13118193e-03 1.13861880e-03
      -1.38277942e-02 5.45193767e-03 -9.23883636e-03 1.65984253e-04
      -3.85709014e-03 -1.21991732e-03 -1.10923008e-06 -8.91104899e-03
      1.10834269e-02 -7.21354689e-03 5.44904452e-03 2.70220521e-03
      -3.46528343e-03 -4.96009504e-03 -1.56848156e-03 -1.09056441e-06
      -1.14590200e-02 1.42496796e-02 -9.27436538e-03 7.00557884e-03
      3.47412960e-03 -4.45635477e-03 -4.95922286e-03 -1.56695955e-03
      -1.73486603e-06 -1.14594614e-02 1.42528079e-02 -9.27461311e-03
      7.00599421e-03 3.47429910e-03 -4.45571449e-03 -6.37739990e-03
      -2.01468449e-03 -1.80086261e-06 -1.47361057e-02 1.83244757e-02
      -1.19242501e-02 9.00727510e-03 4.46678419e-03 -5.73005108e-03
      -6.67379517e-03 -4.36571892e-03 6.66185282e-03 -7.00817257e-03
      -6.57106657e-03 -6.14887010e-03 -2.80499412e-03 1.04053104e-02
      6.26231590e-03 -8.58055800e-03 -5.61321154e-03 8.56503379e-03
      -9.00894962e-03 -8.44425242e-03 -7.90777989e-03 -3.60770989e-03
      1.33774327e-02 8.05153698e-03 -8.57966486e-03 -5.61239850e-03
      8.56514927e-03 -9.01050400e-03 -8.44807085e-03 -7.90562760e-03
      -3.60686728e-03 1.33799892e-02 8.05266667e-03 -1.10309487e-02
      -7.21612666e-03 1.10120708e-02 -1.15829287e-02 -1.08563257e-02
      -1.01670641e-02 -4.63905931e-03 1.72017850e-02 1.03534143e-02
      -5.65061066e-03 5.55810612e-03 6.20513363e-03 2.59171147e-03
      5.27758803e-03 -1.46155544e-02 4.23795125e-03 -3.87597689e-03
      -7.67383398e-03 -7.26568745e-03 7.14347651e-03 7.97710847e-03
      3.33318976e-03 6.80229254e-03 -1.87919885e-02 5.44837862e-03
      -4.98372503e-03 -9.86648910e-03 -7.26750679e-03 7.14571495e-03
      7.97806215e-03 3.33220442e-03 6.78465422e-03 -1.87916439e-02
      5.44965221e-03 -4.98359697e-03 -9.86692123e-03 -9.34473332e-03
      9.18392465e-03 1.02563240e-02 4.28553484e-03 8.74475483e-03
      -2.41614096e-02 7.00616324e-03 -6.40790258e-03 -1.26862116e-02
      -2.11982778e-03 -1.17987497e-02 1.21137490e-02 -4.19915561e-03
      -1.51690776e-02 5.03482390e-03 8.39635544e-03 2.55093817e-03
      -7.67900143e-03 -2.72526196e-03 -1.51692629e-02 1.55764204e-02
      -5.40123694e-03 -1.95009671e-02 6.47551194e-03 1.07956687e-02
      3.27982288e-03 -9.87278018e-03 -2.72186450e-03 -1.51693085e-02
      1.55747822e-02 -5.39889419e-03 -1.95018724e-02 6.47332054e-03
      1.07958838e-02 3.27949156e-03 -9.87171102e-03 -3.49924481e-03
      -1.95026770e-02 2.00267769e-02 -6.94442028e-03 -2.50710975e-02
      8.32562614e-03 1.38808778e-02 4.21654759e-03 -1.26919178e-02
      -5.54051204e-03 -2.55296647e-04 -5.10329194e-03 -3.54042649e-03
      2.25438480e-03 -6.69036945e-03 7.44979596e-03 8.63892783e-04
      -2.48981570e-03 -7.12325098e-03 -3.28205933e-04 -6.56116987e-03
      -4.55228891e-03 2.89979158e-03 -8.60046037e-03 9.57816839e-03
      1.11059239e-03 -3.20093031e-03 -7.12181302e-03 -3.28376889e-04
      -6.56159176e-03 -4.55196481e-03 2.89868796e-03 -8.60186294e-03
      9.57893301e-03 1.11089740e-03 -3.19956196e-03 -9.15627740e-03
      -4.22157667e-04 -8.43606982e-03 -5.85292885e-03 3.72855319e-03
      -1.10576805e-02 1.23155918e-02 1.42813369e-03 -4.11338685e-03
      -1.18239718e-02 6.83564600e-03 1.51971285e-03 -6.49007782e-03
      -8.90071224e-03 -3.80364968e-03 7.17185950e-03 3.31893167e-03
      -1.46862995e-02 -1.52014773e-02 8.78873095e-03 1.95393991e-03
      -8.34506936e-03 -1.14436448e-02 -4.89012199e-03 9.22128092e-03
      4.26918827e-03 -1.88812874e-02 -1.52024254e-02 8.78826249e-03
      1.95354037e-03 -8.34453944e-03 -1.14446860e-02 -4.89045028e-03
      9.22093634e-03 4.26816475e-03 -1.88814811e-02 -1.95449851e-02
      1.12992497e-02 2.51172553e-03 -1.07295709e-02 -1.47144292e-02
      -6.28735730e-03 1.18558994e-02 5.49020013e-03 -2.42747795e-02
      6.86686905e-03 -3.75616294e-03 -5.17151132e-03 -1.45889549e-02
      -2.02840753e-02 -3.73640971e-04 1.20019270e-02 5.85061684e-03
      -4.51374799e-04 8.82972032e-03 -4.82935272e-03 -6.64986065e-03
      -1.87588669e-02 -2.60803197e-02 -4.78754606e-04 1.54306954e-02
      7.52208615e-03 -5.79442189e-04 8.82996060e-03 -4.82879160e-03
      -6.64747600e-03 -1.87571812e-02 -2.60778330e-02 -4.80391114e-04
      1.54304197e-02 7.52199674e-03 -5.79217100e-04 1.13539472e-02
      -6.20844727e-03 -8.54775216e-03 -2.41184849e-02 -3.35296616e-02
      -6.15535013e-04 1.98386554e-02 9.67096537e-03 -7.43555487e-04
      -1.23779522e-02 2.27037282e-03 1.43858371e-02 -9.19020083e-03
      -2.03185584e-02 3.62851121e-03 -1.99866388e-03 4.62165242e-03
      -2.27682246e-03 -1.59122888e-02 2.91646272e-03 1.84957664e-02
      -1.18148718e-02 -2.61132699e-02 4.66772635e-03 -2.56976765e-03
      5.94209321e-03 -2.92753801e-03 -1.59150939e-02 2.92231492e-03
      1.85004976e-02 -1.18158376e-02 -2.61230897e-02 4.66533285e-03
      -2.57017766e-03 5.94214909e-03 -2.92791124e-03 -2.04594079e-02
      3.75393243e-03 2.37859525e-02 -1.51903760e-02 -3.35732102e-02
      6.00149482e-03 -3.30458675e-03 7.63986446e-03 -3.76470503e-03
      -1.54389357e-02 -2.20099450e-04 1.13633983e-02 7.19238771e-03
      -8.08988139e-03 -7.88045209e-03 2.49478105e-03 -1.36520865e-03
      -1.74282526e-04 -1.98492575e-02 -2.82732450e-04 1.46108447e-02
      9.24748555e-03 -1.04046194e-02 -1.01304241e-02 3.20854341e-03
      -1.75536925e-03 -2.23392432e-04 -1.98498778e-02 -2.82563095e-04
      1.46113569e-02 9.24739521e-03 -1.04007432e-02 -1.01322280e-02
      3.20624048e-03 -1.75572641e-03 -2.23831579e-04 -2.55202353e-02
      -3.62971012e-04 1.87870078e-02 1.18896756e-02 -1.33766811e-02
      -1.30251097e-02 4.12355363e-03 -2.25749100e-03 -2.86904338e-04
      -2.05493928e-03 2.61264550e-03 1.21785961e-02 -5.17389225e-03
      -1.72233246e-02 7.43261713e-04 2.02575196e-02 4.21427842e-03
      -1.63027868e-02 -2.64293724e-03 3.35932267e-03 1.56588927e-02
      -6.65236963e-03 -2.21349876e-02 9.53612209e-04 2.60453485e-02
      5.41883800e-03 -2.09615175e-02 -2.64008646e-03 3.35857761e-03
      1.56564508e-02 -6.65206695e-03 -2.21435353e-02 9.55596857e-04
      2.60464884e-02 5.41891530e-03 -2.09587514e-02 -3.39551969e-03
      4.31843661e-03 2.01306194e-02 -8.55294429e-03 -2.84583215e-02
      1.22604042e-03 3.34882960e-02 6.96779415e-03 -2.69479882e-02
      -6.60305377e-03 -2.73305341e-03 4.88077011e-03 3.73723521e-03
      -1.45200882e-02 1.30315796e-02 2.04610843e-02 3.53178219e-03
      -5.02289971e-03 -8.48891586e-03 -3.51402862e-03 6.27522077e-03
      4.80347453e-03 -1.86652355e-02 1.67554393e-02 2.63074953e-02
      4.54083737e-03 -6.45723753e-03 -8.48888513e-03 -3.51365353e-03
      6.27582753e-03 4.80498839e-03 -1.86701324e-02 1.67549271e-02
      2.63072699e-02 4.54088533e-03 -6.45738421e-03 -1.09133469e-02
      -4.51768795e-03 8.06885120e-03 6.17585937e-03 -2.40000244e-02
      2.15427559e-02 3.38241309e-02 5.83824841e-03 -8.30135401e-03
      2.05598609e-03 4.08137275e-04 3.32944072e-03 4.21678618e-04
      -8.81390646e-03 6.87164767e-03 2.68250494e-03 1.16076320e-02
      -4.40996373e-03 2.64377939e-03 5.24629781e-04 4.28013410e-03
      5.37105021e-04 -1.13272211e-02 8.83913133e-03 3.44989286e-03
      1.49243241e-02 -5.66932373e-03 2.64500850e-03 5.25182812e-04
      4.28095087e-03 5.43159316e-04 -1.13329617e-02 8.83500371e-03
      3.44847888e-03 1.49246054e-02 -5.67146111e-03 3.40119912e-03
      6.75081741e-04 5.50333876e-03 6.91847818e-04 -1.45645943e-02
      1.13646323e-02 4.43498651e-03 1.91890690e-02 -7.29106832e-03
      5.02192182e-03 3.38229409e-04 -5.99009974e-04 1.10994829e-02
      -2.01470014e-02 5.65170962e-03 3.90664954e-03 9.88287572e-03
      -1.08240088e-02 6.45725615e-03 4.34616755e-04 -7.70908257e-04
      1.42693864e-02 -2.59078126e-02 7.26747466e-03 5.02280798e-03
      1.27065079e-02 -1.39161572e-02 6.45664474e-03 4.35022230e-04
      -7.69668783e-04 1.42707471e-02 -2.59029549e-02 7.26650516e-03
      5.02323499e-03 1.27066709e-02 -1.39166545e-02 8.30204226e-03
      5.58990985e-04 -9.90545377e-04 1.83463320e-02 -3.33096161e-02
      9.34392493e-03 6.45840913e-03 1.63370874e-02 -1.78922974e-02
      -6.68841007e-04 1.05786398e-02 1.54631864e-02 -2.77294964e-03
      -1.91523898e-02 -4.61891945e-03 1.07076932e-02 -1.33797748e-03
      -1.32568087e-02 -8.60337401e-04 1.36013906e-02 1.98819060e-02
      -3.56942788e-03 -2.46256292e-02 -5.93713205e-03 1.37670049e-02
      -1.72060332e-03 -1.70449298e-02 -8.60330416e-04 1.36011206e-02
      1.98811870e-02 -3.56520619e-03 -2.46246159e-02 -5.93839074e-03
      1.37693007e-02 -1.71826722e-03 -1.70446653e-02 -1.10665243e-03
      1.74875148e-02 2.55623870e-02 -4.58924519e-03 -3.16616744e-02
      -7.63317104e-03 1.77033506e-02 -2.20964709e-03 -2.19151638e-02
      2.10299133e-03 5.99528756e-03 9.06586181e-03 -1.21002807e-03
      6.25002373e-04 -5.06433053e-03 -5.23357047e-03 5.25197247e-04
      -8.65989737e-03 2.70453934e-03 7.70819699e-03 1.16559220e-02
      -1.55598507e-03 7.97626388e-04 -6.51156483e-03 -6.72934903e-03
      6.74314622e-04 -1.11336997e-02 2.70690676e-03 7.70857977e-03
      1.16570340e-02 -1.55569857e-03 8.02312104e-04 -6.51135016e-03
      -6.72889780e-03 6.75343385e-04 -1.11312140e-02 3.48119950e-03
      9.91099421e-03 1.49873737e-02 -2.00048694e-03 1.02389383e-03
      -8.37209821e-03 -8.65204632e-03 8.67091760e-04 -1.43109784e-02
      4.22302913e-03 -9.21267644e-03 1.73877226e-03 -8.18261039e-03
      4.54582623e-05 -7.70089822e-03 4.96710977e-03 -3.09137697e-03
      2.76480126e-03 5.42993937e-03 -1.18447989e-02 2.23591086e-03
      -1.05205253e-02 6.49626090e-05 -9.90246423e-03 6.38470612e-03
      -3.97486147e-03 3.55515443e-03 5.42971073e-03 -1.18438769e-02
      2.23608594e-03 -1.05196731e-02 5.82942739e-05 -9.90115479e-03
      6.38633966e-03 -3.97486007e-03 3.55466455e-03 6.98148087e-03
      -1.52277499e-02 2.87541328e-03 -1.35253277e-02 8.33271188e-05
      -1.27317412e-02 8.20897985e-03 -5.11083473e-03 4.57081012e-03
      -8.56685080e-03 7.78106449e-04 7.26067694e-03 -1.21787318e-03
      -8.42067041e-03 -2.24991958e-03 6.40891213e-03 3.68841365e-03
      -1.38623416e-02 -1.10146720e-02 1.00048725e-03 9.33524035e-03
      -1.56598364e-03 -1.08260550e-02 -2.89248652e-03 8.24021641e-03
      4.74228710e-03 -1.78231634e-02 -1.10150054e-02 1.00041984e-03
      9.33511369e-03 -1.56578037e-03 -1.08264294e-02 -2.89275753e-03
      8.24015588e-03 4.74231038e-03 -1.78234912e-02 -1.41623430e-02
      1.28633704e-03 1.20023964e-02 -2.01333710e-03 -1.39190238e-02
      -3.71891679e-03 1.05947256e-02 6.09730883e-03 -2.29161158e-02
      -2.67189782e-04 -1.60413631e-03 -2.42520077e-03 -9.75439232e-03
      -5.16352616e-03 4.64449823e-03 1.20977890e-02 -1.19216740e-02
      -9.14778467e-03 -3.42589978e-04 -2.06140778e-03 -3.11774528e-03
      -1.25412391e-02 -6.64451485e-03 5.96730504e-03 1.55525720e-02
      -1.53277628e-02 -1.17610851e-02 -3.43416323e-04 -2.06279941e-03
      -3.11819278e-03 -1.25408685e-02 -6.64115697e-03 5.97153232e-03
      1.55544169e-02 -1.53283356e-02 -1.17609696e-02 -4.40327072e-04
      -2.65081530e-03 -4.00863169e-03 -1.61238182e-02 -8.54595378e-03
      7.67229125e-03 1.99963134e-02 -1.97077300e-02 -1.51207922e-02
      1.35477167e-03 -8.68996046e-03 -3.25105921e-03 -2.15906440e-03
      4.27819835e-03 1.34674236e-04 -4.19317931e-03 -5.81975235e-03
      -7.17602810e-03 1.74129568e-03 -1.11677563e-02 -4.17697197e-03
      -2.77405698e-03 5.52069815e-03 1.77893817e-04 -5.39259100e-03
      -7.48359272e-03 -9.22623929e-03 1.74340396e-03 -1.11731170e-02
      -4.18141065e-03 -2.77533149e-03 5.49838692e-03 1.73209395e-04
      -5.39310975e-03 -7.48270657e-03 -9.22416709e-03 2.24080728e-03
      -1.43589433e-02 -5.37229097e-03 -3.56586021e-03 7.09527731e-03
      2.28793098e-04 -6.93574781e-03 -9.62197874e-03 -1.18595371e-02
      -2.66123773e-03 -5.61312598e-04 6.18264917e-03 -1.11458031e-02
      -8.15679692e-03 -8.15508328e-03 1.28078144e-02 2.05982197e-03
      -2.60504475e-03 -3.42196249e-03 -7.21607474e-04 7.94945005e-03
      -1.43300826e-02 -1.04861539e-02 -1.04856491e-02 1.64674949e-02
      2.64841178e-03 -3.34970048e-03 -3.42078973e-03 -7.21538381e-04
      7.94832874e-03 -1.43304626e-02 -1.04855215e-02 -1.04860431e-02
      1.64672472e-02 2.64851865e-03 -3.34906881e-03 -4.39863792e-03
      -9.27588902e-04 1.02197016e-02 -1.84245780e-02 -1.34798959e-02
      -1.34827523e-02 2.11725626e-02 3.40533000e-03 -4.30640439e-03
      6.98801829e-03 3.30164417e-04 8.22535367e-05 -3.23545164e-03
      -7.80388014e-03 -1.49526540e-02 2.72361492e-03 -1.95782818e-03
      -4.01936704e-03 8.98440089e-03 4.24303085e-04 1.05193460e-04
      -4.15902119e-03 -1.00331465e-02 -1.92251261e-02 3.50134238e-03
      -2.51781219e-03 -5.16666425e-03 8.98623932e-03 4.23735095e-04
      1.04925130e-04 -4.16057091e-03 -1.00340908e-02 -1.92243718e-02
      3.50189512e-03 -2.51722988e-03 -5.16593736e-03 1.15534859e-02
      5.44553273e-04 1.34179732e-04 -5.34821767e-03 -1.29004400e-02
      -2.47174148e-02 4.50185966e-03 -3.23721487e-03 -6.64051436e-03
      -7.96363130e-03 9.17493424e-04 4.95503657e-03 -2.97342334e-03
      -3.14171147e-03 3.67620448e-03 7.47678522e-03 -2.81034823e-04
      1.46262953e-03 -1.02389222e-02 1.18042168e-03 6.37356052e-03
      -3.82106425e-03 -4.03455365e-03 4.72655101e-03 9.61227901e-03
      -3.61587765e-04 1.88056089e-03 -1.02396701e-02 1.17969478e-03
      6.37271581e-03 -3.82298208e-03 -4.04086616e-03 4.72649839e-03
      9.61230416e-03 -3.60125036e-04 1.88033411e-03 -1.31652495e-02
      1.51776336e-03 8.19708873e-03 -4.91280761e-03 -5.18923625e-03
      6.07693009e-03 1.23577379e-02 -4.63348639e-04 2.41762004e-03
      -3.56710050e-03 1.79928786e-03 1.83498487e-03 -1.33159396e-03
      -3.63660580e-03 -4.50221356e-03 -2.67002243e-03 -5.06051350e-03
      -3.64857865e-03 -4.58598929e-03 2.31153029e-03 2.35775532e-03
      -1.71127799e-03 -4.67366446e-03 -5.78926411e-03 -3.43312882e-03
      -6.50643278e-03 -4.69045248e-03 -4.58597485e-03 2.31336080e-03
      2.35906476e-03 -1.71214982e-03 -4.67594340e-03 -5.78853162e-03
      -3.43246525e-03 -6.50628144e-03 -4.69072070e-03 -5.89588936e-03
      2.97195488e-03 3.03114275e-03 -2.20034341e-03 -6.00938359e-03
      -7.44330278e-03 -4.41348273e-03 -8.36529490e-03 -6.03018515e-03
      -5.90049615e-03 -3.09869181e-03 1.20797930e-02 -6.51018461e-03
      -1.01633957e-02 -2.91660079e-04 6.52985973e-03 -3.56429652e-03
      -4.50647715e-03 -7.58632412e-03 -3.98372952e-03 1.55317448e-02
      -8.37002415e-03 -1.30614825e-02 -3.74988333e-04 8.39588698e-03
      -4.58330568e-03 -5.79506019e-03 -7.58561632e-03 -3.98440054e-03
      1.55294118e-02 -8.36934522e-03 -1.30683323e-02 -3.76589975e-04
      8.39530118e-03 -4.58356040e-03 -5.79365762e-03 -9.75289941e-03
      -5.12240920e-03 1.99671350e-02 -1.07603129e-02 -1.67947598e-02
      -4.84181917e-04 1.07944105e-02 -5.89397037e-03 -7.45029608e-03
      -2.92727957e-03 1.48078508e-03 7.31324125e-03 -6.29297399e-04
      -5.52627537e-03 -9.83517338e-03 1.39542893e-02 -2.84383143e-03
      -7.52909575e-03 -3.76365241e-03 1.90353557e-03 9.40187089e-03
      -8.09888763e-04 -7.10153440e-03 -1.26449326e-02 1.79404467e-02
      -3.65667231e-03 -9.68027953e-03 -3.76435136e-03 1.90531288e-03
      9.40329488e-03 -8.09139106e-04 -7.10724900e-03 -1.26452316e-02
      1.79417077e-02 -3.65629187e-03 -9.68070515e-03 -4.83988738e-03
      2.44926196e-03 1.20888324e-02 -1.04134146e-03 -9.13317036e-03
      -1.62577815e-02 2.30669007e-02 -4.70135408e-03 -1.24466401e-02
      -2.46670912e-03 1.79628306e-03 1.22766327e-02 -5.79005864e-04
      -1.22917453e-02 -9.64246318e-03 7.27021368e-03 -4.19678778e-04
      -1.59856619e-03 -3.17084347e-03 2.30969954e-03 1.57851856e-02
      -7.45128375e-04 -1.58030689e-02 -1.23979924e-02 9.34752449e-03
      -5.40128152e-04 -2.05473951e-03 -3.17280809e-03 2.31191865e-03
      1.57835223e-02 -7.45103171e-04 -1.58046782e-02 -1.23974057e-02
      9.34692100e-03 -5.40626585e-04 -2.05646339e-03 -4.07850184e-03
      2.97271740e-03 2.02943143e-02 -9.58879245e-04 -2.03195252e-02
      -1.59402154e-02 1.20176068e-02 -6.95787137e-04 -2.64330092e-03
      -1.28893042e-03 6.67855004e-03 1.17480243e-03 -1.26521531e-02
      -1.30699687e-02 -1.63008459e-03 4.82626911e-03 5.15825395e-03
      1.16360243e-02 -1.65703695e-03 8.58667307e-03 1.51051313e-03
      -1.62710585e-02 -1.68074463e-02 -2.09557032e-03 6.20457483e-03
      6.63187075e-03 1.49607779e-02 -1.65706978e-03 8.58672336e-03
      1.51058182e-03 -1.62670333e-02 -1.68030877e-02 -2.09587184e-03
      6.20575855e-03 6.63175480e-03 1.49609977e-02 -2.13031541e-03
      1.10400300e-02 1.94224284e-03 -2.09199060e-02 -2.16080844e-02
      -2.69436766e-03 7.97802489e-03 8.52632429e-03 1.92357935e-02
      5.03885373e-03 1.92109938e-03 -5.02118468e-03 -8.83850269e-03
      -2.27658451e-02 -5.51991072e-03 4.19941265e-03 5.97269333e-04
      8.89756950e-04 6.47811871e-03 2.47008284e-03 -6.45402446e-03
      -1.13631878e-02 -2.92662401e-02 -7.09710550e-03 5.39873354e-03
      7.67234480e-04 1.14358577e-03 6.47970755e-03 2.47130590e-03
      -6.45608455e-03 -1.13638369e-02 -2.92729549e-02 -7.09669618e-03
      5.39995171e-03 7.67870282e-04 1.14506844e-03 8.33052769e-03
      3.17751686e-03 -8.29838403e-03 -1.46098724e-02 -3.76313441e-02
      -9.12442245e-03 6.94213761e-03 9.86383646e-04 1.47173391e-03
      2.23065703e-03 1.97966141e-03 -4.64940164e-03 -8.68818071e-03
      -1.77778751e-02 3.04005248e-03 8.63946974e-03 -3.59440129e-03
      3.12793674e-03 2.86982697e-03 2.54547317e-03 -5.97712211e-03
      -1.11693973e-02 -2.28564199e-02 3.90861090e-03 1.11071123e-02
      -4.62158583e-03 4.02358454e-03 2.86828633e-03 2.54605571e-03
      -5.97782386e-03 -1.11705428e-02 -2.28562020e-02 3.90756223e-03
      1.11060068e-02 -4.62119048e-03 4.02172888e-03 3.69016058e-03
      3.27374879e-03 -7.68489670e-03 -1.43606840e-02 -2.93854475e-02
      5.02397167e-03 1.42781558e-02 -5.94180077e-03 5.17330179e-03
      3.67159233e-03 7.03400979e-03 3.80424573e-03 -1.77734420e-02
      -1.63838156e-02 -1.45044713e-03 9.59537178e-03 8.95699766e-03
      3.98029108e-03 4.72244155e-03 9.04629752e-03 4.89138812e-03
      -2.28507761e-02 -2.10515168e-02 -1.86552072e-03 1.23363929e-02
      1.15160085e-02 5.11800824e-03 4.71982919e-03 9.04381275e-03
