<?xml version="1.0"?>
<opencv_storage>
<my_svm type_id="opencv-ml-svm">
  <svm_type>C_SVC</svm_type>
  <kernel><type>LINEAR</type></kernel>
  <C>1.</C>
  <term_criteria><epsilon>1.1920928955078125e-07</epsilon>
    <iterations>1000</iterations></term_criteria>
  <var_all>256</var_all>
  <var_count>256</var_count>
  <class_count>2</class_count>
  <class_labels type_id="opencv-matrix">
    <rows>1</rows>
    <cols>2</cols>
    <dt>i</dt>
    <data>
      5 6</data></class_labels>
  <sv_total>1</sv_total>
  <support_vectors>
    <_>
      3.64798121e-04 -2.62724818e-04 1.54650083e-03 -4.61805408e-04
      -4.63136821e-04 -1.40044649e-04 -7.48162565e-04 2.80540646e-03
      2.63290037e-03 -1.95235509e-04 -9.69148678e-05 -1.31455163e-04
      -6.20148348e-05 -3.18410603e-05 7.50385516e-04 3.35190532e-04
      -5.26956574e-04 -2.54103506e-04 -2.96173330e-05 -8.50671786e-05
      -1.80956835e-04 -1.38292216e-05 -5.50636141e-05 -4.32568268e-05
      4.16616385e-05 -3.61974089e-05 -2.89972551e-04 -8.87899805e-05
      1.34214375e-03 2.55544292e-05 6.70731824e-04 -7.30658241e-04
      2.29549571e-03 7.98164401e-05 1.00645448e-04 6.05001915e-05
      -5.19852074e-05 5.98395218e-06 2.76925357e-06 6.58313775e-06
      -3.67856526e-04 -3.17296835e-05 -8.68829829e-06 -1.87310288e-05
      -2.33491650e-04 -3.03641264e-06 -1.94397115e-04 -2.20902031e-04
      9.95761016e-04 -9.78058597e-05 1.17211559e-04 1.68968563e-05
      -2.76564184e-04 -3.03641264e-06 1.11376597e-04 6.11428331e-05
      2.12753410e-04 -7.60027469e-05 -1.80921226e-04 -2.09037244e-04
      9.73815331e-05 -9.51025722e-05 1.37207226e-03 -9.61449623e-05
      -1.19862042e-03 -6.12543445e-05 -1.67856502e-04 -6.90427914e-05
      -3.86907894e-04 -6.05829155e-05 -9.91651686e-05 -3.31776937e-05
      -4.76108216e-05 -3.28929746e-05 -3.63012623e-06 1.80926891e-05
      -4.92803774e-05 0. -1.57750983e-04 -7.76884044e-05 -1.01339909e-04
      -2.14034299e-06 -1.22256515e-05 -1.57034037e-06 -2.37836175e-05
      -2.14034299e-06 -1.38292216e-05 -5.17675562e-06 -6.21988729e-05
      -8.93515153e-06 -1.49226753e-05 -4.37645213e-06 -6.31689036e-05
      -2.14034299e-06 -7.31667024e-05 -2.59048848e-05 3.32231866e-04
      -1.59732299e-04 -2.28333574e-05 3.65077431e-05 -6.65380139e-05 0.
      1.42179106e-05 1.00329862e-05 -1.83070355e-04 6.73151135e-06
      -9.53762355e-06 8.98889994e-06 -1.64418176e-04 -3.80405218e-05
      -2.54623184e-04 -2.45482224e-04 3.38392542e-03 -1.77913273e-04
      2.44684459e-04 4.97775109e-05 9.63829916e-06 -2.51412257e-06
      6.41080333e-05 -9.42236657e-05 -1.94341980e-03 -4.44936195e-05
      -2.21131937e-04 -1.22971527e-04 -1.42432086e-03 -1.11538393e-04
      -1.82226540e-05 -2.98541563e-04 1.54922670e-03 1.90515173e-04
      -3.48281552e-04 -6.60607242e-04 -1.33427660e-04 -7.34788700e-05
      -1.90900013e-04 1.95469847e-03 1.40632110e-04 1.66173544e-04
      -3.35602017e-05 -2.54323124e-04 9.27972287e-05 2.41701026e-04
      -1.79680923e-04 1.59346114e-03 -8.49956996e-05 -5.23409835e-05
      7.39036705e-06 -9.42878978e-05 6.58685963e-07 -2.29815705e-05
      7.04282638e-06 -2.69028405e-05 1.52073349e-04 -9.04160788e-06
      -1.30309104e-06 -1.63358462e-04 6.08307928e-05 -5.11888647e-05
      -2.92078999e-04 3.35838122e-05 -4.87356912e-04 -1.61213684e-04
      -9.94447691e-06 -1.52183740e-04 -3.62854153e-05 7.27315125e-07
      -2.29344114e-05 -1.35461916e-04 -3.70713424e-05 -5.55053521e-06
      -2.14034299e-06 -3.15044890e-05 -8.76572085e-06 -3.06323309e-05
      -5.40004985e-05 -9.58817618e-05 -7.61620249e-05 -1.30791625e-04
      -4.07432744e-05 -1.33919428e-04 -4.27485320e-05 -2.79922479e-05
      1.56668193e-06 -1.89353217e-04 -1.42782854e-04 -1.24727245e-04
      -4.36485934e-05 -8.97025515e-04 -1.38680596e-04 -3.96085496e-04
      -2.33934319e-04 -1.62495929e-03 -1.27179944e-03 3.29051330e-03
      -9.50666072e-05 5.44168113e-04 -7.36238726e-05 -8.19247143e-05
      -6.56808916e-05 -1.30337861e-03 3.05276626e-05 1.69210514e-04
      -4.06732797e-05 -2.46403593e-04 3.29092109e-05 -8.92887692e-06
      -1.60235460e-04 -2.90672597e-05 -1.24919345e-04 3.71653441e-05
      -4.82895211e-06 -1.02548511e-04 -3.03641264e-06 -5.13861914e-06
      -1.89962266e-05 -3.41237683e-05 5.48009157e-05 4.71295534e-05
      -4.65446556e-06 -3.02137196e-04 -3.08531962e-05 -1.82391414e-05
      -1.95418150e-04 -5.62454225e-04 1.23065338e-03 1.81471359e-03
      -1.79126684e-04 2.14207149e-03 3.13376881e-06 -1.19914412e-05
      -1.48786887e-04 -5.59198670e-05 -8.89963267e-05 -2.77671672e-04
      -1.53218025e-05 -1.49307860e-04 -1.09656736e-04 -2.63632799e-04
      -5.62983274e-04 -1.02626020e-03 1.48417184e-03 -3.23576533e-04
      -9.77167729e-05 2.16538647e-05 -1.56369162e-04 -3.48843896e-05
      -2.12956424e-04 -2.77521671e-04 2.41320790e-03 2.55246305e-05
      -1.09778543e-04 -1.80162024e-03 -4.53221655e-05 -3.61611339e-04
      -1.14706671e-03 -3.77651653e-03</_></support_vectors>
  <decision_functions>
    <_>
      <sv_count>1</sv_count>
      <rho>4.1101800051339055e+00</rho>
      <alpha>
        1.</alpha>
      <index>
        0</index></_></decision_functions></my_svm>
</opencv_storage>
