%YAML:1.0
my_svm: !!opencv-ml-svm
   svm_type: C_SVC
   kernel: { type:LINEAR }
   C: 1.
   term_criteria: { epsilon:1.1920928955078125e-07, iterations:1000 }
   var_all: 2
   var_count: 2
   class_count: 3
   class_labels: !!opencv-matrix
      rows: 1
      cols: 3
      dt: i
      data: [ 0, 1, 2 ]
   sv_total: 3
   support_vectors:
      - [ -5.12646809e-02, -5.06890938e-02 ]
      - [ -3.26000457e-03, 2.04167627e-02 ]
      - [ 1.90254431e-02, 1.88118294e-02 ]
   decision_functions:
      -
         sv_count: 1
         rho: -6.6375872071517028e+00
         alpha: [ 1. ]
         index: [ 0 ]
      -
         sv_count: 1
         rho: 3.6782502048878080e-01
         alpha: [ 1. ]
         index: [ 1 ]
      -
         sv_count: 1
         rho: 1.8344755936198880e+00
         alpha: [ 1. ]
         index: [ 2 ]
