<?xml version="1.0"?>
<opencv_storage>
<my_svm type_id="opencv-ml-svm">
  <svm_type>C_SVC</svm_type>
  <kernel><type>LINEAR</type></kernel>
  <C>1.</C>
  <term_criteria><epsilon>1.1920928955078125e-07</epsilon>
    <iterations>1000</iterations></term_criteria>
  <var_all>256</var_all>
  <var_count>256</var_count>
  <class_count>3</class_count>
  <class_labels type_id="opencv-matrix">
    <rows>1</rows>
    <cols>3</cols>
    <dt>i</dt>
    <data>
      0 1 2</data></class_labels>
  <sv_total>3</sv_total>
  <support_vectors>
    <_>
      -6.16987189e-03 0. 0. 0. 0. 0. 0. 0. 0. 0. 0. 0. 0. 0. 0. 0. 0.
      5.65928500e-03 0. 0. 0. 0. 0. 0. 0. 0. 0. 0. 0. 0. 0. 0. 0. 0.
      8.22700560e-03 0. 0. 0. 0. 0. 0. 0. 0. 0. 0. 0. 0. 0. 0. 0. 0.
      -3.18811578e-03 0. 0. 0. 0. 0. 0. 0. 0. 0. 0. 0. 0. 0. 0. 0. 0.
      2.98387697e-03 0. 0. 0. 0. 0. 0. 0. 0. 0. 0. 0. 0. 0. 0. 0. 0.
      -3.64166102e-03 0. 0. 0. 0. 0. 0. 0. 0. 0. 0. 0. 0. 0. 0. 0. 0.
      -6.72551710e-03 0. 0. 0. 0. 0. 0. 0. 0. 0. 0. 0. 0. 0. 0. 0. 0.
      4.81252609e-05 0. 0. 0. 0. 0. 0. 0. 0. 0. 0. 0. 0. 0. 0. 0. 0.
      1.87805132e-03 0. 0. 0. 0. 0. 0. 0. 0. 0. 0. 0. 0. 0. 0. 0. 0.
      1.54566718e-04 0. 0. 0. 0. 0. 0. 0. 0. 0. 0. 0. 0. 0. 0. 0. 0.
      3.52986809e-03 0. 0. 0. 0. 0. 0. 0. 0. 0. 0. 0. 0. 0. 0. 0. 0.
      3.70199862e-03 0. 0. 0. 0. 0. 0. 0. 0. 0. 0. 0. 0. 0. 0. 0. 0.
      1.46676751e-03 0. 0. 0. 0. 0. 0. 0. 0. 0. 0. 0. 0. 0. 0. 0. 0.
      -5.12708351e-03 0. 0. 0. 0. 0. 0. 0. 0. 0. 0. 0. 0. 0. 0. 0. 0.
      -8.15530133e-04 0. 0. 0. 0. 0. 0. 0. 0. 0. 0. 0. 0. 0. 0. 0. 0.
      -1.98176503e-03</_>
    <_>
      -7.77068908e-06 0. 0. 0. 0. 0. 0. 0. 0. 0. 0. 0. 0. 0. 0. 0. 0.
      -3.21890169e-04 -1.05229437e-05 0. -4.77512049e-06 0. 0. 0. 0. 0.
      0. 0. 0. 0. 0. 0. 0. 0. 1.89108498e-04 0. -1.07998630e-05 0. 0.
      -2.87731609e-06 0. 0. 0. 0. 0. 0. 0. 0. 0. 0. 0. -1.90702107e-04
      0. 0. 0. -1.66151744e-06 0. 0. 0. 0. 0. 0. 0. 0. 0. 0. 0. 0.
      -6.63788742e-05 0. 0. 0. 0. -8.97219434e-05 0. 0. 0. 0.
      -1.17541431e-05 0. 0. 0. 0. 0. 0. -1.34548824e-03 0. 0. 0. 0. 0.
      0. 0. 0. 0. 0. 0. 0. 0. 0. 0. 0. 5.69865224e-04 0. 0. 0. 0. 0. 0.
      -1.21844614e-05 0. 0. 0. 0. 0. 0. 0. 0. -1.77536526e-06
      5.20571484e-04 0. 0. 0. 0. 0. 0. 0. 0. 0. 0. 0. 0. 0. 0. 0. 0.
      -1.40602890e-04 0. 0. 0. 0. 0. 0. 0. 0. 0. -5.06762808e-05 0. 0.
      0. 0. 0. 0. -1.43003548e-04 0. 0. 0. -2.20390175e-05 0. 0. 0. 0.
      0. 0. -4.70763280e-06 0. 0. 0. 0. 0. -9.65083527e-05 0. 0. 0. 0.
      0. 0. -4.28536453e-07 0. 0. 0. 0. 0. 0. 0. 0. 0. 4.64497047e-04 0.
      0. 0. 0. 0. 0. 0. 0. 0. 0. 0. 0. 0. 0. 0. 0. -1.30912167e-05 0. 0.
      0. 0. 0. 0. 0. 0. 0. 0. 0. 0. 0. 0. -1.35690589e-05 0.
      4.25249978e-04 0. 0. 0. 0. 0. 0. 0. 0. 0. 0. 0. 0. 0.
      -3.61195021e-06 0. 0. 9.15861383e-05 0. 0. 0. 0. 0. 0. 0. 0. 0. 0.
      0. 0. 0. 0. 0. 0. 3.05662950e-04</_>
    <_>
      3.06256028e-04 0. 0. 0. 0. 0. 0. 0. 0. 0. 0. 0. 0. 0. 0. 0. 0.
      -1.03359816e-05 -1.85128403e-04 0. -2.96178245e-04 -9.53249517e-04
      0. 0. 0. 0. 0. 0. 0. 0. 0. 0. 0. 0. -7.57235219e-04 0.
      -1.90000195e-04 0. 0. -1.78466376e-04 0. 0. -5.59918408e-04 0. 0.
      0. 0. 0. 0. 0. 0. 8.41010886e-04 0. 0. 0. -2.92307996e-05 0. 0. 0.
      0. 0. 0. 0. 0. -1.59646152e-04 0. 0. 0. -8.21069756e-04 0. 0. 0.
      0. -1.57846324e-03 0. 0. 0. 0. -7.29054154e-04 0. 0. 0. 0. 0. 0.
      1.74555450e-03 0. 0. 0. 0. 0. 0. 0. 0. 0. 0. 0. 0. 0. 0. 0. 0.
      1.14287261e-03 0. 0. 0. -2.31371246e-06 0. 0. -2.14359199e-04 0.
      0. 0. 0. 0. 0. 0. 0. -1.10117551e-04 9.69471002e-04 0. 0. 0. 0. 0.
      0. 0. 0. -1.38822743e-05 0. 0. 0. 0. 0. 0. 0. -6.32692012e-04 0.
      0. 0. 0. 0. 0. 0. 0. 0. -8.91539385e-04 0. 0. 0. 0. 0. 0.
      7.19662872e-04 0. 0. 0. -1.36697653e-03 0. 0. 0. 0. 0. 0.
      -8.28206030e-05 0. 0. 0. 0. 0. -8.27094540e-04 0. 0. 0. 0. 0. 0.
      -2.65800991e-05 0. 0. 0. 0. 0. 0. 0. 0. 0. 1.34035933e-03 0. 0. 0.
      -1.17999334e-04 0. 0. 0. 0. 0. 0. 0. 0. 0. 0. 0. 0. 8.78912804e-04
      0. 0. 0. 0. 0. 0. 0. 0. 0. 0. 0. 0. 0. 0. -2.38718203e-04 0.
      1.87070190e-03 0. 0. 0. 0. 0. 0. 0. 0. 0. 0. 0. 0. -2.77645486e-05
      -2.24032265e-04 0. 0. 1.14373502e-03 0. 0. 0. 0. 0. 0. 0. 0. 0. 0.
      0. 0. 0. 0. 0. 0. 2.66329473e-04</_></support_vectors>
  <decision_functions>
    <_>
      <sv_count>1</sv_count>
      <rho>-1.1444530323861329e+01</rho>
      <alpha>
        1.</alpha>
      <index>
        0</index></_>
    <_>
      <sv_count>1</sv_count>
      <rho>1.3158156560748188e-01</rho>
      <alpha>
        1.</alpha>
      <index>
        1</index></_>
    <_>
      <sv_count>1</sv_count>
      <rho>3.8847656409424749e+00</rho>
      <alpha>
        1.</alpha>
      <index>
        2</index></_></decision_functions></my_svm>
</opencv_storage>
