<?xml version="1.0"?>
<opencv_storage>
<my_svm type_id="opencv-ml-svm">
  <svm_type>C_SVC</svm_type>
  <kernel><type>LINEAR</type></kernel>
  <C>1.</C>
  <term_criteria><epsilon>1.1920928955078125e-07</epsilon>
    <iterations>1000</iterations></term_criteria>
  <var_all>17424</var_all>
  <var_count>17424</var_count>
  <class_count>3</class_count>
  <class_labels type_id="opencv-matrix">
    <rows>1</rows>
    <cols>3</cols>
    <dt>i</dt>
    <data>
      0 1 2</data></class_labels>
  <sv_total>3</sv_total>
  <support_vectors>
    <_>
      1.09430309e-02 5.32866083e-03 5.15782274e-03 3.22184758e-03
      9.21198633e-03 2.07262114e-03 3.96340387e-03 3.07407556e-03
      1.12649798e-02 1.40693951e-02 6.85148407e-03 6.63253758e-03
      4.14237427e-03 1.18431114e-02 2.66487617e-03 5.09609515e-03
      3.95247154e-03 1.44833336e-02 1.40699102e-02 6.85105473e-03
      6.63126400e-03 4.14237427e-03 1.18436795e-02 2.66480469e-03
      5.09584602e-03 3.95239145e-03 1.44838393e-02 1.80896055e-02
      8.80894810e-03 8.52726121e-03 5.32590877e-03 1.52264684e-02
      3.42627754e-03 6.55217422e-03 5.08176023e-03 1.86218061e-02
      8.87994096e-03 5.71148191e-03 5.66924922e-03 2.83847540e-03
      8.96641053e-03 2.01233919e-03 6.04341272e-03 4.05496266e-03
      8.71956442e-03 1.14164259e-02 7.34334206e-03 7.28905015e-03
      3.64947924e-03 1.15273427e-02 2.58728839e-03 7.77061610e-03
      5.21369744e-03 1.12102265e-02 1.14172818e-02 7.34333461e-03
      7.28903571e-03 3.64947249e-03 1.15275551e-02 2.58757966e-03
      7.77026312e-03 5.21353120e-03 1.12110935e-02 1.46785388e-02
      9.44144093e-03 9.37163737e-03 4.69219312e-03 1.48199871e-02
      3.32688168e-03 9.99099854e-03 6.70333626e-03 1.44134369e-02
      6.09422149e-03 4.97308746e-03 7.01439381e-03 4.03214945e-03
      7.14205997e-03 2.41498603e-03 5.61347185e-03 4.69454750e-03
      6.71705604e-03 7.83563312e-03 6.39341213e-03 9.01692640e-03
      5.18420851e-03 9.18313768e-03 3.10498453e-03 7.21801491e-03
      6.03617914e-03 8.63644853e-03 7.83548318e-03 6.39391225e-03
      9.01834480e-03 5.18419454e-03 9.18111764e-03 3.10485298e-03
      7.21606566e-03 6.03491906e-03 8.63617007e-03 1.00744562e-02
      8.22002720e-03 1.15929842e-02 6.66541373e-03 1.18049225e-02
      3.99195682e-03 9.27869044e-03 7.75960926e-03 1.11039467e-02
      3.37891094e-03 1.94941950e-03 4.09051357e-03 5.38564567e-03
      7.70902121e-03 3.97710269e-03 7.96078518e-03 3.17181926e-03
      4.52028122e-03 4.34376439e-03 2.50633433e-03 5.25906356e-03
      6.92439172e-03 9.91246942e-03 5.11341775e-03 1.02351755e-02
      4.07801429e-03 5.81124658e-03 4.34408756e-03 2.50552688e-03
      5.25849406e-03 6.92439172e-03 9.91083216e-03 5.11341589e-03
      1.02359401e-02 4.07826621e-03 5.81167685e-03 5.58454823e-03
      3.22131207e-03 6.76070480e-03 8.90277699e-03 1.27436174e-02
      6.57439185e-03 1.31603396e-02 5.24343457e-03 7.47145666e-03
      6.01781998e-03 9.20859457e-04 1.89935416e-03 3.11679323e-03
      7.48208910e-03 2.77133076e-03 3.92540963e-03 2.91005243e-03
      5.67148766e-03 7.73708522e-03 1.18393672e-03 2.44198134e-03
      4.00729710e-03 9.61986277e-03 3.56314587e-03 5.04747126e-03
      3.74166551e-03 7.29183154e-03 7.73709686e-03 1.18381693e-03
      2.44170660e-03 4.00713831e-03 9.61975008e-03 3.56313656e-03
      5.04694553e-03 3.74121801e-03 7.29076704e-03 9.94755141e-03
      1.52201753e-03 3.13927862e-03 5.15202386e-03 1.23682935e-02
      4.58118320e-03 6.48959354e-03 4.81035514e-03 9.37373936e-03
      3.04048671e-03 8.54301034e-04 2.87874043e-03 2.02302565e-03
      1.51863229e-03 1.60398113e-03 4.74474113e-03 4.14302992e-03
      5.27903950e-03 3.90879391e-03 1.09838217e-03 3.70121212e-03
      2.60103378e-03 1.95307820e-03 2.05849088e-03 6.09761849e-03
      5.32694021e-03 6.78692339e-03 3.90878506e-03 1.09830638e-03
      3.70101049e-03 2.60102702e-03 1.95167691e-03 2.06551910e-03
      6.10092422e-03 5.32638049e-03 6.78691873e-03 5.02506131e-03
      1.41210249e-03 4.75840922e-03 3.34417843e-03 2.51000724e-03
      2.65081972e-03 7.84049276e-03 6.84844516e-03 8.72550718e-03
      2.98256590e-03 1.84643909e-03 3.93333007e-03 1.71541027e-03
      6.40631095e-03 3.20785353e-03 1.68836128e-03 2.99920328e-03
      3.97008006e-03 3.83382430e-03 2.37422320e-03 5.05766692e-03
      2.20528408e-03 8.23725387e-03 4.12437506e-03 2.17087008e-03
      3.85615928e-03 5.10349683e-03 3.83528695e-03 2.37393868e-03
      5.05703734e-03 2.20552087e-03 8.23593233e-03 4.12425585e-03
      2.17062468e-03 3.85649456e-03 5.10484353e-03 4.92992206e-03
      3.05250287e-03 6.50258455e-03 2.83535663e-03 1.05897877e-02
      5.30260475e-03 2.79095699e-03 4.95840283e-03 6.56222226e-03
      3.45465541e-03 3.00639914e-03 3.53873591e-03 2.63847574e-03
      5.59096225e-03 7.42101925e-04 8.11790058e-04 3.87664163e-03
      5.66100236e-03 4.44251718e-03 3.86514585e-03 4.54913126e-03
      3.39232921e-03 7.18812272e-03 9.54030605e-04 1.04376453e-03
      4.98367660e-03 7.27940071e-03 4.43832669e-03 3.86558217e-03
      4.55048820e-03 3.39232362e-03 7.18760863e-03 9.54132236e-04
      1.04351062e-03 4.98415669e-03 7.27677019e-03 5.70747210e-03
      4.96974587e-03 5.84976329e-03 4.36156336e-03 9.24088061e-03
      1.22661225e-03 1.34170067e-03 6.40745927e-03 9.35709290e-03
      3.86056490e-03 2.00130721e-03 3.68675217e-03 1.38530496e-03
      6.42826734e-03 2.88667670e-03 1.25122024e-03 2.80170469e-03
      7.00975722e-03 4.96355677e-03 2.57290271e-03 4.73953504e-03
      1.78110646e-03 8.26598611e-03 3.71158519e-03 1.60899432e-03
      3.60228959e-03 9.01252218e-03 4.96310182e-03 2.57282425e-03
      4.73990152e-03 1.78084301e-03 8.26471020e-03 3.71145061e-03
      1.60855264e-03 3.60144651e-03 9.01205279e-03 6.38109632e-03
      3.30765126e-03 6.09341962e-03 2.28965562e-03 1.06274337e-02
      4.77204984e-03 2.06850213e-03 4.63055726e-03 1.15868952e-02
      -6.78530254e-04 2.11995305e-03 3.35488818e-03 1.58328156e-03
      1.09407483e-02 4.03878978e-03 5.32904919e-03 3.53519619e-03
      1.74540433e-03 -8.72526609e-04 2.72539328e-03 4.31263680e-03
      2.03564018e-03 1.40674496e-02 5.19269286e-03 6.85278885e-03
      4.54613846e-03 2.24401685e-03 -8.73155950e-04 2.72557070e-03
      4.31320164e-03 2.03565392e-03 1.40668517e-02 5.19256480e-03
      6.84980722e-03 4.54530446e-03 2.24336004e-03 -1.12279586e-03
      3.50397034e-03 5.54452883e-03 2.61725974e-03 1.80869456e-02
      6.67610765e-03 8.80837906e-03 5.84510295e-03 2.88422499e-03
      3.11122299e-03 2.36294209e-03 5.27977524e-03 2.31570355e-03
      5.63207269e-03 2.80634756e-03 8.85100162e-04 3.01113282e-03
      3.75227933e-03 4.00021253e-03 3.03810998e-03 6.78843586e-03
      2.97732581e-03 7.24111358e-03 3.60819767e-03 1.13801321e-03
      3.87145951e-03 4.82441671e-03 3.99949728e-03 3.03721498e-03
      6.78849081e-03 2.97732442e-03 7.24137900e-03 3.60815227e-03
      1.13854511e-03 3.87150259e-03 4.82393242e-03 5.14229946e-03
      3.90504487e-03 8.72825552e-03 3.82797932e-03 9.31018591e-03
      4.63909982e-03 1.46387925e-03 4.97765001e-03 6.20227354e-03
      1.06891920e-03 2.93438672e-03 5.52802254e-03 2.58224015e-03
      6.02353783e-03 3.34605551e-03 1.85161817e-03 2.71609914e-03
      -1.27482810e-04 1.37432897e-03 3.77260381e-03 7.10714422e-03
      3.32001527e-03 7.74606550e-03 4.30212915e-03 2.38066702e-03
      3.49212810e-03 -1.63903300e-04 1.37061102e-03 3.77277378e-03
      7.10720057e-03 3.32001410e-03 7.74423592e-03 4.30207141e-03
      2.38058832e-03 3.49193695e-03 -1.67825739e-04 1.76221877e-03
      4.85047931e-03 9.13742557e-03 4.26857965e-03 9.95882507e-03
      5.53130871e-03 3.06077534e-03 4.48963419e-03 -2.15772990e-04
      3.76146520e-03 1.78830582e-03 4.00494132e-03 4.37309360e-03
      7.35279405e-03 1.98488799e-03 4.28068917e-03 2.46012677e-03
      6.19449420e-04 4.83674789e-03 2.29921797e-03 5.14916051e-03
      5.62257599e-03 9.45371017e-03 2.55200546e-03 5.50370151e-03
      3.16280872e-03 7.96766079e-04 4.83058300e-03 2.29927478e-03
      5.14930580e-03 5.62254898e-03 9.45335999e-03 2.55200616e-03
      5.50392456e-03 3.16304830e-03 7.79428461e-04 6.21149316e-03
      2.95616919e-03 6.62047090e-03 7.22902548e-03 1.21544730e-02
      3.28115886e-03 7.07642036e-03 4.06650454e-03 1.00254780e-03
      5.57968952e-03 2.85145920e-03 8.41920637e-03 4.30347910e-03
      3.93836247e-03 1.98211777e-03 3.82036599e-03 2.55133468e-03
      4.26337682e-03 7.17352517e-03 3.66663025e-03 1.08247027e-02
      5.53306658e-03 5.06460713e-03 2.54921988e-03 4.91256965e-03
      3.28005804e-03 5.48099866e-03 7.17331143e-03 3.66610894e-03
      1.08246431e-02 5.53328265e-03 5.06294519e-03 2.54793372e-03
      4.91197454e-03 3.28062591e-03 5.48099633e-03 9.22236498e-03
      4.71417094e-03 1.39174089e-02 7.11424882e-03 6.51078438e-03
      3.27692134e-03 6.31625764e-03 4.21765260e-03 7.04637030e-03
      5.87282609e-03 4.52688010e-03 7.54319830e-03 3.56993685e-03
      6.11972762e-03 1.98794273e-03 1.57882331e-03 3.29783157e-04
      3.96044971e-03 7.55082024e-03 5.82029391e-03 9.69845802e-03
      4.58992086e-03 7.86792953e-03 2.55604112e-03 2.02946481e-03
      4.24031285e-04 5.09208301e-03 7.55038811e-03 5.82031440e-03
      9.69842356e-03 4.58990782e-03 7.86808692e-03 2.55592447e-03
      2.03036936e-03 4.24165308e-04 5.09161083e-03 9.70769860e-03
      7.48328678e-03 1.24694798e-02 5.90131199e-03 1.01157371e-02
      3.28633585e-03 2.60989508e-03 5.45386807e-04 6.54645497e-03
      5.35636488e-03 3.10605089e-03 7.20415590e-03 2.24504247e-03
      7.68657168e-03 3.03653697e-03 4.90003079e-03 1.09488268e-04
      3.99156846e-03 6.88656280e-03 3.99348885e-03 9.26253200e-03
      2.88646761e-03 9.88335162e-03 3.90412589e-03 6.30021514e-03
      1.40825228e-04 5.13185095e-03 6.88731438e-03 3.99321644e-03
      9.26169381e-03 2.88649206e-03 9.88245104e-03 3.90409329e-03
      6.29945844e-03 1.40283752e-04 5.13250055e-03 8.85487162e-03
      5.13412943e-03 1.19079510e-02 3.71118402e-03 1.27068032e-02
      5.01955720e-03 8.09952989e-03 1.80435163e-04 6.59871614e-03
      6.92545623e-03 2.42901035e-03 6.72157854e-03 2.47302162e-03
      6.56403648e-03 3.26063950e-03 4.04858403e-03 2.57645408e-03
      6.50358759e-03 8.90395511e-03 3.12289293e-03 8.64168722e-03
      3.17959394e-03 8.43998790e-03 4.19224007e-03 5.20537235e-03
      3.31260101e-03 8.36155098e-03 8.90248735e-03 3.12328688e-03
      8.64202809e-03 3.17959860e-03 8.43793154e-03 4.19225078e-03
      5.20538399e-03 3.31258867e-03 8.36000126e-03 1.14457943e-02
      4.01550019e-03 1.11107370e-02 4.08804882e-03 1.08494284e-02
      5.39002242e-03 6.69270055e-03 4.25906433e-03 1.07483100e-02
      7.00720632e-03 4.64975415e-03 6.15276117e-03 3.19576031e-03
      6.97423238e-03 1.77213061e-03 5.16402908e-03 3.85167846e-03
      6.21848507e-03 9.00916383e-03 5.97820990e-03 7.91055802e-03
      4.10884805e-03 8.96657631e-03 2.27845320e-03 6.63942005e-03
      4.95214388e-03 7.99508952e-03 9.00897663e-03 5.97824901e-03
      7.91064370e-03 4.10883082e-03 8.96657538e-03 2.27845507e-03
      6.63965801e-03 4.95221931e-03 7.99489766e-03 1.15828393e-02
      7.68626248e-03 1.01706544e-02 5.28280018e-03 1.15280775e-02
      2.92944163e-03 8.53664335e-03 6.36712089e-03 1.02790194e-02
      6.82098651e-03 3.67925316e-03 6.21752208e-03 3.08680278e-03
      1.06118917e-02 5.83972025e-04 5.69203822e-03 4.90459707e-03
      7.34062679e-03 8.76980461e-03 4.73034801e-03 7.99357891e-03
      3.96873849e-03 1.36464946e-02 7.50897045e-04 7.31849344e-03
      6.30594091e-03 9.43791587e-03 8.76998156e-03 4.73039830e-03
      7.99378008e-03 3.96873988e-03 1.36436429e-02 7.50822481e-04
      7.31842453e-03 6.30597491e-03 9.43809748e-03 1.12756444e-02
      6.08178554e-03 1.02772303e-02 5.10265538e-03 1.75452139e-02
      9.65440588e-04 9.40960646e-03 8.10772087e-03 1.21346544e-02
      4.17493191e-03 4.46293503e-03 6.72569452e-03 2.32400093e-03
      1.15119955e-02 1.70554232e-03 4.72747441e-03 3.66814528e-03
      6.25439268e-03 5.36769070e-03 5.73806698e-03 8.64739157e-03
      2.98805768e-03 1.48005644e-02 2.19284301e-03 6.07809843e-03
      4.71616443e-03 8.04128032e-03 5.36803715e-03 5.73812146e-03
      8.64715595e-03 2.98800413e-03 1.48012862e-02 2.19283486e-03
      6.07842347e-03 4.71627200e-03 8.04155227e-03 6.90166047e-03
      7.37759424e-03 1.11178616e-02 3.84179223e-03 1.90294906e-02
      2.81936279e-03 7.81500898e-03 6.06375001e-03 1.03390338e-02
      7.88604096e-03 4.29982599e-03 7.19184009e-03 3.23250773e-03
      8.40175897e-03 2.49732821e-03 5.21790003e-03 4.43906710e-03
      8.51213560e-03 1.01391478e-02 5.52836712e-03 9.24670696e-03
      4.15608101e-03 1.08030280e-02 3.21085239e-03 6.70876075e-03
      5.70738548e-03 1.09441336e-02 1.01392344e-02 5.52848959e-03
      9.24635772e-03 4.15607914e-03 1.08028213e-02 3.21084517e-03
      6.70869183e-03 5.70732448e-03 1.09441597e-02 1.30360955e-02
      7.10808299e-03 1.18882442e-02 5.34352940e-03 1.38903270e-02
      4.12823167e-03 8.62550270e-03 7.33800558e-03 1.40710101e-02
      7.17662368e-03 5.10382792e-03 8.07504077e-03 2.15599849e-03
      1.14052575e-02 3.27187800e-03 6.17714832e-03 5.36986627e-03
      7.97186326e-03 9.22681671e-03 6.56196568e-03 1.03818960e-02
      2.77200202e-03 1.46639766e-02 4.20670118e-03 7.94219691e-03
      6.90415502e-03 1.02491481e-02 9.22716409e-03 6.56198850e-03
      1.03819799e-02 2.77200132e-03 1.46630416e-02 4.20670491e-03
      7.94175267e-03 6.90387189e-03 1.02497758e-02 1.18631497e-02
      8.43671616e-03 1.33478744e-02 3.56400688e-03 1.88525785e-02
      5.40862186e-03 1.02110161e-02 8.87646060e-03 1.31777814e-02
      6.39037928e-03 4.06926591e-03 6.56542927e-03 3.73480166e-03
      6.51086913e-03 4.10990696e-03 2.20608455e-03 1.74717291e-03
      6.12305477e-03 8.21633637e-03 5.23175253e-03 8.44078418e-03
      4.80196346e-03 8.37096479e-03 5.28416503e-03 2.83620227e-03
      2.24630348e-03 7.87263550e-03 8.21653660e-03 5.23203332e-03
      8.44162144e-03 4.80189081e-03 8.36968981e-03 5.28429309e-03
      2.83604395e-03 2.24615447e-03 7.87283387e-03 1.05642909e-02
      6.72669336e-03 1.08528929e-02 6.17395714e-03 1.07608335e-02
      6.79408899e-03 3.64609505e-03 2.88783340e-03 1.01223905e-02
      3.35540785e-03 4.22382588e-03 6.99736457e-03 4.60993266e-03
      6.03459682e-03 2.61163199e-03 4.06595785e-03 4.02280362e-03
      4.66067996e-03 4.31403937e-03 5.43061784e-03 8.99660494e-03
      5.92692010e-03 7.75975455e-03 3.35808052e-03 5.22731477e-03
      5.17206499e-03 5.99225704e-03 4.31494135e-03 5.43111237e-03
      8.99665710e-03 5.92705701e-03 7.75825372e-03 3.35782161e-03
      5.22736134e-03 5.17167803e-03 5.99282701e-03 5.54770883e-03
      6.98283873e-03 1.15671204e-02 7.62032717e-03 9.97616723e-03
      4.31754347e-03 6.72044884e-03 6.64915796e-03 7.70500349e-03
      4.46268963e-03 4.51900577e-03 2.20824149e-03 1.43185025e-03
      5.33903670e-03 5.63357491e-03 5.52367698e-03 2.98530306e-03
      4.25695628e-03 5.73758176e-03 5.81016066e-03 2.83922697e-03
      1.84096734e-03 6.86601363e-03 7.24314246e-03 7.10179005e-03
      3.83821386e-03 5.47306519e-03 5.73775731e-03 5.81016624e-03
      2.83910241e-03 1.84094335e-03 6.86401408e-03 7.24317273e-03
      7.10170437e-03 3.83818615e-03 5.47327520e-03 7.37690786e-03
      7.47022778e-03 3.65035119e-03 2.36694911e-03 8.82713869e-03
      9.31261852e-03 9.13065858e-03 4.93476866e-03 7.03685591e-03
      1.12116651e-03 8.30185832e-04 2.38391012e-03 2.86145136e-03
      5.69385430e-03 2.25048722e-03 5.72799938e-03 4.82917344e-03
      3.71205830e-03 1.44168397e-03 1.06882607e-03 3.06480401e-03
      3.67918261e-03 7.32094236e-03 2.89348443e-03 7.36470753e-03
      6.20898278e-03 4.77283262e-03 1.44149235e-03 1.06960710e-03
      3.06581939e-03 3.67862568e-03 7.32052419e-03 2.89348117e-03
      7.36443000e-03 6.20856881e-03 4.77218023e-03 1.85358361e-03
      1.37706625e-03 3.94147914e-03 4.72988468e-03 9.41245351e-03
      3.72019131e-03 9.46872775e-03 7.98250549e-03 6.13590004e-03
      1.38984004e-04 1.09250902e-03 4.26224753e-04 1.85549748e-03
      6.95321336e-03 4.70034964e-03 5.14207548e-03 3.44608654e-03
      -2.11726571e-03 1.78598508e-04 1.40468380e-03 5.47918899e-04
      2.38524866e-03 8.94046482e-03 6.04334101e-03 6.61125081e-03
      4.43078158e-03 -2.72231991e-03 1.74556859e-04 1.40465796e-03
      5.48514188e-04 2.38575810e-03 8.93990695e-03 6.04314031e-03
      6.61101798e-03 4.43065120e-03 -2.72928667e-03 2.24307412e-04
      1.80602621e-03 7.05123530e-04 3.06690065e-03 1.14949616e-02
      7.76979653e-03 8.49989429e-03 5.69667807e-03 -3.50923836e-03
      1.81743293e-03 2.01017153e-03 3.06233228e-03 2.27192137e-03
      9.23779211e-04 3.20121250e-03 3.40277352e-03 2.26521259e-03
      1.86328334e-03 2.33686203e-03 2.58461223e-03 3.93763278e-03
      2.92105065e-03 1.18772499e-03 4.11582459e-03 4.37495019e-03
      2.91196676e-03 2.39520846e-03 2.33684131e-03 2.58455332e-03
      3.93737340e-03 2.92103365e-03 1.18728320e-03 4.11584601e-03
      4.37473273e-03 2.91267829e-03 2.39587971e-03 3.00471857e-03
      3.32313264e-03 5.06278500e-03 3.75562604e-03 1.52651791e-03
      5.29177580e-03 5.62459929e-03 3.74429463e-03 3.07984883e-03
      -8.64212489e-05 1.35762419e-03 3.15915793e-03 1.39790541e-03
      5.94475446e-03 3.06659983e-03 2.97934079e-04 -1.21299631e-03
      1.74457091e-03 -1.11429959e-04 1.74553168e-03 4.06184420e-03
      1.79729902e-03 7.64335692e-03 3.94276902e-03 3.83450417e-04
      -1.55942631e-03 2.24271510e-03 -1.10593668e-04 1.74540770e-03
      4.06143675e-03 1.79730600e-03 7.64280837e-03 3.94277181e-03
      3.83251347e-04 -1.55950629e-03 2.24346644e-03 -1.42598787e-04
      2.24411371e-03 5.22193685e-03 2.31081177e-03 9.82659776e-03
      5.06927446e-03 4.93255851e-04 -2.00489955e-03 2.88406573e-03
      3.72989429e-03 -3.01358465e-04 3.54613829e-03 1.29039760e-03
      3.02345422e-03 1.44857808e-03 1.17138296e-03 1.56416860e-03
      4.24466841e-03 4.79494594e-03 -3.87399516e-04 4.55948710e-03
      1.65907235e-03 3.88691993e-03 1.86247169e-03 1.50601112e-03
      2.01093545e-03 5.45676565e-03 4.79548890e-03 -3.87483800e-04
      4.55930270e-03 1.65908039e-03 3.88713763e-03 1.86243502e-03
      1.50571158e-03 2.01112847e-03 5.45728719e-03 6.16481621e-03
      -4.98114270e-04 5.86217223e-03 2.13309051e-03 4.99726227e-03
      2.39457702e-03 1.93584675e-03 2.58555845e-03 7.01565668e-03
      5.78666292e-03 -1.70483743e-03 8.12012295e-04 1.54006272e-03
      3.20284977e-03 4.53418354e-03 -1.08763552e-03 7.51539192e-05
      4.02941089e-03 7.43958540e-03 -2.19183555e-03 1.04428420e-03
      1.98007678e-03 4.10804898e-03 5.82969235e-03 -1.39752415e-03
      9.68963359e-05 5.18026296e-03 7.44075235e-03 -2.19199806e-03
      1.04380760e-03 1.98008027e-03 4.11771750e-03 5.82967186e-03
      -1.39801495e-03 9.67202286e-05 5.18143224e-03 9.56615526e-03
      -2.81815720e-03 1.34238240e-03 2.54581263e-03 5.28147770e-03
      7.49532785e-03 -1.79633719e-03 1.24701488e-04 6.66131545e-03
      3.50204902e-03 1.23443874e-03 2.83318397e-04 1.21289876e-03
      5.00936201e-03 1.44559715e-03 2.76648952e-03 4.20747977e-03
      1.31927291e-03 4.50290414e-03 1.58712117e-03 3.64179898e-04
      1.55947974e-03 6.44085091e-03 1.85862067e-03 3.55697330e-03
      5.40963933e-03 1.69649418e-03 4.49582282e-03 1.58701325e-03
      3.63857456e-04 1.55945111e-03 6.44027069e-03 1.85862766e-03
      3.55705433e-03 5.40860370e-03 1.68794044e-03 5.78068988e-03
      2.04042718e-03 4.67705191e-04 2.00505788e-03 8.28065909e-03
      2.38965894e-03 4.57342993e-03 6.95394771e-03 2.17057671e-03
      1.02410221e-03 3.46902106e-03 3.04794987e-03 1.63418567e-03
      4.34482982e-03 2.55908608e-03 2.24941340e-03 6.80597150e-04
      -1.44398108e-03 1.31641806e-03 4.46022628e-03 3.91901424e-03
      2.10116012e-03 5.58702089e-03 3.29030375e-03 2.89145717e-03
      8.74474470e-04 -1.85690762e-03 1.31606974e-03 4.46016621e-03
      3.91866360e-03 2.10109795e-03 5.58564859e-03 3.29023553e-03
      2.89215264e-03 8.75136175e-04 -1.85722974e-03 1.69172278e-03
      5.73457219e-03 5.03856642e-03 2.70149414e-03 7.18259159e-03
      4.23036702e-03 3.71765182e-03 1.12443033e-03 -2.38833087e-03
      -3.88048298e-04 3.11601348e-03 2.55584763e-03 4.49785916e-03
      6.44768961e-03 3.38411075e-03 1.31120346e-03 6.03371474e-04
      6.09617156e-04 -4.98610316e-04 4.00636951e-03 3.28649324e-03
      5.78331947e-03 8.28495994e-03 4.35120752e-03 1.68600085e-03
      7.75626919e-04 7.84101081e-04 -4.99460555e-04 4.00630338e-03
      3.28618824e-03 5.78294834e-03 8.29018094e-03 4.35105385e-03
      1.68527034e-03 7.75633089e-04 7.83236464e-04 -6.41766877e-04
      5.15104691e-03 4.22561774e-03 7.43567850e-03 1.06524713e-02
      5.59447892e-03 2.16699182e-03 9.97066847e-04 1.00741407e-03
      1.78536854e-03 1.27418304e-03 5.19105839e-03 2.57333065e-03
      7.26693682e-03 1.47080951e-04 2.70981854e-03 5.92159689e-04
      3.68028623e-03 2.29497650e-03 1.63810281e-03 6.67395582e-03
      3.30856396e-03 9.34346206e-03 1.89110389e-04 3.48402350e-03
      7.61331990e-04 4.73133335e-03 2.29548453e-03 1.63811620e-03
      6.67379471e-03 3.30852554e-03 9.34249442e-03 1.89106955e-04
      3.48417740e-03 7.61382806e-04 4.73177712e-03 2.95069744e-03
      2.10597902e-03 8.58025532e-03 4.25381400e-03 1.20121101e-02
      2.43145201e-04 4.47961967e-03 9.78900003e-04 6.08311733e-03
      -1.75117317e-03 1.13489560e-03 6.09544665e-03 2.50929687e-03
      7.80288968e-03 1.93216925e-04 3.72007117e-03 2.19849544e-03
      2.47996009e-04 -2.25221924e-03 1.45905139e-03 7.83669762e-03
      3.22611583e-03 1.00329351e-02 2.48425000e-04 4.78317123e-03
      2.82671722e-03 3.18162842e-04 -2.25209212e-03 1.45903497e-03
      7.83666316e-03 3.22619150e-03 1.00321649e-02 2.48428201e-04
      4.78349766e-03 2.82692327e-03 3.18266364e-04 -2.89646047e-03
      1.87577365e-03 1.00753177e-02 4.14780201e-03 1.28993308e-02
      3.19411658e-04 6.15049666e-03 3.63471895e-03 4.08313674e-04
      2.90310499e-03 1.03531790e-03 4.41049878e-03 4.15218296e-03
      4.59306408e-03 2.29549827e-03 2.81439279e-03 -3.72061506e-04
      2.39163684e-03 3.73263354e-03 1.33109826e-03 5.67061547e-03
      5.33852214e-03 5.90637187e-03 2.95136566e-03 3.61872884e-03
      -4.78298636e-04 3.07507510e-03 3.73227405e-03 1.33117766e-03
      5.67077845e-03 5.33847045e-03 5.90457628e-03 2.95137428e-03
      3.61818564e-03 -4.78730217e-04 3.07461713e-03 4.79872711e-03
      1.71148265e-03 7.29096774e-03 6.86374959e-03 7.59288948e-03
      3.79463774e-03 4.65224124e-03 -6.15426106e-04 3.95322451e-03
      3.63273663e-03 1.48233294e-03 4.08576010e-03 1.75662735e-03
      6.58592815e-03 1.96229503e-03 4.42833826e-03 8.47022864e-04
      2.04212940e-03 4.67037037e-03 1.90586387e-03 5.25286468e-03
      2.25852779e-03 8.46753921e-03 2.52284599e-03 5.69351809e-03
      1.08903844e-03 2.62530055e-03 4.67001135e-03 1.90573209e-03
      5.25303511e-03 2.25852407e-03 8.46675225e-03 2.52303085e-03
      5.69383940e-03 1.08909269e-03 2.62457691e-03 6.00392604e-03
      2.45023612e-03 6.75357366e-03 2.90382537e-03 1.08857183e-02
      3.24376184e-03 7.32057402e-03 1.40027306e-03 3.37407715e-03
      7.56123010e-03 1.82262633e-03 3.38237174e-03 3.24207428e-03
      5.17961290e-03 1.97201408e-03 7.30919419e-04 -1.44317711e-03
      7.07180565e-03 9.72171500e-03 2.34347396e-03 4.34900960e-03
      4.16836701e-03 6.65945932e-03 2.53513781e-03 9.39697144e-04
      -1.85550959e-03 9.09245200e-03 9.72165167e-03 2.34337640e-03
      4.34918376e-03 4.16838331e-03 6.65945001e-03 2.53545423e-03
      9.40290513e-04 -1.85505243e-03 9.09260381e-03 1.24994377e-02
      3.01303738e-03 5.59212314e-03 5.35933068e-03 8.56209453e-03
      3.25947278e-03 1.20887207e-03 -2.38506286e-03 1.16906576e-02
      7.05573056e-03 3.65905114e-03 4.49316157e-03 1.82836910e-03
      7.80019211e-03 8.45991774e-04 3.93754430e-03 2.67569121e-04
      4.72017191e-03 9.07166395e-03 4.70447727e-03 5.77689242e-03
      2.35075550e-03 1.00292554e-02 1.08770467e-03 5.06316731e-03
      3.44204367e-04 6.06880663e-03 9.07179248e-03 4.70456388e-03
      5.77715505e-03 2.35075760e-03 1.00288074e-02 1.08770165e-03
      5.06154122e-03 3.43689171e-04 6.06876425e-03 1.16637470e-02
      6.04870310e-03 7.42773199e-03 3.02239624e-03 1.28947422e-02
      1.39847468e-03 6.50847983e-03 4.42126853e-04 7.80271553e-03
      7.09133549e-03 4.35630837e-03 5.38009126e-03 1.66075095e-03
      8.57541990e-03 2.36447109e-03 -5.89053554e-04 8.97236401e-04
      6.57464005e-03 9.11765918e-03 5.60101960e-03 6.91742124e-03
      2.13525468e-03 1.10273119e-02 3.04003269e-03 -7.57564849e-04
      1.15353020e-03 8.45333282e-03 9.11266822e-03 5.60104474e-03
      6.91748271e-03 2.13525258e-03 1.10243447e-02 3.04003549e-03
      -7.57515314e-04 1.15350122e-03 8.44970997e-03 1.17165809e-02
      7.20141036e-03 8.89411196e-03 2.74532917e-03 1.41764367e-02
      3.90861509e-03 -9.74219292e-04 1.48299686e-03 1.08642010e-02
      6.72937091e-03 3.01713008e-03 5.29762683e-03 3.76817840e-03
      1.18860807e-02 1.51608523e-03 5.63965319e-03 4.74344147e-03
      7.80847995e-03 8.65191408e-03 3.87916621e-03 6.81147631e-03
      4.84479917e-03 1.52817117e-02 1.94945314e-03 7.25099444e-03
      6.09879801e-03 1.00394497e-02 8.64929799e-03 3.87937576e-03
      6.81186747e-03 4.84480569e-03 1.52817676e-02 1.94911368e-03
      7.25043798e-03 6.09847205e-03 1.00380965e-02 1.11203529e-02
      4.98776790e-03 8.75842478e-03 6.22903323e-03 1.96474828e-02
      2.50626099e-03 9.32200719e-03 7.84100499e-03 1.29060913e-02
      8.11097212e-03 5.11059025e-03 1.02778357e-02 3.77602107e-03
      8.25113524e-03 2.35052616e-03 3.76418582e-03 3.07395426e-03
      7.72953872e-03 1.04283476e-02 6.57078624e-03 1.32144485e-02
      4.85488353e-03 1.06112938e-02 3.02386470e-03 4.84003033e-03
      3.95233929e-03 9.93793365e-03 1.04287956e-02 6.57081790e-03
      1.32145407e-02 4.85488819e-03 1.06080361e-02 3.02209053e-03
      4.83911019e-03 3.95208225e-03 9.93838254e-03 1.34083936e-02
      8.44823010e-03 1.69902369e-02 6.24199864e-03 1.36423651e-02
      3.88780702e-03 6.22217963e-03 5.08139376e-03 1.27778621e-02
      9.35004745e-03 3.74748977e-03 3.90942162e-03 3.73005122e-03
      9.52934660e-03 2.06519803e-03 5.09850727e-03 5.06735314e-03
      1.07259071e-02 1.20217241e-02 4.81812656e-03 5.02621802e-03
      4.79578134e-03 1.22535247e-02 2.65526725e-03 6.55534863e-03
      6.51521655e-03 1.37906913e-02 1.20215463e-02 4.81822109e-03
      5.02646109e-03 4.79554711e-03 1.22524193e-02 2.65524909e-03
      6.55441172e-03 6.51500048e-03 1.37905013e-02 1.54565759e-02
      6.19476009e-03 6.46235980e-03 6.16570516e-03 1.57550480e-02
      3.41390818e-03 8.42726137e-03 8.37649219e-03 1.77309532e-02
      4.77962336e-03 3.28571838e-03 5.78488875e-03 4.60515823e-03
      7.08175590e-03 3.76231642e-03 4.36108839e-03 3.61338235e-03
      4.65877913e-03 6.14533108e-03 4.22424357e-03 7.43778562e-03
      5.92091819e-03 9.10368282e-03 4.83632181e-03 5.60711650e-03
      4.64577647e-03 5.99001721e-03 6.14570780e-03 4.22467431e-03
      7.43824057e-03 5.92085999e-03 9.10545234e-03 4.83704219e-03
      5.60735492e-03 4.64586075e-03 5.99034363e-03 7.90175423e-03
      5.43140108e-03 9.56354383e-03 7.61253480e-03 1.17051695e-02
      6.21784292e-03 7.20945932e-03 5.97324828e-03 7.70207401e-03
      4.58112266e-03 3.80682549e-03 3.16685229e-03 2.75297533e-03
      6.26944099e-03 1.69028342e-03 5.58507722e-03 3.19271232e-03
      3.49994376e-03 5.88969374e-03 4.89439769e-03 4.07146337e-03
      3.53853288e-03 8.06036871e-03 2.17308057e-03 7.18101161e-03
      4.10500448e-03 4.49988712e-03 5.89021062e-03 4.89447592e-03
      4.07112483e-03 3.53935012e-03 8.06094147e-03 2.17321771e-03
      7.18060788e-03 4.10484010e-03 4.49929899e-03 7.57271424e-03
      6.29277900e-03 5.23404125e-03 4.54929844e-03 1.03636291e-02
      2.79395562e-03 9.23246425e-03 5.27776638e-03 5.78476023e-03
      6.76565710e-03 8.89762305e-04 2.46463274e-03 -5.47347066e-04
      4.84789675e-03 4.38078446e-03 5.63230226e-03 4.08034213e-03
      6.51604403e-03 8.69819708e-03 1.14341546e-03 3.16724228e-03
      -7.03588419e-04 6.23330055e-03 5.63243730e-03 7.24143581e-03
      5.24611585e-03 8.37727729e-03 8.69895518e-03 1.14358554e-03
      3.16761108e-03 -7.04722072e-04 6.23200135e-03 5.63243963e-03
      7.24175526e-03 5.24622900e-03 8.37803073e-03 1.11837219e-02
      1.46959885e-03 4.07062145e-03 -9.05886467e-04 8.01294670e-03
      7.24170776e-03 9.31070466e-03 6.74510328e-03 1.07711190e-02
      5.79995895e-03 -8.69719777e-04 2.24761043e-05 6.32564363e-04
      7.85338227e-03 2.40614754e-03 4.52237204e-03 3.01684206e-03
      2.39508878e-03 7.45673524e-03 -1.11810572e-03 2.93058347e-05
      8.13307648e-04 1.00965444e-02 3.09362542e-03 5.81431668e-03
      3.87873035e-03 3.07948608e-03 7.45695643e-03 -1.11837313e-03
      2.88428619e-05 8.13102175e-04 1.00978930e-02 3.09360679e-03
      5.81437210e-03 3.87891871e-03 3.07976757e-03 9.58705880e-03
      -1.43777230e-03 3.76077005e-05 1.04543089e-03 1.29821543e-02
      3.97750409e-03 7.47541292e-03 4.98709595e-03 3.95981222e-03
      1.07530272e-03 9.43615334e-04 3.95231275e-03 2.62000319e-03
      4.65764152e-03 1.97218056e-03 2.39268760e-03 2.39374419e-03
      8.05092393e-04 1.38221763e-03 1.21323706e-03 5.08159213e-03
      3.36858793e-03 5.98988635e-03 2.53566378e-03 3.07594403e-03
      3.07754334e-03 1.03479531e-03 1.38270075e-03 1.21324975e-03
      5.08162053e-03 3.36857419e-03 5.98844513e-03 2.53565027e-03
      3.07689467e-03 3.07788700e-03 1.03392289e-03 1.77735393e-03
      1.55991467e-03 6.53357198e-03 4.33103973e-03 7.70134525e-03
      3.26012587e-03 3.95553373e-03 3.95711930e-03 1.32891326e-03
      3.19589302e-03 3.16662178e-03 1.75186677e-03 5.73346345e-03
      3.39186611e-03 1.14622689e-03 3.05254012e-03 1.97255006e-03
      -8.07371165e-04 4.10911627e-03 4.07117326e-03 2.25178013e-03
      7.37158209e-03 4.36189584e-03 1.47373474e-03 3.92469997e-03
      2.53612967e-03 -1.03793107e-03 4.10840288e-03 4.07112157e-03
      2.25292379e-03 7.37159606e-03 4.36063902e-03 1.47372345e-03
      3.92424036e-03 2.53599370e-03 -1.03846740e-03 5.28237456e-03
      5.23404498e-03 2.89581809e-03 9.47774854e-03 5.60772559e-03
      1.89480605e-03 5.04545914e-03 3.26055544e-03 -1.33502122e-03
      1.43982295e-03 1.34004827e-03 8.17721011e-05 -7.13878544e-04
      2.86855875e-03 2.91972212e-03 3.31883971e-03 1.62152702e-03
      -2.68994918e-04 1.85145310e-03 1.72320148e-03 1.05402061e-04
      -9.17902915e-04 3.68880411e-03 3.75392311e-03 4.26752353e-03
      2.08496558e-03 -3.45864100e-04 1.85181317e-03 1.72306562e-03
      1.05524909e-04 -9.17842845e-04 3.68757150e-03 3.75396456e-03
      4.26639104e-03 2.08455208e-03 -3.45276901e-04 2.38122651e-03
      2.21573282e-03 1.36017610e-04 -1.18015928e-03 4.74200817e-03
      4.82651917e-03 5.48593048e-03 2.68032518e-03 -4.43945319e-04
      3.07213818e-03 2.97511509e-03 3.07085714e-03 1.85588980e-03
      7.29635032e-03 -1.69134664e-03 9.37751960e-04 -1.35019631e-03
      2.12127590e-04 3.95020004e-03 3.82463564e-03 3.94680491e-03
      2.38632318e-03 9.38070286e-03 -2.17442750e-03 1.20555935e-03
      -1.73587562e-03 2.73044338e-04 3.94982705e-03 3.82540654e-03
      3.94790666e-03 2.38614460e-03 9.38056316e-03 -2.17458443e-03
      1.20568578e-03 -1.73539831e-03 2.72973964e-04 5.07874461e-03
      4.91772080e-03 5.07402746e-03 3.06813000e-03 1.20603153e-02
      -2.79568718e-03 1.55001075e-03 -2.23110965e-03 3.51362687e-04
      -4.31325985e-04 4.42522159e-03 1.60543504e-03 1.64023566e-03
      7.80524872e-03 1.74832996e-03 1.43154932e-03 -2.87076063e-03
      6.12138771e-04 -5.54698228e-04 5.68954553e-03 2.06407695e-03
      2.10953411e-03 1.00357290e-02 2.24763108e-03 1.84090738e-03
      -3.69085232e-03 7.86903955e-04 -5.54342580e-04 5.68989292e-03
      2.06403574e-03 2.10887310e-03 1.00356787e-02 2.24785018e-03
      1.84062286e-03 -3.69124371e-03 7.84321688e-04 -7.12902984e-04
      7.31554441e-03 2.65368982e-03 2.71225674e-03 1.29035432e-02
      2.88980757e-03 2.36695749e-03 -4.74572321e-03 1.00824295e-03
      3.05338437e-03 5.49036171e-03 3.72995855e-03 1.44903746e-03
      1.91606220e-03 3.65461060e-03 2.45076302e-03 -5.94695681e-04
      1.22865487e-03 3.92570579e-03 7.05883792e-03 4.79568355e-03
      1.86304655e-03 2.46361643e-03 4.69878409e-03 3.15099489e-03
      -7.64618453e-04 1.57965370e-03 3.92056163e-03 7.05915131e-03
      4.79599321e-03 1.86309556e-03 2.46351957e-03 4.69881669e-03
      3.15090152e-03 -7.64632074e-04 1.57578045e-03 5.04062744e-03
      9.07579623e-03 6.16630586e-03 2.39540637e-03 3.16752074e-03
      6.04133448e-03 4.05117730e-03 -9.83109348e-04 2.02594488e-03
      -1.34336820e-03 3.14522046e-03 3.86415096e-03 1.62748841e-03
      3.88366031e-03 6.83840306e-04 5.40248072e-03 2.82747322e-03
      -1.09845027e-03 -1.72742305e-03 4.04394651e-03 4.96828044e-03
      2.09249626e-03 4.99392487e-03 8.79602507e-04 6.94674999e-03
      3.63584259e-03 -1.41248468e-03 -1.72707834e-03 4.04369598e-03
      4.96785156e-03 2.09252466e-03 4.99284314e-03 8.79218744e-04
      6.94481190e-03 3.63461254e-03 -1.41221343e-03 -2.22083228e-03
      5.19915530e-03 6.38734782e-03 2.69040279e-03 6.42020209e-03
      1.13091187e-03 8.92994739e-03 4.67374176e-03 -1.81594992e-03
      3.32259689e-03 -1.42058858e-03 2.31996900e-03 3.40756727e-03
      7.51542207e-03 1.80808571e-03 2.28942162e-03 4.75486973e-03
      2.00622715e-04 4.27259132e-03 -1.82645349e-03 2.98281759e-03
      4.38116398e-03 9.66248382e-03 2.32469849e-03 2.94386386e-03
      6.11352082e-03 2.58625252e-04 4.27140668e-03 -1.82630320e-03
      2.98338872e-03 4.38115746e-03 9.66235995e-03 2.32456019e-03
      2.94290925e-03 6.11277670e-03 2.57470791e-04 5.49268350e-03
      -2.34808074e-03 3.83578567e-03 5.63292485e-03 1.24227749e-02
      2.98874127e-03 3.78415431e-03 7.85943400e-03 3.31910618e-04
      1.59124611e-03 4.35936637e-03 5.44348918e-03 4.05606441e-03
      7.16688624e-03 2.57867062e-03 9.57324752e-04 -2.68658896e-05
      -9.49242967e-04 2.04664841e-03 5.60489763e-03 6.99877087e-03
      5.21494448e-03 9.21475608e-03 3.31485039e-03 1.23108493e-03
      -3.44569125e-05 -1.21971429e-03 2.03555566e-03 5.60475700e-03
      6.99842209e-03 5.21492446e-03 9.21438634e-03 3.31543502e-03
      1.23058038e-03 -3.46091037e-05 -1.23208726e-03 2.61812145e-03
      7.20611261e-03 8.99796840e-03 6.70490740e-03 1.18473107e-02
      4.26195189e-03 1.58248132e-03 -4.43879071e-05 -1.58315990e-03
      9.18933365e-05 2.38099415e-03 5.40720532e-03 1.51729165e-03
      9.88393556e-03 2.18879362e-03 2.83393031e-03 5.05406701e-04
      8.11706705e-04 1.18299533e-04 3.06144147e-03 6.95256097e-03
      1.95004512e-03 1.27078900e-02 2.81417184e-03 3.64363962e-03
      6.50048605e-04 1.04388944e-03 1.18181277e-04 3.06112971e-03
      6.95270067e-03 1.95082196e-03 1.27071403e-02 2.81416927e-03
      3.64341913e-03 6.50151051e-04 1.04401156e-03 1.52141452e-04
      3.93594755e-03 8.93975142e-03 2.50722491e-03 1.63377170e-02
      3.61822848e-03 4.68441471e-03 8.36217194e-04 1.34264352e-03
      -2.31244066e-03 2.05062958e-03 5.11111179e-03 3.01027438e-03
      7.66777946e-03 6.54747564e-05 2.91620800e-03 3.18001164e-03
      4.00725839e-04 -2.97314045e-03 2.63720891e-03 6.57119974e-03
      3.87035846e-03 9.85828042e-03 8.42651716e-05 3.74863856e-03
      4.08845954e-03 5.15099848e-04 -2.98367348e-03 2.63655651e-03
      6.57181721e-03 3.87092587e-03 9.85844154e-03 8.41766014e-05
      3.74915986e-03 4.08857828e-03 5.03247604e-04 -3.83615470e-03
      3.39073897e-03 8.44918378e-03 4.97691240e-03 1.26747619e-02
      1.08334149e-04 4.81935637e-03 5.25658019e-03 6.46879198e-04
      3.63916421e-04 2.21375865e-03 5.50761772e-03 1.89271348e-03
      9.67424642e-03 -2.46150303e-04 5.81195400e-06 1.67750171e-03
      2.26309989e-03 4.68351936e-04 2.84625520e-03 7.08122225e-03
      2.43348838e-03 1.24385422e-02 -3.16462276e-04 6.85926489e-06
      2.15670886e-03 2.91033206e-03 4.68227809e-04 2.84623634e-03
      7.08133262e-03 2.43369187e-03 1.24395294e-02 -3.16614227e-04
      8.02329305e-06 2.15699477e-03 2.91010272e-03 6.02598011e-04
      3.65943904e-03 9.10456944e-03 3.12903197e-03 1.59939714e-02
      -4.07054555e-04 9.52735354e-06 2.77317758e-03 3.74237355e-03
      5.64768864e-03 2.16798671e-03 3.71265318e-03 2.86686700e-03
      6.32587448e-03 4.38685733e-04 4.30383399e-04 6.24389795e-04
      5.34969009e-03 7.26136984e-03 2.78736278e-03 4.77328897e-03
      3.68595985e-03 8.13348219e-03 5.63945447e-04 5.53347112e-04
      8.02795577e-04 6.87822793e-03 7.26142479e-03 2.78722984e-03
      4.77285776e-03 3.68596846e-03 8.13298766e-03 5.64016053e-04
      5.52977377e-04 8.02675437e-04 6.87821582e-03 9.33618937e-03
      3.58351949e-03 6.13637408e-03 4.73908707e-03 1.04569746e-02
      7.25062040e-04 7.10965251e-04 1.03202241e-03 8.84348992e-03
      6.76883478e-03 3.59440502e-03 7.23207556e-03 1.95847382e-03
      7.10528437e-03 7.60630763e-04 -3.53056099e-03 -6.59866550e-04
      5.90728875e-03 8.70254263e-03 4.62149316e-03 9.29875486e-03
      2.51804013e-03 9.13588982e-03 9.78094293e-04 -4.53842757e-03
      -8.48143129e-04 7.59483036e-03 8.70174170e-03 4.62135440e-03
      9.29832831e-03 2.51803454e-03 9.13518108e-03 9.77957039e-04
      -4.53978172e-03 -8.48848955e-04 7.59402569e-03 1.11876391e-02
      5.94189018e-03 1.19554708e-02 3.23747587e-03 1.17459064e-02
      1.25755393e-03 -5.83574921e-03 -1.09104696e-03 9.76341870e-03
      3.31337302e-04 2.87479884e-03 7.40750460e-03 3.75228422e-03
      5.25740534e-03 1.17953622e-03 3.39414179e-03 3.40142241e-03
      1.85333460e-03 4.25681705e-04 3.69616551e-03 9.52393468e-03
      4.82435478e-03 6.76046731e-03 1.51655241e-03 4.36395500e-03
      4.37327847e-03 2.38257926e-03 4.25072154e-04 3.69612779e-03
      9.52387881e-03 4.82436782e-03 6.75971806e-03 1.51655637e-03
      4.36380971e-03 4.37323609e-03 2.38213711e-03 5.46106428e-04
      4.75215912e-03 1.22449864e-02 6.20274432e-03 8.69228225e-03
      1.94986549e-03 5.61068673e-03 5.62275853e-03 3.06238909e-03
      9.01151262e-03 3.78562976e-03 4.91915736e-03 2.98411795e-03
      6.03481941e-03 -5.78546431e-04 2.46646116e-03 2.54287245e-03
      7.12824706e-03 1.15869632e-02 4.86737117e-03 6.32449845e-03
      3.83671257e-03 7.75959715e-03 -7.43822311e-04 3.17139295e-03
      3.26892571e-03 9.16546863e-03 1.15859518e-02 4.86718910e-03
      6.32447982e-03 3.83672025e-03 7.75898853e-03 -7.43845652e-04
      3.17090494e-03 3.26913083e-03 9.16054100e-03 1.48971649e-02
      6.25798525e-03 8.13130382e-03 4.93291300e-03 9.97654255e-03
      -9.56343603e-04 4.07717191e-03 4.20254841e-03 1.17785838e-02
      6.04834314e-03 3.14831315e-03 5.07975928e-03 3.01559991e-03
      1.46608995e-02 3.74100101e-03 2.31176196e-03 2.50837253e-03
      4.51197894e-03 7.77633907e-03 4.04770533e-03 6.53073238e-03
      3.87719739e-03 1.88509636e-02 4.81024338e-03 2.97214440e-03
      3.22495145e-03 5.80102485e-03 7.77517119e-03 4.04788461e-03
      6.53130235e-03 3.87720438e-03 1.88485775e-02 4.80980892e-03
      2.97287293e-03 3.22516612e-03 5.80025977e-03 9.99651756e-03
      5.20426175e-03 8.39689188e-03 4.98497393e-03 2.42354758e-02
      6.18453464e-03 3.82210989e-03 4.14651539e-03 7.45736016e-03
      4.09001298e-03 2.90377578e-03 4.20608930e-03 3.04705813e-03
      1.04539124e-02 2.87012919e-03 7.26272073e-03 4.04598983e-03
      5.05769905e-03 5.25843399e-03 3.73337837e-03 5.40768774e-03
      3.91764892e-03 1.34416362e-02 3.69016081e-03 9.33762453e-03
      5.20197395e-03 6.50260039e-03 5.25914924e-03 3.73301096e-03
      5.40763373e-03 3.91764706e-03 1.34405531e-02 3.69014987e-03
      9.33768041e-03 5.20196790e-03 6.50339574e-03 6.76156487e-03
      4.79952432e-03 6.95248926e-03 5.03697805e-03 1.72818583e-02
      4.74447105e-03 1.20053841e-02 6.68822788e-03 8.36130884e-03
      7.26747233e-03 2.81000556e-03 4.21448704e-03 3.52696399e-03
      5.63619984e-03 2.47615133e-03 4.82786773e-03 4.06976137e-03
      6.84802793e-03 9.34300758e-03 3.61239119e-03 5.41848503e-03
      4.53378912e-03 7.24582095e-03 3.18320352e-03 6.20696275e-03
      5.23244962e-03 8.80381744e-03 9.34483856e-03 3.61267920e-03
      5.41752204e-03 4.53460822e-03 7.24516902e-03 3.18361889e-03
      6.20753132e-03 5.23264054e-03 8.80550407e-03 1.20136542e-02
      4.64426586e-03 6.96520228e-03 5.82908001e-03 9.31429025e-03
      4.09268541e-03 7.98073132e-03 6.72755158e-03 1.13203470e-02
      5.73406415e-03 2.16308027e-03 -8.68151721e-04 -7.58580281e-04
      6.03992818e-03 2.56479369e-03 5.99099649e-03 3.76517675e-03
      5.50589338e-03 7.37156766e-03 2.78130593e-03 -1.11622992e-03
      -9.75241885e-04 7.76458904e-03 3.29758786e-03 7.70247076e-03
      4.84060356e-03 7.07883015e-03 7.37229176e-03 2.78094760e-03
      -1.11606752e-03 -9.74694209e-04 7.76502304e-03 3.29759717e-03
      7.70298764e-03 4.84102918e-03 7.07916450e-03 9.47763119e-03
      3.57576460e-03 -1.43498916e-03 -1.25308079e-03 9.98227391e-03
      4.23976267e-03 9.90353338e-03 6.22374611e-03 9.10155661e-03
      7.49997655e-03 4.08908709e-05 -5.28173847e-03 7.60007475e-04
      9.04975925e-03 3.54582071e-03 5.57060027e-03 3.16533842e-03
      6.22748444e-03 9.64197423e-03 5.84447225e-05 -6.80008344e-03
      9.74718307e-04 1.16344746e-02 4.55764774e-03 7.16205640e-03
      4.06965939e-03 8.00529961e-03 9.64135583e-03 5.41114350e-05
      -6.79047592e-03 9.73499671e-04 1.16342651e-02 4.55939677e-03
      7.16321450e-03 4.07059770e-03 8.00647959e-03 1.23949330e-02
      7.71197374e-05 -8.74254014e-03 1.24851253e-03 1.49571449e-02
      5.86045580e-03 9.20966174e-03 5.23354672e-03 1.02921613e-02
      5.40125510e-03 3.76487896e-03 -2.23699003e-03 1.19956955e-03
      3.50251840e-03 1.61548040e-03 2.96924636e-03 3.62655171e-03
      6.12449739e-03 6.94434950e-03 4.84061055e-03 -2.87595391e-03
      1.54229312e-03 4.50341264e-03 2.07705074e-03 3.81774455e-03
      4.66256589e-03 7.87416752e-03 6.94373064e-03 4.84056119e-03
      -2.87608453e-03 1.54230150e-03 4.50364780e-03 2.07703328e-03
      3.81738553e-03 4.66258358e-03 7.87377078e-03 8.92749801e-03
      6.22364506e-03 -3.69759835e-03 1.98294548e-03 5.79062896e-03
      2.67047668e-03 4.90824925e-03 5.99456578e-03 1.01231793e-02
      3.10626696e-03 2.60186940e-03 3.61241656e-03 -2.99890712e-03
      3.73778981e-03 4.37247567e-03 5.63645456e-03 5.61753893e-03
      4.85246116e-03 3.99320479e-03 3.34564643e-03 4.64570057e-03
      -3.85572272e-03 4.80608875e-03 5.62174385e-03 7.24687381e-03
      7.22240983e-03 6.23828452e-03 3.99307255e-03 3.34549649e-03
      4.64494573e-03 -3.85573530e-03 4.80528781e-03 5.62175130e-03
      7.24705495e-03 7.22251879e-03 6.23814017e-03 5.13322046e-03
      4.30184836e-03 5.97356958e-03 -4.95735463e-03 6.17868872e-03
      7.22795213e-03 9.31764673e-03 9.28591564e-03 8.01970251e-03
      3.26624169e-04 3.46873770e-03 1.88562321e-03 1.33426522e-03
      3.14966659e-03 2.43086601e-03 1.69262581e-03 2.66702310e-03
      1.10246078e-03 4.19499789e-04 4.45980951e-03 2.42438680e-03
      1.71548431e-03 4.05183947e-03 3.12538398e-03 2.17620609e-03
      3.42898583e-03 1.41700613e-03 4.19114978e-04 4.45959717e-03
      2.42382311e-03 1.71549665e-03 4.04864131e-03 3.12537607e-03
      2.17591412e-03 3.42937605e-03 1.41720648e-03 5.38289081e-04
      5.73377218e-03 3.11636087e-03 2.20563891e-03 5.20831347e-03
      4.01832117e-03 2.79756822e-03 4.40914044e-03 1.82155252e-03
      3.16490792e-03 3.20896716e-03 -1.91439013e-03 -1.23572667e-04
      5.79143222e-03 4.43365797e-03 2.40252353e-03 3.21770436e-03
      1.11398217e-03 4.06908477e-03 4.12593130e-03 -2.46103969e-03
      -1.59032701e-04 7.44593423e-03 5.70042385e-03 3.08937579e-03
      4.13718028e-03 1.43217098e-03 4.06536926e-03 4.12599975e-03
      -2.46114680e-03 -1.58887880e-04 7.44629744e-03 5.70041500e-03
      3.08884913e-03 4.13700612e-03 1.42851588e-03 5.22679742e-03
      5.30500663e-03 -3.16392235e-03 -2.04482407e-04 9.57356207e-03
      7.32911378e-03 3.97191336e-03 5.31917717e-03 1.83654553e-03
      2.37295590e-03 4.50173859e-03 1.15827215e-03 2.62314151e-03
      1.73206499e-03 -1.14490965e-03 3.85133503e-03 -1.20601768e-03
      2.01303686e-04 3.05140018e-03 5.78865921e-03 1.48928724e-03
      3.37259169e-03 2.22623837e-03 -1.47200539e-03 4.95183934e-03
      -1.55057304e-03 2.59169494e-04 3.05234431e-03 5.78798307e-03
      1.48959155e-03 3.37315304e-03 2.22650007e-03 -1.47203263e-03
      4.95141884e-03 -1.55070599e-03 2.58321816e-04 3.92503059e-03
      7.44260522e-03 1.91529258e-03 4.33688704e-03 2.86173937e-03
      -1.89258577e-03 6.36626780e-03 -1.99373765e-03 3.32578522e-04
      -2.88618612e-04 2.58012326e-03 2.95287766e-03 2.20448407e-03
      2.55482527e-03 1.45195914e-03 1.62006973e-03 -1.46425341e-03
      -2.12530931e-03 -3.71239090e-04 3.31718498e-03 3.79630807e-03
      2.83573777e-03 3.28516937e-03 1.86687545e-03 2.08293903e-03
      -1.88262737e-03 -2.73270463e-03 -3.71487200e-04 3.31789535e-03
      3.79665988e-03 2.83417548e-03 3.28451581e-03 1.86679675e-03
      2.08264776e-03 -1.88269967e-03 -2.73307157e-03 -4.77830501e-04
      4.26571677e-03 4.88109980e-03 3.64574138e-03 4.22345567e-03
      2.40025809e-03 2.67768023e-03 -2.42063403e-03 -3.51415924e-03
      1.87328411e-03 5.51752141e-03 2.73991306e-03 1.72787486e-03
      3.44726513e-03 1.36040419e-03 -2.16512731e-03 6.45919412e-04
      1.25397171e-03 2.40844837e-03 7.09354831e-03 3.52264126e-03
      2.22154334e-03 4.43353504e-03 1.74891890e-03 -2.78415042e-03
      8.30383506e-04 1.61227025e-03 2.40142504e-03 7.09364843e-03
      3.52213834e-03 2.22164579e-03 4.43224609e-03 1.74907944e-03
      -2.78385729e-03 8.31168145e-04 1.60539453e-03 3.08746914e-03
      9.11988132e-03 4.52832924e-03 2.85638846e-03 5.70032047e-03
      2.24859500e-03 -3.57977930e-03 1.06853666e-03 2.06410605e-03
      6.00163068e-04 2.82631954e-03 4.28353203e-03 -1.91473358e-04
      4.29879595e-03 4.79375385e-03 1.41053926e-03 -1.24584115e-03
      -6.65533182e-04 7.71460123e-04 3.63382883e-03 5.50737604e-03
      -2.46177719e-04 5.52835176e-03 6.16338989e-03 1.81364513e-03
      -1.60108646e-03 -8.55406688e-04 7.69834034e-04 3.63375363e-03
      5.50737465e-03 -2.46179901e-04 5.52591262e-03 6.16277894e-03
      1.81352452e-03 -1.60182768e-03 -8.57172010e-04 9.89556662e-04
      4.67195548e-03 7.08088093e-03 -3.16513557e-04 7.10645318e-03
      7.92356301e-03 2.33179494e-03 -2.05858052e-03 -1.10172038e-03
      2.43384391e-03 2.63634021e-03 3.02177970e-03 1.59954463e-04
      4.25451156e-03 1.17839407e-03 8.77864135e-04 2.77169608e-03
      8.16708052e-05 3.12901195e-03 3.38938250e-03 3.88456509e-03
      2.05662363e-04 5.47084631e-03 1.51525449e-03 1.12890860e-03
      3.56364483e-03 1.04781939e-04 3.12586688e-03 3.38905910e-03
      3.88514949e-03 2.05654011e-04 5.47041325e-03 1.51508139e-03
      1.12882163e-03 3.56277800e-03 1.01580677e-04 4.01869370e-03
      4.35710745e-03 4.99444688e-03 2.64420640e-04 7.03436509e-03
      1.94818887e-03 1.45163259e-03 4.58075991e-03 1.30316534e-04
      2.90066167e-03 5.05815609e-04 3.56648373e-03 2.15496379e-03
      3.60901980e-03 2.98005180e-03 -1.52288342e-03 2.38995161e-03
      1.01231923e-03 3.72917228e-03 6.50267757e-04 4.58530802e-03
      2.77068256e-03 4.64006327e-03 3.83175723e-03 -1.95730338e-03
      3.07318172e-03 1.30133401e-03 3.72843491e-03 6.50294707e-04
      4.58532898e-03 2.77068955e-03 4.63866349e-03 3.83150275e-03
      -1.95814995e-03 3.07259057e-03 1.30060187e-03 4.79338039e-03
      8.36008170e-04 5.89520251e-03 3.56233446e-03 5.96386148e-03
      4.92655486e-03 -2.51673511e-03 3.95097071e-03 1.67192076e-03
      5.07402793e-03 2.72492738e-03 5.90933487e-03 5.53423073e-04
      1.93643512e-03 2.20628525e-03 4.58772108e-03 9.14106786e-04
      3.54625168e-03 6.52375165e-03 3.50352400e-03 7.59774260e-03
      7.11449946e-04 2.48954422e-03 2.83683930e-03 5.89913409e-03
      1.17545552e-03 4.55946382e-03 6.52131252e-03 3.50280828e-03
      7.59736402e-03 7.11561297e-04 2.49037961e-03 2.83664931e-03
      5.89785213e-03 1.17505388e-03 4.55713226e-03 8.38454440e-03
      4.50367061e-03 9.76807252e-03 9.14743810e-04 3.20171402e-03
      3.64736049e-03 7.58376904e-03 1.51100860e-03 5.85916592e-03
      4.78875218e-03 6.94800925e-04 2.85837753e-03 6.86766522e-04
      7.30479741e-03 -3.69154150e-03 7.39498064e-04 6.55474514e-03
      5.57420822e-03 6.15655631e-03 8.93161574e-04 3.67506221e-03
      8.82991473e-04 9.39178467e-03 -4.74622473e-03 9.50682967e-04
      8.42748955e-03 7.16646714e-03 6.15590252e-03 8.92915763e-04
      3.67519516e-03 8.83209403e-04 9.39104334e-03 -4.74624475e-03
      9.51076101e-04 8.42781365e-03 7.16589810e-03 7.91420322e-03
      1.14783668e-03 4.72525740e-03 1.13556266e-03 1.20740728e-02
      -6.10225974e-03 1.22268300e-03 1.08357091e-02 9.21281893e-03
      2.72290106e-03 5.63643291e-04 4.18415712e-03 4.28023702e-03
      3.00994399e-03 6.99934491e-04 5.98062621e-03 2.23544333e-03
      3.09952814e-03 3.50084738e-03 7.24728801e-04 5.37977554e-03
      5.50316134e-03 3.87074333e-03 8.99892359e-04 7.68966274e-03
      2.87431385e-03 3.98511719e-03 3.50004365e-03 7.24674552e-04
      5.37963910e-03 5.50316833e-03 3.87037941e-03 8.99990962e-04
      7.68939313e-03 2.87338509e-03 3.98415839e-03 4.50002309e-03
      9.31782124e-04 6.91686478e-03 7.07550161e-03 4.97725047e-03
      1.15710159e-03 9.88673046e-03 3.69457458e-03 5.12250140e-03
      3.15548433e-03 3.62742983e-04 3.74605483e-03 2.61747860e-04
      7.18208030e-03 -1.68333098e-03 1.32427411e-03 2.70200148e-03
      4.86133294e-03 4.05704975e-03 4.66273341e-04 4.81597474e-03
      3.36572528e-04 9.23530385e-03 -2.16495944e-03 1.70228072e-03
      3.47400364e-03 6.25029719e-03 4.05680807e-03 4.66420548e-04
      4.81648929e-03 3.36526398e-04 9.23319347e-03 -2.16427445e-03
      1.70266372e-03 3.47404671e-03 6.25010487e-03 5.21589443e-03
      5.99541643e-04 6.19213888e-03 4.32727829e-04 1.18727935e-02
      -2.78350827e-03 2.18867953e-03 4.46663378e-03 8.03586468e-03
      3.87018430e-03 -1.30693917e-03 2.28654267e-03 2.37700134e-03
      1.26258691e-03 1.37755997e-03 5.17441006e-03 4.03597532e-03
      4.21733456e-03 4.97570215e-03 -1.68008124e-03 2.93985312e-03
      3.05593852e-03 1.62321876e-03 1.77113933e-03 6.65287394e-03
      5.18918689e-03 5.42199379e-03 4.97589214e-03 -1.68037158e-03
      2.93977140e-03 3.05635668e-03 1.62380899e-03 1.77114981e-03
      6.65274169e-03 5.18909656e-03 5.42223128e-03 6.39725523e-03
      -2.16013240e-03 3.77972098e-03 3.92933609e-03 2.08761636e-03
      2.27718125e-03 8.55360366e-03 6.67179329e-03 6.97106263e-03
      6.15798868e-03 5.33292536e-03 4.27283160e-03 -1.32358211e-04
      2.43428769e-03 1.81639611e-04 1.58118457e-03 1.78281835e-03
      7.60957086e-03 7.91708101e-03 6.85662497e-03 5.49402740e-03
      -1.70172600e-04 3.13090999e-03 2.33461367e-04 2.03304412e-03
      2.29222234e-03 9.78342909e-03 7.91748054e-03 6.85635582e-03
      5.49342250e-03 -1.70062893e-04 3.12948273e-03 2.33511426e-04
      2.03284062e-03 2.29227194e-03 9.78491083e-03 1.01791900e-02
      8.81532300e-03 7.06346985e-03 -2.18649642e-04 4.02504951e-03
      3.00132087e-04 2.61377078e-03 2.94724246e-03 1.25802075e-02
      5.07888384e-03 6.41714409e-03 6.53853687e-03 2.20327312e-03
      3.56865465e-03 1.49539171e-03 3.44724627e-04 1.65435695e-03
      4.30720020e-03 6.53024390e-03 8.25060066e-03 8.40663817e-03
      2.83278525e-03 4.58886847e-03 1.92263816e-03 4.42346325e-04
      2.12674215e-03 5.53808268e-03 6.52955379e-03 8.25045258e-03
      8.40647519e-03 2.83277943e-03 4.58847778e-03 1.92310696e-03
      4.43984231e-04 2.12721084e-03 5.53738046e-03 8.39546137e-03
      1.06077073e-02 1.08082565e-02 3.64215206e-03 5.90024050e-03
      2.47255550e-03 5.69716445e-04 2.73461500e-03 7.11981533e-03
      4.42090537e-03 3.78246722e-03 6.68700226e-03 2.24100356e-03
      9.95699409e-03 -9.31607967e-04 1.97335472e-03 4.00707871e-03
      3.63416900e-03 5.68369450e-03 4.86326544e-03 8.59786291e-03
      2.88129039e-03 1.28028523e-02 -1.19779760e-03 2.53687403e-03
      5.15185017e-03 4.67217388e-03 5.68386121e-03 4.86320117e-03
      8.59760400e-03 2.88112834e-03 1.28014451e-02 -1.19777280e-03
      2.53810501e-03 5.15228091e-03 4.67235409e-03 7.30740139e-03
      6.25280710e-03 1.10544320e-02 3.70430830e-03 1.64602902e-02
      -1.54001464e-03 3.26289702e-03 6.62422227e-03 6.00688951e-03
      8.33270885e-03 4.23619477e-03 7.62530323e-03 3.39016039e-03
      3.06786713e-03 1.94673822e-03 3.85371642e-03 4.34465567e-03
      8.70526768e-03 1.07133733e-02 5.44658722e-03 9.80411470e-03
      4.35878662e-03 3.94667080e-03 2.50299182e-03 4.95469151e-03
      5.58592286e-03 1.11923767e-02 1.07132467e-02 5.44655323e-03
      9.80404578e-03 4.35872329e-03 3.94428661e-03 2.50288146e-03
      4.95476322e-03 5.58599830e-03 1.11922566e-02 1.37740336e-02
      7.00277742e-03 1.26053980e-02 5.60408412e-03 5.07414434e-03
      3.21804569e-03 6.37029763e-03 7.18191732e-03 1.43899024e-02
      6.26494223e-03 3.11951432e-03 2.29322328e-03 -2.72425055e-03
      4.56090365e-03 3.21143470e-03 5.87521074e-03 4.95833252e-03
      7.31176790e-03 8.05495866e-03 4.01092321e-03 2.94703548e-03
      -3.50484997e-03 5.86308585e-03 4.12895391e-03 7.55384238e-03
      6.37499150e-03 9.40088276e-03 8.05530604e-03 4.01082262e-03
      2.94847460e-03 -3.50261829e-03 5.86193800e-03 4.12899023e-03
      7.55384471e-03 6.37499243e-03 9.40122269e-03 1.03568640e-02
      5.15692541e-03 3.78910289e-03 -4.50624945e-03 7.53557775e-03
      5.30865882e-03 9.71208606e-03 8.19640979e-03 1.20873358e-02
      5.60642639e-03 8.03364383e-04 1.79944327e-04 -2.27176235e-03
      3.55622661e-03 4.06904472e-03 5.89798857e-03 5.38848387e-03
      7.43366871e-03 7.20808096e-03 1.03283254e-03 2.31552127e-04
      -2.92085507e-03 4.57118498e-03 5.23162447e-03 7.58345844e-03
      6.92817057e-03 9.55742877e-03 7.20866444e-03 1.03283080e-03
      2.31230952e-04 -2.92084343e-03 4.57181223e-03 5.23164868e-03
      7.58309523e-03 6.92803320e-03 9.55797732e-03 9.26805008e-03
      1.32784259e-03 2.97547987e-04 -3.75539367e-03 5.87662077e-03
      6.72639953e-03 9.75011848e-03 8.90762545e-03 1.22886430e-02
      3.92153533e-03 1.54856771e-05 -2.47607310e-03 5.06250595e-04
      5.81620960e-03 2.28174753e-03 2.46836734e-03 2.92877457e-03
      5.59386006e-03 5.04202815e-03 1.98608705e-05 -3.18356161e-03
      6.51182723e-04 7.47760572e-03 2.93388753e-03 3.17358412e-03
      3.76552367e-03 7.19215488e-03 5.04025584e-03 1.99946408e-05
      -3.18327756e-03 6.50893780e-04 7.47754984e-03 2.93368613e-03
      3.17396922e-03 3.76596721e-03 7.19044823e-03 6.48039859e-03
      2.56437343e-05 -4.09283675e-03 8.37234664e-04 9.61350743e-03
      3.77215515e-03 4.08077752e-03 4.84190136e-03 9.24492534e-03
      7.46259291e-04 2.71459110e-04 5.10585378e-04 -8.09652323e-04
      3.35920230e-03 3.23556596e-03 3.82714369e-03 4.21283441e-03
      5.22295525e-03 9.59373370e-04 3.49192909e-04 6.56704418e-04
      -1.04076636e-03 4.31992207e-03 4.16059932e-03 4.92089754e-03
      5.41663403e-03 6.71500945e-03 9.59398283e-04 3.48993955e-04
      6.56486605e-04 -1.04074844e-03 4.31901589e-03 4.16000839e-03
      4.92031686e-03 5.41639049e-03 6.71497406e-03 1.23337971e-03
      4.48930514e-04 8.44358467e-04 -1.33782835e-03 5.55423973e-03
      5.34933526e-03 6.32648775e-03 6.96410052e-03 8.63325689e-03
      4.85551223e-04 3.77189624e-03 5.54967485e-03 1.76272925e-03
      4.24068840e-03 2.71173107e-04 1.54531247e-03 3.69380112e-04
      -6.35677774e-04 6.23991131e-04 4.84987907e-03 7.13491254e-03
      2.26658257e-03 5.45162801e-03 3.48646776e-04 1.98653480e-03
      4.75247332e-04 -8.17234279e-04 6.19321712e-04 4.84969234e-03
      7.13522732e-03 2.26694811e-03 5.45159541e-03 3.48811707e-04
      1.98672363e-03 4.75170760e-04 -8.19194829e-04 7.95899017e-04
      6.23570243e-03 9.17336904e-03 2.91492557e-03 7.00831274e-03
      4.48466220e-04 2.55397893e-03 6.11357973e-04 -1.05316646e-03
      6.23757159e-03 6.59434730e-03 4.36750054e-03 -3.54482140e-03
      1.51118904e-03 2.20413832e-03 1.02635968e-04 1.91719912e-03
      1.44474918e-03 8.01970158e-03 8.47841427e-03 5.61528699e-03
      -4.55763517e-03 1.94381422e-03 2.83392007e-03 1.31828347e-04
      2.46489327e-03 1.85749901e-03 8.01728293e-03 8.47890228e-03
      5.61677152e-03 -4.55763238e-03 1.94262783e-03 2.83235544e-03
      1.32026689e-04 2.46497057e-03 1.85344531e-03 1.03078922e-02
      1.09014036e-02 7.22147292e-03 -5.85982343e-03 2.49876617e-03
      3.64163611e-03 1.69578678e-04 3.16914846e-03 2.38295458e-03
      2.87350873e-03 8.84381309e-03 4.88395977e-04 -1.21137826e-03
      2.41051399e-04 -3.14052100e-04 1.69113962e-04 1.43199795e-04
      -1.83774609e-04 3.69374896e-03 1.13704717e-02 6.28091337e-04
      -1.55712396e-03 3.04865738e-04 -4.04551742e-04 2.17841836e-04
      1.84718781e-04 -2.36915308e-04 3.69339553e-03 1.13699688e-02
      6.27549249e-04 -1.55748834e-03 3.10044474e-04 -4.03777347e-04
      2.17416993e-04 1.84171629e-04 -2.38981316e-04 4.74767061e-03
      1.46183455e-02 8.07044969e-04 -2.00201920e-03 3.92126298e-04
      -5.20132657e-04 2.80063075e-04 2.37568704e-04 -3.08076706e-04
      4.55789128e-03 5.38305612e-03 -4.36443463e-03 1.31633529e-03
      1.99309736e-03 -1.13586453e-03 -2.38080160e-03 5.49174671e-04
      4.31356346e-03 5.86015964e-03 6.92105480e-03 -5.61139826e-03
      1.69246027e-03 2.56259297e-03 -1.46039610e-03 -3.06086754e-03
      7.06109277e-04 5.54607110e-03 5.86034264e-03 6.92105386e-03
      -5.61126880e-03 1.69244641e-03 2.56244210e-03 -1.46032474e-03
      -3.06099746e-03 7.06100662e-04 5.54628018e-03 7.53474422e-03
      8.89847614e-03 -7.21446378e-03 2.17604032e-03 3.29461787e-03
      -1.87755923e-03 -3.93535756e-03 9.07879323e-04 7.13100936e-03
      2.02642544e-03 -1.56870973e-03 1.99329248e-03 2.97260191e-03
      4.48891101e-03 1.11713982e-03 -5.74000005e-04 -1.52106083e-03
      4.52593528e-03 2.60537746e-03 -2.01696041e-03 2.56280066e-03
      3.82188451e-03 5.77175198e-03 1.43633212e-03 -7.37894094e-04
      -1.95562281e-03 5.81907015e-03 2.60481774e-03 -2.01696274e-03
      2.56278645e-03 3.82190174e-03 5.77132171e-03 1.43632409e-03
      -7.37869937e-04 -1.95579813e-03 5.81841078e-03 3.34901805e-03
      -2.59329914e-03 3.29500530e-03 4.91383206e-03 7.42064975e-03
      1.84671441e-03 -9.48554254e-04 -2.51456373e-03 7.48082716e-03
      -9.79281846e-04 -8.58409039e-04 1.97963859e-03 3.43792257e-03
      1.77554064e-03 2.13660672e-03 -4.66571515e-03 -2.55743321e-03
      3.45739024e-03 -1.25731761e-03 -1.10438128e-03 2.54475884e-03
      4.41993354e-03 2.29210430e-03 2.74885260e-03 -5.99834649e-03
      -3.28867300e-03 4.44507645e-03 -1.25990179e-03 -1.10289350e-03
      2.54493323e-03 4.42019990e-03 2.28279317e-03 2.74739438e-03
      -5.99892018e-03 -3.28886765e-03 4.44437517e-03 -1.61761348e-03
      -1.41892210e-03 3.27142677e-03 5.68278925e-03 2.94693327e-03
      3.53466230e-03 -7.71234510e-03 -4.22924291e-03 5.71401883e-03
      -2.61368649e-03 -2.78228405e-03 -2.95445061e-04 2.04149820e-03
      6.31419430e-03 4.02290421e-03 4.20571398e-03 -2.66273535e-04
      -2.06938596e-03 -3.35991546e-03 -3.57744866e-03 -3.80045385e-04
      2.62481626e-03 8.11833236e-03 5.17228153e-03 5.40732965e-03
      -3.42342129e-04 -2.66010640e-03 -3.36412201e-03 -3.57730058e-03
      -3.80039011e-04 2.62478204e-03 8.11771024e-03 5.17229130e-03
      5.40724630e-03 -3.42397107e-04 -2.66757794e-03 -4.32460709e-03
      -4.59967740e-03 -4.88863618e-04 3.37476213e-03 1.04371626e-02
      6.65005762e-03 6.95215212e-03 -4.40212927e-04 -3.42905778e-03
      -1.82663626e-03 1.69032346e-03 3.29969887e-04 -1.09657319e-03
      2.17282376e-03 1.03068782e-03 2.20832578e-03 -2.52240774e-04
      1.09411217e-03 -2.34857341e-03 2.17336696e-03 4.24333266e-04
      -1.40991935e-03 2.79322942e-03 1.32518215e-03 2.83954781e-03
      -3.24169698e-04 1.40667497e-03 -2.35189172e-03 2.17340840e-03
      4.24411963e-04 -1.40988664e-03 2.79344921e-03 1.32516446e-03
      2.83924723e-03 -3.24297667e-04 1.40279578e-03 -3.02391383e-03
      2.79450440e-03 5.45782852e-04 -1.81276142e-03 3.59106157e-03
      1.70379807e-03 3.65081057e-03 -4.16774739e-04 1.80354237e-03
      -1.04610506e-03 4.44289856e-03 2.20173853e-03 2.70773569e-04
      2.73659406e-03 1.03576318e-03 -1.62934698e-03 3.89863155e-03
      -5.41757501e-04 -1.34502165e-03 5.71228610e-03 2.83077569e-03
      3.48152651e-04 3.51937138e-03 1.33167359e-03 -2.09520292e-03
      5.01248334e-03 -6.96524105e-04 -1.34793192e-03 5.71218599e-03
      2.83067720e-03 3.48143105e-04 3.51845659e-03 1.33168721e-03
      -2.09522620e-03 5.01242792e-03 -6.99731405e-04 -1.73309329e-03
      7.34422309e-03 3.63940187e-03 4.47632134e-04 4.52487823e-03
      1.71214121e-03 -2.69428478e-03 6.44449517e-03 -8.99627281e-04
      8.55067163e-04 -7.91396655e-04 1.74870109e-03 1.36855664e-03
      5.31547295e-04 3.34972050e-03 2.05526507e-04 -5.31420927e-04
      4.24567610e-03 1.09905063e-03 -1.01752335e-03 2.24820850e-03
      1.75953167e-03 6.82934478e-04 4.30660788e-03 2.64255505e-04
      -6.83343387e-04 5.45832701e-03 1.09837262e-03 -1.01745292e-03
      2.24832725e-03 1.75954727e-03 6.83201826e-04 4.30684350e-03
      2.64717120e-04 -6.82976795e-04 5.45774959e-03 1.41178013e-03
      -1.30817096e-03 2.89055007e-03 2.26222188e-03 8.77781655e-04
      5.53714437e-03 3.40360391e-04 -8.78225605e-04 7.01659359e-03
      8.78348728e-05 -2.59637157e-03 2.03050833e-04 3.84404301e-03
      3.44624463e-03 6.89628068e-04 5.74257690e-03 2.82568717e-03
      9.52332630e-04 1.13002381e-04 -3.33820749e-03 2.61045090e-04
      4.94237803e-03 4.43091616e-03 8.86697671e-04 7.38273468e-03
      3.63207096e-03 1.22451736e-03 1.13959082e-04 -3.33851366e-03
      2.60175584e-04 4.94234636e-03 4.43072198e-03 8.86670838e-04
      7.38409860e-03 3.63324024e-03 1.22488581e-03 1.46610721e-04
      -4.29239497e-03 3.34485259e-04 6.35449262e-03 5.69668226e-03
      1.14004815e-03 9.49309580e-03 4.67007933e-03 1.57496857e-03
      5.97908976e-04 2.28290446e-03 2.70970841e-03 -1.14379334e-03
      1.77729514e-03 3.30342969e-04 5.51641639e-03 5.12580900e-03
      3.23943119e-03 7.68861268e-04 2.93501676e-03 3.48356599e-03
      -1.47172017e-03 2.29040277e-03 4.27087245e-04 7.09297974e-03
      6.59028301e-03 4.16505383e-03 7.66509736e-04 2.93509453e-03
      3.48406751e-03 -1.47025054e-03 2.28461926e-03 4.24732629e-04
      7.09239393e-03 6.59025274e-03 4.16294811e-03 9.85668274e-04
      3.77350487e-03 4.47907299e-03 -1.89177296e-03 2.94419331e-03
      5.49119490e-04 9.11936350e-03 8.47312808e-03 5.35245426e-03
      -7.20583834e-04 -7.15057889e-04 3.93306930e-03 1.63820304e-03
      2.95110978e-03 -1.52887742e-03 6.50050165e-03 3.94532504e-03
      2.05024658e-03 -9.26966488e-04 -9.19243379e-04 5.05715888e-03
      2.10625096e-03 3.79376602e-03 -1.96576933e-03 8.35261494e-03
      5.07094804e-03 2.63550528e-03 -9.24086955e-04 -9.19183251e-04
      5.05735027e-03 2.10611569e-03 3.79369757e-03 -1.96570856e-03
      8.36074259e-03 5.07451687e-03 2.63856817e-03 -1.18875667e-03
      -1.18165626e-03 6.50276430e-03 2.70784996e-03 4.87694563e-03
      -2.52742879e-03 1.07428739e-02 6.52230531e-03 3.39176762e-03
      9.08181537e-04 2.73313606e-03 6.11063745e-03 -1.81801457e-04
      2.35908912e-04 -7.43479119e-04 5.36955614e-03 3.05367284e-03
      4.73969645e-04 1.16730260e-03 3.51411104e-03 7.85675552e-03
      -2.33720828e-04 3.03522946e-04 -9.55922238e-04 6.90414850e-03
      3.92624363e-03 6.09010109e-04 1.16742135e-03 3.51401069e-03
      7.85642862e-03 -2.33728992e-04 3.03032313e-04 -9.55872296e-04
      6.90345000e-03 3.92607460e-03 6.09150913e-04 1.50050805e-03
      4.51811403e-03 1.01014059e-02 -3.00477579e-04 3.89884721e-04
      -1.22900482e-03 8.87642056e-03 5.04792994e-03 7.82706076e-04
      1.58962281e-03 4.39205579e-03 3.34787648e-03 1.58285652e-03
      7.27860956e-03 -4.57501621e-04 4.58961446e-03 3.20771872e-03
      2.11605779e-03 2.04306794e-03 5.64687699e-03 4.30439040e-03
      2.03534588e-03 9.35704075e-03 -5.88270254e-04 5.90134040e-03
      4.12452687e-03 2.71994411e-03 2.04083975e-03 5.64690400e-03
      4.30434244e-03 2.03509862e-03 9.35737416e-03 -5.87583112e-04
      5.90107404e-03 4.12380509e-03 2.71769078e-03 2.62299436e-03
      7.26023782e-03 5.53412689e-03 2.61686952e-03 1.20294038e-02
      -7.55533692e-04 7.58761913e-03 5.30244224e-03 3.49327293e-03
      5.83407329e-03 3.66448751e-03 7.20824767e-03 3.56697058e-03
      3.13956896e-03 -1.76553396e-04 -1.81862223e-03 -3.12246848e-04
      2.42458005e-03 7.50088599e-03 4.71184123e-03 9.26867407e-03
      4.58611036e-03 4.03744355e-03 -2.27728044e-04 -2.33832351e-03
      -4.01416211e-04 3.11730150e-03 7.50170415e-03 4.71168710e-03
      9.26780142e-03 4.58593573e-03 4.03671945e-03 -2.27119672e-04
      -2.33772676e-03 -4.01406927e-04 3.11831338e-03 9.64496378e-03
      6.05834275e-03 1.19169354e-02 5.89620974e-03 5.19116689e-03
      -2.92951096e-04 -3.00577097e-03 -5.16038155e-04 4.00923938e-03
      5.99527545e-03 1.64299819e-03 3.69942817e-03 2.85354792e-03
      8.44398420e-03 5.93956036e-04 1.04890123e-03 1.91659969e-03
      5.87350037e-03 7.70817092e-03 2.11253134e-03 4.75650048e-03
      3.66884959e-03 1.08573930e-02 7.63968215e-04 1.35076372e-03
      2.46439432e-03 7.55158626e-03 7.70857604e-03 2.11246917e-03
      4.75652795e-03 3.66884377e-03 1.08565381e-02 7.63229968e-04
      1.34710665e-03 2.46399874e-03 7.55178416e-03 9.91097465e-03
      2.71616690e-03 6.11565588e-03 4.71708737e-03 1.39594888e-02
      9.81694902e-04 1.73479156e-03 3.16824904e-03 9.70936380e-03
      6.42952276e-03 2.33923830e-03 2.53848638e-03 2.55768187e-03
      7.72767002e-03 2.25389120e-03 5.78540191e-03 2.98492913e-03
      7.06984196e-03 8.26659799e-03 3.00779846e-03 3.26441438e-03
      3.28844972e-03 9.93675180e-03 2.89881020e-03 7.43836537e-03
      3.83772515e-03 9.08989180e-03 8.26666132e-03 3.00776027e-03
      3.26432008e-03 3.28845088e-03 9.93536972e-03 2.89785350e-03
      7.43841240e-03 3.83776426e-03 9.08992626e-03 1.06286518e-02
      3.86738521e-03 4.19781404e-03 4.22801031e-03 1.27755599e-02
      3.72703350e-03 9.56366211e-03 4.93421638e-03 1.16871689e-02
      5.46927471e-03 3.60082928e-03 1.02028833e-03 -1.27090886e-03
      2.36213370e-03 1.97532144e-03 5.74016420e-04 3.40255699e-03
      4.90580359e-03 7.03138951e-03 4.62956820e-03 1.31161208e-03
      -1.63401244e-03 3.03682918e-03 2.53957929e-03 7.37813942e-04
      4.37468570e-03 6.30694628e-03 7.03220954e-03 4.62946296e-03
      1.31140498e-03 -1.63403328e-03 3.03684408e-03 2.53970083e-03
      7.38068891e-04 4.37487708e-03 6.30779145e-03 9.04072355e-03
      5.95207792e-03 1.68585114e-03 -2.10088375e-03 3.90425720e-03
      3.26517597e-03 9.48679575e-04 5.62480278e-03 8.10935535e-03
      5.98487770e-03 -2.42081308e-03 -2.01770524e-03 1.95599953e-03
      1.22958270e-03 2.16922909e-03 4.48099570e-03 2.21051136e-03
      6.41704397e-03 7.69481016e-03 -3.11247329e-03 -2.59410101e-03
      2.51486804e-03 1.58163218e-03 2.78898817e-03 5.76138962e-03
      2.84194620e-03 8.25047772e-03 7.69539876e-03 -3.11254268e-03
      -2.59428076e-03 2.51489878e-03 1.58015545e-03 2.78897933e-03
      5.76129556e-03 2.84225703e-03 8.25088471e-03 9.89404321e-03
      -4.00184048e-03 -3.33538605e-03 3.23345605e-03 2.03257962e-03
      3.58580356e-03 7.40752043e-03 3.65415053e-03 1.06082717e-02
      8.46350740e-04 3.33571667e-03 7.52698223e-04 1.26025465e-04
      5.90622937e-03 1.47884223e-03 3.50705395e-03 1.32177607e-03
      3.26075079e-03 1.08826195e-03 4.28880751e-03 9.67870816e-04
      1.61165997e-04 7.59255560e-03 1.90118188e-03 4.50899033e-03
      1.69937965e-03 4.19248734e-03 1.08734565e-03 4.28886944e-03
      9.67258180e-04 1.61965596e-04 7.59451510e-03 1.90133648e-03
      4.50931024e-03 1.69977976e-03 4.19212459e-03 1.39814045e-03
      5.51429763e-03 1.24376616e-03 2.07127538e-04 9.76287574e-03
      2.44433549e-03 5.79758314e-03 2.18537101e-03 5.38999448e-03
      2.91835866e-03 2.31512892e-03 -3.30278213e-04 1.58169627e-04
      3.45302303e-03 -1.67407747e-03 3.03735049e-03 4.20469604e-03
      4.26604971e-03 3.75199039e-03 2.97654350e-03 -4.24734142e-04
      2.01815317e-04 4.44005895e-03 -2.15265946e-03 3.90578108e-03
      5.40620741e-03 5.48476074e-03 3.75265651e-03 2.97667040e-03
      -4.25241189e-04 2.03358868e-04 4.43917513e-03 -2.15267041e-03
      3.90558061e-03 5.40610077e-03 5.48521942e-03 4.82460670e-03
      3.82708223e-03 -5.46855619e-04 2.59473600e-04 5.70810027e-03
      -2.76807183e-03 5.02225338e-03 6.95091905e-03 7.05221761e-03
      1.98526843e-03 1.10596512e-03 -3.53504700e-04 2.57465453e-03
      3.05784564e-03 3.32481926e-03 2.26588710e-03 6.99772791e-04
      2.63151061e-03 2.55220430e-03 1.42194517e-03 -4.54527180e-04
      3.30982031e-03 3.92066501e-03 4.27475665e-03 2.91332509e-03
      8.99692124e-04 3.38312192e-03 2.55255331e-03 1.42202014e-03
      -4.54472029e-04 3.31002451e-03 3.93185997e-03 4.27477155e-03
      2.91312370e-03 8.99658538e-04 3.38344579e-03 3.28149064e-03
      1.82829925e-03 -5.84347930e-04 4.25516721e-03 5.04129799e-03
      5.49612055e-03 3.74549883e-03 1.15668366e-03 4.34982497e-03
      -1.69154350e-03 2.26887851e-03 5.31182950e-03 1.21691781e-04
      -4.03900025e-03 3.04468675e-03 1.00300764e-03 -1.24291109e-03
      1.03572581e-03 -2.17475020e-03 2.91711814e-03 6.82955841e-03
      1.56463007e-04 -5.19243162e-03 3.91484750e-03 1.28954439e-03
      -1.59837201e-03 1.33166218e-03 -2.17495556e-03 2.91659124e-03
      6.82910858e-03 1.56464826e-04 -5.19262487e-03 3.91460629e-03
      1.28954404e-03 -1.59790332e-03 1.33171643e-03 -2.79625482e-03
      3.74988816e-03 8.78036488e-03 2.01172064e-04 -6.67550089e-03
      5.03338734e-03 1.65793754e-03 -2.05488876e-03 1.71222549e-03
      -1.92863925e-03 -2.29521515e-03 2.31747166e-03 3.11191869e-03
      5.92153845e-03 1.72246958e-03 -6.48236135e-04 -1.52454677e-03
      5.91801887e-04 -2.47974298e-03 -2.95089185e-03 2.97991582e-03
      4.00104839e-03 7.60478852e-03 2.21468508e-03 -8.33260827e-04
      -1.96008151e-03 7.60726980e-04 -2.47999071e-03 -2.95078033e-03
      2.97959172e-03 4.00079601e-03 7.61349546e-03 2.21458729e-03
      -8.33348022e-04 -1.96013064e-03 7.60897296e-04 -3.18864244e-03
      -3.79373319e-03 3.83130158e-03 5.14389342e-03 9.77769960e-03
      2.84743076e-03 -1.07120851e-03 -2.52010277e-03 9.78089985e-04
      -1.51477623e-04 -1.86510815e-03 7.13980480e-05 4.17926908e-03
      3.01740412e-03 1.51935220e-03 2.16374453e-03 -1.55727472e-03
      -8.70413322e-04 -1.94627108e-04 -2.39796680e-03 9.17854632e-05
      5.37334662e-03 3.87860299e-03 1.95412314e-03 2.78228521e-03
      -2.00222363e-03 -1.11896719e-03 -1.94886903e-04 -2.39803875e-03
      9.16617282e-05 5.37335873e-03 3.87970242e-03 1.95354270e-03
      2.78248847e-03 -2.00205599e-03 -1.11925171e-03 -2.50402081e-04
      -3.08315363e-03 1.17835174e-04 6.90860394e-03 4.98701073e-03
      2.51255906e-03 3.57790710e-03 -2.57408875e-03 -1.43886264e-03
      3.15669645e-03 -2.33468236e-04 3.03883658e-04 -1.67098059e-03
      3.40299634e-03 2.61184690e-03 1.82379095e-03 -1.84116582e-03
      -2.93523818e-03 4.05861903e-03 -3.00379674e-04 3.90664587e-04
      -2.14865850e-03 4.37692972e-03 3.35785816e-03 2.34477106e-03
      -2.36719032e-03 -3.77378729e-03 4.05861437e-03 -3.00785148e-04
      3.90633009e-04 -2.14839703e-03 4.37515602e-03 3.35810613e-03
      2.34495872e-03 -2.36770697e-03 -3.77372373e-03 5.21823112e-03
      -3.86989181e-04 5.02186711e-04 -2.76255212e-03 5.62732108e-03
      4.31726826e-03 3.01481527e-03 -3.04416544e-03 -4.85181436e-03
      -2.12289067e-03 -2.49290862e-03 1.99864293e-03 1.70774374e-03
      3.49606830e-03 2.09060521e-03 1.61535782e-03 -8.84599867e-04
      -2.05657724e-03 -2.72948854e-03 -3.20543302e-03 2.56960932e-03
      2.19551637e-03 4.49489197e-03 2.68780068e-03 2.07701209e-03
      -1.13727013e-03 -2.64415750e-03 -2.73144082e-03 -3.20521230e-03
      2.56951246e-03 2.19567656e-03 4.49483469e-03 2.68790661e-03
      2.07692385e-03 -1.13740168e-03 -2.64480733e-03 -3.51192756e-03
      -4.12132684e-03 3.30356229e-03 2.82281474e-03 5.77900559e-03
      3.45572503e-03 2.67048995e-03 -1.46227994e-03 -3.40044894e-03
      4.48956853e-04 2.61439965e-03 -1.02545845e-03 -7.01610115e-04
      3.85067915e-03 -1.58242451e-03 -1.65656049e-04 1.60614640e-04
      -5.11071354e-04 5.77216328e-04 3.36133433e-03 -1.31843961e-03
      -9.02087137e-04 4.95103840e-03 -2.03479175e-03 -2.13010746e-04
      2.06499055e-04 -6.57045573e-04 5.76914812e-04 3.36131058e-03
      -1.31809164e-03 -9.02128464e-04 4.95086703e-03 -2.03452795e-03
      -2.12880477e-04 2.06684927e-04 -6.57274912e-04 7.41730037e-04
      4.32163849e-03 -1.69468089e-03 -1.15990127e-03 6.36561261e-03
      -2.61613843e-03 -2.73734564e-04 2.65730487e-04 -8.45009054e-04
      -8.12043715e-03 8.62956629e-04 -1.16858608e-03 1.73680135e-03
      2.44713784e-03 2.20777793e-03 2.83406163e-03 2.71630590e-03
      -2.08955095e-03 -1.04405172e-02 1.10949227e-03 -1.50265277e-03
      2.23287451e-03 3.14668124e-03 2.83863279e-03 3.64421564e-03
      3.49239912e-03 -2.68652919e-03 -1.04402341e-02 1.10967469e-03
      -1.50252343e-03 2.23303633e-03 3.14684166e-03 2.83820811e-03
      3.64355044e-03 3.49218445e-03 -2.68635037e-03 -1.34231010e-02
      1.42669410e-03 -1.93205441e-03 2.87084607e-03 4.04640334e-03
      3.64920311e-03 4.68510715e-03 4.48995968e-03 -3.45383165e-03
      -3.63668124e-03 2.57609226e-03 -1.35928288e-03 9.11762298e-04
      2.99028005e-03 2.79630302e-03 -2.09607999e-03 1.38484163e-03
      -3.36892228e-03 -4.67584934e-03 3.31211928e-03 -1.74764218e-03
      1.17226411e-03 3.84473824e-03 3.59524018e-03 -2.69474299e-03
      1.78067549e-03 -4.33152961e-03 -4.67438903e-03 3.31212091e-03
      -1.74767198e-03 1.17227924e-03 3.84385907e-03 3.59525881e-03
      -2.69528897e-03 1.78035302e-03 -4.33014147e-03 -6.01007883e-03
      4.25844174e-03 -2.24699755e-03 1.50721322e-03 4.94222343e-03
      4.62246733e-03 -3.46509134e-03 2.28923629e-03 -5.56739932e-03
      2.94561894e-03 1.18698482e-03 3.30325100e-04 1.77712669e-03
      1.08152011e-03 1.52373558e-03 6.41447958e-04 -2.34801997e-03
      -2.55451701e-03 3.78721720e-03 1.52612152e-03 4.24734695e-04
      2.28488096e-03 1.39632565e-03 1.95991807e-03 8.24727176e-04
      -3.01884324e-03 -3.28433607e-03 3.78732104e-03 1.52617751e-03
      4.24704544e-04 2.28489866e-03 1.39053504e-03 1.95880677e-03
      8.24685383e-04 -3.01898201e-03 -3.28438939e-03 4.86940378e-03
      1.96222565e-03 5.46088675e-04 2.93773157e-03 1.79528783e-03
      2.51953257e-03 1.06031960e-03 -3.88149661e-03 -4.22273157e-03
      -6.11498603e-04 2.23184863e-04 8.58470739e-04 5.84982045e-04
      4.22564941e-03 -1.07556232e-03 3.26822791e-03 -2.79274653e-04
      3.37026757e-03 -7.86078686e-04 2.86960567e-04 1.10373599e-03
      7.52117136e-04 5.43240691e-03 -1.38302194e-03 4.20186715e-03
      -3.58672172e-04 4.33389703e-03 -7.87059776e-04 2.87046394e-04
      1.10363890e-03 7.52115971e-04 5.43284090e-03 -1.38372299e-03
      4.20212653e-03 -3.59056459e-04 4.33307188e-03 -1.01176195e-03
      3.69071087e-04 1.41894852e-03 9.67002881e-04 6.98434748e-03
      -1.77927315e-03 5.40255383e-03 -4.61134710e-04 5.57198701e-03
      6.84271276e-04 2.00874731e-03 8.24734510e-04 2.03619059e-03
      2.02304800e-03 -7.90380058e-04 4.72676195e-03 1.84632459e-04
      -9.95416427e-04 8.79683939e-04 2.58264411e-03 1.06022332e-03
      2.61784880e-03 2.60204705e-03 -1.01682090e-03 6.07752986e-03
      2.37499829e-04 -1.27988053e-03 8.80164793e-04 2.58268486e-03
      1.06042111e-03 2.61806115e-03 2.60082772e-03 -1.01618341e-03
      6.07682252e-03 2.37358763e-04 -1.27950567e-03 1.13151944e-03
      3.32055497e-03 1.36320642e-03 3.36593669e-03 3.34518752e-03
      -1.30731659e-03 7.81339779e-03 3.05324269e-04 -1.64515676e-03
      4.03664075e-03 4.59607877e-03 2.73427507e-03 -8.23767259e-05
      -1.20029284e-03 -7.19016942e-04 2.20654928e-03 1.98625936e-03
      5.22674387e-03 5.18991100e-03 5.90885850e-03 3.51537182e-03
      -1.04678191e-04 -1.53395196e-03 -9.23484855e-04 2.83678761e-03
      2.55383668e-03 6.72021462e-03 5.17909229e-03 5.90911508e-03
      3.51586472e-03 -1.05806612e-04 -1.54345622e-03 -9.24442837e-04
      2.83716107e-03 2.55381363e-03 6.70902571e-03 6.65876083e-03
      7.59693841e-03 4.52023558e-03 -1.34449278e-04 -1.97251001e-03
      -1.18732685e-03 3.64751648e-03 3.28357029e-03 8.62603821e-03
      3.10181268e-03 -2.39772908e-05 -6.53572031e-04 1.53376648e-04
      4.98644356e-03 -7.29656313e-04 5.23640634e-03 5.17137023e-03
      1.40964391e-03 3.98803595e-03 -3.09270072e-05 -8.40598892e-04
      1.97209083e-04 6.41120505e-03 -9.38159239e-04 6.73270691e-03
      6.64898753e-03 1.81241694e-03 3.98771884e-03 -3.07121190e-05
      -8.40214605e-04 1.97199188e-04 6.41122693e-03 -9.38130543e-04
      6.73195673e-03 6.64883759e-03 1.81196106e-03 5.12705650e-03
      -3.96137439e-05 -1.08065107e-03 2.53555976e-04 8.24308768e-03
      -1.20620592e-03 8.65561049e-03 8.54861271e-03 2.32968619e-03
      7.58284063e-04 5.17960347e-04 1.36458490e-03 1.56262045e-04
      2.27443874e-03 2.64776172e-03 7.47741992e-03 3.08770989e-03
      1.51067320e-03 9.74802417e-04 6.65815431e-04 1.75408542e-03
      2.00918977e-04 2.92435754e-03 3.40444339e-03 9.61380266e-03
      3.96988355e-03 1.94216683e-03 9.74669179e-04 6.65830099e-04
      1.75407098e-03 2.00897921e-04 2.92401877e-03 3.40426061e-03
      9.61354002e-03 3.96974385e-03 1.94197672e-03 1.25297369e-03
      8.55895865e-04 2.25474406e-03 2.58311571e-04 3.75955622e-03
      4.37713508e-03 1.23602366e-02 5.10391872e-03 2.49666325e-03
      4.38101124e-03 4.14781878e-03 4.53647086e-03 8.54543468e-04
      9.35846288e-03 1.37160439e-03 3.36016854e-03 -2.45939149e-03
      -1.11241662e-03 5.63252252e-03 5.33298170e-03 5.83267724e-03
      1.09869824e-03 1.20335482e-02 1.76357082e-03 4.32104431e-03
      -3.16208485e-03 -1.43046386e-03 5.63263195e-03 5.33325179e-03
      5.83257340e-03 1.09868927e-03 1.20313810e-02 1.76349876e-03
      4.31977864e-03 -3.16222548e-03 -1.43034547e-03 7.24168960e-03
      6.85713021e-03 7.49911414e-03 1.41259970e-03 1.54705122e-02
      2.26745778e-03 5.55506488e-03 -4.06573154e-03 -1.83929096e-03
      6.84480369e-03 4.19658422e-03 4.91847750e-03 5.83694282e-06
      5.22993086e-03 -2.13022460e-03 5.54087898e-03 5.65416354e-04
      3.73670598e-03 8.80077668e-03 5.39568020e-03 6.32395316e-03
      7.50608160e-06 6.72339601e-03 -2.73867347e-03 7.12424191e-03
      7.27001578e-04 4.80464147e-03 8.80050659e-03 5.39570907e-03
      6.32405933e-03 7.50039044e-06 6.72378018e-03 -2.73885042e-03
      7.12385168e-03 7.27028237e-04 4.80439700e-03 1.13153420e-02
      6.93743257e-03 8.13118462e-03 9.64555784e-06 8.64383113e-03
      -3.52113927e-03 9.15956590e-03 9.34798969e-04 6.17747428e-03
      6.97972532e-03 3.88535648e-03 5.75459329e-03 2.23204354e-03
      1.55777647e-03 -2.50139413e-03 1.89121987e-03 7.68353231e-04
      8.37146118e-03 8.97378661e-03 4.99537122e-03 7.39849964e-03
      2.86976411e-03 2.00454006e-03 -3.21597117e-03 2.43213493e-03
      9.88065149e-04 1.07631683e-02 8.97388346e-03 4.99555888e-03
      7.39911804e-03 2.86990218e-03 2.00269069e-03 -3.21596256e-03
      2.43094913e-03 9.87405656e-04 1.07627166e-02 1.15376618e-02
      6.42274972e-03 9.51281283e-03 3.68986651e-03 2.57705408e-03
      -4.13467130e-03 3.12623358e-03 1.26975600e-03 1.38375992e-02
      4.25647758e-03 2.24320815e-04 -2.84681050e-03 -1.68403878e-03
      4.54278663e-03 1.00386725e-03 3.82375484e-03 3.37248016e-03
      6.93288632e-03 5.47245657e-03 2.88345997e-04 -3.66031122e-03
      -2.16519996e-03 5.84041141e-03 1.29060342e-03 4.91595315e-03
      4.33596922e-03 8.91355332e-03 5.47241466e-03 2.88546697e-04
      -3.65980249e-03 -2.16520391e-03 5.84074762e-03 1.29057257e-03
      4.91626235e-03 4.33618668e-03 8.91353842e-03 7.03575974e-03
      3.70903930e-04 -4.70562372e-03 -2.78384308e-03 7.50912819e-03
      1.65920088e-03 6.32051844e-03 5.57499845e-03 1.14600621e-02
      3.77467764e-03 1.27859856e-03 1.49617635e-03 -3.16639314e-03
      2.16621859e-03 1.63076329e-03 3.21712205e-03 4.01212880e-03
      4.98942239e-03 4.85269073e-03 1.64390681e-03 1.92367553e-03
      -4.07109130e-03 2.78605660e-03 2.09620083e-03 4.13575256e-03
      5.15844207e-03 6.41450845e-03 4.85384092e-03 1.64399820e-03
      1.92364899e-03 -4.07095393e-03 2.78447289e-03 2.09675357e-03
      4.13608225e-03 5.15765185e-03 6.41351845e-03 6.24005310e-03
      2.11370550e-03 2.47328845e-03 -5.23410272e-03 3.58121772e-03
      2.69519002e-03 5.31711569e-03 6.63125375e-03 8.24535638e-03
      1.97977643e-03 -3.99030279e-04 4.67862934e-03 3.48059955e-04
      3.27642891e-03 2.16787797e-03 1.57476834e-03 1.66042522e-03
      8.28449335e-03 2.54521100e-03 -5.13136678e-04 6.01512566e-03
      4.47601458e-04 4.21259413e-03 2.78715068e-03 2.02427246e-03
      2.13469821e-03 1.06512690e-02 2.54551321e-03 -5.13688952e-04
      6.01538830e-03 4.47507831e-04 4.21247073e-03 2.78726732e-03
      2.02544406e-03 2.13532778e-03 1.06517794e-02 3.27252597e-03
      -6.60582562e-04 7.73374224e-03 5.75490296e-04 5.41608874e-03
      3.58347455e-03 2.60358956e-03 2.74524908e-03 1.36948600e-02
      -8.11575737e-04 2.20929692e-03 2.62197759e-03 1.62709504e-03
      2.70863902e-03 7.63211749e-04 3.27232969e-03 7.53835309e-04
      3.71178752e-03 -1.04378955e-03 2.84049450e-03 3.37123545e-03
      2.09195446e-03 3.48197436e-03 9.82223195e-04 4.20751330e-03
      9.69208893e-04 4.77195159e-03 -1.04381947e-03 2.84143165e-03
      3.37157538e-03 2.09254748e-03 3.48186865e-03 9.81284655e-04
      4.20726929e-03 9.68911336e-04 4.77170013e-03 -1.34248438e-03
      3.65323084e-03 4.33503790e-03 2.69038579e-03 4.47596703e-03
      1.26287458e-03 5.40964399e-03 1.24573265e-03 6.13459665e-03
      -1.29655970e-03 -1.72326108e-03 2.10471847e-03 -6.05275505e-04
      1.21076743e-03 1.40368554e-03 3.09505872e-03 -4.18334443e-04
      3.62490048e-03 -1.66725542e-03 -2.21563014e-03 2.70346506e-03
      -7.78251560e-04 1.55660266e-03 1.80484436e-03 3.97944171e-03
      -5.37618122e-04 4.66008531e-03 -1.66683062e-03 -2.21534702e-03
      2.70497636e-03 -7.79088121e-04 1.55671709e-03 1.80468161e-03
      3.97916092e-03 -5.37064567e-04 4.66079544e-03 -2.14338978e-03
      -2.84831552e-03 3.47448164e-03 -1.00173685e-03 2.00136681e-03
      2.32044095e-03 5.11616841e-03 -6.90202054e-04 5.99180721e-03
      3.10514850e-04 2.61971122e-03 1.74324727e-03 -1.92098122e-03
      2.05783546e-03 7.76300847e-04 2.29227100e-03 7.30770116e-04
      3.32638994e-03 4.00122721e-04 3.36814579e-03 2.24121171e-03
      -2.46977946e-03 2.64501013e-03 9.98126110e-04 2.94722221e-03
      9.39578924e-04 4.27687401e-03 3.99461453e-04 3.36819934e-03
      2.24129087e-03 -2.47003371e-03 2.64554471e-03 9.97909810e-04
      2.94625340e-03 9.39237594e-04 4.27696016e-03 5.14736515e-04
      4.33047256e-03 2.88152369e-03 -3.17568751e-03 3.40041379e-03
      1.28305820e-03 3.78806121e-03 1.20761339e-03 5.49906073e-03
      1.42695077e-04 1.65039627e-03 4.86083468e-03 -3.32833407e-03
      -6.20718114e-04 3.09627107e-03 -1.54577196e-03 -2.79426429e-04
      2.22610217e-03 1.83487486e-04 2.12193141e-03 6.24964060e-03
      -4.27932292e-03 -7.97909684e-04 3.98090761e-03 -1.98756903e-03
      -3.59317783e-04 2.86216009e-03 1.83387805e-04 2.12194002e-03
      6.24961779e-03 -4.27931454e-03 -7.98199442e-04 3.98092018e-03
      -1.98733713e-03 -3.59152124e-04 2.86239106e-03 2.35813437e-04
      2.72820098e-03 8.03521741e-03 -5.50202187e-03 -1.02605589e-03
      5.11830999e-03 -2.55533843e-03 -4.61837830e-04 3.68025387e-03
      -5.15297361e-05 1.66592817e-03 -3.50747112e-04 2.42617517e-03
      -3.51782865e-03 9.04508750e-04 3.49471206e-03 2.42518564e-03
      -1.51620957e-03 -6.61581944e-05 2.14159652e-03 -4.50975000e-04
      3.11933481e-03 -4.52279625e-03 1.16291316e-03 4.49284818e-03
      3.11794924e-03 -1.94928178e-03 -6.64145846e-05 2.14179861e-03
      -4.51100350e-04 3.11986520e-03 -4.52328147e-03 1.16292783e-03
      4.49318858e-03 3.11808102e-03 -1.94957945e-03 -8.52681333e-05
      2.75334064e-03 -5.80003893e-04 4.01121238e-03 -5.81548549e-03
      1.49515818e-03 5.77650173e-03 4.00877325e-03 -2.50643445e-03
      -8.05954332e-05 -8.20636749e-04 -3.85509501e-03 -1.35646772e-03
      1.93958418e-04 4.56440495e-03 5.50828176e-03 1.42899051e-03
      1.58719509e-03 -1.03926039e-04 -1.05505029e-03 -4.95644612e-03
      -1.74391095e-03 2.52036785e-04 5.86850196e-03 7.08268723e-03
      1.83737930e-03 2.04043277e-03 -1.03761718e-04 -1.05519744e-03
      -4.95669898e-03 -1.74405333e-03 2.49659555e-04 5.86804887e-03
      7.08201109e-03 1.83726975e-03 2.03968096e-03 -1.33798632e-04
      -1.35661254e-03 -6.37276378e-03 -2.24220078e-03 3.24413006e-04
      7.54461018e-03 9.10622813e-03 2.36233976e-03 2.62212940e-03
      -3.14093730e-03 -1.41291239e-04 -3.18626786e-04 2.86149303e-03
      7.50615727e-04 2.00618780e-03 2.66235112e-03 -1.19779899e-03
      -2.31837924e-03 -4.03829198e-03 -1.81449155e-04 -4.09664790e-04
      3.67905595e-03 9.65255313e-04 2.57933489e-03 3.42272944e-03
      -1.54004374e-03 -2.98058451e-03 -4.03830362e-03 -1.81640527e-04
      -4.09519474e-04 3.67902056e-03 9.65186453e-04 2.57915352e-03
      3.42275505e-03 -1.54015515e-03 -2.98075122e-03 -5.19203441e-03
      -2.33266663e-04 -5.26527758e-04 4.73016035e-03 1.24118337e-03
      3.31599079e-03 4.40030824e-03 -1.98022090e-03 -3.83215165e-03
      -4.83183609e-03 -7.75020395e-04 -3.73159186e-04 2.13067816e-03
      4.18935996e-03 -1.62806449e-04 -2.39728019e-03 3.46966181e-03
      1.58317026e-03 -6.21215347e-03 -9.96450544e-04 -4.79739276e-04
      2.73937872e-03 5.38614998e-03 -2.09323611e-04 -3.08225164e-03
      4.46096621e-03 2.03570374e-03 -6.21271459e-03 -9.96391405e-04
      -4.79564740e-04 2.73958943e-03 5.38643543e-03 -2.09304781e-04
      -3.08223837e-03 4.46100021e-03 2.03517196e-03 -7.98750948e-03
      -1.28106878e-03 -6.16536767e-04 3.52224614e-03 6.92519778e-03
      -2.69107113e-04 -3.96292331e-03 5.73553564e-03 2.61690468e-03
      -4.08931123e-03 7.12452631e-04 5.25538868e-04 1.75601090e-04
      6.32575853e-03 1.15726679e-03 3.51922761e-04 -1.18043390e-03
      -2.78897723e-03 -5.25770802e-03 9.16036544e-04 6.75713818e-04
      2.25766678e-04 8.13337509e-03 1.48790143e-03 4.52473323e-04
      -1.51770026e-03 -3.58582335e-03 -5.25778253e-03 9.16037592e-04
      6.75751653e-04 2.25767231e-04 8.13299976e-03 1.48794276e-03
      4.52418113e-04 -1.51773868e-03 -3.58591415e-03 -6.76003424e-03
      1.17779593e-03 8.68849747e-04 2.90264579e-04 1.04570445e-02
      1.91305229e-03 5.81681554e-04 -1.95137691e-03 -4.61045559e-03
      1.01373903e-03 1.80691655e-03 -1.54401991e-03 8.01097485e-04
      4.94920125e-04 2.75783194e-03 -2.12077517e-03 -9.92412097e-04
      -1.75991061e-03 1.30358618e-03 2.32313597e-03 -1.98523258e-03
      1.02977338e-03 6.36554381e-04 3.54576297e-03 -2.72676395e-03
      -1.27598259e-03 -2.26252805e-03 1.30038918e-03 2.32324307e-03
      -1.98524515e-03 1.02997001e-03 6.36125915e-04 3.54590081e-03
      -2.72673997e-03 -1.27553300e-03 -2.26443773e-03 1.67219539e-03
      2.98697245e-03 -2.55254190e-03 1.32397877e-03 8.18169792e-04
      4.55898792e-03 -3.50587582e-03 -1.64000166e-03 -2.91114487e-03
      -4.12520207e-03 -5.55783161e-04 2.36148038e-03 3.13073443e-03
      2.75181769e-03 3.93396243e-03 -2.90774973e-04 -1.23998558e-03
      -1.78122718e-03 -5.30403899e-03 -7.14556954e-04 3.03618005e-03
      4.02522832e-03 3.53817781e-03 5.05790627e-03 -3.73430928e-04
      -1.59411598e-03 -2.29037530e-03 -5.30361943e-03 -7.14497233e-04
      3.03619308e-03 4.02523112e-03 3.53840971e-03 5.05796121e-03
      -3.74205993e-04 -1.59437547e-03 -2.29029451e-03 -6.81920629e-03
      -9.18611069e-04 3.90366442e-03 5.17529529e-03 4.54954663e-03
      6.50303531e-03 -4.80578485e-04 -2.04971759e-03 -2.94495537e-03
      -2.96830363e-03 1.07666000e-03 -4.66901110e-04 1.91939820e-03
      7.42930779e-03 1.45139999e-03 -1.29419204e-03 -2.46526441e-03
      -1.42653461e-03 -3.81638622e-03 1.38441997e-03 -5.99890191e-04
      2.46779900e-03 9.55124665e-03 1.86630152e-03 -1.66380382e-03
      -3.16959643e-03 -1.83412933e-03 -3.81654664e-03 1.38566375e-03
      -6.00045081e-04 2.46780319e-03 9.55214724e-03 1.86616415e-03
      -1.66386366e-03 -3.16958735e-03 -1.83433015e-03 -4.90698311e-03
      1.78175059e-03 -7.70957384e-04 3.17289098e-03 1.22804055e-02
      2.39963108e-03 -2.13905144e-03 -4.07514675e-03 -2.35844101e-03
      1.04988809e-03 -9.76402138e-04 -9.53614363e-04 3.75123229e-04
      7.96660222e-03 4.68806655e-04 2.01707473e-03 -2.48521275e-04
      -1.06673036e-03 1.34978443e-03 -1.25530479e-03 -1.22601085e-03
      4.82511678e-04 1.02447281e-02 6.02796092e-04 2.59326678e-03
      -3.19260027e-04 -1.37151231e-03 1.34971482e-03 -1.25537300e-03
      -1.22615218e-03 4.82138363e-04 1.02428664e-02 6.02719432e-04
      2.59345490e-03 -3.19464365e-04 -1.37163815e-03 1.73525559e-03
      -1.61396153e-03 -1.57639780e-03 6.20162988e-04 1.31719131e-02
      7.74982211e-04 3.33429314e-03 -4.10396984e-04 -1.76353659e-03
      3.33393854e-03 2.21707462e-03 -1.21402298e-03 -1.54887454e-03
      2.08321679e-03 3.39123979e-03 2.61483458e-03 1.79119071e-03
      5.54854050e-04 4.28653369e-03 2.85054953e-03 -1.56081514e-03
      -1.99138653e-03 2.67855194e-03 4.36017569e-03 3.36256018e-03
      2.30300752e-03 7.13407586e-04 4.28596558e-03 2.85055139e-03
      -1.56079838e-03 -1.99140655e-03 2.67868419e-03 4.36030142e-03
      3.36116366e-03 2.30212347e-03 7.13288900e-04 5.51058073e-03
      3.66502744e-03 -2.00664881e-03 -2.56034941e-03 3.44418990e-03
      5.60611626e-03 4.32230672e-03 2.95993453e-03 9.17115482e-04
      2.03689863e-03 -9.02508735e-04 1.92345306e-03 5.10932514e-05
      2.63423845e-03 -9.58693490e-05 2.93434714e-03 5.60347876e-03
      1.24589412e-03 2.61888211e-03 -1.16048835e-03 2.47265701e-03
      6.56581033e-05 3.38719506e-03 -1.23171762e-04 3.77313979e-03
      7.20453728e-03 1.60187832e-03 2.61883251e-03 -1.16049114e-03
      2.47256993e-03 6.54334508e-05 3.38677992e-03 -1.23254053e-04
      3.77269625e-03 7.20470166e-03 1.60148216e-03 3.36708687e-03
      -1.49221369e-03 3.17856274e-03 8.40858047e-05 4.35483782e-03
      -1.58356546e-04 4.85113449e-03 9.26327053e-03 2.05906830e-03
      2.23938236e-03 -1.19425659e-03 4.94273752e-03 2.13529798e-03
      7.13839941e-03 1.73676468e-03 4.47812025e-03 1.83534145e-03
      -1.59510819e-04 2.88025429e-03 -1.53481751e-03 6.35505049e-03
      2.74528703e-03 9.17804427e-03 2.23300280e-03 5.75791672e-03
      2.36067316e-03 -2.03995209e-04 2.87810061e-03 -1.53461483e-03
      6.35635247e-03 2.74539599e-03 9.17849410e-03 2.23298930e-03
      5.75588504e-03 2.35822541e-03 -2.06289624e-04 3.70176230e-03
      -1.97223341e-03 8.17258377e-03 3.52967088e-03 1.18010538e-02
      2.87101138e-03 7.40085263e-03 3.03322310e-03 -2.63828988e-04
      1.42899586e-03 2.05082726e-03 5.09272655e-03 3.47800436e-03
      3.65848094e-03 6.33261341e-04 5.78945177e-03 -9.56460426e-05
      1.36165787e-03 1.83728652e-03 2.63677514e-03 6.54699467e-03
      4.46114130e-03 4.70536621e-03 8.14188737e-04 7.44451350e-03
      -1.22645448e-04 1.75071973e-03 1.82816805e-03 2.63666455e-03
      6.54747477e-03 4.47072787e-03 4.70272638e-03 8.14198633e-04
      7.44370744e-03 -1.22942191e-04 1.74154993e-03 2.35050963e-03
      3.38999415e-03 8.41715746e-03 5.73447766e-03 6.04842650e-03
      1.04682066e-03 9.57168080e-03 -1.57645845e-04 2.23915628e-03
      6.59257546e-03 2.60747923e-03 7.00189325e-04 -1.75263485e-04
      4.05762112e-03 -7.94023450e-04 6.11181883e-03 4.03665053e-03
      6.22565625e-03 8.47576186e-03 3.35246860e-03 9.00184328e-04
      -2.25361218e-04 5.21719037e-03 -1.02113048e-03 7.85778929e-03
      5.18991984e-03 8.00400320e-03 8.47624335e-03 3.35248536e-03
      9.00266808e-04 -2.25308177e-04 5.21707488e-03 -1.02090079e-03
      7.85845146e-03 5.19011961e-03 8.00442696e-03 1.08975051e-02
      4.31033224e-03 1.15740916e-03 -2.89710937e-04 6.70798821e-03
      -1.31289999e-03 1.01033840e-02 6.67293509e-03 1.02908760e-02
      8.06524884e-03 2.80392868e-03 5.13957068e-03 1.66423898e-03
      -1.36886584e-03 2.42739334e-04 5.74583421e-04 1.23966415e-03
      7.60238618e-03 1.03695840e-02 3.60499066e-03 6.60754740e-03
      2.13920348e-03 -1.75878359e-03 3.12040385e-04 7.38454633e-04
      1.59386755e-03 9.77449864e-03 1.03691015e-02 3.60427238e-03
      6.60777837e-03 2.13972828e-03 -1.76055671e-03 3.12086893e-04
      7.38999981e-04 1.59479689e-03 9.77430306e-03 1.33316740e-02
      4.63398686e-03 8.49510822e-03 2.75039487e-03 -2.26204633e-03
      4.01186000e-04 9.49762121e-04 2.05047149e-03 1.25669641e-02
      5.73830353e-03 1.53159979e-03 -2.25955286e-04 -3.61794396e-03
      5.52129745e-03 1.24352938e-03 4.45427652e-03 2.67447694e-03
      4.24983213e-03 7.37771019e-03 1.96898007e-03 -2.91157077e-04
      -4.65152320e-03 7.10108131e-03 1.59884512e-03 5.72676864e-03
      3.43838939e-03 5.46392007e-03 7.37753231e-03 1.96913932e-03
      -2.90658034e-04 -4.65162052e-03 7.09772808e-03 1.59896712e-03
      5.72736515e-03 3.43905366e-03 5.46425534e-03 9.48525872e-03
      2.53146864e-03 -3.74531461e-04 -5.98050188e-03 9.12857056e-03
      2.05584290e-03 7.36355176e-03 4.42135241e-03 7.02527817e-03
      1.78225897e-03 -6.75399642e-05 -1.11900188e-03 -1.55012694e-03
      6.88333344e-03 2.05273973e-03 4.79026651e-03 3.26884794e-04
      1.10673765e-03 2.29139719e-03 -8.68617717e-05 -1.43872539e-03
      -1.99223915e-03 8.85050837e-03 2.63924478e-03 6.15842547e-03
      4.20112803e-04 1.42286113e-03 2.29106355e-03 -8.68108182e-05
      -1.43870385e-03 -1.99302007e-03 8.85030814e-03 2.63907481e-03
      6.15909323e-03 4.20335971e-04 1.42255228e-03 2.94555211e-03
      -1.11645466e-04 -1.84977392e-03 -2.56145047e-03 1.13796210e-02
      3.39310593e-03 7.91820511e-03 5.40216512e-04 1.82888366e-03
      2.42045033e-03 7.13417656e-04 2.83315126e-03 -1.52916709e-05
      4.63770377e-03 1.69691443e-03 1.07806362e-03 1.99908088e-03
      4.15912457e-03 3.11225327e-03 9.16960300e-04 3.64180980e-03
      -1.96368055e-05 5.96238207e-03 2.18185876e-03 1.38583872e-03
      2.57018209e-03 5.34765795e-03 3.11193336e-03 9.17546975e-04
      3.64241377e-03 -1.97196132e-05 5.96255623e-03 2.18178844e-03
      1.38639915e-03 2.57035415e-03 5.34730079e-03 4.00137343e-03
      1.17932924e-03 4.68205847e-03 -2.53234430e-05 7.66565464e-03
      2.80529982e-03 1.78220088e-03 3.30465753e-03 6.87537389e-03
      -1.61179644e-03 -2.19417922e-03 3.16960039e-03 1.52116828e-03
      3.59337195e-03 4.21905844e-03 4.82475618e-03 -8.47170828e-04
      4.80614929e-03 -2.07216851e-03 -2.82123918e-03 4.07477934e-03
      1.95578230e-03 4.61909873e-03 5.42450789e-03 6.20326214e-03
      -1.08920608e-03 6.17945893e-03 -2.07266817e-03 -2.82114861e-03
      4.07506106e-03 1.95578951e-03 4.61970316e-03 5.42449346e-03
      6.20282348e-03 -1.08934764e-03 6.17900863e-03 -2.66467733e-03
      -3.62738594e-03 5.23882266e-03 2.51457957e-03 5.93839539e-03
      6.97435485e-03 7.97506422e-03 -1.40057190e-03 7.94459879e-03
      -2.92198011e-03 5.53834660e-04 2.27730628e-03 1.36339397e-03
      -3.25445272e-03 4.66535427e-03 8.04826734e-04 1.05806219e-03
      1.87252869e-03 -3.75668518e-03 7.12101639e-04 2.92797643e-03
      1.75292708e-03 -4.18478716e-03 5.99821517e-03 1.03474560e-03
      1.36035588e-03 2.40769726e-03 -3.75680299e-03 7.12124049e-04
      2.92806607e-03 1.75290869e-03 -4.18465631e-03 5.99833066e-03
      1.03501638e-03 1.36044330e-03 2.40758923e-03 -4.82998649e-03
      9.15625424e-04 3.76467058e-03 2.25373008e-03 -5.38090384e-03
      7.71201402e-03 1.33069512e-03 1.74913008e-03 3.09567666e-03
      -1.52293232e-03 -1.29150623e-03 1.05219689e-04 5.04290778e-03
      -5.38737001e-03 2.01022322e-03 4.72007738e-03 9.57466837e-05
      6.37613877e-04 -1.95810385e-03 -1.66046899e-03 1.35350972e-04
      6.48368895e-03 -6.92661991e-03 2.58463179e-03 6.06875354e-03
      1.23121179e-04 8.19729583e-04 -1.95794669e-03 -1.66052335e-03
      1.35266993e-04 6.48372760e-03 -6.92645600e-03 2.58459034e-03
      6.06875215e-03 1.22637226e-04 8.19619105e-04 -2.51742220e-03
      -2.13490846e-03 1.74002009e-04 8.33615661e-03 -8.90544523e-03
      3.32312146e-03 7.80278724e-03 1.57699935e-04 1.05371943e-03
      -1.51381164e-03 -1.77800597e-03 -3.03352805e-04 -5.90669340e-04
      -2.51983316e-03 7.52117543e-04 1.32595375e-03 5.32433763e-03
      3.73437558e-03 -1.94634788e-03 -2.28615198e-03 -3.89977067e-04
      -7.59462360e-04 -3.23987054e-03 9.67222673e-04 1.70459342e-03
      6.84550591e-03 4.80136648e-03 -1.94633007e-03 -2.28600227e-03
      -3.90210189e-04 -7.59448332e-04 -3.24011827e-03 9.67162545e-04
      1.70506234e-03 6.84547191e-03 4.80120862e-03 -2.50244932e-03
      -2.93933111e-03 -5.01637580e-04 -9.76472918e-04 -4.16597584e-03
      1.24377001e-03 2.19196058e-03 8.80123023e-03 6.17301650e-03
      7.78740970e-04 2.21130298e-03 5.62070031e-03 2.44204700e-03
      -4.66207275e-03 -3.41504905e-03 -2.64301151e-03 -4.38938790e-04
      -9.63157450e-04 1.00147433e-03 2.84278300e-03 7.22621800e-03
      3.13990470e-03 -5.99431805e-03 -4.39076638e-03 -3.39855067e-03
      -5.64597140e-04 -1.23782526e-03 1.00157340e-03 2.84208846e-03
      7.22593628e-03 3.14049306e-03 -5.99484611e-03 -4.39127907e-03
      -3.39828385e-03 -5.64301212e-04 -1.23750209e-03 1.28804031e-03
      3.65370093e-03 9.28997993e-03 4.03794320e-03 -7.70794693e-03
      -5.64591587e-03 -4.36972734e-03 -7.25848658e-04 -1.59040582e-03
      -3.69334151e-03 -1.22125889e-03 -3.34444665e-03 -7.12081732e-04
      -1.18024216e-03 3.88501305e-03 6.08382467e-03 2.87584588e-03
      9.35804565e-04 -4.74862894e-03 -1.57023815e-03 -4.30004857e-03
      -9.15418088e-04 -1.51739991e-03 4.99509601e-03 7.82205444e-03
      3.69742396e-03 1.20317936e-03 -4.75202361e-03 -1.57046260e-03
      -4.29998385e-03 -9.15529439e-04 -1.51747453e-03 4.99500567e-03
      7.82210007e-03 3.69762047e-03 1.20001775e-03 -6.10980485e-03
      -2.01922748e-03 -5.52861067e-03 -1.17695960e-03 -1.95096945e-03
      6.42225379e-03 1.00569790e-02 4.75396495e-03 1.54288241e-03
      2.39820243e-03 -2.39590695e-03 -4.18686803e-04 3.10230954e-03
      1.36632740e-03 1.74730056e-04 -2.61885999e-03 -8.66051472e-04
      -4.61170828e-04 3.08323698e-03 -3.08044953e-03 -5.38298918e-04
      3.98871442e-03 1.75759837e-03 2.25393480e-04 -3.36713437e-03
      -1.11351197e-03 -5.93065750e-04 3.08164163e-03 -3.08051636e-03
      -5.38305670e-04 3.98869347e-03 1.75670220e-03 2.24664487e-04
      -3.36755021e-03 -1.11363304e-03 -5.94215584e-04 3.96189746e-03
      -3.96066066e-03 -6.92091242e-04 5.12835989e-03 2.25976249e-03
      2.89807213e-04 -4.32974426e-03 -1.43183547e-03 -7.64160999e-04
      -4.09912039e-03 -4.07597574e-04 -1.77217426e-03 -5.34234743e-04
      1.93369784e-03 -5.13930747e-04 2.98007741e-03 1.09633640e-03
      7.19367701e-04 -5.27058123e-03 -5.24050673e-04 -2.27858522e-03
      -6.87002495e-04 2.48638657e-03 -6.60763122e-04 3.83147877e-03
      1.40962377e-03 9.24764434e-04 -5.27874008e-03 -5.23563242e-04
      -2.27854587e-03 -6.86780782e-04 2.48605874e-03 -6.60774647e-04
      3.83131602e-03 1.40929036e-03 9.18459787e-04 -6.78731548e-03
      -6.73148490e-04 -2.92965607e-03 -8.83170404e-04 3.19662271e-03
      -8.49560834e-04 4.92591551e-03 1.81200763e-03 1.18070084e-03
      1.17908034e-03 5.06865792e-03 1.35472510e-03 -2.73837801e-03
      2.59941095e-03 -2.55909213e-03 -2.57199467e-03 -1.66104629e-03
      -1.34655728e-03 1.51582703e-03 6.51679933e-03 1.74192619e-03
      -3.52078094e-03 3.34216538e-03 -3.29025928e-03 -3.30692111e-03
      -2.13562930e-03 -1.73127244e-03 1.51815452e-03 6.51683519e-03
      1.74176088e-03 -3.52076069e-03 3.34201474e-03 -3.29028186e-03
