<?xml version="1.0"?>
<opencv_storage>
<my_svm type_id="opencv-ml-svm">
  <svm_type>C_SVC</svm_type>
  <kernel><type>LINEAR</type></kernel>
  <C>1.</C>
  <term_criteria><epsilon>1.1920928955078125e-07</epsilon>
    <iterations>1000</iterations></term_criteria>
  <var_all>17424</var_all>
  <var_count>17424</var_count>
  <class_count>3</class_count>
  <class_labels type_id="opencv-matrix">
    <rows>1</rows>
    <cols>3</cols>
    <dt>i</dt>
    <data>
      0 1 2</data></class_labels>
  <sv_total>3</sv_total>
  <support_vectors>
    <_>
      5.11578657e-03 6.01097057e-03 1.57431024e-03 3.92563787e-04
      4.63986956e-03 3.32835945e-03 4.61556017e-03 2.14503286e-03
      5.15996246e-03 6.57680351e-03 7.72868423e-03 2.02499330e-03
      5.04750991e-04 5.96548570e-03 4.27932572e-03 5.93442097e-03
      2.75798119e-03 6.63361559e-03 6.57917606e-03 7.72771053e-03
      2.02440936e-03 5.04707277e-04 5.96481329e-03 4.27929312e-03
      5.93413645e-03 2.75785755e-03 6.63461583e-03 8.45812168e-03
      9.93600581e-03 2.60394160e-03 6.48942776e-04 7.66896829e-03
      5.50195575e-03 7.62976939e-03 3.54592246e-03 8.52942094e-03
      -8.28247110e-04 1.90706190e-03 1.72357901e-03 6.02724263e-03
      1.11840237e-02 1.19320548e-03 5.14142541e-03 3.14413873e-03
      1.94669480e-03 -1.06523419e-03 2.45190831e-03 2.21583177e-03
      7.74931442e-03 1.43794836e-02 1.53410272e-03 6.61035161e-03
      4.04245546e-03 2.50253966e-03 -1.06582046e-03 2.45199422e-03
      2.21588230e-03 7.74880964e-03 1.43790292e-02 1.53425662e-03
      6.61098165e-03 4.04263800e-03 2.50191428e-03 -1.37078378e-03
      3.15252738e-03 2.84873624e-03 9.96275805e-03 1.84873547e-02
      1.97259244e-03 8.49976577e-03 5.19766752e-03 3.21629271e-03
      2.39708601e-03 2.41018040e-03 -6.41067280e-04 4.82999394e-03
      7.46406335e-03 1.59392995e-03 5.15043549e-03 1.62137731e-03
      6.62621437e-03 3.08177574e-03 3.09877796e-03 -8.24168092e-04
      6.21003937e-03 9.59865469e-03 2.04932271e-03 6.62240619e-03
      2.08443287e-03 8.51914752e-03 3.08116688e-03 3.09899054e-03
      -8.24180024e-04 6.20999048e-03 9.59684979e-03 2.04902608e-03
      6.62086485e-03 2.08496884e-03 8.51875916e-03 3.96125298e-03
      3.98438331e-03 -1.05958118e-03 7.98433367e-03 1.23413801e-02
      2.63444148e-03 8.51307809e-03 2.68042460e-03 1.09523395e-02
      1.29538521e-05 3.99032171e-04 -4.64352925e-04 3.02352989e-03
      4.43904428e-03 4.36812313e-03 5.64533006e-03 4.70842328e-03
      1.16171734e-03 1.58998500e-05 5.12758095e-04 -5.97305887e-04
      3.88752716e-03 5.70726022e-03 5.61615685e-03 7.25804176e-03
      6.05362281e-03 1.49331021e-03 7.67528672e-06 5.11963270e-04
      -5.96991566e-04 3.88698070e-03 5.70704509e-03 5.61616104e-03
      7.25792022e-03 6.05335087e-03 1.48304959e-03 8.89803778e-06
      6.57874043e-04 -7.67922204e-04 4.99771582e-03 7.33752316e-03
      7.22077629e-03 9.33130272e-03 7.78279733e-03 1.90635875e-03
      2.82359938e-03 2.75745639e-03 -1.67254693e-04 9.71651985e-04
      4.35923599e-03 1.54576183e-03 3.34895472e-03 2.77547915e-05
      1.27061445e-03 3.63026140e-03 3.54515691e-03 -2.14927059e-04
      1.24913221e-03 5.60461869e-03 1.98747870e-03 4.30560298e-03
      3.56172495e-05 1.63363386e-03 3.62990494e-03 3.54476669e-03
      -2.15364926e-04 1.24938879e-03 5.60527295e-03 1.98740466e-03
      4.30577574e-03 3.55726006e-05 1.63320627e-03 4.66691656e-03
      4.55737114e-03 -2.76749663e-04 1.60618324e-03 7.20663415e-03
      2.55532586e-03 5.53574506e-03 4.56503039e-05 2.09981971e-03
      -6.67179190e-03 5.67303388e-04 2.02699262e-03 5.64789539e-03
      3.03319586e-03 2.40823068e-03 5.92825003e-03 3.17308446e-03
      -3.69838229e-03 -8.57807510e-03 7.29466439e-04 2.60618003e-03
      7.26177776e-03 3.89916147e-03 3.09629226e-03 7.62253255e-03
      4.07983968e-03 -4.75512166e-03 -8.57729651e-03 7.29202351e-04
      2.60608108e-03 7.26159243e-03 3.89956636e-03 3.09627713e-03
      7.62196211e-03 4.07966785e-03 -4.75504715e-03 -1.10280272e-02
      9.37644159e-04 3.35073541e-03 9.33658704e-03 5.01287868e-03
      3.98092251e-03 9.80030373e-03 5.24549186e-03 -6.11370709e-03
      -3.60126105e-05 -1.18550764e-04 2.94177537e-03 9.88058047e-04
      4.75457218e-03 1.54883286e-03 1.82737759e-03 8.31508019e-04
      2.00297334e-03 -4.67734717e-05 -1.52495064e-04 3.78187606e-03
      1.26934645e-03 6.11354550e-03 1.99134066e-03 2.34946026e-03
      1.06900418e-03 2.57427501e-03 -5.70458724e-05 -1.50937005e-04
      3.78027675e-03 1.27037172e-03 6.11239392e-03 1.99137139e-03
      2.34937551e-03 1.06900500e-03 2.56686937e-03 -7.39507886e-05
      -1.94154825e-04 4.85983258e-03 1.63203117e-03 7.85946753e-03
      2.56031449e-03 3.02059366e-03 1.37433433e-03 3.29900393e-03
      -2.36923224e-03 2.78793927e-03 2.96233757e-03 4.66845604e-03
      4.21812246e-03 -1.09055603e-03 -9.97620282e-06 2.65560253e-03
      2.63412134e-03 -3.04584787e-03 3.58436606e-03 3.80871817e-03
      6.00310368e-03 5.42529719e-03 -1.40230032e-03 -1.28997799e-05
      3.41436523e-03 3.38721788e-03 -3.03962338e-03 3.58470785e-03
      3.80862295e-03 6.00228598e-03 5.42338658e-03 -1.40214933e-03
      -1.32274472e-05 3.41418758e-03 3.38838785e-03 -3.90769076e-03
      4.60874569e-03 4.89679910e-03 7.71825714e-03 6.97549293e-03
      -1.80296553e-03 -1.71009178e-05 4.38969489e-03 4.35712980e-03
      6.58967474e-04 2.35981937e-03 4.07490181e-03 5.08929463e-03
      8.32323730e-03 3.29416106e-03 1.85802858e-03 1.66228390e-03
      -3.77180241e-03 8.48019263e-04 3.03397584e-03 5.23889204e-03
      6.54339697e-03 1.07018156e-02 4.23535891e-03 2.38961377e-03
      2.13759649e-03 -4.84960806e-03 8.46664305e-04 3.03396792e-03
      5.23886783e-03 6.54313434e-03 1.07004046e-02 4.23535472e-03
      2.38888804e-03 2.13649916e-03 -4.85195452e-03 1.08956522e-03
      3.90071585e-03 6.73534349e-03 8.41262471e-03 1.37583194e-02
      5.44546824e-03 3.07235331e-03 2.74740835e-03 -6.23841723e-03
      -5.34652791e-04 2.68743723e-03 5.12671145e-03 3.20848403e-03
      8.01309384e-03 8.06839392e-03 4.59698401e-03 3.43437702e-03
      -5.55367908e-03 -6.87423104e-04 3.45527730e-03 6.59152865e-03
      4.12517320e-03 1.03029488e-02 1.03736678e-02 5.91041986e-03
      4.41529322e-03 -7.14168232e-03 -6.85147417e-04 3.45528848e-03
      6.59136893e-03 4.12517693e-03 1.03022996e-02 1.03736809e-02
      5.91138192e-03 4.41658730e-03 -7.13775447e-03 -8.80918058e-04
      4.44251578e-03 8.47467221e-03 5.30377170e-03 1.32463267e-02
      1.33376131e-02 7.60036241e-03 5.67803998e-03 -9.17870365e-03
      2.46537384e-03 5.93983149e-03 1.18112108e-02 2.76386109e-03
      5.79035189e-03 3.30451108e-03 5.50767221e-03 3.60930408e-03
      -2.48910114e-03 3.16944718e-03 7.63709191e-03 1.51862726e-02
      3.55359190e-03 7.44446833e-03 4.24869824e-03 7.08114356e-03
      4.64045210e-03 -3.20058479e-03 3.17680533e-03 7.63600925e-03
      1.51858097e-02 3.55351134e-03 7.44489627e-03 4.24865028e-03
      7.08224950e-03 4.64068260e-03 -3.19334143e-03 4.08405345e-03
      9.81793925e-03 1.95251647e-02 4.56887297e-03 9.57166310e-03
      5.46260364e-03 9.10555758e-03 5.96648734e-03 -4.10612579e-03
      7.30740139e-04 3.69229843e-03 5.20370388e-03 5.13812155e-03
      7.42262974e-03 7.05615850e-04 4.48039919e-03 1.81284489e-03
      2.08702753e-04 9.39824968e-04 4.74746153e-03 6.69047330e-03
      6.60614669e-03 9.54430643e-03 9.07226233e-04 5.76054025e-03
      2.33077747e-03 2.68579461e-04 9.43370629e-04 4.74764081e-03
      6.69055292e-03 6.60615973e-03 9.54335742e-03 9.07196256e-04
      5.76039497e-03 2.33096513e-03 2.72063015e-04 1.21329259e-03
      6.10439340e-03 8.60213581e-03 8.49362183e-03 1.22712208e-02
      1.16640329e-03 7.40625570e-03 2.99692666e-03 3.50113056e-04
      -2.15501199e-03 6.11989060e-03 6.64422102e-03 1.85659481e-03
      3.03376070e-03 6.96953852e-03 5.74183138e-03 8.95824097e-03
      -2.92853656e-04 -2.77111493e-03 7.86801055e-03 8.54135398e-03
      2.38721236e-03 3.90156009e-03 8.96083098e-03 7.38208462e-03
      1.15176216e-02 -3.76924756e-04 -2.76929582e-03 7.86793511e-03
      8.54226295e-03 2.38705589e-03 3.90050211e-03 8.96083936e-03
      7.38243898e-03 1.15185324e-02 -3.74871481e-04 -3.56101827e-03
      1.01153767e-02 1.09813455e-02 3.06927948e-03 5.01623098e-03
      1.15210731e-02 9.49135982e-03 1.48093915e-02 -4.82490141e-04
      2.08268943e-03 6.71482505e-03 6.57076156e-03 5.52427489e-03
      3.24451481e-03 3.67787806e-03 3.72414407e-03 3.45891621e-03
      3.39823053e-03 2.67641107e-03 8.63400474e-03 8.44824128e-03
      7.10242009e-03 4.17270791e-03 4.72870888e-03 4.78762202e-03
      4.44689160e-03 4.36763419e-03 2.67823972e-03 8.63285456e-03
      8.44653696e-03 7.10262079e-03 4.17031813e-03 4.72863065e-03
      4.78857476e-03 4.44743549e-03 4.37081419e-03 3.44173773e-03
      1.11002307e-02 1.08599858e-02 9.13165882e-03 5.36336564e-03
      6.07967936e-03 6.15601428e-03 5.71776228e-03 5.61766513e-03
      2.75100884e-03 5.37001668e-03 1.19265374e-02 7.60391727e-03
      3.41996341e-03 -1.21088012e-03 8.59757478e-04 2.86904699e-03
      1.95441861e-03 3.53689492e-03 6.90426445e-03 1.53340539e-02
      9.77648608e-03 4.39745421e-03 -1.55686226e-03 1.10451435e-03
      3.68889770e-03 2.51281727e-03 3.53869377e-03 6.90429704e-03
      1.53340846e-02 9.77646932e-03 4.39746352e-03 -1.55684957e-03
      1.10582286e-03 3.68891424e-03 2.51457188e-03 4.54959879e-03
      8.87689926e-03 1.97151676e-02 1.25697730e-02 5.65434154e-03
      -2.00168509e-03 1.42063014e-03 4.74304799e-03 3.23301298e-03
      2.63926981e-04 3.80339823e-03 6.00744830e-03 5.21346787e-03
      7.01900106e-03 1.60270743e-03 4.95789247e-03 4.09063371e-03
      -1.04601076e-03 3.39634542e-04 4.89011221e-03 7.72390421e-03
      6.70302706e-03 9.02393274e-03 2.06081569e-03 6.37444854e-03
      5.25925355e-03 -1.34426740e-03 3.41999839e-04 4.88998555e-03
      7.72370864e-03 6.70304522e-03 9.02401377e-03 2.06067320e-03
      6.37341384e-03 5.25794178e-03 -1.34226272e-03 4.40098287e-04
      6.28716266e-03 9.93053615e-03 8.61819740e-03 1.16016641e-02
      2.64968304e-03 8.19440838e-03 6.76004123e-03 -1.72499032e-03
      7.44990679e-03 9.49641224e-04 5.30485343e-03 1.33331993e-03
      5.68568613e-03 4.82941512e-03 5.74999535e-03 3.41376918e-03
      2.31982704e-04 9.57821682e-03 1.22081535e-03 6.81201741e-03
      1.70633418e-03 7.31119607e-03 6.20930688e-03 7.39285396e-03
      4.38926229e-03 2.98029452e-04 9.57992114e-03 1.22094189e-03
      6.82028569e-03 1.71425368e-03 7.30148656e-03 6.20924029e-03
      7.39283813e-03 4.38905042e-03 2.99698237e-04 1.23167392e-02
      1.56958809e-03 8.75799730e-03 2.19383952e-03 9.38894879e-03
      7.98338372e-03 9.50508099e-03 5.64323319e-03 3.85024439e-04
      4.82489262e-03 5.00243902e-03 2.79629044e-03 4.92122676e-03
      6.76708575e-03 1.22830761e-03 6.08634949e-03 -1.15308852e-03
      5.03235869e-03 6.20329985e-03 6.43172674e-03 3.59527068e-03
      6.32725935e-03 8.70080478e-03 1.57958746e-03 7.82558322e-03
      -1.48250640e-03 6.47002971e-03 6.20358251e-03 6.43157866e-03
      3.59510351e-03 6.32725889e-03 8.70004483e-03 1.57923589e-03
      7.82517996e-03 -1.48260011e-03 6.46999711e-03 7.97586422e-03
      8.26919731e-03 4.62232949e-03 8.13500583e-03 1.11861145e-02
      2.03087577e-03 1.00613013e-02 -1.90615363e-03 8.31838232e-03
      3.85718164e-03 3.88762192e-03 2.36696424e-03 2.54687737e-03
      1.04473559e-02 -1.34851376e-03 3.36576672e-03 5.42911887e-03
      7.86060176e-04 4.95879166e-03 4.99907881e-03 3.04264901e-03
      3.27333715e-03 1.34334890e-02 -1.73356151e-03 4.32757009e-03
      6.98029296e-03 1.01020571e-03 4.95739328e-03 4.99854842e-03
      3.04247811e-03 3.27280117e-03 1.34309204e-02 -1.73377478e-03
      4.32724133e-03 6.98011089e-03 1.00806041e-03 6.37322292e-03
      6.42761448e-03 3.91099695e-03 4.20631981e-03 1.72698367e-02
      -2.22882885e-03 5.56379464e-03 8.97442456e-03 1.29550719e-03
      -1.38985179e-03 2.47753528e-03 4.67074011e-03 3.63412756e-03
      1.15946010e-02 4.37348615e-03 1.23654341e-03 4.30577435e-03
      3.20483778e-05 -1.78693188e-03 3.18520493e-03 6.00484619e-03
      4.67271358e-03 1.49068236e-02 5.62306866e-03 1.58974482e-03
      5.53597370e-03 4.12263253e-05 -1.78651931e-03 3.18591739e-03
      6.00470463e-03 4.67239646e-03 1.49064129e-02 5.62303979e-03
      1.59002759e-03 5.53608919e-03 4.12917070e-05 -2.29692669e-03
      4.09592548e-03 7.71983154e-03 6.00770582e-03 1.91647187e-02
      7.22964248e-03 2.04419764e-03 7.11780135e-03 5.31168480e-05
      5.64870890e-03 -1.30711778e-04 7.06434576e-03 6.35663047e-03
      6.50303485e-03 2.45255511e-03 3.25771584e-03 -2.77126324e-03
      5.20259794e-03 7.26251164e-03 -1.67801671e-04 9.08256974e-03
      8.17284361e-03 8.36166553e-03 3.15330364e-03 4.18885751e-03
      -3.56292003e-03 6.68902043e-03 7.26273516e-03 -1.68087543e-04
      9.08285193e-03 8.17197468e-03 8.36098008e-03 3.15326313e-03
      4.18838579e-03 -3.56307114e-03 6.68913359e-03 9.33765527e-03
      -2.15783075e-04 1.16777457e-02 1.05068665e-02 1.07506299e-02
      4.05421946e-03 5.38553856e-03 -4.58092103e-03 8.60027224e-03
      5.72940428e-03 6.94590062e-03 9.29776113e-03 3.60730896e-03
      8.69260728e-03 1.87947217e-03 3.82849574e-03 -4.73162020e-03
      7.85084814e-03 7.36613758e-03 8.93073995e-03 1.19538652e-02
      4.63796780e-03 1.11767128e-02 2.41675810e-03 4.92261210e-03
      -6.08351501e-03 1.00933379e-02 7.36691803e-03 8.93035345e-03
      1.19540272e-02 4.63796500e-03 1.11753726e-02 2.41645728e-03
      4.92235040e-03 -6.08434575e-03 1.00947833e-02 9.47144348e-03
      1.14822648e-02 1.53689496e-02 5.96309593e-03 1.43689858e-02
      3.10725183e-03 6.32907078e-03 -7.82273430e-03 1.29782232e-02
      6.87949359e-04 4.43224213e-04 3.05510330e-04 -3.51642695e-04
      4.14184062e-03 6.90692943e-03 6.76161284e-03 9.82311787e-04
      1.60740456e-03 8.84691195e-04 5.69673663e-04 3.92591843e-04
      -4.52483597e-04 5.32284845e-03 8.88028461e-03 8.69395211e-03
      1.26308401e-03 2.06686836e-03 8.85281246e-04 5.69952070e-04
      3.92767310e-04 -4.52443957e-04 5.32308919e-03 8.88036471e-03
      8.69259052e-03 1.26285711e-03 2.06762506e-03 1.13845663e-03
      7.32556917e-04 5.04720956e-04 -5.82190638e-04 6.84091775e-03
      1.14175435e-02 1.11767668e-02 1.62381714e-03 2.65863840e-03
      2.23219022e-03 4.78692167e-03 3.74326156e-03 6.67771150e-04
      5.09072421e-03 3.24518001e-03 4.28788969e-03 4.13177069e-03
      3.91168939e-03 2.87009939e-03 6.15467830e-03 4.81274119e-03
      8.58526095e-04 6.54560840e-03 4.17238427e-03 5.51274838e-03
      5.31220017e-03 5.02949720e-03 2.86757131e-03 6.15469227e-03
      4.81305411e-03 8.58557934e-04 6.54607173e-03 4.17237077e-03
      5.51277306e-03 5.31219691e-03 5.02925832e-03 3.68705741e-03
      7.91325886e-03 6.18818216e-03 1.10381318e-03 8.41688178e-03
      5.36449021e-03 7.08752638e-03 6.82986947e-03 6.46642223e-03
      3.26628378e-03 6.69612316e-03 1.59604731e-03 3.71075497e-04
      6.47665176e-04 2.35967548e-03 4.48973943e-03 1.30618934e-03
      2.51219142e-03 4.19939030e-03 8.60929210e-03 2.05199094e-03
      4.77086083e-04 8.32948252e-04 3.03385733e-03 5.77239459e-03
      1.67935586e-03 3.22983041e-03 4.19996539e-03 8.60923342e-03
      2.05212343e-03 4.77084424e-04 8.32342717e-04 3.03388829e-03
      5.77252218e-03 1.67940790e-03 3.23058618e-03 5.39980503e-03
      1.10690035e-02 2.63835443e-03 6.13379758e-04 1.07045949e-03
      3.90070025e-03 7.42164953e-03 2.15919968e-03 4.15344443e-03
      1.15292834e-03 3.49500333e-03 -3.06451484e-03 -9.74082504e-04
      6.48453971e-03 3.70415859e-03 4.10212623e-03 1.36843848e-03
      9.04866960e-04 1.48194470e-03 4.49365331e-03 -3.94012872e-03
      -1.25227834e-03 8.33810493e-03 4.76248888e-03 5.27453143e-03
      1.75952853e-03 1.16299011e-03 1.48261630e-03 4.49361000e-03
      -3.94007051e-03 -1.25238625e-03 8.33689049e-03 4.76248330e-03
      5.27400756e-03 1.75934494e-03 1.16376742e-03 1.90571870e-03
      5.77759789e-03 -5.06585417e-03 -1.61006395e-03 1.07199382e-02
      6.12319121e-03 6.78134151e-03 2.26215390e-03 1.49574573e-03
      2.74895504e-03 -7.17347895e-04 1.74456695e-03 1.60204968e-03
      4.25627036e-03 2.02700379e-03 5.10789780e-03 4.61782515e-03
      -3.82417464e-03 3.53229139e-03 -9.22734675e-04 2.24297750e-03
      2.05979287e-03 5.47302514e-03 2.60604150e-03 6.56736502e-03
      5.93721401e-03 -4.91698878e-03 3.53414565e-03 -9.27018060e-04
      2.24316586e-03 2.05979240e-03 5.47179580e-03 2.60615000e-03
      6.56723185e-03 5.93709480e-03 -4.91710613e-03 4.54122853e-03
      -1.19243329e-03 2.88402266e-03 2.64832308e-03 7.03603774e-03
      3.35062691e-03 8.44367221e-03 7.63342017e-03 -6.32224185e-03
      -7.91715956e-06 3.62684880e-03 1.19995570e-03 3.81300546e-04
      3.18944943e-03 1.55202835e-03 4.34152968e-03 1.69165165e-03
      -6.94418210e-04 -1.02909598e-05 4.66305716e-03 1.54257030e-03
      4.89739003e-04 4.10091225e-03 1.99539051e-03 5.58188464e-03
      2.17517372e-03 -8.92585493e-04 -9.20070670e-06 4.66299895e-03
      1.54315797e-03 4.90213104e-04 4.10085637e-03 1.99546618e-03
      5.58169233e-03 2.17491947e-03 -8.91678035e-04 -1.19733413e-05
      5.99523960e-03 1.98376318e-03 6.29625109e-04 5.27277542e-03
      2.56550289e-03 7.17635592e-03 2.79657333e-03 -1.14613667e-03
      -2.19325512e-03 6.34783646e-04 -4.30166768e-03 -8.79807456e-04
      6.88609155e-03 1.78129820e-03 6.56087650e-03 3.48626473e-03
      -1.03784038e-03 -2.81988736e-03 8.16235202e-04 -5.53042023e-03
      -1.13117159e-03 8.85614287e-03 2.29021651e-03 8.43573548e-03
      4.48241318e-03 -1.33435591e-03 -2.81955651e-03 8.16144457e-04
      -5.53072337e-03 -1.13116670e-03 8.85340665e-03 2.29022279e-03
      8.43551662e-03 4.48237034e-03 -1.33400364e-03 -3.62512888e-03
      1.04943640e-03 -7.11055053e-03 -1.45434472e-03 1.13862902e-02
      2.94454070e-03 1.08460803e-02 5.76314004e-03 -1.71513436e-03
      -5.88178518e-04 1.54192338e-03 1.16233015e-03 -6.98453863e-04
      3.65691306e-03 3.96366557e-03 1.98764703e-03 2.64385762e-03
      2.02832185e-03 -7.56703783e-04 1.98244979e-03 1.49438030e-03
      -8.97952705e-04 4.70277015e-03 5.09611145e-03 2.55532633e-03
      3.39905964e-03 2.60735257e-03 -7.55344634e-04 1.98110566e-03
      1.49357202e-03 -8.97562422e-04 4.70224209e-03 5.09614963e-03
      2.55553424e-03 3.39935324e-03 2.60856166e-03 -9.71766480e-04
      2.54710554e-03 1.92024896e-03 -1.15393300e-03 6.04705745e-03
      6.55215373e-03 3.28540383e-03 4.37035784e-03 3.35323578e-03
      -5.13137027e-04 4.43607802e-03 2.61729490e-03 2.17428687e-03
      4.26632958e-03 5.64330816e-03 5.36702061e-03 -8.61320703e-04
      -1.99545873e-03 -6.59541809e-04 5.70366997e-03 3.36540653e-03
      2.79552373e-03 5.48607204e-03 7.25565432e-03 6.90131774e-03
      -1.10711029e-03 -2.56535620e-03 -6.58083300e-04 5.70374774e-03
      3.36583634e-03 2.79576308e-03 5.48550347e-03 7.25568039e-03
      6.90079015e-03 -1.10733381e-03 -2.56394618e-03 -8.45842937e-04
      7.33357156e-03 4.32790583e-03 3.59456777e-03 7.05380552e-03
      9.32869688e-03 8.87355208e-03 -1.42332667e-03 -3.29620228e-03
      7.83361378e-04 6.89419801e-04 9.46741085e-03 3.75159807e-03
      6.10293867e-03 5.81844989e-03 7.28275767e-03 5.98540111e-03
      -2.70390720e-03 1.00694143e-03 8.86358554e-04 1.21725798e-02
      4.82355477e-03 7.84715544e-03 7.48065999e-03 9.36412346e-03
      7.69578293e-03 -3.47662740e-03 1.00884307e-03 8.86290160e-04
      1.21721113e-02 4.82347189e-03 7.84614589e-03 7.48085510e-03
      9.36381426e-03 7.69584905e-03 -3.47473542e-03 1.29677798e-03
      1.13946653e-03 1.56501085e-02 6.20169844e-03 1.00885686e-02
      9.61797871e-03 1.20399324e-02 9.89500619e-03 -4.46774298e-03
      7.02010281e-03 3.32855503e-03 3.50435078e-03 5.37565816e-03
      -1.06240378e-03 3.30980681e-03 6.98144082e-03 9.87362862e-03
      2.22031423e-03 9.02532414e-03 4.27954644e-03 4.50549228e-03
      6.91155205e-03 -1.36575766e-03 4.25552018e-03 8.97578709e-03
      1.26940925e-02 2.85418262e-03 9.02863964e-03 4.27955808e-03
      4.50557144e-03 6.91153202e-03 -1.36710471e-03 4.25543636e-03
      8.97697080e-03 1.26951300e-02 2.86009512e-03 1.16075780e-02
      5.50225703e-03 5.79274632e-03 8.88624415e-03 -1.75746053e-03
      5.47134597e-03 1.15413675e-02 1.63215753e-02 3.67661333e-03
      4.46561258e-03 6.09004591e-03 5.78179304e-03 1.55955961e-03
      9.51437932e-03 2.75424914e-03 1.74023953e-04 3.93630995e-04
      4.24836995e-03 5.74190309e-03 7.83010852e-03 7.43407384e-03
      2.00542039e-03 1.22329732e-02 3.54140135e-03 2.23569834e-04
      5.06008102e-04 5.46259386e-03 5.74787846e-03 7.83037953e-03
      7.43438629e-03 2.00514868e-03 1.22326892e-02 3.54117760e-03
      2.23111929e-04 5.06114739e-04 5.46849379e-03 7.39064487e-03
      1.00676967e-02 9.55893286e-03 2.57839798e-03 1.57280024e-02
      4.55323048e-03 2.86632567e-04 6.50605652e-04 7.03143980e-03
      8.76596477e-03 8.21120851e-03 5.46660507e-03 -4.26591461e-04
      7.43504497e-04 7.61858304e-04 3.40846390e-03 6.78906124e-03
      8.52619018e-03 1.12696094e-02 1.05568711e-02 7.02813314e-03
      -5.48465701e-04 9.59776866e-04 9.79809673e-04 4.38246736e-03
      8.72907508e-03 1.09615196e-02 1.12635782e-02 1.05570536e-02
      7.02757994e-03 -5.48605633e-04 9.55293654e-04 9.79533652e-04
      4.38284362e-03 8.72905552e-03 1.09572373e-02 1.44805638e-02
      1.35728437e-02 9.03499871e-03 -7.05338316e-04 1.23317516e-03
      1.25975744e-03 5.63528668e-03 1.12234335e-02 1.40869431e-02
      1.72740978e-03 8.31759814e-03 8.17012228e-03 3.63652990e-03
      2.82805134e-03 1.57078484e-03 5.38417464e-03 4.54230327e-03
      2.34820461e-03 2.21999362e-03 1.06940772e-02 1.05045224e-02
      4.67539672e-03 3.63674597e-03 2.01958860e-03 6.92282617e-03
      5.84022887e-03 3.01815965e-03 2.22190539e-03 1.06941191e-02
      1.05044153e-02 4.67546145e-03 3.63662932e-03 2.01959279e-03
      6.92351861e-03 5.84105076e-03 3.01988376e-03 2.85549904e-03
      1.37496106e-02 1.35057783e-02 6.01112423e-03 4.67654085e-03
      2.59662978e-03 8.90207384e-03 7.51008233e-03 3.88147240e-03
      2.62443529e-04 3.96569632e-03 7.93454982e-03 3.76423378e-03
      6.59826503e-04 4.16400004e-03 1.00709051e-02 6.65535824e-03
      -2.55116960e-03 3.36925383e-04 5.09878062e-03 1.02014756e-02
      4.83970298e-03 8.48058378e-04 5.35371248e-03 1.29485121e-02
      8.55697505e-03 -3.28055467e-03 3.36974044e-04 5.09808073e-03
      1.02005824e-02 4.83971881e-03 8.47564370e-04 5.35370875e-03
      1.29484767e-02 8.55663884e-03 -3.27981915e-03 4.32607369e-04
      6.55471114e-03 1.31149208e-02 6.22246228e-03 1.08935463e-03
      6.88333809e-03 1.66483056e-02 1.10015040e-02 -4.21752641e-03
      4.16609365e-03 1.91317219e-03 3.38386931e-03 5.00262994e-03
      1.89093512e-03 5.89948427e-03 6.17004838e-03 2.42978125e-03
      9.60451725e-04 5.35638724e-03 2.45957403e-03 4.35000332e-03
      6.43190928e-03 2.43173051e-03 7.58506637e-03 7.93300383e-03
      3.12402286e-03 1.23486330e-03 5.35666104e-03 2.45950767e-03
      4.35056631e-03 6.43191207e-03 2.42961687e-03 7.58504961e-03
      7.93297589e-03 3.12400097e-03 1.23521371e-03 6.88711135e-03
      3.16194328e-03 5.59270242e-03 8.26954469e-03 3.12447152e-03
      9.75222606e-03 1.01996502e-02 4.01659589e-03 1.58812839e-03
      9.81181301e-03 -8.09111749e-04 2.61330465e-03 2.01942562e-03
      6.89836917e-04 2.49602948e-03 -1.71009393e-04 3.43194784e-04
      8.02275352e-03 1.26153165e-02 -1.04028487e-03 3.36004701e-03
      2.59638345e-03 8.88731855e-04 3.20838764e-03 -2.20503309e-04
      4.41030919e-04 1.03154778e-02 1.26155624e-02 -1.04028138e-03
      3.36075085e-03 2.59640324e-03 8.87052214e-04 3.20952013e-03
      -2.20080590e-04 4.43190889e-04 1.03154862e-02 1.62201729e-02
      -1.33750285e-03 4.32107225e-03 3.33820633e-03 1.14280824e-03
      4.12550569e-03 -2.83775677e-04 5.69534954e-04 1.32634221e-02
      1.01164887e-02 2.48170737e-03 -1.23118516e-03 -1.10474008e-03
      4.77913022e-03 1.03976298e-03 5.51316701e-03 2.34420877e-03
      5.09958155e-03 1.30064562e-02 3.19091836e-03 -1.59425579e-03
      -1.42577593e-03 6.14588195e-03 1.33684149e-03 7.08782626e-03
      3.01380851e-03 6.55630417e-03 1.30069302e-02 3.19052045e-03
      -1.58592802e-03 -1.42909109e-03 6.14578743e-03 1.33776409e-03
      7.08796922e-03 3.01372074e-03 6.55655283e-03 1.67226065e-02
      4.10229200e-03 -2.05358304e-03 -1.84434035e-03 7.90337939e-03
      1.71998586e-03 9.11242049e-03 3.87455965e-03 8.42946768e-03
      5.43686189e-03 4.53633862e-03 3.77855333e-03 1.54284132e-03
      5.51330205e-03 -2.74385372e-03 5.79643622e-03 -9.88723943e-04
      4.41647321e-03 6.99007791e-03 5.83236990e-03 4.85799368e-03
      1.98367354e-03 7.08893221e-03 -3.52785387e-03 7.45253125e-03
      -1.27126672e-03 5.67814521e-03 6.98971096e-03 5.83246537e-03
      4.85818274e-03 1.98366470e-03 7.08822720e-03 -3.52779427e-03
      7.45284464e-03 -1.27114449e-03 5.67778852e-03 8.98654945e-03
      7.49880075e-03 6.24604570e-03 2.55045271e-03 9.11394972e-03
      -4.53578914e-03 9.58218984e-03 -1.63439347e-03 7.29978643e-03
      4.88896016e-03 3.74884158e-03 5.99618815e-03 -1.39778014e-03
      8.57654959e-03 -4.70602208e-05 3.60250619e-04 2.49983557e-03
      6.95319660e-03 6.28613122e-03 4.81971074e-03 7.70867523e-03
      -1.79715175e-03 1.10271703e-02 -6.05122877e-05 4.63630742e-04
      3.21443495e-03 8.94043408e-03 6.28581969e-03 4.81988536e-03
      7.70920003e-03 -1.79713790e-03 1.10265436e-02 -6.07289039e-05
      4.62881406e-04 3.21399467e-03 8.93982034e-03 8.08218680e-03
      6.19670050e-03 9.91091505e-03 -2.31061340e-03 1.41772144e-02
      -7.80882838e-05 5.95713966e-04 4.13274392e-03 1.14948377e-02
      8.27871263e-03 3.30921612e-03 5.38500631e-03 3.55526432e-03
      6.41032448e-03 -4.11188084e-04 4.46038041e-03 -6.14309451e-04
      7.71590136e-03 1.06444610e-02 4.25475556e-03 6.92384737e-03
      4.57090558e-03 8.24289117e-03 -5.28643839e-04 5.73479850e-03
      -7.89825805e-04 9.92085878e-03 1.06441462e-02 4.25507873e-03
      6.92383386e-03 4.57106298e-03 8.24157149e-03 -5.29056299e-04
      5.73396077e-03 -7.90010905e-04 9.92057472e-03 1.36858476e-02
      5.47087938e-03 8.90241563e-03 5.87688992e-03 1.05976509e-02
      -6.80181023e-04 7.37226522e-03 -1.01572648e-03 1.27555570e-02
      7.80902198e-03 4.81250416e-03 6.05775928e-03 2.53965962e-03
      4.55355039e-03 2.49977929e-05 -1.40928011e-03 6.99347211e-03
      9.07427352e-03 1.00406315e-02 6.18794654e-03 7.78883602e-03
      3.26573476e-03 5.85583784e-03 3.15203761e-05 -1.81254884e-03
      8.99149850e-03 1.16673624e-02 1.00399051e-02 6.18743803e-03
      7.78858131e-03 3.26557504e-03 5.85548580e-03 3.21301741e-05
      -1.81254139e-03 8.99141282e-03 1.16665252e-02 1.29090417e-02
      7.95584451e-03 1.00142593e-02 4.19918634e-03 7.53011927e-03
      4.05143437e-05 -2.33120378e-03 1.15602491e-02 1.50003834e-02
      4.61350754e-03 2.91240145e-03 2.47458857e-03 8.99496546e-04
      -6.87385327e-04 -4.35168709e-04 8.89445003e-03 5.48637612e-03
      -2.03933008e-03 5.93141187e-03 3.74367111e-03 3.18128476e-03
      1.15646271e-03 -8.84550798e-04 -5.60171262e-04 1.14359958e-02
      7.05398526e-03 -2.62211100e-03 5.93183376e-03 3.74461710e-03
      3.18176020e-03 1.15611474e-03 -8.83482979e-04 -5.60074521e-04
      1.14356354e-02 7.05383066e-03 -2.62179924e-03 7.62633421e-03
      4.81342105e-03 4.09041159e-03 1.48639048e-03 -1.13689562e-03
      -7.20954675e-04 1.47033138e-02 9.06930584e-03 -3.37103289e-03
      5.42838778e-03 6.84647029e-03 4.58276365e-03 -2.95808353e-03
      1.39519048e-03 -1.26825325e-04 2.03706697e-03 4.66046715e-03
      -3.09188035e-05 6.97919307e-03 8.80240928e-03 5.89154009e-03
      -3.80327785e-03 1.79214077e-03 -1.63431192e-04 2.61896499e-03
      5.99202095e-03 -3.99441742e-05 6.97968807e-03 8.80241394e-03
      5.89152891e-03 -3.80324572e-03 1.79359235e-03 -1.63077304e-04
      2.61871866e-03 5.99204702e-03 -3.95253701e-05 8.97367671e-03
      1.13171376e-02 7.57407164e-03 -4.88992408e-03 2.30389345e-03
      -2.10145954e-04 3.36676766e-03 7.70405028e-03 -5.10638565e-05
      4.52020112e-03 6.52859278e-04 4.36223112e-03 2.20264262e-03
      2.00708001e-03 5.29938377e-03 2.68663536e-03 1.41599705e-03
      2.11761566e-03 5.80974901e-03 8.30086356e-04 5.60798403e-03
      2.83168885e-03 2.58194655e-03 6.81397412e-03 3.45434318e-03
      1.82059233e-03 2.72260257e-03 5.80697320e-03 8.22193513e-04
      5.60795050e-03 2.83200177e-03 2.57962733e-03 6.81304187e-03
      3.45432176e-03 1.82123494e-03 2.72285636e-03 7.46361725e-03
      1.04514218e-03 7.20945187e-03 3.64078465e-03 3.31848441e-03
      8.76024179e-03 4.44139680e-03 2.34161946e-03 3.50075611e-03
      3.52493324e-03 -1.55527063e-03 -1.56912103e-03 1.47698587e-03
      6.20234245e-03 1.42261235e-03 3.42491711e-03 4.69145412e-03
      1.65445730e-03 4.53172345e-03 -1.99954328e-03 -2.01717857e-03
      1.89894333e-03 7.97470566e-03 1.82906026e-03 4.40345146e-03
      6.03186246e-03 2.12684204e-03 4.53386270e-03 -2.00006552e-03
      -2.01750826e-03 1.89883902e-03 7.97403883e-03 1.82930159e-03
      4.40348871e-03 6.03250042e-03 2.12938176e-03 5.82882483e-03
      -2.57139676e-03 -2.59360019e-03 2.44131451e-03 1.02526778e-02
      2.35194387e-03 5.66161098e-03 7.75606232e-03 2.73736962e-03
      -1.91437255e-03 -1.19474996e-03 7.50605343e-03 2.43348605e-03
      2.16091960e-03 5.31991653e-04 4.39472077e-03 5.18271525e-04
      -1.64919801e-03 -2.46196450e-03 -1.53619528e-03 9.65062808e-03
      3.12876469e-03 2.77919183e-03 6.84447179e-04 5.65014174e-03
      6.66355656e-04 -2.12092861e-03 -2.45703151e-03 -1.53600040e-03
      9.65063088e-03 3.12875048e-03 2.77832872e-03 6.83774939e-04
      5.65033359e-03 6.66321837e-04 -2.11528409e-03 -3.15984827e-03
      -1.97497127e-03 1.24079389e-02 4.02267510e-03 3.57325072e-03
      8.79729574e-04 7.26444041e-03 8.56708153e-04 -2.72033247e-03
      3.33505985e-03 5.45296445e-03 2.72890157e-03 -4.84030315e-04
      -1.36381388e-03 3.76824546e-03 2.74192146e-03 1.76603638e-03
      -6.37285557e-05 4.28729085e-03 7.01131904e-03 3.50921322e-03
      -6.22773601e-04 -1.75060984e-03 4.84448718e-03 3.52555281e-03
      2.27068248e-03 -8.25702882e-05 4.29537799e-03 7.01112952e-03
      3.50911496e-03 -6.22323481e-04 -1.75278285e-03 4.84573701e-03
      3.52561288e-03 2.27061263e-03 -7.46617807e-05 5.52180223e-03
      9.01477877e-03 4.51252284e-03 -8.00706563e-04 -2.24989373e-03
      6.22971961e-03 4.53322055e-03 2.91944202e-03 -9.68089444e-05
      3.16361990e-03 1.80599373e-03 9.93168447e-04 4.75252426e-04
      -4.54612682e-03 6.84460532e-03 8.44660308e-03 7.32511224e-04
      -3.24397301e-03 4.06810129e-03 2.32243957e-03 1.27717783e-03
      6.11065770e-04 -5.84274903e-03 8.80070496e-03 1.08598061e-02
      9.41772538e-04 -4.17075865e-03 4.06960538e-03 2.32221186e-03
      1.27752009e-03 6.11048716e-04 -5.84460888e-03 8.79994407e-03
      1.08595556e-02 9.41392675e-04 -4.16892627e-03 5.23310760e-03
      2.98627513e-03 1.64284278e-03 7.85668439e-04 -7.51157757e-03
      1.13148550e-02 1.39621431e-02 1.21032714e-03 -5.35996584e-03
      1.42587023e-03 4.07500379e-03 5.91905415e-03 -1.86462654e-03
      3.31922784e-03 2.01847940e-03 8.21487792e-03 2.18143477e-03
      1.73739262e-03 1.83345925e-03 5.23900753e-03 7.60952709e-03
      -2.39674654e-03 4.26709093e-03 2.59559089e-03 1.05622746e-02
      2.80475360e-03 2.23418511e-03 1.83470175e-03 5.24049159e-03
      7.60975434e-03 -2.39696819e-03 4.26731911e-03 2.59526540e-03
      1.05617661e-02 2.80486164e-03 2.23814370e-03 2.35915626e-03
      6.73741149e-03 9.78308730e-03 -3.08100623e-03 5.48592722e-03
      3.33728828e-03 1.35797830e-02 3.60631850e-03 2.87812017e-03
      6.18776819e-03 8.22630897e-03 3.86961875e-03 5.37949987e-03
      7.65642943e-03 3.12323077e-03 2.06260453e-03 2.47433013e-03
      3.81983141e-03 7.95577932e-03 1.05766822e-02 4.97529935e-03
      6.91858632e-03 9.84712597e-03 4.01559891e-03 2.65228422e-03
      3.18138720e-03 4.91128210e-03 7.95449596e-03 1.05783418e-02
      4.97569982e-03 6.91677211e-03 9.84474272e-03 4.01557749e-03
      2.65191100e-03 3.18085379e-03 4.90902131e-03 1.02273086e-02
      1.36007247e-02 6.39742566e-03 8.89567472e-03 1.26615707e-02
      5.16290590e-03 3.41006718e-03 4.08980576e-03 6.31168904e-03
      1.01078264e-02 1.04047172e-02 4.61784936e-03 4.83070081e-03
      3.37887928e-03 4.52790363e-03 4.20321384e-03 2.75200815e-03
      7.42895762e-04 1.29957795e-02 1.33775249e-02 5.93733089e-03
      6.21090876e-03 4.35120892e-03 5.82160521e-03 5.40396245e-03
      3.53821809e-03 9.55172232e-04 1.29955774e-02 1.33775128e-02
      5.93741331e-03 6.21113088e-03 4.34513297e-03 5.82160614e-03
      5.40412078e-03 3.53824138e-03 9.54094401e-04 1.67086050e-02
      1.71996988e-02 7.63393985e-03 7.98574928e-03 5.59551781e-03
      7.48494128e-03 6.94793463e-03 4.54906886e-03 1.22671889e-03
      1.10262458e-03 6.55627064e-03 1.12796975e-02 6.74936746e-04
      7.23851519e-03 2.48421426e-03 6.69937814e-03 7.41395820e-03
      -2.46823928e-03 1.41733186e-03 8.42958502e-03 1.45023959e-02
      8.67770868e-04 9.30776726e-03 3.19409720e-03 8.61366652e-03
      9.53256339e-03 -3.17375339e-03 1.41735305e-03 8.42933636e-03
      1.45019908e-02 8.67781870e-04 9.30700544e-03 3.19421408e-03
      8.61301553e-03 9.53198876e-03 -3.17366142e-03 1.82188884e-03
      1.08378390e-02 1.86453220e-02 1.11571362e-03 1.19675724e-02
      4.10698447e-03 1.10741081e-02 1.22558419e-02 -4.08081105e-03
      2.66314042e-03 3.06419912e-03 6.31742552e-03 2.31007114e-03
      8.47276580e-03 5.26017416e-03 9.98269487e-03 5.93559397e-03
      -2.55953474e-03 3.42416903e-03 3.93964909e-03 8.12231936e-03
      2.97007477e-03 1.08939540e-02 6.76309504e-03 1.28345927e-02
      7.63134705e-03 -3.29072773e-03 3.42399790e-03 3.93990567e-03
      8.12217779e-03 2.97008455e-03 1.08931977e-02 6.76306011e-03
      1.28351236e-02 7.63203623e-03 -3.29086790e-03 4.40245308e-03
      5.06554777e-03 1.04426919e-02 3.81865888e-03 1.40060522e-02
      8.69537983e-03 1.65019147e-02 9.81244911e-03 -4.23098542e-03
      5.13098622e-03 5.05552301e-03 6.97660306e-03 3.05915624e-03
      5.39613701e-03 2.25219666e-03 -2.70953111e-04 3.31036584e-03
      6.60449592e-03 6.59726886e-03 6.49994332e-03 8.96986201e-03
      3.93332960e-03 6.93838252e-03 2.89582415e-03 -3.48376110e-04
      4.25611110e-03 8.49173777e-03 6.59729727e-03 6.49992656e-03
      8.96979216e-03 3.93318571e-03 6.93759555e-03 2.89568095e-03
      -3.48781876e-04 4.25609574e-03 8.49182252e-03 8.48260894e-03
      8.35702941e-03 1.15325172e-02 5.05711837e-03 8.92039854e-03
      3.72320157e-03 -4.48444684e-04 5.47203002e-03 1.09183695e-02
      4.12791315e-03 5.98268397e-03 7.38942157e-03 5.32675907e-03
      9.51287244e-03 -2.40871822e-03 9.63521935e-03 2.90051522e-03
      2.50814622e-03 5.30695403e-03 7.69217033e-03 9.50103346e-03
      6.84869988e-03 1.22294780e-02 -3.09700309e-03 1.23881288e-02
      3.72929242e-03 3.22436052e-03 5.30701876e-03 7.69214565e-03
      9.50085465e-03 6.84869243e-03 1.22302230e-02 -3.09692509e-03
      1.23880506e-02 3.72923398e-03 3.22432257e-03 6.82284310e-03
      9.89009161e-03 1.22158332e-02 8.80547427e-03 1.57228280e-02
      -3.98186361e-03 1.59274805e-02 4.79480531e-03 4.14504483e-03
      1.82963337e-03 3.47629632e-03 5.09549677e-03 2.95780739e-03
      4.58486611e-03 3.81407910e-03 4.86397836e-03 2.31021736e-03
      2.60360586e-03 2.35200510e-03 4.46927454e-03 6.55092299e-03
      3.80242383e-03 5.89288166e-03 4.90381708e-03 6.25372864e-03
      2.97067966e-03 3.34734959e-03 2.35220580e-03 4.46907850e-03
      6.55131368e-03 3.80282104e-03 5.89480670e-03 4.90379194e-03
      6.25380361e-03 2.97030550e-03 3.34749161e-03 3.02377413e-03
      5.74563863e-03 8.42256378e-03 4.88873571e-03 7.57653452e-03
      6.30487548e-03 8.04065913e-03 3.81947914e-03 4.30373428e-03
      5.65617112e-03 4.87123290e-03 2.06144666e-03 -4.03682329e-03
      4.06058272e-03 4.17241128e-03 5.39281406e-03 5.23877982e-03
      6.81533944e-03 7.27149472e-03 6.26319321e-03 2.65089516e-03
      -5.19076968e-03 5.23371808e-03 5.36457263e-03 6.93355175e-03
      6.73555210e-03 8.76177941e-03 7.27230310e-03 6.26296503e-03
      2.64986092e-03 -5.19056385e-03 5.22185536e-03 5.36454096e-03
      6.93378411e-03 6.73563033e-03 8.76273774e-03 9.34917200e-03
      8.05261545e-03 3.40756052e-03 -6.67431112e-03 6.73048757e-03
      6.89732423e-03 8.91478080e-03 8.66006874e-03 1.12653477e-02
      7.48738647e-03 2.11573541e-04 -1.41455128e-03 1.93049258e-03
      -1.74099789e-03 4.51495638e-03 2.06898781e-03 4.35862085e-03
      9.59916320e-03 9.62667633e-03 2.71942583e-04 -1.81788963e-03
      2.48266617e-03 -2.23609759e-03 5.80494851e-03 2.66009849e-03
      5.60382847e-03 1.23418253e-02 9.62576829e-03 2.71911587e-04
      -1.81893120e-03 2.48227618e-03 -2.23772950e-03 5.80529962e-03
      2.66055856e-03 5.60373301e-03 1.23406360e-02 1.23760346e-02
      3.49496404e-04 -2.33757286e-03 3.19227600e-03 -2.87408824e-03
      7.46396277e-03 3.42068169e-03 7.20465509e-03 1.58665888e-02
      7.42876716e-03 3.45168589e-03 2.61299335e-03 2.32680212e-03
      4.02872451e-03 -5.60529530e-04 -3.84543557e-03 -2.00456264e-03
      9.43100080e-03 9.55098867e-03 4.43799281e-03 3.35991755e-03
      2.99152732e-03 5.17809577e-03 -7.20659154e-04 -4.94256662e-03
      -2.57656281e-03 1.21253682e-02 9.55078378e-03 4.43775719e-03
      3.35923955e-03 2.99158902e-03 5.17866109e-03 -7.20683660e-04
      -4.94486699e-03 -2.57754372e-03 1.21250590e-02 1.22792153e-02
      5.70582971e-03 4.31947969e-03 3.84623162e-03 6.65610190e-03
      -9.26565262e-04 -6.35567354e-03 -3.31304362e-03 1.55890984e-02
      -2.30311463e-03 5.36067062e-04 5.51464641e-03 5.25392219e-03
      4.47440380e-03 4.44226840e-04 1.67283101e-03 4.49754624e-03
      3.17006675e-03 -2.96149752e-03 6.89111650e-04 7.08989846e-03
      6.75501768e-03 5.75323589e-03 5.71167795e-04 2.15059356e-03
      5.78270108e-03 4.07551508e-03 -2.96194921e-03 6.89060485e-04
      7.09010242e-03 6.75504003e-03 5.75359305e-03 5.71145967e-04
      2.15015374e-03 5.78233227e-03 4.07588948e-03 -3.80867091e-03
      8.85783928e-04 9.11537930e-03 8.68501887e-03 7.39803212e-03
      7.34354369e-04 2.76424014e-03 7.43460888e-03 5.24006272e-03
      6.46137353e-03 1.34809059e-03 1.19976909e-03 -3.09613044e-03
      4.32273140e-03 1.62739283e-03 4.08009253e-03 6.33455347e-04
      8.76368023e-03 8.30772240e-03 1.73350202e-03 1.54247391e-03
      -3.98074184e-03 5.56007121e-03 2.09301640e-03 5.24558593e-03
      8.14387458e-04 1.12677552e-02 8.30715429e-03 1.73329900e-03
      1.54263456e-03 -3.98097932e-03 5.55854430e-03 2.09240196e-03
      5.24556870e-03 8.14406842e-04 1.12672420e-02 1.06809372e-02
      2.22883979e-03 1.98327680e-03 -5.11840545e-03 7.14962417e-03
      2.69107241e-03 6.74398383e-03 1.04702439e-03 1.44866677e-02
      6.62004109e-03 3.63352220e-03 5.05010714e-04 2.93182419e-03
      1.43163959e-02 1.49570894e-03 4.10665118e-04 -1.07650063e-03
      4.90773749e-03 8.51138216e-03 4.67154570e-03 6.48863090e-04
      3.76946502e-03 1.84087399e-02 1.92396191e-03 5.28245582e-04
      -1.38390996e-03 6.30989950e-03 8.51099752e-03 4.67163743e-03
      6.49310532e-04 3.76948272e-03 1.84058622e-02 1.92277809e-03
      5.28183882e-04 -1.38433871e-03 6.31024130e-03 1.09425830e-02
      6.00622874e-03 8.34266073e-04 4.84644761e-03 2.36671790e-02
      2.47331033e-03 6.79412391e-04 -1.77965534e-03 8.11310485e-03
      5.24674123e-03 4.09727124e-03 5.09393401e-03 1.64921780e-03
      7.01734470e-03 4.73179948e-03 4.29511489e-03 -6.87624793e-04
      5.44804800e-03 6.74566673e-03 5.26787015e-03 6.54939562e-03
      2.12039938e-03 9.02262609e-03 6.08376181e-03 5.52205136e-03
      -8.84158129e-04 7.00448034e-03 6.74589351e-03 5.26798051e-03
      6.54955767e-03 2.12041126e-03 9.02197510e-03 6.08384889e-03
      5.52209932e-03 -8.84162553e-04 7.00469362e-03 8.67310725e-03
      6.77305367e-03 8.42092652e-03 2.72621261e-03 1.16001014e-02
      7.82211684e-03 7.09953485e-03 -1.13686873e-03 9.00583901e-03
      3.46444570e-03 4.85657109e-03 3.57077894e-04 -1.55896822e-03
      -7.05269398e-04 2.50894600e-03 5.63249690e-03 4.52444050e-03
      -2.13631851e-04 4.45363345e-03 6.24338305e-03 4.58988099e-04
      -2.00430024e-03 -9.06478090e-04 3.22525296e-03 7.24166306e-03
      5.81709296e-03 -2.75188446e-04 4.45474824e-03 6.24395907e-03
      4.58550581e-04 -2.00437801e-03 -9.07885958e-04 3.22576961e-03
      7.24214781e-03 5.81725081e-03 -2.74205930e-04 5.72669180e-03
      8.02694447e-03 5.89420728e-04 -2.57694558e-03 -1.16690027e-03
      4.14673053e-03 9.31118056e-03 7.47926487e-03 -3.53219220e-04
      5.77127677e-04 6.56537304e-04 -3.42799304e-03 -3.51105176e-04
      5.59661398e-03 3.23772756e-03 5.16806217e-03 4.84415004e-03
      2.19220761e-03 7.41660187e-04 8.44094611e-04 -4.40731086e-03
      -4.51058702e-04 7.19428156e-03 4.16280469e-03 6.64462009e-03
      6.22820016e-03 2.81822169e-03 7.42226897e-04 8.44366325e-04
      -4.40763729e-03 -4.51403583e-04 7.19625782e-03 4.16275114e-03
      6.64503546e-03 6.22834545e-03 2.81886803e-03 9.53826879e-04
      1.08558254e-03 -5.66682313e-03 -5.79910236e-04 9.25057754e-03
      5.35212504e-03 8.54357705e-03 8.00788216e-03 3.62383341e-03
      5.36229555e-03 1.68621587e-03 -5.22938464e-03 -2.42179935e-03
      1.86419161e-03 2.05030036e-03 6.79149479e-03 5.19200601e-03
      4.87932656e-03 6.89328508e-03 2.16782442e-03 -6.72356226e-03
      -3.11379274e-03 2.39705597e-03 2.63680029e-03 8.73234030e-03
      6.67527970e-03 6.27195789e-03 6.89193280e-03 2.16781558e-03
      -6.72364514e-03 -3.11472150e-03 2.39615072e-03 2.63674092e-03
      8.73349234e-03 6.67574210e-03 6.27188571e-03 8.85964837e-03
      2.78697675e-03 -8.64477362e-03 -4.00470663e-03 3.08107189e-03
      3.39099579e-03 1.12293139e-02 8.58289469e-03 8.06197431e-03
      6.23958046e-03 6.00837497e-03 3.06235231e-03 -1.87525444e-03
      -5.05454373e-04 2.91946647e-03 3.29494406e-03 1.69579242e-03
      3.19859642e-03 8.02223291e-03 7.72566907e-03 3.93779995e-03
      -2.41102627e-03 -6.50735979e-04 3.75360739e-03 4.23630234e-03
      2.17958726e-03 4.11216589e-03 8.02206714e-03 7.72502739e-03
      3.93744791e-03 -2.41068169e-03 -6.49430149e-04 3.75357922e-03
      4.23643366e-03 2.17921007e-03 4.11200197e-03 1.03139775e-02
      9.93297063e-03 5.06306253e-03 -3.09942849e-03 -8.36096006e-04
      4.82604047e-03 5.44677302e-03 2.80091981e-03 5.28645376e-03
      4.00383631e-03 6.80943660e-04 2.90469872e-03 7.70051498e-04
      3.56628676e-03 3.54175107e-03 6.36764755e-03 2.83303834e-03
      2.17514555e-03 5.14770951e-03 8.75753409e-04 3.73534928e-03
      9.90112545e-04 4.58353292e-03 4.55248076e-03 8.18646606e-03
      3.64213903e-03 2.79593933e-03 5.15003596e-03 8.75170866e-04
      3.73476627e-03 9.90028959e-04 4.58562747e-03 4.55456367e-03
      8.18719622e-03 3.64255067e-03 2.79906369e-03 6.62137195e-03
      1.12554687e-03 4.80278721e-03 1.27295416e-03 5.89362998e-03
      5.85432537e-03 1.05257407e-02 4.68284404e-03 3.59792705e-03
      1.40929408e-03 6.22298894e-03 4.88856481e-03 -1.15416932e-03
      -2.94198678e-03 5.26817143e-03 7.22454628e-03 -9.38118537e-05
      -3.01242899e-03 1.81185338e-03 8.00105371e-03 6.28473004e-03
      -1.48405368e-03 -3.78270959e-03 6.77412841e-03 9.28848144e-03
      -1.20842044e-04 -3.87326558e-03 1.81183475e-03 8.00081249e-03
      6.28480036e-03 -1.48392317e-03 -3.78286792e-03 6.77335402e-03
      9.28883720e-03 -1.20017583e-04 -3.87243368e-03 2.32937862e-03
      1.02868481e-02 8.07972811e-03 -1.90805702e-03 -4.86388616e-03
      8.70958157e-03 1.19425058e-02 -1.54599838e-04 -4.97902790e-03
      4.56116116e-03 6.68353168e-03 1.40837790e-03 -1.76695583e-03
      6.18439401e-03 7.23175658e-03 4.00822330e-03 -1.82359887e-03
      -2.03897292e-03 5.86404046e-03 8.59660655e-03 1.80753763e-03
      -2.27226666e-03 7.95154739e-03 9.29799303e-03 5.15395589e-03
      -2.34446069e-03 -2.62186490e-03 5.86438784e-03 8.59853532e-03
      1.81047781e-03 -2.27360334e-03 7.95113575e-03 9.29796882e-03
      5.15308604e-03 -2.34469166e-03 -2.62148911e-03 7.53952889e-03
      1.10597517e-02 2.32359814e-03 -2.92380410e-03 1.02231260e-02
      1.19545572e-02 6.62607187e-03 -3.01438803e-03 -3.37090809e-03
      9.22651088e-04 4.07160167e-03 2.44930270e-03 6.36593718e-03
      -3.85340466e-03 5.34086209e-03 5.12566650e-03 6.67434605e-03
      1.83430954e-03 1.18678424e-03 5.23494277e-03 3.14903096e-03
      8.18476547e-03 -4.95245308e-03 6.86689140e-03 6.59063458e-03
      8.58042762e-03 2.35879142e-03 1.18847098e-03 5.23482077e-03
      3.14878393e-03 8.18476360e-03 -4.95468779e-03 6.86683273e-03
      6.59012422e-03 8.58150143e-03 2.35930900e-03 1.52870140e-03
      6.73051737e-03 4.04834328e-03 1.05232531e-02 -6.36783848e-03
      8.82887375e-03 8.47364869e-03 1.10322349e-02 3.03390389e-03
      1.46640267e-03 4.39787237e-03 8.03370401e-03 6.71548815e-03
      -1.97981644e-04 5.50524844e-03 5.90597745e-03 5.55719901e-03
      -2.23374460e-03 1.88893266e-03 5.65405376e-03 1.03279473e-02
      8.63443501e-03 -2.51983583e-04 7.07767252e-03 7.59330904e-03
      7.14501645e-03 -2.87094456e-03 1.87796482e-03 5.65411197e-03
      1.03287045e-02 8.63407645e-03 -2.53924722e-04 7.07818195e-03
      7.59337237e-03 7.14591565e-03 -2.90584820e-03 2.41909898e-03
      7.26911845e-03 1.32783484e-02 1.11012580e-02 -3.23177141e-04
      9.09987092e-03 9.76279099e-03 9.18766577e-03 -3.73478932e-03
      3.92442523e-03 6.66203117e-03 3.94574413e-03 -1.81050505e-04
      5.92629798e-03 6.61579194e-03 1.10831333e-03 8.38268735e-03
      -2.55611929e-04 5.04582655e-03 8.56545754e-03 5.07265329e-03
      -2.32844846e-04 7.61976326e-03 8.50600842e-03 1.42466358e-03
      1.07776430e-02 -3.28547234e-04 5.03958715e-03 8.56511202e-03
      5.07272454e-03 -2.32543665e-04 7.62024708e-03 8.50600470e-03
      1.42459781e-03 1.07781067e-02 -3.32870695e-04 6.47964422e-03
      1.10122729e-02 6.52150065e-03 -2.99069099e-04 9.79776494e-03
      1.09362788e-02 1.83122640e-03 1.38574392e-02 -4.27853403e-04
      3.52575001e-03 6.91722380e-03 4.28787014e-03 8.46105278e-04
      1.29499438e-03 8.33510887e-03 7.22170016e-03 3.75655852e-03
      1.77918817e-03 4.53240750e-03 8.89353361e-03 5.51291136e-03
      1.08935125e-03 1.66544842e-03 1.07166125e-02 9.28398222e-03
      4.82947566e-03 2.28681392e-03 4.55210358e-03 8.89380369e-03
      5.51367924e-03 1.08784693e-03 1.66268332e-03 1.07165482e-02
      9.28497035e-03 4.82990313e-03 2.31871218e-03 5.85180381e-03
      1.14348391e-02 7.08893361e-03 1.40059111e-03 2.13832106e-03
      1.37784751e-02 1.19364550e-02 6.20937906e-03 2.98028393e-03
      3.78304371e-03 7.81233096e-03 4.76722047e-03 2.53402768e-03
      1.18343462e-03 1.94405334e-03 2.66432925e-03 1.41557551e-03
      2.89188232e-03 4.86374181e-03 1.00445580e-02 6.12949487e-03
      3.25973448e-03 1.52296189e-03 2.49949913e-03 3.42555717e-03
      1.82061142e-03 3.71810654e-03 4.85934829e-03 1.00438502e-02
      6.12999545e-03 3.25822225e-03 1.52226968e-03 2.49950076e-03
      3.42585449e-03 1.81968545e-03 3.71321058e-03 6.24751300e-03
      1.29136909e-02 7.88169354e-03 4.19132598e-03 1.95900770e-03
      3.21364705e-03 4.40465892e-03 2.34034820e-03 4.77409130e-03
      5.34965144e-03 2.79516843e-03 4.65893606e-03 3.24188382e-03
      1.36626244e-03 6.47541042e-03 6.44781115e-03 2.87099648e-03
      3.30501614e-04 6.87796343e-03 3.59383062e-03 5.99006098e-03
      4.16810205e-03 1.75566063e-03 8.32554419e-03 8.29027873e-03
      3.69137735e-03 4.24807688e-04 6.87577156e-03 3.59370420e-03
      5.98983001e-03 4.16817376e-03 1.75636192e-03 8.32550880e-03
      8.28970410e-03 3.69138643e-03 4.22712648e-04 8.84007197e-03
      4.62053251e-03 7.70120975e-03 5.35903731e-03 2.25694291e-03
      1.07042473e-02 1.06584942e-02 4.74619260e-03 5.43331902e-04
      4.80424287e-03 3.42792715e-03 4.07755561e-03 -3.18599213e-03
      3.06644896e-03 2.53059505e-03 5.90630295e-03 5.06191375e-03
      2.32114503e-03 6.17645960e-03 4.40739747e-03 5.24268812e-03
      -4.09638649e-03 3.94113781e-03 3.25367530e-03 7.59400427e-03
      6.50822883e-03 2.98387720e-03 6.17651502e-03 4.40652855e-03
      5.24172420e-03 -4.09626774e-03 3.94299859e-03 3.25363385e-03
      7.59343663e-03 6.50789402e-03 2.98401387e-03 7.94068538e-03
      5.66561799e-03 6.73950789e-03 -5.26677212e-03 5.06771915e-03
      4.18331195e-03 9.76323057e-03 8.36736150e-03 3.83600756e-03
      7.74811907e-03 7.62014417e-04 1.06317899e-03 1.16158801e-03
      1.45913684e-03 4.08536784e-04 4.80996881e-04 6.29773131e-03
      5.34333941e-03 9.96095408e-03 9.79208271e-04 1.36745686e-03
      1.49345945e-03 1.87455839e-03 5.25386422e-04 6.18642545e-04
      8.09716992e-03 6.86943671e-03 9.96153615e-03 9.78924800e-04
      1.36695057e-03 1.49437168e-03 1.87418901e-03 5.25275827e-04
      6.18758495e-04 8.09756946e-03 6.86986092e-03 1.28065161e-02
      1.25794346e-03 1.75816601e-03 1.92132196e-03 2.40777479e-03
      6.75514748e-04 7.95825967e-04 1.04112718e-02 8.83194525e-03
      4.79052356e-03 1.69420382e-04 2.02380307e-03 6.96668227e-04
      -2.42247316e-03 3.71314026e-03 8.28146562e-03 1.79655792e-04
      5.34247886e-03 6.15917891e-03 2.17810579e-04 2.60188663e-03
      8.95869394e-04 -3.08862329e-03 4.77404334e-03 1.06476266e-02
      2.30992999e-04 6.86881971e-03 6.15939079e-03 2.17785389e-04
      2.60196556e-03 8.95726378e-04 -3.11483745e-03 4.77390271e-03
      1.06477197e-02 2.31006663e-04 6.86903950e-03 7.91913178e-03
      2.79990345e-04 3.34519823e-03 1.15184544e-03 -3.97138111e-03
      6.13788282e-03 1.36899613e-02 2.97017046e-04 8.83151684e-03
      4.49956767e-03 2.99407612e-03 2.21292744e-03 -4.26157471e-03
      5.42702060e-03 -2.18073349e-03 3.83578404e-03 3.70975537e-03
      5.84566826e-03 5.78522077e-03 3.84952431e-03 2.84498371e-03
      -5.47917187e-03 6.98644994e-03 -2.80429306e-03 4.93121007e-03
      4.76960419e-03 7.51594547e-03 5.78567665e-03 3.84957506e-03
      2.84529314e-03 -5.47916349e-03 6.97748736e-03 -2.80380854e-03
      4.93170694e-03 4.76959813e-03 7.51634082e-03 7.43880682e-03
      4.94945096e-03 3.65796546e-03 -7.04464456e-03 8.98243859e-03
      -3.60553083e-03 6.34010788e-03 6.13223622e-03 9.66397580e-03
      4.45446419e-03 -1.21250306e-03 1.08275143e-03 -2.44956068e-03
      1.00304186e-03 4.24134731e-03 3.74641549e-03 3.85187170e-03
      6.30616164e-03 5.72705269e-03 -1.55860092e-03 1.39312004e-03
      -3.14942584e-03 1.29051600e-03 5.45313582e-03 4.81681665e-03
      4.95242281e-03 8.10782611e-03 5.72702475e-03 -1.55889080e-03
      1.39219733e-03 -3.14943423e-03 1.29059539e-03 5.45316422e-03
      4.81697312e-03 4.95248055e-03 8.10777117e-03 7.36316852e-03
      -2.00386252e-03 1.79126766e-03 -4.04926017e-03 1.66048191e-03
      7.01117981e-03 6.19324623e-03 6.36749528e-03 1.04241529e-02
      3.45341885e-03 5.26323775e-03 1.58507749e-03 -7.78285833e-03
      3.12045054e-03 1.32332533e-03 4.16657887e-03 2.96122045e-03
      2.66967760e-03 4.43983404e-03 6.76687714e-03 2.03794823e-03
      -1.00065451e-02 4.01356816e-03 1.70127128e-03 5.35730645e-03
      3.80737241e-03 3.43223102e-03 4.44090040e-03 6.76691160e-03
      2.03772425e-03 -1.00063505e-02 4.01154626e-03 1.70143263e-03
      5.35679096e-03 3.80724901e-03 3.43323615e-03 5.70937432e-03
      8.70013144e-03 2.61991937e-03 -1.28653236e-02 5.15970960e-03
      2.18736706e-03 6.88765896e-03 4.89514926e-03 4.41388832e-03
      9.42739099e-03 4.49508335e-03 -4.61461168e-04 -2.81295646e-03
      8.99885490e-04 2.19081459e-03 1.30298338e-03 -2.48797209e-04
      6.27154252e-03 1.21209705e-02 5.77945029e-03 -5.93142759e-04
      -3.61662521e-03 1.15790393e-03 2.81676394e-03 1.67451019e-03
      -3.20144551e-04 8.06344021e-03 1.21210907e-02 5.77939441e-03
      -5.93311153e-04 -3.61663708e-03 1.15749508e-03 2.81678583e-03
      1.67552615e-03 -3.19799816e-04 8.06354918e-03 1.55843105e-02
      7.43072387e-03 -7.62617914e-04 -4.64991899e-03 1.48937653e-03
      3.62158637e-03 2.15327716e-03 -4.11508983e-04 1.03674568e-02
      1.89773145e-03 -8.37919710e-04 1.22591096e-03 7.60973780e-04
      8.25557765e-03 4.31228749e-04 3.62465135e-03 4.53843409e-03
      4.19782288e-03 2.43950775e-03 -1.07715721e-03 1.57649536e-03
      9.78242024e-04 1.06150378e-02 5.54743456e-04 4.66028368e-03
      5.83505584e-03 5.39677124e-03 2.44063814e-03 -1.07716909e-03
      1.57627254e-03 9.78075550e-04 1.06141651e-02 5.54292172e-04
      4.66079637e-03 5.83525654e-03 5.39771980e-03 3.13740806e-03
      -1.38471567e-03 2.02705315e-03 1.25732890e-03 1.36477137e-02
      7.13055138e-04 5.99247403e-03 7.50237750e-03 6.93937391e-03
      7.75852287e-03 5.05262706e-03 8.11384711e-03 1.84825738e-03
      3.18705034e-03 -6.53125462e-04 3.77752236e-03 1.86344632e-03
      9.38702654e-03 9.97540262e-03 6.49629487e-03 1.04320450e-02
      2.37617455e-03 4.09927219e-03 -8.39707558e-04 4.85674944e-03
      2.39581056e-03 1.20691517e-02 9.97486711e-03 6.49627764e-03
      1.04322433e-02 2.37633381e-03 4.09828266e-03 -8.39713146e-04
      4.85658506e-03 2.39586760e-03 1.20686628e-02 1.28250327e-02
      8.35243426e-03 1.34128258e-02 3.05508543e-03 5.27132396e-03
      -1.07959856e-03 6.24409690e-03 3.08033824e-03 1.55170029e-02
      3.87807423e-03 1.06639302e-04 -2.16278341e-03 1.18793570e-03
      2.13300297e-03 2.60230666e-03 7.75894290e-03 7.57215684e-03
      2.63372506e-03 4.98578371e-03 1.37866125e-04 -2.78049102e-03
      1.52598019e-03 2.74235383e-03 3.34590022e-03 9.97588411e-03
      9.73533280e-03 3.38572357e-03 4.98746848e-03 1.37086929e-04
      -2.78075831e-03 1.52722513e-03 2.74186954e-03 3.34638567e-03
      9.97570530e-03 9.73559730e-03 3.38903884e-03 6.41206000e-03
      1.77229842e-04 -3.57496506e-03 1.96181983e-03 3.52515979e-03
      4.30259481e-03 1.28260367e-02 1.25168143e-02 4.35670000e-03
      -1.32244627e-03 2.24316563e-03 4.04893002e-03 -2.76524038e-03
      2.51238770e-03 5.10697020e-03 5.76372072e-03 5.19974856e-03
      1.47311413e-03 -1.70039514e-03 2.88427039e-03 5.20636886e-03
      -3.55506805e-03 3.23071447e-03 6.56610820e-03 7.41065573e-03
      6.68523787e-03 1.89383933e-03 -1.70027965e-03 2.88438168e-03
      5.20605734e-03 -3.55539005e-03 3.23061575e-03 6.56613708e-03
      7.41062732e-03 6.68539479e-03 1.89392432e-03 -2.18621199e-03
      3.70874815e-03 6.69427495e-03 -4.57090605e-03 4.15429426e-03
      8.44218116e-03 9.52815078e-03 8.59531108e-03 2.43483461e-03
      5.26846293e-03 3.33521096e-03 -1.79648143e-03 -8.42272677e-03
      7.10363849e-04 5.42908069e-03 4.77405870e-03 3.64400586e-03
      3.82431480e-03 6.77393563e-03 4.28798748e-03 -2.30991445e-03
      -1.08289272e-02 9.12542222e-04 6.98072370e-03 6.13842439e-03
      4.68519144e-03 4.91716666e-03 6.76578237e-03 4.28813649e-03
      -2.30957544e-03 -1.08291972e-02 9.12810676e-04 6.98024966e-03
      6.13829261e-03 4.68569295e-03 4.90795355e-03 8.69911816e-03
      5.51313721e-03 -2.96965102e-03 -1.39228757e-02 1.17260928e-03
      8.97521898e-03 7.89253879e-03 6.02451526e-03 6.31047087e-03
      4.43812879e-03 5.62513527e-03 1.39618802e-04 -4.35670000e-03
      3.72253911e-04 2.08037975e-03 5.71795041e-03 6.10662904e-03
      3.46409529e-03 5.70548326e-03 7.23237358e-03 1.79416122e-04
      -5.60188713e-03 4.79899056e-04 2.67648906e-03 7.35126529e-03
      7.85125419e-03 4.45312355e-03 5.70643693e-03 7.23235263e-03
      1.79381474e-04 -5.60177537e-03 4.77705209e-04 2.67464831e-03
      7.35150371e-03 7.85127189e-03 4.45405953e-03 7.33597064e-03
      9.29881074e-03 2.30512000e-04 -7.20281759e-03 6.15847413e-04
      3.44103877e-03 9.45143867e-03 1.00943306e-02 5.72573068e-03
      4.01090644e-03 4.48509876e-04 2.70536868e-03 -7.76090194e-04
      4.48022457e-03 3.03842971e-05 3.93486116e-03 4.24745539e-03
      5.72551799e-04 5.15695009e-03 5.77818835e-04 3.47898295e-03
      -9.97319352e-04 5.75394556e-03 3.48076683e-05 5.05809579e-03
      5.46032377e-03 7.35921145e-04 5.14804944e-03 5.76781516e-04
      3.47978785e-03 -9.96581512e-04 5.75970812e-03 3.87698165e-05
      5.05905971e-03 5.46204066e-03 7.30572268e-04 6.61901059e-03
      7.43072189e-04 4.47485130e-03 -1.28066260e-03 7.39718322e-03
      4.43729368e-05 6.50320388e-03 7.02173589e-03 9.39027930e-04
      3.30389652e-04 3.41718853e-03 4.18394618e-03 1.01007674e-04
      -6.26284815e-03 5.11928322e-03 7.59605272e-03 9.09349695e-03
      1.60957058e-03 4.25412232e-04 4.39348398e-03 5.37915388e-03
      1.29755615e-04 -8.05118214e-03 6.58193929e-03 9.76633187e-03
      1.16915815e-02 2.07006535e-03 4.24767379e-04 4.39359853e-03
      5.37983049e-03 1.29827880e-04 -8.05449020e-03 6.58193463e-03
      9.76676028e-03 1.16917845e-02 2.06939038e-03 5.46934374e-04
      5.64885559e-03 6.91666082e-03 1.66778642e-04 -1.03544211e-02
      8.46249238e-03 1.25572337e-02 1.50322216e-02 2.66143866e-03
      -5.47405332e-04 5.68008283e-03 5.32389153e-03 5.34209004e-03
      -1.47210388e-03 3.06296768e-03 -1.56884396e-03 2.39862269e-03
      -1.16327126e-03 -7.04339123e-04 7.30304699e-03 6.84559951e-03
      6.86932262e-03 -1.89322303e-03 3.93810356e-03 -2.01665564e-03
      3.08409799e-03 -1.49618147e-03 -7.06886232e-04 7.30391638e-03
      6.84465421e-03 6.86846813e-03 -1.89261744e-03 3.93807981e-03
      -2.01741909e-03 3.08383419e-03 -1.50032400e-03 -9.09536378e-04
      9.39085800e-03 8.80103651e-03 8.83207191e-03 -2.43403204e-03
      5.06324740e-03 -2.59327213e-03 3.96512821e-03 -1.92969094e-03
      -7.09205691e-04 8.32870789e-03 5.13876788e-03 3.39215435e-03
      5.18947374e-03 2.44256202e-03 5.15654078e-03 5.81404252e-04
      -1.11441454e-03 -9.11673065e-04 1.07074855e-02 6.60687499e-03
      4.36145533e-03 6.67494489e-03 3.14044068e-03 6.62939204e-03
      7.47362967e-04 -1.43246073e-03 -9.14438046e-04 1.07083358e-02
      6.60666497e-03 4.36071819e-03 6.67163450e-03 3.14083369e-03
      6.62978180e-03 7.47314072e-04 -1.43554853e-03 -1.17549545e-03
      1.37667619e-02 8.49413965e-03 5.60678449e-03 8.58137012e-03
      4.03821981e-03 8.52343161e-03 9.60630656e-04 -1.84524548e-03
      -2.40620156e-03 5.85415866e-03 5.84148755e-03 3.23966867e-03
      8.99573322e-03 3.12231597e-03 2.90916604e-03 6.96967996e-04
      1.37818989e-03 -3.09412600e-03 7.52670411e-03 7.51037430e-03
      4.16521356e-03 1.15657868e-02 4.01442731e-03 3.74014210e-03
      8.95413978e-04 1.77210814e-03 -3.08249891e-03 7.52660306e-03
      7.50987139e-03 4.16436186e-03 1.15656052e-02 4.01440449e-03
      3.74005875e-03 8.95236502e-04 1.78392755e-03 -3.96377733e-03
      9.67697054e-03 9.65540670e-03 5.35408268e-03 1.48698641e-02
      5.16140368e-03 4.80837049e-03 1.15013355e-03 2.29381421e-03
      -2.35195016e-03 4.39447863e-03 8.48076772e-03 5.49485488e-03
      -1.88307941e-03 4.82240133e-03 1.60541467e-03 6.44023716e-03
      -2.31270073e-03 -3.02401138e-03 5.65094315e-03 1.09030884e-02
      7.06416741e-03 -2.42122402e-03 6.20123977e-03 2.06463900e-03
      8.28018878e-03 -2.97389552e-03 -3.03336536e-03 5.64973708e-03
      1.09036937e-02 7.06524355e-03 -2.42133113e-03 6.20054826e-03
      2.06463691e-03 8.28075409e-03 -2.98760063e-03 -3.90013889e-03
      7.26510491e-03 1.40180625e-02 9.08305403e-03 -3.11329844e-03
      7.97343068e-03 2.65521952e-03 1.06465360e-02 -3.84174427e-03
      1.82410155e-03 5.85990585e-03 3.74154421e-03 4.52465424e-03
      4.95095458e-03 2.82897672e-04 2.21052778e-05 3.96803673e-03
      -1.58598740e-03 2.34526512e-03 7.53416214e-03 4.81086830e-03
      5.81728015e-03 6.36483403e-03 3.63651227e-04 2.83326845e-05
      5.10175386e-03 -2.03911774e-03 2.33429321e-03 7.53455563e-03
      4.81039798e-03 5.81739424e-03 6.36447733e-03 3.63717263e-04
      2.82251385e-05 5.10154013e-03 -2.04808800e-03 3.00122309e-03
      9.68728308e-03 6.18519867e-03 7.47933611e-03 8.18202645e-03
      4.67541657e-04 3.61757156e-05 6.55911304e-03 -2.63324357e-03
      -2.50610337e-03 4.33858810e-03 2.51114904e-03 2.93029443e-04
      1.20250159e-03 4.02944069e-03 3.23393918e-03 8.26667808e-03
      4.31682070e-04 -3.22223036e-03 5.57800429e-03 3.22938222e-03
      3.76718934e-04 1.54513237e-03 5.18055260e-03 4.15809173e-03
      1.06289228e-02 5.55118953e-04 -3.23574920e-03 5.57826459e-03
      3.22895125e-03 3.76759999e-04 1.54582644e-03 5.18081104e-03
      4.15762840e-03 1.06284702e-02 5.38999273e-04 -4.16037347e-03
      7.17182225e-03 4.15248843e-03 4.84363758e-04 1.98628078e-03
      6.66084094e-03 5.34574175e-03 1.36656081e-02 6.93127047e-04
      6.17527257e-05 6.17503701e-03 3.71858734e-03 1.25821319e-03
      -4.12427261e-03 4.80688736e-03 3.69379134e-03 6.45336928e-03
      2.84121861e-03 7.80784467e-05 7.93964975e-03 4.78198240e-03
      1.61894562e-03 -5.30281337e-03 6.18025009e-03 4.74908482e-03
      8.29686970e-03 3.65253584e-03 6.66932683e-05 7.93799944e-03
      4.78154421e-03 1.61809183e-03 -5.30283991e-03 6.17940957e-03
      4.74863918e-03 8.29764269e-03 3.65283131e-03 8.40534703e-05
      1.02064051e-02 6.14890922e-03 2.08200142e-03 -6.81816600e-03
      7.94491172e-03 6.10529631e-03 1.06679881e-02 4.69590770e-03
      5.07819653e-03 1.81364288e-04 4.71428735e-04 -5.06174751e-03
      -3.07480572e-03 5.48769580e-03 5.20202797e-03 5.85638452e-03
      7.37358909e-03 6.52884599e-03 2.32960287e-04 6.05763460e-04
      -6.50812080e-03 -3.95287573e-03 7.05557875e-03 6.68846350e-03
      7.52963964e-03 9.48010478e-03 6.52915286e-03 2.33148327e-04
      6.05919806e-04 -6.50795549e-03 -3.95385968e-03 7.05560111e-03
      6.68825442e-03 7.52967829e-03 9.48040094e-03 8.39428511e-03
      2.99475942e-04 7.78576592e-04 -8.36757757e-03 -5.08296024e-03
      9.07144789e-03 8.59936699e-03 9.68101900e-03 1.21887987e-02
      3.62159964e-03 2.64042476e-03 6.08570129e-03 -9.28234775e-04
      -5.13139367e-03 1.43078563e-03 1.05184605e-02 3.66579019e-03
      1.46710360e-03 4.65654256e-03 3.39477393e-03 7.82424305e-03
      -1.19291781e-03 -6.59814803e-03 1.83976127e-03 1.35232732e-02
      4.71251365e-03 1.88649760e-03 4.65607503e-03 3.39468475e-03
      7.82395154e-03 -1.19284296e-03 -6.59773964e-03 1.83944020e-03
      1.35242064e-02 4.71325917e-03 1.88590086e-03 5.98664070e-03
      4.36452078e-03 1.00590698e-02 -1.53297710e-03 -8.48363340e-03
      2.36522546e-03 1.73876695e-02 6.05907431e-03 2.42501544e-03
      1.90736144e-03 2.02158676e-03 4.17630794e-03 -2.28932314e-03
      -2.90705659e-03 8.07769131e-03 8.10632855e-03 2.75280909e-03
      -3.52837634e-03 2.45225662e-03 2.59903725e-03 5.36915474e-03
      -2.94350763e-03 -3.70745128e-03 1.03864428e-02 1.04228854e-02
      3.53945838e-03 -4.53656586e-03 2.45160470e-03 2.59897974e-03
      5.36968000e-03 -2.94340798e-03 -3.73754604e-03 1.03856111e-02
      1.04225483e-02 3.53923929e-03 -4.53673583e-03 3.15197906e-03
      3.34135885e-03 6.90338016e-03 -3.78449983e-03 -4.76659695e-03
      1.33540090e-02 1.34010157e-02 4.55062184e-03 -5.83305070e-03
      -7.79845286e-05 3.00873024e-03 2.60213786e-03 -3.60663689e-04
      -6.12257142e-03 6.02979632e-03 8.28066375e-03 3.78353143e-05
      2.73273583e-03 -1.00654957e-04 3.86838731e-03 3.34589579e-03
      -4.63807257e-04 -7.86180701e-03 7.75259407e-03 1.06321629e-02
      4.42114397e-05 3.51308333e-03 -9.98679025e-05 3.86848417e-03
      3.34632886e-03 -4.64121549e-04 -7.87271000e-03 7.75257219e-03
      1.06556397e-02 6.05541645e-05 3.51374247e-03 -1.28902306e-04
      4.97379107e-03 4.30279505e-03 -5.96852566e-04 -1.01091089e-02
      9.96759254e-03 1.36815868e-02 7.21538963e-05 4.51711053e-03
      9.21393838e-03 -4.34401998e-04 7.02036370e-04 3.71113681e-04
      1.73944689e-03 2.55890004e-03 3.97039670e-03 -2.57408107e-03
      4.42714430e-03 1.18463980e-02 -5.58569387e-04 9.03190114e-04
      4.77576104e-04 2.23668362e-03 3.28882155e-03 5.10493247e-03
      -3.30947665e-03 5.69189386e-03 1.18465871e-02 -5.58550470e-04
      9.02583532e-04 4.77347668e-04 2.23677349e-03 3.28997616e-03
      5.10451011e-03 -3.30964243e-03 5.69214253e-03 1.52312042e-02
      -7.18204770e-04 1.16119836e-03 6.14286459e-04 2.87617627e-03
      4.22843639e-03 6.56311586e-03 -4.25518211e-03 7.31827691e-03
      5.82175236e-03 1.75401976e-03 9.95192328e-04 -5.36788721e-03
      3.15333507e-03 6.01160689e-04 2.92645069e-03 -1.69332302e-03
      7.06357462e-03 7.48493243e-03 2.25498574e-03 1.27899298e-03
      -6.90154871e-03 4.05442761e-03 7.72943255e-04 3.76262143e-03
      -2.17707246e-03 9.08161514e-03 7.48525048e-03 2.25550705e-03
      1.27954548e-03 -6.90171355e-03 4.05331422e-03 7.73051986e-04
      3.76258744e-03 -2.17739143e-03 9.08174552e-03 9.62366536e-03
      2.89970380e-03 1.64443522e-03 -8.87360610e-03 5.21158474e-03
      9.93952854e-04 4.83766664e-03 -2.79942970e-03 1.16763711e-02
      3.72765865e-03 6.25027297e-03 4.70768008e-03 -1.90389471e-03
      -1.52429147e-03 -3.73419141e-03 -1.18293427e-03 2.67320732e-03
      2.78398558e-03 4.79264371e-03 8.03648774e-03 6.05349056e-03
      -2.44751712e-03 -1.95915741e-03 -4.80074994e-03 -1.52093999e-03
      3.43699497e-03 3.57931154e-03 4.79285279e-03 8.03610217e-03
      6.05287263e-03 -2.44786870e-03 -1.95921306e-03 -4.80109826e-03
      -1.52061798e-03 3.43716145e-03 3.57956951e-03 6.16216101e-03
      1.03326766e-02 7.78323691e-03 -3.14681325e-03 -2.51815771e-03
      -6.17238600e-03 -1.95511174e-03 4.41922667e-03 4.60217753e-03
      6.19668933e-03 4.04729880e-03 4.77020541e-04 -3.22440802e-03
      6.72325771e-03 1.96202745e-05 5.71136223e-03 4.65843966e-03
      3.14686843e-03 7.96686113e-03 5.20365778e-03 6.14475575e-04
      -4.14764928e-03 8.65113828e-03 2.57868051e-05 7.34318653e-03
      5.98939881e-03 4.04565874e-03 7.96763971e-03 5.20533975e-03
      6.13315322e-04 -4.14622994e-03 8.64467118e-03 2.52043756e-05
      7.34270457e-03 5.98923583e-03 4.04576538e-03 1.02437083e-02
      6.69256458e-03 7.90045073e-04 -5.33341477e-03 1.11235119e-02
      3.31258343e-05 9.44062788e-03 7.70041579e-03 5.20129362e-03
      5.65108564e-03 1.36805931e-03 2.80227792e-03 -1.33145353e-04
      8.96045752e-03 4.68093855e-03 6.44353498e-03 3.03156162e-03
      7.01497635e-03 7.26538338e-03 1.75899395e-03 3.60319857e-03
      -1.70861400e-04 1.15231108e-02 6.01818087e-03 8.28446448e-03
      3.89812398e-03 9.01908334e-03 7.26597151e-03 1.76006171e-03
      3.60332965e-03 -1.71157575e-04 1.15206260e-02 6.01830846e-03
      8.28338508e-03 3.89555423e-03 9.01808124e-03 9.34157986e-03
      2.26301514e-03 4.63319803e-03 -2.19640191e-04 1.48154777e-02
      7.73760816e-03 1.06499633e-02 5.00908680e-03 1.15944538e-02
      4.34031431e-03 6.24227431e-03 1.66830875e-03 -1.24979834e-03
      4.11885878e-04 9.75444505e-04 3.34500428e-03 4.33649076e-03
      3.00650927e-03 5.58026414e-03 8.02591164e-03 2.14467058e-03
      -1.60689116e-03 5.29409735e-04 1.25270593e-03 4.30007558e-03
      5.57527551e-03 3.86532978e-03 5.58125740e-03 8.02554470e-03
      2.14434532e-03 -1.60685112e-03 5.30200370e-04 1.25419686e-03
      4.30187210e-03 5.57601033e-03 3.86573304e-03 7.17572402e-03
      1.03187254e-02 2.75662960e-03 -2.06596078e-03 6.81483187e-04
      1.61069119e-03 5.53015061e-03 7.16888253e-03 4.96999593e-03
      4.46637347e-03 3.54559394e-03 1.49150961e-03 -2.44054827e-03
      -2.86942953e-03 2.36806832e-03 1.02804694e-03 4.56251157e-03
      5.69973839e-03 5.74229192e-03 4.55874112e-03 1.91779924e-03
      -3.13822366e-03 -3.68864997e-03 3.04461177e-03 1.32203870e-03
      5.86588122e-03 7.32795103e-03 5.74247725e-03 4.55847941e-03
      1.91793637e-03 -3.13815242e-03 -3.68978991e-03 3.04465299e-03
      1.32191542e-03 5.86617226e-03 7.32838362e-03 7.38294283e-03
      5.86105650e-03 2.46610306e-03 -4.03525075e-03 -4.74322261e-03
      3.91449174e-03 1.69994379e-03 7.54195731e-03 9.42184217e-03
      3.14127328e-03 6.81655994e-03 3.13094002e-03 -1.64719601e-03
      6.13860611e-04 -1.89692015e-03 2.71210866e-03 -1.37859804e-03
      4.43624426e-03 4.03864076e-03 8.76378454e-03 4.02449025e-03
      -2.11775443e-03 7.89060723e-04 -2.43921950e-03 3.48679977e-03
      -1.77255587e-03 5.70360944e-03 4.03888989e-03 8.76402017e-03
      4.02514264e-03 -2.11780705e-03 7.88654841e-04 -2.43899343e-03
      3.48708942e-03 -1.77225808e-03 5.70385531e-03 5.19267982e-03
      1.12675577e-02 5.17389178e-03 -2.72280606e-03 1.01374357e-03
      -3.13626183e-03 4.48314706e-03 -2.27871141e-03 7.33335642e-03
      4.67849802e-03 7.57078314e-03 -2.64036027e-03 -5.55764511e-03
      1.07975138e-04 1.56614493e-04 5.68695180e-03 3.31007945e-03
      1.48639001e-03 6.01499993e-03 9.73408483e-03 -3.39444750e-03
      -7.14549096e-03 1.39648226e-04 2.01270042e-04 7.31165428e-03
      4.25573019e-03 1.91087602e-03 6.01543160e-03 9.73377842e-03
      -3.39516765e-03 -7.14550726e-03 1.38818607e-04 2.01425690e-04
      7.31198397e-03 4.25613718e-03 1.91110559e-03 7.73385586e-03
      1.25151416e-02 -4.36482904e-03 -9.18701291e-03 1.79540963e-04
      2.58857908e-04 9.40094143e-03 5.47206542e-03 2.45688297e-03
      4.67367331e-03 3.08295502e-03 -2.07851036e-03 -1.61692244e-03
      5.38731227e-03 6.82906993e-03 5.50098624e-03 -6.70562848e-04
      -7.44548277e-04 6.00911397e-03 3.96382017e-03 -2.67243502e-03
      -2.07889127e-03 6.91257138e-03 8.77635740e-03 7.07278959e-03
      -8.62182293e-04 -9.57188953e-04 6.00905903e-03 3.96381970e-03
      -2.67242757e-03 -2.07866286e-03 6.92784414e-03 8.78024008e-03
      7.07230018e-03 -8.62460991e-04 -9.57288314e-04 7.72606814e-03
      5.09636570e-03 -3.43605876e-03 -2.67255423e-03 8.88926443e-03
      1.12838978e-02 9.09307599e-03 -1.10891659e-03 -1.23068644e-03
      6.72425330e-03 9.89227649e-03 7.73135282e-04 -6.33746618e-03
      5.47584787e-04 2.79364013e-03 -3.21107684e-03 -3.35571065e-04
      4.54046577e-03 8.64546653e-03 1.27185499e-02 9.93765309e-04
      -8.14663991e-03 7.04845588e-04 3.59332282e-03 -4.12825495e-03
      -4.31999273e-04 5.83778042e-03 8.64803698e-03 1.27188982e-02
      9.93256108e-04 -8.14762339e-03 7.04034406e-04 3.59172979e-03
      -4.12874436e-03 -4.31973545e-04 5.84009895e-03 1.11189010e-02
      1.63527504e-02 1.27670250e-03 -1.04735466e-02 9.06225760e-04
      4.61986614e-03 -5.30803436e-03 -5.56101731e-04 7.50874821e-03
      -5.68568903e-05 2.16862373e-03 5.62212896e-03 2.94459122e-03
      2.09755823e-03 6.44105580e-03 4.51390538e-03 -7.48217397e-04
      -3.64524149e-03 -7.35428985e-05 2.78823986e-03 7.22848391e-03
      3.78600205e-03 2.69932998e-03 8.28137435e-03 5.80387702e-03
      -9.61931306e-04 -4.68718493e-03 -7.61553747e-05 2.78851041e-03
      7.22760055e-03 3.78553220e-03 2.69722519e-03 8.28134362e-03
      5.80355711e-03 -9.61961865e-04 -4.68956167e-03 -9.84812868e-05
      3.58523941e-03 9.29267053e-03 4.86723892e-03 3.47103574e-03
      1.06474627e-02 7.46208243e-03 -1.23672676e-03 -6.03001006e-03
      -1.12971167e-04 3.55698657e-03 -1.45654625e-03 7.40073575e-03
      5.14112273e-03 4.41842666e-03 4.17174306e-03 1.11067761e-03
      -3.36393015e-03 -1.45138954e-04 4.57327347e-03 -1.87270285e-03
      9.51551367e-03 6.61383756e-03 5.68132382e-03 5.36389044e-03
      1.42800040e-03 -4.32489114e-03 -1.46335296e-04 4.57319617e-03
      -1.87268062e-03 9.51585267e-03 6.60985010e-03 5.68081252e-03
      5.36403386e-03 1.42811856e-03 -4.32615820e-03 -1.88005142e-04
      5.87983103e-03 -2.40773219e-03 1.22350305e-02 8.50329362e-03
      7.30453106e-03 6.89689862e-03 1.83613435e-03 -5.56199579e-03
      -8.22875008e-04 4.65934398e-03 7.80661183e-04 3.04860994e-03
      5.84895769e-03 2.35226844e-03 4.02216800e-03 3.20010702e-03
      -8.04926455e-03 -1.05793530e-03 5.99053642e-03 1.00382674e-03
      3.91950132e-03 7.51738949e-03 3.02486657e-03 5.17197698e-03
      4.11473773e-03 -1.03486972e-02 -1.05866487e-03 5.99040091e-03
      1.00377551e-03 3.91964009e-03 7.51970243e-03 3.02435225e-03
      5.17113321e-03 4.11500223e-03 -1.03495354e-02 -1.36108161e-03
      7.70188030e-03 1.29072275e-03 5.03935758e-03 9.66471713e-03
      3.88912344e-03 6.64939359e-03 5.29112155e-03 -1.33060869e-02
      -4.66451328e-03 1.85193983e-03 3.27797816e-03 6.97573228e-03
      5.80803584e-03 1.28152047e-03 5.78556303e-03 3.97047075e-03
      -8.00324231e-03 -5.99726243e-03 2.38106796e-03 4.21451032e-03
      8.96875281e-03 7.46757677e-03 1.64812128e-03 7.43856933e-03
      5.10487985e-03 -1.02899661e-02 -5.99859841e-03 2.38104747e-03
      4.21454059e-03 8.96879099e-03 7.46745663e-03 1.64769182e-03
      7.43867457e-03 5.10515738e-03 -1.02905398e-02 -7.71252345e-03
      3.06134974e-03 5.41865174e-03 1.15312450e-02 9.60114505e-03
      2.11904198e-03 9.56399459e-03 6.56376081e-03 -1.32308006e-02
      -1.65218429e-03 1.05276071e-02 1.10983313e-03 3.72766377e-03
      4.17348929e-03 5.80672501e-03 1.49480836e-03 4.54635971e-04
      -7.97965471e-03 -2.12360756e-03 1.35353627e-02 1.42677734e-03
      4.79226699e-03 5.36705740e-03 7.46605918e-03 1.92128064e-03
      5.84364985e-04 -1.02593768e-02 -2.12467951e-03 1.35356365e-02
      1.42744021e-03 4.79271170e-03 5.36639150e-03 7.46572204e-03
      1.92159589e-03 5.83799148e-04 -1.02602467e-02 -2.73092370e-03
      1.74027905e-02 1.83508697e-03 6.16148720e-03 6.90111425e-03
      9.59913246e-03 2.46983161e-03 7.50384002e-04 -1.31915174e-02
      -7.65152927e-03 -2.63386348e-04 1.40896044e-03 2.56696600e-03
      8.07398092e-03 5.50103886e-03 -1.33274016e-05 4.73976834e-03
      -9.14290547e-03 -9.83691961e-03 -3.38556332e-04 1.81126862e-03
      3.29976319e-03 1.03813875e-02 7.07275700e-03 -1.71029697e-05
      6.09399239e-03 -1.17551275e-02 -9.83719993e-03 -3.38704587e-04
      1.81096932e-03 3.30107217e-03 1.03808157e-02 7.07277143e-03
      -1.71048414e-05 6.09367574e-03 -1.17547335e-02 -1.26468511e-02
      -4.35368915e-04 2.32806499e-03 4.24343674e-03 1.33474767e-02
      9.09355376e-03 -2.19503727e-05 7.83473253e-03 -1.51131805e-02
      -1.52162067e-03 2.60028383e-03 -2.72232312e-04 -6.19782892e-04
      1.22099998e-03 4.61762119e-03 2.69466429e-03 4.06029169e-04
      5.90897143e-05 -1.95659348e-03 3.34320380e-03 -3.50070593e-04
      -7.96811946e-04 1.57031615e-03 5.93700912e-03 3.46497400e-03
      5.22183778e-04 7.57689413e-05 -1.95617951e-03 3.34322220e-03
      -3.50016053e-04 -7.96848850e-04 1.56897248e-03 5.93696628e-03
      3.46419401e-03 5.21555834e-04 7.60410185e-05 -2.51537631e-03
      4.29840526e-03 -4.50096035e-04 -1.02445378e-03 2.01784098e-03
      7.63332983e-03 4.45448654e-03 6.70760463e-04 9.75048824e-05
      2.69727199e-03 2.55542388e-03 -1.27967694e-04 1.99654605e-03
      -6.96608704e-03 3.89259541e-03 6.01143716e-03 2.05893978e-03
      1.72395713e-03 3.46805318e-03 3.28546041e-03 -1.64707701e-04
      2.56763538e-03 -8.95997975e-03 5.00344904e-03 7.72889378e-03
      2.64723483e-03 2.21665227e-03 3.46739404e-03 3.28471954e-03
      -1.65315054e-04 2.56702583e-03 -8.95551499e-03 5.00474218e-03
      7.72911496e-03 2.64764694e-03 2.21625087e-03 4.45824768e-03
      4.22310270e-03 -2.12777551e-04 3.30129359e-03 -1.15188379e-02
      6.43297518e-03 9.93730780e-03 3.40415235e-03 2.84963869e-03
      -1.83932658e-03 1.14007178e-03 4.75373417e-05 7.39657044e-05
      2.76996847e-03 4.65165498e-03 5.29888412e-03 4.80422191e-03
      -4.57780669e-04 -2.36483314e-03 1.46583375e-03 6.10889547e-05
      9.50906469e-05 3.56046506e-03 5.98074310e-03 6.81290217e-03
      6.17714878e-03 -5.88209485e-04 -2.36486620e-03 1.46585610e-03
      6.12335425e-05 9.51231486e-05 3.56128439e-03 5.98067371e-03
      6.81281695e-03 6.17686985e-03 -5.88634750e-04 -3.04052234e-03
      1.88470760e-03 7.86891105e-05 1.22291327e-04 4.57760692e-03
      7.68949417e-03 8.75940081e-03 7.94206746e-03 -7.56345864e-04
      3.56931589e-03 1.06029131e-03 -5.49766328e-03 -1.72292767e-03
      6.91779749e-03 4.38575679e-03 3.12231644e-03 -2.22007418e-03
      -1.60767333e-04 4.58884193e-03 1.36332272e-03 -7.06819864e-03
      -2.21527531e-03 8.91770981e-03 5.63922757e-03 4.01417585e-03
      -2.85447086e-03 -2.06996003e-04 4.58935648e-03 1.36300479e-03
      -7.06849014e-03 -2.21482036e-03 8.89456738e-03 5.63883455e-03
      4.01415443e-03 -2.85492977e-03 -2.06620520e-04 5.90024237e-03
      1.75255188e-03 -9.08776838e-03 -2.84773344e-03 1.14659565e-02
      7.25044077e-03 5.16075920e-03 -3.67073924e-03 -2.66035466e-04
      4.64972015e-03 3.59784602e-03 3.72400181e-03 -4.38870303e-03
      -1.60930911e-03 -1.68251572e-03 5.06913755e-03 2.77965725e-03
      2.49988725e-03 5.97803481e-03 4.62534092e-03 4.78773937e-03
      -5.64241037e-03 -2.06630840e-03 -2.16323207e-03 6.51767896e-03
      3.57383350e-03 3.21436487e-03 5.97719755e-03 4.62526735e-03
      4.78814682e-03 -5.64243970e-03 -2.06896500e-03 -2.16324697e-03
      6.51746243e-03 3.57388752e-03 3.21312854e-03 7.68474070e-03
      5.94617892e-03 6.15584943e-03 -7.25429831e-03 -2.65649427e-03
      -2.78131361e-03 8.37987196e-03 4.59498353e-03 4.13145404e-03
      4.79785446e-03 6.25210069e-03 -4.27962717e-04 -4.63332236e-03
      1.33865513e-03 -1.33591002e-05 4.00622142e-03 3.00499192e-03
      4.56887484e-03 6.16865838e-03 8.03834945e-03 -5.50472527e-04
      -5.95714059e-03 1.72167667e-03 -1.78131304e-05 5.15093980e-03
      3.86383245e-03 5.87424217e-03 6.16696989e-03 8.03841185e-03
      -5.50248660e-04 -5.95682580e-03 1.72143395e-03 -1.71932388e-05
      5.15076984e-03 3.86263058e-03 5.87204611e-03 7.92894512e-03
      1.03350170e-02 -7.07764295e-04 -7.65879080e-03 2.21397751e-03
      -2.29242996e-05 6.62252679e-03 4.96658869e-03 7.54974084e-03
      6.58019492e-03 1.19451294e-03 1.66791002e-03 -5.28705167e-03
      3.01454286e-03 1.75561727e-04 1.75557821e-03 3.04175261e-03
      7.87579361e-03 8.46399460e-03 1.53971685e-03 2.14444892e-03
      -6.79756561e-03 3.87461600e-03 2.23791707e-04 2.25710426e-03
      3.91079253e-03 1.01258196e-02 8.46566260e-03 1.54712563e-03
      2.14425870e-03 -6.79762987e-03 3.87508795e-03 2.25719778e-04
      2.25736923e-03 3.91092198e-03 1.01259407e-02 1.08892368e-02
      1.99419446e-03 2.75689550e-03 -8.73971637e-03 4.98068146e-03
      2.87730159e-04 2.90224236e-03 5.02828788e-03 1.30188083e-02
      3.21516162e-03 7.89678935e-03 4.56948113e-03 -6.41009491e-03
      5.04819117e-03 2.22393865e-04 -1.28318067e-03 1.41066662e-03
      2.26322492e-03 4.13361518e-03 1.01532843e-02 5.87540492e-03
      -8.24156404e-03 6.49118843e-03 2.85932329e-04 -1.65004702e-03
      1.81360159e-03 2.90965801e-03 4.13351413e-03 1.01530403e-02
      5.87509526e-03 -8.24154634e-03 6.49030693e-03 2.85952206e-04
      -1.64984458e-03 1.81369053e-03 2.90952483e-03 5.31430542e-03
      1.30542563e-02 7.55415438e-03 -1.05962902e-02 8.34552571e-03
      3.67649744e-04 -2.12154142e-03 2.33174302e-03 3.74055700e-03
      5.98989334e-03 4.76735318e-03 -7.96003093e-04 -1.02387427e-03
      3.00563616e-03 -4.79548849e-04 2.81469082e-03 2.16251356e-03
      6.04332983e-03 7.70179695e-03 6.12959266e-03 -1.02325552e-03
      -1.31641573e-03 3.86669720e-03 -6.16566802e-04 3.61895165e-03
      2.78060185e-03 7.77054299e-03 7.69244647e-03 6.12936821e-03
      -1.02285331e-03 -1.31639233e-03 3.86526273e-03 -6.16574252e-04
      3.61866434e-03 2.78037833e-03 7.76038459e-03 9.89093911e-03
      7.88079388e-03 -1.31486950e-03 -1.69251347e-03 4.97259060e-03
      -7.92743813e-04 4.65264963e-03 3.57506378e-03 9.97834094e-03
      7.02915806e-03 5.06474031e-03 4.33270214e-03 1.33809779e-04
      4.97506640e-04 2.19070539e-03 1.26934389e-03 1.91685196e-03
      6.78376015e-03 9.03665368e-03 6.51149591e-03 5.57117024e-03
      1.72077998e-04 6.40044978e-04 2.81629548e-03 1.63281662e-03
      2.46477919e-03 8.72114673e-03 9.03907977e-03 6.51182188e-03
      5.57062402e-03 1.71467924e-04 6.39947131e-04 2.81698839e-03
      1.63143571e-03 2.46287766e-03 8.72041844e-03 1.16206007e-02
      8.37194081e-03 7.16294022e-03 2.20506205e-04 8.23295442e-04
      3.62142292e-03 2.09859177e-03 3.16688535e-03 1.12108998e-02
      9.19468061e-04 3.46474978e-03 4.01655538e-03 -8.35538609e-04
      -7.00289209e-04 2.88006850e-03 6.82068011e-03 6.66890852e-03
      6.91307662e-03 1.18211028e-03 4.45490796e-03 5.16456412e-03
      -1.07578584e-03 -9.05911846e-04 3.70320212e-03 8.76982231e-03
      8.57441407e-03 8.88813566e-03 1.18057628e-03 4.45492566e-03
      5.16478159e-03 -1.07425975e-03 -9.01313499e-04 3.70290689e-03
      8.76942556e-03 8.57442524e-03 8.88829492e-03 1.51780329e-03
      5.72805852e-03 6.64097583e-03 -1.38314720e-03 -1.16595498e-03
      4.76121111e-03 1.12754591e-02 1.10243941e-02 1.14276716e-02
      2.68424465e-03 6.93693897e-03 1.64732325e-03 -2.81481026e-03
      1.62349816e-03 4.40556556e-04 4.88190958e-03 2.41428008e-03
      1.40110520e-03 3.45073128e-03 8.91891681e-03 2.11817143e-03
      -3.61895212e-03 2.08914396e-03 5.66407631e-04 6.27720542e-03
      3.10426299e-03 1.80101523e-03 3.45112826e-03 8.91899411e-03
      2.11830903e-03 -3.61892814e-03 2.08684546e-03 5.66454895e-04
      6.27637561e-03 3.10286623e-03 1.80104561e-03 4.43659909e-03
      1.14672706e-02 2.72377674e-03 -4.65279259e-03 2.68538739e-03
      7.28270912e-04 8.07022210e-03 3.98964062e-03 2.31510843e-03
      5.65207237e-03 3.54109355e-03 5.03782416e-03 2.80451193e-03
      4.80527000e-04 -2.79106759e-03 2.79870606e-03 3.30117880e-03
      3.54588078e-03 7.26724975e-03 4.55286354e-03 6.47740532e-03
      3.60601954e-03 6.18328922e-04 -3.58835864e-03 3.59842484e-03
      4.24429402e-03 4.55930829e-03 7.26719294e-03 4.55319788e-03
      6.47834688e-03 3.60577367e-03 6.17555168e-04 -3.58851627e-03
      3.59832239e-03 4.24454547e-03 4.55945032e-03 9.34391934e-03
      5.85414981e-03 8.32956377e-03 4.63627605e-03 7.94653432e-04
      -4.61360626e-03 4.62652883e-03 5.45717217e-03 5.86256059e-03
      6.54277438e-03 6.24449598e-03 6.47675293e-03 -3.20600084e-05
      -3.27346264e-04 9.73023998e-04 2.42683734e-03 -1.81243743e-03
      2.29505752e-03 8.41198396e-03 8.02882109e-03 8.32765922e-03
      -4.29835454e-05 -4.20606288e-04 1.25272200e-03 3.12055578e-03
      -2.33024429e-03 2.95059779e-03 8.41238908e-03 8.02966114e-03
      8.32760613e-03 -4.05420251e-05 -4.21112200e-04 1.25102606e-03
      3.12009803e-03 -2.33136211e-03 2.95055658e-03 1.08157294e-02
      1.03240861e-02 1.07074426e-02 -5.43933747e-05 -5.41085610e-04
      1.61063671e-03 4.01198771e-03 -2.99742469e-03 3.79332737e-03
      2.24456890e-04 5.79242036e-03 3.30508896e-03 7.52412190e-04
      3.81920929e-03 6.36042422e-03 5.16061392e-03 7.46982114e-04
      -9.46596265e-03 2.87218485e-04 7.44726555e-03 4.24923608e-03
      9.67357599e-04 4.91311261e-03 8.17771163e-03 6.63596578e-03
      9.61060054e-04 -1.21712340e-02 2.85560207e-04 7.44659081e-03
      4.24938323e-03 9.67376924e-04 4.91049606e-03 8.17753188e-03
      6.63390197e-03 9.61634330e-04 -1.21682435e-02 3.65387532e-04
      9.57401749e-03 5.46328211e-03 1.24373217e-03 6.31696731e-03
      1.05139986e-02 8.53044726e-03 1.23722735e-03 -1.56457983e-02
      -3.09479859e-04 6.29846565e-03 1.72168890e-03 2.85492139e-03
      9.32892959e-04 3.29735503e-03 -3.59238649e-04 6.71961252e-03
      -4.08443203e-03 -3.96782445e-04 8.09814967e-03 2.21301615e-03
      3.67054995e-03 1.20032229e-03 4.23935801e-03 -4.61860414e-04
      8.63950327e-03 -5.25155338e-03 -3.97348107e-04 8.09799787e-03
      2.21358333e-03 3.67059489e-03 1.19933800e-03 4.23915451e-03
      -4.63422301e-04 8.63880385e-03 -5.25088562e-03 -5.09437406e-04
      1.04118697e-02 2.84528430e-03 4.71925410e-03 1.54314889e-03
      5.45021426e-03 -5.95804711e-04 1.11070359e-02 -6.75131939e-03
      -9.67393455e-04 5.35188662e-03 3.96402273e-03 6.68924768e-04
      -6.53059571e-04 7.30419112e-03 3.09147290e-03 9.90828034e-04
      -2.55230558e-03 -1.24378724e-03 6.88087428e-03 5.09625440e-03
      8.60158412e-04 -8.36421503e-04 9.39112622e-03 3.97478417e-03
      1.27394323e-03 -3.28152278e-03 -1.24416535e-03 6.88097719e-03
      5.09658642e-03 8.60053231e-04 -8.40020424e-04 9.39110480e-03
      3.97504820e-03 1.27427862e-03 -3.28182289e-03 -1.59963500e-03
      8.84681195e-03 6.55230973e-03 1.10592705e-03 -1.07587804e-03
      1.20743085e-02 5.11081982e-03 1.63838651e-03 -4.21946868e-03
      -5.58456173e-03 5.89040481e-03 1.95509335e-03 4.32657264e-03
      1.14085968e-03 8.18666257e-03 6.77292142e-03 6.95000403e-03
      -7.97130633e-03 -7.18051847e-03 7.57346069e-03 2.51393369e-03
      5.56258392e-03 1.46666006e-03 1.05256652e-02 8.70776922e-03
      8.93555209e-03 -1.02492142e-02 -7.18080299e-03 7.57321483e-03
      2.51378329e-03 5.56310220e-03 1.46677264e-03 1.05256950e-02
      8.70838482e-03 8.93587898e-03 -1.02491993e-02 -9.23293456e-03
      9.73709673e-03 3.23231914e-03 7.15236366e-03 1.88564498e-03
      1.35329794e-02 1.11961439e-02 1.14887720e-02 -1.31780459e-02
      -4.37530829e-03 3.55835818e-03 3.04782123e-04 2.47473293e-03
      6.88952394e-03 1.02674421e-02 9.63784195e-03 2.52054015e-04
      -9.75107774e-03 -5.62588731e-03 4.57500014e-03 3.91836104e-04
      3.18085472e-03 8.84355232e-03 1.32009732e-02 1.23922797e-02
      3.24360299e-04 -1.25381099e-02 -5.62278461e-03 4.57489444e-03
      3.91508773e-04 3.18154017e-03 8.85814801e-03 1.32006109e-02
      1.23912003e-02 3.25550529e-04 -1.25302980e-02 -7.22992700e-03
      5.88196702e-03 5.03333460e-04 4.08933824e-03 1.13705220e-02
      1.69721842e-02 1.59325302e-02 4.18937794e-04 -1.61116812e-02
      -6.48315204e-03 3.20110819e-04 -4.48026089e-03 6.21924782e-03
      6.16494333e-03 4.54776222e-03 3.50038917e-03 6.52395072e-04
      2.19561136e-03 -8.33563227e-03 4.11597575e-04 -5.76028647e-03
      7.99620338e-03 7.92696606e-03 5.84712718e-03 4.50028060e-03
      8.38750857e-04 2.82277633e-03 -8.33797362e-03 4.11567191e-04
      -5.76003455e-03 7.99625646e-03 7.92687573e-03 5.84695954e-03
      4.50032437e-03 8.38742359e-04 2.82034907e-03 -1.07204448e-02
      5.29192970e-04 -7.40569551e-03 1.02809342e-02 1.01924818e-02
      7.51752546e-03 5.78584941e-03 1.07832835e-03 3.62596614e-03
      -7.15361023e-03 -1.74767966e-03 5.58128627e-03 7.47413794e-03
      7.04396516e-03 5.13528287e-03 2.79820827e-03 1.52345965e-04
      -4.43073502e-03 -9.19708237e-03 -2.24711327e-03 7.17571704e-03
      9.60958097e-03 9.05717257e-03 6.60239486e-03 3.59700597e-03
      1.95613087e-04 -5.69498399e-03 -9.19771940e-03 -2.24718265e-03
      7.17617618e-03 9.60833859e-03 9.05524474e-03 6.60251221e-03
      3.59750632e-03 1.95825691e-04 -5.69681777e-03 -1.18251042e-02
      -2.88935984e-03 9.22622625e-03 1.23535451e-02 1.16432868e-02
      8.48880038e-03 4.62447759e-03 2.51440710e-04 -7.32232677e-03
      -4.77889599e-03 2.77485955e-03 2.05278397e-03 9.04851986e-05
      9.68059234e-04 3.98249738e-03 2.35576415e-03 2.49493192e-03
      -5.00336476e-03 -6.14472944e-03 3.56795662e-03 2.64012930e-03
      1.16334500e-04 1.24347559e-03 5.12035657e-03 3.02877603e-03
      3.20721860e-03 -6.43338729e-03 -6.14521792e-03 3.56603903e-03
      2.63892184e-03 1.16331590e-04 1.24430866e-03 5.12037566e-03
      3.02896136e-03 3.20744724e-03 -6.43306691e-03 -7.90155400e-03
      4.58526704e-03 3.39397322e-03 1.49565312e-04 1.59831916e-03
      6.58334419e-03 3.89429624e-03 4.12315177e-03 -8.27171654e-03
      3.44042724e-04 -3.51603352e-03 -3.24504072e-04 -1.25368184e-03
      3.65711912e-03 5.77651942e-03 -3.01849609e-03 5.28632989e-03
      2.60949996e-03 4.42712102e-04 -4.52075340e-03 -4.17636707e-04
      -1.61218678e-03 4.70212568e-03 7.42696365e-03 -3.88094480e-03
      6.79670693e-03 3.35546420e-03 4.38555464e-04 -4.52076271e-03
      -4.17212897e-04 -1.61188177e-03 4.70170937e-03 7.42671592e-03
      -3.88087006e-03 6.79703802e-03 3.35321948e-03 5.64335729e-04
      -5.81258815e-03 -5.36952575e-04 -2.07281695e-03 6.04520272e-03
      9.54864826e-03 -4.98971669e-03 8.73904582e-03 4.31178836e-03
      -6.92479196e-04 3.64718004e-03 3.23312078e-03 -1.35428284e-03
      -3.18711577e-03 6.21041609e-03 3.22613679e-03 7.23799830e-03
      -3.86686437e-03 -8.90640134e-04 4.68830252e-03 4.15641302e-03
      -1.74124935e-03 -4.09861607e-03 7.98481051e-03 4.14986163e-03
      9.30805691e-03 -4.97182785e-03 -8.89712770e-04 4.68954677e-03
      4.15761722e-03 -1.74121477e-03 -4.09763539e-03 7.98440259e-03
      4.14599851e-03 9.30613186e-03 -4.97132912e-03 -1.14431442e-03
      6.02822471e-03 5.34492033e-03 -2.23874114e-03 -5.26953861e-03
      1.02656474e-02 5.33310510e-03 1.19676748e-02 -6.39189500e-03
      -2.14394112e-03 3.31752189e-03 -6.20545936e-04 7.69908598e-04
      1.71298429e-03 3.50542879e-03 4.65735840e-03 3.21427913e-04
      -2.61402153e-03 -2.75656837e-03 4.26527997e-03 -7.98171619e-04
      9.89861670e-04 2.20144889e-03 4.50677704e-03 5.98836178e-03
      4.14027774e-04 -3.36095877e-03 -2.75741704e-03 4.26724646e-03
      -7.96630571e-04 9.89954220e-04 2.20280257e-03 4.50662524e-03
      5.98759996e-03 4.13210801e-04 -3.36179696e-03 -3.54534504e-03
      5.48632490e-03 -1.02465844e-03 1.27277116e-03 2.83094076e-03
      5.79397241e-03 7.69876549e-03 5.32250560e-04 -4.32240404e-03
      5.85223967e-03 1.43923180e-03 -1.26032624e-03 -9.39327492e-06
      4.09666309e-03 3.86173459e-04 6.66830572e-04 -5.19700814e-04
      2.93355901e-03 7.52405915e-03 1.85061153e-03 -1.62078836e-03
      -1.24119779e-05 5.27752610e-03 4.96597553e-04 8.57308449e-04
      -6.67746121e-04 3.77149717e-03 7.52461236e-03 1.85033318e-03
      -1.62037660e-03 -1.24588323e-05 5.26690204e-03 4.96512279e-04
      8.57402280e-04 -6.68156950e-04 3.77176260e-03 9.67418123e-03
      2.37921928e-03 -2.08381563e-03 -1.64493704e-05 6.78508729e-03
      6.38487225e-04 1.10231515e-03 -8.58492684e-04 4.84912377e-03
      7.31517421e-03 1.31465856e-03 9.47138353e-04 -6.58290554e-03
      3.62118561e-04 1.03748695e-03 4.99692140e-03 2.92281806e-03
      1.14902284e-03 9.40554962e-03 1.68997236e-03 1.21771102e-03
      -8.46342836e-03 4.73707914e-04 1.33399875e-03 6.42482238e-03
      3.75791360e-03 1.47771300e-03 9.40500386e-03 1.69025734e-03
      1.21752266e-03 -8.46394058e-03 4.66022000e-04 1.33417011e-03
      6.42496767e-03 3.75691592e-03 1.47693395e-03 1.20925689e-02
      2.17279932e-03 1.56533567e-03 -1.08818132e-02 6.09619019e-04
      1.71547325e-03 8.26094113e-03 4.83032688e-03 1.89942634e-03
      4.92389128e-03 -3.70293669e-03 -3.23084602e-03 -4.64523537e-03
      3.49197886e-03 1.03527110e-03 7.78440293e-03 7.90051278e-03
      4.57386859e-03 6.33021444e-03 -4.76096664e-03 -4.15413966e-03
      -5.97246829e-03 4.49042954e-03 1.33105775e-03 1.00086685e-02
      1.01590883e-02 5.88042708e-03 6.32113591e-03 -4.75830864e-03
      -4.15149052e-03 -5.97245712e-03 4.48913220e-03 1.33100129e-03
      1.00086750e-02 1.01580527e-02 5.84835559e-03 8.12652800e-03
      -6.11788640e-03 -5.33788186e-03 -7.67890271e-03 5.77269495e-03
      1.71128020e-03 1.28684901e-02 1.30620068e-02 7.51897926e-03
      2.50548217e-03 1.42030837e-03 1.06579438e-03 -1.33297720e-03
      4.86068940e-03 -3.95581732e-03 2.60713696e-03 8.04941694e-04
      4.83744033e-03 3.22227343e-03 1.82642625e-03 1.37145573e-03
      -1.71352038e-03 6.24929601e-03 -5.08606294e-03 3.35203437e-03
      1.03490660e-03 6.22046413e-03 3.22076911e-03 1.82676129e-03
      1.37218437e-03 -1.71379838e-03 6.25014212e-03 -5.08605968e-03
      3.35215172e-03 1.03497936e-03 6.21898845e-03 4.14219592e-03
      2.34909868e-03 1.76571182e-03 -2.20306101e-03 8.03568959e-03
      -6.53923582e-03 4.30990988e-03 1.33066380e-03 7.99699686e-03
      3.00463312e-03 5.00739738e-03 3.81746446e-03 -1.55385782e-03
      1.58084207e-03 2.03632680e-03 5.67886187e-03 9.37191580e-05
      3.29549820e-03 3.86303384e-03 6.43853145e-03 4.90856543e-03
      -1.99869554e-03 2.03148974e-03 2.61809514e-03 7.30150379e-03
      1.20528530e-04 4.23695100e-03 3.85968480e-03 6.43809745e-03
      4.90826229e-03 -1.99782825e-03 2.03193375e-03 2.61813751e-03
      7.30171334e-03 1.20610057e-04 4.23441548e-03 4.96236654e-03
      8.27813242e-03 6.31113211e-03 -2.56976555e-03 2.61117262e-03
      3.36612575e-03 9.38805752e-03 1.55111498e-04 5.44409640e-03
      5.26165590e-03 1.33050536e-03 -1.27963629e-03 -1.06425099e-02
      6.67838147e-03 3.48896533e-03 6.74213935e-03 7.54669867e-03
      7.46925361e-03 6.76477049e-03 1.71066041e-03 -1.64389273e-03
      -1.36805829e-02 8.58631171e-03 4.48587025e-03 8.66763294e-03
      9.70263965e-03 9.60312877e-03 6.76407712e-03 1.71094155e-03
      -1.64516689e-03 -1.36832213e-02 8.58738273e-03 4.48582089e-03
      8.66859220e-03 9.70293675e-03 9.60312877e-03 8.69639404e-03
      2.19979626e-03 -2.11347407e-03 -1.75893120e-02 1.10406913e-02
      5.76755824e-03 1.11442627e-02 1.24748712e-02 1.23466263e-02
      5.11885202e-03 1.68965664e-03 1.51741458e-03 -3.00495769e-03
      4.37631598e-03 3.96914361e-03 4.64728195e-03 3.71796475e-03
      6.90184673e-03 6.58136373e-03 2.17247382e-03 1.95115374e-03
      -3.86346970e-03 5.62912365e-03 5.10302093e-03 5.97432628e-03
      4.78046807e-03 8.87386221e-03 6.58068340e-03 2.17265775e-03
      1.95167458e-03 -3.86350602e-03 5.62548591e-03 5.10320067e-03
      5.97558171e-03 4.78040799e-03 8.87314789e-03 8.46085511e-03
      2.79349159e-03 2.50954204e-03 -4.96730255e-03 7.23589351e-03
      6.56104740e-03 7.68192532e-03 6.14653202e-03 1.14084072e-02
      3.41825071e-03 1.32461323e-03 8.76867736e-04 9.42893384e-04
      6.25606626e-03 2.37255357e-03 6.55833771e-03 1.59018184e-03
      1.66656318e-04 4.39472590e-03 1.70305406e-03 1.12738356e-03
      1.21337187e-03 8.05351138e-03 3.05041717e-03 8.43164697e-03
      2.04431592e-03 2.14098298e-04 4.39508306e-03 1.70291739e-03
      1.12724816e-03 1.21229864e-03 8.04402586e-03 3.05051659e-03
      8.43223371e-03 2.04516016e-03 2.15400534e-04 5.65060461e-03
      2.18943995e-03 1.44929439e-03 1.56005844e-03 1.03551727e-02
      3.92208062e-03 1.08407987e-02 2.62922957e-03 2.76719395e-04
      9.66571039e-04 3.05227889e-03 3.54516460e-03 3.51612526e-03
      8.25498937e-05 2.50645308e-03 8.40171427e-03 1.18763722e-03
      2.02072115e-04 1.24301878e-03 3.92442103e-03 4.55902563e-03
      4.51912591e-03 1.05834974e-04 3.22256237e-03 1.07999723e-02
      1.52651535e-03 2.60090485e-04 1.24315906e-03 3.92477866e-03
      4.55933483e-03 4.52086143e-03 1.06308558e-04 3.22201266e-03
      1.08030094e-02 1.52700092e-03 2.61519046e-04 1.59871380e-03
      5.04622469e-03 5.86323021e-03 5.81046985e-03 1.36296934e-04
      4.14256146e-03 1.38867125e-02 1.96271366e-03 3.36602970e-04
      7.93996674e-04 5.01421327e-03 5.62849455e-03 2.88946694e-03
      3.02820769e-03 -2.36013229e-03 1.16377522e-03 4.39758645e-03
      2.90842215e-03 1.02097110e-03 6.44673966e-03 7.23639829e-03
      3.71501036e-03 3.89295933e-03 -3.03421752e-03 1.49571837e-03
      5.65400207e-03 3.73953185e-03 1.02071755e-03 6.44716108e-03
      7.23652495e-03 3.71501269e-03 3.89351486e-03 -3.03444639e-03
      1.49690756e-03 5.65424329e-03 3.73913581e-03 1.31250196e-03
      8.28906987e-03 9.30379704e-03 4.77642100e-03 5.00536989e-03
      -3.90112563e-03 1.92386983e-03 7.26969214e-03 4.80762962e-03
      5.52434800e-03 5.95008489e-03 8.83232104e-04 -1.80795032e-03
      5.80304582e-03 8.51276424e-03 4.14041849e-03 4.64793120e-05
      8.66676855e-04 7.10270600e-03 7.65013974e-03 1.13563810e-03
      -2.32648198e-03 7.46220490e-03 1.09450174e-02 5.32324240e-03
      5.97010003e-05 1.11422292e-03 7.10208714e-03 7.64991250e-03
      1.13500294e-03 -2.32451223e-03 7.46086426e-03 1.09449793e-02
      5.32341935e-03 5.97557810e-05 1.11375935e-03 9.13121924e-03
      9.83564183e-03 1.45936070e-03 -2.99119717e-03 9.59401205e-03
      1.40721612e-02 6.84419926e-03 7.67541933e-05 1.43187854e-03
      -4.48795705e-04 6.30716886e-03 4.98513272e-03 4.56445199e-03
      -4.04467434e-03 5.80162695e-03 2.84771272e-03 -2.45217641e-04
      -1.01988786e-03 -5.76863356e-04 8.10912251e-03 6.40917476e-03
      5.86911198e-03 -5.19873342e-03 7.45925726e-03 3.66105908e-03
      -3.15390178e-04 -1.31112349e-03 -5.76936291e-04 8.10930226e-03
      6.40977407e-03 5.86857414e-03 -5.20057837e-03 7.45922141e-03
      3.66145349e-03 -3.15269746e-04 -1.31126959e-03 -7.41569384e-04
      1.04261246e-02 8.24077614e-03 7.54599227e-03 -6.68444764e-03
      9.59045719e-03 4.70721442e-03 -4.05486848e-04 -1.68571214e-03
      -3.60496505e-03 1.45579688e-03 2.37066444e-04 4.48384508e-03
      -2.02982090e-04 5.36275143e-03 4.06990061e-03 2.34973058e-03
      -6.80165226e-03 -4.63565812e-03 1.87187851e-03 3.05235299e-04
      5.76498220e-03 -2.60783534e-04 6.89492840e-03 5.23270713e-03
      3.02111777e-03 -8.74529965e-03 -4.63519385e-03 1.87139551e-03
      3.04161280e-04 5.76490024e-03 -2.61001085e-04 6.89500012e-03
      5.23276627e-03 3.02019157e-03 -8.74543749e-03 -5.96043980e-03
      2.40625907e-03 3.91625916e-04 7.41206342e-03 -3.35323130e-04
      8.86495132e-03 6.72781467e-03 3.88314878e-03 -1.12445429e-02
      -6.80516427e-03 -1.59655197e-03 1.75236387e-03 2.30469601e-03
      1.04940217e-03 3.67426150e-03 3.14704282e-03 4.53843269e-03
      -9.55710071e-04 -8.74947011e-03 -2.05329643e-03 2.25281063e-03
      2.96438672e-03 1.35434815e-03 4.72479314e-03 4.04650671e-03
      5.83526678e-03 -1.22808421e-03 -8.74989294e-03 -2.05270434e-03
      2.25313171e-03 2.96337437e-03 1.34886999e-03 4.72407276e-03
      4.04630555e-03 5.83419297e-03 -1.23187748e-03 -1.12498272e-02
      -2.63994699e-03 2.89658969e-03 3.81160411e-03 1.74084143e-03
      6.07476244e-03 5.20278979e-03 7.50128413e-03 -1.58296200e-03
      -9.33048502e-03 7.41594192e-03 3.03872069e-03 4.90805693e-03
      2.06205831e-03 -1.73818518e-03 2.75681290e-04 2.42201914e-03
      -5.11527061e-03 -1.19961146e-02 9.53457225e-03 3.90631473e-03
      6.31012488e-03 2.65033566e-03 -2.23481655e-03 3.53927375e-04
      3.11374501e-03 -6.57646591e-03 -1.20019559e-02 9.53349564e-03
      3.90649540e-03 6.31125271e-03 2.65071052e-03 -2.23508361e-03
      3.54445248e-04 3.11424304e-03 -6.58289250e-03 -1.54307988e-02
      1.22570815e-02 5.02185151e-03 8.11416656e-03 3.40692210e-03
      -2.87368824e-03 4.55046858e-04 4.00366774e-03 -8.46331939e-03
      -1.00453738e-02 7.69044331e-04 -8.69449636e-04 -1.91200129e-03
      2.17678770e-03 9.09232814e-03 6.87440112e-03 3.69891617e-03
      -6.96537085e-03 -1.29156094e-02 9.88672720e-04 -1.11777021e-03
      -2.45831278e-03 2.79877149e-03 1.16901603e-02 8.83848872e-03
      4.75572515e-03 -8.95550102e-03 -1.29267219e-02 9.88781685e-04
      -1.11763459e-03 -2.45829020e-03 2.79846205e-03 1.16901556e-02
      8.83851387e-03 4.75577172e-03 -8.96569807e-03 -1.66202355e-02
      1.27116521e-03 -1.43683958e-03 -3.16069066e-03 3.59807955e-03
      1.50302332e-02 1.13637680e-02 6.11453224e-03 -1.15273576e-02
      -5.02438657e-03 -4.30999557e-03 2.34490819e-03 3.61079886e-03
      7.70077389e-03 3.17109935e-03 -1.84798462e-03 -4.75634908e-04
      -4.79811290e-03 -6.46046689e-03 -5.54142939e-03 3.01478896e-03
      4.64242045e-03 9.90281533e-03 4.07854468e-03 -2.37601530e-03
      -6.11485564e-04 -6.16940344e-03 -6.46056188e-03 -5.54185919e-03
      3.01461201e-03 4.64244653e-03 9.90152732e-03 4.07715142e-03
      -2.37675197e-03 -6.11737487e-04 -6.16868399e-03 -8.30713194e-03
      -7.12525425e-03 3.87580926e-03 5.96881472e-03 1.27328746e-02
      5.24387415e-03 -3.05586867e-03 -7.86462042e-04 -7.93168135e-03
      -1.00342697e-02 -3.04775662e-04 1.69591210e-03 3.27510526e-03
      5.51994657e-03 -7.94090738e-04 3.68954986e-03 9.09454247e-04
      -1.96672371e-03 -1.29014840e-02 -3.91830632e-04 2.18047411e-03
      4.21081763e-03 7.09708501e-03 -1.02094631e-03 4.74370643e-03
      1.16927747e-03 -2.52893544e-03 -1.29010314e-02 -3.91794689e-04
      2.17992323e-03 4.21061739e-03 7.09727919e-03 -1.02098798e-03
      4.74378280e-03 1.16937363e-03 -2.52802158e-03 -1.65873989e-02
      -5.03706222e-04 2.80277827e-03 5.41361002e-03 9.12508741e-03
      -1.31266250e-03 6.09914726e-03 1.50345371e-03 -3.25068668e-03
      -8.79088975e-03 6.27272669e-03 3.11501254e-03 -5.49047114e-03
      4.82350541e-03 1.68346288e-03 1.92777871e-03 -4.38713469e-03
      -4.39986266e-04 -1.13024460e-02 8.06487072e-03 4.00488311e-03
      -7.05918204e-03 6.20158808e-03 2.16444582e-03 2.47852551e-03
