<?xml version="1.0"?>
<opencv_storage>
<my_svm type_id="opencv-ml-svm">
  <svm_type>C_SVC</svm_type>
  <kernel><type>LINEAR</type></kernel>
  <C>1.</C>
  <term_criteria><epsilon>1.1920928955078125e-07</epsilon>
    <iterations>1000</iterations></term_criteria>
  <var_all>256</var_all>
  <var_count>256</var_count>
  <class_count>2</class_count>
  <class_labels type_id="opencv-matrix">
    <rows>1</rows>
    <cols>2</cols>
    <dt>i</dt>
    <data>
      0 1</data></class_labels>
  <sv_total>1</sv_total>
  <support_vectors>
    <_>
      -6.30966446e-04 2.69810189e-05 1.31098740e-03 8.75434198e-04
      -4.20548575e-04 -4.77090798e-05 7.58696347e-04 7.46265985e-04
      1.23498240e-03 -8.28735210e-05 -1.77897527e-04 -4.79854898e-05
      6.59495883e-04 -1.06393833e-04 2.20911088e-03 -4.35930822e-04
      -2.12258281e-04 -1.13527574e-04 -1.33096139e-04 -4.66417696e-05
      -1.34907707e-04 -1.32124760e-05 -1.79137773e-04 -4.55154659e-05
      6.25075656e-04 -2.35885927e-05 -1.41301847e-04 -2.49320074e-05
      4.59579984e-04 -5.77860446e-05 -1.13166912e-04 -5.79765067e-04
      1.20174023e-03 -1.07813132e-04 -1.94798668e-05 3.09085153e-05
      -8.40428183e-05 -1.05380859e-05 4.19947173e-05 -3.05519170e-05
      -1.49903528e-04 -2.61799632e-05 -2.42830320e-05 -1.84357668e-05
      -1.48754902e-04 -3.42823841e-05 -4.37241906e-05 -1.05814892e-04
      8.41144938e-04 -4.71755666e-05 4.00333010e-05 4.60680985e-06
      -7.85748125e-05 -5.06778451e-06 1.05198678e-05 3.59137334e-06
      5.99782157e-04 -6.11645592e-05 -5.40486799e-05 -3.11502808e-05
      7.89064274e-04 -1.12052658e-04 5.85466099e-04 -2.79831700e-04
      -1.39776457e-04 -1.43752011e-04 -5.21438378e-05 -1.70989646e-04
      -2.28558594e-04 -1.43974303e-05 -3.95991337e-05 -7.60789771e-05
      -9.24903507e-05 -1.82561653e-05 -4.50121697e-05 -2.97440602e-05
      -2.08614947e-05 -8.94043842e-06 -9.91399138e-05 -6.05291752e-05
      -4.83430595e-05 -4.69249562e-06 -6.93682523e-06 -1.05304753e-05
      -1.83738539e-05 -4.69249562e-06 -3.87265345e-06 -2.01013318e-05
      -8.26261021e-05 -9.84541111e-06 -2.79670276e-05 -2.02956799e-05
      -9.97879251e-05 -3.46695524e-05 -9.13131516e-05 -9.89060427e-05
      8.37221101e-04 -2.63657101e-04 3.77388569e-05 1.51915856e-05
      -2.47348780e-05 -3.20308827e-05 2.72555621e-06 -2.60056822e-05
      -5.05850039e-05 -4.55995541e-05 -8.40697430e-06 -1.02263984e-05
      -2.67733844e-06 -2.17646848e-05 -4.42906930e-05 -7.79632464e-05
      9.83531005e-04 -4.84628690e-05 -5.31221303e-06 8.04245792e-06
      -8.10514393e-05 -2.66685965e-05 -2.59693797e-06 -8.61444059e-05
      3.05320398e-04 -7.81193012e-05 -1.31270674e-04 -1.01132704e-04
      -5.26408316e-04 -1.12047288e-04 -9.92863352e-05 -3.55230615e-04
      8.42582551e-04 8.00436246e-04 -1.70186191e-04 9.93625727e-04
      -1.18698903e-04 -1.26720450e-04 -5.20610920e-05 2.11084207e-05
      5.94313242e-05 5.46413612e-05 -4.21578879e-05 -7.01508834e-05
      2.38493085e-05 8.68963762e-05 -1.92743955e-05 7.31374312e-04
      -1.05924722e-04 -5.88243092e-05 -1.22476149e-05 -2.91295892e-05
      -1.27774965e-05 -8.53256097e-06 -6.20463688e-05 -8.81810774e-05
      1.58218627e-05 6.23761844e-06 -3.59955425e-06 -3.36417688e-05
      -3.78004916e-05 -8.58767453e-06 -1.72930013e-04 -4.00496756e-05
      -3.31729185e-04 -1.24298182e-04 -5.62912828e-05 -8.75347032e-05
      -8.81705091e-06 -3.95670249e-05 -9.77867603e-06 -1.15146904e-04
      -3.39658945e-05 -1.53830642e-05 -1.62411925e-05 -1.13457281e-06
      2.90026742e-06 -1.96297860e-05 -2.99168532e-05 -2.92183813e-05
      -9.61460028e-05 -2.86632276e-05 -1.19513106e-06 -2.96888065e-05
      -3.74567790e-05 -3.74940464e-05 -3.17831291e-05 -1.38769581e-04
      -5.19101886e-05 -3.15678117e-05 -1.66942446e-05 -4.53171524e-04
      -1.75625682e-04 -1.03740284e-04 -8.19796842e-05 -5.69128140e-04
      7.27854378e-04 7.84993754e-04 -1.06248190e-04 5.84270419e-05
      -2.85932456e-05 -6.09668459e-05 -1.47422616e-05 -5.53966733e-04
      2.67451378e-05 -1.93658416e-05 -1.20004916e-05 -1.16044233e-04
      1.56386977e-06 -1.27316362e-05 -2.45978299e-05 1.49386290e-06
      -1.03133774e-04 -8.91429736e-05 -1.93053638e-05 -1.12446367e-04
      -2.37656041e-05 -6.02705295e-05 -1.33281301e-05 -1.39244046e-04
      4.35677466e-05 -1.91062827e-05 -2.04553271e-05 -1.03704202e-04
      -1.18402550e-05 -1.28281899e-04 -1.00497993e-04 -5.46182971e-04
      8.81729356e-04 -2.33216822e-04 -6.37078338e-05 8.28801363e-04
      -4.60416959e-05 -1.29468186e-04 -2.11800925e-05 -3.72324539e-05
      -3.56564342e-05 -1.81234136e-04 -2.65443214e-05 -6.43045860e-05
      -3.15365069e-05 -1.22377169e-04 -2.16053231e-04 -4.36524308e-04
      -4.62556782e-05 -7.68975762e-04 -1.52804714e-04 -1.35115304e-04
      -4.82122450e-05 -1.44074816e-04 -1.25200575e-04 -4.22908401e-04
      9.63200757e-04 -2.19962549e-05 -5.47379095e-05 -5.02116862e-04
      -4.44201287e-05 -5.10460522e-04 -4.98957117e-04 -2.23713717e-03</_></support_vectors>
  <decision_functions>
    <_>
      <sv_count>1</sv_count>
      <rho>-1.5746740615383403e-01</rho>
      <alpha>
        1.</alpha>
      <index>
        0</index></_></decision_functions></my_svm>
</opencv_storage>
