<?xml version="1.0"?>
<opencv_storage>
<my_svm type_id="opencv-ml-svm">
  <svm_type>C_SVC</svm_type>
  <kernel><type>LINEAR</type></kernel>
  <C>1.</C>
  <term_criteria><epsilon>1.1920928955078125e-07</epsilon>
    <iterations>1000</iterations></term_criteria>
  <var_all>256</var_all>
  <var_count>256</var_count>
  <class_count>3</class_count>
  <class_labels type_id="opencv-matrix">
    <rows>1</rows>
    <cols>3</cols>
    <dt>i</dt>
    <data>
      0 1 2</data></class_labels>
  <sv_total>3</sv_total>
  <support_vectors>
    <_>
      -8.46516923e-04 0. 0. 0. 0. 0. 0. 0. 0. 0. 0. 0. 0. 0. 0. 0. 0.
      9.16555931e-04 0. 0. 0. 0. 0. 0. 0. 0. 0. 0. 0. 0. 0. 0. 0. 0.
      7.09504762e-04 0. 0. 0. 0. 0. 0. 0. 0. 0. 0. 0. 0. 0. 0. 0. 0.
      1.08646222e-04 0. 0. 0. 0. 0. 0. 0. 0. 0. 0. 0. 0. 0. 0. 0. 0.
      5.23129303e-04 0. 0. 0. 0. 0. 0. 0. 0. 0. 0. 0. 0. 0. 0. 0. 0.
      -4.65687132e-04 0. 0. 0. 0. 0. 0. 0. 0. 0. 0. 0. 0. 0. 0. 0. 0.
      5.03149058e-05 0. 0. 0. 0. 0. 0. 0. 0. 0. 0. 0. 0. 0. 0. 0. 0.
      -6.46691653e-04 0. 0. 0. 0. 0. 0. 0. 0. 0. 0. 0. 0. 0. 0. 0. 0.
      4.93790314e-04 0. 0. 0. 0. 0. 0. 0. 0. 0. 0. 0. 0. 0. 0. 0. 0.
      -3.93376715e-04 0. 0. 0. 0. 0. 0. 0. 0. 0. 0. 0. 0. 0. 0. 0. 0.
      -1.85805737e-04 0. 0. 0. 0. 0. 0. 0. 0. 0. 0. 0. 0. 0. 0. 0. 0.
      -7.85629018e-05 0. 0. 0. 0. 0. 0. 0. 0. 0. 0. 0. 0. 0. 0. 0. 0.
      2.86337417e-05 0. 0. 0. 0. 0. 0. 0. 0. 0. 0. 0. 0. 0. 0. 0. 0.
      -1.26971267e-04 0. 0. 0. 0. 0. 0. 0. 0. 0. 0. 0. 0. 0. 0. 0. 0.
      -4.85063618e-04 0. 0. 0. 0. 0. 0. 0. 0. 0. 0. 0. 0. 0. 0. 0. 0.
      3.98100849e-04</_>
    <_>
      -4.81198047e-04 0. 0. 0. 0. 0. 0. 0. 0. 0. 0. 0. 0. 0. 0. 0. 0.
      4.70609200e-04 0. 0. 0. 0. 0. 0. 0. 0. 0. 0. 0. 0. 0. 0. 0. 0.
      -8.10687052e-05 0. 0. 0. 0. 0. 0. 0. 0. 0. 0. 0. 0. 0. 0. 0. 0.
      -1.13854308e-04 0. 0. 0. 0. 0. 0. 0. 0. 0. 0. 0. 0. 0. 0. 0. 0.
      3.42766230e-04 0. 0. 0. 0. 0. 0. 0. 0. 0. 0. 0. 0. 0. 0. 0. 0.
      -1.60684995e-03 0. 0. 0. 0. 0. 0. 0. 0. 0. 0. 0. 0. 0. 0. 0. 0.
      9.30587776e-05 0. 0. 0. 0. 0. 0. 0. 0. 0. 0. 0. 0. 0. 0. 0. 0.
      2.03216885e-04 0. 0. 0. 0. 0. 0. 0. 0. 0. 0. 0. 0. 0. 0. 0. 0.
      -1.10283378e-04 0. 0. 0. 0. 0. 0. 0. 0. 0. 0. 0. 0. 0. 0. 0. 0.
      3.40738079e-05 0. 0. 0. 0. 0. 0. 0. 0. 0. 0. 0. 0. 0. 0. 0. 0.
      -4.03978309e-04 0. 0. 0. 0. 0. 0. 0. 0. 0. 0. 0. 0. 0. 0. 0. 0.
      1.26301442e-04 0. 0. 0. 0. 0. 0. 0. 0. 0. 0. 0. 0. 0. 0. 0. 0.
      5.06797689e-04 0. 0. 0. 0. 0. 0. 0. 0. 0. 0. 0. 0. 0. 0. 0. 0.
      6.31161965e-04 0. 0. 0. 0. 0. 0. 0. 0. 0. 0. 0. 0. 0. 0. 0. 0.
      -4.70485465e-05 0. 0. 0. 0. 0. 0. 0. 0. 0. 0. 0. 0. 0. 0. 0. 0.
      4.36295173e-04</_>
    <_>
      2.07829871e-04 0. 0. 0. 0. 0. 0. 0. 0. 0. 0. 0. 0. 0. 0. 0. 0.
      -7.31443637e-04 -1.38202973e-04 0. -4.81732597e-04 -1.38884957e-03
      0. 0. 0. 0. 0. 0. 0. 0. 0. 0. 0. 0. -3.45630513e-04 0.
      -1.34566057e-04 0. 0. -2.85773567e-04 0. 0. -4.79784416e-04 0. 0.
      0. 0. 0. 0. 0. 0. 7.38744799e-04 0. 0. 0. -2.54584429e-05 0. 0. 0.
      -7.81503259e-05 0. 0. 0. 0. -1.51510860e-04 0. 0. 0.
      2.15249442e-04 0. 0. 0. 0. -1.17836217e-03 0. 0. 0. 0.
      -1.51634958e-05 0. 0. 0. 0. 0. 0. 3.35485267e-04 0. 0. 0. 0. 0. 0.
      0. 0. 0. 0. 0. 0. -1.16642275e-06 0. 0. 0. 8.45966220e-04 0. 0. 0.
      0. 0. 0. -1.63661418e-04 0. 0. 0. 0. 0. 0. 0. 0. -6.99853672e-06
      5.71552897e-04 0. 0. 0. 0. 0. 0. 0. 0. -3.70359892e-04 0. 0. 0. 0.
      0. 0. 0. -6.67393848e-04 0. 0. 0. 0. 0. 0. 0. 0. 0.
      -6.65556465e-04 0. 0. -6.73381655e-05 0. 0. 0. 5.26005053e-04 0.
      0. 0. -1.07310894e-04 0. 0. 0. 0. 0. 0. -6.18276463e-05 0. 0. 0.
      0. 0. 4.34052854e-05 0. 0. 0. 0. 0. 0. -5.83211367e-05 0. 0. 0. 0.
      0. 0. 0. 0. 0. 1.19757489e-03 0. 0. 0. -3.95611714e-04 0. 0. 0. 0.
      0. 0. 0. 0. 0. 0. 0. 0. 5.12135797e-04 0. 0. 0. 0. 0. 0. 0. 0. 0.
      0. 0. -1.63299192e-05 0. 0. -1.78209099e-04 0. 1.54898944e-03 0.
      0. 0. 0. 0. 0. 0. 0. 0. 0. 0. 0. -8.41727069e-06 -2.33284550e-06
      0. 0. 9.91088455e-04 0. 0. 0. 0. 0. 0. 0. 0. 0. 0. 0. 0. 0. 0. 0.
      0. 4.71436564e-04</_></support_vectors>
  <decision_functions>
    <_>
      <sv_count>1</sv_count>
      <rho>-3.1650687565967728e-01</rho>
      <alpha>
        1.</alpha>
      <index>
        0</index></_>
    <_>
      <sv_count>1</sv_count>
      <rho>2.5340536340649944e-01</rho>
      <alpha>
        1.</alpha>
      <index>
        1</index></_>
    <_>
      <sv_count>1</sv_count>
      <rho>3.2617693476326060e+00</rho>
      <alpha>
        1.</alpha>
      <index>
        2</index></_></decision_functions></my_svm>
</opencv_storage>
