<?xml version="1.0"?>
<opencv_storage>
<my_svm type_id="opencv-ml-svm">
  <svm_type>C_SVC</svm_type>
  <kernel><type>LINEAR</type></kernel>
  <C>1.</C>
  <term_criteria><epsilon>1.1920928955078125e-07</epsilon>
    <iterations>1000</iterations></term_criteria>
  <var_all>256</var_all>
  <var_count>256</var_count>
  <class_count>3</class_count>
  <class_labels type_id="opencv-matrix">
    <rows>1</rows>
    <cols>3</cols>
    <dt>i</dt>
    <data>
      0 1 2</data></class_labels>
  <sv_total>3</sv_total>
  <support_vectors>
    <_>
      -2.55277613e-04 0. 0. 0. 0. 0. 0. 0. 0. 0. 0. 0. 0. 0. 0. 0. 0.
      9.63456929e-04 0. 0. 0. 0. 0. 0. 0. 0. 0. 0. 0. 0. 0. 0. 0. 0.
      4.67692327e-04 0. 0. 0. 0. 0. 0. 0. 0. 0. 0. 0. 0. 0. 0. 0. 0.
      -1.51350585e-04 0. 0. 0. 0. 0. 0. 0. 0. 0. 0. 0. 0. 0. 0. 0. 0.
      -2.83949252e-04 0. 0. 0. 0. 0. 0. 0. 0. 0. 0. 0. 0. 0. 0. 0. 0.
      -1.10356999e-03 0. 0. 0. 0. 0. 0. 0. 0. 0. 0. 0. 0. 0. 0. 0. 0.
      -2.29578029e-04 0. 0. 0. 0. 0. 0. 0. 0. 0. 0. 0. 0. 0. 0. 0. 0.
      -3.77082935e-04 0. 0. 0. 0. 0. 0. 0. 0. 0. 0. 0. 0. 0. 0. 0. 0.
      8.68783856e-04 0. 0. 0. 0. 0. 0. 0. 0. 0. 0. 0. 0. 0. 0. 0. 0.
      -7.34654081e-04 0. 0. 0. 0. 0. 0. 0. 0. 0. 0. 0. 0. 0. 0. 0. 0.
      3.80655925e-04 0. 0. 0. 0. 0. 0. 0. 0. 0. 0. 0. 0. 0. 0. 0. 0.
      4.15419607e-04 0. 0. 0. 0. 0. 0. 0. 0. 0. 0. 0. 0. 0. 0. 0. 0.
      3.99434473e-04 0. 0. 0. 0. 0. 0. 0. 0. 0. 0. 0. 0. 0. 0. 0. 0.
      -4.82835108e-04 0. 0. 0. 0. 0. 0. 0. 0. 0. 0. 0. 0. 0. 0. 0. 0.
      -5.01836592e-04 0. 0. 0. 0. 0. 0. 0. 0. 0. 0. 0. 0. 0. 0. 0. 0.
      6.24691194e-04</_>
    <_>
      2.81837420e-04 0. 0. 0. 0. 0. 0. 0. 0. 0. 0. 0. 0. 0. 0. 0. 0.
      -3.59949394e-04 0. 0. -3.42319290e-05 -4.81149364e-05 0. 0. 0. 0.
      0. 0. 0. 0. 0. 0. 0. 0. -1.59314324e-04 0. 0. 0. 0.
      -2.03070776e-05 0. 0. -4.53439170e-05 0. 0. 0. 0. 0. 0. 0. 0.
      1.25856241e-04 0. 0. 0. 0. 0. 0. 0. -5.55336374e-06 0. 0. 0. 0.
      -1.25955330e-06 0. 0. 0. 1.65278383e-04 0. 0. 0. 0. 0. 0. 0. 0. 0.
      -1.07751839e-06 0. 0. 0. 0. 0. 0. -8.87360191e-04 0. 0. 0. 0. 0.
      0. 0. 0. 0. 0. 0. 0. -8.28860252e-08 0. 0. 0. 2.20194532e-04 0. 0.
      0. -7.55731946e-07 0. 0. 0. 0. 0. 0. 0. 0. 0. 0. 0.
      -4.97316194e-07 2.05430522e-04 0. 0. 0. 0. 0. 0. 0. 0.
      -1.00764260e-06 0. 0. 0. 0. 0. 0. 0. -2.93444755e-05 0. 0. 0. 0.
      0. 0. 0. 0. 0. 0. 0. 0. 0. 0. 0. 0. 4.56441776e-05 0. 0. 0.
      -7.62551463e-06 0. 0. 0. 0. 0. 0. 0. 0. 0. 0. 0. 0.
      -9.53534836e-05 0. 0. 0. 0. 0. 0. -4.14430133e-06 0. 0. 0. 0. 0.
      0. 0. 0. 0. 1.89977611e-04 0. 0. 0. -4.30767213e-05 0. 0. 0. 0. 0.
      0. 0. 0. 0. 0. 0. 0. 1.14306968e-04 0. 0. 0. 0. 0. 0. 0.
      -1.73818353e-05 0. 0. 0. -1.16040439e-06 0. 0. 0. 0.
      1.13850198e-04 0. 0. 0. 0. 0. 0. 0. 0. 0. 0. 0. 0. 0.
      -1.65772050e-07 0. 0. -8.97978389e-05 0. 0. 0. 0. 0. 0. 0. 0. 0.
      0. 0. 0. 0. 0. 0. 0. 3.90530098e-04</_>
    <_>
      2.09310703e-04 0. 0. 0. 0. 0. 0. 0. 0. 0. 0. 0. 0. 0. 0. 0. 0.
      -3.53456242e-04 -1.16974072e-04 0. -4.85995843e-04 -1.46347436e-03
      0. 0. 0. 0. 0. 0. 0. 0. 0. 0. 0. 0. -4.88784513e-04 0.
      -1.13895803e-04 0. 0. -2.88302632e-04 0. 0. -5.05563861e-04 0. 0.
      0. 0. 0. 0. 0. 0. 7.73566426e-04 0. 0. 0. -2.15478558e-05 0. 0. 0.
      -7.88419420e-05 0. 0. 0. 0. -1.59651740e-04 0. 0. 0.
      2.32984166e-04 0. 0. 0. 0. -9.97357885e-04 0. 0. 0. 0.
      -1.52976900e-05 0. 0. 0. 0. 0. 0. 3.05728230e-04 0. 0. 0. 0. 0. 0.
      0. 0. 0. 0. 0. 0. -1.17674540e-06 0. 0. 0. 8.95656471e-04 0. 0. 0.
      0. 0. 0. -1.38521922e-04 0. 0. 0. 0. 0. 0. 0. 0. -7.06047240e-06
      7.09036365e-04 0. 0. 0. 0. 0. 0. 0. 0. -3.90259811e-04 0. 0. 0. 0.
      0. 0. 0. -6.64608262e-04 0. 0. 0. 0. 0. 0. 0. 0. 0.
      -5.63322508e-04 0. 0. -7.09563319e-05 0. 0. 0. 5.41869842e-04 0.
      0. 0. -1.08260574e-04 0. 0. 0. 0. 0. 0. -5.23305062e-05 0. 0. 0.
      0. 0. -1.54101799e-04 0. 0. 0. 0. 0. 0. -5.88372677e-05 0. 0. 0.
      0. 0. 0. 0. 0. 0. 8.14362429e-04 0. 0. 0. -4.16868454e-04 0. 0. 0.
      0. 0. 0. 0. 0. 0. 0. 0. 0. 6.30252121e-04 0. 0. 0. 0. 0. 0. 0. 0.
      0. 0. 0. -1.64744361e-05 0. 0. -1.50834981e-04 0. 1.30309549e-03
      0. 0. 0. 0. 0. 0. 0. 0. 0. 0. 0. 0. -8.86954149e-06
      -2.35349080e-06 0. 0. 8.60852306e-04 0. 0. 0. 0. 0. 0. 0. 0. 0. 0.
      0. 0. 0. 0. 0. 0. 6.17266982e-04</_></support_vectors>
  <decision_functions>
    <_>
      <sv_count>1</sv_count>
      <rho>-3.0605058792015288e-01</rho>
      <alpha>
        1.</alpha>
      <index>
        0</index></_>
    <_>
      <sv_count>1</sv_count>
      <rho>7.3872729309695140e-01</rho>
      <alpha>
        1.</alpha>
      <index>
        1</index></_>
    <_>
      <sv_count>1</sv_count>
      <rho>2.9505517993493409e+00</rho>
      <alpha>
        1.</alpha>
      <index>
        2</index></_></decision_functions></my_svm>
</opencv_storage>
