<?xml version="1.0"?>
<opencv_storage>
<my_svm type_id="opencv-ml-svm">
  <svm_type>C_SVC</svm_type>
  <kernel><type>LINEAR</type></kernel>
  <C>1.</C>
  <term_criteria><epsilon>1.1920928955078125e-07</epsilon>
    <iterations>1000</iterations></term_criteria>
  <var_all>17682</var_all>
  <var_count>17682</var_count>
  <class_count>3</class_count>
  <class_labels type_id="opencv-matrix">
    <rows>1</rows>
    <cols>3</cols>
    <dt>i</dt>
    <data>
      0 1 2</data></class_labels>
  <sv_total>3</sv_total>
  <support_vectors>
    <_>
      1.37244467e-06 2.48619953e-27 7.43965783e-27 0. 4.92224274e-07 0.
      4.85359086e-10 1.62198463e-10 1.37244467e-06 1.76457411e-06
      3.19653680e-27 9.56525664e-27 0. 6.32859781e-07 0. 1.05885267e-09
      3.53849949e-10 1.76457411e-06 1.76457183e-06 1.13009082e-27
      3.38166220e-27 0. 6.32449598e-07 0. 6.19066798e-10 2.06881248e-10
      1.76457183e-06 2.26873817e-06 1.45297105e-27 4.34784386e-27 0.
      8.13149541e-07 0. 1.35499589e-09 4.52815813e-10 2.26873817e-06
      4.10118190e-07 0. 0. 0. 4.48863875e-06 0. 1.16103316e-11
      3.87996926e-12 4.10118190e-07 5.27294844e-07 0. 0. 0.
      5.77111405e-06 0. 1.14065042e-11 3.81185361e-12 5.27294844e-07
      5.27294844e-07 0. 0. 0. 5.77110677e-06 0. 1.80285422e-11
      6.02482213e-12 5.27294844e-07 6.77950538e-07 0. 0. 0.
      7.42000384e-06 0. 1.86524702e-11 6.23332852e-12 6.77950538e-07
      4.10118190e-07 -6.49879252e-28 -1.94467906e-27 0. 1.36594622e-06
      0. 7.60689012e-11 2.54209449e-11 4.10118190e-07 5.27294844e-07
      -2.81613983e-27 -8.42693189e-27 0. 1.75707055e-06 0.
      1.53971516e-10 5.14547016e-11 5.27294844e-07 5.27294844e-07
      -8.35553921e-28 -2.50028636e-27 0. 1.75616015e-06 0.
      1.01323769e-10 3.38606990e-11 5.27294844e-07 6.77950538e-07
      -3.62071748e-27 -1.08345246e-26 0. 2.25901840e-06 0.
      2.02490122e-10 6.76688011e-11 6.77950538e-07 4.10377055e-07
      2.01372296e-12 6.02582697e-12 0. 1.18702917e-06 0. 1.54564702e-07
      5.16529433e-08 4.10377055e-07 5.27627492e-07 1.56692118e-12
      4.68882572e-12 0. 1.52653638e-06 0. 1.98726426e-07 6.64110473e-08
      5.27627492e-07 5.27863506e-07 2.58960908e-12 7.74909824e-12 0.
      1.52617747e-06 0. 1.98726028e-07 6.64109265e-08 5.27863506e-07
      6.78681431e-07 2.01566346e-12 6.03163439e-12 0. 1.96268593e-06 0.
      2.55505398e-07 8.53856363e-08 6.78681431e-07 1.37241170e-06
      -6.42849216e-07 -1.92361608e-06 -1.07945867e-33 -2.87906062e-07 0.
      1.54564717e-07 5.16529468e-08 1.37241352e-06 1.76452954e-06
      -8.26528947e-07 -2.47322123e-06 -4.67765459e-33 -3.70164940e-07 0.
      1.98726440e-07 6.64110615e-08 1.76453364e-06 1.76449998e-06
      -8.26522069e-07 -2.47322555e-06 -8.39579116e-34 -3.70165623e-07 0.
      1.98726070e-07 6.64109265e-08 1.76450237e-06 2.26864313e-06
      -1.06268203e-06 -3.17986201e-06 -3.63817595e-33 -4.75927237e-07 0.
      2.55505427e-07 8.53856506e-08 2.26864836e-06 1.37666336e-06
      -6.42840746e-07 -1.92361745e-06 -1.40834046e-11 4.90333832e-07 0.
      -2.17353302e-10 -7.26356544e-11 1.37666336e-06 1.76999572e-06
      -8.26512860e-07 -2.47323237e-06 -1.81072327e-11 6.30922273e-07 0.
      -1.69052564e-10 -5.64944029e-11 1.76999572e-06 1.76999583e-06
      -8.26509677e-07 -2.47322305e-06 -3.09834866e-11 6.30328316e-07 0.
      -2.79454709e-10 -9.33888730e-11 1.76999583e-06 2.27570899e-06
      -1.06265952e-06 -3.17987019e-06 -3.98359054e-11 8.11056111e-07 0.
      -2.17353718e-10 -7.26357932e-11 2.27570899e-06 9.66747621e-07
      -2.23612292e-11 -1.84829435e-06 -8.53251493e-07 3.96069233e-10 0.
      3.47033410e-32 1.15972465e-32 9.66747621e-07 1.24286055e-06
      -2.87504985e-11 -2.37637892e-06 -1.09703763e-06 5.09231879e-10 0.
      2.69914897e-32 9.02008170e-33 1.24286055e-06 1.24295900e-06
      -2.87504482e-11 -2.37637892e-06 -1.09703763e-06 3.08053832e-10 0.
      1.50381145e-31 5.02547345e-32 1.24295900e-06 1.59796070e-06
      -3.69651323e-11 -3.05534400e-06 -1.41047690e-06 3.96069205e-10 0.
      1.16963122e-31 3.90870180e-32 1.59796070e-06 1.30877424e-06
      -1.24366261e-06 2.11840620e-06 -1.62669316e-33 5.81690813e-07 0.
      7.65081054e-11 2.55677285e-11 1.30877606e-06 1.68273834e-06
      -1.59905051e-06 2.72349962e-06 -8.67015521e-34 7.47892102e-07 0.
      1.58049934e-10 5.28176461e-11 1.68273982e-06 1.68265228e-06
      -1.59900947e-06 2.72362604e-06 -2.88963364e-33 7.47888180e-07 0.
      9.26631619e-11 3.09664829e-11 1.68265456e-06 2.16344688e-06
      -2.05594097e-06 3.50159189e-06 -1.37147424e-33 9.61575552e-07 0.
      1.95872832e-10 6.54574311e-11 2.16344870e-06 1.58400397e-07
      -1.96219048e-06 -2.70200786e-07 0. 4.91416017e-07 0.
      -7.28715482e-13 -2.43523924e-13 9.67095275e-07 2.03649904e-07
      -2.52311543e-06 -3.48302450e-07 0. 6.31821820e-07 0.
      -1.60317387e-12 -5.35752540e-13 1.24340784e-06 2.03645584e-07
      -2.52312179e-06 -3.48306514e-07 0. 6.31820626e-07 0.
      -9.36918403e-13 -3.13101623e-13 1.24340590e-06 2.61819821e-07
      -3.24439861e-06 -4.48981723e-07 0. 8.12342307e-07 0.
      -2.06122034e-12 -6.88823618e-13 1.59866431e-06 -2.01316630e-06
      -7.81683468e-07 -1.35605740e-06 -5.11563448e-12 3.05188246e-06 0.
      1.54564887e-07 5.16530037e-08 5.07494102e-10 -2.58858859e-06
      -1.00497959e-06 -1.74338186e-06 -1.12543959e-11 3.92390120e-06 0.
      1.98726667e-07 6.64111326e-08 4.19180690e-10 -2.58855857e-06
      -1.00496152e-06 -1.74332240e-06 -6.57724439e-12 3.92342463e-06 0.
      1.98725900e-07 6.64108768e-08 4.58072719e-10 -3.32844456e-06
      -1.29203931e-06 -2.24125938e-06 -1.44699374e-11 5.04447053e-06 0.
      2.55505228e-07 8.53855795e-08 2.88978508e-10 -1.03037337e-07
      6.18412752e-11 1.85052140e-10 0. -7.97172532e-08 0.
      -1.48151216e-07 -4.95095236e-08 8.68524353e-07 -1.32391534e-07
      7.82782866e-11 2.34237740e-10 0. -1.02289199e-07 0.
      -1.90476442e-07 -6.36538715e-08 1.11675831e-06 -1.32383178e-07
      1.40731662e-10 4.21121360e-10 0. -1.02496045e-07 0.
      -1.90480549e-07 -6.36552429e-08 1.11677230e-06 -1.70097621e-07
      1.79357279e-10 5.36703404e-10 0. -1.31517652e-07 0.
      -2.44898814e-07 -8.18408736e-08 1.43595787e-06 -4.77988408e-07
      -2.97410196e-07 -8.89958926e-07 4.75669200e-12 2.47028674e-06
      -9.20814900e-12 6.89103441e-09 2.30169972e-09 -1.98333169e-06
      -6.14557848e-07 -3.82384144e-07 -1.14422971e-06 1.04647228e-11
      3.17608192e-06 -7.16189347e-12 9.29736999e-09 3.10476000e-09
      -2.54999622e-06 -6.14322687e-07 -3.82384911e-07 -1.14423415e-06
      6.11574723e-12 3.17568083e-06 -1.18390480e-11 8.85990481e-09
      2.96075253e-09 -2.54977022e-06 -7.89844819e-07 -4.91637252e-07
      -1.47115384e-06 1.34546436e-11 4.08301685e-06 -9.20814900e-12
      1.19537242e-08 3.99366495e-09 -3.27827411e-06 -8.97794735e-07
      6.17427418e-07 1.84759313e-06 2.06500715e-31 1.18723153e-06 0.
      4.68200909e-07 -3.43807756e-07 -2.87547778e-06 -1.15430885e-06
      7.93834147e-07 2.37547351e-06 1.60611684e-31 1.52643622e-06 0.
      6.01069473e-07 -4.42341417e-07 -3.69704117e-06 -1.15433545e-06
      7.93827951e-07 2.37547511e-06 9.03402673e-31 1.52729581e-06 0.
      6.01971408e-07 -4.42038925e-07 -3.69707482e-06 -1.48414722e-06
      1.02063461e-06 3.05417825e-06 7.02646529e-31 1.96366045e-06 0.
      7.72802139e-07 -5.68725000e-07 -4.75337993e-06 2.92696382e-06
      4.82782582e-07 5.88143791e-13 -5.71304636e-12 -8.47374281e-07
      -7.41328841e-35 -2.25229243e-07 -2.02687374e-06 2.82690712e-06
      3.76324465e-06 6.20727690e-07 -3.14396122e-12 -1.25687022e-11
      -1.08947916e-06 -3.21242471e-34 -2.89587774e-07 -2.60597835e-06
      3.63459890e-06 3.76324056e-06 6.20719504e-07 1.42686947e-12
      -7.34534829e-12 -1.08948529e-06 -5.76589105e-35 -2.89578963e-07
      -2.60598813e-06 3.63458685e-06 4.83845906e-06 7.98077167e-07
      -3.18150411e-12 -1.61597662e-11 -1.40076429e-06 -2.49855296e-34
      -3.72325189e-07 -3.35055324e-06 4.67304471e-06 -3.61425975e-07
      7.83289124e-07 2.34389927e-06 4.91957792e-07 4.16604706e-08
      -2.53250919e-18 -6.37252754e-07 -2.12975323e-07 -6.08914434e-07
      -4.64689521e-07 1.00708246e-06 3.01357363e-06 6.32515935e-07
      5.35663318e-08 -5.57152010e-18 -8.19328534e-07 -2.73823758e-07
      -7.82888719e-07 -4.64663714e-07 1.00708587e-06 3.01357977e-06
      6.32509057e-07 5.35642783e-08 -5.57152010e-18 -8.19324157e-07
      -2.73829301e-07 -7.82863538e-07 -5.97423593e-07 1.29481998e-06
      3.87458840e-06 8.13224347e-07 6.88720476e-08 -1.22573443e-17
      -1.05342122e-06 -3.52063893e-07 -1.00653745e-06 3.51903452e-07
      5.83523117e-12 1.74611645e-11 0. 4.44236150e-07 -8.10218125e-12
      -1.36284825e-06 -4.55442944e-07 3.51825065e-07 4.52224498e-07
      9.03359592e-12 2.70319097e-11 0. 5.71621683e-07 -1.04170899e-11
      -1.75222726e-06 -5.85569580e-07 4.52114705e-07 4.52640109e-07
      9.63098525e-12 2.88195197e-11 0. 5.70688940e-07 -1.78247989e-11
      -1.75223238e-06 -5.85566909e-07 4.52455481e-07 5.81679444e-07
      1.43521497e-11 4.29470556e-11 0. 7.34335629e-07 -2.29176001e-11
      -2.25286203e-06 -7.52871870e-07 5.81430527e-07 2.03480317e-06
      3.76268446e-07 1.12595217e-06 0. -2.02667024e-06 -1.05937145e-12
      1.54557611e-07 5.16434682e-08 2.03480204e-06 2.61617583e-06
      4.83776887e-07 1.44765556e-06 0. -2.60571392e-06 -2.33056196e-12
      1.98708605e-07 6.63977033e-08 2.61617424e-06 2.61617402e-06
      4.83773647e-07 1.44765283e-06 0. -2.60571392e-06 -1.36208471e-12
      1.98710424e-07 6.64011353e-08 2.61617379e-06 3.36365292e-06
      6.21998879e-07 1.86127113e-06 0. -3.35019740e-06 -2.99646462e-12
      2.55474106e-07 8.53715534e-08 3.36365201e-06 1.42391877e-06
      1.03162761e-26 3.08701148e-26 0. 1.68147207e-09 0. 6.45478950e-13
      2.15708311e-13 1.42391877e-06 1.83075235e-06 4.46420300e-26
      1.33585459e-25 0. 1.30781486e-09 0. 8.31142772e-13 2.77754030e-13
      1.83075235e-06 1.82983081e-06 1.33256464e-26 3.98752578e-26 0.
      2.16189444e-09 0. 1.40790808e-12 4.70499345e-13 1.82983081e-06
      2.35263929e-06 5.74765042e-26 1.71990943e-25 0. 1.68148129e-09 0.
      1.81906768e-12 6.07902021e-13 2.35263929e-06 5.57993762e-10
      1.22254401e-10 3.65830394e-10 0. 1.93273331e-09 0. 2.49845152e-06
      8.34938703e-07 5.57993762e-10 4.81569284e-10 9.50869938e-11
      2.84535479e-10 0. 3.09645753e-09 0. 3.21230073e-06 1.07349445e-06
      4.81569284e-10 8.02557520e-10 1.57183294e-10 4.70350592e-10 0.
      1.84296856e-09 0. 3.21229481e-06 1.07349263e-06 8.02557520e-10
      7.28622107e-10 1.22254221e-10 3.65829811e-10 0. 3.15576543e-09 0.
      4.13010048e-06 1.38020721e-06 7.28622107e-10 3.99089400e-10
      2.32869691e-12 6.96832219e-12 0. 2.46966624e-06 0. 2.62244365e-10
      8.76375222e-11 3.99089400e-10 4.00016908e-10 2.99420449e-12
      8.95976782e-12 0. 3.17545505e-06 0. 3.37171568e-10 1.12676875e-10
      4.00016908e-10 4.28175273e-10 5.12313282e-12 1.53303082e-11 0.
      3.17527929e-06 0. 5.76936277e-10 1.92802080e-10 4.28175273e-10
      4.05099426e-10 6.58725028e-12 1.97114894e-11 0. 4.08272035e-06 0.
      7.41774420e-10 2.47888154e-10 4.05099426e-10 3.44436174e-10
      7.83311236e-07 2.34395679e-06 0. 1.05979687e-11 0. 5.51418300e-10
      1.84274748e-10 3.44436174e-10 4.70997630e-10 1.00711247e-06
      3.01365299e-06 0. 1.36286989e-11 0. 8.89021801e-10 2.97096209e-10
      4.70997630e-10 6.50784315e-10 1.00713430e-06 3.01371870e-06 0.
      8.24356729e-12 0. 5.28911193e-10 1.76753293e-10 6.50784315e-10
      8.72917072e-10 1.29488456e-06 3.87477348e-06 0. 1.06016472e-11 0.
      9.11528186e-10 3.04617498e-10 8.72917072e-10 1.14815549e-07 0. 0.
      0. 3.04259902e-06 0. 1.07832797e-11 3.60358228e-12 1.14815549e-07
      1.47620000e-07 0. 0. 0. 3.91191679e-06 0. 1.03431612e-11
      3.45650245e-12 1.47620000e-07 1.47620000e-07 0. 0. 0.
      3.91191315e-06 0. 1.73852946e-11 5.80985954e-12 1.47620000e-07
      1.89797134e-07 0. 0. 0. 5.02960711e-06 0. 1.78254616e-11
      5.95695628e-12 1.89797134e-07 5.25764676e-07 3.10135303e-18
      9.28042963e-18 0. 3.34200806e-10 0. 7.50167706e-10 2.50693494e-10
      5.25764676e-07 6.75982108e-07 6.08155759e-18 1.81983391e-17 0.
      4.29686342e-10 0. 9.66617564e-10 3.23027438e-10 6.75982108e-07
      6.76219202e-07 6.08155759e-18 1.81983391e-17 0. 2.59934629e-10 0.
      1.14443588e-09 3.82451293e-10 6.76219202e-07 8.69423388e-07
      1.17483056e-17 3.51554110e-17 0. 3.34202055e-10 0. 1.47413770e-09
      4.92632157e-10 8.69423388e-07 2.01491782e-10 4.32928658e-07
      1.29548755e-06 0. 2.46981858e-06 0. 1.12621547e-06 3.76361413e-07
      2.01491782e-10 2.32414019e-10 5.56622524e-07 1.66562711e-06 0.
      3.17548415e-06 0. 1.44816875e-06 4.83952476e-07 2.32414019e-10
      2.29439800e-10 5.56622524e-07 1.66562711e-06 0. 3.17531408e-06 0.
      1.44805381e-06 4.83914050e-07 2.29439800e-10 2.60733823e-10
      7.15657563e-07 2.14152010e-06 0. 4.08255028e-06 0. 1.86201135e-06
      6.22251491e-07 2.60733823e-10 1.10047048e-10 -4.95073813e-08
      -1.48144665e-07 -5.58725050e-13 1.38235545e-09 0. 1.54564916e-07
      5.16530037e-08 1.10047048e-10 1.41489320e-10 -6.36524646e-08
      -1.90472079e-07 -7.18360755e-13 3.04213410e-09 0. 1.98726312e-07
      6.64110047e-08 1.41489320e-10 2.42103448e-10 -6.36522302e-08
      -1.90471610e-07 -1.22919502e-12 1.77731407e-09 0. 1.98726312e-07
      6.64110118e-08 2.42103448e-10 3.11276477e-10 -8.18387420e-08
      -2.44892561e-07 -1.58039359e-12 3.91131572e-09 0. 2.55505228e-07
      8.53855866e-08 3.11276477e-10 -1.09874847e-07 -3.22268212e-10
      -3.46682960e-10 -1.24021293e-10 -2.02635761e-06 0. 1.17495139e-10
      3.92649108e-11 -1.09874847e-07 -1.41239795e-07 -7.07242875e-10
      -5.11852172e-10 -1.59455935e-10 -2.60549155e-06 0. 1.51065022e-10
      5.04834022e-11 -1.41239781e-07 -1.41138642e-07 -4.16092799e-10
      -6.96586844e-10 -2.72846801e-10 -2.60531237e-06 0. 9.13855519e-11
      3.05395258e-11 -1.41138642e-07 -1.81428121e-07 -9.11560105e-10
      -9.80620363e-10 -3.50803053e-10 -3.34991250e-06 0. 1.17495347e-10
      3.92649871e-11 -1.81428106e-07 -3.13036509e-07 -6.43546173e-07
      -1.92567995e-06 -1.82385086e-17 5.20289922e-10 1.04929509e-12
      1.54564745e-07 5.16498986e-08 -3.13033752e-07 -4.02474029e-07
      -8.27235056e-07 -2.47535604e-06 -1.41855073e-17 6.68944122e-10
      1.34909380e-12 1.98726099e-07 6.64076651e-08 -4.02472068e-07
      -4.02139904e-07 -8.27239944e-07 -2.47534604e-06 -2.01812995e-17
      6.68944178e-10 8.16118386e-13 1.98725857e-07 6.64088446e-08
      -4.02136010e-07 -5.17035176e-07 -1.06336108e-06 -3.18192110e-06
      -1.56965644e-17 8.60071070e-10 1.04929509e-12 2.55504659e-07
      8.53836326e-08 -5.17032106e-07 4.48779414e-09 -3.86871715e-11
      -1.84839996e-06 -8.53256552e-07 4.91926869e-07 -7.83796432e-16
      1.38617806e-12 -5.08265596e-10 4.21246504e-09 5.82009951e-09
      -4.98356321e-11 -2.37652534e-06 -1.09704490e-06 6.32951867e-07
      -6.09619459e-16 1.78242805e-12 -7.86358756e-10 5.28405275e-09
      6.10863005e-09 -8.50164314e-11 -2.37662266e-06 -1.09704956e-06
      6.32476201e-07 -1.72435209e-15 3.04958749e-12 -4.68826311e-10
      5.79196469e-09 7.91829891e-09 -1.09428640e-10 -3.05567187e-06
      -1.41049338e-06 8.13793747e-07 -1.34116275e-15 3.92133158e-12
      -7.73615227e-10 7.27712957e-09 3.98357571e-07 -1.56224894e-06
      -1.41420082e-06 -1.70069167e-12 1.85631723e-06 0. -2.74606919e-07
      -9.17692660e-08 5.24931011e-07 5.12170175e-07 -2.00862269e-06
      -1.81825612e-06 -2.18659400e-12 2.38669463e-06 0. -3.53069737e-07
      -1.17990290e-07 6.74912712e-07 5.12175461e-07 -2.00861359e-06
      -1.81827852e-06 -1.32278672e-12 2.38669350e-06 0. -3.53065218e-07
      -1.17989195e-07 6.74911860e-07 6.58506394e-07 -2.58252453e-06
      -2.33778405e-06 -1.70070490e-12 3.06860716e-06 0. -4.53945745e-07
      -1.51701983e-07 8.67745598e-07 4.70483634e-08 -1.87450564e-06
      4.91198875e-07 -1.85129510e-28 2.46948821e-06 0. 2.06279039e-11
      -9.23758208e-08 1.66068261e-08 6.04941519e-08 -2.41007911e-06
      6.31537318e-07 -8.41497774e-29 3.17505169e-06 0. 2.16732795e-11
      -1.18770529e-07 2.13556088e-08 6.04578005e-08 -2.41007751e-06
      6.31541354e-07 -2.38023660e-28 3.17506147e-06 0. 3.28921231e-11
      -1.18766778e-07 2.13187832e-08 7.77358267e-08 -3.09867096e-06
      8.11976690e-07 -1.08192569e-28 4.08221604e-06 0. 3.60563489e-11
      -1.52702242e-07 2.74149876e-08 7.81958477e-07 -4.96996613e-08
      -1.48699712e-07 -8.59410299e-18 -2.88092110e-07 0. 1.82020454e-10
      5.92624005e-11 2.01379589e-06 1.00512682e-06 -6.39003588e-08
      -1.91185705e-07 -1.89070261e-17 -3.70574071e-07 0. 2.94053948e-10
      9.62547403e-11 2.58891464e-06 1.00564364e-06 -6.40765805e-08
      -1.91718030e-07 -1.10495605e-17 -3.70404109e-07 0. 1.74359235e-10
      5.48232119e-11 2.58942737e-06 1.29265118e-06 -8.23852062e-08
      -2.46495091e-07 -2.43090333e-17 -4.76452385e-07 0. 3.01354441e-10
      9.62786587e-11 3.32894069e-06 1.60223465e-06 -2.05742253e-06
      -2.73768165e-07 -1.02835041e-11 1.62209824e-06 -3.66883477e-12
      1.14488605e-12 1.21244974e-12 2.14966940e-06 2.06000846e-06
      -2.64524897e-06 -3.51978457e-07 -1.32216434e-11 2.08554889e-06
      -4.71707309e-12 -4.14145226e-13 9.28542724e-13 2.76385754e-06
      2.05976085e-06 -2.64525761e-06 -3.51985051e-07 -7.99829820e-12
      2.08555502e-06 -8.07143588e-12 9.89196030e-13 2.15624523e-12
      2.76360174e-06 2.64825417e-06 -3.40103429e-06 -4.52540462e-07
      -1.02835128e-11 2.68142003e-06 -1.03775599e-11 -1.15320958e-12
      1.96190872e-12 3.55319821e-06 2.59326271e-06 3.76274869e-07
      1.12594478e-06 -1.06367432e-12 7.45061512e-10 -2.42522235e-12
      -1.19197487e-07 -2.36084452e-06 2.53284043e-08 3.33410640e-06
      4.83776489e-07 1.44763953e-06 -1.36755895e-12 7.80670251e-10
      -5.33548856e-12 -1.53254675e-07 -3.03537172e-06 3.24804859e-08
      3.33395587e-06 4.83777853e-07 1.44761077e-06 -2.34008299e-12
      7.56758989e-10 -3.11814311e-12 -1.53253239e-07 -3.03537149e-06
      3.23337268e-08 4.28640124e-06 6.21993081e-07 1.86120894e-06
      -3.00862959e-12 7.45062123e-10 -6.85991455e-12 -1.97040791e-07
      -3.90262039e-06 4.14636645e-08 -3.97783964e-07 2.43067643e-06
      5.72833393e-13 6.86633302e-12 4.94079188e-07 -1.40625218e-07
      -2.30333981e-07 -1.34891252e-06 -2.31961849e-07 -5.11692463e-07
      3.12515454e-06 8.86142234e-13 1.34836734e-11 6.35243850e-07
      -1.80803838e-07 -2.96142673e-07 -1.73430851e-06 -2.98475499e-07
      -5.11675353e-07 3.12515567e-06 2.93499464e-13 7.92689005e-12
      6.34772562e-07 -1.80815007e-07 -2.96159811e-07 -1.73431749e-06
      -2.98465835e-07 -6.58197393e-07 4.01805573e-06 5.70970300e-13
      1.61773997e-11 8.16135184e-07 -2.32476438e-07 -3.80775532e-07
      -2.22982726e-06 -3.84048917e-07 2.58197383e-06 1.55864058e-07
      -8.36838865e-07 -6.01650015e-07 5.82203427e-07 -3.15277411e-34
      1.76855388e-11 -3.25220441e-07 5.67173402e-07 3.31968113e-06
      2.00399640e-07 -1.07592678e-06 -7.73550084e-07 7.49017886e-07
      -6.93610360e-34 1.37554282e-11 -4.18149710e-07 7.29226144e-07
      3.31943193e-06 2.00389948e-07 -1.07593496e-06 -7.73550084e-07
      7.48546142e-07 -1.36620215e-33 2.27385871e-11 -4.18139223e-07
      7.28982400e-07 4.26784118e-06 2.57648111e-07 -1.38333382e-06
      -9.94564402e-07 9.63021648e-07 -3.00564483e-33 1.76855752e-11
      -5.37619428e-07 9.37266464e-07 1.07684832e-06 9.39156166e-07
      2.20210381e-06 -1.30423325e-06 1.18629100e-06 -5.19918997e-18
      -1.11996988e-10 -7.18968863e-07 -8.33294280e-07 1.38449195e-06
      1.20748621e-06 2.83126928e-06 -1.67687358e-06 1.52522637e-06
      -4.04381387e-18 -1.43404025e-10 -9.24384040e-07 -1.07140772e-06
      1.38425241e-06 1.20748462e-06 2.83127838e-06 -1.67686869e-06
      1.52523353e-06 -1.14382171e-17 -8.67796668e-11 -9.24373410e-07
      -1.07164556e-06 1.77971799e-06 1.55248017e-06 3.64020525e-06
      -2.15597674e-06 1.96100814e-06 -8.89639118e-18 -1.10812498e-10
      -1.18847413e-06 -1.37786742e-06 1.68870258e-06 2.76204025e-11
      1.82072517e-11 -1.20889621e-27 2.96100166e-06 -1.18051879e-11
      -3.02111016e-06 -1.64548794e-06 1.68871100e-06 2.17119327e-06
      3.61824841e-11 2.64569078e-11 -5.49498243e-28 3.80695292e-06
      -1.51779977e-11 -3.88428225e-06 -2.11562337e-06 2.17120646e-06
      2.17114416e-06 2.25140427e-11 1.78263081e-11 -1.55429518e-27
      3.80700203e-06 -1.39583657e-11 -3.88427225e-06 -2.11562451e-06
      2.17116667e-06 2.79147639e-06 2.98087249e-11 2.68378601e-11
      -7.06497837e-28 4.89465356e-06 -1.79463909e-11 -4.99406087e-06
      -2.72008378e-06 2.79150845e-06 3.46523109e-07 4.32970069e-07
      1.29560067e-06 -3.62588215e-12 9.10930272e-12 1.03966772e-06
      3.20365615e-07 -1.90179253e-06 -3.54304376e-07 4.45498671e-07
      5.56675786e-07 1.66577388e-06 -4.66184860e-12 8.73751852e-12
      1.33672575e-06 4.11900629e-07 -2.44516673e-06 -4.55560354e-07
      4.45527263e-07 5.56656403e-07 1.66571817e-06 -2.82013063e-12
      1.46864222e-11 1.33671745e-06 4.11897844e-07 -2.44516332e-06
      -4.55540572e-07 5.72780948e-07 7.15701162e-07 2.14163992e-06
      -3.62588215e-12 1.50582359e-11 1.71864974e-06 5.29584952e-07
      -3.14378804e-06 -5.85728458e-07 -1.16689073e-07 5.95591299e-10
      1.78323145e-09 -1.08570231e-29 1.10890741e-10 -2.05650705e-11
      8.45000570e-10 -1.42845317e-06 -2.89598546e-07 -1.50909671e-07
      7.65760955e-10 2.29272823e-09 -4.93503110e-30 8.62483002e-11
      -2.64407489e-11 1.08695086e-09 -1.83660245e-06 -3.73220388e-07
      -1.50058540e-07 4.62766048e-10 1.38696143e-09 -1.39590680e-29
      1.42569956e-10 -1.59952086e-11 2.05362460e-09 -1.83625923e-06
      -3.72369357e-07 -1.94065052e-07 5.94986616e-10 1.78324122e-09
      -6.34511764e-30 1.10887612e-10 -2.05651468e-11 2.64104316e-09
      -2.36093047e-06 -4.79891355e-07 1.19945139e-06 2.35311358e-12
      7.04138657e-12 0. 1.63886542e-16 -6.77876042e-31 1.08042530e-09
      -8.45228783e-07 4.06387954e-08 1.54179827e-06 2.42884814e-12
      7.26801128e-12 0. 3.60550400e-16 -3.08125493e-31 1.44935131e-09
      -1.08670758e-06 5.18840082e-08 1.54214797e-06 2.42884380e-12
      7.26799827e-12 0. 3.60550400e-16 -1.49132730e-30 2.15122298e-09
      -1.08646316e-06 5.19298382e-08 1.98230737e-06 2.35649781e-12
      7.05151345e-12 0. 7.93210886e-16 -6.77876042e-31 2.84329915e-09
      -1.39686165e-06 6.62968063e-08 7.33529646e-07 9.19362936e-12
      2.75108443e-11 0. 1.36503388e-06 0. 4.66497909e-07 1.55840254e-07
      7.33529646e-07 9.43176929e-07 1.18203980e-11 3.53711366e-11 0.
      1.75524804e-06 0. 5.99799478e-07 2.00384747e-07 9.43176929e-07
      9.43137820e-07 1.18203745e-11 3.53710672e-11 0. 1.75496541e-06 0.
      5.99708983e-07 2.00314659e-07 9.43137820e-07 1.21269204e-06
      1.51976418e-11 4.54771429e-11 0. 2.25664689e-06 0. 7.71075406e-07
      2.57571543e-07 1.21269204e-06 3.04991659e-06 3.28345619e-12
      9.82535320e-12 0. 3.88149907e-13 0. 1.28051806e-06 4.27926778e-07
      3.04991659e-06 3.92132506e-06 4.22158619e-12 1.26325972e-11 0.
      4.99049912e-13 0. 1.64638357e-06 5.50192567e-07 3.92132506e-06
      3.92131551e-06 7.22359108e-12 2.16157370e-11 0. 8.53929720e-13 0.
      1.64637731e-06 5.50190464e-07 3.92131551e-06 5.04169611e-06
      9.28746142e-12 2.77916301e-11 0. 1.09790974e-12 0. 2.11677479e-06
      7.07389177e-07 5.04169611e-06 7.26931237e-10 5.83799476e-07
      1.74694458e-06 0. 1.68144976e-09 0. 4.74432132e-15 1.58547309e-15
      7.26931237e-10 9.34090361e-10 7.50598929e-07 2.24607038e-06 0.
      1.30779776e-09 0. 3.69002788e-15 1.23314561e-15 9.34090361e-10
      1.59828473e-09 7.50598588e-07 2.24606924e-06 0. 2.16186269e-09 0.
      1.04375067e-14 3.48804081e-15 1.59828473e-09 2.05424922e-09
      9.65054824e-07 2.88780166e-06 0. 1.68145142e-09 0. 8.11806033e-15
      2.71292011e-15 2.05424922e-09 1.07714538e-06 5.76359185e-19
      1.72468647e-18 0. 3.35643984e-15 0. 1.33655875e-09 4.46654463e-10
      1.07714538e-06 1.38489906e-06 1.26799023e-18 3.79431014e-18 0.
      4.32789113e-15 0. 2.15805307e-09 7.21183446e-10 1.38489906e-06
      1.38489906e-06 1.26799023e-18 3.79431014e-18 0. 7.38416811e-15 0.
      1.28377831e-09 4.29016100e-10 1.38489906e-06 1.78058156e-06
      2.78957852e-18 8.34748240e-18 0. 9.52136099e-15 0. 2.21579732e-09
      7.40480510e-10 1.78058156e-06 4.10118759e-07 2.48489856e-27
      7.43576437e-27 0. 4.91527032e-07 0. 3.69085715e-18 1.23342266e-18
      4.10118759e-07 5.27295526e-07 1.12950331e-27 3.37990459e-27 0.
      6.31908165e-07 0. 8.11988448e-18 2.71352981e-18 5.27295526e-07
      5.27294560e-07 3.19486567e-27 9.56025693e-27 0. 6.31963303e-07 0.
      8.11988448e-18 2.71352981e-18 5.27294560e-07 6.77950084e-07
      1.45221339e-27 4.34557665e-27 0. 8.12453266e-07 0. 1.78637462e-17
      5.96976620e-18 6.77950084e-07 4.10118759e-07 7.83287533e-07
      2.34388585e-06 -5.34283088e-27 -1.01548922e-10 0. 4.66424950e-07
      1.55871419e-07 4.10118759e-07 5.27295526e-07 1.00708394e-06
      3.01356749e-06 -6.86939614e-27 -2.33094460e-10 0. 5.99688065e-07
      2.00405722e-07 5.27295526e-07 5.27294560e-07 1.00708576e-06
      3.01357341e-06 -2.31522356e-26 -1.35944353e-10 0. 5.99690338e-07
      2.00406490e-07 5.27294560e-07 6.77950084e-07 1.29482476e-06
      3.87459431e-06 -2.97672533e-26 -3.06611708e-10 0. 7.71029022e-07
      2.57665022e-07 6.77950084e-07 2.00546121e-10 4.32812357e-07
      1.22639426e-06 -1.40937118e-07 4.92186814e-07 0. 1.12595660e-06
      3.76280951e-07 2.01890421e-10 1.57418953e-10 5.56367127e-07
      1.57647605e-06 -1.81204854e-07 6.33011098e-07 0. 1.44765909e-06
      4.83789904e-07 1.59147334e-10 2.56270088e-10 5.56472571e-07
      1.57679301e-06 -1.81495139e-07 6.32586193e-07 0. 1.44766136e-06
      4.83796214e-07 2.59227556e-10 2.00371025e-10 7.15328667e-07
      2.02689739e-06 -2.33350903e-07 8.13581551e-07 0. 1.86127932e-06
      6.22023947e-07 2.04173484e-10 8.36422089e-07 -7.17386186e-08
      -2.09453404e-07 -2.41347102e-30 1.02686204e-06 -1.15806927e-19
      7.17963189e-12 -1.70712227e-07 6.02540524e-07 1.07540131e-06
      -9.22335488e-08 -2.69294304e-07 -3.10306923e-30 1.32007835e-06
      -2.54775222e-19 7.33575093e-12 -2.19487760e-07 7.74696673e-07
      1.07542780e-06 -9.22340035e-08 -2.69294048e-07 -1.04583556e-29
      1.32025366e-06 -2.54775222e-19 1.23838223e-11 -2.19486068e-07
      7.74722309e-07 1.38269490e-06 -1.18584090e-07 -3.46231388e-07
      -1.34465465e-29 1.69724660e-06 -5.60505545e-19 1.34853699e-11
      -2.82197220e-07 9.96073823e-07 -2.03616594e-07 1.84825893e-07
      -4.94776430e-07 -1.85074396e-06 1.71622339e-09 -8.14111352e-14
      4.76863216e-10 1.57434565e-10 -2.03613979e-07 -2.61807060e-07
      2.37627873e-07 -6.36139077e-07 -2.37952349e-06 2.44563347e-09
      -6.33851085e-14 6.14452267e-10 2.02065878e-10 -2.61803933e-07
      -2.61765621e-07 2.37936845e-07 -6.35235097e-07 -2.37953259e-06
      1.73576442e-09 -1.04648115e-13 1.04795894e-09 3.48268719e-10
      -2.61762239e-07 -3.36574175e-07 3.05911840e-07 -8.16728004e-07
      -3.05939352e-06 2.53906074e-09 -8.14437967e-14 1.34910072e-09
      4.47323789e-10 -3.36570196e-07 1.23733901e-09 -1.33753208e-12
      -5.73420911e-12 -2.03130912e-06 3.21079938e-07 -1.34076430e-07
      7.25352720e-08 3.13699431e-08 -2.88090149e-07 2.01759009e-09
      -1.17343364e-12 -6.96482585e-12 -2.61168361e-06 4.13486191e-07
      -1.72383622e-07 9.32596507e-08 4.03327753e-08 -3.69975254e-07
      1.72130155e-09 -1.95913403e-12 -1.18790221e-11 -2.61167975e-06
      4.13671216e-07 -1.72384006e-07 9.32596080e-08 4.03328997e-08
      -3.70269504e-07 2.76175083e-09 -1.81665902e-12 -1.47499703e-11
      -3.35787536e-06 5.32723277e-07 -2.21636085e-07 1.19905266e-07
      5.18565919e-08 -4.75512621e-07 -5.18147999e-07 -1.63303355e-06
      -2.33837481e-11 -1.61832315e-06 -1.59931767e-06 -6.40330335e-19
      1.45138279e-06 4.85026817e-07 -2.04486071e-07 -6.66191511e-07
      -2.09961468e-06 -2.89240559e-11 -2.08069719e-06 -2.05625747e-06
      -6.24413726e-19 1.86649845e-06 6.23751191e-07 -2.62909367e-07
      -6.65990058e-07 -2.09961286e-06 -2.32883487e-11 -2.08069923e-06
      -2.05626588e-06 -6.24413726e-19 1.86562886e-06 6.23459755e-07
      -2.62711580e-07 -8.56274539e-07 -2.69950215e-06 -2.84754408e-11
      -2.67517885e-06 -2.64376035e-06 -7.63688917e-19 2.39922497e-06
      8.01777958e-07 -3.37770359e-07 -1.21118137e-06 -3.79211009e-08
      -1.30161413e-06 -6.01656836e-07 -2.07468425e-08 -1.49797154e-06
      2.76209380e-06 7.10957181e-07 -1.05911272e-06 -1.55723058e-06
      -4.89015157e-08 -1.67393455e-06 -7.73558838e-07 -2.66712341e-08
      -1.92596167e-06 3.55108045e-06 9.14026543e-07 -1.36171377e-06
      -1.55702412e-06 -4.89083689e-08 -1.67392295e-06 -7.73558838e-07
      -2.65013025e-08 -1.92596349e-06 3.55126326e-06 9.14088105e-07
      -1.36150732e-06 -2.00188515e-06 -6.30696562e-08 -2.15274031e-06
      -9.94575657e-07 -3.40690995e-08 -2.47623620e-06 4.56567477e-06
      1.17517743e-06 -1.75050627e-06 1.51815232e-06 -4.53286816e-07
      -7.55214955e-07 1.22554109e-08 -1.05315746e-06 -1.82485849e-11
      -1.48153248e-07 -1.20594962e-07 1.23714130e-06 1.95190955e-06
      -5.82796076e-07 -9.70987571e-07 1.57580580e-08 -1.35400751e-06
      -1.67569795e-11 -1.90480421e-07 -1.55048852e-07 1.59060994e-06
      1.95191319e-06 -5.82785447e-07 -9.70961423e-07 1.57569904e-08
      -1.35406242e-06 -2.44476522e-11 -1.90486048e-07 -1.55051779e-07
      1.59061449e-06 2.50960147e-06 -7.49294031e-07 -1.24837493e-06
      2.02604831e-08 -1.74087006e-06 -2.28113882e-11 -2.44907625e-07
      -1.99349955e-07 2.04507478e-06 -2.40934014e-07 1.32134801e-06
      4.66491485e-07 -8.48288039e-07 -7.13092732e-08 1.43726773e-12
      -1.48147066e-07 -4.95122379e-08 1.33736648e-06 -3.09743172e-07
      1.69887835e-06 5.99774751e-07 -1.09065616e-06 -9.12102536e-08
      1.11787489e-12 -1.90474097e-07 -6.36588737e-08 1.71949193e-06
      -3.09529668e-07 1.69889495e-06 5.99831992e-07 -1.09065468e-06
      -9.16852798e-08 1.84791570e-12 -1.90473742e-07 -6.36576090e-08
      1.71970896e-06 -3.97929313e-07 2.18429636e-06 7.71212626e-07
      -1.40227053e-06 -1.17272769e-07 1.43726773e-12 -2.44893926e-07
      -8.18458545e-08 2.21108144e-06 -3.80665739e-07 -2.53346656e-07
      2.48377546e-06 2.55472228e-12 2.01916532e-06 -3.17768186e-12
      2.64023883e-13 -1.24092344e-06 -1.01933040e-06 -4.89423201e-07
      -3.25734590e-07 3.19342689e-06 2.99404035e-12 2.59606963e-06
      -4.83256664e-12 -3.94908932e-13 -1.59547074e-06 -1.31056481e-06
      -4.89671891e-07 -3.25731747e-07 3.19342553e-06 5.09729542e-12
      2.59606986e-06 -6.24391641e-12 8.69095038e-14 -1.59547324e-06
      -1.31081003e-06 -6.29572753e-07 -4.18802216e-07 4.10583334e-06
      6.18003695e-12 3.33780417e-06 -8.98828321e-12 -8.32440887e-13
      -2.05132028e-06 -1.68532347e-06 7.94822881e-07 5.16743910e-08
      -6.25880944e-07 8.32048613e-07 4.91225933e-07 -1.51612306e-12
      -4.37766434e-10 -9.17927139e-07 1.38823816e-06 1.02191882e-06
      6.64323707e-08 -8.04708861e-07 1.06977643e-06 6.31574835e-07
      -9.00526886e-13 -4.49214665e-10 -1.18015203e-06 1.78487585e-06
      1.02175125e-06 6.64492603e-08 -8.04696867e-07 1.06977666e-06
      6.31675391e-07 -2.67632140e-12 -7.75629672e-10 -1.18026333e-06
      1.78471976e-06 1.31368506e-06 8.54268833e-08 -1.03461639e-06
      1.37542702e-06 8.12152450e-07 -2.09256310e-12 -8.51145043e-10
      -1.51742972e-06 2.29463808e-06 -9.91188131e-07 2.29694706e-06
      1.61526873e-06 5.58909299e-12 5.83232634e-07 1.39356382e-09
      -1.47458195e-07 -4.85420451e-08 -1.16089109e-06 -1.27412295e-06
      2.95321183e-06 2.07676021e-06 5.44007070e-12 7.51284460e-07
      1.08388309e-09 -1.89935548e-07 -6.24157366e-08 -1.49231334e-06
      -1.27461021e-06 2.95301447e-06 2.07620951e-06 7.18786142e-12
      7.49870139e-07 1.79172510e-09 -1.89590494e-07 -6.15359355e-08
      -1.49265031e-06 -1.63844788e-06 3.79672451e-06 2.66939378e-06
      6.99852416e-12 9.65936692e-07 1.39356382e-09 -2.44204614e-07
      -7.91234669e-08 -1.91878598e-06 2.99560526e-07 1.14490047e-06
      4.86520833e-07 3.18780289e-12 1.85574811e-06 -7.27611634e-12
      -3.26246213e-12 -8.09281232e-07 2.70050471e-08 3.85412648e-07
      1.47202491e-06 6.25526468e-07 2.36783640e-12 2.38595794e-06
      -1.60073812e-11 -6.64624302e-12 -1.04050184e-06 3.49826159e-08
      3.85149434e-07 1.47202741e-06 6.25532664e-07 -8.55499482e-13
      2.38545044e-06 -9.35498120e-12 2.16282547e-12 -1.04050287e-06
      3.47209124e-08 4.95530855e-07 1.89262005e-06 8.04255365e-07
      -3.32519667e-12 3.06700326e-06 -2.05808998e-11 -3.71347863e-13
      -1.33778633e-06 4.49779627e-08 -8.17960540e-07 4.82590224e-07
      -2.57780277e-12 -4.04307317e-12 1.36484630e-06 -1.56602249e-11
      1.63795761e-07 -1.42366889e-06 -2.03765698e-08 -1.05167715e-06
      6.20573303e-07 -2.47396374e-12 -2.61532896e-12 1.75480034e-06
      -2.11738387e-11 2.10545508e-07 -1.83045097e-06 -2.62254254e-08
      -1.05166919e-06 6.20477124e-07 -2.93849316e-14 -4.24553708e-12
      1.75474236e-06 -2.09701978e-11 2.10662932e-07 -1.83041163e-06
      -2.62038391e-08 -1.35216351e-06 7.97885150e-07 1.04247297e-12
      -2.13766136e-12 2.25609483e-06 -2.82978797e-11 2.70789343e-07
      -2.35341190e-06 -3.37252963e-08 -1.32884679e-06 1.56369623e-07
      4.67901629e-07 1.00465365e-28 9.22363199e-07 -1.94755603e-06
      -1.42636077e-06 -1.75680146e-08 1.15080661e-06 -1.70851536e-06
      2.01045452e-07 6.01585100e-07 1.29169955e-28 1.18590026e-06
      -2.50399376e-06 -1.83389670e-06 -2.25893384e-08 1.47960623e-06
      -1.70851388e-06 2.01046021e-07 6.01588965e-07 4.56660439e-29
      1.18589242e-06 -2.50399353e-06 -1.83388897e-06 -2.25797692e-08
      1.47961362e-06 -2.19665799e-06 2.58486239e-07 7.73468059e-07
      5.87135873e-29 1.52472523e-06 -3.21941252e-06 -2.35786320e-06
      -2.90335631e-08 1.90235676e-06 3.31214949e-07 -1.18065111e-06
      1.71151160e-09 -3.39358415e-18 -1.65666335e-11 -1.82591327e-06
      -2.31892250e-06 1.94948166e-06 1.65380902e-06 4.25852960e-07
      -1.51812719e-06 1.76584436e-09 -7.46588488e-18 -1.76631262e-11
      -2.34759432e-06 -2.98141458e-06 2.50648486e-06 2.12631198e-06
      4.25842870e-07 -1.51812628e-06 1.76584436e-09 -7.46588488e-18
      -2.16154039e-11 -2.34760660e-06 -2.98153645e-06 2.50647713e-06
      2.12633427e-06 5.47518766e-07 -1.95206530e-06 1.71150982e-09
      -1.64249466e-17 -2.31152961e-11 -3.01834007e-06 -3.83333054e-06
      3.22262395e-06 2.73384080e-06 1.58200532e-06 -3.00695666e-13
      -1.05798042e-12 -3.68157718e-12 1.08621850e-06 -1.41137980e-06
      -1.45572722e-06 -4.86488034e-07 1.58200760e-06 2.03400668e-06
      -3.86608687e-13 -1.36026043e-12 -3.02780197e-12 1.39656754e-06
      -1.81463110e-06 -1.87164471e-06 -6.25487019e-07 2.03400873e-06
      2.03375134e-06 -6.61530347e-13 -2.32755677e-12 -5.02929209e-12
      1.39656981e-06 -1.81464395e-06 -1.87164198e-06 -6.25478378e-07
      2.03375407e-06 2.61482273e-06 -8.50539040e-13 -2.99257255e-12
      -4.27324886e-12 1.79559106e-06 -2.33311380e-06 -2.40639088e-06
      -8.04189483e-07 2.61482523e-06 -1.07702739e-07 -7.17322166e-08
      -2.14649191e-07 -4.78332075e-14 5.16240273e-10 -2.71472404e-29
      -9.29041789e-07 -1.91715287e-07 -1.07702682e-07 -1.38901072e-07
      -9.22275092e-08 -2.75978692e-07 -1.05233049e-13 1.13572851e-09
      -3.49035832e-29 -1.19447986e-06 -2.46489606e-07 -1.38901001e-07
      -1.38871243e-07 -9.22269408e-08 -2.75977015e-07 -6.14998436e-14
      6.63737010e-10 -1.17637968e-28 -1.19358072e-06 -2.46189529e-07
      -1.38871201e-07 -1.79096631e-07 -1.18577979e-07 -3.54829069e-07
      -1.35299636e-13 1.46022139e-09 -1.51248767e-28 -1.53460041e-06
      -3.16527604e-07 -1.79096574e-07 1.48830316e-06 1.55841136e-07
      4.66334342e-07 -3.23036831e-29 2.09137559e-15 -7.26473830e-34
      -9.96604854e-07 -1.03596199e-06 1.48827030e-06 1.91359527e-06
      2.00367168e-07 5.99572672e-07 -4.15333052e-29 4.60102664e-15
      -3.30215350e-34 -1.28134138e-06 -1.33208982e-06 1.91352319e-06
      1.91293634e-06 2.00339485e-07 5.99489852e-07 -1.39982631e-28
      5.18349689e-15 -5.65035155e-34 -1.28140778e-06 -1.33197409e-06
      1.91289405e-06 2.45956994e-06 2.57579359e-07 7.70772658e-07
      -1.79977672e-28 1.14036927e-14 -2.56834174e-34 -1.64751441e-06
      -1.71271643e-06 2.45947717e-06 7.57360567e-07 3.76273107e-07
      1.12595274e-06 0. 1.36649783e-06 -3.98965632e-27 1.54575673e-07
      5.16566061e-08 7.57360567e-07 9.73787337e-07 4.83781207e-07
      1.44765818e-06 0. 1.75607192e-06 -5.12955841e-27 1.98736615e-07
      6.64144579e-08 9.73787337e-07 9.73320653e-07 4.83780639e-07
      1.44765636e-06 0. 1.75684772e-06 -1.72885123e-26 1.98743663e-07
      6.64168098e-08 9.73320653e-07 1.25146119e-06 6.22005643e-07
      1.86127795e-06 0. 2.25770668e-06 -2.22280881e-26 2.55523048e-07
      8.53915338e-08 1.25146119e-06 1.71914485e-06 4.83077738e-18
      1.44555271e-17 0. 5.59631508e-10 0. 1.52054931e-11 5.08140838e-12
      1.71914485e-06 2.21032906e-06 1.06277100e-17 3.18021630e-17 0.
      1.07346432e-09 0. 2.45149786e-11 8.19247448e-12 2.21032906e-06
      2.21053460e-06 1.06277100e-17 3.18021630e-17 0. 7.19524218e-10 0.
      1.45848594e-11 4.87400354e-12 2.21053460e-06 2.84211615e-06
      2.33809615e-17 6.99647560e-17 0. 1.38016698e-09 0. 2.51356106e-11
      8.39987888e-12 2.84211615e-06 8.27356742e-16 1.67579356e-32
      5.01459836e-32 0. 1.85909746e-10 0. 1.58496065e-31 5.29667351e-32
      8.27356742e-16 1.61015955e-15 4.07179136e-32 1.21843199e-31 0.
      4.09001416e-10 0. 1.88914003e-31 6.31319107e-32 1.61015955e-15
      1.82018465e-15 6.87672718e-32 2.05777222e-31 0. 2.39026798e-10 0.
      3.27730693e-31 1.09522125e-31 1.82018465e-15 3.54235108e-15
      1.59758980e-31 4.78058412e-31 0. 5.25859023e-10 0. 2.51040548e-31
      8.38935625e-32 3.54235108e-15 1.14925037e-07 -1.49645284e-13
      -1.54282844e-07 -2.86943713e-08 2.04670982e-07 0. 6.47919652e-13
      2.16523929e-13 1.14925356e-07 1.47760090e-07 -4.64502677e-13
      -1.98364248e-07 -3.68925086e-08 2.62295430e-07 0. 1.42542326e-12
      4.76352573e-13 1.47760801e-07 1.47861087e-07 -3.46408096e-13
      -1.98364134e-07 -3.68932902e-08 2.63148394e-07 0. 8.33041101e-13
      2.78388423e-13 1.47861499e-07 1.90106277e-07 -7.95227653e-13
      -2.55040362e-07 -4.74338933e-08 3.37236912e-07 0. 1.83269047e-12
      6.12454532e-13 1.90107187e-07 -3.89266308e-09 -5.94119342e-07
      -9.57481006e-07 -1.34091102e-13 1.67777216e-06 0. 1.29560453e-06
      4.32969387e-07 -1.14487989e-10 -5.00421837e-09 -7.63867547e-07
      -1.23104553e-06 -1.25014704e-13 2.15713135e-06 0. 1.66571749e-06
      5.56654925e-07 -1.46565010e-10 -5.11193532e-09 -7.63869764e-07
      -1.23104996e-06 -2.09701681e-13 2.15719183e-06 0. 1.66577718e-06
      5.56674877e-07 -2.54282040e-10 -6.57167343e-09 -9.82118081e-07
      -1.58277646e-06 -2.08688874e-13 2.77352683e-06 0. 2.14163674e-06
      7.15699230e-07 -3.26119159e-10 2.25040022e-08 -1.10909902e-07
      1.08770041e-06 2.22483436e-06 -2.16351350e-06 -6.77227435e-35
      1.54564631e-07 5.16529184e-08 3.22953355e-07 2.87289090e-08
      -1.42600683e-07 1.39846736e-06 2.86050113e-06 -2.78182506e-06
      -5.26732533e-35 1.98722461e-07 6.64097186e-08 4.15021731e-07
      2.89279285e-08 -1.42599319e-07 1.39846793e-06 2.86050044e-06
      -2.78124662e-06 -2.93465241e-34 1.98723825e-07 6.64101876e-08
      4.15228214e-07 3.69297091e-08 -1.83344895e-07 1.79802419e-06
      3.67778603e-06 -3.57610065e-06 -2.28250743e-34 2.55497554e-07
      8.53830215e-08 5.33602531e-07 -1.34039601e-06 1.15383735e-07
      3.96323117e-07 -1.15718315e-08 -6.68280791e-07 -3.91564373e-17
      6.76033665e-12 2.22162328e-12 -1.05836750e-06 -1.72376826e-06
      1.48652376e-07 5.10466066e-07 -1.48679291e-08 -8.59384670e-07
      -5.02496969e-17 7.34819150e-12 2.40734190e-12 -1.36116000e-06
      -1.72326691e-06 1.48350637e-07 5.09558390e-07 -1.48780686e-08
      -8.59271154e-07 -8.61441706e-17 8.69186147e-12 2.82202733e-12
      -1.36065910e-06 -2.21614573e-06 1.91124670e-07 6.56313318e-07
      -1.91159106e-08 -1.10499093e-06 -1.10549334e-16 9.44767528e-12
      3.05099544e-12 -1.74993556e-06 -2.30727710e-06 4.28293731e-07
      1.28161412e-06 -1.48520428e-06 -8.15313683e-07 -5.80456521e-19
      2.18896639e-06 7.74396312e-07 -2.23026586e-06 -2.96649910e-06
      5.50831544e-07 1.64829305e-06 -1.90954938e-06 -1.04843309e-06
      -4.51466131e-19 2.81388589e-06 9.95485493e-07 -2.86748423e-06
      -2.96660755e-06 5.50836887e-07 1.64830919e-06 -1.90954847e-06
      -1.04826029e-06 -1.27700422e-18 2.81387929e-06 9.95482992e-07
      -2.86759291e-06 -3.81421000e-06 7.08435152e-07 2.11990186e-06
      -2.45513547e-06 -1.34798427e-06 -9.93225540e-19 3.61720254e-06
      1.27969224e-06 -3.68690485e-06 3.02584027e-07 -3.09919841e-07
      -1.35633604e-06 -3.56317514e-07 1.83850352e-06 -1.52659101e-11
      5.59705671e-10 -5.01954815e-08 -4.14304679e-07 3.89040224e-07
      -3.98470689e-07 -1.74385332e-06 -4.58126664e-07 2.36378196e-06
      -1.18837856e-11 5.41474088e-10 -6.45980833e-08 -5.32675472e-07
      3.88921393e-07 -3.98468558e-07 -1.74384047e-06 -4.58121235e-07
      2.36379219e-06 -1.96172991e-11 8.93098928e-10 -6.44796216e-08
      -5.32795468e-07 5.00046497e-07 -5.12319787e-07 -2.24207110e-06
      -5.89018214e-07 3.03915112e-06 -1.52659101e-11 9.19222476e-10
      -8.29808542e-08 -6.85020268e-07 9.32046362e-07 1.16367301e-06
      -7.09415582e-10 -1.45559653e-09 -6.22144603e-09 -6.49012918e-07
      -1.42701299e-06 3.88408701e-08 4.40002111e-07 1.19828007e-06
      1.49706921e-06 -9.08595088e-10 -1.87148164e-09 -8.98642227e-09
      -8.34451441e-07 -1.83441159e-06 5.00449602e-08 5.65453888e-07
      1.19839763e-06 1.49614721e-06 -5.54095270e-10 -1.12071763e-09
      -8.05220601e-09 -8.34445245e-07 -1.83454654e-06 5.00060118e-08
      5.65759876e-07 1.54071324e-06 1.92479843e-06 -7.07897019e-10
      -1.44092271e-09 -1.16223760e-08 -1.07286610e-06 -2.35829157e-06
      6.44306866e-08 7.27067572e-07 -1.22758206e-06 5.22924665e-07
      -2.78247944e-06 -1.68699828e-11 1.68351983e-06 1.63261115e-12
      1.94709114e-12 1.23493237e-06 1.63554034e-06 -1.57832096e-06
      6.72329350e-07 -3.57746876e-06 -9.54381366e-12 2.16458716e-06
      -2.81843385e-12 -7.60811607e-13 1.58776345e-06 2.10283520e-06
      -1.57829925e-06 6.72319516e-07 -3.57747172e-06 -2.52672171e-11
      2.16452599e-06 2.89053872e-12 3.00327493e-12 1.58776959e-06
      2.10288090e-06 -2.02924366e-06 8.64407752e-07 -4.59960029e-06
      -1.68699499e-11 2.78304151e-06 -2.60609112e-12 -3.35493433e-13
      2.04140974e-06 2.70370083e-06 -1.59093474e-06 -7.93185393e-08
      -2.37292241e-07 -1.85093195e-12 1.37133941e-06 7.58549733e-12
      2.26849306e-06 1.01721594e-06 -2.22264543e-06 -2.04548928e-06
      -1.01974940e-07 -3.05092129e-07 -2.37977671e-12 1.76315086e-06
      8.08199688e-12 2.91663014e-06 1.30785133e-06 -2.85770216e-06
      -2.04548905e-06 -1.01986757e-07 -3.05090538e-07 -1.43959508e-12
      1.76314700e-06 7.41568525e-12 2.91663196e-06 1.30786225e-06
      -2.85768192e-06 -2.62991671e-06 -1.31118057e-07 -3.92262535e-07
      -1.85092263e-12 2.26690304e-06 7.38630077e-12 3.74995125e-06
      1.68154020e-06 -3.67418124e-06 2.15431623e-06 1.56836236e-07
      -5.23519816e-07 -1.04217088e-06 1.63335855e-07 5.24056759e-07
      2.56209859e-07 -4.12783010e-07 -1.13662134e-06 2.76979927e-06
      2.01652426e-07 -6.73097645e-07 -1.33993399e-06 2.10003250e-07
      6.73786928e-07 3.29410881e-07 -5.30723298e-07 -1.46140871e-06
      2.76985043e-06 2.01653293e-07 -6.73097759e-07 -1.33993353e-06
      2.09924806e-07 6.73787213e-07 3.29409943e-07 -5.30722900e-07
      -1.46137450e-06 3.56119040e-06 2.59276078e-07 -8.65412460e-07
      -1.72277157e-06 2.69903353e-07 8.66297512e-07 4.23524739e-07
      -6.82360962e-07 -1.87895944e-06 -1.52348639e-06 2.53718599e-06
      -8.10625465e-07 1.00814973e-12 1.36490905e-06 4.03896404e-12
      6.00928161e-08 7.60284422e-07 -2.80602376e-06 -1.95877146e-06
      3.26209533e-06 -1.04222511e-06 2.90454401e-12 1.75488481e-06
      7.16223912e-12 7.72624134e-08 9.77508421e-07 -3.60774152e-06
      -1.95877487e-06 3.26209874e-06 -1.04222784e-06 1.67765303e-12
      1.75488560e-06 8.22587311e-12 7.72588322e-08 9.77506375e-07
      -3.60775289e-06 -2.51842926e-06 4.19412709e-06 -1.33999777e-06
      4.22487045e-12 2.25628378e-06 1.31080641e-11 9.93330929e-08
      1.25679389e-06 -4.63853530e-06 -2.91302143e-07 5.32145236e-07
      7.80306664e-07 -1.18810283e-06 1.36532583e-06 -2.59846075e-07
      -1.27028187e-07 -5.68024620e-12 -2.22069707e-06 -3.74622005e-07
      6.84184499e-07 1.00324962e-06 -1.52756058e-06 1.75541766e-06
      -3.34091396e-07 -1.63323946e-07 -6.78203067e-12 -2.85526653e-06
      -3.74408501e-07 6.84187455e-07 1.00324837e-06 -1.52755570e-06
      1.75508239e-06 -3.34088213e-07 -1.63317097e-07 -1.15585657e-11
      -2.85505871e-06 -4.81498773e-07 8.79666800e-07 1.28988790e-06
      -1.96399992e-06 2.25653321e-06 -4.29546589e-07 -2.09981721e-07
      -1.41909227e-11 -3.67089842e-06 6.35894821e-07 5.75834804e-07
      4.06082806e-10 -1.94360292e-11 -2.48356561e-11 -9.57995439e-07
      4.41586508e-07 -1.01421250e-07 -3.05261381e-07 8.17333103e-07
      7.40548558e-07 1.06379994e-09 -2.52747823e-11 -5.49626317e-11
      -1.23170776e-06 5.67858990e-07 -1.30362977e-07 -3.92717169e-07
      8.17565990e-07 7.40340795e-07 5.54099322e-10 -1.52756020e-11
      -3.35935273e-11 -1.23241409e-06 5.67307097e-07 -1.30434515e-07
      -3.92481439e-07 1.05083950e-06 9.52110838e-07 1.40887657e-09
      -2.00072840e-11 -7.28019589e-11 -1.58453099e-06 7.29529688e-07
      -1.67655529e-07 -5.04925140e-07 1.56168949e-06 3.08602785e-06
      -3.62789280e-07 5.50421948e-12 -1.15299372e-06 -2.45819410e-06
      -1.95510448e-11 4.83690030e-07 3.22794524e-09 2.00788031e-06
      3.96775658e-06 -4.66444675e-07 6.33670547e-12 -1.48241907e-06
      -3.16055366e-06 -4.17037793e-11 6.21876836e-07 4.15453316e-09
      2.00787485e-06 3.96774976e-06 -4.66446778e-07 3.57560466e-12
      -1.48240906e-06 -3.16054229e-06 -2.41540260e-11 6.21889058e-07
      4.14790691e-09 2.58154591e-06 5.10140080e-06 -5.99718931e-07
      3.64559424e-12 -1.90595279e-06 -4.06357867e-06 -5.23551480e-11
      7.99558336e-07 5.33861755e-09 -1.66752022e-06 -1.31995682e-06
      -1.13249611e-10 -1.46058457e-16 1.18719788e-06 -2.03688069e-06
      2.35580546e-06 3.03819434e-07 -6.16881039e-07 -2.14422630e-06
      -1.69708187e-06 -1.45526688e-10 -1.89394569e-16 1.52640268e-06
      -2.61883952e-06 3.02895228e-06 3.90639144e-07 -7.93397305e-07
      -2.14385523e-06 -1.69708812e-06 -8.81653570e-11 -3.21328619e-16
      1.52592600e-06 -2.61883702e-06 3.02888566e-06 3.90519858e-07
      -7.93052891e-07 -2.75673506e-06 -2.18196351e-06 -1.13251498e-10
      -4.16668027e-16 1.96191195e-06 -3.36706671e-06 3.89435809e-06
      5.02115142e-07 -1.01998000e-06 -1.14768147e-06 -9.81597395e-07
      -4.52198652e-12 -5.37848975e-12 2.37375775e-06 -1.10603132e-07
      -3.27380098e-06 -6.98782628e-07 3.37778062e-07 -1.47562753e-06
      -1.26205373e-06 -8.21626881e-12 -1.18326763e-11 3.05279218e-06
      -1.42826650e-07 -4.20946117e-06 -8.98435303e-07 4.34258880e-07
      -1.47526180e-06 -1.26205384e-06 -5.81543581e-12 -6.91520105e-12
      3.05151366e-06 -1.42211931e-07 -4.20917740e-06 -8.98420694e-07
      4.34673268e-07 -1.89681282e-06 -1.62264075e-06 -1.05665615e-11
      -1.52134416e-11 3.92442689e-06 -1.83644090e-07 -5.41216968e-06
      -1.15511295e-06 5.58830607e-07 5.71830242e-07 -1.65791982e-06
      -1.38087415e-07 2.03468729e-17 -2.03333502e-06 7.64376409e-12
      1.59384967e-06 5.32640854e-07 5.71831322e-07 7.35211302e-07
      -2.13161138e-06 -1.77540969e-07 1.58253449e-17 -2.61381297e-06
      5.94514975e-12 2.04925004e-06 6.84825466e-07 7.35211927e-07
      7.35310266e-07 -2.13161115e-06 -1.77540969e-07 4.47631204e-17
      -2.61428067e-06 9.82766039e-12 2.04921480e-06 6.84816996e-07
      7.35311289e-07 9.45400586e-07 -2.74064291e-06 -2.28266956e-07
      3.48157607e-17 -3.36060725e-06 7.64373547e-12 2.63472384e-06
      8.80480968e-07 9.45400927e-07 -1.60142307e-07 3.08652843e-13
      -8.54718905e-07 6.52157667e-07 1.85808119e-06 2.84483895e-12
      9.17799866e-07 3.06706823e-07 -1.60144992e-07 -2.05895844e-07
      -4.49583339e-12 -1.09892540e-06 8.38485903e-07 2.38895677e-06
      6.25871100e-12 1.18002754e-06 3.94337405e-07 -2.05897450e-07
      -2.05796738e-07 -3.41057889e-12 -1.09893108e-06 8.38489768e-07
      2.38895632e-06 3.65769134e-12 1.18003413e-06 3.94337775e-07
      -2.05799836e-07 -2.64594007e-07 -1.06756123e-11 -1.41291321e-06
      1.07805511e-06 3.07150913e-06 8.04697108e-12 1.51718564e-06
      5.07005950e-07 -2.64595542e-07 -8.09104449e-07 7.83288442e-07
      2.34388881e-06 -3.58837010e-30 1.78852189e-09 -5.79589710e-08
      -1.43796024e-06 -5.64985255e-12 -8.09104961e-07 -1.04027288e-06
      1.00708507e-06 3.01357113e-06 -4.61361860e-30 2.76624679e-09
      -7.45186739e-08 -1.84880616e-06 -6.17014686e-12 -1.04027356e-06
      -1.04027856e-06 1.00708507e-06 3.01357113e-06 -1.63107722e-30
      2.30491137e-09 -7.45186739e-08 -1.84881014e-06 -8.23868664e-12
      -1.04027970e-06 -1.33749575e-06 1.29482373e-06 3.87459158e-06
      -2.09709941e-30 3.56352370e-09 -9.58097246e-08 -2.37704194e-06
      -9.18609720e-12 -1.33749722e-06 4.10210276e-07 6.45579076e-13
      4.62926138e-12 0. 1.19065407e-06 -3.57132704e-12 -1.72629632e-06
      -5.76897435e-07 4.10210276e-07 5.27498457e-07 1.99519090e-12
      8.06836542e-12 0. 1.53084090e-06 -5.57629854e-12 -2.21952610e-06
      -7.41724932e-07 5.27498344e-07 5.27413363e-07 1.53732062e-12
      8.06838103e-12 0. 1.53101018e-06 -6.87231999e-12 -2.21952041e-06
      -7.41723795e-07 5.27413476e-07 6.78212530e-07 3.47476084e-12
      1.30952202e-11 0. 1.96844144e-06 -1.01017389e-11 -2.85367173e-06
      -9.53644246e-07 6.78212530e-07 1.24657697e-06 4.32933234e-07
      1.29550142e-06 0. 3.40382472e-10 -1.91290311e-26 3.54592883e-10
      1.18495255e-10 1.24657697e-06 1.60282525e-06 5.56628095e-07
      1.66564371e-06 0. 2.67716377e-10 -2.45944228e-26 4.55905258e-10
      1.52352839e-10 1.60282525e-06 1.60271486e-06 5.56628095e-07
      1.66564371e-06 0. 4.34660169e-10 -8.28924685e-26 2.75794027e-10
      9.21578994e-11 1.60271486e-06 2.06074083e-06 7.15664214e-07
      2.14154011e-06 0. 3.40382500e-10 -1.06575836e-25 3.54592661e-10
      1.18492716e-10 2.06074083e-06 8.62130853e-11 2.64700640e-11
      -1.51932675e-10 -2.43338183e-10 3.36732364e-06 -1.40784756e-32
      4.66428816e-07 1.55872726e-07 8.62130853e-11 1.38996606e-10
      3.61613031e-11 -4.00302153e-10 -5.35343991e-10 4.32961951e-06
      -6.10067286e-32 5.99697330e-07 2.00408792e-07 1.38996606e-10
      8.26941779e-11 5.61051969e-11 -1.29292271e-10 -3.12863374e-10
      4.32919887e-06 -3.09726481e-32 5.99693067e-07 2.00407399e-07
      8.26941779e-11 1.42515513e-10 7.48712065e-11 -4.29753649e-10
      -6.88299473e-10 5.56637451e-06 -1.34214795e-31 7.71037946e-07
      2.57667978e-07 1.42515513e-10 1.15011638e-07 -2.07877889e-07
      -8.85178849e-07 -1.55848284e-07 4.72196007e-07 -7.75012164e-36
      6.47917917e-13 2.16523360e-13 1.15011638e-07 1.47770535e-07
      -2.67144145e-07 -1.13770625e-06 -2.00376491e-07 6.06701349e-07
      -2.40779613e-35 8.33037361e-13 2.78387149e-13 1.47770535e-07
      1.47872768e-07 -2.67144145e-07 -1.13770591e-06 -2.00376590e-07
      6.06906553e-07 -1.70502672e-35 1.42541935e-12 4.76351380e-13
      1.47872768e-07 1.89991567e-07 -3.43307192e-07 -1.46227535e-06
      -2.57627221e-07 7.79784102e-07 -5.29715177e-35 1.83268223e-12
      6.12451767e-13 1.89991567e-07 1.29646298e-06 -7.01316935e-07
      -1.61009507e-06 -4.33866891e-13 1.99424130e-06 -1.54892376e-07
      1.10985693e-17 3.42583489e-18 1.29646378e-06 1.66687914e-06
      -9.01688793e-07 -2.07011476e-06 -5.56406971e-13 2.56463409e-06
      -1.99147337e-07 2.44168513e-17 7.53683713e-18 1.66687960e-06
      1.66698283e-06 -9.01692772e-07 -2.07012226e-06 -4.07742064e-13
      2.56402814e-06 -1.99147337e-07 2.44168513e-17 7.53683713e-18
      1.66698408e-06 2.14326110e-06 -1.15931380e-06 -2.66157599e-06
      -5.23133891e-13 3.29739146e-06 -2.56046604e-07 5.37170726e-17
      1.65810422e-17 2.14326201e-06 1.46352568e-06 -6.10172776e-07
      -1.55486259e-06 -7.15737018e-12 7.44487295e-07 -4.52269759e-13
      -6.97512437e-10 -2.33592229e-10 1.75051775e-06 1.88144645e-06
      -7.84340386e-07 -1.99860756e-06 -1.74712137e-11 9.57026259e-07
      -5.81489663e-13 -6.66827982e-10 -2.24576871e-10 2.25043573e-06
      1.88222555e-06 -7.84506994e-07 -1.99910983e-06 -2.52303495e-12
      9.56255576e-07 -9.94993367e-13 -1.13322540e-09 -3.78696602e-10
      2.25121539e-06 2.41970906e-06 -1.00843658e-06 -2.56963926e-06
      -1.38753193e-11 1.22925087e-06 -1.27927725e-12 -1.16132293e-09
      -3.89493882e-10 2.89412401e-06 -2.97638280e-07 2.00881045e-09
      -6.60933665e-07 -1.35368214e-06 -1.27523094e-06 -5.24320865e-11
      1.77822346e-09 -6.16075852e-07 -5.28155113e-07 -3.82352255e-07
      4.01751032e-09 -8.50202639e-07 -1.74045078e-06 -1.63959282e-06
      -5.20291865e-11 1.38306266e-09 -7.92399078e-07 -6.79057507e-07
      -3.82677143e-07 2.58283439e-09 -8.49771709e-07 -1.74043441e-06
      -1.63914308e-06 -8.16866227e-11 2.28628738e-09 -7.92097410e-07
      -6.79056143e-07 -4.91595074e-07 5.16547116e-09 -1.09311736e-06
      -2.23770417e-06 -2.10748294e-06 -8.52468512e-11 1.77822357e-09
      -1.01879868e-06 -8.73073475e-07 3.59820405e-07 -4.53278517e-07
      -7.81407891e-07 -8.80618984e-07 -1.07128862e-07 -1.92105836e-12
      9.17793670e-07 2.95724391e-07 4.01707865e-07 4.62620363e-07
      -5.82776067e-07 -1.00466661e-06 -1.13221938e-06 -1.37750476e-07
      -2.46993376e-12 1.18001731e-06 3.80213038e-07 5.16476803e-07
      4.62633238e-07 -5.82779990e-07 -1.00468117e-06 -1.13221461e-06
      -1.37733551e-07 -1.49415885e-12 1.18002060e-06 3.80217074e-07
      5.16482771e-07 5.94806977e-07 -7.49274932e-07 -1.29173179e-06
      -1.45569834e-06 -1.77103814e-07 -1.92106487e-12 1.51716517e-06
      4.88845330e-07 6.64043284e-07 -5.41563281e-07 -1.39540674e-07
      -1.20610252e-06 1.07108178e-06 9.87662361e-07 -2.57010904e-14
      -8.46642934e-08 5.77515138e-08 -5.87033128e-07 -6.96204950e-07
      -1.79400885e-07 -1.55070575e-06 1.37711038e-06 1.26985049e-06
      -3.30473394e-14 -1.09034275e-07 7.41863602e-08 -7.54683072e-07
      -6.96206484e-07 -1.79417285e-07 -1.55070586e-06 1.37710231e-06
      1.26986004e-06 -5.65431796e-14 -1.08853534e-07 7.42539754e-08
      -7.54659482e-07 -8.95006110e-07 -2.30668448e-07 -1.99376791e-06
      1.77056643e-06 1.63267669e-06 -7.27041718e-14 -1.40186245e-07
      9.53849195e-08 -9.70181532e-07 2.57015472e-07 2.79373262e-06
      3.58687551e-08 1.44738160e-12 -1.32224682e-06 -2.02543265e-06
      -2.96388176e-08 -2.88939475e-07 6.68796304e-07 3.30454100e-07
      3.59194837e-06 4.61176377e-08 1.42038833e-12 -1.70004091e-06
      -2.60412776e-06 -3.81093201e-08 -3.71497464e-07 8.59882732e-07
      3.30449950e-07 3.59194178e-06 4.61186787e-08 1.03538445e-11
      -1.70001510e-06 -2.60412776e-06 -3.81087730e-08 -3.71501130e-07
      8.59879833e-07 4.24871587e-07 4.61821901e-06 5.92963012e-08
      1.27456622e-11 -2.18574610e-06 -3.34816468e-06 -4.89999081e-08
      -4.77649280e-07 1.10556186e-06 -2.16227659e-06 1.17866165e-07
      5.75283082e-07 -1.58963800e-07 -7.50929614e-12 3.56525811e-12
      -6.26595579e-07 2.76296124e-08 1.30627586e-06 -2.78007406e-06
      1.51540235e-07 7.39642587e-07 -2.04355530e-07 -9.32107343e-12
      7.84356781e-12 -8.05619038e-07 3.55302419e-08 1.67949247e-06
      -2.78006019e-06 1.51549798e-07 7.39645259e-07 -2.04378111e-07
      -1.51151574e-11 4.58390314e-12 -8.05625575e-07 3.55224934e-08
      1.67949747e-06 -3.57436829e-06 1.94847217e-07 9.50963397e-07
      -2.62737643e-07 -1.90046173e-11 1.00845868e-11 -1.03579930e-06
      4.56800215e-08 2.15934801e-06 6.58815736e-07 2.38365260e-07
      -3.93632774e-07 1.29791474e-07 5.92875608e-07 3.07656904e-07
      -1.13417809e-06 -1.04543531e-07 2.30557271e-06 8.49680589e-07
      3.06700485e-07 -5.06097024e-07 1.66873406e-07 7.62268030e-07
      3.95561386e-07 -1.45822969e-06 -1.34415345e-07 2.96361100e-06
      8.48330558e-07 3.07400512e-07 -5.06098104e-07 1.66875282e-07
      7.62269849e-07 3.95559368e-07 -1.45869319e-06 -1.36464820e-07
      2.96430335e-06 1.09409439e-06 3.95525916e-07 -6.50694460e-07
      2.14552202e-07 9.80060463e-07 5.08579546e-07 -1.87546368e-06
      -1.75457672e-07 3.81035170e-06 1.14335759e-08 -1.16233764e-06
      -1.22354351e-07 -5.55760266e-07 3.56202008e-07 6.10334439e-07
      -9.37009914e-10 8.08714503e-07 -1.09129678e-06 1.46950381e-08
      -1.49443554e-06 -1.57317828e-07 -7.14546445e-07 4.57976228e-07
      7.84710039e-07 -1.19967536e-09 1.03977845e-06 -1.40310408e-06
      1.47128194e-08 -1.49443713e-06 -1.57319604e-07 -7.14545990e-07
      4.57976711e-07 7.84710949e-07 -1.20623533e-09 1.03978482e-06
      -1.40309282e-06 1.89100593e-08 -1.92142124e-06 -2.02274151e-07
      -9.18698561e-07 5.88830119e-07 1.00890668e-06 -1.54439517e-09
      1.33686933e-06 -1.80398695e-06 -6.13741577e-07 1.08574500e-06
      -4.77369724e-07 -4.56470218e-07 8.36200172e-07 1.08787754e-06
      -9.83334445e-08 -4.35652794e-07 -2.34650679e-06 -7.89101932e-07
      1.39590759e-06 -6.14002772e-07 -5.86935244e-07 1.07511630e-06
      1.39869883e-06 -1.26433434e-07 -5.60127944e-07 -3.01693785e-06
      -7.88992395e-07 1.39595784e-06 -6.13741406e-07 -5.86902331e-07
      1.07489177e-06 1.39869690e-06 -1.26428077e-07 -5.60123112e-07
      -3.01683554e-06 -1.01442538e-06 1.79473818e-06 -7.89406954e-07
      -7.54646578e-07 1.38200596e-06 1.79832364e-06 -1.62556489e-07
      -7.20162120e-07 -3.87878981e-06 -8.18542276e-07 3.17173203e-07
      6.93509207e-07 1.75648893e-06 1.98435851e-11 8.62548227e-12
      1.01272133e-11 7.95041558e-07 -2.05196602e-06 -1.05241270e-06
      4.07793380e-07 8.91667980e-07 2.25834924e-06 1.92909941e-11
      1.25145484e-11 1.19364961e-11 1.02219667e-06 -2.63824586e-06
      -1.05240520e-06 4.07789059e-07 8.91661955e-07 2.25834833e-06
      3.20695935e-11 7.37873738e-12 9.74788392e-12 1.02220099e-06
      -2.63823836e-06 -1.35309404e-06 5.24299253e-07 1.14643979e-06
      2.90359958e-06 3.32323544e-11 1.13186127e-11 1.11389994e-11
      1.31425941e-06 -3.39202597e-06 3.26527379e-06 -5.33608045e-07
      -8.71854240e-07 -1.71634419e-12 -5.53990230e-13 5.00292970e-07
      -5.31185833e-07 -1.51214658e-06 4.08876453e-08 4.19820844e-06
      -6.86078295e-07 -1.12095699e-06 -1.33494973e-12 -9.93095038e-13
      6.43243709e-07 -6.82961627e-07 -1.94418612e-06 5.25696429e-08
      4.19820981e-06 -6.86069257e-07 -1.12096313e-06 -2.20672677e-12
      2.86774294e-13 6.43230294e-07 -6.82956511e-07 -1.94417248e-06
      5.25723927e-08 5.39769781e-06 -8.82102995e-07 -1.44124010e-06
      -1.71637086e-12 7.65349240e-15 8.27022973e-07 -8.78097353e-07
      -2.49964728e-06 6.75927367e-08 -6.62382718e-07 -1.29445834e-06
      -1.02129877e-06 5.21423052e-12 1.36490019e-06 4.53945290e-07
      2.59603326e-06 -4.98698967e-07 -1.95736402e-06 -8.51635036e-07
      -1.66431244e-06 -1.31310355e-06 9.43588090e-12 1.75487060e-06
      5.83641338e-07 3.33776438e-06 -6.41191662e-07 -2.51661072e-06
      -8.51629181e-07 -1.66431391e-06 -1.31310935e-06 8.82027784e-12
      1.75487150e-06 5.83647875e-07 3.33775370e-06 -6.41174438e-07
      -2.51660003e-06 -1.09495215e-06 -2.13984390e-06 -1.68829024e-06
      1.48527596e-11 2.25626218e-06 7.50400886e-07 4.29140755e-06
      -8.24377310e-07 -3.23562813e-06 -2.24386076e-06 -4.54986548e-07
      7.16324990e-08 1.06919708e-06 8.36301865e-07 -6.94247717e-07
      -6.87469850e-08 2.92370714e-07 5.08900087e-07 -2.88496631e-06
      -5.84980171e-07 9.21157479e-08 1.37468032e-06 1.07527728e-06
      -8.92642731e-07 -8.83891360e-08 3.75908428e-07 6.54300493e-07
      -2.88472438e-06 -5.84981535e-07 9.21322254e-08 1.37468828e-06
      1.07523442e-06 -8.92605783e-07 -8.83894273e-08 3.75904108e-07
      6.54551343e-07 -3.70893486e-06 -7.52115909e-07 1.18477331e-07
      1.76745425e-06 1.38248572e-06 -1.14768545e-06 -1.13643772e-07
      4.83309293e-07 8.41566816e-07 1.05236961e-06 -1.32091100e-06
      -5.68864152e-07 -1.14333135e-11 5.71318367e-07 4.78999311e-07
      7.97096220e-07 -1.09507641e-06 1.18195396e-06 1.35305027e-06
      -1.69831412e-06 -7.31407681e-07 -2.63920327e-11 7.34483990e-07
      6.15894010e-07 1.02484557e-06 -1.40795976e-06 1.51965628e-06
      1.35307744e-06 -1.69831958e-06 -7.31404668e-07 -1.34612443e-11
      7.34543960e-07 6.15868089e-07 1.02483637e-06 -1.40796021e-06
      1.51968106e-06 1.73967555e-06 -2.18355399e-06 -9.40391374e-07
      -3.23399744e-11 9.44326018e-07 7.91878961e-07 1.31765637e-06
      -1.81024018e-06 1.95387702e-06 2.10250460e-06 5.22616517e-07
      -1.92362427e-06 -1.63336247e-10 -1.50254971e-06 9.04142823e-08
      4.86153397e-07 -1.40662860e-06 1.61518494e-06 2.70322698e-06
      6.71930252e-07 -2.47323692e-06 -1.69455602e-10 -1.93183564e-06
      1.16246397e-07 6.25054838e-07 -1.80852930e-06 2.07667290e-06
      2.70320947e-06 6.71931218e-07 -2.47323123e-06 -1.96128530e-10
      -1.93185861e-06 1.16246930e-07 6.25053190e-07 -1.80852862e-06
      2.07665971e-06 3.47556397e-06 8.63904802e-07 -3.17987565e-06
      -2.00031922e-10 -2.48380047e-06 1.49459652e-07 8.03640717e-07
      -2.32525963e-06 2.66999950e-06 -7.42490613e-07 3.76273704e-07
      1.12595012e-06 -1.61927575e-35 -1.43926471e-09 -1.30771990e-10
      9.22980746e-07 1.03823947e-06 -7.64045637e-07 -9.54702386e-07
      4.83780468e-07 1.44765011e-06 -7.36034453e-36 -1.14945342e-09
      -1.76217679e-10 1.18668709e-06 1.33487822e-06 -9.82417191e-07
      -9.54630082e-07 4.83782344e-07 1.44765579e-06 -3.56240652e-35
      -1.90435556e-09 -9.76714057e-11 1.18671835e-06 1.33489152e-06
      -9.82342272e-07 -1.22747360e-06 6.22005757e-07 1.86127124e-06
      -1.61927575e-35 -1.54713187e-09 -1.35969000e-10 1.52577684e-06
      1.71628767e-06 -1.26310488e-06 1.92384437e-06 -5.44275367e-16
      -5.00036991e-12 -1.01872252e-11 -1.50210872e-06 -2.61521430e-11
      1.45440015e-06 3.51391719e-07 7.44073304e-07 2.47351704e-06
      -4.20676954e-16 -6.42902832e-12 -8.77349582e-12 -1.93075834e-06
      -3.10020412e-11 1.86994203e-06 4.51779897e-07 9.56667463e-07
      2.47351363e-06 -1.16865803e-15 -1.10007810e-11 -1.46280384e-11
      -1.93127676e-06 -2.74265870e-11 1.86994521e-06 4.51782597e-07
      9.56664280e-07 3.18023535e-06 -9.06896471e-16 -1.41438476e-11
      -1.32475801e-11 -2.48239598e-06 -3.18914270e-11 2.40421400e-06
      5.80851292e-07 1.22999904e-06 1.24723363e-06 5.96989791e-10
      1.78641402e-09 0. 4.91416131e-07 -1.13358802e-12 -1.48849620e-06
      -6.05090634e-07 1.24723249e-06 1.60315801e-06 7.66849695e-10
      2.29469799e-09 0. 6.31821877e-07 -1.50914730e-12 -1.91322556e-06
      -7.77789467e-07 1.60315653e-06 1.60347645e-06 4.65032457e-10
      1.39154910e-09 0. 6.31820740e-07 -2.40444535e-12 -1.91433037e-06
      -7.78155879e-07 1.60347474e-06 2.06106233e-06 5.96988625e-10
      1.78641080e-09 0. 8.12342364e-07 -3.15787262e-12 -2.46056834e-06
      -1.00024920e-06 2.06106006e-06 4.10114410e-07 3.17731758e-10
      9.50771017e-10 0. -6.44158931e-08 -4.63142635e-10 2.34386584e-06
      7.83275709e-07 4.10114410e-07 5.27286488e-07 5.53761259e-10
      1.65705838e-09 0. -8.27330524e-08 -3.65445452e-10 3.01355044e-06
      1.00706882e-06 5.27286488e-07 5.27289956e-07 5.53761259e-10
      1.65705838e-09 0. -8.29071851e-08 -5.90245797e-10 3.01355180e-06
      1.00706166e-06 5.27289956e-07 6.77939738e-07 8.98727759e-10
      2.68932610e-09 0. -1.06482524e-07 -4.63142663e-10 3.87457703e-06
      1.29479361e-06 6.77939738e-07 9.62442414e-07 8.79717277e-07
      2.52608856e-06 -1.40303708e-12 -1.56812675e-07 0. 2.23711653e-12
      6.37001357e-13 9.62442414e-07 1.23742859e-06 1.13106319e-06
      3.24782286e-06 -1.70547051e-12 -2.01422253e-07 0. 1.73997958e-12
      4.39265784e-13 1.23742859e-06 1.23752477e-06 1.13106557e-06
      3.24782832e-06 -1.79259884e-12 -2.01617354e-07 0. 2.87837636e-12
      7.18574722e-13 1.23752477e-06 1.59110675e-06 1.45422462e-06
      4.17577212e-06 -2.17822982e-12 -2.58972847e-07 0. 2.23873741e-12
      4.35296276e-13 1.59110664e-06 9.62323043e-07 9.60463581e-07
      2.87408375e-06 -2.21862805e-07 -4.76936407e-07 -1.55617499e-07
      1.08221166e-11 3.61656560e-12 9.62327022e-07 1.23726920e-06
      1.23487871e-06 3.69524196e-06 -2.85251076e-07 -6.12702308e-07
      -2.00079640e-07 1.81179637e-11 6.05470925e-12 1.23727432e-06
      1.23727114e-06 1.23487496e-06 3.69525128e-06 -2.85252383e-07
      -6.13209295e-07 -2.00079640e-07 1.54032186e-11 5.14749224e-12
      1.23727636e-06 1.59077297e-06 1.58769240e-06 4.75102570e-06
      -3.66751635e-07 -7.87767078e-07 -2.57245262e-07 2.52090501e-11
      8.42443042e-12 1.59077979e-06 -6.93177128e-07 3.51094201e-07
      2.89596460e-06 -2.85009711e-12 1.85643205e-06 -3.15171413e-12
      6.99474896e-12 3.60355626e-12 -3.86686395e-07 -8.91223522e-07
      4.51411381e-07 3.72337104e-06 -3.66441643e-12 2.38678581e-06
      -3.11097545e-12 7.39650962e-12 3.45647317e-12 -4.97165900e-07
      -8.91239438e-07 4.51411438e-07 3.72339832e-06 -2.21674415e-12
      2.38682856e-06 -4.29553658e-12 1.25143064e-11 5.80980966e-12
      -4.97179258e-07 -1.14587351e-06 5.80392225e-07 4.78721040e-06
      -2.85010557e-12 3.06870834e-06 -4.31267175e-12 1.40368784e-11
      5.95689730e-12 -6.39227437e-07 -8.10085851e-07 -8.21629556e-07
      -2.07290054e-06 -1.19864448e-12 1.94863014e-06 -1.31328105e-18
      1.12596399e-06 2.80243034e-06 -2.17879844e-07 -1.04153855e-06
      -1.05638389e-06 -2.66515985e-06 -1.54110654e-12 2.50537369e-06
      -2.88921801e-18 1.44766580e-06 3.60312424e-06 -2.80126272e-07
      -1.04119420e-06 -1.05638344e-06 -2.66516304e-06 -2.63699370e-12
      2.50538551e-06 -2.88921780e-18 1.44766977e-06 3.60311969e-06
      -2.79780380e-07 -1.33867752e-06 -1.35821119e-06 -3.42664111e-06
      -3.39041577e-12 3.22119968e-06 -6.35627999e-18 1.86128659e-06
      4.63258129e-06 -3.59711237e-07 -5.90849766e-07 1.19070309e-08
      1.16338549e-06 7.75181377e-07 -1.71821725e-07 -2.02884917e-06
      1.03285491e-09 3.40151823e-10 -8.05030197e-07 -7.59879867e-07
      1.53108086e-08 1.49578420e-06 9.96665449e-07 -2.20909996e-07
      -2.60852494e-06 1.15377163e-09 3.79700327e-10 -1.03524917e-06
      -7.59665340e-07 1.53051332e-08 1.49577602e-06 9.96657946e-07
      -2.20911616e-07 -2.60852494e-06 1.94782857e-09 6.47532639e-10
      -1.03503851e-06 -9.76990123e-07 1.96802628e-08 1.92314428e-06
      1.28142187e-06 -2.84024480e-07 -3.35382424e-06 2.28039809e-09
      7.58435814e-10 -1.33103435e-06 -8.01136082e-07 2.22261093e-07
      5.62666571e-07 1.61931524e-07 -1.83208147e-06 2.47211074e-06
      3.77481939e-07 -2.67236516e-07 -6.62644936e-07 -1.03003276e-06
      2.85756641e-07 7.23429139e-07 2.08196383e-07 -2.35554194e-06
      3.17842910e-06 4.85338433e-07 -3.43587345e-07 -8.51968423e-07
      -1.03022603e-06 2.84842571e-07 7.23430333e-07 2.08199509e-07
      -2.35504467e-06 3.17842728e-06 4.85332805e-07 -3.43586038e-07
      -8.51970583e-07 -1.32457728e-06 3.66216284e-07 9.30125736e-07
      2.67683419e-07 -3.02792569e-06 4.08655023e-06 6.24004997e-07
      -4.41750302e-07 -1.09538610e-06 -1.55595626e-06 -2.13882618e-06
      9.61956630e-07 3.12166094e-07 1.28623526e-06 1.67156327e-06
      1.00998795e-06 -2.43162219e-07 -7.63958496e-07 -2.00051682e-06
      -2.74991658e-06 1.23680479e-06 4.01351429e-07 1.65372705e-06
      2.14916736e-06 1.29855380e-06 -3.12640623e-07 -9.82232905e-07
      -2.00051613e-06 -2.74992044e-06 1.23679547e-06 4.01361575e-07
      1.65373535e-06 2.14915372e-06 1.29855300e-06 -3.12640680e-07
      -9.82233928e-07 -2.57209444e-06 -3.53560858e-06 1.59017009e-06
      5.16029957e-07 2.12622604e-06 2.76321566e-06 1.66956511e-06
      -4.01971050e-07 -1.26287284e-06 -1.30665308e-06 -3.15103034e-06
      4.10580583e-07 1.36918561e-06 1.61107572e-09 1.21512028e-06
      1.88037620e-06 -3.87585317e-07 -1.72269927e-06 -1.67998485e-06
      -4.05132505e-06 5.27889199e-07 1.76037713e-06 1.25239341e-09
      1.56290457e-06 2.41792736e-06 -4.98322834e-07 -2.21489540e-06
      -1.67999417e-06 -4.05132232e-06 5.27886527e-07 1.76038236e-06
      2.07243311e-09 1.56229180e-06 2.41806902e-06 -4.98178167e-07
      -2.21489699e-06 -2.15999580e-06 -5.20884350e-06 6.78711103e-07
      2.26334350e-06 1.61156788e-09 2.00944100e-06 3.10933297e-06
      -6.40513463e-07 -2.84771954e-06 1.95282882e-06 2.51106098e-06
      -2.84810397e-07 -1.29020373e-06 -2.03864101e-06 -5.25905491e-12
      -7.06880101e-08 -2.81682048e-07 5.39743432e-08 2.51077859e-06
      3.22850929e-06 -3.66182149e-07 -1.65882159e-06 -2.62107642e-06
      -6.76163726e-12 -9.08850453e-08 -3.62164116e-07 6.93947371e-08
      2.51077790e-06 3.22851974e-06 -3.66192126e-07 -1.65883171e-06
      -2.62110939e-06 -1.15574468e-11 -9.08866227e-08 -3.62164485e-07
      6.93926907e-08 3.22814117e-06 4.15095701e-06 -4.70815166e-07
      -2.13276826e-06 -3.36995481e-06 -1.48595632e-11 -1.16854828e-07
      -4.65641932e-07 8.92179983e-08 -5.13507473e-07 3.48017380e-07
      -3.09820166e-07 2.24771907e-06 -1.43827901e-06 5.70242264e-07
      8.25228142e-07 -5.79846755e-07 -3.36496839e-07 -6.60226647e-07
      4.47442602e-07 -3.98350124e-07 2.88992419e-06 -1.84921578e-06
      7.33171078e-07 1.06101038e-06 -7.45517866e-07 -4.32637421e-07
      -6.60227556e-07 4.47450162e-07 -3.98341172e-07 2.88991805e-06
      -1.84922578e-06 7.33165621e-07 1.06101220e-06 -7.45516502e-07
      -4.32646516e-07 -8.48867671e-07 5.75282343e-07 -5.12166253e-07
      3.71560895e-06 -2.37757558e-06 9.42644817e-07 1.36416179e-06
      -9.58521809e-07 -5.56258442e-07 -1.11465101e-06 1.41480473e-06
      2.06570036e-07 -3.25742781e-06 -1.52297361e-07 2.07214816e-06
      3.03381876e-06 -3.93833631e-07 -1.67881967e-06 -1.43311740e-06
      1.81903613e-06 2.65615654e-07 -4.18813124e-06 -1.95811893e-07
      2.66419261e-06 3.90062360e-06 -5.06352308e-07 -2.15847376e-06
      -1.43312229e-06 1.81903283e-06 2.65599624e-07 -4.18810123e-06
      -1.95828420e-07 2.66418942e-06 3.90061950e-06 -5.06358276e-07
      -2.15848127e-06 -1.84257897e-06 2.33875835e-06 3.41518273e-07
      -5.38471386e-06 -2.51780733e-07 3.42538920e-06 5.01508202e-06
      -6.51025346e-07 -2.77517938e-06 -1.02182037e-06 2.36827617e-07
      -2.86574414e-06 -5.54362543e-07 1.19092510e-06 5.30161678e-11
      1.19185977e-07 1.00809314e-06 2.86403997e-06 -1.31376839e-06
      3.04498769e-07 -3.68452629e-06 -7.12757014e-07 1.53118867e-06
      4.40625487e-11 1.53232307e-07 1.29612135e-06 3.68232668e-06
      -1.31377010e-06 3.04499338e-07 -3.68453675e-06 -7.12755309e-07
      1.53118981e-06 7.00054598e-11 1.53239668e-07 1.29612886e-06
      3.68233691e-06 -1.68913152e-06 3.91506973e-07 -4.73726004e-06
      -9.16406236e-07 1.96867109e-06 5.90199001e-11 1.97013691e-07
      1.66645316e-06 4.73441969e-06 -3.28575857e-06 -5.47835270e-07
      -8.11156610e-07 2.43791601e-06 4.82822088e-07 1.57565253e-07
      1.96502413e-07 7.44720467e-07 -1.23337122e-06 -4.22478206e-06
      -7.04360730e-07 -1.04291644e-06 3.13446048e-06 6.21242691e-07
      2.02582683e-07 2.52648476e-07 9.57501697e-07 -1.58599755e-06
      -4.22431140e-06 -7.04362606e-07 -1.04291234e-06 3.13446640e-06
      6.20294713e-07 2.02584658e-07 2.52645975e-07 9.57488396e-07
      -1.58553041e-06 -5.43155966e-06 -9.05610364e-07 -1.34088884e-06
      4.03002377e-06 7.98127871e-07 2.60464418e-07 3.24833849e-07
      1.23106133e-06 -2.03884065e-06 5.41690284e-08 -1.17932598e-06
      -1.07615892e-06 4.84427744e-07 1.00626387e-07 -1.13094336e-06
      -4.01023755e-07 1.87524790e-06 9.18042190e-07 6.96384319e-08
      -1.51627250e-06 -1.38365863e-06 6.22835046e-07 1.29384887e-07
      -1.45406852e-06 -5.15607496e-07 2.41103339e-06 1.18034438e-06
      6.96415086e-08 -1.51627398e-06 -1.38363509e-06 6.22822313e-07
      1.29373589e-07 -1.45406716e-06 -5.15597264e-07 2.41103317e-06
      1.18034257e-06 8.95295003e-08 -1.94949030e-06 -1.77899256e-06
      8.00770749e-07 1.66347888e-07 -1.86951297e-06 -6.62918353e-07
      3.09990014e-06 1.51758888e-06 -5.49454626e-07 9.66288326e-07
      3.96172754e-06 1.43501921e-07 -2.07964490e-07 -2.09586506e-06
      -1.42351766e-07 -8.72664430e-07 1.00737751e-07 -7.06445121e-07
      1.24237624e-06 5.09365464e-06 1.84495661e-07 -2.67379420e-07
      -2.69468319e-06 -1.83018301e-07 -1.12199371e-06 1.29520757e-07
      -7.06448759e-07 1.24237488e-06 5.09365327e-06 1.84508394e-07
      -2.67377288e-07 -2.69468728e-06 -1.83024198e-07 -1.12200144e-06
      1.29521212e-07 -9.08295704e-07 1.59734645e-06 6.54898759e-06
      2.37216383e-07 -3.43766231e-07 -3.46459706e-06 -2.35309912e-07
      -1.44256853e-06 1.66528437e-07 -1.99552133e-07 -1.85373409e-07
      -7.96163309e-12 1.73436092e-06 -2.51854004e-07 -1.70593239e-07
      -5.95759730e-07 4.18232986e-07 -1.37381426e-06 -2.56566921e-07
      -2.38337947e-07 -6.19320957e-12 2.22986819e-06 -3.23796996e-07
      -2.19329849e-07 -7.65975244e-07 5.37727942e-07 -1.76633478e-06
      -2.56563879e-07 -2.38327516e-07 -1.02368912e-11 2.22988797e-06
      -3.23809985e-07 -2.19340549e-07 -7.65974221e-07 5.37729989e-07
      -1.76633739e-06 -3.29867930e-07 -3.06422038e-07 -7.96384573e-12
      2.86696718e-06 -4.16307415e-07 -2.82003725e-07 -9.84821781e-07
      6.91367234e-07 -2.27100850e-06 1.00923117e-07 2.73786270e-07
      1.12598195e-06 -5.70801468e-08 -4.84685415e-07 -1.36137771e-06
      6.48760912e-09 4.86651800e-07 4.04678445e-07 1.29761048e-07
      3.52010773e-07 1.44767660e-06 -7.33950785e-08 -6.23160133e-07
      -1.75033995e-06 8.32093505e-09 6.25697737e-07 5.20310039e-07
      1.29754966e-07 3.52011199e-07 1.44769115e-06 -7.33888541e-08
      -6.23185599e-07 -1.75033790e-06 8.35391578e-09 6.25695066e-07
      5.20303388e-07 1.66831185e-07 4.52585738e-07 1.86129807e-06
      -9.43652410e-08 -8.01230669e-07 -2.25043050e-06 1.07146674e-08
      8.04468471e-07 6.68972973e-07 -1.19906463e-06 7.83286964e-07
      2.34388767e-06 -7.49696529e-13 3.94032583e-07 -1.06244306e-06
      -1.58020566e-06 9.08759546e-07 4.03248578e-07 -1.54165014e-06
      1.00708235e-06 3.01356545e-06 -9.63893895e-13 5.06395907e-07
      -1.36601102e-06 -2.03169543e-06 1.16840556e-06 5.18465981e-07
      -1.54165741e-06 1.00708337e-06 3.01357068e-06 -1.64933442e-12
      5.06607364e-07 -1.36599806e-06 -2.03168611e-06 1.16840988e-06
      5.18459785e-07 -1.98212479e-06 1.29482044e-06 3.87458522e-06
      -2.12057151e-12 6.51072753e-07 -1.75629987e-06 -2.61217133e-06
      1.50224196e-06 6.66595668e-07 -1.11188172e-06 7.86228860e-11
      1.44864938e-08 -8.29387432e-07 1.90819742e-06 1.06875689e-06
      3.73541042e-07 -4.97858181e-08 -1.32736454e-06 -1.42945112e-06
      8.11452849e-11 1.85643430e-08 -1.06635218e-06 2.45340107e-06
      1.37411996e-06 4.80268682e-07 -6.40104219e-08 -1.70649912e-06
      -1.42956219e-06 8.12420548e-11 1.85658191e-08 -1.06635844e-06
      2.45293040e-06 1.37411701e-06 4.79523749e-07 -6.42642277e-08
      -1.70661406e-06 -1.83786574e-06 7.88157387e-11 2.37917206e-08
      -1.37102813e-06 3.15377383e-06 1.76672688e-06 6.16532816e-07
      -8.26255473e-08 -2.19407343e-06 1.18857110e-06 -1.98654583e-13
      1.08185611e-06 4.99448106e-07 4.94247445e-07 -4.34840011e-12
      -1.58645855e-06 -1.87794910e-06 8.82691324e-07 1.52816438e-06
      -2.55402280e-13 1.39095800e-06 6.42147597e-07 6.35929041e-07
      -3.38213051e-12 -2.03971535e-06 -2.41450266e-06 1.13489034e-06
      1.52813686e-06 -1.54508527e-13 1.39095778e-06 6.42151235e-07
      6.35460935e-07 -5.59078478e-12 -2.03974469e-06 -2.41451448e-06
      1.13485567e-06 1.96474957e-06 -1.98644934e-13 1.78837411e-06
      8.25623090e-07 8.17622947e-07 -4.34842093e-12 -2.62250705e-06
      -3.10437144e-06 1.45910212e-06 -3.27786779e-07 3.76271117e-07
      1.12594387e-06 -7.98667998e-07 -7.05627144e-07 -1.64927229e-07
      7.61147817e-07 3.06691135e-07 -3.27787831e-07 -4.21415223e-07
      4.83777114e-07 1.44763999e-06 -1.02686374e-06 -9.07234210e-07
      -2.12048619e-07 9.78621529e-07 3.94318675e-07 -4.21415933e-07
      -4.21440092e-07 4.83778251e-07 1.44764590e-06 -1.02685885e-06
      -9.07292872e-07 -2.12049486e-07 9.78622438e-07 3.94315492e-07
      -4.21440859e-07 -5.41819531e-07 6.22000641e-07 1.86125556e-06
      -1.32025343e-06 -1.16651881e-06 -2.72634253e-07 1.25823249e-06
      5.06979291e-07 -5.41819759e-07 8.36397135e-07 4.32929113e-07
      1.29548891e-06 0. -1.57240947e-06 -1.33810829e-06 -2.27873031e-07
      -2.42477316e-10 8.36397135e-07 1.07536721e-06 5.56623547e-07
      1.66563007e-06 0. -2.02167053e-06 -1.72020873e-06 -2.92682557e-07
      -2.32125569e-10 1.07536721e-06 1.07536823e-06 5.56623093e-07
      1.66562882e-06 0. -2.02177671e-06 -1.72042542e-06 -2.93213162e-07
      -3.89793642e-10 1.07536823e-06 1.38261566e-06 7.15658871e-07
      2.14152396e-06 0. -2.59942908e-06 -2.21169762e-06 -3.76606380e-07
      -3.98780342e-10 1.38261566e-06 -3.41707960e-08 -9.36701952e-07
      -3.11079816e-06 -2.34477909e-07 2.78788281e-09 -7.46352917e-15
      3.55075257e-12 1.16547130e-06 2.07331780e-07 -4.35080061e-08
      -1.20433583e-06 -3.99959254e-06 -3.01472880e-07 2.89941138e-09
      -5.80496666e-15 6.18843952e-12 1.49846358e-06 2.66996580e-07
      -4.39352803e-08 -1.20432401e-06 -3.99959481e-06 -3.01472454e-07
      4.43247661e-09 -9.59593462e-15 6.18843952e-12 1.49846085e-06
      2.66566190e-07 -5.59406566e-08 -1.54842257e-06 -5.14232943e-06
      -3.87609077e-07 4.81817120e-09 -7.46350461e-15 1.00435242e-11
      1.92659309e-06 3.43277179e-07 6.90797322e-07 7.68702705e-07
      8.60977991e-07 -7.73721979e-07 6.54281394e-07 -7.99966511e-14
      2.66761938e-12 -3.56358259e-12 5.85131659e-07 8.88167051e-07
      9.88324700e-07 1.10697204e-06 -9.94783932e-07 8.41224505e-07
      -1.02855651e-13 4.77346634e-12 -6.66631941e-12 7.52312985e-07
      8.88169893e-07 9.88335046e-07 1.10696840e-06 -9.94787342e-07
      8.41213478e-07 -1.75988198e-13 4.91145145e-12 -3.23127614e-12
      7.52314918e-07 1.14193131e-06 1.27070723e-06 1.42324564e-06
      -1.27901046e-06 1.08156735e-06 -2.26272736e-13 8.04229860e-12
      -6.83466001e-12 9.67263304e-07 3.25260453e-06 -2.08960364e-06
      -3.33543625e-07 -6.38688191e-12 -1.55554744e-07 -1.95789411e-08
      4.66436205e-07 -8.26612165e-08 3.21482594e-06 4.18191667e-06
      -2.68681106e-06 -4.29366054e-07 -5.89715299e-12 -1.99801207e-07
      -2.51729233e-08 5.99703640e-07 -1.06278499e-07 4.13334465e-06
      4.18191712e-06 -2.68680537e-06 -4.29360000e-07 -7.35626924e-12
      -2.00000798e-07 -2.51743106e-08 5.99713928e-07 -1.06274953e-07
      4.13334647e-06 5.37674714e-06 -3.45469266e-06 -5.52708229e-07
      -6.48220583e-12 -2.56889649e-07 -3.23669695e-08 7.71060741e-07
      -1.36638917e-07 5.31429896e-06 -5.62169930e-07 -6.45409784e-07
      3.63863728e-06 -4.53559174e-13 -1.35900535e-09 -2.31185682e-10
      1.26668368e-07 -2.37386615e-07 4.10026985e-07 -7.23139408e-07
      -8.29990142e-07 4.67772315e-06 -5.83133151e-13 -1.83514626e-09
      -1.79842932e-10 1.62923158e-07 -3.05208999e-07 5.26826170e-07
      -7.23117068e-07 -8.29783232e-07 4.67832615e-06 -3.52768216e-13
      -2.93394842e-09 -2.97296132e-10 1.62858569e-07 -3.05212041e-07
      5.26869087e-07 -9.30171325e-07 -1.06709217e-06 6.01431611e-06
      -4.53548006e-13 -3.88517574e-09 -2.31300437e-10 2.09471665e-07
      -3.92412460e-07 6.76951288e-07 4.03074239e-07 -2.14737020e-06
      -2.46973684e-07 -1.56445469e-06 -2.77919139e-06 -2.50858969e-11
      -2.73184412e-07 4.43801014e-07 2.10204644e-06 5.18233492e-07
      -2.76090532e-06 -3.17242808e-07 -2.01084231e-06 -3.57364797e-06
      -1.76699558e-11 -3.51418947e-07 5.70552686e-07 2.70262990e-06
      5.18088143e-07 -2.76075957e-06 -3.17107634e-07 -2.01143848e-06
      -3.57154340e-06 -3.40945674e-11 -3.51060265e-07 5.70662678e-07
      2.70247665e-06 6.66107269e-07 -3.54954955e-06 -4.07330816e-07
      -2.58536397e-06 -4.59250168e-06 -2.50858778e-11 -4.51597003e-07
      7.33646743e-07 3.47461150e-06 -6.27967495e-07 -5.86331396e-07
      6.64913387e-07 -6.99430416e-07 9.30757665e-07 -6.49548124e-13
      -7.79379619e-08 -4.28003290e-07 5.66744063e-07 -8.07381412e-07
      -7.53853328e-07 8.54889436e-07 -8.99272663e-07 1.19668948e-06
      -8.99397744e-13 -1.00209498e-07 -5.50291361e-07 7.28669306e-07
      -8.07469007e-07 -7.53848951e-07 8.54885513e-07 -8.99266581e-07
      1.19668516e-06 -5.40906241e-13 -1.00202762e-07 -5.50288689e-07
      7.28590408e-07 -1.03816717e-06 -9.69232588e-07 1.09913969e-06
      -1.15620605e-06 1.53859651e-06 -7.78076496e-13 -1.28836675e-07
      -7.07515653e-07 9.36756976e-07 -1.68243082e-06 1.72494822e-06
      1.09544817e-06 -1.56133854e-06 -2.02238061e-06 -1.86983003e-12
      2.35126959e-06 7.85762722e-07 -6.68685573e-07 -2.16313174e-06
      2.21779237e-06 1.40843395e-06 -2.00743511e-06 -2.60019965e-06
      -4.24864310e-12 3.02307649e-06 1.01027138e-06 -8.59742556e-07
      -2.16319609e-06 2.21779510e-06 1.40844611e-06 -2.00744375e-06
      -2.60022694e-06 -1.03699357e-13 3.02306512e-06 1.01026740e-06
      -8.59815032e-07 -2.78126072e-06 2.85145370e-06 1.81085989e-06
      -2.58099885e-06 -3.34314336e-06 -2.50494590e-12 3.88681792e-06
      1.29892192e-06 -1.10548149e-06 -2.99089402e-06 -2.05123501e-06
      -1.43378566e-06 1.66174880e-06 4.59063870e-07 1.06874506e-06
      2.23048642e-06 1.22902338e-06 -2.14257582e-07 -3.84543273e-06
      -2.63729453e-06 -1.84343605e-06 2.13653061e-06 5.90218235e-07
      1.37410086e-06 2.86776890e-06 1.58017167e-06 -2.75476680e-07
      -3.84544273e-06 -2.63730067e-06 -1.84343219e-06 2.13653743e-06
      5.90223749e-07 1.37409847e-06 2.86776731e-06 1.58016860e-06
      -2.75486173e-07 -4.94413689e-06 -3.39080543e-06 -2.37012387e-06
      2.74697209e-06 7.58850547e-07 1.76669801e-06 3.68713063e-06
      2.03164336e-06 -3.54199898e-07 9.69480311e-07 6.29421777e-08
      -1.26197364e-07 -2.24776431e-06 -2.50688049e-06 6.21753429e-07
      5.22505388e-07 -7.06499250e-08 2.78112248e-06 1.24647647e-06
      8.09317058e-08 -1.62262666e-07 -2.89010200e-06 -3.22312439e-06
      7.99411339e-07 6.71791099e-07 -9.08481894e-08 3.57573094e-06
      1.24646704e-06 8.09271654e-08 -1.62253272e-07 -2.88998785e-06
      -3.22317442e-06 7.99395252e-07 6.71794453e-07 -9.08398334e-08
      3.57572731e-06 1.60260288e-06 1.04057015e-07 -2.08622794e-07
      -3.71585179e-06 -4.14407168e-06 1.02781200e-06 8.63733874e-07
      -1.16810220e-07 4.59736657e-06 -3.70483258e-06 -1.35330390e-06
      2.85004444e-06 7.66077790e-07 -1.43582656e-06 1.08031793e-06
      1.21855089e-06 2.89368842e-07 4.64459788e-07 -4.76336299e-06
      -1.73995682e-06 3.66434688e-06 9.84960025e-07 -1.84606392e-06
      1.38897917e-06 1.56671092e-06 3.72055865e-07 5.97160692e-07
      -4.76338982e-06 -1.73996625e-06 3.66435120e-06 9.84954681e-07
      -1.84606358e-06 1.38897951e-06 1.56670023e-06 3.72040006e-07
      5.97136648e-07 -6.12436725e-06 -2.23709230e-06 4.71131307e-06
      1.26637406e-06 -2.37351151e-06 1.78582968e-06 2.01433249e-06
      4.78350273e-07 7.67744893e-07 -1.31159652e-06 -4.44414468e-07
      6.07443667e-07 -8.36177605e-07 2.47522803e-06 -4.78719581e-12
      -1.28004729e-07 -7.26659692e-08 -9.68888472e-08 -1.68633380e-06
      -5.71380326e-07 7.81001461e-07 -1.07508060e-06 3.18244201e-06
      -7.25122523e-12 -1.64581138e-07 -9.34278646e-08 -1.24578676e-07
      -1.68637632e-06 -5.71389592e-07 7.80999642e-07 -1.07509072e-06
      3.18244656e-06 -2.73193967e-12 -1.64576818e-07 -9.34256121e-08
      -1.24602565e-07 -2.16819217e-06 -7.34631215e-07 1.00414559e-06
      -1.38225334e-06 4.09172435e-06 -4.92196691e-12 -2.11603407e-07
      -1.20119026e-07 -1.60212764e-07 -1.26058330e-06 -9.89020421e-08
      -1.67392756e-07 -5.79751031e-07 1.36662140e-06 2.43173162e-07
      -6.39366604e-08 5.31422131e-07 -6.89185526e-07 -1.62074787e-06
      -1.27160632e-07 -2.15211870e-07 -7.45403611e-07 1.75707794e-06
      3.12651707e-07 -8.22046573e-08 6.83258122e-07 -8.86093574e-07
      -1.62077436e-06 -1.27158714e-07 -2.15220027e-07 -7.45387183e-07
      1.75708408e-06 3.12647330e-07 -8.22078334e-08 6.83265284e-07
      -8.86096871e-07 -2.08384972e-06 -1.63490952e-07 -2.76702195e-07
      -9.58366968e-07 2.25910048e-06 4.01975768e-07 -1.05696266e-07
      8.78485366e-07 -1.13926455e-06 -2.24628025e-07 -6.17913372e-07
      -1.49137702e-06 -1.52261259e-06 2.23035227e-06 1.04578987e-06
      1.02617014e-06 9.89728406e-08 -8.30588363e-07 -2.88798162e-07
      -7.94463915e-07 -1.91748131e-06 -1.95764437e-06 2.86779027e-06
      1.34458810e-06 1.31914499e-06 1.27176492e-07 -1.06789605e-06
      -2.88802852e-07 -7.94457605e-07 -1.91748768e-06 -1.95765028e-06
      2.86759109e-06 1.34459026e-06 1.31936656e-06 1.27608388e-07
      -1.06785535e-06 -3.71305987e-07 -1.02145054e-06 -2.46533705e-06
      -2.51697816e-06 3.68715291e-06 1.72876037e-06 1.69605016e-06
      1.63972317e-07 -1.37295297e-06 -4.73167319e-07 -1.28352463e-06
      -1.42033628e-06 2.11210272e-06 3.82951811e-07 -2.12625959e-11
      -6.39210951e-09 9.75427952e-07 -8.65085383e-07 -6.08349183e-07
      -1.65025222e-06 -1.82615395e-06 2.71556655e-06 4.92373488e-07
      -1.69642269e-11 -8.21545054e-09 1.25412078e-06 -1.11226302e-06
      -6.08414950e-07 -1.65026017e-06 -1.82614463e-06 2.71556496e-06
      4.92366780e-07 -2.63168619e-11 -8.21752888e-09 1.25412589e-06
      -1.11231009e-06 -7.82236441e-07 -2.12177088e-06 -2.34791014e-06
      3.49144739e-06 6.33051798e-07 -2.04987572e-11 -1.05615170e-08
      1.61244611e-06 -1.43012630e-06 -1.06814775e-06 -1.17673801e-06
      2.37924411e-07 4.94372273e-07 2.21000528e-06 1.15886451e-06
      -2.88535659e-07 -6.29050021e-07 -1.57789748e-06 -1.37333097e-06
      -1.51294444e-06 3.05887767e-07 6.35619472e-07 2.84145585e-06
      1.48997549e-06 -3.70979450e-07 -8.08777372e-07 -2.02872070e-06
      -1.37337724e-06 -1.51294239e-06 3.05902461e-07 6.35617312e-07
      2.84143357e-06 1.48996901e-06 -3.70975044e-07 -8.08770380e-07
      -2.02876845e-06 -1.76576850e-06 -1.94520567e-06 3.93284608e-07
      8.17219757e-07 3.65329788e-06 1.91568324e-06 -4.76974435e-07
      -1.03984610e-06 -2.60841057e-06 1.30320515e-07 1.84493331e-07
      5.52051802e-07 1.70115516e-06 -2.78944356e-07 -7.78056688e-07
      9.11258439e-07 -7.63984417e-07 -2.94014171e-06 1.67316870e-07
      2.37207885e-07 7.09787514e-07 2.18719492e-06 -3.58633855e-07
      -1.00035766e-06 1.17162017e-06 -9.82265078e-07 -3.78041250e-06
      1.67758941e-07 2.37204802e-07 7.09788537e-07 2.18720061e-06
      -3.59117195e-07 -1.00035845e-06 1.17161869e-06 -9.82269057e-07
      -3.77999095e-06 2.15384063e-07 3.04980404e-07 9.12593748e-07
      2.81210851e-06 -4.61710925e-07 -1.28617398e-06 1.50636913e-06
      -1.26291673e-06 -4.86028466e-06 -1.02680599e-06 -1.25835527e-07
      -2.14805709e-07 -1.42217027e-06 5.84278837e-07 -1.64437188e-06
      2.26757879e-06 1.45220986e-06 -1.53889755e-06 -1.32018261e-06
      -1.61783333e-07 -2.76173608e-07 -1.82850476e-06 7.51675884e-07
      -2.11419456e-06 2.91556421e-06 1.86716568e-06 -1.97858367e-06
      -1.32018010e-06 -1.61785593e-07 -2.76177417e-07 -1.82850567e-06
      7.51206983e-07 -2.11418978e-06 2.91536048e-06 1.86708985e-06
      -1.97858276e-06 -1.69737882e-06 -2.08003385e-07 -3.55078583e-07
      -2.35093603e-06 9.66429297e-07 -2.71824638e-06 3.74845604e-06
      2.40059398e-06 -2.54389352e-06 -1.99543774e-06 -4.20402927e-07
      5.52064307e-07 -5.07792983e-12 1.95969974e-09 -1.75915034e-06
      4.24163638e-08 8.94804316e-07 -1.50995334e-06 -2.56555768e-06
      -5.40520602e-07 7.09797121e-07 -4.42912807e-12 2.98860892e-09
      -2.26176439e-06 5.45338281e-08 1.15045748e-06 -1.94136237e-06
      -2.56561270e-06 -5.40522990e-07 7.09803601e-07 -6.52874196e-12
      2.51496490e-09 -2.26175962e-06 5.45431114e-08 1.15046407e-06
      -1.94147447e-06 -3.29863815e-06 -6.94961329e-07 9.12604833e-07
      -5.69457372e-12 3.83652177e-09 -2.90797698e-06 7.01248482e-08
      1.47916148e-06 -2.49617324e-06 -1.53621750e-06 5.74490969e-07
      2.42143869e-06 5.71919899e-12 4.42738695e-07 4.20603328e-07
      1.11780587e-07 -9.40316625e-07 -1.13814565e-06 -1.97512941e-06
      7.38630717e-07 3.11327653e-06 7.35324995e-12 5.69232725e-07
      5.40776568e-07 1.43713365e-07 -1.20897448e-06 -1.46329273e-06
      -1.97519626e-06 7.38632366e-07 3.11328563e-06 1.65272795e-11
      5.69255860e-07 5.40792257e-07 1.43717557e-07 -1.20897789e-06
      -1.46340903e-06 -2.53952885e-06 9.49669584e-07 4.00279305e-06
      2.12493443e-11 7.31896876e-07 6.95305346e-07 1.84773981e-07
      -1.55439511e-06 -1.88147760e-06 3.83788964e-12 1.84507471e-07
      7.67417760e-07 5.19058085e-09 4.15174782e-06 -2.27579889e-07
      -1.48084467e-07 -2.04179074e-07 -6.11573626e-07 -2.30197580e-11
      2.37228278e-07 9.85640213e-07 -8.17072543e-09 5.33878438e-06
      -2.92598912e-07 -1.90392996e-07 -2.62513709e-07 -7.86336670e-07
      -1.19983412e-10 2.37225279e-07 9.86683517e-07 5.29071720e-09
      5.33740422e-06 -2.92600873e-07 -1.90334063e-07 -2.62497196e-07
      -7.86462977e-07 -1.90182703e-10 3.05009536e-07 1.26725604e-06
      -1.22835138e-08 6.86343492e-06 -3.76196311e-07 -2.44713505e-07
      -3.37493532e-07 -1.01120224e-06 7.38115091e-07 1.85691945e-07
      -7.82138500e-07 -5.30247348e-07 -1.45460064e-07 -1.08632818e-07
      -2.00324152e-07 -7.87303070e-11 7.38110884e-07 9.49004857e-07
      2.38443960e-07 -1.00651278e-06 -6.81746542e-07 -1.87071478e-07
      -1.39677041e-07 -2.57614204e-07 -1.21555072e-10 9.48998149e-07
      9.49004118e-07 2.38445466e-07 -1.00650857e-06 -6.81746542e-07
      -1.87018514e-07 -1.39672892e-07 -2.57502450e-07 -8.14145418e-11
      9.48998263e-07 1.22014796e-06 3.06183409e-07 -1.29524756e-06
      -8.76531317e-07 -2.40518489e-07 -1.79587474e-07 -3.31144719e-07
      -1.30814679e-10 1.22013864e-06 1.15280926e-07 1.85075379e-07
      5.53813948e-07 -2.03639727e-11 1.03166644e-06 -2.01453281e-06
      -1.14465161e-06 5.23295712e-11 1.15280926e-07 1.47982931e-07
      2.37808791e-07 7.11611960e-07 -1.98088212e-11 1.32643402e-06
      -2.59011426e-06 -1.47151229e-06 1.34145611e-10 1.47982931e-07
      1.48218334e-07 2.37808351e-07 7.11610483e-07 -3.30184387e-11
      1.32579055e-06 -2.59011335e-06 -1.47169533e-06 6.72743805e-11
      1.48218334e-07 1.90263791e-07 3.05566829e-07 9.14369025e-07
      -3.42578778e-11 1.70459509e-06 -3.33014668e-06 -1.89194486e-06
      1.72464432e-10 1.90263791e-07 -8.16451234e-07 -1.99735041e-07
      -5.97664780e-07 -2.04051220e-11 1.62785852e-07 -4.43392224e-07
      -4.88913301e-08 7.62779639e-16 -8.16442196e-07 -1.04973299e-06
      -2.56801314e-07 -7.68427924e-07 -2.06726459e-11 2.08202280e-07
      -5.70074917e-07 -6.28604226e-08 1.67706870e-15 -1.04971889e-06
      -1.05012134e-06 -2.56810523e-07 -7.68447194e-07 -2.26485601e-11
      2.09297255e-07 -5.70075713e-07 -6.28602805e-08 5.94900673e-16
      -1.05010702e-06 -1.35016910e-06 -3.30183809e-07 -9.88005809e-07
      -2.19677679e-11 2.67690126e-07 -7.32953481e-07 -8.08205414e-08
      1.30647950e-15 -1.35014773e-06 -1.50660708e-06 -2.00155185e-07
      -5.98923975e-07 -7.12812076e-09 -1.55913014e-07 -1.71310059e-14
      5.52101483e-07 -9.97117411e-08 -9.06161063e-07 -1.93706683e-06
      -2.57343515e-07 -7.70037332e-07 -9.16223897e-09 -2.00756261e-07
      -2.20218402e-14 7.09844812e-07 -1.28200824e-07 -1.16506965e-06
      -1.93685219e-06 -2.57344226e-07 -7.70045062e-07 -9.16526144e-09
      -2.00459567e-07 -1.33358409e-14 7.09844414e-07 -1.28201464e-07
      -1.16485160e-06 -2.49023878e-06 -3.30872638e-07 -9.90047965e-07
      -1.17807089e-08 -2.58115193e-07 -1.71378787e-14 9.12657072e-07
      -1.64830396e-07 -1.49767322e-06 1.29479346e-07 -8.20023217e-07
      -2.16362238e-07 -1.25618717e-11 1.18453954e-06 4.12295762e-12
      1.17187756e-06 3.61461083e-08 -1.15954811e-06 1.66501763e-07
      -1.05414165e-06 -2.77656568e-07 -9.77034426e-12 1.52228461e-06
      1.02971765e-12 1.50579888e-06 4.61738487e-08 -1.49081961e-06
      1.66601552e-07 -1.05431684e-06 -2.78179016e-07 -1.61509781e-11
      1.52347354e-06 8.33816740e-13 1.50754283e-06 4.67564192e-08
      -1.49072059e-06 2.14238398e-07 -1.35532662e-06 -3.56985709e-07
      -1.25618717e-11 1.95785856e-06 -4.41953982e-12 1.93711071e-06
      5.97299135e-08 -1.91660433e-06 -7.11977748e-07 -7.73627789e-07
      -9.76564891e-08 2.44881306e-07 2.22583435e-06 3.01268369e-13
      1.82892748e-07 -1.39661233e-06 -4.85147211e-08 -9.15401756e-07
      -9.94664560e-07 -1.25563119e-07 3.14838132e-07 2.86178647e-06
      9.83358794e-13 2.35157529e-07 -1.79563972e-06 -6.23777865e-08
      -9.15404428e-07 -9.94676270e-07 -1.25554209e-07 3.14837905e-07
      2.86178056e-06 6.67888122e-14 2.35147866e-07 -1.79563108e-06
      -6.23539691e-08 -1.17695083e-06 -1.27886960e-06 -1.61433675e-07
      4.04779684e-07 3.67943153e-06 8.52182474e-13 3.02345597e-07
      -2.30866249e-06 -8.01715885e-08 -1.92055290e-06 -6.57724613e-08
      2.38098096e-07 -2.89122636e-06 -3.82968324e-07 1.51307211e-06
      8.88159548e-07 8.67633148e-08 -8.54640291e-07 -2.46928607e-06
      -8.45629842e-08 3.06130119e-07 -3.71729379e-06 -4.92387755e-07
      1.94538075e-06 1.14191778e-06 1.11551572e-07 -1.09882365e-06
      -2.46885566e-06 -8.45625507e-08 3.06127362e-07 -3.71728606e-06
      -4.94099424e-07 1.94537824e-06 1.14192073e-06 1.11553398e-07
      -1.09839607e-06 -3.17424792e-06 -1.08721245e-07 3.93597333e-07
      -4.77937147e-06 -6.35270567e-07 2.50120343e-06 1.46818149e-06
      1.43424430e-07 -1.41222404e-06 1.54465468e-07 3.03945967e-07
      1.36734542e-07 4.44461463e-08 -3.02053695e-06 -7.89458284e-07
      2.33276364e-06 3.42370697e-07 8.06176502e-07 1.98598670e-07
      3.90791371e-07 1.75836675e-07 5.71251277e-08 -3.88355738e-06
      -1.01501348e-06 2.99927001e-06 4.40191855e-07 1.03651280e-06
      1.98592517e-07 3.90785232e-07 1.75795236e-07 5.71441952e-08
      -3.88353783e-06 -1.01500427e-06 2.99927365e-06 4.40193475e-07
      1.03651405e-06 2.55333731e-07 5.02443015e-07 2.26067485e-07
      7.34447596e-08 -4.99313319e-06 -1.30499973e-06 3.85621161e-06
      5.65964342e-07 1.33266133e-06 -3.47462475e-07 1.49955997e-06
      1.13324052e-06 -3.26846475e-07 -4.33071182e-06 -1.22485244e-06
      -2.23700809e-07 2.42614283e-06 2.34888986e-07 -4.46736522e-07
      1.92800871e-06 1.45702506e-06 -4.20230606e-07 -5.56764462e-06
      -1.57481009e-06 -2.87620338e-07 3.11933036e-06 3.02003514e-07
      -4.46738767e-07 1.92801485e-06 1.45703302e-06 -4.20232794e-07
      -5.56805435e-06 -1.57481099e-06 -2.87616615e-07 3.11932195e-06
      3.01989729e-07 -5.74377282e-07 2.47887965e-06 1.87333001e-06
      -5.40298402e-07 -7.15839496e-06 -2.02475667e-06 -3.69799210e-07
      4.01056241e-06 3.88277044e-07 -6.70619841e-07 1.19992865e-06
      2.46445597e-06 7.55956762e-07 -3.50383698e-06 -9.54459665e-07
      -1.27659121e-07 -1.11975893e-07 -6.62441323e-07 -8.62021125e-07
      1.54275176e-06 3.16858632e-06 9.71960731e-07 -4.50493326e-06
      -1.22716290e-06 -1.64136580e-07 -1.43972386e-07 -8.51504922e-07
      -8.62021636e-07 1.54261920e-06 3.16815408e-06 9.71943336e-07
      -4.50493917e-06 -1.22716165e-06 -1.64132942e-07 -1.43967668e-07
      -8.51494860e-07 -1.10805070e-06 1.98335010e-06 4.07334119e-06
      1.24966243e-06 -5.79206426e-06 -1.57778015e-06 -2.11032500e-07
      -1.85105634e-07 -1.09451491e-06 -2.00331601e-06 -2.61494324e-06
      1.78386233e-06 -1.07889741e-06 1.60522336e-06 -3.15858555e-11
      1.07374490e-07 9.31669604e-07 1.00457771e-06 -2.57569445e-06
      -3.36207427e-06 2.29352804e-06 -1.38714915e-06 2.06390246e-06
      -2.35434519e-11 1.38049288e-07 1.19785989e-06 1.29159605e-06
      -2.57568104e-06 -3.36207336e-06 2.29354623e-06 -1.38715609e-06
      2.06386017e-06 -3.76174196e-11 1.38053849e-07 1.19785921e-06
      1.29160162e-06 -3.31159276e-06 -4.32267188e-06 2.94883330e-06
      -1.78348034e-06 2.65359108e-06 -2.64221214e-11 1.77493135e-07
      1.54010320e-06 1.66062534e-06 1.21921073e-06 1.16405351e-06
      -7.92435571e-07 -1.06237871e-06 -4.04083060e-12 5.46247279e-08
      5.24725692e-07 -9.78923367e-07 1.90346256e-07 1.56756209e-06
      1.49665175e-06 -1.01885405e-06 -1.36591484e-06 -3.65813066e-12
      7.02346412e-08 6.74648447e-07 -1.25861175e-06 2.44733826e-07
      1.56755550e-06 1.49663731e-06 -1.01883211e-06 -1.36591552e-06
      -6.12281536e-12 7.02315219e-08 6.74644525e-07 -1.25861618e-06
      2.44736640e-07 2.01543571e-06 1.92426251e-06 -1.30993772e-06
      -1.75617640e-06 -5.89576695e-12 9.03013344e-08 8.67401639e-07
      -1.61821561e-06 3.14665215e-07 -8.84185596e-08 -1.76887923e-07
      -1.19630397e-06 -7.97498217e-07 1.35644939e-06 6.93036881e-08
      1.49622804e-06 -1.74442437e-06 -2.98752582e-07 -1.13688102e-07
      -2.27425616e-07 -1.53812448e-06 -1.02539582e-06 1.74401032e-06
      8.91040060e-08 1.92371658e-06 -2.24282394e-06 -3.84107238e-07
      -1.13870527e-07 -2.27423357e-07 -1.53811220e-06 -1.02535864e-06
      1.74400998e-06 8.91007090e-08 1.92374000e-06 -2.24282849e-06
      -3.84016602e-07 -1.46414138e-07 -2.92399250e-07 -1.97759778e-06
      -1.31837101e-06 2.24230348e-06 1.14557103e-07 2.47337334e-06
      -2.88362685e-06 -4.93731477e-07 -4.07449107e-07 -1.14321733e-06
      6.55745794e-07 1.09716086e-06 4.65961051e-07 -1.79130836e-07
      -2.78790793e-07 1.13907186e-06 -5.15816112e-07 -5.23861843e-07
      -1.46985838e-06 8.43099201e-07 1.41062947e-06 5.99111559e-07
      -2.30304451e-07 -3.58445249e-07 1.46452146e-06 -6.63191713e-07
      -5.23873780e-07 -1.46985326e-06 8.43098235e-07 1.41063742e-06
      5.99087798e-07 -2.30311315e-07 -3.58444709e-07 1.46452339e-06
      -6.63208596e-07 -6.73550232e-07 -1.88982165e-06 1.08397978e-06
      1.81366931e-06 7.70279826e-07 -2.96106066e-07 -4.60857393e-07
      1.88295894e-06 -8.52696303e-07 1.47463129e-06 -2.10623830e-06
      1.60747777e-06 1.23086545e-06 4.56320919e-07 5.24053064e-07
      2.56202384e-07 -5.13103714e-07 -2.19937328e-06 1.89595255e-06
      -2.70801070e-06 2.06676782e-06 1.58253044e-06 5.86700025e-07
      6.73778345e-07 3.29402155e-07 -6.59704256e-07 -2.82776318e-06
      1.89595983e-06 -2.70799455e-06 2.06674372e-06 1.58254022e-06
      5.86692011e-07 6.73782324e-07 3.29402866e-07 -6.59713351e-07
      -2.82776841e-06 2.43766044e-06 -3.48169465e-06 2.65725589e-06
      2.03468085e-06 7.54320354e-07 8.66286200e-07 4.23516752e-07
      -8.48202262e-07 -3.63569802e-06 7.45989155e-07 -2.66758002e-06
      6.26346434e-07 1.38208122e-06 2.84080926e-07 2.95288913e-07
      -1.83105305e-06 -2.88951121e-08 2.11283373e-06 9.59121394e-07
      -3.42974158e-06 8.05317200e-07 1.77696108e-06 3.65245796e-07
      3.79660804e-07 -2.35420475e-06 -3.71490252e-08 2.71648923e-06
      9.59113549e-07 -3.42975477e-06 8.05300374e-07 1.77696541e-06
      3.65235223e-07 3.79665067e-07 -2.35420748e-06 -3.71539208e-08
      2.71650060e-06 1.23313612e-06 -4.40967915e-06 1.03540447e-06
      2.28466956e-06 4.69586780e-07 4.88145304e-07 -3.02683020e-06
      -4.77669211e-08 3.49262928e-06 -1.35185451e-06 -1.19783681e-06
      1.55576731e-06 5.24097345e-07 -9.39920941e-09 -1.50391475e-06
      1.20722825e-06 1.38732219e-06 2.83121921e-07 -1.73809758e-06
      -1.54008137e-06 2.00027443e-06 6.73880891e-07 -1.20647803e-08
      -1.93360597e-06 1.55214968e-06 1.78369760e-06 3.64010788e-07
      -1.73810724e-06 -1.54005738e-06 2.00027353e-06 6.73838088e-07
      -1.20840999e-08 -1.93359733e-06 1.55215287e-06 1.78369271e-06
      3.63995156e-07 -2.23470829e-06 -1.98008092e-06 2.57178272e-06
      8.66416542e-07 -1.55110875e-08 -2.48605556e-06 1.99562419e-06
      2.29331636e-06 4.67990105e-07 1.39859526e-06 -9.05105082e-07
