<?xml version="1.0"?>
<opencv_storage>
<my_svm type_id="opencv-ml-svm">
  <svm_type>C_SVC</svm_type>
  <kernel><type>LINEAR</type></kernel>
  <C>1.</C>
  <term_criteria><epsilon>1.1920928955078125e-07</epsilon>
    <iterations>1000</iterations></term_criteria>
  <var_all>17424</var_all>
  <var_count>17424</var_count>
  <class_count>2</class_count>
  <class_labels type_id="opencv-matrix">
    <rows>1</rows>
    <cols>2</cols>
    <dt>i</dt>
    <data>
      5 6</data></class_labels>
  <sv_total>1</sv_total>
  <support_vectors>
    <_>
      2.18028028e-04 -6.59847539e-03 2.32310034e-03 5.50192839e-04
      7.17749866e-03 -2.21836055e-03 4.42734594e-03 3.29053542e-03
      2.84988387e-03 2.80758337e-04 -8.48364085e-03 2.98718666e-03
      7.07387633e-04 9.22875665e-03 -2.85217445e-03 5.69211831e-03
      4.23063478e-03 3.66457063e-03 2.80027307e-04 -8.48389138e-03
      2.98645906e-03 7.07397063e-04 9.22803115e-03 -2.85218074e-03
      5.69231948e-03 4.22990369e-03 3.66366678e-03 3.60596896e-04
      -1.09077143e-02 3.84017406e-03 9.09506343e-04 1.18653113e-02
      -3.66708473e-03 7.31846038e-03 5.43837901e-03 4.71098768e-03
      2.36381893e-03 -8.86096619e-04 1.72406749e-03 9.92773566e-04
      8.48005246e-03 7.08059699e-04 3.26996553e-03 -9.97149153e-04
      5.20142959e-03 3.03917984e-03 -1.13928004e-03 2.21664505e-03
      1.27641333e-03 1.09033100e-02 9.10364965e-04 4.20360966e-03
      -1.28225773e-03 6.68754475e-03 3.03911720e-03 -1.13900378e-03
      2.21647136e-03 1.27642008e-03 1.09031303e-02 9.10363102e-04
      4.20415075e-03 -1.28208834e-03 6.68739155e-03 3.90741602e-03
      -1.46445003e-03 2.84973253e-03 1.64109899e-03 1.40188057e-02
      1.17047015e-03 5.40452451e-03 -1.64866738e-03 8.59806407e-03
      5.79419360e-03 1.08243723e-03 9.60713951e-04 1.14122953e-03
      5.06268535e-03 -5.87129092e-04 3.52620147e-03 -2.40436464e-04
      6.16491912e-03 7.44982762e-03 1.39185588e-03 1.23566645e-03
      1.46730314e-03 6.50920626e-03 -7.54876586e-04 4.53403126e-03
      -3.09028313e-04 7.92648736e-03 7.44936382e-03 1.39197649e-03
      1.23598822e-03 1.46729732e-03 6.50994573e-03 -7.54879205e-04
      4.53339098e-03 -3.09784373e-04 7.92590342e-03 9.57794581e-03
      1.78987766e-03 1.58972247e-03 1.88653544e-03 8.36998131e-03
      -9.70554189e-04 5.82908699e-03 -3.98159900e-04 1.01906555e-02
      6.72791991e-03 1.50282925e-04 3.32279759e-03 5.50009485e-04
      2.27806787e-03 1.70219555e-05 -1.35023461e-03 1.31446600e-03
      7.29417149e-03 8.65098741e-03 1.93061103e-04 4.27167490e-03
      7.07157480e-04 2.93017225e-03 2.18891655e-05 -1.73591403e-03
      1.68876164e-03 9.37875360e-03 8.65032990e-03 1.93218468e-04
      4.27211961e-03 7.07152532e-04 2.92878249e-03 2.18946261e-05
      -1.73615990e-03 1.68997468e-03 9.37835127e-03 1.11228870e-02
      2.48218188e-04 5.49209164e-03 9.09199240e-04 3.76715627e-03
      2.81555149e-05 -2.23207474e-03 2.17119674e-03 1.20585645e-02
      -2.08847734e-04 -3.08684795e-03 2.96155550e-03 2.69497279e-04
      4.09003440e-03 5.71362325e-04 4.88601765e-03 7.94896798e-04
      1.70443708e-03 -2.68550415e-04 -3.96924699e-03 3.80784692e-03
      3.46495013e-04 5.26049873e-03 7.34653499e-04 6.28224062e-03
      1.02208450e-03 2.19148281e-03 -2.68735748e-04 -3.96886002e-03
      3.80732701e-03 3.46452667e-04 5.25880000e-03 7.35001930e-04
      6.28232164e-03 1.02202955e-03 2.19116616e-03 -3.45558772e-04
      -5.10338973e-03 4.89530526e-03 4.45437239e-04 6.76373579e-03
      9.45059990e-04 8.07755068e-03 1.31413399e-03 2.81729433e-03
      -1.68078882e-03 2.11061910e-03 5.94372768e-03 1.33572938e-03
      2.19309237e-03 1.60563586e-03 2.18585716e-03 -1.18253869e-03
      3.87508236e-03 -2.16098782e-03 2.71370634e-03 7.64209591e-03
      1.71736151e-03 2.82027153e-03 2.06439197e-03 2.80987332e-03
      -1.52057887e-03 4.98228241e-03 -2.16073706e-03 2.71363836e-03
      7.64193526e-03 1.71737082e-03 2.81954044e-03 2.06438708e-03
      2.81086355e-03 -1.52025360e-03 4.98258788e-03 -2.77805678e-03
      3.48903192e-03 9.82555095e-03 2.20804219e-03 3.62587045e-03
      2.65421602e-03 3.61330574e-03 -1.95483328e-03 6.40622852e-03
      2.13533593e-03 2.01708451e-03 3.28456541e-03 -3.57592886e-04
      1.88084936e-03 2.47018738e-03 2.10551824e-03 -5.78365987e-04
      2.86297547e-03 2.74585770e-03 2.59338995e-03 4.22293833e-03
      -4.59768635e-04 2.41911248e-03 3.17553501e-03 2.70628696e-03
      -7.43817887e-04 3.68139101e-03 2.74585094e-03 2.59339274e-03
      4.22302214e-03 -4.59452538e-04 2.41753203e-03 3.17564979e-03
      2.70790211e-03 -7.43340992e-04 3.68138961e-03 3.53092700e-03
      3.33435554e-03 5.42950490e-03 -5.90732438e-04 3.10938386e-03
      4.08243854e-03 3.48055013e-03 -9.55987081e-04 4.73375898e-03
      2.55563203e-03 1.56492740e-03 2.95787957e-03 1.90846401e-03
      5.48553304e-04 7.82650663e-04 -2.01548883e-05 -7.75216788e-04
      1.90333650e-03 3.28584854e-03 2.01204582e-03 3.80294397e-03
      2.45373882e-03 7.04365550e-04 1.00626808e-03 -2.57463143e-05
      -9.97050898e-04 2.44709058e-03 3.28662945e-03 2.01209891e-03
      3.80315399e-03 2.45374488e-03 7.05407176e-04 1.00626401e-03
      -2.60835259e-05 -9.96486400e-04 2.44802446e-03 4.22571320e-03
      2.58697942e-03 4.88971220e-03 3.15481424e-03 9.05772322e-04
      1.29377178e-03 -3.33211392e-05 -1.28163863e-03 3.14738858e-03
      1.61748624e-03 -4.38958028e-04 -9.07027395e-04 9.21800034e-04
      2.05056532e-03 2.10077222e-03 4.89589572e-03 3.44969914e-03
      1.95668102e-03 2.07957556e-03 -5.64346556e-04 -1.16614322e-03
      1.18523289e-03 2.63675628e-03 2.70122173e-03 6.29408192e-03
      4.43563098e-03 2.51577888e-03 2.08034180e-03 -5.64402726e-04
      -1.16623996e-03 1.18536060e-03 2.63690623e-03 2.70080008e-03
      6.29485538e-03 4.43485472e-03 2.51631089e-03 2.67466204e-03
      -7.25623860e-04 -1.49940723e-03 1.52411393e-03 3.39071336e-03
      3.47275101e-03 8.09256081e-03 5.70234563e-03 3.23531567e-03
      -1.36499002e-03 3.85540817e-03 6.36269385e-03 1.68229046e-03
      4.63540806e-03 2.01399205e-03 -9.37235658e-04 -7.29681808e-04
      -3.58406716e-04 -1.75505772e-03 4.95713064e-03 8.18105508e-03
      2.16274429e-03 5.96100418e-03 2.58941902e-03 -1.20516424e-03
      -9.38221056e-04 -4.60891664e-04 -1.75506331e-03 4.95705754e-03
      8.18091445e-03 2.16294802e-03 5.95975341e-03 2.58942600e-03
      -1.20495877e-03 -9.38136014e-04 -4.60893818e-04 -2.25660088e-03
      6.37358753e-03 1.05188936e-02 2.78067496e-03 7.66407466e-03
      3.32926307e-03 -1.54942169e-03 -1.20625005e-03 -5.92686061e-04
      -1.61679648e-03 3.41224251e-03 5.76093886e-03 -2.78867810e-04
      6.47709379e-03 1.49122183e-03 3.49425571e-03 1.08755601e-03
      7.80675095e-04 -2.07911083e-03 4.38737543e-03 7.40756653e-03
      -3.57965619e-04 8.32762755e-03 1.91728817e-03 4.49273316e-03
      1.39831763e-03 1.00335828e-03 -2.07859185e-03 4.38733911e-03
      7.40710367e-03 -3.58545542e-04 8.32774770e-03 1.91728189e-03
      4.49292641e-03 1.39828550e-03 1.00383523e-03 -2.67295516e-03
      5.64113120e-03 9.52424854e-03 -4.60242853e-04 1.07070208e-02
      2.46508047e-03 5.77677274e-03 1.79783697e-03 1.29017304e-03
      -3.27454560e-04 -3.00874264e-04 8.46729556e-04 1.19521201e-03
      8.95042252e-03 8.53919832e-04 2.37466674e-03 3.80073470e-04
      7.55249755e-04 -4.20901953e-04 -3.86733183e-04 1.08898454e-03
      1.53670250e-03 1.15081100e-02 1.09781814e-03 3.05318972e-03
      4.88689286e-04 9.71160829e-04 -4.20777331e-04 -3.86901898e-04
      1.08847220e-03 1.53669622e-03 1.15071060e-02 1.09789707e-03
      3.05289775e-03 4.89154132e-04 9.71399131e-04 -5.40856679e-04
      -4.97310248e-04 1.39989110e-03 1.97575404e-03 1.47953965e-02
      1.41148048e-03 3.92521406e-03 6.28942624e-04 1.24910229e-03
      -6.89871726e-04 3.69390612e-03 5.80200646e-03 -1.10161363e-05
      2.51893769e-03 3.25751211e-03 -8.72956647e-04 9.40053578e-05
      6.59402867e-04 -8.87449249e-04 4.74921474e-03 7.45947100e-03
      -1.41177379e-05 3.23818298e-03 4.18810779e-03 -1.12284732e-03
      1.20728058e-04 8.47329560e-04 -8.86220369e-04 4.74870158e-03
      7.45956833e-03 -1.42928093e-05 3.23847798e-03 4.18823259e-03
      -1.12204091e-03 1.20990277e-04 8.48713855e-04 -1.14003173e-03
      6.10535406e-03 9.59054939e-03 -1.83174889e-05 4.16317768e-03
      5.38471341e-03 -1.44323381e-03 1.55383925e-04 1.09059457e-03
      2.82802910e-04 -1.07603344e-04 3.06858821e-03 4.29418906e-05
      4.62248316e-03 2.00717081e-03 1.01429189e-03 1.89195212e-03
      3.02187307e-03 3.63639701e-04 -1.38343152e-04 3.94532084e-03
      5.52111123e-05 5.94359450e-03 2.58064782e-03 1.30434532e-03
      2.43192050e-03 3.88517277e-03 3.63640807e-04 -1.38398391e-04
      3.94516485e-03 5.52092315e-05 5.94298821e-03 2.58119381e-03
      1.30401622e-03 2.43240129e-03 3.88530316e-03 4.67584876e-04
      -1.77935115e-04 5.07234503e-03 7.09835804e-05 7.64150172e-03
      3.31867696e-03 1.67692103e-03 3.12661519e-03 4.99527156e-03
      3.04039405e-03 2.06471770e-03 3.31958150e-03 2.75070290e-03
      -4.03946411e-04 1.05967360e-04 1.93721091e-03 2.74115964e-03
      4.64539370e-03 3.90869752e-03 2.65499135e-03 4.26767906e-03
      3.53660923e-03 -5.19216468e-04 1.36257266e-04 2.49230815e-03
      3.52488761e-03 5.97216934e-03 3.90916364e-03 2.65431660e-03
      4.26704809e-03 3.53662157e-03 -5.20351692e-04 1.36366172e-04
      2.49116425e-03 3.52447852e-03 5.97272022e-03 5.02557773e-03
      3.41314869e-03 5.48574887e-03 4.54707397e-03 -6.68839668e-04
      1.75345092e-04 3.20499390e-03 4.53216536e-03 7.67859444e-03
      3.12559074e-03 3.03350994e-03 5.63947391e-03 1.45483093e-04
      1.39725371e-03 -8.01357441e-04 5.29440306e-03 1.56445650e-03
      1.16238790e-03 4.01885388e-03 3.90029536e-03 7.25067034e-03
      1.86524223e-04 1.79549458e-03 -1.03032170e-03 6.80709537e-03
      2.01162067e-03 1.49476295e-03 4.01860522e-03 3.90023738e-03
      7.25075323e-03 1.87050129e-04 1.79616117e-03 -1.03031239e-03
      6.80696033e-03 2.01105908e-03 1.49441382e-03 5.16708242e-03
      5.01467939e-03 9.32229124e-03 2.39817789e-04 2.30809744e-03
      -1.32469425e-03 8.75181332e-03 2.58587440e-03 1.92172849e-03
      4.23249183e-03 2.26651481e-03 1.20873121e-03 4.00101970e-04
      -1.24651531e-03 1.81444467e-03 3.03091831e-03 1.36039429e-03
      3.69588821e-03 5.44113200e-03 2.91434978e-03 1.55506446e-03
      5.14822837e-04 -1.60252047e-03 2.33286945e-03 3.89655796e-03
      1.74864591e-03 4.75116540e-03 5.44139836e-03 2.91408109e-03
      1.55408063e-03 5.14418643e-04 -1.60221721e-03 2.33285595e-03
      3.89740407e-03 1.74889970e-03 4.75140568e-03 6.99525559e-03
      3.74700921e-03 1.99936563e-03 6.61917322e-04 -2.05981173e-03
      2.99940188e-03 5.01051452e-03 2.24802922e-03 6.10806188e-03
      4.48809331e-03 1.63870212e-03 3.17222811e-03 5.36350453e-05
      7.19720684e-03 1.48313818e-03 4.00379905e-03 1.00166351e-03
      4.37487848e-03 5.76990843e-03 2.10680556e-03 4.07831790e-03
      6.89736189e-05 9.25321691e-03 1.90689298e-03 5.14852349e-03
      1.28809712e-03 5.62433852e-03 5.77019621e-03 2.10685236e-03
      4.07843292e-03 6.89587469e-05 9.25258733e-03 1.90688821e-03
      5.14943758e-03 1.28800014e-03 5.62406657e-03 7.41818501e-03
      2.70868558e-03 5.24336426e-03 8.86796552e-05 1.18957534e-02
      2.45171483e-03 6.62171049e-03 1.65631366e-03 7.23029301e-03
      1.11354119e-03 2.71948799e-03 5.76299382e-03 1.85952173e-03
      3.43341916e-03 1.33464613e-03 5.25360322e-03 -1.29743572e-03
      -1.50590285e-03 1.43234269e-03 3.49630765e-03 7.40898773e-03
      2.39081285e-03 4.41456214e-03 1.71597174e-03 6.75492920e-03
      -1.66801875e-03 -1.93551346e-03 1.43184455e-03 3.49634513e-03
      7.40864314e-03 2.38978048e-03 4.41493001e-03 1.71586953e-03
      6.75374968e-03 -1.66839769e-03 -1.93602138e-03 1.84177444e-03
      4.49507404e-03 9.52465832e-03 3.07257357e-03 5.67655265e-03
      2.20611575e-03 8.68377276e-03 -2.14493694e-03 -2.48833862e-03
      1.59005949e-03 2.83067115e-03 6.13250164e-03 5.98163868e-04
      3.87357059e-03 1.78030366e-03 5.82654169e-03 -7.55537185e-04
      1.81622268e-03 2.04382883e-03 3.63942538e-03 7.88459368e-03
      7.69067556e-04 4.97987820e-03 2.28936505e-03 7.49129662e-03
      -9.71461472e-04 2.33460939e-03 2.04393291e-03 3.63925891e-03
      7.88407959e-03 7.69060571e-04 4.98057855e-03 2.28896295e-03
      7.49123096e-03 -9.70913447e-04 2.33481778e-03 2.62722909e-03
      4.67903586e-03 1.01366062e-02 9.88791813e-04 6.40305132e-03
      2.94347084e-03 9.63161979e-03 -1.24838937e-03 3.00122262e-03
      5.18127764e-03 3.03933234e-03 2.44654738e-03 8.30758712e-04
      1.72629766e-03 2.36438541e-03 3.24884360e-03 -9.08821647e-04
      1.54327962e-03 6.66172570e-03 3.90764372e-03 3.14585539e-03
      1.06915273e-03 2.21973681e-03 3.03992908e-03 4.17756103e-03
      -1.16861833e-03 1.98423164e-03 6.66218204e-03 3.90755339e-03
      3.14506423e-03 1.06811989e-03 2.22004927e-03 3.03968485e-03
      4.17667022e-03 -1.16856256e-03 1.98475667e-03 8.56577046e-03
      5.02390834e-03 4.04403219e-03 1.37462677e-03 2.85461987e-03
      3.90817225e-03 5.37061645e-03 -1.50260888e-03 2.55184830e-03
      3.02409404e-03 7.00659584e-04 4.48414963e-03 2.63536721e-03
      9.05003492e-03 -5.22966846e-04 2.27542943e-03 1.91599087e-04
      2.11248407e-03 3.88767500e-03 9.00928688e-04 5.76553866e-03
      3.38832452e-03 1.16353771e-02 -6.72383292e-04 2.92605790e-03
      2.46514799e-04 2.71559926e-03 3.88731202e-03 9.00814310e-04
      5.76523039e-03 3.38833220e-03 1.16357496e-02 -6.72382652e-04
      2.92564253e-03 2.46370299e-04 2.71524326e-03 4.99740010e-03
      1.15829380e-03 7.41269998e-03 4.35642106e-03 1.49597600e-02
      -8.64488771e-04 3.76219070e-03 3.16984719e-04 3.49044614e-03
      -1.25167600e-03 -7.33119785e-04 3.74869606e-03 3.11384152e-04
      4.36044065e-03 6.35930744e-04 -1.64377142e-03 -1.20635936e-03
      -4.13084589e-03 -1.60914357e-03 -9.42581391e-04 4.81974753e-03
      4.00342571e-04 5.60699496e-03 8.17626016e-04 -2.11329642e-03
      -1.55099889e-03 -5.31094009e-03 -1.60862587e-03 -9.42598854e-04
      4.81965533e-03 4.00353456e-04 5.60639706e-03 8.17624270e-04
      -2.11335090e-03 -1.55071751e-03 -5.31002320e-03 -2.06803530e-03
      -1.21191086e-03 6.19669259e-03 5.14729240e-04 7.20914314e-03
      1.05123222e-03 -2.71700602e-03 -1.99373555e-03 -6.82698330e-03
      -3.74361407e-03 -5.62381407e-04 4.03092708e-03 1.31138309e-03
      1.93535828e-03 -2.26803677e-04 2.98974477e-03 1.19229418e-03
      -2.23877281e-03 -4.81358310e-03 -7.23125879e-04 5.18243480e-03
      1.68606627e-03 2.48857238e-03 -2.91602511e-04 3.84383043e-03
      1.53290213e-03 -2.87877955e-03 -4.81323525e-03 -7.23111676e-04
      5.18247997e-03 1.68605929e-03 2.48849695e-03 -2.91605451e-04
      3.84464255e-03 1.53317652e-03 -2.87843868e-03 -6.18891511e-03
      -9.29797709e-04 6.66294899e-03 2.16779369e-03 3.19982413e-03
      -3.74918425e-04 4.94294800e-03 1.97116635e-03 -3.70130944e-03
      9.83977807e-04 1.70759903e-03 2.53745588e-03 8.90623720e-04
      1.30995887e-03 1.67659624e-03 -6.69783098e-04 -2.25777330e-04
      1.55695330e-03 1.26576272e-03 2.19597761e-03 3.26233474e-03
      1.14509172e-03 1.68524624e-03 2.15562619e-03 -8.61428038e-04
      -2.90367054e-04 2.00233003e-03 1.26529555e-03 2.19561323e-03
      3.26250284e-03 1.14508485e-03 1.68428640e-03 2.15562340e-03
      -8.61882407e-04 -2.90300726e-04 2.00199964e-03 1.62764243e-03
      2.82356562e-03 4.19450644e-03 1.47225719e-03 2.16681417e-03
      2.77151912e-03 -1.10849203e-03 -3.73348536e-04 2.57468526e-03
      1.43277249e-03 -3.19367950e-03 3.85663705e-03 2.29848875e-03
      8.45396600e-04 -1.24673737e-04 2.01322697e-03 1.92546914e-03
      3.53800436e-03 1.84232311e-03 -4.10608854e-03 4.95874602e-03
      2.95520131e-03 1.08639139e-03 -1.60327167e-04 2.58913520e-03
      2.47584167e-03 4.54904372e-03 1.84284511e-03 -4.10611043e-03
      4.95873159e-03 2.95520248e-03 1.08637859e-03 -1.60291864e-04
      2.58851750e-03 2.47561675e-03 4.54957178e-03 2.36961152e-03
      -5.27919363e-03 6.37578545e-03 3.79954814e-03 1.39606884e-03
      -2.06131153e-04 3.32899392e-03 3.18324217e-03 5.84968133e-03
      2.98038404e-03 -1.64632569e-03 3.41041666e-03 2.33731628e-03
      9.86504368e-04 -2.27665456e-04 1.58688787e-03 -1.47150573e-03
      3.06095788e-03 3.83211160e-03 -2.11666967e-03 4.38491255e-03
      3.00511625e-03 1.26932969e-03 -2.92710087e-04 2.04022857e-03
      -1.89270254e-03 3.93555639e-03 3.83202708e-03 -2.11638748e-03
      4.38484969e-03 3.00512183e-03 1.26905763e-03 -2.92716635e-04
      2.04026187e-03 -1.89172255e-03 3.93527560e-03 4.92713461e-03
      -2.72102514e-03 5.63778123e-03 3.86372232e-03 1.63288868e-03
      -3.76346725e-04 2.62312265e-03 -2.43319944e-03 5.05968975e-03
      4.78141825e-04 2.50451872e-03 5.15888818e-03 2.13947636e-03
      3.04469140e-03 2.08716956e-04 9.14087359e-05 2.62396294e-04
      -1.29930303e-03 6.14841876e-04 3.22012324e-03 6.63292548e-03
      2.75075482e-03 3.91434459e-03 2.68355099e-04 1.17851167e-04
      3.37480305e-04 -1.67045032e-03 6.16203586e-04 3.22007528e-03
      6.63279789e-03 2.75076181e-03 3.91437626e-03 2.68353499e-04
      1.16965421e-04 3.37176782e-04 -1.66906207e-03 7.92374427e-04
      4.14013257e-03 8.52797180e-03 3.53669329e-03 5.03243692e-03
      3.45032255e-04 1.50803069e-04 4.33659152e-04 -2.14583217e-03
      -1.68124610e-03 2.62213452e-03 5.78922872e-03 1.68084621e-03
      1.88772322e-03 4.26495913e-04 3.10109602e-03 2.11230858e-04
      -2.28374265e-03 -2.16179062e-03 3.37110204e-03 7.44267693e-03
      2.16108421e-03 2.42847134e-03 5.48341719e-04 3.98716656e-03
      2.71601341e-04 -2.93640886e-03 -2.16034218e-03 3.37096583e-03
      7.44298473e-03 2.16106628e-03 2.42638588e-03 5.48348355e-04
      3.98712279e-03 2.71594006e-04 -2.93459813e-03 -2.77782558e-03
      4.33382392e-03 9.56875831e-03 2.77850847e-03 3.12143681e-03
      7.05006416e-04 5.12635522e-03 3.49216076e-04 -3.77327157e-03
      1.37413817e-05 1.95946498e-03 5.02636796e-03 2.84896954e-03
      2.82156258e-03 3.63692432e-03 -1.75644620e-03 2.45554326e-03
      -1.53070549e-03 1.76496669e-05 2.51928950e-03 6.46239705e-03
      3.66295548e-03 3.62846046e-03 4.67605097e-03 -2.25842418e-03
      3.15708504e-03 -1.96805503e-03 1.80885763e-05 2.51985854e-03
      6.46234071e-03 3.66295618e-03 3.62770073e-03 4.67604492e-03
      -2.25844025e-03 3.15707759e-03 -1.96761335e-03 2.32344282e-05
      3.23978951e-03 8.30862485e-03 4.70950827e-03 4.66513494e-03
      6.01206487e-03 -2.90388381e-03 4.05904604e-03 -2.52979482e-03
      -3.66701186e-03 4.13359121e-05 1.98891823e-04 2.46225228e-03
      6.47026394e-03 2.11992953e-03 -5.16189994e-06 4.39028069e-03
      -1.16056215e-03 -4.71486989e-03 5.34453065e-05 2.55603460e-04
      3.16517474e-03 8.31952877e-03 2.72545824e-03 -6.16409488e-06
      5.64480713e-03 -1.49231812e-03 -4.71429387e-03 5.28897617e-05
      2.54928833e-04 3.16567183e-03 8.31940956e-03 2.72555952e-03
      -6.41897532e-06 5.64453984e-03 -1.49161252e-03 -6.06141565e-03
      6.83852777e-05 3.27617367e-04 4.06940607e-03 1.06971785e-02
      3.50407767e-03 -7.64447213e-06 7.25747226e-03 -1.91800215e-03
      3.01184156e-03 -1.28969003e-03 4.01171669e-03 2.61792727e-03
      4.68510063e-03 2.00041709e-03 -6.36956654e-04 1.62228034e-03
      4.03469754e-03 3.87203554e-03 -1.65809062e-03 5.15819294e-03
      3.36590433e-03 6.02384657e-03 2.57197372e-03 -8.18711065e-04
      2.08638655e-03 5.18724509e-03 3.87290283e-03 -1.65794429e-03
      5.15862182e-03 3.36590805e-03 6.02335390e-03 2.57195835e-03
      -8.18957633e-04 2.08551693e-03 5.18795568e-03 4.97901952e-03
      -2.13153660e-03 6.63286122e-03 4.32759337e-03 7.74449855e-03
      3.30681494e-03 -1.05264527e-03 2.68214708e-03 6.66994182e-03
      9.02955944e-04 4.20944439e-03 5.47244539e-03 1.30027928e-03
      2.42314464e-03 8.17224616e-04 2.60107894e-03 1.55415654e-03
      -1.70971418e-03 1.16123154e-03 5.41227125e-03 7.03635113e-03
      1.67179666e-03 3.11530102e-03 1.05071394e-03 3.34346830e-03
      1.99792441e-03 -2.19793431e-03 1.16175180e-03 5.41241234e-03
      7.03582400e-03 1.67179329e-03 3.11525934e-03 1.05072313e-03
      3.34362080e-03 1.99774234e-03 -2.19748425e-03 1.49405049e-03
      6.95898104e-03 9.04650893e-03 2.14946014e-03 4.00511408e-03
      1.35092507e-03 4.29794332e-03 2.56816973e-03 -2.82499078e-03
      8.83520290e-04 1.56632042e-03 3.81244440e-03 1.10758096e-03
      1.71529420e-03 9.68488341e-04 4.22090292e-03 3.49331275e-03
      -1.67918464e-04 1.13584613e-03 2.01380509e-03 4.90160612e-03
      1.42412598e-03 2.20503542e-03 1.24499353e-03 5.42695774e-03
      4.49144328e-03 -2.16005574e-04 1.13693497e-03 2.01368448e-03
      4.90207830e-03 1.42403203e-03 2.20555160e-03 1.24519924e-03
      5.42719662e-03 4.49144095e-03 -2.14860804e-04 1.46163348e-03
      2.58897757e-03 6.30253367e-03 1.83101860e-03 2.83526815e-03
      1.60070590e-03 6.97793020e-03 5.77476341e-03 -2.76391860e-04
      -7.22730067e-04 9.26639361e-04 4.05027624e-03 1.13696756e-03
      1.80177833e-03 1.10411330e-03 5.27213654e-03 4.80729016e-03
      -1.80488464e-03 -9.28616500e-04 1.19128369e-03 5.20715769e-03
      1.46181136e-03 2.31611915e-03 1.41957670e-03 6.77803718e-03
      6.18065475e-03 -2.31996272e-03 -9.29267262e-04 1.19130430e-03
      5.20686619e-03 1.46181067e-03 2.31774035e-03 1.41957053e-03
      6.77930284e-03 6.18118700e-03 -2.32062209e-03 -1.19398988e-03
      1.53153599e-03 6.69410545e-03 1.87946553e-03 2.97936937e-03
      1.82516535e-03 8.71570129e-03 7.94705190e-03 -2.98288139e-03
      5.67560690e-03 1.89980539e-03 7.60984328e-03 2.26956815e-03
      -1.77183468e-03 8.52520985e-04 3.67852277e-03 2.51443568e-03
      2.51187873e-03 7.29731889e-03 2.44263350e-03 9.78436694e-03
      2.91837147e-03 -2.27742549e-03 1.09610194e-03 4.72925091e-03
      3.23275919e-03 3.22966953e-03 7.29809282e-03 2.44261860e-03
      9.78412665e-03 2.91801640e-03 -2.27782293e-03 1.09609938e-03
      4.72976966e-03 3.23292729e-03 3.23044625e-03 9.38340276e-03
      3.14054382e-03 1.25799542e-02 3.75219178e-03 -2.92779645e-03
      1.40927488e-03 6.08077459e-03 4.15650941e-03 4.15357342e-03
      5.21764206e-03 8.59971042e-04 -1.13636688e-05 1.71291979e-03
      -1.22628559e-03 2.32953369e-03 5.81479073e-03 1.94784300e-03
      4.10177093e-03 6.70876447e-03 1.10577175e-03 -1.41051651e-05
      2.20269756e-03 -1.57788745e-03 2.99512595e-03 7.47617194e-03
      2.50436529e-03 5.27404714e-03 6.70939591e-03 1.10658875e-03
      -1.43167090e-05 2.20232108e-03 -1.57709268e-03 2.99508125e-03
      7.47589068e-03 2.50427634e-03 5.27453003e-03 8.62683821e-03
      1.42287835e-03 -1.77569873e-05 2.83203414e-03 -2.02927785e-03
      3.85083328e-03 9.61187575e-03 3.21977865e-03 6.78197714e-03
      -7.60250259e-04 3.01562133e-03 4.47754841e-03 1.59790320e-03
      1.78019353e-03 8.91489210e-04 5.07055689e-03 1.35877228e-03
      -2.08559609e-03 -9.77388001e-04 3.87717551e-03 5.75671345e-03
      2.05444684e-03 2.28812639e-03 1.14619115e-03 6.51926361e-03
      1.74697791e-03 -2.68139807e-03 -9.77412798e-04 3.87726212e-03
      5.75685827e-03 2.05440703e-03 2.28935876e-03 1.14620314e-03
      6.51957700e-03 1.74710306e-03 -2.68141716e-03 -1.25657523e-03
      4.98498464e-03 7.40150269e-03 2.64138007e-03 2.94256816e-03
      1.47367793e-03 8.38228129e-03 2.24625622e-03 -3.44743044e-03
      2.58544763e-03 2.62455479e-03 7.44554447e-04 1.67044834e-03
      2.78602517e-03 9.29780479e-04 3.09233135e-03 3.37625737e-04
      -2.27595709e-04 3.32430145e-03 3.37442779e-03 9.57272889e-04
      2.14771926e-03 3.58255371e-03 1.19542948e-03 3.97582678e-03
      4.33421665e-04 -2.92600133e-04 3.32505908e-03 3.37442826e-03
      9.57290351e-04 2.14772369e-03 3.58158862e-03 1.19543099e-03
      3.97599861e-03 4.34791844e-04 -2.91574688e-04 4.27527400e-03
      4.33855038e-03 1.23078702e-03 2.76135909e-03 4.60556988e-03
      1.53697934e-03 5.11196209e-03 5.58158499e-04 -3.74851108e-04
      -3.92284128e-04 1.37159741e-03 2.94573861e-03 4.87637772e-05
      5.66957891e-03 9.26245775e-05 3.99508327e-03 3.08206817e-03
      1.07429328e-03 -5.04770374e-04 1.76349410e-03 3.78726539e-03
      6.24602035e-05 7.29021383e-03 1.19087839e-04 5.13662724e-03
      3.96319944e-03 1.38093357e-03 -5.03541611e-04 1.76302798e-03
      3.78609216e-03 6.28950147e-05 7.28917588e-03 1.19093485e-04
      5.13611641e-03 3.96279991e-03 1.38245325e-03 -6.47931651e-04
      2.26676534e-03 4.86768736e-03 8.05613308e-05 9.37276985e-03
      1.53119021e-04 6.60369592e-03 5.09572309e-03 1.77705300e-03
      1.26589905e-03 3.69191705e-03 2.96193874e-03 -9.16389923e-04
      -3.19865020e-03 8.80409731e-04 6.58384478e-03 2.75443541e-03
      -3.45668377e-04 1.62762217e-03 4.74684080e-03 3.80848930e-03
      -1.17821572e-03 -4.11117356e-03 1.13195763e-03 8.46463442e-03
      3.54131497e-03 -4.44387144e-04 1.62783440e-03 4.74676583e-03
      3.80825903e-03 -1.17821444e-03 -4.11291514e-03 1.13195670e-03
      8.46527703e-03 3.54126422e-03 -4.44232341e-04 2.09297868e-03
      6.10310119e-03 4.89669619e-03 -1.51484739e-03 -5.28626423e-03
      1.45537592e-03 1.08835306e-02 4.55292314e-03 -5.71100507e-04
      4.34675533e-03 2.14847317e-03 2.31556804e-03 1.06605561e-03
      7.60285463e-03 1.55199843e-03 1.85346708e-03 -3.86816799e-04
      1.89094245e-03 5.58920624e-03 2.76246085e-03 2.97757727e-03
      1.37064967e-03 9.77593381e-03 1.99543452e-03 2.38336017e-03
      -4.97242028e-04 2.43172655e-03 5.59012499e-03 2.76233605e-03
      2.97718425e-03 1.37064722e-03 9.77523904e-03 1.99521892e-03
      2.38168053e-03 -4.97903035e-04 2.43263273e-03 7.18797324e-03
      3.55175301e-03 3.82834673e-03 1.76226930e-03 1.25692384e-02
      2.56529171e-03 3.06258677e-03 -6.40040846e-04 3.12833278e-03
      1.23919395e-03 4.94738517e-04 6.48688246e-03 3.02683027e-03
      6.51954149e-04 -2.41480360e-04 1.72300660e-03 5.06058626e-04
      1.92255038e-03 1.59360783e-03 6.35890348e-04 8.33915081e-03
      3.89059656e-03 8.38072388e-04 -3.10473784e-04 2.21538404e-03
      6.51953800e-04 2.47248076e-03 1.59345276e-03 6.35963341e-04
      8.33992381e-03 3.89164127e-03 8.38903012e-04 -3.10479110e-04
      2.21477938e-03 6.50479109e-04 2.47205538e-03 2.04918580e-03
      8.17407505e-04 1.07213100e-02 5.00219828e-03 1.07839110e-03
      -3.99186101e-04 2.84768827e-03 8.38009873e-04 3.17916693e-03
      1.49875681e-03 -1.07942172e-03 3.13181151e-03 2.31300807e-03
      3.51541233e-03 1.68197742e-03 5.84730459e-03 -9.81333316e-04
      1.52083847e-03 1.92679896e-03 -1.38783269e-03 4.02662950e-03
      2.97392695e-03 4.51943511e-03 2.16254685e-03 7.51789566e-03
      -1.26174046e-03 1.95520138e-03 1.92660023e-03 -1.38760754e-03
      4.02726373e-03 2.97387200e-03 4.51931730e-03 2.16254592e-03
      7.51776202e-03 -1.26178109e-03 1.95498019e-03 2.47683353e-03
      -1.78407296e-03 5.17792860e-03 3.82362586e-03 5.81006100e-03
      2.78042164e-03 9.66560654e-03 -1.62232376e-03 2.51333741e-03
      -1.32094510e-03 -3.00765340e-03 3.89222126e-03 2.38333247e-03
      1.92605890e-03 -5.99099323e-04 2.01113266e-03 3.23136873e-03
      1.02877314e-03 -1.69775495e-03 -3.86698195e-03 5.00432262e-03
      3.06429900e-03 2.47737742e-03 -7.70227169e-04 2.58549559e-03
      4.15452942e-03 1.32331031e-03 -1.69804273e-03 -3.86679429e-03
      5.00493264e-03 3.06469481e-03 2.47644819e-03 -7.70274957e-04
      2.58508488e-03 4.15436598e-03 1.32297480e-03 -2.18242197e-03
      -4.97159176e-03 6.43496215e-03 3.94034060e-03 3.18531063e-03
      -9.90298460e-04 3.32336361e-03 5.34121552e-03 1.70174171e-03
      5.59515262e-04 1.57422922e-03 -1.31168764e-03 1.19959959e-03
      5.87321445e-03 4.21002042e-04 9.49721725e-04 2.11247068e-04
      2.72409688e-03 7.19054311e-04 2.02379725e-03 -1.68708817e-03
      1.54234690e-03 7.55311362e-03 5.41294226e-04 1.22109230e-03
      2.71606987e-04 3.50207835e-03 7.19645526e-04 2.02403427e-03
      -1.68638863e-03 1.54235424e-03 7.55084306e-03 5.41288755e-04
      1.22093817e-03 2.71552737e-04 3.50267556e-03 9.24843946e-04
      2.60205707e-03 -2.16902769e-03 1.98303303e-03 9.71059036e-03
      6.95950468e-04 1.56980520e-03 3.49143811e-04 4.50301357e-03
      4.16250946e-03 -1.44918985e-03 3.78948427e-03 -6.10039628e-04
      4.25051805e-03 1.51618675e-03 -6.82126964e-04 -1.81644200e-03
      5.37606189e-03 5.35180839e-03 -1.86335191e-03 4.87176655e-03
      -7.84647069e-04 5.46480296e-03 1.94939156e-03 -8.76302482e-04
      -2.33517238e-03 6.91210385e-03 5.35168964e-03 -1.86330464e-03
      4.87198867e-03 -7.84340256e-04 5.46509307e-03 1.94918946e-03
      -8.77914426e-04 -2.33569718e-03 6.91198651e-03 6.88075786e-03
      -2.39581591e-03 6.26343489e-03 -1.00883620e-03 7.02635758e-03
      2.50611175e-03 -1.12782407e-03 -3.00271437e-03 8.88687093e-03
      7.47062033e-04 -2.85968673e-03 4.84030368e-03 3.16503365e-03
      3.01058986e-03 -3.03381210e-04 2.47237366e-03 1.08939107e-03
      1.02748245e-03 9.60967795e-04 -3.67672136e-03 6.22326974e-03
      4.06935345e-03 3.87194171e-03 -3.90061206e-04 3.17850802e-03
      1.40032102e-03 1.32145663e-03 9.60158184e-04 -3.67693068e-03
      6.22371910e-03 4.06933669e-03 3.87054496e-03 -3.90063942e-04
      3.17905913e-03 1.40072440e-03 1.32110191e-03 1.23507902e-03
      -4.72745812e-03 8.00195243e-03 5.23203518e-03 4.97793639e-03
      -5.01509989e-04 4.08702996e-03 1.80051418e-03 1.69908255e-03
      2.44749896e-03 -7.00466626e-04 4.33918182e-03 2.88238563e-03
      6.65782951e-04 1.18764874e-03 3.05897091e-03 -2.20867549e-03
      1.28838071e-03 3.14697088e-03 -9.00604588e-04 5.57889743e-03
      3.70593579e-03 8.56932369e-04 1.52698322e-03 3.93224880e-03
      -2.83997599e-03 1.65665499e-03 3.14586842e-03 -9.00753133e-04
      5.57849649e-03 3.70592368e-03 8.56499770e-04 1.52697298e-03
      3.93275311e-03 -2.83979927e-03 1.65551482e-03 4.04492766e-03
      -1.15811685e-03 7.17228698e-03 4.76477388e-03 1.10240444e-03
      1.96325895e-03 5.05547831e-03 -3.65149276e-03 2.12873146e-03
      -2.30022939e-03 2.81407032e-03 5.38638141e-03 2.44832947e-03
      4.61846031e-03 2.26058019e-03 1.25842693e-03 5.59439533e-04
      2.16862466e-03 -2.95781996e-03 3.61811183e-03 6.92536170e-03
      3.14785540e-03 5.93799725e-03 2.90644960e-03 1.61844748e-03
      7.19437608e-04 2.78784614e-03 -2.95723858e-03 3.61811998e-03
      6.92542270e-03 3.14785074e-03 5.93798654e-03 2.90646171e-03
      1.61719241e-03 7.19014497e-04 2.78843590e-03 -3.80265596e-03
      4.65189619e-03 8.90413206e-03 4.04724060e-03 7.63452426e-03
      3.73686594e-03 2.07985193e-03 9.24650813e-04 3.58463638e-03
      -1.56997249e-03 4.10149433e-03 4.27501276e-03 2.57620402e-03
      -3.98007920e-04 1.10350619e-03 2.01876042e-03 1.54755323e-03
      -2.03729933e-03 -2.01853295e-03 5.27340779e-03 5.49662020e-03
      3.31224920e-03 -5.10494167e-04 1.41879858e-03 2.59515387e-03
      1.99004612e-03 -2.61936034e-03 -2.01883120e-03 5.27340826e-03
      5.49664535e-03 3.31224967e-03 -5.11929044e-04 1.41860335e-03
      2.59519136e-03 1.98973878e-03 -2.61968933e-03 -2.59563653e-03
      6.78017130e-03 7.06734136e-03 4.25858982e-03 -6.56613323e-04
      1.82392506e-03 3.33616673e-03 2.55866628e-03 -3.36814043e-03
      6.37353805e-04 5.00719005e-04 7.21811410e-03 2.42802687e-03
      1.99239980e-03 2.08106381e-03 4.40200651e-03 -5.52456768e-04
      -1.53124530e-03 8.19585519e-04 6.43790059e-04 9.28073004e-03
      3.12240887e-03 2.56255781e-03 2.67564808e-03 5.65956999e-03
      -7.10357504e-04 -1.96860172e-03 8.19680688e-04 6.43869163e-04
      9.28073004e-03 3.12175578e-03 2.56191404e-03 2.67565646e-03
      5.66011341e-03 -7.10173044e-04 -1.96852116e-03 1.05404318e-03
      8.27844196e-04 1.19327512e-02 4.01453441e-03 3.29504837e-03
      3.44012305e-03 7.27709243e-03 -9.13152006e-04 -2.53077364e-03
      2.13045068e-03 -8.01037415e-04 4.24221065e-03 2.67125457e-03
      1.79860264e-03 2.60936143e-03 8.99342762e-04 6.22633379e-04
      3.62255354e-03 2.73930118e-03 -1.02980691e-03 5.45456680e-03
      3.43502476e-03 2.31286325e-03 3.35490517e-03 1.15679624e-03
      8.00696958e-04 4.65770625e-03 2.73575727e-03 -1.02946209e-03
      5.45450160e-03 3.43448506e-03 2.31286837e-03 3.35488911e-03
      1.15593313e-03 8.00393755e-04 4.65406617e-03 3.51759442e-03
      -1.32346747e-03 7.01331068e-03 4.41647973e-03 2.97416979e-03
      4.31344425e-03 1.48684066e-03 1.02929363e-03 5.98397572e-03
      -3.76452343e-04 6.02108520e-03 1.97872822e-03 1.65063748e-03
      5.37009584e-03 2.72276439e-03 1.16848794e-03 1.71966350e-03
      6.44065905e-04 -4.84582299e-04 7.74136791e-03 2.54422170e-03
      2.12259055e-03 6.90558320e-03 3.50069767e-03 1.50233449e-03
      2.21100356e-03 8.27498036e-04 -4.94089385e-04 7.74131669e-03
      2.54383055e-03 2.12226738e-03 6.90451823e-03 3.50069394e-03
      1.50192936e-03 2.21086224e-03 8.22904403e-04 -6.35993434e-04
      9.95308626e-03 3.27082304e-03 2.72906991e-03 8.87874793e-03
      4.50089248e-03 1.93104206e-03 2.84254667e-03 1.05726661e-03
      1.81528903e-03 3.66048911e-03 2.27469788e-03 2.10165116e-03
      5.73490607e-03 -6.76807889e-04 1.46291323e-03 1.78553851e-03
      5.39026409e-03 2.33365293e-03 4.70639160e-03 2.92471820e-03
      2.70205829e-03 7.37375347e-03 -8.70189804e-04 1.88074564e-03
      2.29564961e-03 6.93003461e-03 2.33399798e-03 4.70646098e-03
      2.92491936e-03 2.70211883e-03 7.37319933e-03 -8.70176067e-04
      1.88080489e-03 2.29568686e-03 6.93040621e-03 3.00048059e-03
      6.05122698e-03 3.76074691e-03 3.47407046e-03 9.48021747e-03
      -1.11880852e-03 2.41799420e-03 2.95154261e-03 8.91012885e-03
      -2.20351867e-04 2.76758103e-03 6.95063034e-03 2.35263747e-03
      2.30426807e-03 2.60468386e-03 4.67706658e-03 4.01360029e-03
      7.46215694e-04 -2.82729423e-04 3.55869252e-03 8.93759634e-03
      3.02481255e-03 2.96336901e-03 3.34810349e-03 6.01204112e-03
      5.15998667e-03 9.59972036e-04 -3.08299845e-04 3.55812861e-03
      8.93641170e-03 3.02586984e-03 2.96212127e-03 3.34888883e-03
      6.01335056e-03 5.16108144e-03 9.29851492e-04 -3.95640003e-04
      4.57521761e-03 1.14910500e-02 3.89039493e-03 3.80939199e-03
      4.30471683e-03 7.72973988e-03 6.63521746e-03 1.19623216e-03
      3.73853906e-03 1.02846033e-03 3.19496845e-03 3.60788684e-03
      -3.68087320e-03 1.26259483e-03 2.16709869e-03 1.66204409e-03
      6.37916382e-03 4.80716396e-03 1.32237305e-03 4.10803594e-03
      4.63870913e-03 -4.73284069e-03 1.62333832e-03 2.78715277e-03
      2.13721069e-03 8.20226222e-03 4.78809560e-03 1.32255082e-03
      4.10813792e-03 4.63871099e-03 -4.73244442e-03 1.62333588e-03
      2.78509175e-03 2.13651452e-03 8.18078779e-03 6.15672767e-03
      1.70050911e-03 5.28217340e-03 5.96405379e-03 -6.08494319e-03
      2.08714884e-03 3.58196697e-03 2.74732802e-03 1.05187735e-02
      -3.55159095e-03 1.69634121e-03 2.47981097e-03 2.67399754e-03
      4.63454798e-03 2.01639929e-03 2.33109738e-03 6.59196964e-03
      4.82367701e-04 -4.56643617e-03 2.18104711e-03 3.18844942e-03
      3.43800406e-03 5.95905911e-03 2.59310589e-03 2.99680536e-03
      8.47518165e-03 6.20082370e-04 -4.58425283e-03 2.18107249e-03
      3.18853301e-03 3.43798567e-03 5.95838949e-03 2.59251497e-03
      2.99673551e-03 8.47599376e-03 6.02419255e-04 -5.89417433e-03
      2.80428329e-03 4.09969781e-03 4.42027627e-03 7.66124390e-03
      3.33399582e-03 3.85253434e-03 1.08974390e-02 7.74404558e-04
      1.37841620e-03 2.39899062e-04 1.65467139e-03 1.42216007e-03
      1.30886026e-03 2.88784341e-03 1.79649354e-03 -3.28652503e-04
      -2.76459410e-04 1.77166332e-03 3.08472809e-04 2.12752377e-03
      1.82848901e-03 1.68301852e-03 3.71294213e-03 2.30985670e-03
      -4.22516168e-04 -3.56025150e-04 1.75160519e-03 3.09298572e-04
      2.12738151e-03 1.82849180e-03 1.68298674e-03 3.71352676e-03
      2.30963132e-03 -4.22680023e-04 -3.76417447e-04 2.25130981e-03
      3.97709722e-04 2.73532001e-03 2.35091476e-03 2.16409541e-03
      4.77453507e-03 2.96962750e-03 -5.43397968e-04 -4.84708318e-04
      -1.09911431e-03 -1.60230277e-03 4.55885101e-03 1.68376497e-03
      8.67770432e-05 1.00608612e-03 4.99766786e-03 9.85775550e-05
      7.85571901e-05 -1.41303660e-03 -2.05992954e-03 5.86143415e-03
      2.16483814e-03 1.10474357e-04 1.29353837e-03 6.42541470e-03
      1.26684230e-04 1.01075238e-04 -1.41241134e-03 -2.06021918e-03
      5.86133776e-03 2.16496643e-03 1.11521549e-04 1.29361742e-03
      6.42577885e-03 1.26681363e-04 1.01966776e-04 -1.81581511e-03
      -2.64862995e-03 7.53607554e-03 2.78352434e-03 1.41975470e-04
      1.66322093e-03 8.26151110e-03 1.62801269e-04 1.31194334e-04
      -1.49781656e-04 3.88266239e-03 4.65128012e-03 -2.00352486e-04
      4.20125155e-03 4.40809410e-04 1.92569208e-03 4.72153479e-04
      -3.10415798e-03 -1.92644686e-04 4.99184616e-03 5.97974751e-03
      -2.57593318e-04 5.40103018e-03 5.66767994e-04 2.47607636e-03
      6.07123133e-04 -3.99113121e-03 -1.92487350e-04 4.99115977e-03
      5.97968837e-03 -2.57591368e-04 5.40189957e-03 5.66757109e-04
      2.47571897e-03 6.07231108e-04 -3.99079267e-03 -2.47571414e-04
      6.41701510e-03 7.68756634e-03 -3.31185263e-04 6.94455579e-03
      7.28705025e-04 3.18330689e-03 7.80814036e-04 -5.13110915e-03
      3.35989636e-03 1.34857849e-03 2.12403946e-03 1.22316473e-03
      3.61141656e-03 -6.49766997e-04 2.77774851e-03 3.12322029e-03
      2.47120601e-03 4.31960495e-03 1.73385011e-03 2.73082033e-03
      1.57263863e-03 4.64446377e-03 -8.35416839e-04 3.57184792e-03
      4.01572511e-03 3.17699183e-03 4.29854682e-03 1.73371995e-03
      2.73044570e-03 1.57264795e-03 4.64340439e-03 -8.35533661e-04
      3.57101648e-03 4.01509041e-03 3.15575395e-03 5.52636618e-03
      2.22902186e-03 3.51046049e-03 2.02197349e-03 5.97165246e-03
      -1.07425952e-03 4.59189387e-03 5.16246073e-03 4.05704696e-03
      -8.19094595e-04 -4.63069184e-04 1.04867411e-03 6.11985102e-04
      4.24762769e-03 3.34921497e-04 3.80632654e-03 3.64235067e-03
      -2.60775541e-05 -1.05289451e-03 -5.95331192e-04 1.34843797e-03
      7.86837074e-04 5.46209328e-03 4.30607761e-04 4.89338161e-03
      4.68285382e-03 -3.33026255e-05 -1.06964295e-03 -5.95296209e-04
      1.34851714e-03 7.86837656e-04 5.46173472e-03 4.30953834e-04
      4.89403727e-03 4.68247710e-03 -5.01588001e-05 -1.37496274e-03
      -7.65325036e-04 1.73399365e-03 1.01164728e-03 7.02333311e-03
      5.54075697e-04 6.29173312e-03 6.02011196e-03 -6.42005762e-05
      -2.95904302e-03 2.90136598e-03 4.40044142e-03 2.31701857e-03
      6.31990330e-03 1.58563233e-03 5.36041521e-03 -1.66503669e-04
      -2.89433962e-03 -3.80418170e-03 3.73036810e-03 5.65783726e-03
      2.97902315e-03 8.12458247e-03 2.03867024e-03 6.89227227e-03
      -2.13974883e-04 -3.72099341e-03 -3.81449796e-03 3.73033760e-03
      5.65773062e-03 2.97902478e-03 8.12488794e-03 2.03867815e-03
      6.89215027e-03 -2.14549902e-04 -3.73143516e-03 -4.90396656e-03
      4.79619997e-03 7.27438927e-03 3.83017352e-03 1.04449894e-02
      2.62115803e-03 8.86173453e-03 -2.75719707e-04 -4.79717460e-03
      -1.02839200e-03 2.24977592e-03 5.03263623e-03 3.66224512e-03
      6.31752098e-03 2.20412039e-03 4.90338076e-03 -2.43361472e-04
      -1.68874278e-03 -1.32236234e-03 2.89247185e-03 6.47028256e-03
      4.70873667e-03 8.12312961e-03 2.83387164e-03 6.30441168e-03
      -3.12866992e-04 -2.17137183e-03 -1.32284511e-03 2.89270538e-03
      6.47078920e-03 4.70859790e-03 8.12206045e-03 2.83386675e-03
      6.30429154e-03 -3.13419441e-04 -2.17196601e-03 -1.70098641e-03
      3.71906743e-03 8.31926521e-03 6.05408661e-03 1.04434239e-02
      3.64354625e-03 8.10560025e-03 -4.02933743e-04 -2.79269787e-03
      3.17791360e-03 1.36368233e-03 3.03605734e-03 1.85293355e-03
      2.87268567e-03 9.56939184e-04 9.13073134e-04 -5.75680344e-04
      9.28636349e-04 4.08573821e-03 1.75327680e-03 3.90342041e-03
      2.38234084e-03 3.69370938e-03 1.23035011e-03 1.17363338e-03
      -7.40260934e-04 1.19382062e-03 4.08596359e-03 1.75337773e-03
      3.90373054e-03 2.38233642e-03 3.69323418e-03 1.23032904e-03
      1.17398566e-03 -7.40156916e-04 1.19403203e-03 5.25318738e-03
      2.25430564e-03 5.01897791e-03 3.06300097e-03 4.74877330e-03
      1.58185116e-03 1.50900125e-03 -9.51758935e-04 1.53500342e-03
      -9.38808022e-04 -3.86117911e-03 2.34939740e-03 5.05515454e-05
      6.40248042e-03 1.43788825e-03 1.57314190e-03 2.99828156e-04
      -1.70707272e-03 -1.20709580e-03 -4.96425852e-03 3.02101253e-03
      6.49919093e-05 8.23134929e-03 1.84871384e-03 2.02219957e-03
      3.85342573e-04 -2.19486211e-03 -1.20605656e-03 -4.96415002e-03
      3.02080228e-03 6.49908470e-05 8.23193882e-03 1.84871152e-03
      2.02274625e-03 3.85861233e-04 -2.19379342e-03 -1.55071705e-03
      -6.38233125e-03 3.88434972e-03 8.35559331e-05 1.05833914e-02
      2.37691519e-03 2.60014483e-03 4.95913555e-04 -2.82066199e-03
      -6.56847318e-04 -4.45430027e-03 4.08923207e-03 5.08815330e-03
      5.39802993e-03 1.79970113e-04 3.31963622e-03 6.27749134e-04
      5.54658845e-03 -8.44136521e-04 -5.72698750e-03 5.25742676e-03
      6.54176204e-03 6.94177765e-03 2.31394268e-04 4.26765392e-03
      8.06946482e-04 7.13170553e-03 -8.43900372e-04 -5.72689995e-03
      5.25744399e-03 6.54191943e-03 6.94052456e-03 2.31389597e-04
      4.26853541e-03 8.07251432e-04 7.13180471e-03 -1.08452467e-03
      -7.36319693e-03 6.75936835e-03 8.41084775e-03 8.92540067e-03
      2.97506514e-04 5.48753887e-03 1.03768928e-03 9.16994922e-03
      1.66723982e-03 5.59920794e-04 1.40894647e-03 3.72424512e-03
      4.11830842e-03 1.55191310e-03 1.39170978e-03 -2.35355296e-03
      9.31011047e-04 2.14445870e-03 7.19600765e-04 1.81146723e-03
      4.78830002e-03 5.29529154e-03 1.99531810e-03 1.78834191e-03
      -3.02704750e-03 1.19709887e-03 2.14424147e-03 7.20215845e-04
      1.81165303e-03 4.78831539e-03 5.29535813e-03 1.99575513e-03
      1.79140689e-03 -3.02561675e-03 1.19762728e-03 2.75799283e-03
      9.25609143e-04 2.32922332e-03 6.15638541e-03 6.80873357e-03
      2.56597251e-03 2.30195257e-03 -3.89143010e-03 1.53991499e-03
      -2.16160575e-03 1.28102710e-03 7.83566199e-03 3.17265675e-03
      2.09749234e-03 5.80608263e-04 2.05837283e-03 1.24394789e-03
      -6.39748294e-04 -2.77901650e-03 1.64700067e-03 1.00743072e-02
      4.07912768e-03 2.69663450e-03 7.46500504e-04 2.64661619e-03
      1.60013372e-03 -8.22198344e-04 -2.77805375e-03 1.64819311e-03
      1.00745615e-02 4.07913793e-03 2.69704848e-03 7.45898928e-04
      2.64573633e-03 1.59921148e-03 -8.22087633e-04 -3.57153709e-03
      2.11906154e-03 1.29528586e-02 5.24460245e-03 3.46745132e-03
      9.59018536e-04 3.40183685e-03 2.05712137e-03 -1.05653913e-03
      -1.94890879e-03 -2.26823409e-04 1.35991094e-03 2.55383411e-03
      5.58985490e-03 2.11652555e-03 2.63893139e-03 3.43684875e-03
      -1.16892636e-03 -2.50614597e-03 -2.91651813e-04 1.74838328e-03
      3.28350486e-03 7.18785170e-03 2.72140536e-03 3.39298486e-03
      4.41879127e-03 -1.50334009e-03 -2.50485679e-03 -2.91536155e-04
      1.74860633e-03 3.28350370e-03 7.18651246e-03 2.72122887e-03
      3.39308428e-03 4.41887323e-03 -1.50226324e-03 -3.22105153e-03
      -3.74860043e-04 2.24811281e-03 4.22165263e-03 9.24095232e-03
      3.49892629e-03 4.36263066e-03 5.68139041e-03 -1.93203974e-03
      -7.11504777e-04 4.54853708e-03 4.71198652e-03 4.55363607e-03
      5.61761623e-03 1.49034383e-03 1.72145199e-03 1.24375499e-03
      -4.23729047e-03 -9.14450502e-04 5.84803429e-03 6.05663192e-03
      5.85406413e-03 7.22269202e-03 1.91620435e-03 2.21334398e-03
      1.59911811e-03 -5.44762891e-03 -9.18132311e-04 5.84842777e-03
      6.05846383e-03 5.85468858e-03 7.22107943e-03 1.91615580e-03
      2.21307925e-03 1.59904384e-03 -5.44900447e-03 -1.18001702e-03
      7.51929870e-03 7.78735057e-03 7.52667105e-03 9.28430073e-03
      2.46369070e-03 2.84545054e-03 2.05591926e-03 -7.00545637e-03
      4.17301169e-04 1.62271515e-03 9.90476925e-04 5.63914375e-03
      1.47637422e-03 3.48635507e-03 3.77198076e-03 8.45810107e-04
      -1.17604170e-04 5.36419568e-04 2.08598562e-03 1.27310934e-03
      7.25032948e-03 1.89906743e-03 4.48195729e-03 4.84965928e-03
      1.08748500e-03 -1.51225657e-04 5.35780156e-04 2.08599074e-03
      1.27302448e-03 7.25032063e-03 1.89802831e-03 4.48246254e-03
      4.84967604e-03 1.08747371e-03 -1.51900502e-04 6.88718224e-04
      2.68152170e-03 1.63628079e-03 9.32184327e-03 2.44144257e-03
      5.76252444e-03 6.23525912e-03 1.39819970e-03 -1.95326793e-04
      -3.78036429e-03 6.51784521e-03 7.97230005e-03 3.31616844e-03
      5.34703117e-03 4.55181929e-04 1.98922609e-03 -1.29445200e-03
      -3.65769025e-03 -4.86046635e-03 8.37803166e-03 1.02515304e-02
      4.26502386e-03 6.87430147e-03 5.85241360e-04 2.55756755e-03
      -1.66429777e-03 -4.70274640e-03 -4.85789869e-03 8.38021841e-03
      1.02508813e-02 4.26228484e-03 6.87629217e-03 5.85233094e-04
      2.55757594e-03 -1.66463829e-03 -4.70334617e-03 -6.24586735e-03
      1.07719246e-02 1.31815420e-02 5.48185268e-03 8.84036440e-03
      7.52452761e-04 3.28830048e-03 -2.14025215e-03 -6.04716223e-03
      -1.11989048e-03 5.97645994e-03 9.06667113e-03 3.11805913e-03
      6.25611236e-03 1.28520199e-03 -1.01561728e-03 -6.26175315e-04
      -2.31756689e-03 -1.43983366e-03 7.68420566e-03 1.16576944e-02
      4.00893111e-03 8.04421026e-03 1.65235612e-03 -1.30577479e-03
      -8.05064512e-04 -2.97968136e-03 -1.44169084e-03 7.68419867e-03
      1.16576208e-02 4.00893670e-03 8.04337859e-03 1.65240525e-03
      -1.30555872e-03 -8.05003161e-04 -2.98108859e-03 -1.85356988e-03
      9.87992343e-03 1.49890715e-02 5.15434472e-03 1.03423065e-02
      2.12446135e-03 -1.67855213e-03 -1.03498087e-03 -3.83276679e-03
      -1.22893427e-03 6.45615486e-03 5.23377769e-03 6.11710711e-04
      5.44166239e-03 4.27110912e-03 2.48669065e-03 1.91671436e-03
      -3.63327679e-03 -1.58005441e-03 8.30065832e-03 6.72882004e-03
      7.86491786e-04 6.99735247e-03 5.49142295e-03 3.19717266e-03
      2.46437569e-03 -4.67132451e-03 -1.57907698e-03 8.30122735e-03
      6.72871619e-03 7.86482939e-04 6.99589122e-03 5.49141830e-03
      3.19716241e-03 2.46452610e-03 -4.67046816e-03 -2.03023665e-03
      1.06728626e-02 8.65079183e-03 1.01120048e-03 8.99591297e-03
      7.06039090e-03 4.11063666e-03 3.16871330e-03 -6.00484712e-03
      -5.43753197e-03 3.70380725e-03 4.18315129e-03 1.97184319e-03
      4.30508144e-03 4.03989432e-03 6.89516310e-03 3.20872734e-03
      -4.43365937e-03 -6.99111912e-03 4.76200087e-03 5.37818624e-03
      2.53523001e-03 5.53488545e-03 5.19386260e-03 8.86513852e-03
      4.12526540e-03 -5.70046948e-03 -6.99059013e-03 4.76200972e-03
      5.37820859e-03 2.53522699e-03 5.53558953e-03 5.19415550e-03
      8.86461511e-03 4.12553130e-03 -5.69813093e-03 -8.98791011e-03
      6.12253603e-03 6.91464543e-03 3.25958151e-03 7.11690495e-03
      6.67783059e-03 1.13972714e-02 5.30394446e-03 -7.32623274e-03
      -4.80264286e-03 3.23652173e-03 7.16073671e-03 3.41512612e-03
      2.17171293e-03 1.96297723e-03 6.79967552e-03 4.94032912e-03
      -1.44466513e-03 -6.17455738e-03 4.16143425e-03 9.20695439e-03
      4.39029327e-03 2.79261637e-03 2.52381386e-03 8.74268450e-03
      6.35193568e-03 -1.85714872e-03 -6.17437251e-03 4.16099606e-03
      9.20591503e-03 4.39087767e-03 2.79313908e-03 2.52383342e-03
      8.74143373e-03 6.35152683e-03 -1.85698364e-03 -7.93813355e-03
      5.35009941e-03 1.18365530e-02 5.64466417e-03 3.59171187e-03
      3.24491039e-03 1.12393005e-02 8.16635694e-03 -2.38719257e-03
      -7.44272314e-04 1.33892254e-03 5.74466027e-03 1.32062216e-03
      4.53649135e-03 1.50660949e-03 5.49209630e-03 5.59909828e-03
      -4.39566467e-03 -9.57228185e-04 1.72136340e-03 7.38552259e-03
      1.69771386e-03 5.83378132e-03 1.93658366e-03 7.06126774e-03
      7.19936704e-03 -5.65178320e-03 -9.57924582e-04 1.72122614e-03
      7.38532841e-03 1.69808941e-03 5.83250262e-03 1.93708087e-03
      7.06194108e-03 7.19912816e-03 -5.65253012e-03 -1.23201264e-03
      2.21286574e-03 9.49481968e-03 2.18296354e-03 7.50041101e-03
      2.48990813e-03 9.07963980e-03 9.25669819e-03 -7.26781413e-03
      4.41993959e-03 6.38543570e-04 4.62996308e-03 1.93218538e-03
      4.05768957e-03 2.91441963e-03 4.95193817e-04 4.58122260e-04
      3.38079338e-03 5.68275200e-03 8.20736808e-04 5.95202530e-03
      2.48424243e-03 5.21737337e-03 3.74713424e-03 6.36626850e-04
      5.88999304e-04 4.34672134e-03 5.68332337e-03 8.20728717e-04
      5.95205603e-03 2.48423428e-03 5.21701761e-03 3.74710793e-03
      6.36732439e-04 5.89045580e-04 4.34725359e-03 7.30709545e-03
      1.05490431e-03 7.65163498e-03 3.19402060e-03 6.70803618e-03
      4.81773959e-03 8.18590634e-04 7.57324684e-04 5.58930915e-03
      1.21500785e-03 3.34170670e-03 6.70573302e-03 2.09595659e-03
      4.36430564e-03 1.03430834e-03 -1.52132090e-03 1.52374466e-03
      -9.52018017e-04 1.56190631e-03 4.29648999e-03 8.62179510e-03
      2.69507524e-03 5.60978800e-03 1.32930721e-03 -1.95632433e-03
      1.95913948e-03 -1.22426904e-03 1.56335311e-03 4.29648627e-03
      8.62165075e-03 2.69479654e-03 5.61152166e-03 1.32983399e-03
      -1.95600721e-03 1.95907685e-03 -1.22283539e-03 2.00970774e-03
      5.52406674e-03 1.10851564e-02 3.46509041e-03 7.21293362e-03
      1.70912081e-03 -2.51530367e-03 2.51886388e-03 -1.57253316e-03
      1.20351417e-03 4.23189532e-03 3.18596489e-03 1.36371423e-03
      2.79369601e-03 2.15113140e-03 7.46798888e-03 1.94653892e-03
      -2.96794786e-03 1.54703902e-03 5.44095878e-03 4.09612060e-03
      1.75335084e-03 3.59277427e-03 2.76573887e-03 9.60154366e-03
      2.50263582e-03 -3.81626259e-03 1.54787814e-03 5.44112083e-03
      4.09582583e-03 1.75333675e-03 3.59163573e-03 2.76574236e-03
      9.60155297e-03 2.50262581e-03 -3.81550542e-03 1.98969617e-03
      6.99566305e-03 5.26590785e-03 2.25429540e-03 4.61894879e-03
      3.55595234e-03 1.23446519e-02 3.21758841e-03 -4.90607414e-03
      4.24469326e-05 1.42105110e-03 2.97980267e-03 -1.64383346e-05
      7.87852332e-03 1.99438538e-03 2.75262352e-03 -2.16827774e-03
      -2.71880091e-03 5.40861074e-05 1.82703824e-03 3.83113069e-03
      -2.13948388e-05 1.01291947e-02 2.56421580e-03 3.53970402e-03
      -2.78689736e-03 -3.49594047e-03 5.58771790e-05 1.82714080e-03
      3.83114978e-03 -2.11378610e-05 1.01290829e-02 2.56420323e-03
      3.53797129e-03 -2.78829574e-03 -3.49300192e-03 7.12149413e-05
      2.34914548e-03 4.92570736e-03 -2.75113580e-05 1.30226770e-02
      3.29684000e-03 4.54961276e-03 -3.58380959e-03 -4.49143769e-03
      -1.15046941e-03 7.35178066e-04 2.41030543e-03 1.28978305e-03
      6.09096000e-03 2.20349361e-03 7.09951669e-03 -4.26882296e-04
      -6.24053413e-04 -1.47915771e-03 9.45403473e-04 3.09948134e-03
      1.65829365e-03 7.83094857e-03 2.83310818e-03 9.12690628e-03
      -5.49204880e-04 -8.02337134e-04 -1.47829147e-03 9.44820349e-04
      3.09860916e-03 1.65829225e-03 7.83228595e-03 2.83306302e-03
      9.12756473e-03 -5.48927521e-04 -8.00861337e-04 -1.90063810e-03
      1.21499377e-03 3.98459053e-03 2.13209144e-03 1.00697149e-02
      3.64256743e-03 1.17340991e-02 -7.06222432e-04 -1.02965708e-03
      1.41448702e-03 5.39827684e-04 4.57718410e-03 -3.80934580e-05
      4.19656327e-03 1.90448784e-03 4.58627101e-03 1.07274693e-03
      -7.73050706e-04 1.81853177e-03 6.93948881e-04 5.88464737e-03
      -4.90578168e-05 5.39551768e-03 2.44873040e-03 5.89707401e-03
      1.37974462e-03 -9.93897091e-04 1.81938708e-03 6.94141490e-04
      5.88534866e-03 -4.89689228e-05 5.39546367e-03 2.44863192e-03
      5.89608494e-03 1.37850665e-03 -9.93163791e-04 2.33909045e-03
      8.92319775e-04 7.56648602e-03 -6.30640861e-05 6.93694223e-03
      3.14837368e-03 7.58124609e-03 1.77300640e-03 -1.27689226e-03
      -1.34825706e-03 -4.45589016e-04 3.69273149e-03 -1.86491013e-03
      3.25152767e-03 3.55543732e-03 2.69446033e-03 1.31431734e-03
      -3.77879507e-04 -1.73390319e-03 -5.73721132e-04 4.74724639e-03
      -2.39774631e-03 4.18212684e-03 4.57128091e-03 3.46448296e-03
      1.68988027e-03 -4.86150355e-04 -1.73354230e-03 -5.73108322e-04
      4.74715373e-03 -2.39773956e-03 4.17991122e-03 4.57127392e-03
      3.46485875e-03 1.69000553e-03 -4.85911412e-04 -2.22939323e-03
      -7.37908995e-04 6.10277476e-03 -3.08281370e-03 5.37621789e-03
      5.87735837e-03 4.45504580e-03 2.17292039e-03 -6.25135435e-04
      -7.60432158e-04 7.59845308e-04 2.94259167e-03 1.71033852e-03
      1.25214662e-02 2.91971490e-03 -8.56394356e-04 -2.50149542e-03
      -2.80947541e-03 -9.77653195e-04 9.77089629e-04 3.78371193e-03
      2.19901372e-03 1.60989817e-02 3.75392055e-03 -1.10107299e-03
      -3.21687805e-03 -3.61228851e-03 -9.91637819e-04 9.76927113e-04
      3.78326885e-03 2.19901395e-03 1.60984453e-02 3.75392172e-03
      -1.10171631e-03 -3.21642892e-03 -3.62612470e-03 -1.27490424e-03
      1.25623599e-03 4.86469036e-03 2.82731256e-03 2.06979420e-02
      4.82647307e-03 -1.41648541e-03 -4.13626945e-03 -4.66229487e-03
      4.55009751e-03 3.91671341e-03 7.70206144e-03 1.09354430e-03
      5.70810866e-03 -3.26043577e-04 -4.33296338e-03 -1.84968580e-03
      2.07389495e-03 5.84984059e-03 5.03577618e-03 9.90266073e-03
      1.40673853e-03 7.34043866e-03 -4.19599848e-04 -5.57136396e-03
      -2.37823394e-03 2.66616675e-03 5.85038075e-03 5.03567513e-03
      9.90238134e-03 1.40598114e-03 7.33858394e-03 -4.19202581e-04
      -5.57088386e-03 -2.37813569e-03 2.66669877e-03 7.52155157e-03
      6.47444231e-03 1.27316453e-02 1.80865824e-03 9.43717640e-03
      -5.39490138e-04 -7.16309389e-03 -3.05768917e-03 3.42826522e-03
      2.31840508e-03 -2.70161661e-03 5.03489096e-03 -7.53111148e-04
      -5.20772592e-04 5.34032588e-04 5.43139083e-03 1.70259003e-03
      5.05668670e-03 2.98072165e-03 -3.47357360e-03 6.47324789e-03
      -9.68104054e-04 -6.69357309e-04 6.86629734e-04 6.98268367e-03
      2.18886556e-03 6.50138268e-03 2.98056053e-03 -3.47356498e-03
      6.47322088e-03 -9.68339911e-04 -6.68956840e-04 6.86614949e-04
      6.98331138e-03 2.18915916e-03 6.50122063e-03 3.83204129e-03
      -4.46609734e-03 8.32247548e-03 -1.24477525e-03 -8.59820575e-04
      8.82811379e-04 8.97785742e-03 2.81440327e-03 8.35862197e-03
      1.50095194e-03 -3.46350484e-03 3.02994187e-04 1.03627797e-03
      4.44488740e-03 2.16447748e-03 3.69072286e-03 3.51586612e-03
      5.61814290e-03 1.93016045e-03 -4.45294846e-03 3.89943161e-04
      1.33235648e-03 5.71519369e-03 2.78290431e-03 4.74529387e-03
      4.52043116e-03 7.22371368e-03 1.92916056e-03 -4.45295917e-03
      3.89908382e-04 1.33235904e-03 5.71444537e-03 2.78289779e-03
      4.74530645e-03 4.52042697e-03 7.22268829e-03 2.48081912e-03
      -5.72506618e-03 5.01798524e-04 1.71303225e-03 7.34757958e-03
      3.57801677e-03 6.10120920e-03 5.81201864e-03 9.28681158e-03
      -3.00317165e-03 -1.87242927e-03 2.24899920e-03 3.00467876e-03
      8.00630543e-03 1.77970005e-03 2.92166206e-03 2.31634127e-03
      4.44963388e-03 -3.86122917e-03 -2.40734429e-03 2.89176824e-03
      3.86317307e-03 1.02947270e-02 2.28818599e-03 3.75639135e-03
      2.97814631e-03 5.72095020e-03 -3.86154512e-03 -2.40740716e-03
      2.89153960e-03 3.86315514e-03 1.02940192e-02 2.28819298e-03
      3.75646842e-03 2.97816307e-03 5.72063727e-03 -4.96485503e-03
      -3.09515395e-03 3.71794845e-03 4.96693235e-03 1.32363336e-02
      2.94196210e-03 4.82970523e-03 3.82905803e-03 7.35509535e-03
      -2.55066832e-03 3.73737677e-03 5.35814324e-03 2.94268713e-03
      3.56057007e-03 4.28581936e-03 3.16326180e-03 1.65459339e-03
      3.99673736e-04 -3.27943242e-03 4.80545033e-03 6.88904664e-03
      3.78314639e-03 4.57865885e-03 5.51034883e-03 4.06689150e-03
      2.12728418e-03 5.13607869e-04 -3.27875162e-03 4.80495906e-03
      6.88893208e-03 3.78367724e-03 4.57793102e-03 5.51034464e-03
      4.06723469e-03 2.12785671e-03 5.14771556e-04 -4.21553943e-03
      6.17812807e-03 8.85720458e-03 4.86433133e-03 5.88691793e-03
      7.08474079e-03 5.22909686e-03 2.73575098e-03 6.61517610e-04
      -3.30239767e-03 1.94169651e-03 7.98277557e-03 3.47370701e-03
      1.39195166e-04 1.88469025e-03 3.59148090e-03 1.85799343e-03
      -1.11402699e-03 -4.24620230e-03 2.49638944e-03 1.02634272e-02
      4.46619745e-03 1.78516071e-04 2.42316863e-03 4.61732456e-03
      2.38843937e-03 -1.43259950e-03 -4.24619997e-03 2.49647303e-03
      1.02637243e-02 4.46620071e-03 1.78614238e-04 2.42349901e-03
      4.61813156e-03 2.38926592e-03 -1.43254711e-03 -5.45973703e-03
      3.20965191e-03 1.31960344e-02 5.74226212e-03 2.29070065e-04
      3.11592128e-03 5.93722053e-03 3.07138637e-03 -1.84220483e-03
      -5.82403503e-03 4.17357916e-03 5.36094839e-03 4.57473425e-03
      5.74403675e-03 3.16735031e-03 3.83404293e-03 3.50324158e-03
      -9.90831992e-04 -7.48802582e-03 5.36623178e-03 6.89318031e-03
      5.88166853e-03 7.38612516e-03 4.07229876e-03 4.92947409e-03
      4.50416515e-03 -1.27392053e-03 -7.48772314e-03 5.36663830e-03
      6.89276634e-03 5.88178821e-03 7.38451164e-03 4.07231785e-03
      4.92948759e-03 4.50416189e-03 -1.27376965e-03 -9.62704606e-03
      6.90022204e-03 8.86281300e-03 7.56212836e-03 9.49557498e-03
      5.23582567e-03 6.33790065e-03 5.79106249e-03 -1.63769547e-03
      2.14249338e-03 7.09885312e-03 4.76291310e-03 1.09869149e-03
      4.10236605e-03 1.54321280e-03 4.14525252e-03 1.83019438e-03
      -3.68553819e-03 2.75468105e-03 9.12709907e-03 6.12370437e-03
      1.41260284e-03 5.27475309e-03 1.98409357e-03 5.32963546e-03
      2.35317345e-03 -4.73848172e-03 2.75451085e-03 9.12700687e-03
      6.12350414e-03 1.41260016e-03 5.27417287e-03 1.98412407e-03
      5.32956142e-03 2.35311035e-03 -4.73864470e-03 3.54157435e-03
      1.17347278e-02 7.87302293e-03 1.81619951e-03 6.78144256e-03
      2.55096913e-03 6.85232598e-03 3.02551268e-03 -6.09245524e-03
      -4.69287299e-03 3.26514477e-03 6.42782776e-03 4.01463127e-03
      3.77422140e-04 1.86512887e-03 6.27375441e-03 3.83366994e-03
      -2.03036051e-03 -6.03375025e-03 4.19807248e-03 8.26441217e-03
      5.16170077e-03 4.84958407e-04 2.39801453e-03 8.06614570e-03
      4.92895348e-03 -2.61054351e-03 -6.03389647e-03 4.19808784e-03
      8.26443918e-03 5.16166538e-03 4.85396566e-04 2.39801733e-03
      8.06626398e-03 4.92925616e-03 -2.61062570e-03 -7.75793893e-03
      5.39757870e-03 1.06257871e-02 6.63646683e-03 6.23696717e-04
      3.08315433e-03 1.03707695e-02 6.33755093e-03 -3.35662044e-03
      7.81279290e-04 6.99349912e-03 5.45858452e-03 2.39546690e-03
      1.26311462e-03 1.96993304e-03 1.18084252e-03 2.56066839e-03
      -3.22839920e-03 1.00454316e-03 8.99146870e-03 7.01804040e-03
      3.08036385e-03 1.62348885e-03 2.53278320e-03 1.51845836e-03
      3.29237920e-03 -4.15076362e-03 1.00430206e-03 8.99148174e-03
      7.01792026e-03 3.07988818e-03 1.62426627e-03 2.53277225e-03
      1.51822064e-03 3.29267769e-03 -4.15079249e-03 1.29129784e-03
      1.15602538e-02 9.02285986e-03 3.96047113e-03 2.08767876e-03
      3.25643690e-03 1.95229764e-03 4.23355959e-03 -5.33668883e-03
      -3.13999713e-03 3.02074431e-03 6.32864004e-03 3.11104115e-03
      2.16997461e-03 3.72480857e-03 5.07083489e-03 3.67162074e-03
      2.41858070e-03 -4.03707102e-03 3.88380280e-03 8.13681539e-03
      3.99991730e-03 2.78842123e-03 4.78895567e-03 6.51944708e-03
      4.72097611e-03 3.10974102e-03 -4.03398555e-03 3.88422026e-03
      8.13680142e-03 3.99991544e-03 2.79004523e-03 4.78894496e-03
      6.51956210e-03 4.72031720e-03 3.11245839e-03 -5.18646464e-03
      4.99398261e-03 1.04615921e-02 5.14275720e-03 3.58521263e-03
      6.15710672e-03 8.38204008e-03 6.06939197e-03 4.00190894e-03
      1.01743278e-03 3.61325964e-03 -5.77393919e-04 2.40536733e-03
      -4.39916854e-04 6.03168132e-03 8.82514380e-03 2.99892877e-03
      -1.46678812e-03 1.30807864e-03 4.64550499e-03 -7.42717297e-04
      3.09261470e-03 -5.65631373e-04 7.75500946e-03 1.13466224e-02
      3.85579071e-03 -1.88592076e-03 1.31386030e-03 4.64577693e-03
      -7.42699602e-04 3.09261121e-03 -5.65655529e-04 7.75502017e-03
      1.13465115e-02 3.85574088e-03 -1.88029849e-03 1.68918562e-03
      5.97299356e-03 -9.55354015e-04 3.97621375e-03 -7.27302337e-04
      9.97072738e-03 1.45883840e-02 4.95741330e-03 -2.41759163e-03
      7.90216145e-04 5.47274575e-03 1.92899595e-03 2.22364487e-03
      5.87566197e-03 4.14104573e-03 6.09106058e-03 3.47172632e-03
      -5.67891868e-03 1.01617025e-03 7.03638745e-03 2.48011039e-03
      2.85896519e-03 7.55411386e-03 5.32418722e-03 7.83165917e-03
      4.46374528e-03 -7.30126631e-03 1.01772021e-03 7.03647314e-03
      2.48033064e-03 2.85897963e-03 7.55427778e-03 5.32387756e-03
      7.83061050e-03 4.46344400e-03 -7.29984557e-03 1.30872801e-03
      9.04689450e-03 3.18896142e-03 3.67582124e-03 9.71224625e-03
      6.84496714e-03 1.00683067e-02 5.73883858e-03 -9.38525610e-03
      1.30343600e-04 4.16706549e-03 4.42491425e-03 3.85278167e-04
      7.24356156e-03 5.95572684e-03 2.92005320e-03 2.43615010e-03
      -5.14418911e-03 1.67856648e-04 5.35751833e-03 5.68879442e-03
      4.95387183e-04 9.31383576e-03 7.65733840e-03 3.75416363e-03
      3.13214026e-03 -6.61368249e-03 1.66188300e-04 5.35799377e-03
      5.68989711e-03 4.95598302e-04 9.31350887e-03 7.65735656e-03
      3.75478971e-03 3.13223829e-03 -6.61570765e-03 2.14021682e-04
      6.88867271e-03 7.31509225e-03 6.37235527e-04 1.19753918e-02
      9.84514132e-03 4.82734200e-03 4.02709655e-03 -8.50555673e-03
      -3.78655037e-04 -1.62064520e-04 5.48758637e-03 1.92724378e-03
      1.98189332e-03 2.30421964e-03 4.47300682e-03 4.53614909e-03
      1.06966239e-03 -4.87057783e-04 -2.08365644e-04 7.05547584e-03
      2.47786264e-03 2.54847854e-03 2.96270312e-03 5.75106218e-03
      5.83219994e-03 1.37505063e-03 -4.87154204e-04 -2.08489699e-04
      7.05511495e-03 2.47788057e-03 2.54764594e-03 2.96256295e-03
      5.75140864e-03 5.83227864e-03 1.37524970e-03 -6.26619090e-04
      -2.68054107e-04 9.07087233e-03 3.18581774e-03 3.27596930e-03
      3.80918267e-03 7.39473756e-03 7.49865454e-03 1.76788273e-03
      4.43024095e-03 6.43676566e-03 2.69656722e-03 1.89638918e-03
      7.99423363e-03 1.99465477e-03 1.71683414e-03 -4.85167746e-03
      -4.45556035e-03 5.69610856e-03 8.27590283e-03 3.46719543e-03
      2.43821461e-03 1.02790184e-02 2.56455108e-03 2.20735464e-03
      -6.23787800e-03 -5.72850090e-03 5.69628365e-03 8.27595592e-03
      3.46743898e-03 2.43821112e-03 1.02786571e-02 2.56456668e-03
      2.20718910e-03 -6.23794878e-03 -5.72829880e-03 7.32390070e-03
      1.06405932e-02 4.45836689e-03 3.13484250e-03 1.32163391e-02
      3.29729333e-03 2.83781043e-03 -8.02022871e-03 -7.36485654e-03
      -3.66918510e-03 1.45207462e-03 3.59394401e-03 2.41246191e-03
      3.10261780e-03 1.81098923e-03 5.29237418e-03 4.28602751e-03
      -3.78141692e-03 -4.71759262e-03 1.86707242e-03 4.62099118e-03
      3.10145272e-03 3.98933655e-03 2.32867454e-03 6.80459943e-03
      5.51048573e-03 -4.86192619e-03 -4.71760286e-03 1.86711387e-03
      4.62131901e-03 3.10186530e-03 3.98850627e-03 2.32841843e-03
      6.80438709e-03 5.51057421e-03 -4.86190803e-03 -6.06557913e-03
      2.40072841e-03 5.94196096e-03 3.98774724e-03 5.12840925e-03
      2.99401511e-03 8.74865055e-03 7.08486838e-03 -6.25115912e-03
      1.37014408e-03 3.20995413e-03 2.06661434e-03 9.52460163e-04
      6.15367945e-03 2.44876137e-03 3.80841573e-03 2.29945593e-03
      -1.56968529e-03 1.76170759e-03 4.12699068e-03 2.65683071e-03
      1.22458395e-03 7.91222602e-03 3.14840535e-03 4.89655230e-03
      2.95644882e-03 -2.01805402e-03 1.76162797e-03 4.12698789e-03
      2.65679485e-03 1.22459768e-03 7.91193638e-03 3.14841652e-03
      4.89647314e-03 2.95585580e-03 -2.01827334e-03 2.26507150e-03
      5.30600734e-03 3.41556454e-03 1.57447276e-03 1.01729417e-02
      4.04796097e-03 6.29548868e-03 3.80039262e-03 -2.59477738e-03
      -2.85722641e-03 -1.22686545e-03 4.49010823e-03 1.63564214e-03
      9.27769300e-03 2.44018366e-03 2.26276321e-03 6.90861256e-04
      -2.44477950e-03 -3.67343333e-03 -1.57754088e-03 5.77258458e-03
      2.10296968e-03 1.19283944e-02 3.13704996e-03 2.90936581e-03
      8.88344541e-04 -3.14315665e-03 -3.67393042e-03 -1.57724402e-03
      5.77283418e-03 2.10296828e-03 1.19273588e-02 3.13737756e-03
      2.91037210e-03 8.88618699e-04 -3.14376713e-03 -4.72343946e-03
      -2.02806899e-03 7.42168585e-03 2.70381756e-03 1.53350886e-02
      4.03334852e-03 3.74203431e-03 1.14263128e-03 -4.04181797e-03
      3.11560184e-03 2.84335995e-03 2.48670252e-03 9.18872247e-04
      4.19595558e-03 1.76953815e-03 5.65099809e-03 -2.91724154e-03
      -4.52376064e-03 4.00571432e-03 3.65581992e-03 3.19725182e-03
      1.18141226e-03 5.39602712e-03 2.27512815e-03 7.26481061e-03
      -3.75101482e-03 -5.81634603e-03 4.00565518e-03 3.65583156e-03
      3.19721433e-03 1.18140888e-03 5.39508788e-03 2.27512210e-03
      7.26618944e-03 -3.75053170e-03 -5.81639679e-03 5.15005132e-03
      4.70044697e-03 4.11078474e-03 1.51896069e-03 6.93811988e-03
      2.92516663e-03 9.34126880e-03 -4.82246745e-03 -7.47833075e-03
      -7.91321159e-04 5.53887628e-04 3.29492195e-03 2.27180868e-03
      5.34159923e-03 1.06559601e-03 5.87849179e-03 -2.44829757e-03
      -2.31892429e-03 -1.01746747e-03 7.12161651e-04 4.23607323e-03
      2.92090280e-03 6.86813146e-03 1.37003721e-03 7.55813764e-03
      -3.14808195e-03 -2.98162084e-03 -1.01654802e-03 7.12135050e-04
      4.23626648e-03 2.92072864e-03 6.86833821e-03 1.37004175e-03
      7.55886175e-03 -3.14855040e-03 -2.98083131e-03 -1.30706094e-03
      9.15628858e-04 5.44629991e-03 3.75523022e-03 8.83118529e-03
      1.76146347e-03 9.71863605e-03 -4.04848484e-03 -3.83268693e-03
      -1.74623693e-03 -1.06183288e-03 5.02025057e-03 1.28452317e-03
      7.74066709e-03 -6.57377532e-04 5.58235822e-03 1.32939639e-03
      -8.63174850e-04 -2.24467902e-03 -1.36519014e-03 6.45455299e-03
      1.65131770e-03 9.95170232e-03 -8.45204864e-04 7.17704231e-03
      1.70913246e-03 -1.10933254e-03 -2.24504271e-03 -1.36536057e-03
      6.45502890e-03 1.65152887e-03 9.95179731e-03 -8.45192990e-04
      7.17748050e-03 1.70927693e-03 -1.10956200e-03 -2.88586318e-03
      -1.75543362e-03 8.29925202e-03 2.12312164e-03 1.27944164e-02
      -1.08668429e-03 9.22783464e-03 2.19752430e-03 -1.42598443e-03
      3.78628448e-03 2.85263825e-03 3.89918336e-03 1.03778392e-03
      -1.65078510e-03 -9.97995725e-04 3.16687278e-03 -3.79134552e-04
      -1.03094942e-04 4.86804219e-03 3.66801862e-03 5.01369359e-03
      1.33429363e-03 -2.12320103e-03 -1.28292688e-03 4.07217769e-03
      -4.87336743e-04 -1.32619025e-04 4.86886688e-03 3.66776506e-03
      5.01348730e-03 1.33429456e-03 -2.12244294e-03 -1.28313887e-03
      4.07182518e-03 -4.88070917e-04 -1.31925786e-04 6.25992240e-03
      4.71613649e-03 6.44650031e-03 1.71552168e-03 -2.72983592e-03
      -1.64947938e-03 5.23582520e-03 -6.27362402e-04 -1.69707855e-04
      5.20359899e-04 -3.96561483e-03 -1.26653328e-03 2.30709673e-04
      5.98537596e-03 2.24328786e-03 4.43172595e-03 1.61795848e-04
      -1.52012985e-03 6.69194502e-04 -5.09906141e-03 -1.62829575e-03
      2.97960156e-04 7.69716408e-03 2.88434071e-03 5.69810020e-03
      2.08057871e-04 -1.95420929e-03 6.70114881e-04 -5.09859947e-03
      -1.62810239e-03 2.96614569e-04 7.69560272e-03 2.88422499e-03
      5.69747854e-03 2.07878780e-04 -1.95336458e-03 8.61781533e-04
      -6.55587530e-03 -2.09314073e-03 3.83075705e-04 9.89650842e-03
      3.70843476e-03 7.32554402e-03 2.67317373e-04 -2.51115579e-03
      -4.35638335e-03 -4.77951951e-03 1.33576069e-03 2.04695552e-03
      8.36976245e-03 4.39017266e-03 1.47290935e-03 3.05205700e-03
      1.84309436e-03 -5.60079282e-03 -6.14326540e-03 1.71600468e-03
      2.63181515e-03 1.07608698e-02 5.64451702e-03 1.89389894e-03
      3.92352324e-03 2.36957660e-03 -5.60927112e-03 -6.14228006e-03
      1.71776547e-03 2.63182074e-03 1.07607497e-02 5.64449467e-03
      1.89385191e-03 3.92411184e-03 2.37070234e-03 -7.21157016e-03
      -7.89486337e-03 2.20675278e-03 3.38378851e-03 1.38349254e-02
      7.25721894e-03 2.43515568e-03 5.04457997e-03 3.04789655e-03
      -7.08468631e-03 2.45223840e-04 2.75372854e-03 4.19983454e-03
      6.65610190e-03 1.25919131e-03 2.86343601e-03 3.42877884e-03
      -8.40135617e-04 -9.10894107e-03 3.15444515e-04 3.54099809e-03
      5.39994752e-03 8.55706912e-03 1.61892921e-03 3.68172978e-03
      4.40817093e-03 -1.08067121e-03 -9.10976250e-03 3.14626028e-04
      3.54061043e-03 5.39964996e-03 8.55882559e-03 1.61896541e-03
      3.68122524e-03 4.40831669e-03 -1.07918086e-03 -1.17126266e-02
      4.04720369e-04 4.55284398e-03 6.94261305e-03 1.10032056e-02
      2.08148709e-03 4.73322114e-03 5.66750299e-03 -1.38815702e-03
      -8.13664589e-03 4.09844471e-03 7.47662224e-03 5.48033835e-03
      8.30392295e-04 1.14133756e-03 4.24104929e-03 4.70538251e-03
      -1.73924724e-03 -1.04614897e-02 5.26931277e-03 9.61242802e-03
      7.04613375e-03 1.06831256e-03 1.46743015e-03 5.45327971e-03
      6.04994735e-03 -2.23628315e-03 -1.04618119e-02 5.26928809e-03
      9.61241871e-03 7.04617100e-03 1.06764224e-03 1.46742153e-03
      5.45200380e-03 6.04956271e-03 -2.23641051e-03 -1.34510128e-02
      6.77464996e-03 1.23583451e-02 9.05934256e-03 1.37353793e-03
      1.88668002e-03 7.01036490e-03 7.77822826e-03 -2.87552294e-03
      -2.12955195e-03 3.03713488e-03 6.13085274e-03 3.19307228e-03
      8.92394222e-03 2.78251595e-03 1.02556858e-03 2.66240793e-03
      -1.63711578e-04 -2.73775961e-03 3.90474172e-03 7.88210891e-03
      4.10537096e-03 1.14734871e-02 3.57786566e-03 1.31847116e-03
      3.42299347e-03 -2.10219645e-04 -2.74445047e-03 3.90464743e-03
      7.88181927e-03 4.10538958e-03 1.14739081e-02 3.57753271e-03
      1.31859467e-03 3.42309778e-03 -2.16160173e-04 -3.52827646e-03
      5.02007362e-03 1.01332329e-02 5.27834799e-03 1.47519717e-02
      4.60012816e-03 1.69518590e-03 4.40099370e-03 -2.77576328e-04
      2.43920577e-03 5.86357433e-03 5.49424998e-03 -9.53012437e-04
      2.61846045e-03 2.19443487e-03 2.95142201e-03 1.44969369e-03
      1.93617583e-04 3.13620875e-03 7.53888395e-03 7.06405705e-03
      -1.22528966e-03 3.36736231e-03 2.82141357e-03 3.79465986e-03
      1.86388148e-03 2.49032630e-04 3.13585135e-03 7.53882714e-03
      7.06392014e-03 -1.22529897e-03 3.36671108e-03 2.82141729e-03
      3.79449571e-03 1.86385901e-03 2.48644326e-04 4.03192034e-03
      9.69278160e-03 9.08221025e-03 -1.57536892e-03 4.32961946e-03
      3.62753286e-03 4.87860478e-03 2.39637680e-03 3.19809042e-04
      -5.26002783e-04 2.39434768e-03 4.63898852e-03 6.18518656e-03
      4.52816254e-03 1.99451717e-03 1.54476287e-03 -9.11505776e-04
      -7.30559183e-03 -6.76491589e-04 3.07845394e-03 5.96443610e-03
      7.95231387e-03 5.82225481e-03 2.56388844e-03 1.98626425e-03
      -1.17187703e-03 -9.39308852e-03 -6.76323427e-04 3.07839317e-03
      5.96420886e-03 7.95237441e-03 5.82150789e-03 2.56439601e-03
      1.98631408e-03 -1.17185689e-03 -9.39290319e-03 -8.69819720e-04
      3.95794259e-03 7.66829774e-03 1.02243926e-02 7.48522161e-03
      3.29644885e-03 2.55401316e-03 -1.50659727e-03 -1.20768277e-02
      1.23850245e-03 1.38932071e-03 6.07245660e-04 5.80426259e-03
      2.34663882e-03 3.51635343e-03 5.12593146e-03 1.22406345e-03
      -5.79262665e-03 1.59234647e-03 1.78612920e-03 7.80270668e-04
      7.46257184e-03 3.01716151e-03 4.52103093e-03 6.59047440e-03
      1.57379580e-03 -7.44768651e-03 1.59228558e-03 1.78633328e-03
      7.81133655e-04 7.46262027e-03 3.01646977e-03 4.52103419e-03
      6.59016706e-03 1.57368730e-03 -7.44753983e-03 2.04720721e-03
      2.29653344e-03 1.00370555e-03 9.59473103e-03 3.87838902e-03
      5.81276417e-03 8.47306009e-03 2.02331226e-03 -9.57543775e-03
      -2.64654984e-03 6.93506515e-03 3.79630178e-03 1.88465696e-03
      5.00723545e-04 2.07839697e-03 3.88148869e-03 -1.69138249e-03
      -5.30869793e-03 -3.40271555e-03 8.91683903e-03 4.88191238e-03
      2.42315885e-03 6.43062638e-04 2.67224014e-03 4.99050226e-03
      -2.17461353e-03 -6.82547083e-03 -3.40217282e-03 8.91665462e-03
      4.88135312e-03 2.42312578e-03 6.44012296e-04 2.67222291e-03
      4.99083009e-03 -2.17449572e-03 -6.82495674e-03 -4.37423261e-03
      1.14646908e-02 6.27725106e-03 3.11548379e-03 8.27083248e-04
      3.43573536e-03 6.41680276e-03 -2.79575284e-03 -8.77494644e-03
      1.72860033e-04 2.73551838e-03 3.84336081e-03 5.61135029e-03
      7.93498417e-04 2.19769496e-03 3.25505319e-03 6.74710900e-05
      2.25626049e-03 2.22403018e-04 3.51700629e-03 4.94119106e-03
      7.21460348e-03 1.01879518e-03 2.82563036e-03 4.18499485e-03
      8.67517447e-05 2.90105608e-03 2.21682087e-04 3.51668801e-03
      4.94175311e-03 7.21459929e-03 1.02016341e-03 2.82561430e-03
      4.18514293e-03 8.67645940e-05 2.90037552e-03 2.85218237e-04
      4.52134153e-03 6.35333173e-03 9.27592628e-03 1.30981673e-03
      3.63296224e-03 5.38080279e-03 1.11558074e-04 3.72924539e-03
      -6.79240515e-03 3.98701429e-03 4.63399198e-03 2.29093945e-03
      7.56901922e-03 4.41191252e-03 4.90238750e-03 3.51428404e-03
      -8.56670365e-03 -8.73329863e-03 5.12615731e-03 5.95800113e-03
      2.94513558e-03 9.73317493e-03 5.67244086e-03 6.30306080e-03
      4.51836921e-03 -1.10145509e-02 -8.73346347e-03 5.12589281e-03
      5.95736736e-03 2.94550182e-03 9.73160286e-03 5.67246368e-03
      6.30314695e-03 4.51838085e-03 -1.10146152e-02 -1.12290038e-02
      6.59042923e-03 7.65948696e-03 3.78661323e-03 1.25140920e-02
      7.29314471e-03 8.10403470e-03 5.80935273e-03 -1.41619276e-02
      -3.53669515e-03 9.17185738e-04 5.22155501e-03 4.59715072e-03
      6.53540017e-03 1.53203518e-03 7.88146351e-03 5.19938255e-03
      -6.59930194e-03 -4.54715826e-03 1.17922493e-03 6.71333168e-03
      5.91041287e-03 8.40287283e-03 1.96976052e-03 1.01334574e-02
      6.68495568e-03 -8.48479010e-03 -4.54796106e-03 1.17925298e-03
      6.71346020e-03 5.91061870e-03 8.40295944e-03 1.96976517e-03
      1.01332944e-02 6.68492727e-03 -8.48559104e-03 -5.84735023e-03
      1.51616498e-03 8.63146875e-03 7.59909721e-03 1.08040823e-02
      2.53255642e-03 1.30287101e-02 8.59495159e-03 -1.09100109e-02
      -1.75481866e-04 3.10692098e-03 5.20899286e-03 2.18704739e-03
      2.63348781e-03 5.67562366e-03 3.61623336e-03 1.78234035e-03
      -4.83870599e-03 -2.25981785e-04 3.99475079e-03 6.69745170e-03
      2.81148381e-03 3.39726009e-03 7.29722343e-03 4.64943331e-03
      2.29157368e-03 -6.22156728e-03 -2.25871598e-04 3.99456313e-03
      6.69705728e-03 2.81192642e-03 3.38481832e-03 7.29803508e-03
      4.64969035e-03 2.29152571e-03 -6.22145040e-03 -2.90872616e-04
      5.13604423e-03 8.61072727e-03 3.61477560e-03 4.36649891e-03
      9.38317832e-03 5.97816054e-03 2.94623943e-03 -7.99948908e-03
      -3.94646730e-03 2.04486819e-03 5.73242456e-03 3.43628111e-03
      3.99209699e-03 2.30376120e-03 6.49049296e-04 3.48307495e-03
      -2.57876236e-03 -5.07408334e-03 2.62913969e-03 7.37033179e-03
      4.41810582e-03 5.13360091e-03 2.96237227e-03 8.34603154e-04
      4.47828230e-03 -3.31559777e-03 -5.07226307e-03 2.62964610e-03
      7.37020560e-03 4.41807741e-03 5.13239717e-03 2.96197459e-03
      8.34506354e-04 4.47824597e-03 -3.31601268e-03 -6.52155047e-03
      3.38100386e-03 9.47607029e-03 5.68042463e-03 6.59995992e-03
      3.80875915e-03 1.07307953e-03 5.75780030e-03 -4.26350581e-03
      -3.33641795e-03 5.83515596e-03 2.36092811e-03 2.47759069e-03
      7.68283091e-04 -3.01784385e-05 2.02232762e-03 2.44811038e-03
      -3.88360093e-03 -4.29000426e-03 7.50233466e-03 3.03558516e-03
      3.18574882e-03 9.88045242e-04 -3.87839937e-05 2.60033971e-03
      3.14763468e-03 -4.99349786e-03 -4.29594051e-03 7.50241289e-03
      3.03563382e-03 3.18547594e-03 9.88038373e-04 -3.87806358e-05
      2.60012923e-03 3.14757321e-03 -4.99809254e-03 -5.52376872e-03
      9.64594912e-03 3.90309468e-03 4.09596553e-03 1.27065997e-03
      -4.98394184e-05 3.34328623e-03 4.04696306e-03 -6.42650062e-03
      -4.60316613e-03 3.09688877e-03 -2.90256954e-04 -3.30034381e-04
      1.10482343e-03 1.31090335e-03 2.76480475e-03 5.68750873e-03
      -4.82605351e-03 -5.91831468e-03 3.98171693e-03 -3.72885639e-04
      -4.25229431e-04 1.41851150e-03 1.68417208e-03 3.55481217e-03
      7.31253577e-03 -6.20488729e-03 -5.91891911e-03 3.98172857e-03
      -3.73275718e-04 -4.24287544e-04 1.42027240e-03 1.68545195e-03
      3.55505594e-03 7.31308479e-03 -6.20482350e-03 -7.60998670e-03
      5.11936937e-03 -4.79538285e-04 -5.46669122e-04 1.82352436e-03
      2.16537039e-03 4.57086787e-03 9.40256938e-03 -7.97758065e-03
      -7.24638056e-04 1.32564479e-03 1.59093982e-03 1.31924346e-03
      1.49978243e-03 2.29718187e-03 3.34018283e-03 1.27004518e-03
      -1.97689515e-03 -9.31505871e-04 1.70432776e-03 2.04525096e-03
      1.69616309e-03 1.92893960e-03 2.95351283e-03 4.29414399e-03
      1.63404702e-03 -2.54125521e-03 -9.31140909e-04 1.70438061e-03
      2.04542512e-03 1.69616891e-03 1.92849652e-03 2.95352144e-03
      4.29447740e-03 1.63058902e-03 -2.54222890e-03 -1.19696104e-03
      2.19125324e-03 2.62951921e-03 2.18077935e-03 2.48032855e-03
      3.79737630e-03 5.52098639e-03 2.09792634e-03 -3.26797948e-03
      -5.58258384e-04 1.55186653e-03 9.43066785e-04 -2.35431152e-03
      4.78608953e-03 3.96204600e-03 5.23787783e-03 2.99463572e-04
      -5.78148244e-03 -7.18007679e-04 1.99517072e-03 1.21245801e-03
      -3.02647962e-03 6.15328830e-03 5.09405183e-03 6.73377560e-03
      3.84805549e-04 -7.43358536e-03 -7.40310876e-04 1.99537794e-03
      1.21191982e-03 -3.02696251e-03 6.15332881e-03 5.09457337e-03
      6.73426129e-03 3.84182669e-04 -7.45294150e-03 -9.52145900e-04
      2.56537413e-03 1.55810954e-03 -3.89117561e-03 7.91109353e-03
      6.55015605e-03 8.65751505e-03 4.93667438e-04 -9.58267599e-03
      -2.94463546e-03 3.43290064e-03 1.59019011e-03 5.89971896e-04
      4.17779433e-03 3.17829777e-03 8.60716123e-03 -2.37042410e-03
      -5.15015423e-03 -3.78554780e-03 4.41368250e-03 2.04446167e-03
      7.58538663e-04 5.37288701e-03 4.08653077e-03 1.10658994e-02
      -3.04784649e-03 -6.62118802e-03 -3.79336718e-03 4.41388786e-03
      2.04501371e-03 7.58532726e-04 5.37171587e-03 4.08638129e-03
      1.10661853e-02 -3.04774730e-03 -6.63006632e-03 -4.87665553e-03
      5.67493821e-03 2.62921490e-03 9.75260977e-04 6.90833991e-03
      5.25410892e-03 1.42273717e-02 -3.91873438e-03 -8.52380693e-03
      -8.90462543e-04 1.06111320e-03 5.61161712e-03 -2.20184811e-04
      4.72613284e-03 3.80032044e-03 9.15034208e-03 1.15320159e-04
      -5.17414138e-03 -1.14501140e-03 1.36401458e-03 7.21515995e-03
      -2.82648951e-04 6.07592380e-03 4.88608936e-03 1.17647192e-02
      1.48269944e-04 -6.65254984e-03 -1.15155859e-03 1.36438105e-03
      7.21494015e-03 -2.83078029e-04 6.07618084e-03 4.88665793e-03
      1.17653841e-02 1.48404346e-04 -6.65823417e-03 -1.48074341e-03
      1.75385259e-03 9.27663967e-03 -3.63384461e-04 7.81154772e-03
      6.28279895e-03 1.51269129e-02 1.90807754e-04 -8.56069382e-03
      -1.41661323e-03 3.88286565e-03 4.00410965e-03 -1.92223117e-03
      5.01061324e-03 3.57985566e-03 4.15106164e-03 1.29790953e-03
      -4.60888725e-03 -1.82143447e-03 4.99225594e-03 5.14821196e-03
      -2.47144466e-03 6.44119782e-03 4.60269814e-03 5.33748232e-03
      1.66887627e-03 -5.92578016e-03 -1.82204565e-03 4.99224477e-03
      5.14803454e-03 -2.47167121e-03 6.44215383e-03 4.60266043e-03
      5.33714518e-03 1.66874693e-03 -5.92640927e-03 -2.34272634e-03
      6.41859975e-03 6.61899103e-03 -3.17786890e-03 8.28145910e-03
      5.91774052e-03 6.86256262e-03 2.14570574e-03 -7.61975674e-03
      1.23931328e-03 1.24504580e-03 6.07438339e-03 -2.67777685e-03
      4.50347736e-03 2.75567267e-03 4.91616083e-03 -1.65346265e-03
      -1.21766105e-04 1.59322715e-03 1.60075910e-03 7.80989649e-03
      -3.44287278e-03 5.79029368e-03 3.54335946e-03 6.32041460e-03
      -2.12600455e-03 -1.56730093e-04 1.59249455e-03 1.60076143e-03
      7.80996401e-03 -3.44285532e-03 5.79106575e-03 3.54301068e-03
      6.32075639e-03 -2.12590443e-03 -1.57430812e-04 2.04726728e-03
      2.05810391e-03 1.00413496e-02 -4.42655059e-03 7.44579593e-03
      4.55575157e-03 8.12621880e-03 -2.73346482e-03 -2.02633935e-04
      4.80635150e-04 -6.34133490e-03 -4.04833769e-03 1.36443798e-03
      7.15627475e-03 3.10420943e-03 2.67053535e-03 1.43711315e-03
      3.52704641e-03 6.17715647e-04 -8.15315731e-03 -5.20496583e-03
      1.75437843e-03 9.20126215e-03 3.99112469e-03 3.43392021e-03
      1.84784434e-03 4.53456212e-03 6.17943064e-04 -8.15295056e-03
      -5.20424405e-03 1.75429485e-03 9.20008775e-03 3.99113074e-03
      3.43361404e-03 1.84807356e-03 4.53480426e-03 7.94184976e-04
      -1.04823820e-02 -6.69112010e-03 2.25565187e-03 1.18291192e-02
      5.13145141e-03 4.41512931e-03 2.37625884e-03 5.83019014e-03
      -5.14500635e-03 -1.20735273e-03 2.63068615e-03 1.50152599e-03
      2.69849622e-03 2.21908791e-03 -5.70058124e-04 1.68027217e-03
      2.13487376e-03 -6.61481591e-03 -1.55236374e-03 3.38207954e-03
      1.93055626e-03 3.43952747e-03 2.85313115e-03 -7.32605055e-04
      2.16090330e-03 2.74519809e-03 -6.61537005e-03 -1.55237038e-03
      3.38208210e-03 1.93033973e-03 3.47015844e-03 2.85336631e-03
      -7.32960529e-04 2.16034148e-03 2.74450658e-03 -8.50522984e-03
      -1.99597282e-03 4.34809271e-03 2.48189527e-03 4.42310236e-03
      3.66863701e-03 -9.41957172e-04 2.77829310e-03 3.52911465e-03
      -4.08193329e-03 1.17024989e-03 6.63508056e-03 6.50891685e-04
      8.38574395e-03 2.68198317e-03 2.05382938e-03 -3.05407029e-03
      -1.47264521e-03 -5.24809724e-03 1.50461413e-03 8.53084214e-03
      8.36838095e-04 1.07802013e-02 3.44827212e-03 2.64076330e-03
      -3.92660918e-03 -1.89330976e-03 -5.25026349e-03 1.50474813e-03
      8.53106007e-03 8.36767082e-04 1.07815657e-02 3.44830402e-03
      2.64059193e-03 -3.92669812e-03 -1.89551595e-03 -6.75020739e-03
      1.93468598e-03 1.09685352e-02 1.07581459e-03 1.38601251e-02
      4.43354482e-03 3.39520839e-03 -5.04854368e-03 -2.43697478e-03
      -5.16285375e-03 6.97554380e-04 4.00368217e-03 5.47421956e-03
      7.59065966e-04 1.34164875e-03 2.12411629e-03 3.56693333e-03
      -1.68170268e-03 -6.63825357e-03 8.96852813e-04 5.14753209e-03
      7.03828037e-03 9.75175353e-04 1.72482617e-03 2.73092417e-03
      4.58604936e-03 -2.16250913e-03 -6.64046966e-03 8.96343496e-04
      5.14759263e-03 7.03829201e-03 9.75447241e-04 1.72562292e-03
      2.73132138e-03 4.58606659e-03 -2.16455827e-03 -8.53813067e-03
      1.15243846e-03 6.61825715e-03 9.04923026e-03 1.25316111e-03
      2.21846462e-03 3.51159251e-03 5.89636061e-03 -2.78341491e-03
      -3.58813256e-03 4.30798158e-03 2.86055217e-03 -1.41185638e-03
      -2.36744556e-04 2.67022569e-03 5.09669911e-03 2.34471983e-03
      -4.68118116e-03 -4.61337017e-03 5.53875230e-03 3.67756863e-03
      -1.81516586e-03 -3.04208254e-04 3.43315164e-03 6.55287225e-03
      3.01459059e-03 -6.01873593e-03 -4.62741172e-03 5.53879887e-03
      3.67778796e-03 -1.81525946e-03 -3.04255052e-04 3.43316956e-03
      6.55334583e-03 3.01474496e-03 -6.03144383e-03 -5.94960293e-03
      7.12120999e-03 4.72821947e-03 -2.33380520e-03 -3.90956266e-04
      4.41408111e-03 8.42569675e-03 3.87603743e-03 -7.75480922e-03
      -3.48008983e-03 4.59483871e-03 4.65795201e-05 4.82239854e-03
      4.98342002e-03 -1.34096318e-03 2.10314756e-03 1.54463085e-03
      -5.68896066e-03 -4.47439402e-03 5.90764359e-03 5.99065934e-05
      6.20022696e-03 6.41076220e-03 -1.72407727e-03 2.70404737e-03
      1.98595412e-03 -7.31436210e-03 -4.47490020e-03 5.90764219e-03
      5.99333725e-05 6.20023301e-03 6.40725251e-03 -1.72409706e-03
      2.70406809e-03 1.98594783e-03 -7.31490646e-03 -5.75343240e-03
      7.59553118e-03 7.70820625e-05 7.97172729e-03 8.24240781e-03
      -2.21667299e-03 3.47665907e-03 2.55336217e-03 -9.40486044e-03
      -6.29867846e-03 5.33958140e-04 7.45585887e-03 -2.43444025e-04
      2.32489477e-03 1.22903322e-03 3.12286452e-03 1.80820900e-03
      -8.00149457e-04 -8.09871871e-03 6.86420011e-04 9.58611257e-03
      -3.12338962e-04 2.98870448e-03 1.58017641e-03 4.01510531e-03
      2.32483330e-03 -1.02917373e-03 -8.09839275e-03 6.86982763e-04
      9.58514772e-03 -3.13259166e-04 2.98927282e-03 1.58020388e-03
      4.01513465e-03 2.32482725e-03 -1.02968165e-03 -1.04127564e-02
      8.83138448e-04 1.23237707e-02 -4.01914149e-04 3.84277757e-03
      2.03167857e-03 5.16230799e-03 2.98905512e-03 -1.32440345e-03
      3.79901903e-04 5.21811144e-03 -8.18777553e-05 1.35186687e-03
      2.13002437e-03 -1.12653919e-03 1.81212241e-03 6.64899300e-04
      1.42345484e-03 4.88610473e-04 6.70900242e-03 -1.05256324e-04
      1.73813314e-03 2.77408515e-03 -1.44841918e-03 2.32986989e-03
      8.54863902e-04 1.83028786e-03 4.74373141e-04 6.70898333e-03
      -1.05298575e-04 1.73811498e-03 2.73851841e-03 -1.44841918e-03
      2.32944032e-03 8.54717684e-04 1.81608112e-03 6.10120711e-04
      8.62583891e-03 -1.35364186e-04 2.23474298e-03 3.56657268e-03
      -1.86226808e-03 2.99499184e-03 1.09891442e-03 2.33513187e-03
      -2.82554934e-03 6.77304168e-04 1.02769653e-03 2.39202497e-03
      1.35687098e-03 -1.23864552e-03 3.55970860e-03 7.67044770e-03
      -3.50947096e-03 -3.63283604e-03 8.70822114e-04 1.32133020e-03
      3.07546277e-03 1.74459140e-03 -1.59255287e-03 4.57668584e-03
      9.86197963e-03 -4.51219035e-03 -3.63491103e-03 8.70815711e-04
      1.32131320e-03 3.07545275e-03 1.74454402e-03 -1.59255124e-03
      4.57677105e-03 9.86200664e-03 -4.51419596e-03 -4.67344001e-03
      1.11962215e-03 1.69883890e-03 3.95415630e-03 2.24303990e-03
      -2.04757717e-03 5.88431349e-03 1.26796924e-02 -5.80398273e-03
      -8.09685327e-03 1.15612894e-03 -2.82745273e-03 6.20301766e-03
      6.97636092e-03 2.27193651e-03 8.39164294e-03 2.74515175e-03
      -1.17840385e-02 -1.04107987e-02 1.48584915e-03 -3.63529846e-03
      7.97515456e-03 9.01750848e-03 2.92243552e-03 1.07894382e-02
      3.52947111e-03 -1.51513480e-02 -1.04366001e-02 1.48599315e-03
      -3.63563909e-03 7.97481462e-03 8.96917935e-03 2.92105041e-03
      1.07896617e-02 3.53035587e-03 -1.51770627e-02 -1.34192053e-02
      1.90978777e-03 -4.67439508e-03 1.02531351e-02 1.15933893e-02
      3.75740323e-03 1.38726560e-02 4.53901663e-03 -1.95139330e-02
      -1.14046326e-02 2.27321708e-03 6.87336829e-03 8.48822109e-03
      2.71536200e-03 2.09244643e-03 4.94966796e-03 3.46144265e-03
      -6.78693224e-03 -1.46628479e-02 2.92269723e-03 8.83718859e-03
      1.09134326e-02 3.49225570e-03 2.69029289e-03 6.36349944e-03
      4.45031887e-03 -8.72577075e-03 -1.46679357e-02 2.92268605e-03
      8.83711781e-03 1.09136039e-02 3.49101634e-03 2.68966868e-03
      6.36342168e-03 4.45037009e-03 -8.72921851e-03 -1.88584495e-02
      3.75772594e-03 1.13620088e-02 1.40317827e-02 4.48983256e-03
      3.45815043e-03 8.18108022e-03 5.72176604e-03 -1.12229139e-02
      -9.60890576e-03 -4.60571842e-04 1.08381314e-03 4.03774390e-03
      5.00532566e-03 4.41898219e-03 4.15800465e-03 7.91729987e-03
      -4.61235642e-03 -1.23544121e-02 -5.92171040e-04 1.39348942e-03
      5.19138481e-03 6.43556844e-03 5.68150496e-03 5.34606725e-03
      1.01794116e-02 -5.93028078e-03 -1.23578599e-02 -5.92179247e-04
      1.39347161e-03 5.19139413e-03 6.43569417e-03 5.68146119e-03
      5.34587167e-03 1.01793418e-02 -5.93376812e-03 -1.58888139e-02
      -7.61383271e-04 1.79162587e-03 6.67464919e-03 8.27465672e-03
      7.30467960e-03 6.87334221e-03 1.30877588e-02 -7.62927067e-03
      -4.84079542e-03 -2.38727545e-03 1.55373197e-03 1.52896135e-03
      3.59003060e-03 7.28773046e-03 6.42510038e-03 5.19713573e-03
      -5.63494675e-03 -6.22402970e-03 -3.06924386e-03 1.99798960e-03
      1.96580472e-03 4.61577298e-03 9.36994422e-03 8.26074556e-03
      6.68182364e-03 -7.24533712e-03 -6.23245677e-03 -3.06926575e-03
      1.99798099e-03 1.96582358e-03 4.61602444e-03 9.36993863e-03
      8.26106034e-03 6.68212399e-03 -7.25275278e-03 -8.01335089e-03
      -3.94605612e-03 2.56926171e-03 2.52748420e-03 5.93491364e-03
      1.20470701e-02 1.06212366e-02 8.59103445e-03 -9.32548940e-03
      -1.09949438e-02 1.85431854e-03 1.03186991e-03 4.70567786e-04
      8.17163568e-03 4.65066265e-03 5.26772346e-03 6.63496926e-03
      -1.08956341e-02 -1.41364522e-02 2.38409662e-03 1.32681162e-03
      6.05405483e-04 1.05063012e-02 5.97944390e-03 6.77277660e-03
      8.53067264e-03 -1.40087642e-02 -1.41403330e-02 2.38406565e-03
      1.32659799e-03 6.05005538e-04 1.05063142e-02 5.97942760e-03
      6.77290559e-03 8.53074063e-03 -1.40126552e-02 -1.81805510e-02
      3.06519237e-03 1.70578272e-03 7.78364483e-04 1.35080060e-02
      7.68786250e-03 8.70800763e-03 1.09680938e-02 -1.80163886e-02
      -3.88731295e-03 5.38325822e-03 7.66154670e-04 1.09543314e-03
      3.79160326e-03 3.63693316e-03 6.42402214e-04 -2.80636363e-03
      -2.47923611e-03 -4.99798497e-03 6.92133419e-03 9.85060586e-04
      1.40841189e-03 4.87454515e-03 4.67605703e-03 8.25879048e-04
      -3.60820815e-03 -3.18760402e-03 -4.99780662e-03 6.92153582e-03
      9.85596329e-04 1.40841107e-03 4.87484504e-03 4.67604026e-03
      8.26274860e-04 -3.60808172e-03 -3.18741822e-03 -6.42576721e-03
      8.89912061e-03 1.26720103e-03 1.81081158e-03 6.26717834e-03
      6.01205183e-03 1.06226793e-03 -4.63899551e-03 -4.09812853e-03
      -2.26350687e-03 2.98914401e-05 4.37299022e-03 4.20539221e-03
      4.38997149e-03 2.00201967e-03 2.16077175e-03 6.31512667e-04
      -2.66894209e-03 -2.91084778e-03 3.95348870e-05 5.62257227e-03
      5.40692033e-03 5.64436289e-03 2.57406966e-03 2.77800276e-03
      8.11900769e-04 -3.43232532e-03 -2.90968386e-03 3.81940699e-05
      5.62172756e-03 5.40694082e-03 5.64458175e-03 2.57402565e-03
      2.77765212e-03 8.11791746e-04 -3.43104592e-03 -3.74182453e-03
      5.05253192e-05 7.22813606e-03 6.95176469e-03 7.25746574e-03
      3.30951833e-03 3.57109634e-03 1.04367489e-03 -4.41240938e-03
      -3.28408694e-03 2.02253484e-03 2.75446218e-03 -4.44910314e-04
      3.25733377e-03 2.86116963e-03 6.60458580e-03 2.72649131e-03
      -9.34552029e-03 -4.22235113e-03 2.60033272e-03 3.54125933e-03
      -5.72014775e-04 4.18812316e-03 3.67863895e-03 8.49203020e-03
      3.50565370e-03 -1.20156109e-02 -4.22273297e-03 2.60034949e-03
      3.54131288e-03 -5.72031771e-04 4.18802630e-03 3.67863756e-03
      8.49117059e-03 3.50538944e-03 -1.20152496e-02 -5.42916823e-03
      3.34321684e-03 4.55286913e-03 -7.35453155e-04 5.38476324e-03
      4.72966721e-03 1.09177595e-02 4.50714165e-03 -1.54481027e-02
      -7.56789558e-03 8.26428120e-04 1.87569205e-03 2.46603205e-03
      4.15256154e-03 4.98798816e-03 5.18797990e-03 9.27665213e-04
      -3.34806973e-03 -9.73022077e-03 1.06241892e-03 2.41127168e-03
      3.17061925e-03 5.33937290e-03 6.41331356e-03 6.67035161e-03
      1.19271432e-03 -4.30475269e-03 -9.75120440e-03 1.06246176e-03
      2.41131452e-03 3.17061064e-03 5.33875218e-03 6.41313614e-03
      6.67070551e-03 1.19290105e-03 -4.32944391e-03 -1.25373509e-02
      1.36585254e-03 3.09983338e-03 4.07650787e-03 6.86457986e-03
      8.24570004e-03 8.57673958e-03 1.53373275e-03 -5.56654483e-03
      1.44890300e-03 2.11902824e-03 2.83939391e-03 -3.97011754e-04
      2.95533147e-03 3.83655936e-03 2.93606403e-03 -6.62836526e-03
      -3.30530340e-03 1.86268159e-03 2.72434927e-03 3.65030603e-03
      -5.10449812e-04 3.78813571e-03 4.93087480e-03 3.77484830e-03
      -8.52221157e-03 -4.24984610e-03 1.86298694e-03 2.72376789e-03
      3.65033676e-03 -5.10450103e-04 3.79982055e-03 4.93272347e-03
      3.77535727e-03 -8.52205791e-03 -4.24943957e-03 2.39501963e-03
      3.50183831e-03 4.69284831e-03 -6.56299875e-04 4.87060053e-03
      6.33970136e-03 4.85391309e-03 -1.09569663e-02 -5.46378223e-03
      3.73147801e-03 -1.09850231e-03 1.61234045e-03 3.18404078e-03
      -1.54338044e-03 -2.40935944e-03 3.15661239e-03 -3.31991469e-04
      3.47269629e-03 4.79793129e-03 -1.41241215e-03 2.07282859e-03
      4.09376621e-03 -1.98492547e-03 -3.09780077e-03 4.05827677e-03
      -4.26903571e-04 4.46521910e-03 4.79754992e-03 -1.41220237e-03
      2.07295734e-03 4.09375597e-03 -1.98489986e-03 -3.09775444e-03
      4.05849284e-03 -4.26229963e-04 4.46491037e-03 6.16868632e-03
      -1.81575562e-03 2.66499911e-03 5.26339933e-03 -2.55275727e-03
      -3.98289505e-03 5.21777198e-03 -5.48083219e-04 5.74101601e-03
      1.28873542e-03 8.89957766e-04 1.54088053e-03 -1.58289517e-03
      -9.17128782e-05 -4.49041696e-03 3.19919665e-03 1.14073465e-03
      3.41485720e-04 1.65651506e-03 1.14471524e-03 1.98106398e-03
      -2.03512353e-03 -1.18334407e-04 -5.77340135e-03 4.11310932e-03
      1.46660896e-03 4.38500807e-04 1.65715232e-03 1.14412315e-03
      1.98050495e-03 -2.03553424e-03 -1.18670119e-04 -5.77337435e-03
      4.11338080e-03 1.46712118e-03 4.39474825e-04 2.13007024e-03
      1.47163775e-03 2.54627550e-03 -2.61707976e-03 -1.53111585e-04
      -7.42292032e-03 5.28844772e-03 1.88623485e-03 5.64328744e-04
      4.36916435e-03 1.91875885e-03 5.74668730e-03 -1.22830039e-03
      5.71208959e-03 -4.40803915e-03 -4.91913699e-04 -4.43397742e-03
      1.83331640e-03 5.61726000e-03 2.46697711e-03 7.38860061e-03
      -1.57926208e-03 7.34425988e-03 -5.66741638e-03 -6.32009353e-04
      -5.70068695e-03 2.35687359e-03 5.61743043e-03 2.46698293e-03
      7.38860341e-03 -1.57924427e-03 7.34418398e-03 -5.66747459e-03
      -6.32543233e-04 -5.70068136e-03 2.35708873e-03 7.22210528e-03
      3.17183719e-03 9.49963555e-03 -2.03048112e-03 9.44270846e-03
      -7.28667295e-03 -8.12690530e-04 -7.32926559e-03 3.03022470e-03
      7.59714807e-04 -1.14938291e-03 -1.33010748e-04 -5.01662586e-03
      1.66832120e-03 3.37552093e-03 7.30074849e-03 2.01032334e-03
      2.51554884e-03 9.73791699e-04 -1.47773640e-03 -1.71318185e-04
      -6.44901535e-03 2.14660843e-03 4.33995202e-03 9.38664656e-03
      2.58467835e-03 3.23323370e-03 9.77495918e-04 -1.47759088e-03
      -1.73932494e-04 -6.45154156e-03 2.14509806e-03 4.33995714e-03
      9.38665029e-03 2.58470047e-03 3.23500740e-03 1.25294307e-03
      -1.89970608e-03 -2.24019255e-04 -8.29364080e-03 2.76007224e-03
      5.57994004e-03 1.20685138e-02 3.32315662e-03 4.15795390e-03
      -7.44004780e-03 -2.79727485e-03 8.49156175e-04 -1.17584364e-03
      2.54400354e-03 2.23724404e-03 6.37402851e-03 1.68157497e-03
      -4.57748212e-03 -9.56580322e-03 -3.59636708e-03 1.09223300e-03
      -1.51161698e-03 3.26255895e-03 2.87426799e-03 8.19455273e-03
      2.16182112e-03 -5.88537659e-03 -9.56558436e-03 -3.59654473e-03
      1.09232764e-03 -1.51180685e-03 3.27191711e-03 2.87644682e-03
      8.19509663e-03 2.16199458e-03 -5.88507438e-03 -1.22986445e-02
      -4.62396303e-03 1.40501233e-03 -1.94351806e-03 4.19607619e-03
      3.69547470e-03 1.05357487e-02 2.77944515e-03 -7.56657962e-03
      -6.76941592e-03 -6.73864677e-04 4.06163326e-03 -1.13113120e-03
      7.65082077e-04 2.87261070e-03 3.47248465e-03 3.09813139e-03
      -3.57367517e-03 -8.70347396e-03 -8.66383256e-04 5.22215618e-03
      -1.45429058e-03 9.83314705e-04 3.69338132e-03 4.46465518e-03
      3.98333324e-03 -4.59465664e-03 -8.70433729e-03 -8.66817543e-04
      5.22250216e-03 -1.45431224e-03 9.83912498e-04 3.69334803e-03
      4.46449034e-03 3.98326106e-03 -4.59542032e-03 -1.11912126e-02
      -1.11446122e-03 6.71471655e-03 -1.86980260e-03 1.26456516e-03
      4.74862242e-03 5.74010005e-03 5.12136333e-03 -5.90830995e-03
      -2.38141464e-03 8.12828774e-04 -4.29378077e-03 -5.37634222e-03
      1.87562767e-03 3.54284816e-03 7.65561778e-03 3.90158035e-03
      9.02037078e-04 -3.06195766e-03 1.04511494e-03 -5.52070048e-03
      -6.91245729e-03 2.41105352e-03 4.55511268e-03 9.84267704e-03
      5.01622260e-03 1.15949719e-03 -3.06778937e-03 1.04502356e-03
      -5.52040804e-03 -6.91227475e-03 2.41178437e-03 4.55507822e-03
      9.84281115e-03 5.01633482e-03 1.15387246e-03 -3.94447986e-03
      1.34366506e-03 -7.09782867e-03 -8.88723228e-03 3.10026505e-03
      5.85655682e-03 1.26547087e-02 6.44945167e-03 1.48321048e-03
      -6.33862009e-03 -6.79496734e-04 5.38751669e-03 7.32098473e-04
      1.87426363e-03 3.04429163e-03 -7.79132068e-04 2.01791665e-03
      -9.13286422e-05 -8.14972911e-03 -8.73629178e-04 6.92688068e-03
      9.41408798e-04 2.40979996e-03 3.91405076e-03 -1.00174570e-03
      2.59445049e-03 -1.17512434e-04 -8.16952530e-03 -8.73626966e-04
      6.92681689e-03 9.41249658e-04 2.40970706e-03 3.91410803e-03
      -1.00162788e-03 2.59449403e-03 -1.37312134e-04 -1.05037717e-02
      -1.12322229e-03 8.90600123e-03 1.21035706e-03 3.09823756e-03
      5.03237499e-03 -1.28781272e-03 3.33576067e-03 -1.76659247e-04
      -9.23896022e-03 1.58785214e-03 1.84103602e-03 -3.63676809e-03
      6.74447510e-03 1.99472834e-03 3.15409736e-03 1.88170676e-03
      -2.69554276e-03 -1.18787857e-02 2.04152102e-03 2.36697844e-03
      -4.67557460e-03 8.67136940e-03 2.56492128e-03 4.05527651e-03
      2.41934112e-03 -3.46584897e-03 -1.19066117e-02 2.04161531e-03
      2.36718939e-03 -4.67585027e-03 8.67150724e-03 2.56465888e-03
      4.05517686e-03 2.41910643e-03 -3.49191180e-03 -1.53086567e-02
      2.62492895e-03 3.04344296e-03 -6.01145951e-03 1.11489538e-02
      3.29776597e-03 5.21380967e-03 3.11028445e-03 -4.48979530e-03
      -5.46607981e-03 6.65737491e-04 -1.90936145e-03 -2.43790005e-03
      1.65982498e-03 6.70143124e-03 4.75722644e-03 1.76423090e-03
      3.86588625e-04 -7.02747470e-03 8.55902443e-04 -2.45491345e-03
      -3.13448394e-03 2.13393453e-03 8.61613080e-03 6.11643586e-03
      2.26843404e-03 4.97451460e-04 -7.07888743e-03 8.56037426e-04
      -2.45463476e-03 -3.13453167e-03 2.13402044e-03 8.61612987e-03
      6.11642795e-03 2.26830877e-03 4.40502918e-04 -9.10098758e-03
      1.10056112e-03 -3.15598445e-03 -4.03016526e-03 2.74357828e-03
      1.10778874e-02 7.86398165e-03 2.91657308e-03 5.66886563e-04
      -1.20161357e-03 4.51235659e-03 4.91397362e-03 2.65001482e-03
      -2.71788496e-03 8.01936374e-04 -6.11771073e-04 -1.59786898e-03
      -1.44850812e-03 -1.54487044e-03 5.80159947e-03 6.31801737e-03
      3.40733235e-03 -3.49494792e-03 1.03123032e-03 -7.86510878e-04
      -2.05440726e-03 -1.86229544e-03 -1.56611903e-03 5.80161996e-03
      6.31796150e-03 3.40715586e-03 -3.49434000e-03 1.03107025e-03
      -7.86549121e-04 -2.05438514e-03 -1.88354834e-03 -2.01350264e-03
      7.45922327e-03 8.12315941e-03 4.38084733e-03 -4.49339626e-03
      1.32587925e-03 -1.01121038e-03 -2.64135748e-03 -2.42161192e-03
      -2.70450651e-03 5.95692452e-03 1.93401857e-03 2.10769125e-03
      1.63379952e-03 1.33346592e-03 3.94881098e-03 -2.92458083e-03
      -8.44486617e-03 -3.47720808e-03 7.65888905e-03 2.48657563e-03
      2.70988350e-03 2.10051937e-03 1.71445438e-03 5.07696299e-03
      -3.76020558e-03 -1.08576762e-02 -3.48014873e-03 7.65893376e-03
      2.48667668e-03 2.70987139e-03 2.10080529e-03 1.71445531e-03
      5.07720700e-03 -3.76009569e-03 -1.08610420e-02 -4.47445735e-03
      9.84718371e-03 3.19713168e-03 3.48411407e-03 2.70093256e-03
      2.20429618e-03 6.52773585e-03 -4.83444752e-03 -1.39641855e-02
      -5.74504863e-03 -8.30985606e-04 3.54412245e-03 8.10496334e-04
      9.25565109e-05 5.87204285e-03 6.37720199e-03 3.90907284e-03
      -7.25284591e-03 -7.38606649e-03 -1.06841209e-03 4.55671968e-03
      1.04141398e-03 1.39343872e-04 7.54980370e-03 8.19927733e-03
      5.02594886e-03 -9.32466611e-03 -7.39529915e-03 -1.06862094e-03
      4.55614924e-03 1.04206405e-03 1.18994503e-04 7.54975947e-03
      8.19986500e-03 5.02616679e-03 -9.33388807e-03 -9.50769614e-03
      -1.37394364e-03 5.85789373e-03 1.33895746e-03 1.79147333e-04
      9.70687810e-03 1.05427057e-02 6.46221265e-03 -1.20001715e-02
      -6.28963392e-03 -1.80553691e-03 4.09299042e-04 3.68084316e-03
      1.09752337e-03 6.59251492e-03 7.14809913e-03 4.59093880e-03
      -6.64282450e-03 -8.08714796e-03 -2.32146936e-03 5.26330667e-04
      4.73251939e-03 1.41214707e-03 8.47608503e-03 9.19041503e-03
      5.90274809e-03 -8.54098238e-03 -8.11140612e-03 -2.32152245e-03
      5.25992422e-04 4.73270984e-03 1.41083589e-03 8.47607013e-03
      9.19040479e-03 5.90258464e-03 -8.56554043e-03 -1.04295630e-02
      -2.98489723e-03 6.76390133e-04 6.08492084e-03 1.81527529e-03
