%YAML:1.0
my_svm: !!opencv-ml-svm
   svm_type: C_SVC
   kernel: { type:LINEAR }
   C: 1.
   term_criteria: { epsilon:1.1920928955078125e-07, iterations:1000 }
   var_all: 256
   var_count: 256
   class_count: 3
   class_labels: !!opencv-matrix
      rows: 1
      cols: 3
      dt: i
      data: [ 0, 1, 2 ]
   sv_total: 3
   support_vectors:
      - [ -6.30966446e-04, 2.69810189e-05, 1.31098740e-03,
          8.75434198e-04, -4.20548575e-04, -4.77090798e-05,
          7.58696347e-04, 7.46265985e-04, 1.23498240e-03,
          -8.28735210e-05, -1.77897527e-04, -4.79854898e-05,
          6.59495883e-04, -1.06393833e-04, 2.20911088e-03,
          -4.35930822e-04, -2.12258281e-04, -1.13527574e-04,
          -1.33096139e-04, -4.66417696e-05, -1.34907707e-04,
          -1.32124760e-05, -1.79137773e-04, -4.55154659e-05,
          6.25075656e-04, -2.35885927e-05, -1.41301847e-04,
          -2.49320074e-05, 4.59579984e-04, -5.77860446e-05,
          -1.13166912e-04, -5.79765067e-04, 1.20174023e-03,
          -1.07813132e-04, -1.94798668e-05, 3.09085153e-05,
          -8.40428183e-05, -1.05380859e-05, 4.19947173e-05,
          -3.05519170e-05, -1.49903528e-04, -2.61799632e-05,
          -2.42830320e-05, -1.84357668e-05, -1.48754902e-04,
          -3.42823841e-05, -4.37241906e-05, -1.05814892e-04,
          8.41144938e-04, -4.71755666e-05, 4.00333010e-05,
          4.60680985e-06, -7.85748125e-05, -5.06778451e-06,
          1.05198678e-05, 3.59137334e-06, 5.99782157e-04,
          -6.11645592e-05, -5.40486799e-05, -3.11502808e-05,
          7.89064274e-04, -1.12052658e-04, 5.85466099e-04,
          -2.79831700e-04, -1.39776457e-04, -1.43752011e-04,
          -5.21438378e-05, -1.70989646e-04, -2.28558594e-04,
          -1.43974303e-05, -3.95991337e-05, -7.60789771e-05,
          -9.24903507e-05, -1.82561653e-05, -4.50121697e-05,
          -2.97440602e-05, -2.08614947e-05, -8.94043842e-06,
          -9.91399138e-05, -6.05291752e-05, -4.83430595e-05,
          -4.69249562e-06, -6.93682523e-06, -1.05304753e-05,
          -1.83738539e-05, -4.69249562e-06, -3.87265345e-06,
          -2.01013318e-05, -8.26261021e-05, -9.84541111e-06,
          -2.79670276e-05, -2.02956799e-05, -9.97879251e-05,
          -3.46695524e-05, -9.13131516e-05, -9.89060427e-05,
          8.37221101e-04, -2.63657101e-04, 3.77388569e-05,
          1.51915856e-05, -2.47348780e-05, -3.20308827e-05,
          2.72555621e-06, -2.60056822e-05, -5.05850039e-05,
          -4.55995541e-05, -8.40697430e-06, -1.02263984e-05,
          -2.67733844e-06, -2.17646848e-05, -4.42906930e-05,
          -7.79632464e-05, 9.83531005e-04, -4.84628690e-05,
          -5.31221303e-06, 8.04245792e-06, -8.10514393e-05,
          -2.66685965e-05, -2.59693797e-06, -8.61444059e-05,
          3.05320398e-04, -7.81193012e-05, -1.31270674e-04,
          -1.01132704e-04, -5.26408316e-04, -1.12047288e-04,
          -9.92863352e-05, -3.55230615e-04, 8.42582551e-04,
          8.00436246e-04, -1.70186191e-04, 9.93625727e-04,
          -1.18698903e-04, -1.26720450e-04, -5.20610920e-05,
          2.11084207e-05, 5.94313242e-05, 5.46413612e-05,
          -4.21578879e-05, -7.01508834e-05, 2.38493085e-05,
          8.68963762e-05, -1.92743955e-05, 7.31374312e-04,
          -1.05924722e-04, -5.88243092e-05, -1.22476149e-05,
          -2.91295892e-05, -1.27774965e-05, -8.53256097e-06,
          -6.20463688e-05, -8.81810774e-05, 1.58218627e-05,
          6.23761844e-06, -3.59955425e-06, -3.36417688e-05,
          -3.78004916e-05, -8.58767453e-06, -1.72930013e-04,
          -4.00496756e-05, -3.31729185e-04, -1.24298182e-04,
          -5.62912828e-05, -8.75347032e-05, -8.81705091e-06,
          -3.95670249e-05, -9.77867603e-06, -1.15146904e-04,
          -3.39658945e-05, -1.53830642e-05, -1.62411925e-05,
          -1.13457281e-06, 2.90026742e-06, -1.96297860e-05,
          -2.99168532e-05, -2.92183813e-05, -9.61460028e-05,
          -2.86632276e-05, -1.19513106e-06, -2.96888065e-05,
          -3.74567790e-05, -3.74940464e-05, -3.17831291e-05,
          -1.38769581e-04, -5.19101886e-05, -3.15678117e-05,
          -1.66942446e-05, -4.53171524e-04, -1.75625682e-04,
          -1.03740284e-04, -8.19796842e-05, -5.69128140e-04,
          7.27854378e-04, 7.84993754e-04, -1.06248190e-04,
          5.84270419e-05, -2.85932456e-05, -6.09668459e-05,
          -1.47422616e-05, -5.53966733e-04, 2.67451378e-05,
          -1.93658416e-05, -1.20004916e-05, -1.16044233e-04,
          1.56386977e-06, -1.27316362e-05, -2.45978299e-05,
          1.49386290e-06, -1.03133774e-04, -8.91429736e-05,
          -1.93053638e-05, -1.12446367e-04, -2.37656041e-05,
          -6.02705295e-05, -1.33281301e-05, -1.39244046e-04,
          4.35677466e-05, -1.91062827e-05, -2.04553271e-05,
          -1.03704202e-04, -1.18402550e-05, -1.28281899e-04,
          -1.00497993e-04, -5.46182971e-04, 8.81729356e-04,
          -2.33216822e-04, -6.37078338e-05, 8.28801363e-04,
          -4.60416959e-05, -1.29468186e-04, -2.11800925e-05,
          -3.72324539e-05, -3.56564342e-05, -1.81234136e-04,
          -2.65443214e-05, -6.43045860e-05, -3.15365069e-05,
          -1.22377169e-04, -2.16053231e-04, -4.36524308e-04,
          -4.62556782e-05, -7.68975762e-04, -1.52804714e-04,
          -1.35115304e-04, -4.82122450e-05, -1.44074816e-04,
          -1.25200575e-04, -4.22908401e-04, 9.63200757e-04,
          -2.19962549e-05, -5.47379095e-05, -5.02116862e-04,
          -4.44201287e-05, -5.10460522e-04, -4.98957117e-04,
          -2.23713717e-03 ]
      - [ -1.91753381e-03, 9.04915796e-04, 7.58959679e-04,
          8.56741215e-04, 6.85944222e-04, 3.00147385e-05, 6.51148614e-04,
          2.35843559e-04, -7.11999426e-04, -1.29194857e-04,
          -7.99873815e-05, -7.28357918e-05, -2.69679032e-04,
          8.49508215e-05, -1.40161393e-03, 1.63543547e-04,
          1.39903766e-03, -1.00638637e-04, -1.04775181e-05,
          -3.60430713e-05, 4.94929154e-05, 0., 1.27218722e-04,
          2.58174769e-05, -2.73943180e-04, -4.71641746e-04,
          -1.04074825e-04, -1.22899961e-04, -1.11334324e-04,
          -2.56159517e-04, 1.02366866e-04, -5.80178690e-04,
          -5.02931711e-04, -2.24755029e-04, 3.00383865e-04,
          8.13691004e-05, 1.37002489e-05, 0., 1.76011134e-04,
          1.77984286e-04, -8.31535726e-06, -5.22965820e-05,
          1.00339221e-05, 1.60051823e-05, -1.83696480e-04,
          -2.85581955e-05, 9.82150814e-05, 1.35301147e-04,
          1.67408900e-03, -4.34939750e-04, 2.43625225e-04,
          4.81718816e-05, 4.38542629e-05, -1.23846752e-04,
          2.96239246e-04, 8.55425606e-05, -1.32432964e-03,
          -1.40843389e-03, -1.09625922e-03, -1.01401049e-04,
          -1.98816895e-04, -3.48330039e-04, 3.09688924e-03,
          -2.02507392e-04, 1.04282843e-03, 2.61981659e-05,
          -3.93552000e-05, 6.51061637e-05, -4.31310946e-05,
          -4.94814776e-06, 1.76606554e-05, 3.52817806e-05,
          6.08829250e-05, 0., 0., 0., -6.33060845e-05, 0.,
          3.74204283e-05, 2.30971386e-06, 7.64969009e-05,
          -5.12083943e-07, 0., 0., -8.04957381e-06, 0., 0., 0.,
          6.54935357e-05, -3.03321008e-06, 0., 0., 5.84000445e-05, 0.,
          -4.74217450e-06, 0., -2.82961730e-04, -2.51281999e-05,
          7.72452549e-05, 2.10304090e-04, -4.36693927e-06, 0.,
          6.17543847e-05, 4.48394021e-05, -3.87103173e-05,
          -6.32597630e-06, -1.45798131e-05, 0., -1.38071819e-05, 0.,
          1.04344326e-04, 4.84522352e-05, -1.49899174e-03,
          -1.65842343e-04, 1.30260596e-04, 3.74229930e-05,
          7.42843167e-06, 0., 1.08753891e-04, 2.65399285e-05,
          -1.21073499e-04, -3.36953060e-04, -2.27046432e-04,
          -1.32980465e-04, 1.82826049e-03, -6.11516443e-05,
          7.44641584e-04, 6.08487353e-05, 9.17329686e-04, 1.10712345e-03,
          -1.13244297e-03, -2.15473515e-03, -2.09199241e-03,
          -1.58760918e-03, -2.30083839e-04, -1.41218200e-03,
          -6.07668480e-04, -6.85543811e-04, -5.57295934e-05,
          -1.18241040e-03, 2.45548814e-04, -2.01570729e-04,
          -2.01611620e-04, 3.17998300e-03, -1.85632729e-04,
          -9.39271762e-04, -3.17565318e-05, -3.98028671e-04,
          -8.74884645e-05, -6.24762906e-05, 0., 1.73816479e-05,
          1.28255648e-04, 4.03682425e-05, 1.49235657e-05, 3.97668773e-05,
          2.43786155e-04, 4.41593547e-05, 6.21147046e-05, 2.72087578e-04,
          -3.59215737e-05, -1.79701005e-04, 1.82203585e-05,
          1.54797381e-04, -5.31781370e-06, 2.71993395e-06,
          2.42307306e-05, 8.04766169e-05, -2.88061892e-05, 0.,
          1.28207091e-07, -1.04697228e-05, 2.07379867e-06,
          1.11104391e-05, -1.29422688e-06, 4.07524976e-06,
          9.84312719e-05, 1.47695591e-05, -7.59138311e-06,
          7.17595003e-06, -1.14394982e-06, -7.51133882e-07,
          -2.25682561e-06, 1.49255757e-05, 1.41665616e-04,
          2.94987749e-05, 2.40543159e-06, -1.05930038e-03,
          1.24315178e-04, 6.60895021e-05, 1.12862908e-04, 5.20852860e-04,
          1.96699941e-04, -4.10628039e-04, -6.32470648e-04,
          -1.07736199e-03, -5.07956545e-04, -4.13348927e-04,
          -1.90103805e-04, 9.30014823e-04, 1.81237978e-04,
          -2.07025165e-04, 1.01908436e-05, 6.39258578e-05,
          -7.72854110e-05, -1.20952231e-04, 1.61366974e-04,
          4.94974374e-04, 4.67679201e-05, 9.83662176e-06,
          -1.53625183e-06, 2.81079811e-05, -1.42153178e-04,
          -1.08203560e-04, -2.91709648e-06, -2.04117372e-04,
          2.51646270e-04, 1.02571139e-04, -8.37509106e-07,
          2.54465776e-05, -5.34065803e-05, -5.75808417e-06,
          1.57463801e-05, 1.03465958e-04, -5.64284041e-04,
          -1.41076150e-03, -1.78994815e-04, 2.28337874e-03,
          -2.25370532e-04, -2.79926226e-05, -3.92488117e-04,
          2.64289352e-04, 2.36771666e-04, -2.03257623e-05,
          9.27520159e-06, 1.10619825e-04, 9.56738295e-05, 6.59719517e-05,
          2.44777679e-04, 8.11407052e-04, -8.46662617e-04,
          2.71843193e-04, 8.48155469e-06, 1.39279175e-04,
          -3.18724560e-05, -2.47876460e-06, 1.27393068e-05,
          -3.71282164e-04, 3.41645442e-03, 5.11662627e-04,
          5.26672811e-05, -2.81792745e-05, 5.00575756e-04,
          3.82700127e-05, 8.57392792e-04, 9.74423601e-04 ]
      - [ -4.86907433e-04, 7.96845299e-04, -9.34048439e-04,
          -1.22339337e-03, 8.62803194e-04, 2.66572548e-04,
          -6.62704624e-05, -8.48293363e-04, -9.59387806e-04,
          -6.54370873e-04, 3.10151663e-04, 1.24901781e-04,
          -3.04395828e-04, 1.14645831e-04, -9.69595974e-04,
          -6.66963926e-04, -1.07608491e-03, 3.41752784e-05,
          -5.85267080e-05, 5.19090245e-05, 2.35160696e-04,
          1.99870155e-05, 2.54765939e-04, 1.03698272e-04, 2.64928996e-04,
          -4.20435535e-04, -6.61736995e-05, -6.29287621e-04,
          -5.60767658e-04, -9.22146719e-05, -3.17673606e-04,
          1.01835676e-03, -9.52610630e-04, -4.45226324e-04,
          3.97253898e-05, 8.66231676e-06, -4.15356364e-04,
          6.55279655e-05, 7.62116688e-05, 9.99224139e-05, 6.91701862e-05,
          -5.02745797e-06, 2.30145397e-05, 3.85958374e-05,
          1.54789195e-05, 7.57522048e-06, -3.86899446e-05,
          2.58990360e-04, -1.41908487e-04, -3.88415385e-04,
          3.83814440e-05, -5.90000636e-05, 2.49242963e-04,
          -8.90216979e-05, -1.87458829e-06, -4.43484576e-04,
          -8.14542524e-04, -1.36870518e-03, -4.52451262e-04,
          -9.04069821e-05, -1.13200722e-03, -2.82601599e-04,
          -4.27569001e-04, 1.58001523e-04, -8.15958658e-04,
          2.03226693e-04, 1.15097886e-04, 3.64321051e-04,
          -3.31085670e-04, 3.18260354e-05, 7.16940076e-06,
          1.43062556e-04, 3.23008484e-04, 2.91142824e-05, 5.80560773e-05,
          4.85546116e-05, 7.11196044e-05, 1.33119956e-05, 1.71955267e-04,
          9.53704075e-05, 1.72764048e-04, 4.10151551e-05, 3.51253802e-05,
          5.57444582e-06, 3.54396216e-05, 2.82195488e-05, 3.39232292e-06,
          5.93781806e-05, 2.96687736e-04, 2.46154414e-05, 4.36267837e-05,
          7.80286427e-05, 1.59726842e-04, 3.14581048e-05, 1.91100538e-04,
          2.34240302e-04, -2.23048584e-04, 2.16525470e-04,
          -3.11775111e-05, 1.44722317e-05, 7.93408326e-05,
          1.61615226e-05, 4.46085032e-05, 8.79662548e-05, 1.62611032e-04,
          8.18719564e-05, -9.09532173e-06, 4.16592738e-05,
          1.06839318e-04, -3.48240110e-06, 1.26643994e-04,
          2.69344775e-04, -8.98613187e-04, -1.15194256e-04,
          2.01710325e-04, -9.55536780e-06, 9.71988120e-05,
          7.39702955e-05, 3.02687040e-05, 1.96961686e-04,
          -2.05943332e-04, -2.44933501e-04, 3.97353462e-04,
          8.98464787e-05, 1.57316995e-03, 3.05991707e-04, 6.24972745e-04,
          9.02996864e-04, 5.21835987e-04, -2.62575631e-04,
          -2.53895909e-04, -1.58230460e-03, -1.48252863e-03,
          -1.01828063e-03, -7.84624310e-04, -1.57010986e-03,
          -8.53598467e-04, -1.23873400e-03, -2.90135533e-04,
          -7.19385513e-04, 5.96233767e-05, -8.10939702e-04,
          -1.58460709e-04, -9.39885940e-05, -1.16405063e-05,
          -1.22140814e-03, -2.55004445e-04, -7.64271186e-04,
          -5.81902204e-05, -6.46219472e-04, 7.63157150e-05,
          2.12493382e-04, -1.38401607e-04, 4.34769972e-05,
          -1.36896357e-04, 8.78556311e-05, 2.78600986e-04,
          1.26813538e-04, 3.65502870e-04, 5.99024585e-04, 4.26991115e-04,
          2.18220273e-04, 4.12660484e-05, 2.94345315e-04, 5.44826253e-05,
          8.90585870e-05, 5.12055412e-05, 5.36852865e-04, 1.46632170e-04,
          1.37721581e-05, 2.22592689e-06, 1.41724857e-04, 2.52841182e-05,
          1.05761428e-04, 1.58312305e-05, 2.16123706e-04, 2.59648659e-04,
          5.62045934e-05, 1.22355441e-05, 1.96120891e-04, 6.44701358e-05,
          1.07096836e-04, 5.36668176e-06, 3.82319209e-04, 2.00116672e-04,
          7.34366040e-05, 6.09721756e-05, 1.15053973e-03, 3.88083543e-04,
          2.30657490e-04, 2.34936335e-04, 2.01063720e-03, 2.49892299e-04,
          -1.20113790e-03, -3.62635095e-04, -7.86575023e-04,
          -3.87809967e-04, -3.90238856e-04, -1.89761064e-04,
          1.21838809e-03, -2.30952530e-04, 8.26977630e-05,
          5.60020453e-06, 3.39872291e-04, -9.13677650e-05,
          1.48833815e-05, 1.14293207e-05, 2.92366429e-04, 3.14054574e-04,
          2.06688084e-04, 5.52736528e-05, 9.05919005e-05,
          -1.34769260e-04, -1.06290805e-04, 3.14323952e-05,
          4.17384981e-05, 8.74530670e-05, 1.81608702e-05, 2.40665668e-05,
          2.35575804e-04, 2.57073298e-05, 1.99426824e-04, 1.21631267e-04,
          9.55753378e-04, -1.11843133e-03, -1.03381393e-03,
          -1.30268995e-06, -1.17704760e-04, -1.80118805e-04,
          -3.17828759e-04, -1.02729932e-03, 5.06654789e-04,
          1.40645643e-04, 5.22007467e-04, 1.77837737e-05, 3.52605246e-04,
          1.15041417e-04, 1.92377804e-04, 5.54147759e-04, 1.36794301e-03,
          -5.98577142e-04, -4.02188132e-04, 3.60023725e-04,
          3.76210373e-04, 8.26697578e-05, 2.16519751e-04, 2.37772576e-04,
          -3.36265250e-04, 3.63287952e-04, 3.36307101e-04,
          2.10437036e-04, 1.27852440e-03, 5.30770805e-04, 1.05623074e-03,
          1.71266356e-03, 4.33549285e-03 ]
   decision_functions:
      -
         sv_count: 1
         rho: -1.5746740615383403e-01
         alpha: [ 1. ]
         index: [ 0 ]
      -
         sv_count: 1
         rho: -7.2208407750576455e+00
         alpha: [ 1. ]
         index: [ 1 ]
      -
         sv_count: 1
         rho: -4.6381317473212782e+00
         alpha: [ 1. ]
         index: [ 2 ]
