<?xml version="1.0"?>
<opencv_storage>
<my_svm type_id="opencv-ml-svm">
  <svm_type>C_SVC</svm_type>
  <kernel><type>LINEAR</type></kernel>
  <C>1.</C>
  <term_criteria><epsilon>1.1920928955078125e-07</epsilon>
    <iterations>1000</iterations></term_criteria>
  <var_all>17424</var_all>
  <var_count>17424</var_count>
  <class_count>2</class_count>
  <class_labels type_id="opencv-matrix">
    <rows>1</rows>
    <cols>2</cols>
    <dt>i</dt>
    <data>
      5 6</data></class_labels>
  <sv_total>1</sv_total>
  <support_vectors>
    <_>
      3.42292176e-03 -4.05194005e-03 -3.58540053e-03 3.10261734e-03
      7.51796132e-03 6.72280672e-04 7.52303097e-03 4.19312250e-03
      3.84496059e-03 4.40116925e-03 -5.20977005e-03 -4.61015804e-03
      3.98909114e-03 9.66777280e-03 8.64361122e-04 9.67242103e-03
      5.39112557e-03 4.94378665e-03 4.40148590e-03 -5.20999450e-03
      -4.61082114e-03 3.98907950e-03 9.66593437e-03 8.64374044e-04
      9.67252441e-03 5.39049320e-03 4.94395569e-03 5.65940002e-03
      -6.69873366e-03 -5.92865841e-03 5.12883160e-03 1.24299722e-02
      1.11133896e-03 1.24360407e-02 6.93059387e-03 6.35685585e-03
      5.50913764e-03 -1.02850497e-02 5.35284728e-03 -9.90481858e-05
      8.46462883e-03 1.23604352e-03 9.06323839e-04 1.73464091e-03
      1.06985243e-02 7.08279014e-03 -1.32226646e-02 6.88287523e-03
      -1.27374049e-04 1.08823320e-02 1.58914435e-03 1.16483856e-03
      2.23012478e-03 1.37547227e-02 7.08321389e-03 -1.32233519e-02
      6.88301120e-03 -1.27355306e-04 1.08818505e-02 1.58920814e-03
      1.16505497e-03 2.23018206e-03 1.37552796e-02 9.10649076e-03
      -1.70002058e-02 8.85041244e-03 -1.63776625e-04 1.39899720e-02
      2.04319740e-03 1.49736903e-03 2.86721322e-03 1.76846851e-02
      4.17079544e-03 -4.42518140e-05 4.78753308e-03 1.17875141e-04
      6.50305115e-03 3.76067986e-03 1.37007644e-03 -1.14232425e-05
      1.04039470e-02 5.36333211e-03 -5.63376125e-05 6.15712116e-03
      1.51572211e-04 8.36172886e-03 4.83514462e-03 1.76134298e-03
      -1.47389719e-05 1.33773843e-02 5.36189182e-03 -5.67409588e-05
      6.15584385e-03 1.51574146e-04 8.36232677e-03 4.83515533e-03
      1.75967126e-03 -1.60104773e-05 1.33758076e-02 6.89499266e-03
      -7.22357217e-05 7.91686773e-03 1.94905791e-04 1.07524162e-02
      6.21660892e-03 2.26219906e-03 -2.06516706e-05 1.71985980e-02
      4.84255934e-03 1.42732868e-03 -2.68126815e-03 2.81871296e-04
      1.06073357e-03 2.97157466e-03 8.26487958e-05 2.41257879e-03
      4.04538307e-03 6.22609165e-03 1.83484307e-03 -3.44755198e-03
      3.62432591e-04 1.36459153e-03 3.82058276e-03 1.06061154e-04
      3.10180127e-03 5.20118326e-03 6.22593705e-03 1.83540408e-03
      -3.44747584e-03 3.62414256e-04 1.36406755e-03 3.82061047e-03
      1.06543172e-04 3.10201081e-03 5.20093925e-03 8.00470263e-03
      2.35942751e-03 -4.43273503e-03 4.65995545e-04 1.75481697e-03
      4.91219759e-03 1.36724309e-04 3.98818916e-03 6.68689096e-03
      -2.73037981e-03 -4.78356797e-03 2.42178352e-03 -3.57300916e-04
      2.63467198e-03 1.33651731e-04 1.85153924e-03 1.39332225e-03
      1.26205443e-03 -3.51057691e-03 -6.15063263e-03 3.11436201e-03
      -4.59379138e-04 3.39019275e-03 1.72122309e-04 2.37969798e-03
      1.79108232e-03 1.62263843e-03 -3.51086818e-03 -6.14993414e-03
      3.11388937e-03 -4.59126575e-04 3.38737038e-03 1.72306492e-04
      2.38125166e-03 1.79155194e-03 1.62215147e-03 -4.51408839e-03
      -7.90748373e-03 4.00439464e-03 -5.90295589e-04 4.35873633e-03
      2.21902577e-04 3.06051411e-03 2.30299775e-03 2.08561798e-03
      -4.15908638e-03 -1.91741483e-03 1.03106117e-02 -1.36913921e-04
      3.81370354e-03 4.25494369e-03 -2.21914248e-04 1.40789803e-03
      7.20987050e-03 -5.34697436e-03 -2.46524625e-03 1.32565275e-02
      -1.76069268e-04 4.90293792e-03 5.47061907e-03 -2.84721900e-04
      1.81037164e-03 9.27026011e-03 -5.34715131e-03 -2.46516801e-03
      1.32568302e-02 -1.76040354e-04 4.90147248e-03 5.47061767e-03
      -2.85195420e-04 1.81037770e-03 9.27017815e-03 -6.87436527e-03
      -3.16949654e-03 1.70445275e-02 -2.26385426e-04 6.30138582e-03
      7.03362143e-03 -3.65913496e-04 2.32790620e-03 1.19193504e-02
      -2.19433755e-03 5.03716012e-03 8.76125786e-03 -1.27645687e-03
      2.03384343e-03 4.21339599e-03 7.96824985e-04 -1.41374546e-03
      2.09953031e-03 -2.82120146e-03 6.47639344e-03 1.12642618e-02
      -1.64169073e-03 2.61520431e-03 5.41721890e-03 1.02450140e-03
      -1.81767775e-03 2.69954558e-03 -2.82190414e-03 6.47592358e-03
      1.12642553e-02 -1.64090807e-03 2.61327950e-03 5.41697210e-03
      1.02455798e-03 -1.81738590e-03 2.69887899e-03 -3.62804555e-03
      8.32624547e-03 1.44823380e-02 -2.11042259e-03 3.36026936e-03
      6.96467282e-03 1.31730433e-03 -2.33664666e-03 3.47017893e-03
      1.34193664e-03 -7.30908150e-03 1.21653941e-03 -4.75796126e-03
      6.34663738e-03 -1.66265504e-03 3.97636695e-03 2.74178432e-03
      8.49957485e-03 1.72560301e-03 -9.39734746e-03 1.56421796e-03
      -6.11723214e-03 8.15995969e-03 -2.13769381e-03 5.11256605e-03
      3.52453301e-03 1.09281382e-02 1.72557798e-03 -9.39750392e-03
      1.56470027e-03 -6.11740770e-03 8.15963838e-03 -2.13770662e-03
      5.11252321e-03 3.52521543e-03 1.09282155e-02 2.21893005e-03
      -1.20824510e-02 2.01188051e-03 -7.86504894e-03 1.04909604e-02
      -2.74847308e-03 6.57336414e-03 4.53162519e-03 1.40507091e-02
      5.17153821e-04 -3.90488864e-03 -2.41138885e-04 -4.39818669e-03
      5.73206646e-03 5.87521936e-04 1.08395582e-02 4.54232609e-03
      -4.75610793e-03 6.64857507e-04 -5.02055045e-03 -3.10219533e-04
      -5.65484865e-03 7.37198163e-03 7.55631365e-04 1.39357839e-02
      5.84050175e-03 -6.11496065e-03 6.65126310e-04 -5.02074091e-03
      -3.10154544e-04 -5.65481139e-03 7.36996951e-03 7.55387242e-04
      1.39371352e-02 5.83973015e-03 -6.11455878e-03 8.55093065e-04
      -6.45521004e-03 -3.99007957e-04 -7.27052009e-03 9.47848056e-03
      9.71527945e-04 1.79181565e-02 7.50869745e-03 -7.86153227e-03
      -2.91786878e-03 4.96040750e-03 8.46303813e-03 5.18115750e-03
      7.41601735e-03 3.27094295e-03 -3.07313586e-03 -5.22439647e-03
      -3.01913708e-03 -3.75182834e-03 6.37786416e-03 1.08813867e-02
      6.66109845e-03 9.53770056e-03 4.20550583e-03 -3.95174138e-03
      -6.71721762e-03 -3.88192455e-03 -3.75161413e-03 6.37776824e-03
      1.08814044e-02 6.66150730e-03 9.53415874e-03 4.20533214e-03
      -3.95050785e-03 -6.71688095e-03 -3.88182001e-03 -4.82386630e-03
      8.20024125e-03 1.39908101e-02 8.56429432e-03 1.22618312e-02
      5.40686492e-03 -5.07995347e-03 -8.63616355e-03 -4.99114115e-03
      -3.17577622e-03 4.78200847e-03 1.01455320e-02 1.72201521e-03
      3.10481410e-03 -6.43498846e-04 4.16507339e-03 -1.88496488e-03
      -7.93382002e-04 -4.08281852e-03 6.14850037e-03 1.30448928e-02
      2.21460941e-03 3.99192376e-03 -8.27326614e-04 5.35510061e-03
      -2.42351159e-03 -1.01970823e-03 -4.10164474e-03 6.14772690e-03
      1.30445361e-02 2.21403665e-03 3.99191165e-03 -8.28695600e-04
      5.35425730e-03 -2.42373673e-03 -1.03656040e-03 -5.27312979e-03
      7.90448301e-03 1.67723671e-02 2.84737651e-03 5.13248425e-03
      -1.06542814e-03 6.88405288e-03 -3.11621255e-03 -1.33226707e-03
      -8.20903294e-03 -4.60155495e-03 3.47954431e-03 3.97533318e-03
      1.11140534e-02 -5.97670150e-04 4.77108546e-03 -1.73205486e-03
      -1.00797892e-03 -1.05546555e-02 -5.91616519e-03 4.47407085e-03
      5.11114253e-03 1.42915677e-02 -7.68644910e-04 6.13523228e-03
      -2.22659111e-03 -1.29614200e-03 -1.05534978e-02 -5.91628021e-03
      4.47373232e-03 5.11113554e-03 1.42873079e-02 -7.68454571e-04
      6.13339432e-03 -2.22631032e-03 -1.29123381e-03 -1.35690207e-02
      -7.60649191e-03 5.75241819e-03 6.57146005e-03 1.83720589e-02
      -9.88284941e-04 7.88705144e-03 -2.86196591e-03 -1.66037609e-03
      -7.63805176e-04 2.17030640e-03 6.00652816e-03 2.59169750e-03
      8.34463257e-03 2.12990493e-03 7.06440420e-04 -3.71143059e-03
      -4.47715539e-03 -9.82871978e-04 2.79003195e-03 7.72319967e-03
      3.33227683e-03 1.07289040e-02 2.73844530e-03 9.07953014e-04
      -4.77193110e-03 -5.75704221e-03 -9.99426004e-04 2.79092020e-03
      7.72217289e-03 3.33177019e-03 1.07276738e-02 2.73860781e-03
      9.08713148e-04 -4.77170944e-03 -5.77256503e-03 -1.28605159e-03
      3.58785945e-03 9.92917642e-03 4.28382680e-03 1.37928408e-02
      3.52106150e-03 1.16792414e-03 -6.13517407e-03 -7.42276711e-03
      3.16461106e-03 6.26003230e-03 1.06543656e-02 4.39717667e-03
      8.11327063e-03 -1.29535049e-03 -5.48269320e-03 -3.48849548e-03
      -3.36796325e-03 4.06868989e-03 8.04868340e-03 1.36987027e-02
      5.65351034e-03 1.04281064e-02 -1.66551117e-03 -7.04891328e-03
      -4.48393123e-03 -4.33006184e-03 4.07190574e-03 8.04851297e-03
      1.36981765e-02 5.65350940e-03 1.04309442e-02 -1.66547333e-03
      -7.04959035e-03 -4.48526442e-03 -4.33380203e-03 5.23518538e-03
      1.03481803e-02 1.76122375e-02 7.26879528e-03 1.34070460e-02
      -2.14140140e-03 -9.06342082e-03 -5.76512748e-03 -5.57180401e-03
      3.44191259e-03 7.50992866e-03 6.08710479e-03 6.26909826e-03
      -5.11312042e-04 -2.39143753e-03 4.64988872e-03 -3.84895853e-03
      -1.14117574e-03 4.42440016e-03 9.65571683e-03 7.82604702e-03
      8.06026068e-03 -6.55488751e-04 -3.07462970e-03 5.97904902e-03
      -4.94850520e-03 -1.46818708e-03 4.42485698e-03 9.65539366e-03
      7.82551523e-03 8.06012936e-03 -6.58493373e-04 -3.07457428e-03
      5.97832305e-03 -4.94844653e-03 -1.46766054e-03 5.68792364e-03
      1.24142002e-02 1.00610796e-02 1.03630135e-02 -8.44175695e-04
      -3.95292742e-03 7.68721430e-03 -6.36208663e-03 -1.88822765e-03
      7.98728876e-03 5.64523274e-03 1.04256291e-02 2.86026299e-03
      5.19614061e-03 -2.13583163e-03 2.67607905e-03 -6.06947998e-03
      -1.14143826e-03 1.02688679e-02 7.25820195e-03 1.34045165e-02
      3.67754209e-03 6.67956658e-03 -2.74609658e-03 3.44031979e-03
      -7.80323334e-03 -1.46796112e-03 1.02564991e-02 7.25788623e-03
      1.34035628e-02 3.67749366e-03 6.68109767e-03 -2.74607213e-03
      3.44078685e-03 -7.80357327e-03 -1.48039730e-03 1.31862815e-02
      9.33162868e-03 1.72333270e-02 4.72828513e-03 8.58845841e-03
      -3.53069999e-03 4.42341389e-03 -1.00326696e-02 -1.90388074e-03
      2.68836669e-03 4.87191230e-03 6.27268804e-03 3.98446620e-03
      1.65732962e-03 -3.84003134e-03 3.48703377e-03 -1.30592228e-03
      -4.91359225e-03 3.45606799e-03 6.26412733e-03 8.06562509e-03
      5.12289535e-03 2.12907582e-03 -4.93515842e-03 4.48363274e-03
      -1.67897076e-03 -6.31776638e-03 3.45729315e-03 6.26391917e-03
      8.06507282e-03 5.12288092e-03 2.13066256e-03 -4.93724272e-03
      4.48313262e-03 -1.67908287e-03 -6.31619571e-03 4.44457168e-03
      8.05391930e-03 1.03703318e-02 6.58657355e-03 2.73713842e-03
      -6.34528091e-03 5.76441828e-03 -2.15872750e-03 -8.12119618e-03
      9.41593200e-03 2.53525749e-03 4.97335661e-03 1.05027610e-03
      3.12735164e-03 5.34883467e-04 8.81307106e-03 -4.17594844e-03
      1.29733821e-02 1.21072903e-02 3.26131121e-03 6.39409805e-03
      1.35037152e-03 4.01947694e-03 6.87705586e-04 1.13315163e-02
      -5.36896568e-03 1.66807938e-02 1.21070556e-02 3.26140132e-03
      6.39438070e-03 1.35035871e-03 4.01797565e-03 6.87704189e-04
      1.13314250e-02 -5.36892796e-03 1.66805964e-02 1.55676194e-02
      4.19540843e-03 8.22106656e-03 1.73619715e-03 5.16416505e-03
      8.84188397e-04 1.45695210e-02 -6.90276315e-03 2.14474201e-02
      5.64551773e-03 2.85512581e-03 6.93236524e-03 1.66582188e-03
      4.41558892e-03 2.70937523e-03 2.96437927e-03 -1.79847924e-03
      -9.89031512e-04 7.25975726e-03 3.67032737e-03 8.91136751e-03
      2.14176276e-03 5.67616243e-03 3.48349055e-03 3.81149934e-03
      -2.31229584e-03 -1.27036741e-03 7.26013631e-03 3.67067568e-03
      8.91152583e-03 2.14177021e-03 5.67668583e-03 3.48303514e-03
      3.81119014e-03 -2.31228629e-03 -1.27006706e-03 9.33604781e-03
      4.71873628e-03 1.14555247e-02 2.75369408e-03 7.29728164e-03
      4.47819848e-03 4.90029715e-03 -2.97289435e-03 -1.63134281e-03
      9.60252620e-03 7.88219832e-03 8.69555585e-03 2.25582952e-03
      6.31529401e-05 -3.49792559e-03 -1.70297991e-03 -4.78712097e-03
      7.76075572e-03 1.23456987e-02 1.01342360e-02 1.11799380e-02
      2.90035643e-03 8.14223677e-05 -4.49720211e-03 -2.18986557e-03
      -6.15502289e-03 9.97772440e-03 1.23462463e-02 1.01339966e-02
      1.11792181e-02 2.90034828e-03 8.18902045e-05 -4.49733250e-03
      -2.18990049e-03 -6.15446782e-03 9.97837447e-03 1.58732235e-02
      1.30293993e-02 1.43731972e-02 3.72902467e-03 1.05578576e-04
      -5.78211667e-03 -2.81600072e-03 -7.91308470e-03 1.28288390e-02
      4.53700870e-03 6.28817314e-03 7.23376498e-03 1.25353923e-03
      -1.85597653e-03 -1.13291107e-03 7.24762119e-03 2.38755811e-03
      3.51343816e-03 5.83393686e-03 8.08509253e-03 9.30143241e-03
      1.61168631e-03 -2.38538324e-03 -1.45660318e-03 9.31882951e-03
      3.06948577e-03 4.51783231e-03 5.83429588e-03 8.08516052e-03
      9.30160470e-03 1.61170273e-03 -2.38624471e-03 -1.45688292e-03
      9.31779854e-03 3.06960219e-03 4.51791799e-03 7.50206085e-03
      1.03955911e-02 1.19603323e-02 2.07217969e-03 -3.06690997e-03
      -1.87313836e-03 1.19806146e-02 3.94633319e-03 5.80946449e-03
      1.93600252e-03 3.22249834e-03 4.50885622e-03 1.14519673e-03
      1.68050192e-02 4.97318571e-04 4.91508050e-03 4.03913250e-03
      -1.36920775e-03 2.48907856e-03 4.14288044e-03 5.79614146e-03
      1.47237629e-03 2.16059051e-02 6.39423088e-04 6.31937990e-03
      5.19317342e-03 -1.76048861e-03 2.48813699e-03 4.14329534e-03
      5.79733960e-03 1.47240027e-03 2.16063373e-02 6.39406033e-04
      6.31930353e-03 5.19317808e-03 -1.76135439e-03 3.19894706e-03
      5.32666733e-03 7.45248795e-03 1.89306180e-03 2.77788751e-02
      8.22109927e-04 8.12480599e-03 6.67694770e-03 -2.26469943e-03
      -3.93868482e-04 -2.93385796e-03 8.28498323e-03 -4.62030439e-04
      1.11906324e-03 -1.26508166e-04 2.81043933e-03 2.90412176e-03
      -2.34774780e-03 -5.06784942e-04 -3.77208460e-03 1.06521416e-02
      -5.94071927e-04 1.44063146e-03 -1.62646509e-04 3.61355231e-03
      3.73391132e-03 -3.01892636e-03 -5.04915311e-04 -3.77218542e-03
      1.06517961e-02 -5.94046374e-04 1.43898220e-03 -1.62652490e-04
      3.61454161e-03 3.73422471e-03 -3.01706232e-03 -6.49668276e-04
      -4.84992843e-03 1.36951907e-02 -7.63815362e-04 1.85248023e-03
      -2.09115722e-04 4.64743515e-03 4.80119837e-03 -3.87958693e-03
      -1.81276898e-03 -5.43732382e-03 7.18935672e-03 4.86784754e-03
      -5.91709465e-03 -3.52897029e-03 4.14357102e-03 4.70771547e-03
      6.04850175e-05 -2.33138283e-03 -6.99078618e-03 9.24333651e-03
      6.25867816e-03 -7.60630518e-03 -4.53723455e-03 5.32718049e-03
      6.05268730e-03 7.70781407e-05 -2.32919678e-03 -6.99094310e-03
      9.24323313e-03 6.25885883e-03 -7.60772172e-03 -4.53724479e-03
      5.32671530e-03 6.05266215e-03 7.92941792e-05 -2.99555715e-03
      -8.98827892e-03 1.18839992e-02 8.04712623e-03 -9.77957156e-03
      -5.83358435e-03 6.84828963e-03 7.78187951e-03 1.01063422e-04
      1.24919496e-03 -9.84283979e-04 3.41140362e-03 -1.46204140e-03
      2.01336225e-03 1.30836095e-04 2.26771575e-04 6.05877605e-04
      3.64569458e-03 1.60710840e-03 -1.26472837e-03 4.38638590e-03
      -1.87979639e-03 2.59066722e-03 1.68237064e-04 2.90779979e-04
      7.78730668e-04 4.68818378e-03 1.60673750e-03 -1.26579229e-03
      4.38463362e-03 -1.87979348e-03 2.58872984e-03 1.68224389e-04
      2.91101984e-04 7.79065420e-04 4.68793651e-03 2.06709211e-03
      -1.62644545e-03 5.63776633e-03 -2.41691270e-03 3.33101442e-03
      2.16314205e-04 3.73266696e-04 1.00132846e-03 6.02845615e-03
      3.92286992e-03 -7.55325472e-03 5.96674019e-03 -6.80644065e-04
      -2.32873019e-03 -3.11924703e-03 2.51883059e-03 4.45140619e-03
      6.05234411e-03 5.04328171e-03 -9.71120223e-03 7.67187355e-03
      -8.75071331e-04 -2.99258833e-03 -4.01045149e-03 3.23809870e-03
      5.72309690e-03 7.78115820e-03 5.04564494e-03 -9.71164275e-03
      7.67047564e-03 -8.75139143e-04 -2.99262884e-03 -4.01045196e-03
      3.23854247e-03 5.72325196e-03 7.78355217e-03 6.48673205e-03
      -1.24862352e-02 9.86248907e-03 -1.12512335e-03 -3.84574593e-03
      -5.15628327e-03 4.16332716e-03 7.35828700e-03 1.00068757e-02
      2.23653484e-03 -6.62190421e-03 3.02995043e-03 -4.48006624e-03
      6.12960057e-03 3.50280618e-03 1.35740591e-03 -5.26363775e-03
      1.59147114e-03 2.87456554e-03 -8.51384550e-03 3.89580848e-03
      -5.76009415e-03 7.88161438e-03 4.50358726e-03 1.74490595e-03
      -6.76765200e-03 2.04518833e-03 2.87655834e-03 -8.51518568e-03
      3.89474002e-03 -5.76125132e-03 7.88142066e-03 4.50361753e-03
      1.74555776e-03 -6.76742429e-03 2.04747799e-03 3.69717367e-03
      -1.09480564e-02 5.00772707e-03 -7.40733463e-03 1.01341559e-02
      5.79033839e-03 2.24386505e-03 -8.70112516e-03 2.63120024e-03
      -3.94615950e-03 -4.03722236e-03 -1.03812119e-04 7.04528880e-04
      3.39812459e-03 7.02284463e-03 4.84917592e-03 -2.44620256e-04
      -1.52105151e-03 -5.07277437e-03 -5.19060390e-03 -1.33300739e-04
      9.05823021e-04 4.36818134e-03 9.02936421e-03 6.23484142e-03
      -3.14469740e-04 -1.95479090e-03 -5.06993430e-03 -5.19027375e-03
      -1.33498150e-04 9.05836234e-04 4.36794711e-03 9.02937260e-03
      6.23323722e-03 -3.15839658e-04 -1.95413851e-03 -6.51738467e-03
      -6.67306781e-03 -1.71420106e-04 1.16464635e-03 5.61485579e-03
      1.16091846e-02 8.01440142e-03 -4.06025501e-04 -2.51137558e-03
      -5.19133871e-03 4.02987562e-03 1.33398985e-02 3.13398195e-03
      -2.82000029e-03 2.14670785e-04 -1.64783152e-03 -4.98058181e-03
      1.80431071e-03 -6.67504501e-03 5.18102851e-03 1.71506293e-02
      4.02948819e-03 -3.62528325e-03 2.75974220e-04 -2.11846712e-03
      -6.40354073e-03 2.31938250e-03 -6.67289738e-03 5.18070348e-03
      1.71507057e-02 4.02943557e-03 -3.62614659e-03 2.76006613e-04
      -2.11867387e-03 -6.40386110e-03 2.32174527e-03 -8.58003832e-03
      6.66059647e-03 2.20500454e-02 5.18081011e-03 -4.66163317e-03
      3.54826334e-04 -2.72378768e-03 -8.23345222e-03 2.98452820e-03
      -1.02091421e-04 4.47605830e-03 -3.04214587e-03 -2.72388780e-03
      1.14831550e-03 1.55199948e-03 2.53771408e-03 4.61128028e-03
      -1.68973370e-03 -1.30344895e-04 5.75530250e-03 -3.91108030e-03
      -3.50215961e-03 1.46481977e-03 1.99455628e-03 3.26269330e-03
      5.92877064e-03 -2.17165006e-03 -1.30157656e-04 5.75432740e-03
      -3.91239254e-03 -3.50220106e-03 1.47777516e-03 1.99543359e-03
      3.26219271e-03 5.92939230e-03 -2.17038556e-03 -1.66168582e-04
      7.39889825e-03 -5.02989953e-03 -4.50285431e-03 1.88510027e-03
      2.56443559e-03 4.19414323e-03 7.62348063e-03 -2.78938282e-03
      -4.36067395e-03 -1.74273492e-03 1.56607293e-03 -1.76184613e-03
      6.94853486e-03 3.03129549e-03 6.03348762e-03 1.85945677e-03
      -7.85106141e-03 -5.60609251e-03 -2.24097469e-03 2.01266096e-03
      -2.26524705e-03 8.93404055e-03 3.89737589e-03 7.75833940e-03
      2.39119888e-03 -1.00943353e-02 -5.61857270e-03 -2.24055885e-03
      2.01068749e-03 -2.26685335e-03 8.93350970e-03 3.89727228e-03
      7.75608234e-03 2.39031203e-03 -1.00975791e-02 -7.22325128e-03
      -2.88112392e-03 2.58406089e-03 -2.91454606e-03 1.14862109e-02
      5.01077343e-03 9.97339003e-03 3.07385973e-03 -1.29827466e-02
      -1.67811394e-03 1.27432612e-03 7.05378130e-03 5.55532926e-04
      1.48890645e-03 2.16559973e-03 -5.31024532e-03 1.64465618e-03
      -1.48376741e-03 -2.15678196e-03 1.63847976e-03 9.06935427e-03
      7.14305439e-04 1.91574893e-03 2.78459140e-03 -6.82756491e-03
      2.11452064e-03 -1.90690567e-03 -2.15547509e-03 1.63858931e-03
      9.06953402e-03 7.14251189e-04 1.91360340e-03 2.78273528e-03
      -6.82777027e-03 2.11436325e-03 -1.90560508e-03 -2.77030561e-03
      2.10683560e-03 1.16610937e-02 9.18386620e-04 2.46219872e-03
      3.57812247e-03 -8.77869874e-03 2.71842093e-03 -2.44903984e-03
      -4.20168974e-03 7.94805400e-03 1.28892995e-02 -3.33437673e-03
      -1.42341087e-04 -3.48228798e-03 -4.22041304e-03 3.69565771e-03
      -5.27832191e-04 -5.40243974e-03 1.02188280e-02 1.65716112e-02
      -4.28697933e-03 -1.83258511e-04 -4.47743386e-03 -5.42583829e-03
      4.75168740e-03 -6.78922108e-04 -5.39919315e-03 1.02189807e-02
      1.65720191e-02 -4.28705988e-03 -1.84285120e-04 -4.47722524e-03
      -5.42668300e-03 4.75023780e-03 -6.76117605e-04 -6.94216462e-03
      1.31385634e-02 2.13064365e-02 -5.51183568e-03 -2.37256929e-04
      -5.75669762e-03 -6.97664171e-03 6.10761344e-03 -8.69655691e-04
      -2.55500316e-03 -2.29127426e-03 8.92061740e-03 1.17791264e-04
      6.65270304e-03 -9.41594772e-04 3.16459290e-03 1.51806755e-03
      1.82966280e-04 -3.28466273e-03 -2.94595840e-03 1.14690838e-02
      1.52329696e-04 8.55373777e-03 -1.21331064e-03 4.06740885e-03
      1.95190927e-03 2.35604806e-04 -3.31364572e-03 -2.94582662e-03
      1.14695858e-02 1.51321306e-04 8.55392125e-03 -1.21061131e-03
      4.06852923e-03 1.95242907e-03 1.99178859e-04 -4.25996166e-03
      -3.78753594e-03 1.47462487e-02 1.95692526e-04 1.09982360e-02
      -1.55995740e-03 5.22922585e-03 2.51040491e-03 2.56553147e-04
      -5.67181641e-03 -1.12111156e-03 8.11726041e-03 1.42651005e-03
      3.27570946e-03 2.48842500e-03 -2.58647581e-03 3.32126766e-03
      -1.57659582e-03 -7.29110558e-03 -1.44142506e-03 1.04357703e-02
      1.83411560e-03 4.21156269e-03 3.19945603e-03 -3.32512148e-03
      4.26975079e-03 -2.02623382e-03 -7.29082432e-03 -1.44097267e-03
      1.04356818e-02 1.83404982e-03 4.21273801e-03 3.19898361e-03
      -3.32604395e-03 4.27026674e-03 -2.02547992e-03 -9.37233586e-03
      -1.85267406e-03 1.34163937e-02 2.35810480e-03 5.41629596e-03
      4.11304645e-03 -4.27589379e-03 5.48976380e-03 -2.60313670e-03
      5.40299015e-03 7.88911805e-03 1.46014318e-02 6.06438983e-03
      1.46973203e-03 -6.18872978e-03 -3.06707388e-03 -5.95338293e-04
      -2.41434854e-03 6.94675464e-03 1.01432055e-02 1.87736470e-02
      7.79749639e-03 1.89032010e-03 -7.95650855e-03 -3.94357415e-03
      -7.65545585e-04 -3.10413959e-03 6.94968738e-03 1.01431478e-02
      1.87732913e-02 7.79707497e-03 1.89024908e-03 -7.95695186e-03
      -3.94359324e-03 -7.65512406e-04 -3.10110976e-03 8.93538073e-03
      1.30412597e-02 2.41375733e-02 1.00253550e-02 2.43117544e-03
      -1.02298148e-02 -5.07058296e-03 -9.84372571e-04 -3.98711162e-03
      7.03791529e-03 4.74355370e-03 9.53851035e-04 4.19751415e-03
      6.76521473e-03 -2.82963098e-04 1.88404147e-03 -5.26039954e-03
      -3.59697128e-03 9.04902443e-03 6.09894469e-03 1.22693577e-03
      5.39724715e-03 8.69767647e-03 -3.63791391e-04 2.42153648e-03
      -6.76363753e-03 -4.62442031e-03 9.05011222e-03 6.09888509e-03
      1.22648140e-03 5.39680058e-03 8.69775005e-03 -3.63800471e-04
      2.42277212e-03 -6.76280353e-03 -4.62303497e-03 1.16362125e-02
      7.84153957e-03 1.57761888e-03 6.93931384e-03 1.11822346e-02
      -4.67718230e-04 3.11395968e-03 -8.69537704e-03 -5.94357168e-03
      -8.76638340e-04 1.50392076e-03 1.05667859e-02 3.92680429e-03
      1.08231241e-02 3.37515346e-04 -1.02273875e-03 -2.65481742e-03
      -6.29419461e-03 -1.12640101e-03 1.93351787e-03 1.35856103e-02
      5.04875323e-03 1.39139714e-02 4.33945912e-04 -1.31456135e-03
      -3.41321784e-03 -8.09183251e-03 -1.12582848e-03 1.93323230e-03
      1.35860378e-02 5.04862284e-03 1.39172468e-02 4.33940877e-04
      -1.31493527e-03 -3.41328746e-03 -8.09109025e-03 -1.44658657e-03
      2.48546363e-03 1.74674317e-02 6.49109250e-03 1.78917088e-02
      5.57920430e-04 -1.69013557e-03 -4.38835891e-03 -1.04019269e-02
      9.08485986e-03 7.13755097e-03 3.13166878e-03 5.16186282e-03
      5.87317999e-03 -1.04687577e-02 -3.59352166e-03 -4.00989316e-03
      8.71207856e-04 1.16797322e-02 9.17686429e-03 4.02647024e-03
      6.63667172e-03 7.55164353e-03 -1.34598045e-02 -4.62027639e-03
      -5.15534217e-03 1.11935521e-03 1.16842221e-02 9.17652808e-03
      4.02546860e-03 6.63666846e-03 7.55117880e-03 -1.34598752e-02
      -4.61929291e-03 -5.15575567e-03 1.12378516e-03 1.50215412e-02
      1.17984097e-02 5.17565291e-03 8.53284728e-03 9.70918965e-03
      -1.73055213e-02 -5.93913626e-03 -6.62852731e-03 1.44387782e-03
      -5.80751477e-03 1.33005984e-03 8.47276859e-03 2.33414443e-03
      1.10976491e-02 -5.46849240e-03 5.57562895e-03 3.22253723e-03
      5.37500426e-04 -7.46610714e-03 1.71023002e-03 1.08939903e-02
      3.00119282e-03 1.42646739e-02 -7.03090476e-03 7.16871535e-03
      4.14334936e-03 6.91994734e-04 -7.46537419e-03 1.70992559e-03
      1.08931484e-02 3.00104520e-03 1.42673505e-02 -7.03093037e-03
      7.16858217e-03 4.14274167e-03 6.91632973e-04 -9.59744025e-03
      2.19867262e-03 1.40060298e-02 3.85867944e-03 1.83389373e-02
      -9.03975032e-03 9.21681058e-03 5.32649457e-03 8.90428550e-04
      4.40575974e-03 5.52990893e-03 4.39219829e-03 -6.64272578e-04
      -1.30074762e-03 -1.38175290e-03 1.01826864e-03 -2.65117222e-03
      4.93025128e-03 5.66536328e-03 7.10993260e-03 5.64725697e-03
      -8.54064478e-04 -1.67152786e-03 -1.77652179e-03 1.30760518e-03
      -3.40921385e-03 6.33969717e-03 5.66484453e-03 7.10987300e-03
      5.64700039e-03 -8.54230020e-04 -1.67447585e-03 -1.77657115e-03
      1.31072442e-03 -3.40838591e-03 6.33914862e-03 7.28442194e-03
      9.14132968e-03 7.26061547e-03 -1.09829521e-03 -2.15178984e-03
      -2.28414033e-03 1.68316311e-03 -4.38293489e-03 8.15136638e-03
      -2.35743413e-04 5.38302632e-03 4.51875990e-03 2.90202315e-05
      1.19106416e-02 2.22422741e-03 -5.81308827e-03 -5.24935662e-04
      2.46249628e-03 -3.02594068e-04 6.92114932e-03 5.81016997e-03
      3.73077273e-05 1.53152039e-02 2.85975821e-03 -7.47386599e-03
      -6.74926385e-04 3.16654588e-03 -3.01127468e-04 6.92127505e-03
      5.81052247e-03 3.73193870e-05 1.53139345e-02 2.85972306e-03
      -7.47467019e-03 -6.75632386e-04 3.16792401e-03 -3.86514992e-04
      8.89893062e-03 7.47110276e-03 4.79768350e-05 1.96913015e-02
      3.67683475e-03 -9.61015653e-03 -8.68682342e-04 4.07366129e-03
      4.05566441e-03 1.99522544e-03 8.02841410e-03 2.16870126e-03
      -3.90308630e-03 -4.01387829e-03 8.60566087e-03 6.49593584e-03
      4.90710000e-03 5.21512795e-03 2.56511034e-03 1.03217019e-02
      2.78867991e-03 -5.01879305e-03 -5.16069867e-03 1.10639175e-02
      8.35175347e-03 6.30983710e-03 5.21678012e-03 2.56514992e-03
      1.03218341e-02 2.78833159e-03 -5.01709664e-03 -5.16070705e-03
      1.10637089e-02 8.35170038e-03 6.31149113e-03 6.70819124e-03
      3.29781999e-03 1.32702282e-02 3.58544686e-03 -6.45124773e-03
      -6.63519045e-03 1.42241195e-02 1.07376901e-02 8.11568368e-03
      3.64660309e-03 1.66732003e-03 3.32285510e-03 1.98138622e-03
      8.03591311e-03 -7.88672827e-04 8.28539953e-03 -2.61253188e-03
      2.02578073e-03 4.68838774e-03 2.14434555e-03 4.27420018e-03
      2.54754419e-03 1.03279697e-02 -1.01397512e-03 1.06524015e-02
      -3.35905678e-03 2.60447967e-03 4.68921382e-03 2.14382750e-03
      4.27328469e-03 2.54891580e-03 1.03325509e-02 -1.01401063e-03
      1.06513482e-02 -3.35942023e-03 2.60528806e-03 6.02885848e-03
      2.75718328e-03 5.49673801e-03 3.27723892e-03 1.32796708e-02
      -1.30368629e-03 1.36942612e-02 -4.31936467e-03 3.34953307e-03
      2.26723845e-03 -6.78307563e-03 5.80521952e-03 -1.38329156e-03
      -2.40737409e-03 2.13460787e-03 2.27228925e-03 3.67741217e-04
      6.67139306e-04 2.91576423e-03 -8.72105081e-03 7.46399863e-03
      -1.77855114e-03 -3.09385522e-03 2.74450448e-03 2.92157568e-03
      4.72839980e-04 8.58502812e-04 2.91547715e-03 -8.72087013e-03
      7.46448291e-03 -1.77851331e-03 -3.09517304e-03 2.74448097e-03
      2.92095030e-03 4.72621730e-04 8.58205487e-04 3.74942785e-03
      -1.12124877e-02 9.59737692e-03 -2.28670216e-03 -3.97778628e-03
      3.52862896e-03 3.75558552e-03 6.07695605e-04 1.10437488e-03
      1.45976420e-03 -1.03858428e-03 4.16746642e-03 -4.31708572e-03
      5.02149807e-03 6.74931216e-04 1.80842017e-03 1.67748157e-03
      1.95546891e-03 1.87662244e-03 -1.33576442e-03 5.35677979e-03
      -5.55053214e-03 6.45884685e-03 8.67765397e-04 2.32533272e-03
      2.15683854e-03 2.51395721e-03 1.87605666e-03 -1.33582740e-03
      5.35718678e-03 -5.55114681e-03 6.45763567e-03 8.67769471e-04
      2.32490734e-03 2.15669279e-03 2.51344801e-03 2.41179299e-03
      -1.71806035e-03 6.88602170e-03 -7.13718031e-03 8.30606278e-03
      1.11569988e-03 2.98945094e-03 2.77298852e-03 3.23129655e-03
      2.56960932e-03 -4.32637404e-04 1.30714627e-03 -2.03058356e-03
      6.39915932e-04 3.62723810e-03 2.92912521e-03 1.45450525e-03
      7.97637645e-03 3.30426451e-03 -5.54792641e-04 1.67973083e-03
      -2.61158682e-03 8.18711240e-04 4.66359174e-03 3.76815884e-03
      1.87079189e-03 1.02556106e-02 3.30151245e-03 -5.55909064e-04
      1.68161467e-03 -2.61075865e-03 8.23408889e-04 4.66321874e-03
      3.76406987e-03 1.86888431e-03 1.02521963e-02 4.24542045e-03
      -7.12869514e-04 2.16093496e-03 -3.35776410e-03 1.05347880e-03
      5.99556696e-03 4.84227110e-03 2.40376871e-03 1.31817413e-02
      -4.35216026e-03 -4.92001465e-03 4.72846674e-03 -9.70480207e-04
      4.73213941e-03 1.89539249e-04 3.77693237e-03 3.66451940e-03
      3.34040867e-03 -5.59638208e-03 -6.32599182e-03 6.07938133e-03
      -1.24721939e-03 6.08182885e-03 2.43714589e-04 4.85529238e-03
      4.71128942e-03 4.29419475e-03 -5.60403382e-03 -6.32604165e-03
      6.08011894e-03 -1.24775223e-03 6.08469918e-03 2.43693619e-04
      4.85611800e-03 4.71153995e-03 4.28711204e-03 -7.20614800e-03
      -8.13381560e-03 7.81719852e-03 -1.60355784e-03 7.82016385e-03
      3.13348282e-04 6.24259887e-03 6.05739141e-03 5.51120844e-03
      -2.60385987e-03 -6.32748008e-03 4.12690453e-03 1.37775671e-03
      2.20283167e-03 3.59189580e-03 8.38093366e-03 3.63116292e-03
      -1.98298553e-03 -3.34765529e-03 -8.13548453e-03 5.30584017e-03
      1.77140313e-03 2.83337967e-03 4.61816462e-03 1.07756536e-02
      4.66867862e-03 -2.54938076e-03 -3.34761711e-03 -8.13541748e-03
      5.30571863e-03 1.77137565e-03 2.83313682e-03 4.61813761e-03
      1.07755503e-02 4.66876570e-03 -2.54936959e-03 -4.30386839e-03
      -1.04600191e-02 6.82140654e-03 2.27748579e-03 3.64410761e-03
      5.93762193e-03 1.38544925e-02 6.00275071e-03 -3.27753951e-03
      -5.53422421e-03 7.26927724e-03 -5.35713416e-03 -6.79463102e-03
      7.79167330e-03 5.16427495e-03 4.23041917e-03 2.23771180e-03
      -3.75703629e-03 -7.11531052e-03 9.34621319e-03 -6.88780379e-03
      -8.73596687e-03 1.00175962e-02 6.63977675e-03 5.43920789e-03
      2.87709781e-03 -4.83036600e-03 -7.11526303e-03 9.34624486e-03
      -6.88771438e-03 -8.73597991e-03 1.00176409e-02 6.63976930e-03
      5.43873245e-03 2.87691527e-03 -4.83040232e-03 -9.14804265e-03
      1.20166000e-02 -8.85570981e-03 -1.12319905e-02 1.28794778e-02
      8.53683986e-03 6.99278060e-03 3.69894295e-03 -6.21037697e-03
      -1.70615385e-03 3.80982785e-03 6.60743937e-03 -2.89117778e-03
      -2.56500952e-03 -6.04751147e-03 6.23093452e-03 3.08969198e-03
      -5.12153236e-03 -2.19381927e-03 4.89829667e-03 8.49507563e-03
      -3.71733960e-03 -3.29630845e-03 -7.77567131e-03 8.01088940e-03
      3.97271430e-03 -6.58490555e-03 -2.19295360e-03 4.89799306e-03
      8.49451218e-03 -3.71726602e-03 -3.29792639e-03 -7.77551392e-03
      8.01092200e-03 3.97243584e-03 -6.58432581e-03 -2.81976070e-03
      6.29734993e-03 1.09212548e-02 -4.77948459e-03 -4.23818501e-03
      -9.99747403e-03 1.02993557e-02 5.10774273e-03 -8.46566353e-03
      -4.26852191e-03 -1.18311169e-03 4.94965259e-03 1.22103680e-04
      9.05022607e-04 6.20578602e-03 9.00785998e-03 8.32218619e-04
      -1.38964783e-03 -5.48810977e-03 -1.52126700e-03 6.36435905e-03
      1.57674920e-04 1.16409280e-03 7.97884166e-03 1.15826540e-02
      1.07017753e-03 -1.78637239e-03 -5.48913563e-03 -1.52112416e-03
      6.36393111e-03 1.56988113e-04 1.16348383e-03 7.97886308e-03
      1.15820589e-02 1.06980046e-03 -1.78777147e-03 -7.05747260e-03
      -1.95588940e-03 8.18286557e-03 2.02722600e-04 1.49654283e-03
      1.02585061e-02 1.48926564e-02 1.37569243e-03 -2.29815580e-03
      -4.01781779e-03 1.53328420e-03 -2.41512549e-04 3.39115533e-04
      2.24572723e-03 4.70574899e-03 -8.95254707e-05 5.09409758e-04
      3.57289973e-04 -5.16577158e-03 1.97151955e-03 -3.10115545e-04
      4.36979928e-04 2.88819196e-03 6.05092011e-03 -1.13275011e-04
      6.54810283e-04 4.57967253e-04 -5.18015912e-03 1.97196589e-03
      -3.10055300e-04 4.36026196e-04 2.88896146e-03 6.04898622e-03
      -1.15531788e-04 6.54828909e-04 4.44854551e-04 -6.66021323e-03
      2.53558345e-03 -3.98127158e-04 5.61858236e-04 3.71544412e-03
      7.77813001e-03 -1.46188497e-04 8.41734756e-04 5.70148521e-04
      -5.31582511e-04 8.61697737e-03 3.00837937e-03 -6.03940047e-04
      7.56484410e-03 1.62865105e-03 2.65303627e-03 -5.69458469e-04
      3.45000270e-04 -6.83371385e-04 1.10791773e-02 3.86878080e-03
      -7.75994151e-04 9.72820912e-03 2.09402200e-03 3.41244927e-03
      -7.34324160e-04 4.43611469e-04 -7.01519079e-04 1.10788709e-02
      3.86741245e-03 -7.75761611e-04 9.72623378e-03 2.09397217e-03
      3.41169117e-03 -7.32386485e-04 4.25393751e-04 -9.01836145e-04
      1.42445294e-02 4.97349817e-03 -9.96764516e-04 1.25077050e-02
      2.69230315e-03 4.38826345e-03 -9.44420986e-04 5.46986819e-04
      1.64908182e-03 7.58719817e-03 7.39390682e-03 2.52453657e-03
      -3.36973276e-03 2.09558313e-03 3.98776494e-03 -1.42988644e-03
      3.32573941e-03 2.12005503e-03 9.75490268e-03 9.50627774e-03
      3.24585079e-03 -4.33228863e-03 2.69430364e-03 5.12715010e-03
      -1.83839211e-03 4.27575922e-03 2.11769133e-03 9.75506939e-03
      9.50668193e-03 3.24584777e-03 -4.33272030e-03 2.69432273e-03
      5.12664579e-03 -1.83855835e-03 4.27340204e-03 2.72250012e-03
      1.25421472e-02 1.22226514e-02 4.17325599e-03 -5.57035115e-03
      3.46410717e-03 6.59143319e-03 -2.36381730e-03 5.49412705e-03
      -2.53990944e-03 1.12446235e-03 4.10150364e-03 3.89788486e-03
      2.16631289e-03 1.92488439e-03 6.25682715e-03 3.88122862e-03
      3.83841136e-04 -3.26575339e-03 1.44581683e-03 5.27360104e-03
      5.01163304e-03 2.78650038e-03 2.47468683e-03 8.04411434e-03
      4.99013299e-03 4.93478263e-04 -3.26502812e-03 1.44581066e-03
      5.27346600e-03 5.01126330e-03 2.78466102e-03 2.47428683e-03
      8.04372039e-03 4.99037234e-03 4.94261214e-04 -4.19809297e-03
      1.85900147e-03 6.78047724e-03 6.44313870e-03 3.58187617e-03
      3.18101421e-03 1.03414403e-02 6.41617039e-03 6.35437435e-04
      6.15255209e-03 2.78414763e-03 1.07154353e-02 7.07810652e-03
      -2.34451005e-03 -1.01916371e-02 1.90643908e-03 -6.14268822e-04
      5.85537497e-03 7.91024603e-03 3.57963005e-03 1.37770381e-02
      9.10042971e-03 -3.01110907e-03 -1.31037869e-02 2.45206361e-03
      -7.89402635e-04 7.52812391e-03 7.90898595e-03 3.57997767e-03
      1.37773212e-02 9.10041481e-03 -3.01395403e-03 -1.31035550e-02
      2.44907383e-03 -7.90578255e-04 7.52672832e-03 1.01684667e-02
      4.60284436e-03 1.77137628e-02 1.17005426e-02 -3.87089187e-03
      -1.68477539e-02 3.14999977e-03 -1.01598143e-03 9.67694353e-03
      1.14688207e-03 4.63492144e-03 7.76503608e-03 4.31341771e-03
      6.22857222e-03 3.86717357e-03 -1.61375944e-03 3.90049163e-03
      -3.73243005e-03 1.47442985e-03 5.95935667e-03 9.98415239e-03
      5.54583967e-03 8.00782908e-03 4.97231027e-03 -2.07440043e-03
      5.01501234e-03 -4.79893573e-03 1.49568333e-03 5.95921790e-03
      9.98421758e-03 5.54581685e-03 8.00829660e-03 4.97208815e-03
      -2.07516924e-03 5.01448056e-03 -4.78120241e-03 1.92285131e-03
      7.66207324e-03 1.28375394e-02 7.13035790e-03 1.02959517e-02
      6.39298139e-03 -2.66751833e-03 6.44731103e-03 -6.14738418e-03
      6.49214489e-03 1.83629990e-03 3.53276567e-03 -4.36965813e-04
      6.68486953e-03 -1.25110534e-03 7.11834338e-03 2.47234479e-03
      1.52623703e-04 8.34629592e-03 2.36105383e-03 4.54239221e-03
      -5.61814057e-04 8.59343447e-03 -1.60866231e-03 9.15301032e-03
      3.17908102e-03 1.95527638e-04 8.31966475e-03 2.36221775e-03
      4.54243179e-03 -5.61800029e-04 8.59563239e-03 -1.60857989e-03
      9.15187038e-03 3.17909080e-03 1.70239015e-04 1.06957499e-02
      3.03726201e-03 5.84060932e-03 -7.22315279e-04 1.10497316e-02
      -2.06830213e-03 1.17677879e-02 4.08785511e-03 2.17975175e-04
      -1.60674367e-03 -2.71504698e-03 6.93613803e-03 3.17331760e-05
      4.39002970e-03 -2.04995787e-03 3.28474026e-03 6.03963854e-04
      -7.30875239e-04 -2.06582225e-03 -3.49097839e-03 8.91740527e-03
      4.08134474e-05 5.64370118e-03 -2.63566081e-03 4.22315393e-03
      7.76484667e-04 -9.39696503e-04 -2.08305498e-03 -3.49102006e-03
      8.91718734e-03 4.07986990e-05 5.64467255e-03 -2.63539120e-03
      4.22385009e-03 7.76110857e-04 -9.57142736e-04 -2.67822435e-03
      -4.48871544e-03 1.14643294e-02 5.24734605e-05 7.25663593e-03
      -3.38836131e-03 5.43055683e-03 9.97805852e-04 -1.23061228e-03
      2.59463512e-03 5.05871931e-03 4.43342980e-03 3.80759197e-03
      -8.64643429e-04 -6.57666428e-03 1.87142973e-03 7.90350884e-03
      -3.77333025e-03 3.33590014e-03 6.50375104e-03 5.69950091e-03
      4.89549292e-03 -1.10636128e-03 -8.45568068e-03 2.40531936e-03
      1.01612397e-02 -4.85144602e-03 3.35664116e-03 6.50212774e-03
      5.69891883e-03 4.89546405e-03 -1.11082511e-03 -8.45571980e-03
      2.40642903e-03 1.01632224e-02 -4.83004237e-03 4.31560492e-03
      8.35947040e-03 7.32638035e-03 6.29419042e-03 -1.42135995e-03
      -1.08715985e-02 3.09294672e-03 1.30664678e-02 -6.21008268e-03
      5.71313547e-03 2.54960917e-03 2.41777254e-03 1.14872877e-03
      6.20906660e-03 -7.02333171e-03 3.87807726e-03 2.87182513e-03
      4.34908317e-03 7.34585430e-03 3.27899517e-03 3.10857268e-03
      1.47693569e-03 7.98412878e-03 -9.02999099e-03 4.98666381e-03
      3.69250798e-03 5.59184933e-03 7.34180305e-03 3.27790319e-03
      3.10814125e-03 1.47694512e-03 7.98436161e-03 -9.02999006e-03
      4.98533715e-03 3.69129144e-03 5.58756990e-03 9.43996664e-03
      4.21563862e-03 3.99619155e-03 1.89892750e-03 1.02669504e-02
      -1.16099799e-02 6.41044416e-03 4.74615488e-03 7.18423771e-03
      2.31300178e-03 1.72526890e-03 5.02611324e-03 7.27065199e-04
      -8.21160153e-03 -7.57619913e-04 6.78339694e-03 4.16175369e-03
      2.53969291e-03 2.97442381e-03 2.21793680e-03 6.46218052e-03
      9.34790587e-04 -1.05567230e-02 -9.74117545e-04 8.72085150e-03
      5.35065448e-03 3.26593709e-03 2.97246967e-03 2.21811631e-03
      6.46190345e-03 9.34801821e-04 -1.05557274e-02 -9.73561837e-04
      8.72147735e-03 5.35008870e-03 3.26382369e-03 3.82247381e-03
      2.85152183e-03 8.30820855e-03 1.20187900e-03 -1.35703003e-02
      -1.25176669e-03 1.12124793e-02 6.87846541e-03 4.19713836e-03
      5.98044740e-03 5.50954416e-03 7.15454202e-03 1.43782096e-03
      -2.71101389e-03 -2.29427218e-03 5.68492571e-03 -3.88148124e-04
      3.94428149e-03 7.68875098e-03 7.08384207e-03 9.19913035e-03
      1.84864504e-03 -3.48774367e-03 -2.94973026e-03 7.30969897e-03
      -4.98868292e-04 5.07082418e-03 7.68957566e-03 7.08353380e-03
      9.19813477e-03 1.84862665e-03 -3.48564447e-03 -2.94977939e-03
      7.30964495e-03 -4.99536574e-04 5.07145422e-03 9.88608785e-03
      9.10758320e-03 1.18267313e-02 2.37682788e-03 -4.48431214e-03
      -3.79251153e-03 9.39876866e-03 -6.42030733e-04 6.51993370e-03
      -2.42073322e-03 2.39416282e-03 6.93468237e-03 2.64942669e-03
      -3.16653773e-03 5.20281773e-03 1.41344210e-02 1.64950930e-03
      -2.72412761e-03 -3.11241206e-03 3.07817874e-03 8.91611353e-03
      3.40779684e-03 -4.07103822e-03 6.68932730e-03 1.81728192e-02
      2.12081685e-03 -3.50248045e-03 -3.11245676e-03 3.07867071e-03
      8.91576521e-03 3.40639078e-03 -4.07139538e-03 6.68933848e-03
      1.81729496e-02 2.12036027e-03 -3.50273238e-03 -4.00178321e-03
      3.95825179e-03 1.14632444e-02 4.38143359e-03 -5.23436163e-03
      8.60056560e-03 2.33652107e-02 2.72620120e-03 -4.50355327e-03
      3.15898354e-03 5.04543027e-03 1.47656200e-03 -2.34240506e-04
      2.50676787e-03 -2.44111303e-04 5.16007328e-03 -8.53053702e-04
      -2.60308059e-03 4.06094501e-03 6.48707896e-03 1.89878582e-03
      -3.01140710e-04 3.22319265e-03 -3.13842058e-04 6.63363235e-03
      -1.09703711e-03 -3.34741455e-03 4.06152708e-03 6.48695324e-03
      1.89829874e-03 -3.01159424e-04 3.22386413e-03 -3.13888566e-04
      6.63393550e-03 -1.09696714e-03 -3.34686763e-03 5.22118527e-03
      8.34049378e-03 2.44111940e-03 -3.87172302e-04 4.14523156e-03
      -4.03552171e-04 8.52838252e-03 -1.41071284e-03 -4.30388097e-03
      -2.74376851e-03 -3.07790632e-03 -1.64347090e-04 6.11038238e-04
      3.33134434e-03 2.19072658e-03 5.57345524e-03 1.55720592e-03
      -2.12343480e-03 -3.52773420e-03 -3.95715144e-03 -2.11035891e-04
      7.85652141e-04 4.28339327e-03 2.81661539e-03 7.16507155e-03
      2.00186227e-03 -2.73016118e-03 -3.52525502e-03 -3.95680824e-03
      -2.11204300e-04 7.85642478e-04 4.28420119e-03 2.81664426e-03
      7.16617797e-03 2.00254447e-03 -2.72772787e-03 -4.53251181e-03
      -5.08712325e-03 -2.71205965e-04 1.01015205e-03 5.50856162e-03
      3.62135679e-03 9.21262987e-03 2.57436675e-03 -3.50711960e-03
      4.41352255e-04 -5.57369879e-03 -4.98669688e-03 -4.49876870e-06
      8.81027989e-03 2.76731257e-03 7.24129006e-03 2.84388917e-03
      1.60419836e-03 5.67909738e-04 -7.16619520e-03 -6.41134987e-03
      -5.90236323e-06 1.13279708e-02 3.55796819e-03 9.31022223e-03
      3.65590537e-03 2.06288556e-03 5.68877149e-04 -7.16603966e-03
      -6.41159434e-03 -5.82636312e-06 1.13288518e-02 3.55798122e-03
      9.31048580e-03 3.65653611e-03 2.06375145e-03 7.32001208e-04
      -9.21349414e-03 -8.24332703e-03 -7.64288052e-06 1.45662678e-02
      4.57454100e-03 1.19706141e-02 4.70058760e-03 2.65383790e-03
      2.69067893e-03 3.90576618e-03 -2.59374874e-03 -1.51060720e-03
      4.35911259e-03 -6.01621764e-03 4.34590224e-03 2.36371161e-05
      3.28484969e-03 3.45991249e-03 5.02157537e-03 -3.33481887e-03
      -1.94234459e-03 5.60665550e-03 -7.73516297e-03 5.58598666e-03
      2.97992501e-05 4.22365405e-03 3.46101169e-03 5.02227060e-03
      -3.33459070e-03 -1.94169150e-03 5.60521754e-03 -7.73510383e-03
      5.58897248e-03 3.09474890e-05 4.22487361e-03 4.45047440e-03
      6.45704567e-03 -4.28732764e-03 -2.49663368e-03 7.20938575e-03
      -9.94516723e-03 7.18376273e-03 3.90287132e-05 5.43233473e-03
      -2.28547538e-03 -6.49052090e-04 3.69615969e-03 4.97955170e-06
      3.36961495e-03 1.31410931e-03 -1.68451562e-03 3.74834356e-03
      -4.09218192e-04 -2.93817488e-03 -8.34551291e-04 4.75201150e-03
      6.39361724e-06 4.33205348e-03 1.68910366e-03 -2.16448167e-03
      4.81971866e-03 -5.25874202e-04 -2.93739233e-03 -8.33621714e-04
      4.75256331e-03 6.42424175e-06 4.33283765e-03 1.68955419e-03
      -2.16664653e-03 4.81870398e-03 -5.26078511e-04 -3.77626950e-03
      -1.07187126e-03 6.11018995e-03 8.24873587e-06 5.57039259e-03
      2.17168522e-03 -2.78398464e-03 6.19601598e-03 -6.76048396e-04
      -2.43857177e-03 1.31239207e-03 2.63528130e-03 -1.72182091e-03
      5.93949016e-03 1.36489677e-03 3.15249572e-03 6.40258053e-03
      -1.84910477e-03 -3.13606020e-03 1.68728409e-03 3.38794431e-03
      -2.21383059e-03 7.63762137e-03 1.75500999e-03 4.05313307e-03
      8.23182613e-03 -2.37817760e-03 -3.13353259e-03 1.68693194e-03
      3.38748447e-03 -2.21364899e-03 7.63628818e-03 1.75485492e-03
      4.05344879e-03 8.23201798e-03 -2.37615779e-03 -4.02979692e-03
      2.16881372e-03 4.35498497e-03 -2.84619885e-03 9.81954392e-03
      2.25642510e-03 5.21147903e-03 1.05839409e-02 -3.05603328e-03
      -6.41371706e-04 3.88879818e-03 4.23247833e-03 -3.68392095e-03
      3.22872051e-03 1.06832199e-03 5.42804226e-03 1.46037270e-03
      -4.45266534e-03 -8.23950570e-04 4.99976100e-03 5.44151152e-03
      -4.73646400e-03 4.15238086e-03 1.37362164e-03 6.97907712e-03
      1.87770324e-03 -5.72422985e-03 -8.22907954e-04 5.00049628e-03
      5.44178439e-03 -4.73621301e-03 4.15110635e-03 1.37352291e-03
      6.97863242e-03 1.87750289e-03 -5.72318677e-03 -1.05716405e-03
      6.42905338e-03 6.99626561e-03 -6.08941028e-03 5.33864042e-03
      1.76604162e-03 8.97274166e-03 2.41403654e-03 -7.35757872e-03
      -2.59120809e-03 7.34451925e-03 9.30262962e-04 1.49490568e-03
      5.29874861e-03 2.00951775e-03 8.89239076e-04 -1.67160365e-03
      -1.31904893e-03 -3.33153317e-03 9.44300368e-03 1.19606848e-03
      1.92199927e-03 6.81394991e-03 2.58331350e-03 1.14292570e-03
      -2.14932370e-03 -1.69592316e-03 -3.32999066e-03 9.44294967e-03
      1.19606219e-03 1.92204746e-03 6.81263953e-03 2.58366996e-03
      1.14330009e-03 -2.14921287e-03 -1.69433351e-03 -4.28139092e-03
      1.21409986e-02 1.53781334e-03 2.47117598e-03 8.76074377e-03
      3.32140853e-03 1.46946684e-03 -2.76342686e-03 -2.17843242e-03
      -6.65604649e-03 6.14974834e-03 8.62049963e-03 1.24978973e-03
      8.80583946e-04 5.03079675e-04 -5.78023400e-03 2.84689828e-03
      -3.70435161e-03 -8.55799392e-03 7.90399965e-03 1.10851126e-02
      1.60849083e-03 1.13186310e-03 6.46775996e-04 -7.43159885e-03
      3.66035616e-03 -4.76301322e-03 -8.55367444e-03 7.90764671e-03
      1.10837305e-02 1.60504691e-03 1.13358325e-03 6.46818022e-04
      -7.43181864e-03 3.66000226e-03 -4.76278504e-03 -1.09978644e-02
      1.01633510e-02 1.42525826e-02 2.06571305e-03 1.45705882e-03
      8.31570651e-04 -9.55502875e-03 4.70579183e-03 -6.12393487e-03
      -3.08504119e-03 5.17699914e-03 6.45539584e-03 6.28164876e-03
      7.05606444e-03 -4.95515391e-03 -4.13907273e-03 -2.96600774e-04
      -1.01357931e-03 -3.96634126e-03 6.65612845e-03 8.29984620e-03
      8.07653274e-03 9.07350797e-03 -6.37127785e-03 -5.32096438e-03
      -3.82707629e-04 -1.30333984e-03 -3.96493776e-03 6.65604090e-03
      8.29936285e-03 8.07641167e-03 9.07135289e-03 -6.37094490e-03
      -5.32183191e-03 -3.80036683e-04 -1.29973097e-03 -5.09759691e-03
      8.55774991e-03 1.06706778e-02 1.03841210e-02 1.16650006e-02
      -8.19168612e-03 -6.84145372e-03 -4.90371720e-04 -1.67129701e-03
      -1.90451357e-03 1.28404517e-03 6.79712556e-03 4.99134418e-03
      3.32596386e-03 2.22812430e-03 6.79780403e-03 8.90862383e-03
      -7.86842220e-03 -2.44794972e-03 1.65068742e-03 8.73883720e-03
      6.41804608e-03 4.28098999e-03 2.86481855e-03 8.73981323e-03
      1.14538949e-02 -1.01157334e-02 -2.44707032e-03 1.65290304e-03
      8.73904023e-03 6.41746307e-03 4.27582068e-03 2.86470773e-03
      8.73958599e-03 1.14527075e-02 -1.01156132e-02 -3.14531941e-03
      2.12486880e-03 1.12354923e-02 8.25180020e-03 5.50359208e-03
      3.68330791e-03 1.12363268e-02 1.47248451e-02 -1.30047463e-02
      -1.60028489e-04 2.38674344e-03 6.19803974e-03 1.84115709e-03
      -1.53391575e-03 2.41119089e-03 4.70591942e-03 5.90691436e-03
      -3.43681173e-03 -2.05545744e-04 3.06858728e-03 7.96867441e-03
      2.36717262e-03 -1.97300990e-03 3.09962220e-03 6.04968937e-03
      7.59416306e-03 -4.41861292e-03 -2.05142671e-04 3.06871650e-03
      7.96880294e-03 2.36724201e-03 -1.97173562e-03 3.10011534e-03
      6.04928937e-03 7.59438286e-03 -4.41671349e-03 -2.63490307e-04
      3.94538697e-03 1.02453018e-02 3.04355868e-03 -2.53615924e-03
      3.98524618e-03 7.77665712e-03 9.76364035e-03 -5.67844743e-03
      -7.10856589e-03 5.02132718e-03 8.95768963e-03 4.99505131e-03
      1.16152654e-03 1.17606041e-03 3.46038467e-03 6.33122167e-03
      1.87765912e-03 -9.13998578e-03 6.45655999e-03 1.15176635e-02
      6.42007962e-03 1.49552687e-03 1.51202665e-03 4.44966927e-03
      8.14033579e-03 2.41376669e-03 -9.13994946e-03 6.45526173e-03
      1.15148267e-02 6.42219372e-03 1.49509707e-03 1.51209626e-03
      4.44710767e-03 8.13962519e-03 2.41379719e-03 -1.17518799e-02
      8.30035191e-03 1.48055926e-02 8.25436786e-03 1.92501349e-03
      1.94405846e-03 5.71848545e-03 1.04654813e-02 3.10298195e-03
      2.80329213e-03 5.76458639e-03 9.85615049e-03 1.41431426e-03
      1.62938435e-04 -1.18223834e-03 6.77919760e-03 4.72752610e-03
      -5.30968700e-03 3.60376458e-03 7.41155865e-03 1.26720006e-02
      1.81838591e-03 2.08973535e-04 -1.52017933e-03 8.71584192e-03
      6.07814128e-03 -6.82722218e-03 3.59933008e-03 7.41145387e-03
      1.26718367e-02 1.81863515e-03 2.08457845e-04 -1.51998026e-03
      8.71699397e-03 6.07853150e-03 -6.83156122e-03 4.62710857e-03
      9.52894520e-03 1.62921119e-02 2.33822246e-03 2.67351017e-04
      -1.95446261e-03 1.12072164e-02 7.81511609e-03 -8.78405385e-03
      2.42782244e-03 -1.34023212e-04 8.98609962e-03 3.68223735e-03
      6.83009066e-03 6.52184710e-03 -2.61881901e-03 -1.41566235e-03
      -5.55095146e-04 3.12187290e-03 -1.72571119e-04 1.15527520e-02
      4.73421020e-03 8.78159609e-03 8.38611554e-03 -3.36669595e-03
      -1.82017707e-03 -7.13281624e-04 3.12300096e-03 -1.71983440e-04
      1.15525806e-02 4.73429402e-03 8.78087897e-03 8.38524289e-03
      -3.36700981e-03 -1.82005507e-03 -7.12264504e-04 4.01578471e-03
      -2.21450682e-04 1.48522826e-02 6.08682772e-03 1.12897670e-02
      1.07821636e-02 -4.32855496e-03 -2.34012306e-03 -9.15238285e-04
      4.82295873e-03 1.02556311e-03 6.81446679e-03 6.25347905e-03
      1.37350091e-03 -3.58748855e-03 1.51193968e-03 4.55502560e-03
      2.80108303e-03 6.20053848e-03 1.31841318e-03 8.76105856e-03
      8.04019440e-03 1.76519633e-03 -4.61250404e-03 1.94385613e-03
      5.85659547e-03 3.60098621e-03 6.19968725e-03 1.31795474e-03
      8.76129791e-03 8.04018974e-03 1.76562474e-03 -4.61248495e-03
      1.94389920e-03 5.85648790e-03 3.60225257e-03 7.97050167e-03
      1.69429753e-03 1.12640113e-02 1.03373965e-02 2.26914696e-03
      -5.93036134e-03 2.49921461e-03 7.52994278e-03 4.63094423e-03
      3.22074769e-03 3.52822570e-03 7.83328898e-03 1.67840603e-03
      -1.17504946e-03 -1.26086432e-03 3.34142288e-03 -2.52170605e-04
      3.58981686e-03 4.14102850e-03 4.53621289e-03 1.00711929e-02
      2.15796614e-03 -1.50997250e-03 -1.62113144e-03 4.29634098e-03
      -3.24173539e-04 4.61555831e-03 4.14106855e-03 4.53694491e-03
      1.00719053e-02 2.15793657e-03 -1.51104375e-03 -1.62108906e-03
      4.29560384e-03 -3.24382534e-04 4.61560721e-03 5.32431668e-03
      5.83311636e-03 1.29493633e-02 2.77450960e-03 -1.94173446e-03
      -2.08428269e-03 5.52321039e-03 -4.17004514e-04 5.93445357e-03
      -3.34149320e-03 3.37997009e-03 7.54784653e-03 -1.04231789e-04
      9.92613286e-03 -5.26571239e-04 3.00758344e-04 -1.90236385e-03
      -5.10088308e-03 -4.29680431e-03 4.34552319e-03 9.70392488e-03
      -1.34025788e-04 1.27643906e-02 -6.76989672e-04 3.86859552e-04
      -2.44580116e-03 -6.55887881e-03 -4.29579942e-03 4.34576627e-03
      9.70461313e-03 -1.34015267e-04 1.27608180e-02 -6.77052652e-04
      3.85849678e-04 -2.44560139e-03 -6.55616866e-03 -5.52394008e-03
      5.58721647e-03 1.24767832e-02 -1.72322529e-04 1.64096225e-02
      -8.70456977e-04 4.96310415e-04 -3.14422231e-03 -8.43012985e-03
      5.38693648e-03 1.69620977e-03 3.57328472e-03 4.48046206e-03
      3.36936116e-03 -2.36835866e-03 -5.15900902e-04 1.30605395e-03
      1.80281035e-03 6.92598382e-03 2.18114234e-03 4.59511857e-03
      5.75882662e-03 4.32222709e-03 -3.04502062e-03 -6.65836968e-04
      1.67833897e-03 2.31782417e-03 6.92657800e-03 2.18042219e-03
      4.59361216e-03 5.76059520e-03 4.33386909e-03 -3.04502784e-03
      -6.62709877e-04 1.67957461e-03 2.31964188e-03 8.90550204e-03
      2.80378759e-03 5.90722170e-03 7.40420679e-03 5.55950636e-03
      -3.91502026e-03 -8.55316699e-04 2.15832889e-03 2.98230117e-03
      1.66125759e-03 1.61184091e-03 5.85887348e-03 1.46491523e-03
      8.32719845e-04 2.00910654e-04 1.36076193e-03 5.11044695e-04
      2.16011261e-03 2.13559670e-03 2.07243557e-03 7.53290951e-03
      1.88327371e-03 1.07180851e-03 2.58701592e-04 1.74982427e-03
      6.58028119e-04 2.77717062e-03 2.13662605e-03 2.07219901e-03
      7.53294770e-03 1.88346941e-03 1.07062084e-03 2.58296001e-04
      1.74879597e-03 6.55419077e-04 2.77803233e-03 2.74669705e-03
      2.66434462e-03 9.68530960e-03 2.42136000e-03 1.37801445e-03
      3.32594354e-04 2.24880106e-03 8.43930931e-04 3.57160438e-03
      8.45759758e-04 -1.81002438e-03 4.35974868e-03 3.39183229e-04
      1.02639664e-02 1.65935338e-03 -1.68717036e-03 -2.47383490e-04
      -7.86290257e-05 1.08721596e-03 -2.32806103e-03 5.60460566e-03
      4.36091883e-04 1.31995454e-02 2.13345117e-03 -2.16884399e-03
      -3.17981816e-04 -1.01179125e-04 1.08707999e-03 -2.32757605e-03
      5.60423080e-03 4.36086586e-04 1.31962430e-02 2.13335757e-03
      -2.16836389e-03 -3.17779370e-04 -1.01421785e-04 1.39743031e-03
      -2.99373688e-03 7.20442971e-03 5.60682325e-04 1.69704780e-02
      2.74288398e-03 -2.78741308e-03 -4.08467022e-04 -1.30508226e-04
      2.25174893e-03 3.03532882e-03 -1.82376814e-03 -1.31209940e-03
      5.34003507e-03 8.60155444e-04 3.66901048e-03 2.21579964e-03
      4.59667557e-04 2.89592100e-03 3.90262878e-03 -2.34465790e-03
      -1.68693857e-03 6.86495053e-03 1.10556686e-03 4.71726153e-03
      2.84883566e-03 5.91806311e-04 2.89409631e-03 3.90289119e-03
      -2.34388770e-03 -1.68697233e-03 6.86567929e-03 1.10586651e-03
      4.71633021e-03 2.84903357e-03 5.90090698e-04 3.72202927e-03
      5.01808384e-03 -3.01333074e-03 -2.16890522e-03 8.82626232e-03
      1.42138440e-03 6.06380589e-03 3.66297946e-03 7.59723771e-04
      9.95125249e-03 4.31984616e-03 5.13220346e-03 3.40724387e-03
      -6.34141325e-04 -5.78470295e-03 -8.41637515e-03 -7.38775940e-04
      8.06765910e-03 1.27939619e-02 5.55403344e-03 6.59853360e-03
      4.38187225e-03 -8.14243045e-04 -7.43788434e-03 -1.08218361e-02
      -9.50052112e-04 1.03721991e-02 1.27940839e-02 5.55390958e-03
      6.59808703e-03 4.38074209e-03 -8.16249289e-04 -7.43748341e-03
      -1.08205909e-02 -9.49821027e-04 1.03723127e-02 1.64488852e-02
      7.14067090e-03 8.48323572e-03 5.63383568e-03 -1.04807410e-03
      -9.56300460e-03 -1.39131956e-02 -1.22145319e-03 1.33351795e-02
      7.35297287e-03 -2.75353366e-03 1.94677920e-03 -1.25047727e-03
      -3.63153312e-03 -5.51089784e-03 9.98453051e-03 2.22757738e-03
      8.36257730e-03 9.45364311e-03 -3.54013685e-03 2.50345422e-03
      -1.60765694e-03 -4.67004953e-03 -7.08543044e-03 1.28371613e-02
      2.86400341e-03 1.07517289e-02 9.45334788e-03 -3.54040274e-03
      2.50260159e-03 -1.60779548e-03 -4.66852216e-03 -7.08544394e-03
      1.28374184e-02 2.86450121e-03 1.07514784e-02 1.21540744e-02
      -4.55179205e-03 3.21821007e-03 -2.06703809e-03 -6.00359077e-03
      -9.10984445e-03 1.65051334e-02 3.68289812e-03 1.38231302e-02
      3.13358614e-03 -1.00477494e-03 8.21912137e-04 8.02344221e-05
      -3.76603124e-03 4.12507029e-03 4.60761739e-03 4.46218997e-03
      3.74658825e-03 4.02955525e-03 -1.29187829e-03 1.05658406e-03
      1.03108723e-04 -4.84232977e-03 5.30366972e-03 5.92390541e-03
      5.73704811e-03 4.81773308e-03 4.02841624e-03 -1.29182928e-03
      1.05689256e-03 1.03151287e-04 -4.84285830e-03 5.30366413e-03
      5.92390448e-03 5.73706347e-03 4.81654657e-03 5.18024014e-03
      -1.66095444e-03 1.35865295e-03 1.32559799e-04 -6.22690469e-03
      6.81900885e-03 7.61622610e-03 7.37615675e-03 6.19359128e-03
      5.20875724e-03 -4.10300866e-03 -2.32170289e-03 -2.00173841e-03
      8.30782112e-03 2.24720826e-03 1.81170297e-03 2.95675010e-03
      1.14369374e-02 6.69612829e-03 -5.27673773e-03 -2.98423367e-03
      -2.57366872e-03 1.06623163e-02 2.88940221e-03 2.32920772e-03
      3.80146946e-03 1.47041455e-02 6.69628475e-03 -5.27528115e-03
      -2.98498711e-03 -2.57365825e-03 1.06807556e-02 2.88979989e-03
      2.33093370e-03 3.80206271e-03 1.47040412e-02 8.60842317e-03
      -6.78435760e-03 -3.83679220e-03 -3.30899539e-03 1.37077561e-02
      3.71562969e-03 2.99675367e-03 4.88828076e-03 1.89045686e-02
      1.82627502e-03 7.31414929e-03 5.34938322e-03 1.62819598e-03
      2.24893840e-04 -2.51678168e-03 -1.43711001e-03 1.91504322e-03
      4.38878406e-03 2.34799925e-03 9.40419454e-03 6.87756157e-03
      2.09273607e-03 2.90852506e-04 -3.23574687e-03 -1.84836506e-03
      2.46197521e-03 5.64235263e-03 2.35019787e-03 9.40322038e-03
      6.87739952e-03 2.09365482e-03 2.89314165e-04 -3.23584513e-03
      -1.84709090e-03 2.46305671e-03 5.64549770e-03 3.02159367e-03
      1.20902248e-02 8.84209201e-03 2.69099441e-03 3.74165043e-04
      -4.16022399e-03 -2.37567141e-03 3.16650001e-03 7.25802174e-03
      9.64917126e-04 3.14888917e-03 7.68725947e-03 4.55203670e-04
      -3.12096369e-03 3.20540415e-03 2.40737945e-03 4.78106085e-03
      1.27634045e-03 1.23752188e-03 4.04744223e-03 9.88268293e-03
      5.85241825e-04 -4.01366455e-03 4.12123883e-03 3.09470994e-03
      6.14693481e-03 1.64117990e-03 1.23968988e-03 4.04479727e-03
      9.88342613e-03 5.85230417e-04 -4.01195837e-03 4.12125094e-03
      3.09574162e-03 6.14762120e-03 1.64096267e-03 1.58992060e-03
      5.19900071e-03 1.27060600e-02 7.52412016e-04 -5.15951402e-03
      5.29875793e-03 3.97960655e-03 7.90389907e-03 2.11002934e-03
      -2.03547510e-03 5.26834931e-03 5.77851140e-04 -5.29265963e-03
      2.24989839e-03 3.66325723e-03 7.20317895e-03 6.64273696e-03
      2.16624094e-03 -2.61680083e-03 6.77793147e-03 7.65021308e-04
      -6.80486858e-03 2.89213308e-03 4.70989104e-03 9.26143676e-03
      8.54077842e-03 2.78539537e-03 -2.61666114e-03 6.77404087e-03
      7.43328768e-04 -6.80482574e-03 2.88561964e-03 4.70988965e-03
      9.26104654e-03 8.54059681e-03 2.78549735e-03 -3.36396927e-03
      8.71506054e-03 9.84083512e-04 -8.74908734e-03 3.70932068e-03
      6.05555857e-03 1.19073242e-02 1.09809181e-02 3.58164799e-03
      -5.81200188e-03 6.30550738e-03 1.23190461e-02 -1.71722684e-04
      1.45799574e-03 1.61815668e-03 2.75435066e-03 1.55635062e-03
      -1.27712009e-03 -7.47277495e-03 8.14415701e-03 1.58401933e-02
      -2.26377917e-04 1.87507633e-03 2.08006124e-03 3.54157831e-03
      2.00167974e-03 -1.64210342e-03 -7.47237820e-03 8.17494839e-03
      1.58406254e-02 -2.20803064e-04 1.86911458e-03 2.08001281e-03
      3.54124140e-03 2.00149952e-03 -1.64155872e-03 -9.60760377e-03
      1.05583202e-02 2.03683451e-02 -2.91075907e-04 2.40380410e-03
      2.67375424e-03 4.55337204e-03 2.57420237e-03 -2.11069267e-03
      -9.60875244e-04 9.16121714e-03 4.15114732e-03 2.84775533e-03
      -9.88304499e-04 1.87859667e-04 5.74157201e-03 5.14457875e-04
      -6.96064206e-03 -1.23558147e-03 1.17788753e-02 5.33770584e-03
      3.66142951e-03 -1.27155834e-03 2.41482892e-04 7.38181313e-03
      6.61317899e-04 -8.94957688e-03 -1.23507134e-03 1.17787169e-02
      5.33739896e-03 3.66140064e-03 -1.27060409e-03 2.41524482e-04
      7.38201942e-03 6.61288854e-04 -8.94924533e-03 -1.58816762e-03
      1.51442802e-02 6.86303340e-03 4.70755249e-03 -1.63476693e-03
      3.10465985e-04 9.49090160e-03 8.50064622e-04 -1.15064019e-02
      1.04545779e-03 6.37039309e-03 1.31392502e-03 1.90335186e-03
      4.98901168e-03 -6.01731939e-03 3.16941808e-03 2.94106919e-03
      -4.28683171e-03 1.34435913e-03 8.19030125e-03 1.68928783e-03
      2.44821818e-03 6.41473103e-03 -7.73652969e-03 4.07495303e-03
      3.78140132e-03 -5.51144639e-03 1.34358369e-03 8.19030777e-03
      1.68879575e-03 2.44718697e-03 6.41538529e-03 -7.73656555e-03
      4.07468574e-03 3.78134497e-03 -5.51147759e-03 1.72772282e-03
      1.05301328e-02 2.17125309e-03 3.14773503e-03 8.24872218e-03
      -9.94698424e-03 5.23886550e-03 4.86176414e-03 -7.08593614e-03
      -5.78683335e-03 1.34878268e-03 4.62869368e-03 -2.67678348e-04
      1.00692653e-03 8.98595713e-03 9.19759925e-03 2.78676162e-03
      3.91884288e-03 -7.44038587e-03 1.74664811e-03 5.95269771e-03
      -3.44000291e-04 1.29521801e-03 1.15531804e-02 1.18248444e-02
      3.58358631e-03 5.03850589e-03 -7.43871694e-03 1.75779441e-03
      5.95251471e-03 -3.44172324e-04 1.29453558e-03 1.15531413e-02
      1.18251825e-02 3.58321681e-03 5.03968867e-03 -9.56428330e-03
      2.27609160e-03 7.65518611e-03 -4.42304736e-04 1.66517240e-03
      1.48537913e-02 1.52029824e-02 4.60777385e-03 6.47959206e-03
      -8.52916203e-03 4.18936252e-04 2.99547240e-03 3.45828664e-03
      -5.27389639e-04 9.51262843e-03 9.05179977e-03 4.10303520e-03
      -9.26000066e-03 -1.09669361e-02 5.38275926e-04 3.85028520e-03
      4.44446597e-03 -7.03047903e-04 1.22305267e-02 1.16383936e-02
      5.27562434e-03 -1.19065624e-02 -1.09722065e-02 5.38958760e-04
      3.85063887e-03 4.44633001e-03 -6.78841083e-04 1.22305397e-02
      1.16376122e-02 5.27565181e-03 -1.19045395e-02 -1.41082415e-02
      6.92487985e-04 4.94948868e-03 5.71426423e-03 -9.04907822e-04
      1.57249849e-02 1.49631174e-02 6.78335829e-03 -1.53069273e-02
      -4.58601909e-03 -2.01829500e-03 4.43741633e-03 3.93327000e-03
      5.07627940e-03 8.79645161e-03 7.67678255e-03 8.47493473e-04
      -1.18144937e-02 -5.89684071e-03 -2.59496830e-03 5.70518989e-03
      5.05706808e-03 6.52604643e-03 1.13088777e-02 9.87007469e-03
      1.09006627e-03 -1.51904700e-02 -5.89526026e-03 -2.59503094e-03
      5.70500782e-03 5.05706668e-03 6.52731396e-03 1.13093043e-02
      9.87069309e-03 1.08979514e-03 -1.51879797e-02 -7.58029940e-03
      -3.33649130e-03 7.33493455e-03 6.50195079e-03 8.39149021e-03
      1.45394458e-02 1.26907956e-02 1.40172127e-03 -1.95279252e-02
      -9.65276326e-04 6.49847882e-03 5.05036954e-03 5.95191075e-03
      2.07885890e-03 1.22297113e-03 -8.80948850e-04 2.42318256e-05
      2.50827492e-04 -1.24143751e-03 8.35524313e-03 6.49267621e-03
      7.65257282e-03 2.63926317e-03 1.57229754e-03 -1.13278849e-03
      3.32813215e-05 3.22605949e-04 -1.25539594e-03 8.35633557e-03
      6.49407366e-03 7.65264127e-03 2.67243083e-03 1.57238229e-03
      -1.13239419e-03 3.09444731e-05 3.01256485e-04 -1.61455094e-03
      1.07439328e-02 8.34867824e-03 9.83925909e-03 3.39283980e-03
      2.02151109e-03 -1.45611679e-03 4.25210819e-05 3.87475971e-04
      -4.63189604e-03 2.65933829e-03 1.10765304e-02 -1.24934653e-03
      4.04322241e-03 1.17685797e-03 -1.81127293e-03 4.09402745e-03
      -1.91298244e-03 -5.95540414e-03 3.41899623e-03 1.42407417e-02
      -1.60631328e-03 5.18915942e-03 1.51325681e-03 -2.32923892e-03
      5.26357116e-03 -2.45967670e-03 -5.95583487e-03 3.41888308e-03
      1.42403767e-02 -1.60629686e-03 5.19787427e-03 1.51309394e-03
      -2.32849899e-03 5.26407780e-03 -2.45931698e-03 -7.65764341e-03
      4.39550960e-03 1.83083974e-02 -2.06525251e-03 6.67106500e-03
      1.94560410e-03 -2.99437600e-03 6.76786853e-03 -3.16214561e-03
      4.78417473e-03 5.63215138e-03 2.97799800e-03 5.01176808e-03
      4.29393305e-03 -1.55200670e-03 -1.32952200e-03 -2.09332211e-03
      -4.67686215e-03 6.15136046e-03 7.24120438e-03 3.82843427e-03
      6.44368818e-03 5.52162388e-03 -1.99547806e-03 -1.70935411e-03
      -2.69141840e-03 -6.01284765e-03 6.15233323e-03 7.24139623e-03
      3.82901495e-03 6.44370448e-03 5.52106742e-03 -1.99540774e-03
      -1.70955725e-03 -2.69145356e-03 -6.01185951e-03 7.91049935e-03
      9.31019429e-03 4.92247613e-03 8.28474388e-03 7.09961122e-03
      -2.56557553e-03 -2.19796272e-03 -3.46044544e-03 -7.72919739e-03
      -2.73975846e-03 -4.12119145e-04 7.62342708e-03 2.64104945e-03
      2.42580101e-03 4.75105859e-04 2.64672167e-03 9.29926336e-03
      2.84761772e-04 -3.51897907e-03 -5.29788376e-04 9.80147813e-03
      3.39481654e-03 3.12076672e-03 6.11449999e-04 3.40293394e-03
      1.19562084e-02 3.66137014e-04 -3.52233276e-03 -5.29683195e-04
      9.80183668e-03 3.39562818e-03 3.12191155e-03 6.10855932e-04
      3.40298424e-03 1.19562699e-02 3.66328692e-04 -4.52412991e-03
      -6.80919620e-04 1.26022696e-02 4.36475594e-03 4.01630346e-03
      7.86156568e-04 4.37527522e-03 1.53723648e-02 4.71012434e-04
      8.20683595e-03 7.47468090e-03 5.13033476e-03 -4.15710872e-03
      -2.62540206e-03 6.32482872e-04 -3.38531419e-04 1.46626227e-03
      4.16438002e-03 1.05514852e-02 9.61013976e-03 6.59573125e-03
      -5.34489984e-03 -3.37435980e-03 8.13202583e-04 -4.35637921e-04
      1.88484485e-03 5.35403099e-03 1.05516268e-02 9.61039029e-03
      6.59594359e-03 -5.34485606e-03 -3.37486854e-03 8.13036051e-04
      -4.35300055e-04 1.88535219e-03 5.35396766e-03 1.35661699e-02
      1.23560056e-02 8.47996678e-03 -6.87201601e-03 -4.33763070e-03
      1.04534521e-03 -5.60163229e-04 2.42357515e-03 6.88345078e-03
      1.43124338e-03 3.29482672e-03 3.46809975e-03 -6.58876321e-04
      1.02736733e-04 4.14916081e-03 -7.47097365e-04 4.14154353e-03
      -3.26708658e-04 1.83966151e-03 4.23628977e-03 4.45921347e-03
      -8.47144634e-04 1.32546149e-04 5.33486949e-03 -9.59860045e-04
      5.32475673e-03 -4.20568045e-04 1.81947625e-03 4.23616404e-03
      4.45865793e-03 -8.47111223e-04 1.32184490e-04 5.33387531e-03
      -9.59783560e-04 5.32517023e-03 -4.32661531e-04 2.33867369e-03
      5.44660492e-03 5.73285297e-03 -1.08916510e-03 1.70537431e-04
      6.85814116e-03 -1.23311568e-03 6.84653921e-03 -5.56940155e-04
      3.80110019e-03 4.85118898e-03 3.84124229e-03 3.79542308e-03
      2.37729261e-03 8.36822030e-04 2.76491302e-03 1.24635105e-03
      -5.21131000e-03 4.88700112e-03 6.23722421e-03 4.93871700e-03
      4.87984810e-03 3.05913016e-03 1.07443740e-03 3.55375791e-03
      1.60228205e-03 -6.70038257e-03 4.88035940e-03 6.23754272e-03
      4.93890466e-03 4.87981131e-03 3.05766729e-03 1.07587350e-03
      3.55540030e-03 1.60265679e-03 -6.70706946e-03 6.27458282e-03
      8.01967364e-03 6.34999061e-03 6.27406687e-03 3.93464509e-03
      1.38136814e-03 4.56977729e-03 2.06034118e-03 -8.62353761e-03
      -1.53951813e-03 2.40226882e-03 6.21857308e-03 1.16604473e-03
      -2.82021036e-04 3.08271893e-03 1.35442021e-03 -3.50249815e-04
      1.91476417e-03 -1.97919295e-03 3.08884773e-03 7.99640734e-03
      1.50006183e-03 -3.60052771e-04 3.96285299e-03 1.74011500e-03
      -4.50631138e-04 2.46201386e-03 -1.98555691e-03 3.08903214e-03
      7.99652748e-03 1.49918476e-03 -3.62166902e-04 3.96343553e-03
      1.74143037e-03 -4.50285617e-04 2.45500379e-03 -2.55261851e-03
      3.97189148e-03 1.02826608e-02 1.92863110e-03 -4.62367490e-04
      5.09502087e-03 2.23733461e-03 -5.79337007e-04 3.15665524e-03
      1.91263855e-03 8.70349468e-04 6.16916048e-04 -3.35632102e-03
      1.44430036e-02 -6.84388564e-04 2.47981120e-03 -1.92441535e-03
      7.55800633e-04 2.45925528e-03 1.11884833e-03 7.92694977e-04
      -4.31519467e-03 1.85666624e-02 -8.79925268e-04 3.18802055e-03
      -2.47432617e-03 9.71890695e-04 2.45894608e-03 1.11928314e-03
      7.93964078e-04 -4.31525335e-03 1.85677521e-02 -8.79936095e-04
      3.18814255e-03 -2.47430522e-03 9.71572590e-04 3.16169299e-03
      1.43885566e-03 1.02018926e-03 -5.54808602e-03 2.38690767e-02
      -1.13134319e-03 4.09864401e-03 -3.18135042e-03 1.24935352e-03
      5.83265815e-03 6.30900729e-03 1.14205237e-02 1.91390654e-03
      -1.12785473e-02 1.02010218e-03 4.71385149e-03 1.00397784e-03
      4.71177651e-03 7.49915885e-03 8.11179262e-03 1.46834888e-02
      2.46074679e-03 -1.45008033e-02 1.31168496e-03 6.06215186e-03
      1.29131868e-03 6.05798746e-03 7.49921938e-03 8.11148621e-03
      1.46832457e-02 2.46074074e-03 -1.45017197e-02 1.31154573e-03
      6.06027385e-03 1.29005068e-03 6.05796883e-03 9.64188855e-03
      1.04293264e-02 1.88784022e-02 3.16382200e-03 -1.86448302e-02
      1.68643438e-03 7.79368915e-03 1.65926747e-03 7.78880296e-03
      -8.57192930e-03 -5.37239993e-03 2.61911564e-03 -3.19499406e-03
      4.59250947e-03 -5.91615448e-04 1.20786773e-02 3.97506310e-03
      -1.29257783e-03 -1.10211009e-02 -6.90787472e-03 3.36656440e-03
      -4.10639122e-03 5.90133248e-03 -7.61603820e-04 1.55299110e-02
      5.11083612e-03 -1.66185410e-03 -1.10202227e-02 -6.90742955e-03
      3.36717605e-03 -4.10795212e-03 5.90462470e-03 -7.60055904e-04
      1.55297751e-02 5.11073321e-03 -1.66106306e-03 -1.41689219e-02
      -8.88162944e-03 4.32810746e-03 -5.27977897e-03 7.58738909e-03
      -9.78442375e-04 1.99670885e-02 6.57099485e-03 -2.13561254e-03
      -9.04328935e-03 4.78228212e-05 3.85655346e-03 -3.35111236e-03
      8.60462897e-03 1.62385276e-03 5.17673651e-03 5.55983931e-03
      -1.82289095e-03 -1.16262920e-02 6.17505139e-05 4.95541468e-03
      -4.30830661e-03 1.10674184e-02 2.08784989e-03 6.65610377e-03
      7.14839669e-03 -2.34298129e-03 -1.16333393e-02 6.38346173e-05
      4.95840888e-03 -4.30857716e-03 1.10631585e-02 2.08755862e-03
      6.65565860e-03 7.14818249e-03 -2.34265230e-03 -1.49561306e-02
      8.24121817e-05 6.37122476e-03 -5.53925522e-03 1.42296199e-02
      2.68405420e-03 8.55765957e-03 9.19056032e-03 -3.01103690e-03
      -1.40444073e-03 4.89825895e-03 9.56907589e-03 3.66938324e-03
      -1.25073851e-03 2.43357662e-03 6.64620055e-03 7.93180021e-04
      -2.91294244e-04 -1.80599093e-03 6.29798975e-03 1.23040341e-02
      4.71817749e-03 -1.62641797e-03 3.12888343e-03 8.54638219e-03
      1.01985829e-03 -3.75316973e-04 -1.80972426e-03 6.29693037e-03
      1.23032164e-02 4.71739611e-03 -1.60739711e-03 3.12891300e-03
      8.54487717e-03 1.01973570e-03 -3.76249081e-04 -2.32715043e-03
      8.09634663e-03 1.58196241e-02 6.06573746e-03 -2.09021405e-03
      4.02288744e-03 1.09879002e-02 1.31115946e-03 -4.84771794e-04
      -1.90090411e-03 5.32797864e-03 6.23801583e-03 4.86670015e-03
      -1.58322102e-03 -2.19891616e-03 5.19943843e-03 1.00620696e-02
      3.45582748e-03 -2.44378764e-03 6.84948452e-03 8.01801123e-03
      6.25720154e-03 -2.03263690e-03 -2.82726530e-03 6.68550795e-03
      1.29371192e-02 4.44345409e-03 -2.46236729e-03 6.85020396e-03
      8.02005082e-03 6.25720108e-03 -2.03445903e-03 -2.82717985e-03
      6.68396987e-03 1.29367113e-02 4.42529377e-03 -3.16560175e-03
      8.80641118e-03 1.03085432e-02 8.04499350e-03 -2.61196238e-03
      -3.63505795e-03 8.59433878e-03 1.66331381e-02 5.68998186e-03
      -1.28007180e-03 4.14262712e-03 1.20253523e-03 8.74295190e-04
      3.75858881e-03 3.37174255e-03 7.46984500e-03 8.08940362e-03
      1.18293311e-03 -1.64593430e-03 5.32606523e-03 1.54562702e-03
      1.12387131e-03 4.83237067e-03 4.33538761e-03 9.60411038e-03
      1.04006259e-02 1.52086583e-03 -1.66931527e-03 5.32607082e-03
      1.54567894e-03 1.12413906e-03 4.83231246e-03 4.33509750e-03
      9.60418209e-03 1.04007069e-02 1.49674329e-03 -2.14642775e-03
      6.84758788e-03 1.98666961e-03 1.44503417e-03 6.21284358e-03
      5.57407038e-03 1.23482645e-02 1.33722918e-02 1.92432362e-03
      -3.40550061e-04 3.01993079e-03 1.02217169e-02 -1.94949156e-03
      2.31829763e-04 7.61210104e-04 5.60126128e-03 9.17901460e-04
      2.13219109e-03 -4.37537383e-04 3.88301001e-03 1.31428763e-02
      -2.50617228e-03 2.99051171e-04 9.78708733e-04 7.20134657e-03
      1.18005206e-03 2.74169724e-03 -4.53521730e-04 3.88293574e-03
      1.31421732e-02 -2.50650151e-03 2.98975327e-04 9.78601165e-04
      7.20084924e-03 1.17994251e-03 2.72540748e-03 -5.82698034e-04
      4.99265874e-03 1.68979391e-02 -3.22223827e-03 3.85662628e-04
      1.25821587e-03 9.25788097e-03 1.51693111e-03 3.50449304e-03
      1.14681188e-03 -2.87090242e-03 1.91069196e-03 8.50457046e-03
      2.96825101e-03 -5.11391961e-04 7.85384048e-03 1.84497493e-03
      -5.81882102e-03 1.47424568e-03 -3.69118876e-03 2.45663570e-03
      1.09344358e-02 3.81665584e-03 -6.57800410e-04 1.00978380e-02
      2.37213098e-03 -7.48158013e-03 1.47307571e-03 -3.69113148e-03
      2.45658588e-03 1.09344460e-02 3.81490868e-03 -6.57475321e-04
      1.00981211e-02 2.37222156e-03 -7.48276338e-03 1.89366273e-03
      -4.74577537e-03 3.15851020e-03 1.40585583e-02 4.90530860e-03
      -8.45705450e-04 1.29833538e-02 3.05002602e-03 -9.62100364e-03
      2.75168754e-03 5.11267688e-04 -1.13661494e-03 9.45053995e-03
      3.93581018e-03 -9.69949062e-04 1.17494469e-03 -3.47046042e-03
      -3.95127758e-03 3.53916222e-03 6.57569442e-04 -1.46133546e-03
      1.21507207e-02 5.06029604e-03 -1.24927878e-03 1.50796538e-03
      -4.46201582e-03 -5.08001121e-03 3.53833777e-03 6.55443408e-04
      -1.46476936e-03 1.21506965e-02 5.06058754e-03 -1.24705874e-03
      1.51017436e-03 -4.46228823e-03 -5.08031668e-03 4.55093384e-03
      8.43001413e-04 -1.88324018e-03 1.56223560e-02 6.50642952e-03
      -1.60619325e-03 1.93821022e-03 -5.73722087e-03 -6.53157476e-03
      -3.10045108e-03 2.95845419e-03 1.25876348e-03 4.96649835e-03
      -1.53061270e-03 2.16335664e-03 -1.94562075e-04 3.95773491e-03
      -4.37795557e-03 -3.98636749e-03 3.80404410e-03 1.61950442e-03
      6.38613943e-03 -1.96887902e-03 2.78146192e-03 -2.50147423e-04
      5.08854678e-03 -5.62888756e-03 -3.98564711e-03 3.80382617e-03
      1.61872047e-03 6.38607424e-03 -1.96798751e-03 2.78145075e-03
      -2.49820325e-04 5.08857984e-03 -5.62819093e-03 -5.12449723e-03
      4.89104027e-03 2.08261982e-03 8.21149349e-03 -2.53148982e-03
      3.57615505e-03 -3.21193191e-04 6.54249778e-03 -7.23635778e-03
      -7.65866926e-03 3.72483279e-03 5.79315703e-03 1.09842932e-02
      -3.04713403e-03 5.63842198e-03 4.26334981e-03 3.24097881e-03
      -2.54675257e-03 -9.84674692e-03 4.78906371e-03 7.44839245e-03
      1.41226612e-02 -3.91928805e-03 7.24944752e-03 5.48148528e-03
      4.16698726e-03 -3.27427895e-03 -9.84673575e-03 4.78897709e-03
      7.44836032e-03 1.41226752e-02 -3.91730154e-03 7.24938652e-03
      5.48142474e-03 4.16707899e-03 -3.27405869e-03 -1.26599437e-02
      6.15724782e-03 9.57652461e-03 1.81577224e-02 -5.03851660e-03
      9.32070054e-03 7.04759173e-03 5.35769202e-03 -4.20935266e-03
      -8.78330972e-03 5.42597240e-03 7.43040117e-03 4.14898992e-03
      7.37427454e-03 3.83951049e-03 -2.82942550e-03 3.97164188e-03
      -6.42823847e-03 -1.12942262e-02 6.97605358e-03 9.55362059e-03
      5.33366483e-03 9.48278513e-03 4.93651070e-03 -3.63738812e-03
      5.10655204e-03 -8.26616772e-03 -1.12933917e-02 6.97570341e-03
      9.55277961e-03 5.33443457e-03 9.48203262e-03 4.93645761e-03
      -3.63778370e-03 5.10700839e-03 -8.26533977e-03 -1.45218754e-02
      8.96850880e-03 1.22824637e-02 6.85759354e-03 1.21932104e-02
      6.34686975e-03 -4.67658043e-03 6.56635500e-03 -1.06285252e-02
      -4.91185812e-03 2.84871878e-03 4.83428733e-03 4.10559587e-03
      7.52702355e-03 7.73680815e-03 4.03186167e-03 -1.79354334e-03
      -1.05184289e-02 -6.31506881e-03 3.66272684e-03 6.21568365e-03
      5.27841644e-03 9.67727229e-03 9.94732790e-03 5.18390490e-03
      -2.30593723e-03 -1.35235619e-02 -6.31557219e-03 3.66264652e-03
      6.21548714e-03 5.27859991e-03 9.67760757e-03 9.94736329e-03
      5.18381456e-03 -2.30595167e-03 -1.35240210e-02 -8.11979268e-03
      4.70923074e-03 7.99156073e-03 6.78650523e-03 1.24422163e-02
      1.27894720e-02 6.66500954e-03 -2.96473643e-03 -1.73878558e-02
      -7.00663822e-03 1.24489874e-04 6.02943543e-03 2.56424234e-03
      1.73260213e-03 2.59059272e-03 8.11507460e-04 3.61179234e-03
      -2.57556024e-03 -9.00878105e-03 1.60164476e-04 7.75226997e-03
      3.29615991e-03 2.23370758e-03 3.33117391e-03 1.04286894e-03
      4.64358740e-03 -3.31178005e-03 -9.00857616e-03 1.60051117e-04
      7.75200780e-03 3.29667074e-03 2.22742325e-03 3.33121372e-03
      1.04356732e-03 4.64334199e-03 -3.31155560e-03 -1.15827713e-02
      2.05916469e-04 9.96704586e-03 4.23764624e-03 2.87164235e-03
      4.28351806e-03 1.34108798e-03 5.96982427e-03 -4.25816048e-03
      6.85890845e-04 2.95093516e-03 -9.86607862e-04 1.98173476e-03
      4.93037468e-03 -2.21867114e-03 4.86063119e-03 -9.19286686e-06
      -5.04425308e-03 8.81067244e-04 3.79421772e-03 -1.26800640e-03
      2.54796306e-03 6.34001521e-03 -2.85155023e-03 6.25000382e-03
      -1.16527362e-05 -6.48624450e-03 8.68094736e-04 3.79519211e-03
      -1.26783585e-03 2.54793628e-03 6.33932743e-03 -2.85258587e-03
      6.24909904e-03 -1.18364305e-05 -6.49887323e-03 1.11510302e-03
      4.87973634e-03 -1.62944582e-03 3.27594252e-03 8.15180223e-03
      -3.66629031e-03 8.03535152e-03 -1.50019641e-05 -8.35669693e-03
      3.35597270e-03 4.57588490e-03 7.83562474e-03 4.71002888e-03
      -7.15804892e-03 -2.89858202e-03 2.88631208e-03 3.93867772e-03
      2.07187957e-04 4.31415299e-03 5.88327879e-03 1.00744925e-02
      6.05609454e-03 -9.20309313e-03 -3.72675085e-03 3.71130928e-03
      5.06416848e-03 2.65741051e-04 4.30708705e-03 5.88326436e-03
      1.00743482e-02 6.05581235e-03 -9.20228381e-03 -3.72672500e-03
      3.71108414e-03 5.06393285e-03 2.60039931e-04 5.53682214e-03
      7.56419403e-03 1.29528856e-02 7.78648537e-03 -1.18313627e-02
      -4.79150610e-03 4.77182772e-03 6.51096785e-03 3.33510630e-04
      -4.93006548e-03 4.35945531e-03 4.64594318e-03 -3.89364362e-03
      -8.83768592e-03 3.37013486e-03 7.02387840e-03 3.79322935e-03
      7.17508025e-04 -6.33862056e-03 5.60497772e-03 5.97374188e-03
      -5.00812102e-03 -1.13590900e-02 4.33143601e-03 9.03101731e-03
      4.87742061e-03 9.22585081e-04 -6.33813767e-03 5.60538936e-03
      5.97331068e-03 -5.00609726e-03 -1.13635575e-02 4.33306210e-03
      9.03058052e-03 4.87741316e-03 9.23303422e-04 -8.14899150e-03
      7.20688375e-03 7.68046686e-03 -6.43899199e-03 -1.46055976e-02
      5.56903007e-03 1.16111543e-02 6.27148943e-03 1.18719938e-03
      1.38566922e-03 3.75652639e-03 3.48906498e-03 -2.49024108e-03
      -6.95108087e-04 2.95860111e-03 8.68533086e-03 4.01290460e-03
      1.76385208e-03 1.78191054e-03 4.82996739e-03 4.48630238e-03
      -3.20173567e-03 -8.91980424e-04 3.80391744e-03 1.11664580e-02
      5.15931798e-03 2.26815674e-03 1.78311812e-03 4.83037485e-03
      4.48624464e-03 -3.20172403e-03 -8.93596094e-04 3.80392163e-03
      1.11666052e-02 5.15939062e-03 2.26901285e-03 2.29301210e-03
      6.21067220e-03 5.76849142e-03 -4.11650026e-03 -1.14668533e-03
      4.89075761e-03 1.43565545e-02 6.63333340e-03 2.91774864e-03
      1.50439015e-03 4.99885622e-03 7.91490916e-03 -1.79085109e-04
      3.07627954e-03 -1.25871052e-03 4.58114693e-04 1.01067312e-03
      -4.88689262e-03 1.93416828e-03 6.42701890e-03 1.01761064e-02
      -2.30205027e-04 3.95516725e-03 -1.61834783e-03 5.89205360e-04
      1.29959104e-03 -6.28317567e-03 1.93535211e-03 6.42690016e-03
      1.01756267e-02 -2.30229067e-04 3.95511277e-03 -1.61783886e-03
      5.88939758e-04 1.29869150e-03 -6.28294796e-03 2.48824875e-03
      8.26305244e-03 1.30826831e-02 -2.95948383e-04 5.08508086e-03
      -2.08008592e-03 7.57464906e-04 1.66994415e-03 -8.07810854e-03
      -1.52432406e-03 6.28907932e-03 5.67274727e-03 6.82360900e-04
      7.13065325e-04 1.63129310e-03 9.68472566e-03 -1.61818776e-03
      -6.90618297e-03 -1.95933366e-03 8.08592979e-03 7.29333283e-03
      8.77241138e-04 9.18604375e-04 2.09783227e-03 1.24515723e-02
      -2.08068173e-03 -8.87883827e-03 -1.95943750e-03 8.08603503e-03
      7.29377568e-03 8.77324550e-04 9.17515077e-04 2.09737057e-03
      1.24510862e-02 -2.08076346e-03 -8.87902360e-03 -2.51862104e-03
      1.03962934e-02 9.37745534e-03 1.12788635e-03 1.18198397e-03
      2.69720587e-03 1.60082597e-02 -2.67546554e-03 -1.14151957e-02
      4.66328696e-04 2.03321781e-03 1.02298381e-02 -4.17114003e-03
      3.92013579e-04 2.93300627e-03 1.04974126e-02 1.81576784e-03
      -3.07704974e-03 5.99208463e-04 2.61385180e-03 1.31527614e-02
      -5.36287902e-03 5.05013217e-04 3.77082964e-03 1.34966820e-02
      2.33457517e-03 -3.95650556e-03 5.99851424e-04 2.61439104e-03
      1.31526701e-02 -5.36287762e-03 5.04509080e-04 3.77118215e-03
      1.34974504e-02 2.33480963e-03 -3.95596540e-03 7.70778453e-04
      3.36099369e-03 1.69107206e-02 -6.89510722e-03 6.49933296e-04
      4.84843366e-03 1.73538756e-02 3.00192111e-03 -5.08662825e-03
      -1.08858466e-03 6.21635327e-03 8.44883639e-03 -5.82189811e-03
      -2.39391741e-03 2.33840337e-03 3.70307174e-03 4.80008591e-03
      2.07925029e-03 -1.39980204e-03 7.99250230e-03 1.08629335e-02
      -7.48531893e-03 -3.07963742e-03 3.00618075e-03 4.76039341e-03
      6.17130334e-03 2.67313211e-03 -1.39991322e-03 7.99228065e-03
      1.08624240e-02 -7.48513220e-03 -3.07705440e-03 3.00650555e-03
      4.76136990e-03 6.17163954e-03 2.67300266e-03 -1.80013618e-03
      1.02758510e-02 1.39661571e-02 -9.62376967e-03 -3.95845668e-03
      3.86507297e-03 6.12086151e-03 7.93466251e-03 3.43647460e-03
      4.12717229e-03 2.71652965e-03 5.99346496e-03 -1.24542089e-03
      3.62046342e-03 -2.16911780e-03 7.75711332e-03 -2.06677336e-03
      -1.32075034e-03 5.30616241e-03 3.49269924e-03 7.70596834e-03
      -1.60123385e-03 4.65556001e-03 -2.78887362e-03 9.97277535e-03
      -2.65748450e-03 -1.69832574e-03 5.30564832e-03 3.49264313e-03
      7.70577230e-03 -1.60123513e-03 4.65602567e-03 -2.78886291e-03
      9.97329224e-03 -2.65759230e-03 -1.69887720e-03 6.82128873e-03
      4.49056504e-03 9.90753062e-03 -2.05870415e-03 5.98719297e-03
      -3.58569110e-03 1.28219593e-02 -3.41716711e-03 -2.18455028e-03
      -9.55564377e-04 -1.66197459e-03 3.30306916e-03 -4.68650414e-03
      5.01636928e-03 1.61594502e-03 5.33125084e-03 3.56211443e-03
      4.05770959e-03 -1.22838479e-03 -2.13717483e-03 4.24498878e-03
      -6.02657255e-03 6.45278767e-03 2.07753736e-03 6.85482938e-03
      4.57998365e-03 5.21725137e-03 -1.22880656e-03 -2.13811384e-03
      4.24687052e-03 -6.02548663e-03 6.44816551e-03 2.07766122e-03
      6.85416209e-03 4.57974058e-03 5.21709211e-03 -1.57963962e-03
      -2.74945423e-03 5.45792701e-03 -7.74842594e-03 8.29457399e-03
      2.67114281e-03 8.81296303e-03 5.88839594e-03 6.70794025e-03
      -2.06692377e-03 -3.84622137e-03 1.24663918e-03 5.49176987e-03
      4.63268813e-03 -2.52539781e-03 1.27511739e-03 3.84578016e-03
      3.97779001e-03 -2.65791547e-03 -4.94411262e-03 1.60323270e-03
      7.06083747e-03 5.95508795e-03 -3.24690249e-03 1.63927837e-03
      4.94505698e-03 5.11377398e-03 -2.65709031e-03 -4.94516781e-03
      1.60269614e-03 7.06089521e-03 5.95648820e-03 -3.24677816e-03
      1.63863041e-03 4.94429609e-03 5.11465641e-03 -3.41682928e-03
      -6.35674875e-03 2.06113770e-03 9.07828100e-03 7.65676657e-03
      -4.17438010e-03 2.10660743e-03 6.35757297e-03 6.57530781e-03
      4.04257793e-03 2.80037988e-03 2.80435872e-03 2.01706163e-04
      4.37682122e-03 -1.26843667e-03 5.25145466e-03 1.73546397e-03
      8.71813763e-03 5.19798743e-03 3.60005815e-03 3.60569824e-03
      2.59162742e-04 5.62578393e-03 -1.63083593e-03 6.75084954e-03
      2.23083002e-03 1.12093939e-02 5.19749336e-03 3.60046839e-03
      3.60479136e-03 2.58858170e-04 5.62906405e-03 -1.63100148e-03
      6.75002951e-03 2.23067310e-03 1.12088937e-02 6.68298872e-03
      4.62862151e-03 4.63485112e-03 3.32595373e-04 7.23536639e-03
      -2.09698733e-03 8.67729727e-03 2.86739157e-03 1.44118955e-02
      1.18973118e-03 2.88646552e-03 7.80354533e-03 5.29978843e-03
      -1.49136281e-03 -6.05316018e-04 6.74888818e-03 4.01421590e-03
      1.30151585e-03 1.52975775e-03 3.71113326e-03 1.00338636e-02
      6.81063766e-03 -1.93027337e-03 -7.81682029e-04 8.67708866e-03
      5.16112847e-03 1.67350564e-03 1.52939465e-03 3.71011812e-03
      1.00323120e-02 6.81267027e-03 -1.91469328e-03 -7.77714013e-04
      8.67740344e-03 5.16115315e-03 1.67339155e-03 1.96649809e-03
      4.77010664e-03 1.28996279e-02 8.75480566e-03 -2.47821491e-03
      -1.00431370e-03 1.11565944e-02 6.63575903e-03 2.15166714e-03
      4.78841458e-03 3.72590148e-03 -6.76636002e-04 1.95550747e-04
      -2.68212199e-04 3.82523378e-03 -7.75014923e-04 3.23794503e-03
      5.92843210e-03 6.15927484e-03 4.79036151e-03 -8.72967532e-04
      2.50301004e-04 -3.50755174e-04 4.91809472e-03 -9.96740302e-04
      4.16295463e-03 7.62280030e-03 6.15654700e-03 4.79045464e-03
      -8.69952491e-04 2.47001735e-04 -3.45610926e-04 4.91817435e-03
      -9.96091170e-04 4.16390458e-03 7.62240682e-03 7.91908614e-03
      6.15904899e-03 -1.12237828e-03 3.16131918e-04 -4.51957458e-04
      6.32328633e-03 -1.28106435e-03 5.35344193e-03 9.80091933e-03
      -2.84568430e-03 6.01639831e-03 7.24397833e-03 5.53985033e-03
      -2.52911006e-04 -3.45299346e-03 3.18652717e-03 5.19399066e-03
      -1.19333668e-03 -3.65893240e-03 7.73521885e-03 9.31398664e-03
      7.12247752e-03 -3.25329282e-04 -4.43943078e-03 4.09689266e-03
      6.67819753e-03 -1.53372949e-03 -3.65991471e-03 7.73542281e-03
      9.31394473e-03 7.12265261e-03 -3.25332076e-04 -4.43954766e-03
      4.09696577e-03 6.67801127e-03 -1.53507176e-03 -4.70585655e-03
      9.94534791e-03 1.19754598e-02 9.15745459e-03 -4.18485957e-04
      -5.70781995e-03 5.26743615e-03 8.58628377e-03 -1.97294448e-03
      -4.68388852e-03 6.27627224e-03 6.11807860e-04 3.20809870e-03
      9.88717540e-04 2.98929238e-03 1.03228209e-04 2.18029204e-03
      -2.42003636e-03 -6.02259673e-03 8.06928333e-03 7.86301331e-04
      4.12543537e-03 1.27207430e-03 3.84333916e-03 1.32711095e-04
      2.80321762e-03 -3.11193475e-03 -6.02137810e-03 8.06999113e-03
      7.85239099e-04 4.12443746e-03 1.27133157e-03 3.84335709e-03
      1.32764326e-04 2.80322880e-03 -3.11169610e-03 -7.74235697e-03
      1.03754336e-02 1.00919465e-03 5.30379452e-03 1.63568312e-03
      4.94141085e-03 1.70682353e-04 3.60413245e-03 -4.00134176e-03
      5.60399797e-03 6.86723040e-04 3.80578544e-03 7.77471298e-03
      1.94493186e-04 4.88170655e-03 1.53494673e-03 2.97776400e-03
      -6.70657912e-03 7.20545556e-03 8.82914115e-04 4.89342678e-03
      9.99609474e-03 2.47610762e-04 6.27648551e-03 1.97351817e-03
      3.82855139e-03 -8.62245634e-03 7.20446929e-03 8.82905268e-04
      4.89326613e-03 9.99602396e-03 2.48890312e-04 6.27645524e-03
      1.97351957e-03 3.82854557e-03 -8.62229057e-03 9.26329475e-03
      1.13514403e-03 6.29169401e-03 1.28520755e-02 3.16848338e-04
      8.06973502e-03 2.53740139e-03 4.92241280e-03 -1.10854302e-02
      5.49107417e-03 4.03140858e-03 -2.45853327e-03 1.87990966e-03
      4.66870348e-04 3.76074400e-04 3.81146721e-03 4.00152989e-03
      3.20608588e-03 7.05948193e-03 5.18185738e-03 -3.16125154e-03
      2.41703633e-03 6.01737876e-04 4.83490090e-04 4.90049785e-03
      5.14478702e-03 4.12160158e-03 7.06007332e-03 5.18327858e-03
      -3.15977097e-03 2.41757673e-03 5.96314727e-04 4.83538955e-04
      4.90050158e-03 5.14484709e-03 4.12224745e-03 9.07663349e-03
      6.66243676e-03 -4.06292267e-03 3.10832565e-03 7.68585480e-04
      6.21648156e-04 6.30069431e-03 6.61475817e-03 5.29938005e-03
      -9.69140418e-03 -3.20468727e-03 -6.17580954e-03 5.62232779e-03
      8.85954313e-03 2.14555138e-03 2.94712931e-03 1.14586344e-03
      -7.34239258e-03 -1.24596469e-02 -4.12202673e-03 -7.94024952e-03
      7.22868787e-03 1.13910111e-02 2.76166643e-03 3.78942303e-03
      1.47328153e-03 -9.43784043e-03 -1.24656893e-02 -4.12112381e-03
      -7.94117153e-03 7.22733373e-03 1.13917599e-02 2.75864219e-03
      3.78917740e-03 1.47419784e-03 -9.46749467e-03 -1.60263777e-02
      -5.30079333e-03 -1.02099767e-02 9.29226074e-03 1.46467676e-02
      3.55081260e-03 4.87213023e-03 1.89543457e-03 -1.21694356e-02
      -1.27515011e-02 5.25636924e-03 2.83314753e-03 1.03982463e-02
      2.05525104e-03 3.73179303e-03 4.31716070e-03 4.41089978e-05
      -7.86974467e-03 -1.63946301e-02 6.75822236e-03 3.64248827e-03
      1.33691477e-02 2.64317472e-03 4.79805376e-03 5.55002037e-03
      5.64949296e-05 -1.01180272e-02 -1.63941346e-02 6.75827218e-03
      3.64206918e-03 1.33691654e-02 2.64223106e-03 4.79803374e-03
      5.55042829e-03 5.65386217e-05 -1.01186410e-02 -2.10779700e-02
      8.68925173e-03 4.68249293e-03 1.71888936e-02 3.39806569e-03
      6.16894523e-03 7.13547459e-03 7.24146157e-05 -1.30094020e-02
      -1.50380954e-02 9.82996542e-04 6.51053712e-03 7.70895369e-03
      2.14412413e-03 9.49642062e-03 3.53206974e-03 4.09344584e-03
      -8.09973106e-03 -1.93346348e-02 1.26397063e-03 8.37052055e-03
      9.91121121e-03 2.75094458e-03 1.22096539e-02 4.54103202e-03
      5.26287314e-03 -1.04139904e-02 -1.93347428e-02 1.26376899e-03
      8.37022997e-03 9.91111342e-03 2.75632949e-03 1.22095589e-02
      4.54190653e-03 5.26336534e-03 -1.04140239e-02 -2.48588808e-02
      1.62499724e-03 1.07615050e-02 1.27424728e-02 3.53641133e-03
      1.56979654e-02 5.83933713e-03 6.76702056e-03 -1.33895269e-02
      -1.61380284e-02 3.81961954e-03 3.50336032e-03 -3.91109410e-04
      3.43324430e-03 5.94179658e-03 1.62918377e-03 9.61240381e-03
      -7.18907360e-03 -2.07489375e-02 4.91099851e-03 4.50457074e-03
      -5.02827112e-04 4.41457005e-03 7.63944024e-03 2.09455914e-03
      1.23587418e-02 -9.24318749e-03 -2.07490977e-02 4.91102738e-03
      4.50455537e-03 -5.02837764e-04 4.41399589e-03 7.63945188e-03
      2.09444831e-03 1.23592550e-02 -9.24312975e-03 -2.66774669e-02
      6.31425390e-03 5.79189323e-03 -6.46469300e-04 5.67565067e-03
      9.82213486e-03 2.69272598e-03 1.58903897e-02 -1.18841417e-02
      -1.11356089e-02 -2.62446189e-03 3.95002682e-03 5.99884847e-03
      3.82016995e-03 1.56640890e-03 -2.22954340e-03 2.13349191e-03
      -3.38988961e-03 -1.43172042e-02 -3.37435282e-03 5.07862400e-03
      7.71289784e-03 4.91238572e-03 2.01395177e-03 -2.86668609e-03
      2.74305278e-03 -4.35850397e-03 -1.43175274e-02 -3.37436236e-03
      5.07849362e-03 7.71280564e-03 4.91179805e-03 2.01394851e-03
      -2.86644720e-03 2.74307490e-03 -4.35886765e-03 -1.84082389e-02
      -4.33852337e-03 6.52951468e-03 9.91658308e-03 6.31611980e-03
      2.58936104e-03 -3.68559943e-03 3.52680054e-03 -5.60435513e-03
      2.66644359e-03 4.00273735e-03 5.64226764e-04 3.60413711e-03
      -2.49242387e-03 1.01629607e-02 -5.37505746e-03 -1.49702735e-03
      8.52999685e-04 3.42788501e-03 5.14637074e-03 7.25442776e-04
      4.63393191e-03 -3.20434175e-03 1.30663952e-02 -6.90969918e-03
      -1.91672612e-03 1.09473453e-03 3.42564657e-03 5.14653930e-03
      7.25945807e-04 4.63389838e-03 -3.20697553e-03 1.30625153e-02
      -6.91266404e-03 -1.92096131e-03 1.09442440e-03 4.40388825e-03
      6.61697285e-03 9.33372008e-04 5.95792336e-03 -4.12299065e-03
      1.67943165e-02 -8.88630841e-03 -2.45949207e-03 1.40457216e-03
      4.17037448e-03 7.81491678e-03 9.28944442e-03 5.29724080e-03
      -2.56178761e-03 -1.52813038e-03 -1.51786918e-03 -4.84717498e-03
      -4.39034682e-03 5.36179822e-03 1.00478046e-02 1.19437287e-02
      6.81073684e-03 -3.29140993e-03 -1.96469156e-03 -1.95164187e-03
      -6.23212568e-03 -5.64484857e-03 5.36207110e-03 1.00476565e-02
      1.19432854e-02 6.81074802e-03 -3.29329981e-03 -1.96474674e-03
      -1.95199274e-03 -6.23226259e-03 -5.64456359e-03 6.89394865e-03
      1.29184853e-02 1.53558562e-02 8.75667483e-03 -4.23126435e-03
      -2.52604135e-03 -2.50982819e-03 -8.01296625e-03 -7.25744618e-03
      4.99607483e-03 4.01376933e-03 1.17334654e-03 -2.54510157e-03
      -5.03347069e-03 1.73384883e-03 3.93839134e-03 1.92741887e-03
      -8.81644955e-04 6.42404705e-03 5.16032428e-03 1.50793139e-03
      -3.27220676e-03 -6.47031097e-03 2.22927751e-03 5.06415777e-03
      2.47829896e-03 -1.13302132e-03 6.42416533e-03 5.16038155e-03
      1.50804839e-03 -3.27228056e-03 -6.47101412e-03 2.22925423e-03
      5.06268814e-03 2.47778371e-03 -1.13294157e-03 8.26031342e-03
      6.63447240e-03 1.93807553e-03 -4.20713145e-03 -8.31821095e-03
      2.86624045e-03 6.50982838e-03 3.18596489e-03 -1.45596615e-03
      6.92407880e-03 3.58225685e-03 7.04093371e-03 7.41271349e-03
      -6.36346033e-03 -1.02248066e-03 6.94702799e-03 -2.88085837e-04
      1.28063199e-03 8.90243798e-03 4.60562808e-03 9.05224495e-03
      9.54651553e-03 -8.12077802e-03 -1.31440256e-03 8.93199164e-03
      -3.70392081e-04 1.64658343e-03 8.90911184e-03 4.60558338e-03
      9.05206241e-03 9.53061134e-03 -8.17601383e-03 -1.31458568e-03
      8.93199071e-03 -3.70379421e-04 1.65157963e-03 1.14546381e-02
      5.92129631e-03 1.16378702e-02 1.22740660e-02 -1.04338303e-02
      -1.68990355e-03 1.14841126e-02 -4.76195011e-04 2.12353375e-03
      3.58091830e-03 6.32662140e-03 1.19543367e-03 -4.94247908e-03
      -8.60039552e-04 1.31782275e-04 8.27477686e-03 -8.45053059e-04
      -1.52438378e-03 4.60346276e-03 8.13425425e-03 1.53708470e-03
      -6.35463465e-03 -1.10385497e-03 1.70344094e-04 1.06400214e-02
      -1.08634564e-03 -1.96048315e-03 4.60318336e-03 8.13410059e-03
      1.53663254e-03 -6.35460950e-03 -1.10678189e-03 1.69425344e-04
      1.06389476e-02 -1.08651596e-03 -1.96072133e-03 5.91763947e-03
      1.04581639e-02 1.97579688e-03 -8.17023404e-03 -1.42055016e-03
      2.19001886e-04 1.36799626e-02 -1.39675289e-03 -2.52164924e-03
      5.53838164e-03 5.24845487e-03 5.98707935e-03 -7.52898166e-03
      3.37763014e-03 7.55980553e-04 -1.77861343e-03 5.47270116e-04
      5.20689599e-03 7.12299673e-03 6.75160205e-03 7.69683532e-03
      -9.68015566e-03 4.34108591e-03 9.70312743e-04 -2.28735968e-03
      7.03476660e-04 6.69504749e-03 7.11092586e-03 6.74728118e-03
      7.69741554e-03 -9.68011282e-03 4.34174249e-03 9.72905487e-04
      -2.27870629e-03 7.04007107e-04 6.69503305e-03 9.14547313e-03
      8.67968984e-03 9.89559758e-03 -1.24459062e-02 5.58020873e-03
      1.24874222e-03 -2.93049915e-03 9.04951070e-04 8.60850140e-03
      2.16976414e-03 1.24865735e-03 2.09749863e-03 -3.51223093e-03
      -2.78300210e-03 -1.47626328e-03 5.52797597e-03 3.17496271e-03
      3.39378370e-03 2.78893625e-03 1.60540524e-03 2.69675418e-03
      -4.51570144e-03 -3.57837207e-03 -1.89781259e-03 7.10723549e-03
      4.08199243e-03 4.36267955e-03 2.78995140e-03 1.60492770e-03
      2.69625965e-03 -4.51579690e-03 -3.57882422e-03 -1.89799827e-03
      7.10756611e-03 4.08236403e-03 4.36419901e-03 3.58610228e-03
      2.06346507e-03 3.46658123e-03 -5.80599299e-03 -4.60163504e-03
      -2.43997597e-03 9.13809054e-03 5.24862343e-03 5.61014004e-03
      7.16617471e-03 6.16748398e-03 7.61547312e-03 -3.65905766e-03
      4.10500541e-03 9.24425141e-04 3.38949356e-03 -6.83849026e-03
      1.16010138e-03 9.21321195e-03 7.92977493e-03 9.79196932e-03
      -4.70396969e-03 5.27826464e-03 1.18889508e-03 4.35920758e-03
      -8.79194587e-03 1.49113697e-03 9.21337027e-03 7.92971533e-03
      9.79158748e-03 -4.70450055e-03 5.27846208e-03 1.18853594e-03
      4.35748836e-03 -8.79197847e-03 1.49137259e-03 1.18451929e-02
      1.01955449e-02 1.25900153e-02 -6.04795944e-03 6.78710965e-03
      1.52856624e-03 5.60413767e-03 -1.13034584e-02 1.91693543e-03
      1.80127763e-03 2.91429693e-03 4.77724569e-03 -2.57785525e-03
      4.56663733e-03 7.93003055e-05 5.66477608e-03 1.74086634e-03
      3.59325577e-03 2.31491635e-03 3.74682969e-03 6.14193454e-03
      -3.31429858e-03 5.87261422e-03 1.05299434e-04 7.28308270e-03
      2.23819935e-03 4.61958628e-03 2.31649121e-03 3.74697382e-03
      6.14216598e-03 -3.31436587e-03 5.86812012e-03 1.02451202e-04
      7.28322659e-03 2.23824452e-03 4.62046638e-03 2.97704455e-03
      4.81737824e-03 7.89676420e-03 -4.26121661e-03 7.54629867e-03
      1.36020273e-04 9.36388969e-03 2.87766848e-03 5.94019657e-03
      -1.10631139e-04 1.53964863e-03 6.05550641e-03 3.45308543e-03
      -5.43019595e-03 2.35966500e-03 -2.10967846e-03 7.50744133e-04
      7.74003973e-04 -1.42585704e-04 1.97981112e-03 7.78642623e-03
      4.43959748e-03 -6.98227016e-03 3.03379400e-03 -2.71195290e-03
      9.65432904e-04 9.94799891e-04 -1.41785014e-04 1.97938806e-03
      7.78658222e-03 4.43966454e-03 -6.98153628e-03 3.03387339e-03
      -2.71232426e-03 9.65301180e-04 9.95663228e-04 -1.82740419e-04
      2.54526525e-03 1.00123156e-02 5.70803182e-03 -8.97701830e-03
      3.90061736e-03 -3.48664052e-03 1.24134752e-03 1.27969019e-03
      -8.86025839e-03 2.42255954e-03 3.18027916e-03 5.45249553e-03
      5.65199368e-03 2.86823185e-03 3.45098134e-03 3.32792872e-03
      -4.95862274e-04 -1.13921007e-02 3.11490800e-03 4.08945978e-03
      7.00981636e-03 7.26408605e-03 3.68777616e-03 4.43772180e-03
      4.27902257e-03 -6.37858058e-04 -1.13916639e-02 3.11406027e-03
      4.08972148e-03 7.01033464e-03 7.26649025e-03 3.68771213e-03
      4.43675788e-03 4.27869847e-03 -6.37257472e-04 -1.46468626e-02
      4.00403375e-03 5.25889453e-03 9.01260041e-03 9.33907740e-03
      4.74140840e-03 5.70536172e-03 5.50151290e-03 -8.19743611e-04
      1.72767311e-03 6.72553247e-03 -7.08167208e-03 -2.64468882e-03
      8.75631720e-03 1.25941413e-03 7.83362053e-03 7.41213234e-03
      -1.24764699e-03 2.22134846e-03 8.64710752e-03 -9.10511799e-03
      -3.40030598e-03 1.12558967e-02 1.61978311e-03 1.00718895e-02
      9.52982251e-03 -1.60406064e-03 2.21976964e-03 8.64704512e-03
      -9.10519157e-03 -3.40030692e-03 1.12583376e-02 1.61922607e-03
      1.00716688e-02 9.53052193e-03 -1.60544133e-03 2.85405922e-03
      1.11176223e-02 -1.17068207e-02 -4.37181303e-03 1.44721447e-02
      2.08254950e-03 1.29494052e-02 1.22534484e-02 -2.06406508e-03
      -4.97188605e-03 4.88333916e-03 9.62715503e-03 9.47169843e-04
      -6.37286284e-04 7.05498853e-04 2.60561751e-03 8.85168370e-03
      2.68001598e-03 -6.39250828e-03 6.27821125e-03 1.23779392e-02
      1.21794781e-03 -8.20629415e-04 9.06943809e-04 3.34990094e-03
      1.13807470e-02 3.44574335e-03 -6.39216648e-03 6.27874304e-03
      1.23780305e-02 1.21774897e-03 -8.19452805e-04 9.07113834e-04
      3.35007114e-03 1.13807162e-02 3.44559993e-03 -8.21860880e-03
      8.07219744e-03 1.59148239e-02 1.56588119e-03 -1.05520326e-03
      1.16612634e-03 4.30700462e-03 1.46323647e-02 4.43006866e-03
      -5.72371623e-03 -3.93955689e-03 6.32044452e-04 6.64789416e-03
      3.47538432e-03 -2.81822868e-03 5.73422434e-03 3.40787531e-03
      1.28806953e-03 -7.35910377e-03 -5.06418198e-03 8.12793209e-04
      8.54738336e-03 4.46802983e-03 -3.62318056e-03 7.37264752e-03
      4.38158819e-03 1.65599049e-03 -7.35888444e-03 -5.06311189e-03
      8.12958460e-04 8.54722969e-03 4.46824450e-03 -3.62342456e-03
      7.37259863e-03 4.38140519e-03 1.65623100e-03 -9.46147274e-03
      -6.50847936e-03 1.04544486e-03 1.09894117e-02 5.74447168e-03
      -4.65835817e-03 9.47914831e-03 5.63328015e-03 2.12931284e-03
      -1.26061414e-05 4.92613111e-03 -2.74504200e-05 -1.54344749e-03
      2.31793360e-03 -2.05635838e-03 2.56660976e-03 2.74342183e-05
      -2.09035631e-03 -1.54897862e-05 6.33346522e-03 -3.56854216e-05
      -1.98375387e-03 2.97972583e-03 -2.64391163e-03 3.29989335e-03
      3.59421356e-05 -2.68674502e-03 -1.61531207e-05 6.33391226e-03
      -3.44415967e-05 -1.98443281e-03 2.97914655e-03 -2.64389673e-03
      3.29991244e-03 3.52730567e-05 -2.68743932e-03 -1.98437647e-05
      8.14343244e-03 -4.47846396e-05 -2.55054259e-03 3.82972183e-03
      -3.39932623e-03 4.24270099e-03 4.62113094e-05 -3.45417857e-03
      -1.70575967e-03 6.18741289e-03 2.69847340e-03 6.53181644e-03
      -2.10345746e-03 -4.72557778e-03 -2.10267189e-03 4.21057979e-04
      5.58188010e-04 -2.19243020e-03 7.95518141e-03 3.46953492e-03
      8.39825720e-03 -2.71641044e-03 -6.07533893e-03 -2.70329532e-03
      5.41351619e-04 7.18353374e-04 -2.19427887e-03 7.95533881e-03
      3.46971746e-03 8.39805137e-03 -2.70506018e-03 -6.07576454e-03
      -2.70346645e-03 5.41378162e-04 7.16617447e-04 -2.82032904e-03
      1.02282101e-02 4.46115294e-03 1.07977595e-02 -3.49331764e-03
      -7.81117845e-03 -3.47570679e-03 6.96047675e-04 9.22241772e-04
      -6.71146205e-03 7.41271349e-03 4.90984926e-03 2.93202489e-03
      2.66283692e-04 2.65919371e-03 4.26197471e-03 -1.09361703e-04
      -2.14986317e-03 -8.62896256e-03 9.53061040e-03 6.31268602e-03
      3.76974535e-03 3.42135289e-04 3.41897761e-03 5.47961751e-03
      -1.40592820e-04 -2.76398705e-03 -8.62905011e-03 9.53067467e-03
      6.31267950e-03 3.76974163e-03 3.43240128e-04 3.41895712e-03
      5.47980005e-03 -1.39658310e-04 -2.76455632e-03 -1.10944156e-02
      1.22536970e-02 8.11633188e-03 4.84680990e-03 4.41010721e-04
      4.39581973e-03 7.04537658e-03 -1.79541355e-04 -3.55427223e-03
      -1.15526505e-02 2.48772139e-03 6.16921159e-03 1.55790162e-03
      4.87685349e-04 3.47361993e-03 4.67865774e-03 1.84008808e-04
      -6.81005791e-03 -1.48535548e-02 3.19832168e-03 7.93118495e-03
      2.00296193e-03 6.35062344e-04 4.46717581e-03 6.01676805e-03
      2.36463311e-04 -8.75606108e-03 -1.48535175e-02 3.19862785e-03
      7.93183036e-03 2.00301153e-03 6.26273337e-04 4.46574250e-03
      6.01572357e-03 2.36708045e-04 -8.75684340e-03 -1.90975703e-02
      4.11229208e-03 1.01972204e-02 2.57523102e-03 8.15543521e-04
      5.74307470e-03 7.73623772e-03 3.04186950e-04 -1.12591470e-02
      -4.18942142e-03 5.69524127e-04 7.02787307e-04 6.37392746e-03
      4.37985815e-04 4.95787989e-03 5.11947740e-03 1.67698774e-03
