<?xml version="1.0"?>
<opencv_storage>
<my_svm type_id="opencv-ml-svm">
  <svm_type>C_SVC</svm_type>
  <kernel><type>LINEAR</type></kernel>
  <C>1.</C>
  <term_criteria><epsilon>1.1920928955078125e-07</epsilon>
    <iterations>1000</iterations></term_criteria>
  <var_all>17680</var_all>
  <var_count>17680</var_count>
  <class_count>2</class_count>
  <class_labels type_id="opencv-matrix">
    <rows>1</rows>
    <cols>2</cols>
    <dt>i</dt>
    <data>
      5 6</data></class_labels>
  <sv_total>1</sv_total>
  <support_vectors>
    <_>
      1.38575274e-06 1.62074381e-27 4.84988372e-27 0. 5.44902832e-07 0.
      4.81603479e-10 1.60943411e-10 1.38575274e-06 1.78168455e-06
      2.08380978e-27 6.23555334e-27 0. 7.00589339e-07 0. 1.05032538e-09
      3.51000284e-10 1.78168455e-06 1.78168216e-06 7.36701763e-28
      2.20449241e-27 0. 7.00182625e-07 0. 6.14091000e-10 2.05218426e-10
      1.78168216e-06 2.29073726e-06 9.47186117e-28 2.83434237e-27 0.
      9.00234852e-07 0. 1.34384304e-09 4.49088711e-10 2.29073726e-06
      3.94889867e-07 0. 0. 0. 4.54415431e-06 0. 1.16421898e-11
      3.89061526e-12 3.94889867e-07 5.07715583e-07 0. 0. 0.
      5.84249119e-06 0. 1.13430515e-11 3.79064878e-12 5.07715583e-07
      5.07715583e-07 0. 0. 0. 5.84248392e-06 0. 1.83201510e-11
      6.12227239e-12 5.07715583e-07 6.52777146e-07 0. 0. 0.
      7.51177458e-06 0. 1.88931509e-11 6.31375984e-12 6.52777146e-07
      3.94889867e-07 -5.88743254e-28 -1.76173768e-27 0. 1.40638906e-06
      0. 5.36624772e-11 1.79330925e-11 3.94889867e-07 5.07715583e-07
      -2.55121757e-27 -7.63418677e-27 0. 1.80907512e-06 0.
      1.04280626e-10 3.48488322e-11 5.07715583e-07 5.07715583e-07
      -7.56949979e-28 -2.26507427e-27 0. 1.80817756e-06 0.
      7.26199864e-11 2.42683703e-11 5.07715583e-07 6.52777146e-07
      -3.28010175e-27 -9.81527701e-27 0. 2.32590651e-06 0.
      1.38736189e-10 4.63633021e-11 6.52777146e-07 3.95156121e-07
      1.99662769e-12 5.97467171e-12 0. 1.17699949e-06 0. 1.00760118e-07
      3.36723502e-08 3.95156121e-07 5.08057781e-07 1.55364545e-12
      4.64909968e-12 0. 1.51363179e-06 0. 1.29548980e-07 4.32931024e-08
      5.08057781e-07 5.08300786e-07 2.56763404e-12 7.68334008e-12 0.
      1.51328220e-06 0. 1.29548724e-07 4.32930207e-08 5.08300786e-07
      6.53529469e-07 1.99861720e-12 5.98062485e-12 0. 1.94609447e-06 0.
      1.66562955e-07 5.56625643e-08 6.53529469e-07 1.38572250e-06
      -6.46836781e-07 -1.93554820e-06 -1.08615448e-33 -3.06305139e-07 0.
      1.00760133e-07 3.36723538e-08 1.38572432e-06 1.78164350e-06
      -8.31655882e-07 -2.48856259e-06 -4.70666983e-33 -3.93820898e-07 0.
      1.29548994e-07 4.32931095e-08 1.78164760e-06 1.78161633e-06
      -8.31648947e-07 -2.48856691e-06 -8.44787015e-34 -3.93821637e-07 0.
      1.29548738e-07 4.32930243e-08 1.78161872e-06 2.29064995e-06
      -1.06927382e-06 -3.19958667e-06 -3.66074324e-33 -5.06342076e-07 0.
      1.66562984e-07 5.56625714e-08 2.29065517e-06 1.36040751e-06
      -6.46828255e-07 -1.93554934e-06 -1.41707627e-11 5.43001761e-07 0.
      -2.30728006e-10 -7.71052458e-11 1.36040751e-06 1.74909530e-06
      -8.31639625e-07 -2.48857350e-06 -1.82195509e-11 6.98643419e-07 0.
      -1.79455104e-10 -5.99707506e-11 1.74909530e-06 1.74909542e-06
      -8.31636441e-07 -2.48856418e-06 -3.11756766e-11 6.98037866e-07 0.
      -2.96650787e-10 -9.91354984e-11 1.74909542e-06 2.24883684e-06
      -1.06925108e-06 -3.19959440e-06 -4.00830064e-11 8.98117946e-07 0.
      -2.30728450e-10 -7.71053915e-11 2.24883684e-06 9.65712729e-07
      -2.24999637e-11 -1.85975921e-06 -8.58544183e-07 3.81362553e-10 0.
      3.34147523e-32 1.11666225e-32 9.65712729e-07 1.24153371e-06
      -2.89288593e-11 -2.39111932e-06 -1.10384246e-06 4.90323282e-10 0.
      2.59892544e-32 8.68515177e-33 1.24153371e-06 1.24162841e-06
      -2.89288073e-11 -2.39111932e-06 -1.10384246e-06 2.96615288e-10 0.
      1.44797253e-31 4.83886989e-32 1.24162841e-06 1.59625472e-06
      -3.71944420e-11 -3.07429627e-06 -1.41922601e-06 3.81362553e-10 0.
      1.12620094e-31 3.76356557e-32 1.59625472e-06 1.37444511e-06
      -1.25020983e-06 2.13503927e-06 -1.63678350e-33 5.60092019e-07 0.
      5.38712443e-11 1.80028683e-11 1.37444704e-06 1.76716992e-06
      -1.60746367e-06 2.74489889e-06 -8.72393500e-34 7.20122273e-07 0.
      1.08169661e-10 3.61484939e-11 1.76717140e-06 1.76709852e-06
      -1.60743127e-06 2.74499916e-06 -2.90755791e-33 7.20118237e-07 0.
      6.35146796e-11 2.12255456e-11 1.76710091e-06 2.27201758e-06
      -2.06676327e-06 3.52908978e-06 -1.37998142e-33 9.25871518e-07 0.
      1.31684594e-10 4.40067913e-11 2.27201940e-06 1.52304949e-07
      -1.97964596e-06 -2.87689033e-07 0. 5.44101397e-07 0.
      -7.75342735e-13 -2.59105942e-13 9.66016160e-07 1.95812831e-07
      -2.54556085e-06 -3.70794453e-07 0. 6.99560246e-07 0.
      -1.70575392e-12 -5.70033007e-13 1.24202040e-06 1.95808440e-07
      -2.54556699e-06 -3.70798602e-07 0. 6.99558939e-07 0.
      -9.96868278e-13 -3.33135836e-13 1.24201836e-06 2.51743415e-07
      -3.27325984e-06 -4.77909225e-07 0. 8.99434554e-07 0.
      -2.19311006e-12 -7.32898876e-13 1.59688022e-06 -2.02562319e-06
      -7.88614841e-07 -1.37070083e-06 -5.17104371e-12 3.04937475e-06 0.
      1.00760246e-07 3.36723893e-08 5.41172995e-10 -2.60461161e-06
      -1.01388309e-06 -1.76218441e-06 -1.13762966e-11 3.92067204e-06 0.
      1.29549136e-07 4.32931557e-08 4.55511628e-10 -2.60458228e-06
      -1.01386672e-06 -1.76213030e-06 -6.64848515e-12 3.92018137e-06 0.
      1.29548638e-07 4.32929887e-08 4.94108809e-10 -3.34905508e-06
      -1.30347826e-06 -2.26540919e-06 -1.46266662e-11 5.04029413e-06 0.
      1.66562856e-07 5.56625253e-08 3.26348587e-10 -1.01045117e-07
      6.88354096e-11 2.05981177e-10 0. -1.61982413e-07 0.
      -1.34215441e-07 -4.48524347e-08 8.76543140e-07 -1.29820990e-07
      8.72573819e-11 2.61106525e-10 0. -2.08066311e-07 0.
      -1.72558984e-07 -5.76661705e-08 1.12707733e-06 -1.29825551e-07
      1.56169369e-10 4.67316685e-10 0. -2.08265632e-07 0.
      -1.72562977e-07 -5.76675063e-08 1.12707835e-06 -1.66797520e-07
      1.99188610e-10 5.96046101e-10 0. -2.67516924e-07 0.
      -2.21861882e-07 -7.41423420e-08 1.44922024e-06 -4.80947278e-07
      -2.85608650e-07 -8.54644384e-07 4.77741371e-12 2.48932383e-06
      -9.30788519e-12 -3.29815535e-08 -1.10230634e-08 -1.99562805e-06
      -6.18362094e-07 -3.67210703e-07 -1.09882512e-06 1.05103114e-11
      3.20055801e-06 -7.23946640e-12 -4.19710950e-08 -1.40283269e-08
      -2.56580574e-06 -6.18119941e-07 -3.67211555e-07 -1.09882990e-06
      6.14238955e-12 3.20016079e-06 -1.19672813e-11 -4.24048494e-08
      -1.41710785e-08 -2.56557291e-06 -7.94726986e-07 -4.72128590e-07
      -1.41277667e-06 1.35132565e-11 4.11449082e-06 -9.30788519e-12
      -5.39628608e-08 -1.80345801e-08 -3.29859199e-06 -9.48727291e-07
      6.23414337e-07 1.86550847e-06 2.08086269e-31 1.17714796e-06 0.
      5.18219963e-07 -3.30194609e-07 -2.93867765e-06 -1.21979360e-06
      8.01531655e-07 2.39850760e-06 1.61844895e-31 1.51347172e-06 0.
      6.65372966e-07 -4.24841062e-07 -3.77829815e-06 -1.21981759e-06
      8.01525346e-07 2.39850897e-06 9.10366208e-31 1.51433801e-06 0.
      6.66281551e-07 -4.24536125e-07 -3.77832930e-06 -1.56833869e-06
      1.03053128e-06 3.08379344e-06 7.08062549e-31 1.94700033e-06 0.
      8.55477879e-07 -5.46224328e-07 -4.85784994e-06 2.93975154e-06
      5.34543517e-07 9.20571453e-13 -5.77492611e-12 -8.84451993e-07
      -7.45927274e-35 -2.26626511e-07 -2.03944683e-06 2.82896917e-06
      3.77968627e-06 6.87277634e-07 -2.88841108e-12 -1.27048372e-11
      -1.13715066e-06 -3.23235118e-34 -2.91384254e-07 -2.62214371e-06
      3.63725007e-06 3.77968195e-06 6.87269221e-07 1.92634710e-12
      -7.42490791e-12 -1.13715669e-06 -5.80165639e-35 -2.91375500e-07
      -2.62215394e-06 3.63723780e-06 4.85959799e-06 8.83641235e-07
      -2.76029503e-12 -1.63347981e-11 -1.46205639e-06 -2.51405135e-34
      -3.74635022e-07 -3.37133793e-06 4.67645350e-06 -4.26216928e-07
      7.89329590e-07 2.36197457e-06 5.44699617e-07 4.61266936e-08
      -2.54821839e-18 -6.10825794e-07 -2.04144001e-07 -6.76385980e-07
      -5.47992158e-07 1.01484875e-06 3.03681327e-06 7.00326780e-07
      5.93086895e-08 -5.60608012e-18 -7.85351119e-07 -2.62469229e-07
      -8.69637915e-07 -5.47968966e-07 1.01485216e-06 3.03681941e-06
      7.00319958e-07 5.93066467e-08 -5.60608012e-18 -7.85346458e-07
      -2.62474714e-07 -8.69615349e-07 -7.04530407e-07 1.30480510e-06
      3.90446803e-06 9.00409589e-07 7.62551977e-08 -1.23333754e-17
      -1.00973580e-06 -3.37465167e-07 -1.11807549e-06 3.59454702e-07
      5.99730075e-12 1.79461272e-11 0. 4.50751088e-07 -8.15243879e-12
      -1.37760924e-06 -4.60375873e-07 3.59375463e-07 4.61926390e-07
      9.19432933e-12 2.75128774e-11 0. 5.80011886e-07 -1.04817066e-11
      -1.77120558e-06 -5.91911828e-07 4.61815432e-07 4.62355217e-07
      9.85576551e-12 2.94921379e-11 0. 5.79051289e-07 -1.79353650e-11
      -1.77121069e-06 -5.91909156e-07 4.62168600e-07 5.94161520e-07
      1.45799241e-11 4.36286354e-11 0. 7.45105126e-07 -2.30597572e-11
      -2.27726241e-06 -7.61026172e-07 5.93909874e-07 2.10291705e-06
      3.73067707e-07 1.11637451e-06 0. -2.03924151e-06 -1.07084578e-12
      1.00752750e-07 3.36627046e-08 2.10291591e-06 2.70375085e-06
      4.79661651e-07 1.43534146e-06 0. -2.62187700e-06 -2.35580479e-12
      1.29531017e-07 4.32796305e-08 2.70374903e-06 2.70374903e-06
      4.79658468e-07 1.43533873e-06 0. -2.62187700e-06 -1.37683745e-12
      1.29532680e-07 4.32830412e-08 2.70374881e-06 3.47624928e-06
      6.16707894e-07 1.84543876e-06 0. -3.37097845e-06 -3.02892000e-12
      1.66531436e-07 5.56483570e-08 3.47624814e-06 1.44963406e-06
      1.03998684e-26 3.11202515e-26 0. 1.69443881e-09 0. 4.19882499e-13
      1.40317743e-13 1.44963406e-06 1.86381499e-06 4.49976337e-26
      1.34649546e-25 0. 1.31790023e-09 0. 5.41116631e-13 1.80832142e-13
      1.86381499e-06 1.86288480e-06 1.34397524e-26 4.02167052e-26 0.
      2.17856622e-09 0. 9.11502319e-13 3.04608823e-13 1.86288480e-06
      2.39513724e-06 5.79422341e-26 1.73384577e-25 0. 1.69444814e-09 0.
      1.18093718e-12 3.94649482e-13 2.39513724e-06 5.81600657e-10
      1.34987910e-10 4.03933720e-10 0. 1.98416861e-09 0. 2.46272180e-06
      8.22998402e-07 5.81600657e-10 5.04860098e-10 1.04990856e-10
      3.14171494e-10 0. 3.15162763e-09 0. 3.16636260e-06 1.05814263e-06
      5.04860098e-10 8.41956060e-10 1.73554893e-10 5.19340460e-10 0.
      1.87688443e-09 0. 3.16635669e-06 1.05814081e-06 8.41956060e-10
      7.70199127e-10 1.34987757e-10 4.03933248e-10 0. 3.18527871e-09 0.
      4.07103744e-06 1.36046924e-06 7.70199127e-10 4.15719403e-10
      2.34667234e-12 7.02211076e-12 0. 2.48872971e-06 0. 2.60631711e-10
      8.70985783e-11 4.15719403e-10 4.22093915e-10 3.01733291e-12
      9.02897635e-12 0. 3.19998344e-06 0. 3.35098255e-10 1.11983985e-10
      4.22093915e-10 4.40450232e-10 5.16267844e-12 1.54486441e-11 0.
      3.19978949e-06 0. 5.73388281e-10 1.91616362e-10 4.40450232e-10
      4.21775781e-10 6.63813275e-12 1.98637478e-11 0. 4.11425663e-06 0.
      7.37212846e-10 2.46363679e-10 4.21775781e-10 3.22082139e-10
      7.89343972e-07 2.36200913e-06 0. 1.06797991e-11 0. 6.10536566e-10
      2.04031084e-10 3.22082139e-10 4.32457209e-10 1.01486887e-06
      3.03686306e-06 0. 1.37340252e-11 0. 9.84334947e-10 3.28948285e-10
      4.32457209e-10 6.38843922e-10 1.01488376e-06 3.03690808e-06 0.
      8.30728888e-12 0. 5.85616444e-10 1.95703231e-10 6.38843922e-10
      8.44965764e-10 1.30484818e-06 3.90458854e-06 0. 1.06837334e-11 0.
      1.00925424e-09 3.37275929e-10 8.44965764e-10 7.48478044e-08 0. 0.
      0. 3.12566794e-06 0. 1.11030421e-11 3.71044124e-12 7.48478044e-08
      9.62329025e-08 0. 0. 0. 4.01871966e-06 0. 1.06498733e-11
      3.55900010e-12 9.62329025e-08 9.62329025e-08 0. 0. 0.
      4.01871557e-06 0. 1.79008319e-11 5.98214273e-12 9.62329025e-08
      1.23728015e-07 0. 0. 0. 5.16692535e-06 0. 1.83540509e-11
      6.13360101e-12 1.23728015e-07 4.70377074e-07 2.66196895e-18
      7.96562522e-18 0. 3.70030895e-10 0. 8.30260083e-10 2.77459028e-10
      4.70377074e-07 6.04769525e-07 5.37300337e-18 1.60780750e-17 0.
      4.75753548e-10 0. 1.06951503e-09 3.57414043e-10 6.04769525e-07
      6.05013554e-07 5.37300337e-18 1.60780750e-17 0. 2.87802560e-10 0.
      1.26670285e-09 4.23310859e-10 6.05013554e-07 7.77873311e-07
      1.07572862e-17 3.21899023e-17 0. 3.70032283e-10 0. 1.63123692e-09
      5.45132106e-10 7.77873311e-07 1.33072248e-10 4.45766517e-07
      1.33390336e-06 0. 2.48889842e-06 0. 1.11663621e-06 3.73160191e-07
      1.33072248e-10 1.54283725e-10 5.73128375e-07 1.71501881e-06 0.
      3.20001504e-06 0. 1.43587192e-06 4.79843095e-07 1.54283725e-10
      1.51221216e-10 5.73128375e-07 1.71501881e-06 0. 3.19982701e-06 0.
      1.43571685e-06 4.79791254e-07 1.51221216e-10 1.72815526e-10
      7.36879372e-07 2.20502375e-06 0. 4.11406654e-06 0. 1.84617454e-06
      6.16959085e-07 1.72815526e-10 1.05960830e-10 -4.48501680e-08
      -1.34208534e-07 -5.06165151e-13 1.38580536e-09 0. 1.00760261e-07
      3.36723893e-08 1.05960830e-10 1.36235592e-10 -5.76646073e-08
      -1.72554167e-07 -6.50783789e-13 3.04963432e-09 0. 1.29548908e-07
      4.32930740e-08 1.36235592e-10 2.33113778e-10 -5.76643941e-08
      -1.72553740e-07 -1.11356334e-12 1.78174975e-09 0. 1.29548908e-07
      4.32930776e-08 2.33113778e-10 2.99718306e-10 -7.41400754e-08
      -2.21855231e-07 -1.43172421e-12 3.92095911e-09 0. 1.66562856e-07
      5.56625288e-08 2.99718306e-10 -9.95481741e-08 -3.42777973e-10
      -3.68534842e-10 -1.31956751e-10 -2.03889317e-06 0. 7.65946195e-11
      2.55966411e-11 -9.95481741e-08 -1.27972413e-07 -7.52353513e-10
      -5.44177814e-10 -1.69658662e-10 -2.62162689e-06 0. 9.84786905e-11
      3.29099317e-11 -1.27972413e-07 -1.27875055e-07 -4.42473364e-10
      -7.40430550e-10 -2.90304808e-10 -2.62142953e-06 0. 5.95738806e-11
      1.99085956e-11 -1.27875055e-07 -1.64387501e-07 -9.69573422e-10
      -1.04243003e-09 -3.73249071e-10 -3.37065785e-06 0. 7.65947583e-11
      2.55966914e-11 -1.64387501e-07 -3.15692461e-07 -6.47541242e-07
      -1.93763435e-06 -1.87391614e-17 5.76070913e-10 6.84031336e-13
      1.00760147e-07 3.36688792e-08 -3.15689789e-07 -4.05888898e-07
      -8.32369608e-07 -2.49072014e-06 -1.45749042e-17 7.40662476e-10
      8.79468915e-13 1.29548766e-07 4.32889848e-08 -4.05887107e-07
      -4.05551475e-07 -8.32374553e-07 -2.49071013e-06 -2.00066668e-17
      7.40662531e-10 5.32024403e-13 1.29548610e-07 4.32905090e-08
      -4.05547638e-07 -5.21421498e-07 -1.06996015e-06 -3.20166782e-06
      -1.55607397e-17 9.52280366e-10 6.84031336e-13 1.66562486e-07
      5.56597683e-08 -5.21418656e-07 -2.50789451e-08 -4.11460900e-11
      -1.85987210e-06 -8.58549299e-07 5.44627653e-07 -8.33947347e-16
      1.53480635e-12 -5.40728018e-10 -2.53717385e-08 -3.21911244e-08
      -5.29881243e-11 -2.39127530e-06 -1.10384985e-06 7.00723945e-07
      -6.48625697e-16 1.97353245e-12 -8.36598069e-10 -3.27612710e-08
      -3.19024913e-08 -9.04350206e-11 -2.39137944e-06 -1.10385452e-06
      7.00234239e-07 -1.83468416e-15 3.37657137e-12 -4.98694697e-10
      -3.22390790e-08 -4.09490752e-08 -1.16383854e-10 -3.07464484e-06
      -1.41924261e-06 9.00929138e-07 -1.42697661e-15 4.34176479e-12
      -8.22948543e-10 -4.16308410e-08 3.55067897e-07 -1.56267583e-06
      -1.42297301e-06 -1.71124096e-12 1.94947688e-06 0. -2.92178783e-07
      -9.76414967e-08 4.69734886e-07 4.56511856e-07 -2.00917157e-06
      -1.82953454e-06 -2.20015737e-12 2.50647122e-06 0. -3.75662211e-07
      -1.25540339e-07 6.03946148e-07 4.56517256e-07 -2.00916247e-06
      -1.82955716e-06 -1.33099196e-12 2.50647008e-06 0. -3.75657208e-07
      -1.25539117e-07 6.03945352e-07 5.86945589e-07 -2.58323053e-06
      -2.35228526e-06 -1.71125429e-12 3.22260576e-06 0. -4.82992732e-07
      -1.61409062e-07 7.76502816e-07 7.05671894e-08 -1.88607396e-06
      4.94422693e-07 -1.96974942e-28 2.48853189e-06 0. 2.07568667e-11
      -8.36852365e-08 5.26282911e-08 9.07327546e-08 -2.42495253e-06
      6.35682113e-07 -8.95340637e-29 3.19953620e-06 0. 2.17232655e-11
      -1.07596954e-07 6.76690419e-08 9.07060738e-08 -2.42495094e-06
      6.35686263e-07 -2.53253504e-28 3.19954620e-06 0. 3.31070588e-11
      -1.07593152e-07 6.76418921e-08 1.16626623e-07 -3.11779422e-06
      8.17305704e-07 -1.15115228e-28 4.11369638e-06 0. 3.61837782e-11
      -1.38336205e-07 8.69734222e-08 8.12011365e-07 -4.50445903e-08
      -1.34769650e-07 -9.14399281e-18 -3.06511112e-07 0. 1.18478144e-10
      3.80179117e-11 2.05148967e-06 1.04376352e-06 -5.79152655e-08
      -1.73275609e-07 -2.01167843e-17 -3.94273854e-07 0. 1.91552385e-10
      6.19879564e-11 2.63737547e-06 1.04427295e-06 -5.80934802e-08
      -1.73813703e-07 -1.17565617e-17 -3.94085674e-07 0. 1.13432319e-10
      3.44410854e-11 2.63788093e-06 1.34231391e-06 -7.46926432e-08
      -2.23475183e-07 -2.58644372e-17 -5.06923527e-07 0. 1.96271485e-10
      6.11342227e-11 3.39123449e-06 1.62779043e-06 -2.07547077e-06
      -2.91284636e-07 -1.03948881e-11 1.60406421e-06 -3.69159217e-12
      1.77494412e-12 1.42815176e-12 2.17862089e-06 2.09286577e-06
      -2.66845382e-06 -3.74499649e-07 -1.33648518e-11 2.06236223e-06
      -4.74633267e-12 1.08236181e-13 1.10973134e-12 2.80108088e-06
      2.09261793e-06 -2.66846268e-06 -3.74506214e-07 -8.08493029e-12
      2.06236837e-06 -8.12150260e-12 1.97684100e-12 2.49762407e-12
      2.80082463e-06 2.69049883e-06 -3.43086936e-06 -4.81496215e-07
      -1.03948967e-11 2.65160861e-06 -1.04419312e-11 -2.53272094e-13
      2.27721249e-12 3.60105628e-06 2.64556957e-06 3.73074158e-07
      1.11636712e-06 -1.07027223e-12 7.66085251e-10 -2.44026587e-12
      -1.90518421e-07 -2.40299096e-06 5.63430547e-08 3.40136194e-06
      4.79661253e-07 1.43532543e-06 -1.37604186e-12 7.89552035e-10
      -5.36858448e-12 -2.44953185e-07 -3.08955987e-06 7.23602724e-08
      3.40120710e-06 4.79662617e-07 1.43529644e-06 -2.35459850e-12
      7.91259669e-10 -3.13748485e-12 -2.44951366e-07 -3.08955941e-06
      7.22092821e-08 4.37287190e-06 6.16702039e-07 1.84537623e-06
      -3.02729196e-12 7.66085917e-10 -6.90246645e-12 -3.14938632e-07
      -3.97229087e-06 9.27371389e-08 -4.11782281e-07 2.44942066e-06
      7.90611608e-13 7.09583043e-12 5.46978072e-07 -1.27396973e-07
      -2.81095964e-07 -1.38206326e-06 -2.45691353e-07 -5.29697388e-07
      3.14925455e-06 1.10276371e-12 1.38146430e-11 7.03256660e-07
      -1.63796088e-07 -3.61408127e-07 -1.77693096e-06 -3.16134731e-07
      -5.29673684e-07 3.14925569e-06 5.26190853e-13 8.12533287e-12
      7.02771388e-07 -1.63807371e-07 -3.61425123e-07 -1.77693983e-06
      -3.16118559e-07 -6.81347331e-07 4.04904085e-06 7.88693492e-13
      1.64787003e-11 9.03562238e-07 -2.10609471e-07 -4.64688185e-07
      -2.28462750e-06 -4.06754253e-07 2.55866962e-06 1.72575113e-07
      -8.00949010e-07 -6.08166715e-07 5.60620094e-07 -3.17233071e-34
      1.78219210e-11 -3.27237757e-07 5.31371484e-07 3.28971851e-06
      2.21885301e-07 -1.02978265e-06 -7.81928691e-07 7.21281936e-07
      -6.97912761e-34 1.38615040e-11 -4.20743476e-07 6.83195083e-07
      3.28946908e-06 2.21875524e-07 -1.02979084e-06 -7.81928691e-07
      7.20796038e-07 -1.37467663e-33 2.29139364e-11 -4.20732931e-07
      6.82951168e-07 4.22931771e-06 2.85272449e-07 -1.32400555e-06
      -1.00533691e-06 9.27360929e-07 -3.02428854e-33 1.78219575e-11
      -5.40954204e-07 8.78083370e-07 1.06541927e-06 9.61907972e-07
      2.26359703e-06 -1.31835986e-06 1.17620095e-06 -5.25550402e-18
      -1.01625902e-10 -7.23424932e-07 -8.56571944e-07 1.36980009e-06
      1.23673863e-06 2.91033189e-06 -1.69503642e-06 1.51225311e-06
      -4.08761391e-18 -1.30275957e-10 -9.30113231e-07 -1.10133351e-06
      1.36955725e-06 1.23673681e-06 2.91034098e-06 -1.69503153e-06
      1.51226072e-06 -1.15621081e-17 -7.88278262e-11 -9.30104420e-07
      -1.10157464e-06 1.76082756e-06 1.59009005e-06 3.74185743e-06
      -2.17932893e-06 1.94432846e-06 -8.99275110e-18 -1.00853811e-10
      -1.19584263e-06 -1.41634428e-06 1.72045702e-06 2.79265638e-11
      1.86299951e-11 -1.22199022e-27 3.03269189e-06 -1.19175095e-11
      -3.04616538e-06 -1.65780523e-06 1.72046555e-06 2.21202049e-06
      3.65146663e-11 2.68278160e-11 -5.55450040e-28 3.89914567e-06
      -1.53224100e-11 -3.91649610e-06 -2.13145995e-06 2.21203391e-06
      2.21198093e-06 2.27886789e-11 1.82706298e-11 -1.57113022e-27
      3.89917523e-06 -1.40753555e-11 -3.91648609e-06 -2.13146109e-06
      2.21200366e-06 2.84398106e-06 3.00828147e-11 2.71871900e-11
      -7.14150135e-28 5.01318709e-06 -1.80968070e-11 -5.03547881e-06
      -2.74044510e-06 2.84401335e-06 3.83649819e-07 4.45794456e-07
      1.33397589e-06 -3.66515542e-12 9.37942692e-12 1.04768526e-06
      3.25750335e-07 -1.91940376e-06 -3.24768564e-07 4.93242851e-07
      5.73164357e-07 1.71511374e-06 -4.71234250e-12 8.99661682e-12
      1.34703396e-06 4.18823845e-07 -2.46780974e-06 -4.17575905e-07
      4.93261552e-07 5.73151908e-07 1.71507884e-06 -2.85067651e-12
      1.51219280e-11 1.34702566e-06 4.18821060e-07 -2.46780610e-06
      -4.17566071e-07 6.34166213e-07 7.36909726e-07 2.20510378e-06
      -3.66515542e-12 1.55047659e-11 1.73190324e-06 5.38486233e-07
      -3.17290028e-06 -5.36891378e-07 -5.96886238e-08 6.00241967e-10
      1.79715887e-09 -1.09746191e-29 7.22920890e-11 -2.06926351e-11
      8.63019212e-10 -1.44392220e-06 -2.34470932e-07 -7.76274618e-08
      7.71740449e-10 2.31063502e-09 -4.98848431e-30 5.62271237e-11
      -2.66047601e-11 1.11011056e-09 -1.85649128e-06 -3.02346109e-07
      -7.67624186e-08 4.66378158e-10 1.39779388e-09 -1.41102640e-29
      9.29429866e-11 -1.60944261e-11 2.07841855e-09 -1.85614749e-06
      -3.01481180e-07 -9.98324552e-08 5.99630789e-10 1.79716875e-09
      -6.41384400e-30 7.22888555e-11 -2.06927114e-11 2.67291211e-09
      -2.38650114e-06 -3.88754643e-07 1.27549174e-06 2.60530616e-12
      7.79603986e-12 0. 1.06836994e-16 -6.82080879e-31 1.02455644e-09
      -8.54406380e-07 1.04127658e-07 1.63956156e-06 2.68905536e-12
      8.04664755e-12 0. 2.35041373e-16 -3.10036776e-31 1.35669609e-09
      -1.09851430e-06 1.33509502e-07 1.63991410e-06 2.68905037e-12
      8.04663280e-12 0. 2.35041373e-16 -1.50057797e-30 2.10714246e-09
      -1.09825362e-06 1.33554863e-07 2.10800295e-06 2.60871684e-12
      7.80624610e-12 0. 5.17091062e-16 -6.82080879e-31 2.75985079e-09
      -1.41202975e-06 1.71239378e-07 7.36021548e-07 9.26452665e-12
      2.77229958e-11 0. 1.40549980e-06 0. 5.16462762e-07 1.72537028e-07
      7.36021548e-07 9.46370960e-07 1.19115516e-11 3.56439045e-11 0.
      1.80726829e-06 0. 6.64040215e-07 2.21852247e-07 9.46370960e-07
      9.46331852e-07 1.19115282e-11 3.56438316e-11 0. 1.80699294e-06 0.
      6.63970070e-07 2.21788540e-07 9.46331852e-07 1.21678602e-06
      1.53148397e-11 4.58278450e-11 0. 2.32353000e-06 0. 8.53697145e-07
      2.85181073e-07 1.21678602e-06 3.12902557e-06 3.30877686e-12
      9.90112246e-12 0. 2.53033407e-13 0. 1.21713583e-06 4.06745471e-07
      3.12902557e-06 4.02303658e-06 4.25414174e-12 1.27300150e-11 0.
      3.25328658e-13 0. 1.56489193e-06 5.22959454e-07 4.02303658e-06
      4.02302703e-06 7.27929609e-12 2.17824300e-11 0. 5.56673414e-13 0.
      1.56488602e-06 5.22957464e-07 4.02302703e-06 5.17246826e-06
      9.35908295e-12 2.80059465e-11 0. 7.15723054e-13 0. 2.01200010e-06
      6.72375222e-07 5.17246826e-06 7.38366090e-10 5.79329424e-07
      1.73356830e-06 0. 1.69441638e-09 0. 4.78090722e-15 1.59769959e-15
      7.38366090e-10 9.48734979e-10 7.44851775e-07 2.22887252e-06 0.
      1.31788302e-09 0. 3.71848353e-15 1.24265514e-15 9.48734979e-10
      1.62333802e-09 7.44851320e-07 2.22887115e-06 0. 2.17853402e-09 0.
      1.05179969e-14 3.51493897e-15 1.62333802e-09 2.08638684e-09
      9.57665520e-07 2.86568979e-06 0. 1.69441816e-09 0. 8.18066369e-15
      2.73384098e-15 2.08638684e-09 1.06571417e-06 3.75726295e-19
      1.12431640e-18 0. 3.32840940e-15 0. 1.32539690e-09 4.42924364e-10
      1.06571417e-06 1.37020163e-06 8.26597864e-19 2.47349585e-18 0.
      4.29222215e-15 0. 2.14015206e-09 7.15201232e-10 1.37020163e-06
      1.37020163e-06 8.26597864e-19 2.47349585e-18 0. 7.32250157e-15 0.
      1.27312461e-09 4.25455809e-10 1.37020163e-06 1.76168487e-06
      1.81851522e-18 5.44169120e-18 0. 9.44288847e-15 0. 2.19753526e-09
      7.34377670e-10 1.76168487e-06 3.94890407e-07 1.61989563e-27
      4.84734573e-27 0. 5.44173758e-07 0. 4.08655843e-18 1.36565947e-18
      3.94890407e-07 5.07716209e-07 7.36318792e-28 2.20334667e-27 0.
      6.99616578e-07 0. 8.99042838e-18 3.00445089e-18 5.07716209e-07
      5.07715242e-07 2.08272029e-27 6.23229428e-27 0. 6.99651991e-07 0.
      8.99042838e-18 3.00445089e-18 5.07715242e-07 6.52776748e-07
      9.46692212e-28 2.83286441e-27 0. 8.99506972e-07 0. 1.97789423e-17
      6.60979224e-18 6.52776748e-07 3.94890407e-07 7.89327885e-07
      2.36196092e-06 -4.84022480e-27 -9.03186137e-11 0. 5.16430987e-07
      1.72582588e-07 3.94890407e-07 5.07716209e-07 1.01485011e-06
      3.03680667e-06 -6.22318463e-27 -2.08462470e-10 0. 6.63981382e-07
      2.21891483e-07 5.07716209e-07 5.07715242e-07 1.01485205e-06
      3.03681281e-06 -2.09742800e-26 -1.21546898e-10 0. 6.63983940e-07
      2.21892336e-07 5.07715242e-07 6.52776748e-07 1.30480987e-06
      3.90447349e-06 -2.69670159e-26 -2.74995415e-10 0. 8.53692029e-07
      2.85289616e-07 6.52776748e-07 1.93313268e-10 4.45642883e-07
      1.27125509e-06 -1.27729194e-07 5.44787895e-07 0. 1.11637905e-06
      3.73080468e-07 1.94685601e-10 1.51842067e-10 5.72856720e-07
      1.63413404e-06 -1.64223238e-07 7.00633336e-07 0. 1.43534521e-06
      4.79675066e-07 1.53606489e-10 2.46934806e-10 5.72968986e-07
      1.63447112e-06 -1.64532096e-07 7.00222017e-07 0. 1.43534737e-06
      4.79681489e-07 2.49953946e-10 1.93154617e-10 7.36529671e-07
      2.10102894e-06 -2.11541277e-07 9.00531973e-07 0. 1.84544729e-06
      6.16733587e-07 1.97036346e-10 8.29296653e-07 -5.89770117e-08
      -1.71755104e-07 -2.18643322e-30 1.01169508e-06 -1.04912849e-19
      7.25971930e-12 -1.81635301e-07 5.80450205e-07 1.06623997e-06
      -7.58257173e-08 -2.20825001e-07 -2.81116013e-30 1.30055957e-06
      -2.30808232e-19 7.44998247e-12 -2.33531708e-07 7.46294859e-07
      1.06625669e-06 -7.58261791e-08 -2.20824759e-07 -9.47452660e-30
      1.30075330e-06 -2.30808232e-19 1.25802858e-11 -2.33530002e-07
      7.46310548e-07 1.37090331e-06 -9.74882468e-08 -2.83913664e-07
      -1.21816160e-29 1.67215114e-06 -5.07778157e-19 1.37524454e-11
      -3.00253703e-07 9.59544423e-07 -2.16729177e-07 1.77977498e-07
      -5.06205993e-07 -1.85973374e-06 1.77572768e-09 -7.37572031e-14
      4.72777095e-10 1.56140462e-10 -2.16726463e-07 -2.78668011e-07
      2.28822756e-07 -6.50834238e-07 -2.39108181e-06 2.50046028e-09
      -5.74322965e-14 6.09148787e-10 2.00360228e-10 -2.78664828e-07
      -2.78634445e-07 2.29134102e-07 -6.49923322e-07 -2.39109090e-06
      1.79822646e-09 -9.48072526e-14 1.03900022e-09 3.45316442e-10
      -2.78630949e-07 -3.58265140e-07 2.94594003e-07 -8.35612809e-07
      -3.07425444e-06 2.59149635e-09 -7.37899867e-14 1.33751821e-09
      4.43474257e-10 -3.58261104e-07 1.24082045e-09 -1.41177987e-12
      -5.73484012e-12 -2.04390926e-06 3.72712236e-07 -1.21463714e-07
      2.64472408e-08 1.20915269e-08 -3.06599134e-07 2.02527883e-09
      -1.23386273e-12 -6.96307595e-12 -2.62788376e-06 4.79877201e-07
      -1.56167303e-07 3.40036124e-08 1.55462416e-08 -3.93769284e-07
      1.73064540e-09 -2.05941297e-12 -1.18757573e-11 -2.62787989e-06
      4.80062340e-07 -1.56167658e-07 3.40035804e-08 1.55463731e-08
      -3.94061772e-07 2.77789480e-09 -1.90055155e-12 -1.47425024e-11
      -3.37870415e-06 6.18091804e-07 -2.00786531e-07 4.37189378e-08
      1.99881995e-08 -5.06098559e-07 -5.31186799e-07 -1.62151912e-06
      -2.35869744e-11 -1.62836147e-06 -1.59142212e-06 -5.80093750e-19
      1.43598277e-06 4.79880327e-07 -2.17586191e-07 -6.82955715e-07
      -2.08481038e-06 -2.91529717e-11 -2.09360360e-06 -2.04610569e-06
      -5.65674441e-19 1.84669454e-06 6.17132969e-07 -2.79752243e-07
      -6.82755740e-07 -2.08480856e-06 -2.34905428e-11 -2.09360564e-06
      -2.04611433e-06 -5.65674441e-19 1.84583246e-06 6.16843977e-07
      -2.79556161e-07 -8.77830416e-07 -2.68046801e-06 -2.86937800e-11
      -2.69177281e-06 -2.63070797e-06 -6.91847867e-19 2.37376753e-06
      7.93270317e-07 -3.59427503e-07 -1.19920549e-06 -3.43074404e-08
      -1.31574518e-06 -6.08173593e-07 1.11509673e-08 -1.50726351e-06
      2.75111620e-06 6.93718334e-07 -1.06144216e-06 -1.54183294e-06
      -4.42541470e-08 -1.69209932e-06 -7.81937501e-07 1.43403316e-08
      -1.93790856e-06 3.53694691e-06 8.91855791e-07 -1.36470862e-06
      -1.54162819e-06 -4.42610499e-08 -1.69208772e-06 -7.81937501e-07
      1.45284806e-08 -1.93791038e-06 3.53714904e-06 8.91923833e-07
      -1.36450387e-06 -1.98209023e-06 -5.70929473e-08 -2.17609022e-06
      -1.00534828e-06 1.86835987e-08 -2.49159643e-06 4.54750307e-06
      1.14667228e-06 -1.75435900e-06 1.52213715e-06 -4.58196553e-07
      -7.52079643e-07 4.11681782e-08 -1.08500785e-06 -1.83617791e-11
      -1.34217203e-07 -1.20485865e-07 1.22314555e-06 1.95703296e-06
      -5.89108538e-07 -9.66956350e-07 5.29315756e-08 -1.39497763e-06
      -1.68609224e-11 -1.72562608e-07 -1.54908690e-07 1.57261536e-06
      1.95703660e-06 -5.89097851e-07 -9.66929974e-07 5.29305488e-08
      -1.39501287e-06 -2.45993000e-11 -1.72568321e-07 -1.54911518e-07
      1.57261979e-06 2.51618894e-06 -7.57409907e-07 -1.24319160e-06
      6.80550087e-08 -1.79354595e-06 -2.29528861e-11 -2.21870494e-07
      -1.99169762e-07 2.02193905e-06 -2.55095983e-07 1.32813773e-06
      5.16474813e-07 -8.85405200e-07 -7.44366631e-08 1.38389972e-12
      -1.34211319e-07 -4.48547866e-08 1.33654692e-06 -3.27961317e-07
      1.70760802e-06 6.64038964e-07 -1.13837814e-06 -9.52170680e-08
      1.07636643e-12 -1.72556639e-07 -5.76706398e-08 1.71842828e-06
      -3.27730874e-07 1.70761757e-06 6.64075515e-07 -1.13837677e-06
      -9.57062909e-08 1.77929958e-12 -1.72556298e-07 -5.76694958e-08
      1.71866225e-06 -4.21343600e-07 2.19551112e-06 8.53811287e-07
      -1.46362743e-06 -1.22424495e-07 1.38389972e-12 -2.21857093e-07
      -7.41467474e-08 2.20972288e-06 -3.87042036e-07 -2.69178969e-07
      2.50292896e-06 2.56725479e-12 2.05563720e-06 -3.34525962e-12
      1.58266480e-13 -1.27338558e-06 -1.04259266e-06 -4.97621159e-07
      -3.46090417e-07 3.21805283e-06 3.00791271e-12 2.64296204e-06
      -5.09581917e-12 -5.91029829e-13 -1.63720767e-06 -1.34047320e-06
      -4.97870474e-07 -3.46087603e-07 3.21805146e-06 5.12083301e-12
      2.64296250e-06 -6.56479168e-12 -9.69529294e-14 -1.63721018e-06
      -1.34071900e-06 -6.40113626e-07 -4.44974035e-07 4.13749558e-06
      6.20741869e-12 3.39809480e-06 -9.46228859e-12 -1.14616736e-12
      -2.10498206e-06 -1.72377770e-06 7.98585177e-07 3.36940680e-08
      -6.76823390e-07 8.64206186e-07 5.43898409e-07 -1.40438583e-12
      -4.65572886e-10 -9.23629443e-07 1.39932376e-06 1.02675608e-06
      4.33148450e-08 -8.70206065e-07 1.11112195e-06 6.99296265e-07
      -8.10861740e-13 -4.78282192e-10 -1.18748119e-06 1.79912888e-06
      1.02658407e-06 4.33318341e-08 -8.70194356e-07 1.11112217e-06
      6.99403643e-07 -2.53716883e-12 -8.24904978e-10 -1.18759920e-06
      1.79896858e-06 1.31989873e-06 5.57045254e-08 -1.11882707e-06
      1.42858539e-06 8.99231168e-07 -1.98307755e-12 -9.05905684e-10
      -1.52685868e-06 2.31295780e-06 -1.01635476e-06 2.32998718e-06
      1.67413737e-06 5.63223860e-12 5.61679713e-07 1.43488799e-09
      -1.33501970e-07 -4.38566552e-08 -1.18045239e-06 -1.30647936e-06
      2.99569183e-06 2.15244813e-06 5.48212170e-12 7.23615528e-07
      1.11602405e-09 -1.72002061e-07 -5.63916238e-08 -1.51746315e-06
      -1.30698697e-06 2.99549401e-06 2.15189630e-06 7.24339078e-12
      7.22159427e-07 1.84485616e-09 -1.71646818e-07 -5.54860158e-08
      -1.51781535e-06 -1.68007443e-06 3.85134081e-06 2.76670517e-06
      7.05271258e-12 9.30362546e-07 1.43488799e-09 -2.21147317e-07
      -7.13449495e-08 -1.95114035e-06 2.94683304e-07 1.13237354e-06
      4.31915481e-07 3.21105425e-12 1.94890595e-06 -7.32124951e-12
      -3.41320808e-12 -8.31444311e-07 1.68849326e-08 3.79142591e-07
      1.45591900e-06 5.55319730e-07 2.38025203e-12 2.50573248e-06
      -1.61066733e-11 -7.02953234e-12 -1.06899734e-06 2.19716743e-08
      3.78878724e-07 1.45592139e-06 5.55325869e-07 -8.60893822e-13
      2.50522430e-06 -9.41300943e-12 1.89903995e-12 -1.06899824e-06
      2.17093152e-08 4.87469322e-07 1.87191256e-06 7.13989607e-07
      -3.35460457e-12 3.22099800e-06 -2.07085616e-11 -9.54108537e-13
      -1.37442339e-06 2.82495733e-08 -8.08837342e-07 5.34369747e-07
      -2.15814844e-12 -3.96289902e-12 1.40532609e-06 -1.57621260e-11
      1.48232971e-07 -1.43804016e-06 -1.91802307e-08 -1.03993955e-06
      6.87137572e-07 -1.86127546e-12 -2.49622632e-12 1.80684572e-06
      -2.13088817e-11 1.90541726e-07 -1.84892656e-06 -2.46775080e-08
      -1.03994194e-06 6.87050829e-07 5.25835994e-13 -4.04031539e-12
      1.80679274e-06 -2.11063961e-11 1.90632832e-07 -1.84889598e-06
      -2.46682159e-08 -1.33707567e-06 8.83467806e-07 1.85035581e-12
      -1.85320552e-12 2.32301659e-06 -2.84781712e-11 2.45043452e-07
      -2.37717518e-06 -3.17383630e-08 -1.32092521e-06 1.73134083e-07
      5.18065576e-07 1.11236369e-28 9.02394731e-07 -1.95963662e-06
      -1.44180990e-06 -1.83006108e-08 1.17784998e-06 -1.69833027e-06
      2.22599695e-07 6.66081519e-07 1.43018378e-28 1.16022647e-06
      -2.51952588e-06 -1.85376007e-06 -2.35312658e-08 1.51437632e-06
      -1.69832890e-06 2.22600264e-07 6.66085612e-07 5.05619564e-29
      1.16021863e-06 -2.51952565e-06 -1.85375234e-06 -2.35216415e-08
      1.51438383e-06 -2.18356286e-06 2.86198770e-07 8.56392205e-07
      6.50083329e-29 1.49171592e-06 -3.23938229e-06 -2.38340181e-06
      -3.02445606e-08 1.94706149e-06 3.88099181e-07 -1.19344998e-06
      1.69695302e-09 -3.39577887e-18 -1.66550489e-11 -1.83723932e-06
      -2.32757657e-06 1.96714905e-06 1.72345017e-06 4.98989948e-07
      -1.53458177e-06 1.75082360e-09 -7.47071314e-18 -1.77542443e-11
      -2.36215624e-06 -2.99254657e-06 2.52919835e-06 2.21585060e-06
      4.98979659e-07 -1.53458063e-06 1.75082360e-09 -7.47071314e-18
      -2.17179209e-11 -2.36216874e-06 -2.99265753e-06 2.52919449e-06
      2.21587311e-06 6.41551878e-07 -1.97321970e-06 1.69695136e-09
      -1.64355692e-17 -2.32181011e-11 -3.03706270e-06 -3.84763598e-06
      3.25182964e-06 2.84896191e-06 1.59532283e-06 -3.00890145e-13
      -1.06027567e-12 -3.72145370e-12 1.12367422e-06 -1.42666693e-06
      -1.41749535e-06 -4.73711395e-07 1.59532544e-06 2.05112929e-06
      -3.86858704e-13 -1.36321152e-12 -3.06059713e-12 1.44472494e-06
      -1.83428597e-06 -1.82248948e-06 -6.09060010e-07 2.05113156e-06
      2.05087326e-06 -6.61958173e-13 -2.33260633e-12 -5.08376631e-12
      1.44472722e-06 -1.83429893e-06 -1.82248652e-06 -6.09051256e-07
      2.05087645e-06 2.63683683e-06 -8.51089164e-13 -2.99906519e-12
      -4.31953388e-12 1.85750775e-06 -2.35838434e-06 -2.34319100e-06
      -7.83069027e-07 2.63683955e-06 -9.73331282e-08 -7.17785298e-08
      -2.14787775e-07 -4.83513071e-14 5.31549582e-10 -2.74412818e-29
      -8.94153516e-07 -1.78769952e-07 -9.73330714e-08 -1.25571944e-07
      -9.22870953e-08 -2.76157010e-07 -1.06372864e-13 1.16940901e-09
      -3.52816373e-29 -1.14962336e-06 -2.29845568e-07 -1.25571873e-07
      -1.25533433e-07 -9.22864842e-08 -2.76155191e-07 -6.21659706e-14
      6.83420376e-10 -1.18912151e-28 -1.14871739e-06 -2.29543232e-07
      -1.25533390e-07 -1.61952173e-07 -1.18654597e-07 -3.55058319e-07
      -1.36765111e-13 1.50352486e-09 -1.52886988e-28 -1.47691890e-06
      -2.95125176e-07 -1.61952130e-07 1.46165166e-06 1.72552291e-07
      5.16340322e-07 -3.26535765e-29 2.11069599e-15 -7.34342525e-34
      -1.00739260e-06 -1.04717890e-06 1.46161892e-06 1.87932653e-06
      2.21852943e-07 6.63866047e-07 -4.19831693e-29 4.64353118e-15
      -3.33792044e-34 -1.29521106e-06 -1.34651157e-06 1.87925434e-06
      1.87866863e-06 2.21825246e-07 6.63783169e-07 -1.41498831e-28
      5.22637836e-15 -5.71155256e-34 -1.29527245e-06 -1.34639413e-06
      1.87862645e-06 2.41550811e-06 2.85203896e-07 8.53435495e-07
      -1.81927074e-28 1.14980318e-14 -2.59616032e-34 -1.66533994e-06
      -1.73125648e-06 2.41541534e-06 7.79284392e-07 3.73072510e-07
      1.11637530e-06 0. 1.40698467e-06 -3.99223669e-27 1.00771352e-07
      3.36761019e-08 7.79284392e-07 1.00197519e-06 4.79666255e-07
      1.43534453e-06 0. 1.80811969e-06 -5.13287601e-27 1.29559524e-07
      4.32966303e-08 1.00197519e-06 1.00150532e-06 4.79665573e-07
      1.43534248e-06 0. 1.80890208e-06 -1.72996950e-26 1.29566786e-07
      4.32990532e-08 1.00150532e-06 1.28769864e-06 6.16714942e-07
      1.84544615e-06 0. 2.32462503e-06 -2.22424632e-26 1.66581202e-07
      5.56686537e-08 1.28769864e-06 1.76959702e-06 4.97402686e-18
      1.48841854e-17 0. 5.17210996e-10 0. 1.56563911e-11 5.23209037e-12
      1.76959702e-06 2.27519627e-06 1.09428600e-17 3.27452085e-17 0.
      1.03504194e-09 0. 2.52419353e-11 8.43541122e-12 2.27519627e-06
      2.27539999e-06 1.09428600e-17 3.27452085e-17 0. 6.64983568e-10 0.
      1.50173519e-11 5.01853507e-12 2.27539999e-06 2.92551454e-06
      2.40742910e-17 7.20394573e-17 0. 1.33076683e-09 0. 2.58809727e-11
      8.64896522e-12 2.92551454e-06 7.42308335e-16 1.53895074e-32
      4.60511285e-32 0. 2.05841372e-10 0. 1.71062193e-31 5.71661299e-32
      7.42308335e-16 1.49616363e-15 3.63670152e-32 1.08823646e-31 0.
      4.52850979e-10 0. 2.05724936e-31 6.87498392e-32 1.49616363e-15
      1.63307825e-15 6.41777774e-32 1.92043721e-31 0. 2.64653188e-10 0.
      3.43685890e-31 1.14854085e-31 1.63307825e-15 3.29156029e-15
      1.46713309e-31 4.39020762e-31 0. 5.82237036e-10 0. 2.63036186e-31
      8.79023038e-32 3.29156029e-15 7.49531637e-08 -2.77560662e-13
      -1.39769725e-07 -2.59950603e-08 2.38914453e-07 0. 4.22376272e-13
      1.41151102e-13 7.49534550e-08 9.63676996e-08 -5.53079013e-13
      -1.79704301e-07 -3.34219905e-08 3.06316281e-07 0. 9.29227832e-13
      3.10532389e-13 9.63683391e-08 9.64650368e-08 -5.35684290e-13
      -1.79704458e-07 -3.34226975e-08 3.07175696e-07 0. 5.43056214e-13
      1.81480319e-13 9.64654134e-08 1.24025661e-07 -9.41014519e-13
      -2.31049086e-07 -4.29717346e-08 3.93835137e-07 0. 1.19472379e-12
      3.99256691e-13 1.24026485e-07 -4.13229273e-09 -6.21140032e-07
      -9.78261596e-07 -1.21477007e-13 1.72034572e-06 0. 1.33397953e-06
      4.45793631e-07 -1.12372542e-10 -5.31233724e-09 -7.98608426e-07
      -1.25776319e-06 -1.13254431e-13 2.21186860e-06 0. 1.71507747e-06
      5.73150203e-07 -1.43868695e-10 -5.41800693e-09 -7.98610699e-07
      -1.25776774e-06 -1.89974813e-13 2.21190953e-06 0. 1.71511635e-06
      5.73163220e-07 -2.49538612e-10 -6.96522440e-09 -1.02678496e-06
      -1.61712774e-06 -1.89057279e-13 2.84387806e-06 0. 2.20509946e-06
      7.36907452e-07 -3.20050736e-10 1.96030501e-11 -1.00476377e-07
      1.09608823e-06 2.24199152e-06 -2.13887984e-06 -6.13519946e-35
      1.00759884e-07 3.36722721e-08 3.02118906e-07 -1.78004736e-10
      -1.29186049e-07 1.40925181e-06 2.88256024e-06 -2.75017146e-06
      -4.77182232e-35 1.29544787e-07 4.32916991e-08 3.88236259e-07
      1.88525983e-11 -1.29184770e-07 1.40925226e-06 2.88255978e-06
      -2.74957824e-06 -2.65858642e-34 1.29546379e-07 4.32922391e-08
      3.88440839e-07 -2.37044356e-10 -1.66097465e-07 1.81188989e-06
      3.70614794e-06 -3.53540759e-06 -2.06778938e-34 1.66554955e-07
      5.56598856e-08 4.99163775e-07 -1.36077301e-06 1.04091754e-07
      3.90576844e-07 -1.04859472e-08 -6.40419955e-07 -3.93993240e-17
      6.50931479e-12 2.13533249e-12 -1.06069899e-06 -1.74998047e-06
      1.34136414e-07 5.03084948e-07 -1.34717668e-08 -8.23581729e-07
      -5.05613918e-17 7.07534161e-12 2.31306987e-12 -1.36417088e-06
      -1.74946558e-06 1.33832359e-07 5.02170337e-07 -1.34819320e-08
      -8.23430355e-07 -8.66785160e-17 8.36911963e-12 2.70888455e-12
      -1.36365657e-06 -2.24984683e-06 1.72461284e-07 6.46823310e-07
      -1.73208434e-08 -1.05893321e-06 -1.11235067e-16 9.09686822e-12
      2.92696314e-12 -1.75380626e-06 -2.33588776e-06 4.07123281e-07
      1.21826406e-06 -1.49441723e-06 -8.45544719e-07 -5.25852312e-19
      2.22185895e-06 7.81354458e-07 -2.25394888e-06 -3.00328429e-06
      5.23617359e-07 1.56685780e-06 -1.92139487e-06 -1.08731967e-06
      -4.08996197e-19 2.85616147e-06 1.00442674e-06 -2.89793388e-06
      -3.00339070e-06 5.23622759e-07 1.56687406e-06 -1.92139396e-06
      -1.08712857e-06 -1.15687506e-18 2.85615488e-06 1.00442423e-06
      -2.89804052e-06 -3.86150259e-06 6.73451893e-07 2.01521857e-06
      -2.47036542e-06 -1.39798124e-06 -8.99791664e-19 3.67153757e-06
      1.29118177e-06 -3.72605177e-06 2.46797839e-07 -3.20152651e-07
      -1.37102722e-06 -3.58527672e-07 1.88576701e-06 -1.52974994e-11
      6.19038432e-10 -5.33995070e-08 -4.80126459e-07 3.17315056e-07
      -4.11627155e-07 -1.76274193e-06 -4.60968238e-07 2.42454917e-06
      -1.19073865e-11 5.98421701e-10 -6.87240203e-08 -6.17303499e-07
      3.17198186e-07 -4.11625081e-07 -1.76272908e-06 -4.60962838e-07
      2.42455963e-06 -1.96588822e-11 9.88655935e-10 -6.85926835e-08
      -6.17421563e-07 4.07830811e-07 -5.29235365e-07 -2.26635643e-06
      -5.92671654e-07 3.11728058e-06 -1.52974994e-11 1.01721898e-09
      -8.82773961e-08 -7.93825222e-07 9.41217081e-07 1.15373939e-06
      -7.17501558e-10 -1.47171442e-09 -5.77745540e-09 -6.37286519e-07
      -1.45972126e-06 2.26724897e-08 4.35176815e-07 1.21007599e-06
      1.48430718e-06 -9.19121779e-10 -1.89220439e-09 -8.42627212e-09
      -8.19374634e-07 -1.87646958e-06 2.92555988e-08 5.59252896e-07
      1.21018854e-06 1.48337551e-06 -5.60474833e-10 -1.13367749e-09
      -7.46187112e-09 -8.19368381e-07 -1.87658065e-06 2.92245144e-08
      5.59555872e-07 1.55587952e-06 1.90839023e-06 -7.16267046e-10
      -1.45758539e-09 -1.08771241e-08 -1.05348158e-06 -2.41234125e-06
      3.77097678e-08 7.19094771e-07 -1.25157908e-06 5.46401964e-07
      -2.80030395e-06 -1.67374725e-11 1.72598561e-06 1.62522578e-12
      1.96370285e-12 1.25000577e-06 1.64372818e-06 -1.60917455e-06
      7.02514626e-07 -3.60038598e-06 -9.29810048e-12 2.21916662e-06
      -2.83873402e-12 -7.53230757e-13 1.60714364e-06 2.11336214e-06
      -1.60916238e-06 7.02504622e-07 -3.60038894e-06 -2.52394945e-11
      2.21912501e-06 2.84176675e-12 3.04770553e-12 1.60714967e-06
      2.11339920e-06 -2.06892514e-06 9.03217256e-07 -4.62906519e-06
      -1.67374396e-11 2.85321494e-06 -2.68268957e-12 -2.96081410e-13
      2.06632694e-06 2.71722411e-06 -1.56154181e-06 -8.74536141e-08
      -2.61634568e-07 -1.87097885e-12 1.41200405e-06 7.28072116e-12
      2.29255943e-06 9.43617067e-07 -2.22220683e-06 -2.00769864e-06
      -1.12434385e-07 -3.36389434e-07 -2.40555189e-12 1.81543408e-06
      7.64059649e-12 2.94757274e-06 1.21322432e-06 -2.85713827e-06
      -2.00769819e-06 -1.12446244e-07 -3.36387814e-07 -1.45518504e-12
      1.81543021e-06 7.21826808e-12 2.94757456e-06 1.21323524e-06
      -2.85711803e-06 -2.58132854e-06 -1.44566059e-07 -4.32501935e-07
      -1.87096844e-12 2.33412447e-06 7.06877829e-12 3.78973436e-06
      1.55987686e-06 -3.67345638e-06 2.18597938e-06 1.73554795e-07
      -4.84236352e-07 -1.05345907e-06 1.06448162e-07 5.04597665e-07
      2.46696487e-07 -4.18822736e-07 -1.12354985e-06 2.81050916e-06
      2.23147808e-07 -6.22590221e-07 -1.35444736e-06 1.36861928e-07
      6.48768093e-07 3.17179456e-07 -5.38488564e-07 -1.44460262e-06
      2.81056032e-06 2.23148604e-07 -6.22590562e-07 -1.35444691e-06
      1.36783527e-07 6.48768378e-07 3.17178433e-07 -5.38488337e-07
      -1.44456806e-06 3.61353182e-06 2.86912979e-07 -8.00474481e-07
      -1.74143167e-06 1.75864542e-07 8.34130446e-07 4.07798609e-07
      -6.92344884e-07 -1.85735132e-06 -1.54609734e-06 2.55342547e-06
      -8.29930457e-07 1.19208950e-12 1.40538305e-06 3.93786522e-12
      5.95817262e-08 7.42699797e-07 -2.83494683e-06 -1.98784278e-06
      3.28297506e-06 -1.06704556e-06 3.31347037e-12 1.80692280e-06
      7.04940446e-12 7.66053176e-08 9.54899519e-07 -3.64492848e-06
      -1.98784596e-06 3.28297824e-06 -1.06704840e-06 1.91651296e-12
      1.80692359e-06 8.07008887e-12 7.66014736e-08 9.54897473e-07
      -3.64493962e-06 -2.55580653e-06 4.22097219e-06 -1.37190955e-06
      4.75367488e-12 2.32319007e-06 1.29298221e-11 9.84879307e-08
      1.22772519e-06 -4.68634698e-06 -2.74062984e-07 5.45655951e-07
      8.11939117e-07 -1.20097150e-06 1.40574707e-06 -2.76472605e-07
      -1.35156398e-07 -5.78153541e-12 -2.21881328e-06 -3.52443834e-07
      7.01555450e-07 1.04392007e-06 -1.54410600e-06 1.80738766e-06
      -3.55468359e-07 -1.73774652e-07 -6.89522961e-12 -2.85283090e-06
      -3.52257445e-07 7.01558690e-07 1.04391881e-06 -1.54410100e-06
      1.80707957e-06 -3.55465147e-07 -1.73767717e-07 -1.17507488e-11
      -2.85265014e-06 -4.53001434e-07 9.02001318e-07 1.34217873e-06
      -1.98527232e-06 2.32338630e-06 -4.57031206e-07 -2.23418425e-07
      -1.44161193e-11 -3.66778431e-06 6.60436513e-07 5.76597415e-07
      4.20503771e-10 -1.96869483e-11 -2.55382104e-11 -9.79625952e-07
      3.85336421e-07 -1.05018458e-07 -2.85421777e-07 8.48879608e-07
      7.41534279e-07 1.09758747e-09 -2.56374245e-11 -5.57572738e-11
      -1.25951851e-06 4.95544100e-07 -1.34985569e-07 -3.67216018e-07
      8.49119715e-07 7.41321230e-07 5.73122216e-10 -1.54930010e-11
      -3.45559553e-11 -1.26024577e-06 4.94968276e-07 -1.35061939e-07
      -3.66973325e-07 1.09139933e-06 9.53378105e-07 1.45293688e-09
      -2.03382658e-11 -7.38996503e-11 -1.62031483e-06 6.36531183e-07
      -1.73601990e-07 -4.72137856e-07 1.59677302e-06 3.09647044e-06
      -3.48992131e-07 5.00429212e-12 -1.24387418e-06 -2.48007382e-06
      -1.96598675e-11 5.35547485e-07 4.01829041e-08 2.05298784e-06
      3.98118254e-06 -4.48705407e-07 5.69346306e-12 -1.59926549e-06
      -3.18868479e-06 -4.19100865e-11 6.88550756e-07 5.16681240e-08
      2.05298215e-06 3.98117572e-06 -4.48707539e-07 3.18331928e-12
      -1.59925503e-06 -3.18867342e-06 -2.43904723e-11 6.88562750e-07
      5.16613348e-08 2.63954098e-06 5.11866301e-06 -5.76911248e-07
      3.14061212e-12 -2.05618335e-06 -4.09974746e-06 -5.27445136e-11
      8.85281793e-07 6.64274111e-08 -1.71483293e-06 -1.33425010e-06
      -1.02663995e-10 -1.47640476e-16 1.17713455e-06 -2.04951539e-06
      2.37415247e-06 3.06177185e-07 -6.06505239e-07 -2.20506149e-06
      -1.71545878e-06 -1.31915784e-10 -1.91445976e-16 1.51346421e-06
      -2.63508400e-06 3.05253570e-06 3.93668699e-07 -7.80061669e-07
      -2.20468951e-06 -1.71546731e-06 -7.99329977e-11 -3.24809051e-16
      1.51297343e-06 -2.63508150e-06 3.05247454e-06 3.93560612e-07
      -7.79714469e-07 -2.83495660e-06 -2.20559355e-06 -1.02665938e-10
      -4.21181098e-16 1.94525865e-06 -3.38795235e-06 3.92467973e-06
      5.06022332e-07 -1.00283660e-06 -1.14721445e-06 -9.92229388e-07
      -4.52920514e-12 -5.39030712e-12 2.39199608e-06 -1.10188424e-07
      -3.28840429e-06 -6.99973498e-07 4.01109901e-07 -1.47501737e-06
      -1.27572343e-06 -8.23075028e-12 -1.18586755e-11 3.07623441e-06
      -1.42288300e-07 -4.22823405e-06 -8.99966494e-07 5.15695376e-07
      -1.47465812e-06 -1.27572355e-06 -5.82460686e-12 -6.93039506e-12
      3.07498590e-06 -1.41678797e-07 -4.22795301e-06 -8.99951715e-07
      5.16103853e-07 -1.89602417e-06 -1.64021617e-06 -1.05850814e-11
      -1.52468680e-11 3.95459665e-06 -1.82952007e-07 -5.43630631e-06
      -1.15708144e-06 6.63539765e-07 5.93277548e-07 -1.67361998e-06
      -1.39073535e-07 2.01737986e-17 -2.04593562e-06 7.57874406e-12
      1.63443565e-06 5.46204774e-07 5.93278742e-07 7.62786385e-07
      -2.15179716e-06 -1.78808833e-07 1.56907311e-17 -2.62999947e-06
      5.89457866e-12 2.10143230e-06 7.02264686e-07 7.62787124e-07
      7.62881541e-07 -2.15179693e-06 -1.78808833e-07 4.43823559e-17
      -2.63048128e-06 9.74406320e-12 2.10139683e-06 7.02256443e-07
      7.62882735e-07 9.80849450e-07 -2.76659603e-06 -2.29897068e-07
      3.45196102e-17 -3.38141854e-06 7.57871630e-12 2.70181522e-06
      9.02902968e-07 9.80849904e-07 -1.60250067e-07 1.89866325e-13
      -8.74080456e-07 6.38554241e-07 1.95142684e-06 2.82063890e-12
      9.32741841e-07 3.11700120e-07 -1.60252753e-07 -2.06034414e-07
      -4.70155338e-12 -1.12381883e-06 8.20995808e-07 2.50897256e-06
      6.20547103e-12 1.19923845e-06 4.00757358e-07 -2.06035992e-07
      -2.05939017e-07 -3.54250938e-12 -1.12382452e-06 8.20999730e-07
      2.50897210e-06 3.62657712e-12 1.19924516e-06 4.00757727e-07
      -2.05942115e-07 -2.64776958e-07 -1.09133726e-11 -1.44491912e-06
      1.05556796e-06 3.22581514e-06 7.97851975e-12 1.54188535e-06
      5.15260126e-07 -2.64778492e-07 -8.26769394e-07 7.89328851e-07
      2.36196388e-06 -3.62723702e-30 1.79327975e-09 -5.85867461e-08
      -1.45353545e-06 -5.77086556e-12 -8.26769906e-07 -1.06298501e-06
      1.01485136e-06 3.03681054e-06 -4.66359008e-30 2.78632206e-09
      -7.53258078e-08 -1.86883153e-06 -6.31106755e-12 -1.06298569e-06
      -1.06299069e-06 1.01485136e-06 3.03681054e-06 -1.64874405e-30
      2.31107022e-09 -7.53258078e-08 -1.86883540e-06 -8.36737710e-12
      -1.06299183e-06 -1.36669712e-06 1.30480885e-06 3.90447030e-06
      -2.11981373e-30 3.58938812e-09 -9.68474723e-08 -2.40278882e-06
      -9.33269694e-12 -1.36669848e-06 3.94991986e-07 5.87578217e-13
      4.45744570e-12 0. 1.18054754e-06 -3.60587385e-12 -1.72726072e-06
      -5.77219737e-07 3.94991986e-07 5.07941138e-07 1.89467496e-12
      7.76894174e-12 0. 1.51784684e-06 -5.62759951e-12 -2.22076619e-06
      -7.42139264e-07 5.07941081e-07 5.07846948e-07 1.43650836e-12
      7.76895649e-12 0. 1.51803431e-06 -6.94143918e-12 -2.22076051e-06
      -7.42138127e-07 5.07847062e-07 6.53067445e-07 3.31180526e-12
      1.26093415e-11 0. 1.95175835e-06 -1.01994567e-11 -2.85526608e-06
      -9.54177040e-07 6.53067445e-07 1.22424694e-06 4.45771036e-07
      1.33391700e-06 0. 3.76421144e-10 -1.93362242e-26 3.92609306e-10
      1.31199634e-10 1.22424694e-06 1.57412433e-06 5.73133889e-07
      1.71503530e-06 0. 2.95834662e-10 -2.48608143e-26 5.04783493e-10
      1.68687050e-10 1.57412433e-06 1.57400734e-06 5.73133889e-07
      1.71503530e-06 0. 4.80907425e-10 -8.37903032e-26 3.05362402e-10
      1.02039044e-10 1.57400723e-06 2.02384263e-06 7.36886022e-07
      2.20504376e-06 0. 3.76421172e-10 -1.07730198e-25 3.92609112e-10
      1.31197081e-10 2.02384263e-06 5.62019771e-11 1.89126076e-11
      -1.52803756e-10 -2.20447091e-10 3.35783579e-06 -1.27540975e-32
      5.16434852e-07 1.72583910e-07 5.62019771e-11 9.06113587e-11
      2.64610330e-11 -3.81492921e-10 -4.84983609e-10 4.31741364e-06
      -5.52677594e-32 6.63990761e-07 2.21894595e-07 9.06113587e-11
      5.39080169e-11 3.94623778e-11 -1.51137852e-10 -2.83431972e-10
      4.31702074e-06 -2.80590178e-32 6.63986384e-07 2.21893174e-07
      5.39080169e-11 9.29053154e-11 5.34944936e-11 -4.32217540e-10
      -6.23550378e-10 5.55070710e-06 -1.21589068e-31 8.53700783e-07
      2.85292515e-07 9.29053154e-11 7.50365245e-08 -2.04826989e-07
      -8.92885680e-07 -1.41187471e-07 5.26780752e-07 -7.02105973e-36
      4.22375161e-13 1.41150722e-13 7.50365245e-08 9.63778177e-08
      -2.63221125e-07 -1.14761372e-06 -1.81526858e-07 6.76885350e-07
      -2.18129220e-35 5.43053775e-13 1.81479492e-13 9.63778177e-08
      9.64761924e-08 -2.63221096e-07 -1.14761337e-06 -1.81526943e-07
      6.77094476e-07 -1.54463301e-35 9.29225338e-13 3.10531575e-13
      9.64761924e-08 1.23915200e-07 -3.38262765e-07 -1.47501169e-06
      -2.33391944e-07 8.70030306e-07 -4.79884290e-35 1.19471837e-12
      3.99254902e-13 1.23915200e-07 1.31799413e-06 -7.16743386e-07
      -1.62500146e-06 -4.00776715e-13 2.03314380e-06 -1.40321475e-07
      1.11076443e-17 3.52742321e-18 1.31799504e-06 1.69456223e-06
      -9.21522997e-07 -2.08928031e-06 -5.13916329e-13 2.61464061e-06
      -1.80413323e-07 2.44368162e-17 7.76033057e-18 1.69456268e-06
      1.69466227e-06 -9.21526805e-07 -2.08928759e-06 -3.86502733e-13
      2.61404557e-06 -1.80413323e-07 2.44368162e-17 7.76033057e-18
      1.69466341e-06 2.17884894e-06 -1.18481478e-06 -2.68621739e-06
      -4.95868104e-13 3.36168546e-06 -2.31960030e-07 5.37609926e-17
      1.70727283e-17 2.17884963e-06 1.45867944e-06 -6.05653042e-07
      -1.54581460e-06 -7.21038724e-12 6.66189067e-07 -4.81208064e-13
      -6.84738877e-10 -2.29355090e-10 1.76403466e-06 1.87520880e-06
      -7.78524452e-07 -1.98695966e-06 -1.74604619e-11 8.56338943e-07
      -6.18696067e-13 -6.54597598e-10 -2.20600538e-10 2.26780776e-06
      1.87599801e-06 -7.78695835e-07 -1.98747671e-06 -2.56856797e-12
      8.55558312e-07 -1.05865761e-12 -1.11276810e-09 -3.71859321e-10
      2.26859743e-06 2.41169346e-06 -1.00095872e-06 -2.55466352e-06
      -1.38323979e-11 1.09975952e-06 -1.36113137e-12 -1.14041143e-09
      -3.82594928e-10 2.91646347e-06 -2.88696810e-07 2.01975459e-09
      -6.62394996e-07 -1.35665664e-06 -1.36608867e-06 -5.24973502e-11
      1.79188742e-09 -6.04828244e-07 -5.07256345e-07 -3.70853684e-07
      4.04504696e-09 -8.52077676e-07 -1.74427521e-06 -1.75640969e-06
      -5.18169396e-11 1.39369016e-09 -7.77940215e-07 -6.52187737e-07
      -3.71180761e-07 2.59687516e-09 -8.51650611e-07 -1.74425861e-06
      -1.75595017e-06 -8.18590751e-11 2.30385533e-09 -7.77636217e-07
      -6.52186088e-07 -4.76810953e-07 5.20083621e-09 -1.09552832e-06
      -2.24262112e-06 -2.25766325e-06 -8.50877979e-11 1.79188742e-09
      -1.00020861e-06 -8.38526432e-07 3.38871359e-07 -4.58187941e-07
      -8.17449518e-07 -8.90715228e-07 -7.56052643e-08 -2.04397653e-12
      9.32735077e-07 3.01751413e-07 4.08215158e-07 4.35685848e-07
      -5.89088074e-07 -1.05100571e-06 -1.14520026e-06 -9.72204006e-08
      -2.62797163e-12 1.19922788e-06 3.87962075e-07 5.24843358e-07
      4.35698752e-07 -5.89092110e-07 -1.05102060e-06 -1.14519548e-06
      -9.72031415e-08 -1.58976207e-12 1.19923106e-06 3.87966111e-07
      5.24849270e-07 5.60176886e-07 -7.57390353e-07 -1.35131108e-06
      -1.47238791e-06 -1.24993633e-07 -2.04398347e-12 1.54186455e-06
      4.98808447e-07 6.74800219e-07 -5.63297704e-07 -1.72232077e-07
      -1.27464489e-06 1.08045685e-06 9.78909043e-07 -2.42527522e-14
      -9.00660382e-08 8.02274727e-08 -5.35924357e-07 -7.24140023e-07
      -2.21432643e-07 -1.63883158e-06 1.38916425e-06 1.25859617e-06
      -3.11852052e-14 -1.15998724e-07 1.03077518e-07 -6.88962871e-07
      -7.24141728e-07 -2.21449469e-07 -1.63883180e-06 1.38915607e-06
      1.25860595e-06 -5.33569669e-14 -1.15798635e-07 1.03151649e-07
      -6.88938826e-07 -9.30910971e-07 -2.84709756e-07 -2.10707276e-06
      1.78606410e-06 1.61820708e-06 -6.86076223e-14 -1.49140519e-07
      1.32530701e-07 -8.85672023e-07 2.28625225e-07 2.76440278e-06
      3.45383739e-08 1.74908937e-12 -1.24926066e-06 -2.03799641e-06
      -3.15352864e-08 -3.07426262e-07 6.62818763e-07 2.93952382e-07
      3.55423890e-06 4.44074608e-08 1.80490139e-12 -1.60620186e-06
      -2.62028084e-06 -4.05476897e-08 -3.95266255e-07 8.52197275e-07
      2.93948233e-07 3.55423208e-06 4.44081749e-08 1.10193868e-11
      -1.60617549e-06 -2.62028107e-06 -4.05470360e-08 -3.95269922e-07
      8.52194376e-07 3.77940836e-07 4.56973521e-06 5.70974841e-08
      1.35969916e-11 -2.06509549e-06 -3.36893299e-06 -5.21348902e-08
      -5.08209268e-07 1.09568055e-06 -2.16204126e-06 1.24552187e-07
      5.57037538e-07 -1.18014825e-07 -7.42337528e-12 3.41766481e-12
      -6.17553496e-07 -4.01628668e-08 1.34151082e-06 -2.77977142e-06
      1.60136523e-07 7.16183990e-07 -1.51706615e-07 -9.24025613e-12
      7.51886227e-12 -7.93993593e-07 -5.16314245e-08 1.72479463e-06
      -2.77975710e-06 1.60146229e-07 7.16186662e-07 -1.51729438e-07
      -1.50551967e-11 4.39414043e-12 -7.94000073e-07 -5.16393470e-08
      1.72479974e-06 -3.57397880e-06 2.05899724e-07 9.20802279e-07
      -1.95046198e-07 -1.89656502e-11 9.66710913e-12 -1.02085232e-06
      -6.63850912e-08 2.21759387e-06 7.04527793e-07 2.27494070e-07
      -4.16646657e-07 8.46090487e-08 6.11032874e-07 3.01480128e-07
      -1.14147690e-06 -1.19045701e-07 2.34734011e-06 9.08469474e-07
      2.92724650e-07 -5.35686240e-07 1.08781734e-07 7.85612940e-07
      3.87619735e-07 -1.46761386e-06 -1.53060910e-07 3.01730779e-06
      9.07111200e-07 2.93428741e-07 -5.35687377e-07 1.08783638e-07
      7.85614816e-07 3.87617774e-07 -1.46808020e-06 -1.55123189e-07
      3.01800469e-06 1.16969045e-06 3.77563993e-07 -6.88737771e-07
      1.39862976e-07 1.01007527e-06 4.98368820e-07 -1.88753268e-06
      -1.99446902e-07 3.87939053e-06 5.97007812e-08 -1.17704997e-06
      -1.22479562e-07 -5.59069463e-07 3.42975056e-07 5.42047587e-07
      -1.90707752e-08 8.41722624e-07 -1.07022322e-06 7.67529471e-08
      -1.51335132e-06 -1.57478937e-07 -7.18801118e-07 4.40970382e-07
      6.96912821e-07 -2.45145131e-08 1.08221741e-06 -1.37600955e-06
      7.67691120e-08 -1.51335280e-06 -1.57480642e-07 -7.18800663e-07
      4.40970553e-07 6.96913560e-07 -2.45209737e-08 1.08222423e-06
      -1.37599920e-06 9.86968161e-08 -1.94574159e-06 -2.02481345e-07
      -9.24168774e-07 5.66965355e-07 8.96024517e-07 -3.15204751e-08
      1.39143435e-06 -1.76915239e-06 -5.48600156e-07 1.03225011e-06
      -5.11927510e-07 -4.61414487e-07 8.60970601e-07 1.12013697e-06
      -9.91678633e-08 -4.39349463e-07 -2.34506319e-06 -7.05348896e-07
      1.32713114e-06 -6.58426529e-07 -5.93292611e-07 1.10696408e-06
      1.44017520e-06 -1.27506397e-07 -5.64880736e-07 -3.01508203e-06
      -7.05243281e-07 1.32717867e-06 -6.58172610e-07 -5.93259415e-07
      1.10674682e-06 1.44017326e-06 -1.27500854e-07 -5.64876075e-07
      -3.01498380e-06 -9.06748198e-07 1.70631142e-06 -8.46522937e-07
      -7.62820548e-07 1.42296244e-06 1.85165038e-06 -1.63935937e-07
      -7.26272901e-07 -3.87640875e-06 -7.94810035e-07 3.41067789e-07
      7.06016579e-07 1.76989556e-06 1.99429188e-11 7.49247799e-12
      9.16569598e-12 7.75902890e-07 -2.10641429e-06 -1.02189983e-06
      4.38514945e-07 9.07748927e-07 2.27558644e-06 1.93216346e-11
      1.05099115e-11 1.11684065e-11 9.97589950e-07 -2.70825058e-06
      -1.02189210e-06 4.38510483e-07 9.07742901e-07 2.27558553e-06
      3.22478676e-11 6.19179968e-12 8.61455612e-12 9.97593816e-07
      -2.70824330e-06 -1.31386287e-06 5.63798153e-07 1.16711533e-06
      2.92576169e-06 3.33367535e-11 9.08808705e-12 1.02837695e-11
      1.28262172e-06 -3.48203230e-06 3.28133547e-06 -5.41286568e-07
      -8.81297751e-07 -1.73493446e-12 -8.18451535e-13 4.96037387e-07
      -5.21352547e-07 -1.49052266e-06 -1.08286438e-08 4.21885943e-06
      -6.95950746e-07 -1.13309875e-06 -1.34940897e-12 -1.23536077e-12
      6.37772416e-07 -6.70318798e-07 -1.91638378e-06 -1.39227954e-08
      4.21886079e-06 -6.95941594e-07 -1.13310489e-06 -2.23062844e-12
      -1.68738477e-13 6.37758774e-07 -6.70313796e-07 -1.91637014e-06
      -1.39197542e-08 5.42424868e-06 -8.94796131e-07 -1.45685101e-06
      -1.73496124e-12 -4.52319145e-13 8.19988372e-07 -8.61842352e-07
      -2.46390118e-06 -1.78972588e-08 -6.20656294e-07 -1.28932265e-06
      -1.01675437e-06 5.25735185e-12 1.40537441e-06 4.57445680e-07
      2.56088265e-06 -5.37294000e-07 -1.97583995e-06 -7.97986957e-07
      -1.65770950e-06 -1.30726096e-06 9.51530348e-12 1.80690881e-06
      5.88141802e-07 3.29257091e-06 -6.90813806e-07 -2.54036559e-06
      -7.97980761e-07 -1.65771075e-06 -1.30726676e-06 8.89203901e-12
      1.80690972e-06 5.88148453e-07 3.29256000e-06 -6.90796753e-07
      -2.54035513e-06 -1.02597585e-06 -2.13135422e-06 -1.68077827e-06
      1.49758574e-11 2.32316847e-06 7.56187319e-07 4.23330130e-06
      -8.88177397e-07 -3.26617032e-06 -2.27670830e-06 -4.58871597e-07
      4.66637786e-08 1.02523938e-06 8.94609229e-07 -6.84453994e-07
      -6.22800016e-08 2.89883843e-07 4.81448467e-07 -2.92719892e-06
      -5.89975173e-07 6.00133063e-08 1.31816319e-06 1.15024409e-06
      -8.80051232e-07 -8.00744289e-08 3.72710986e-07 6.19005618e-07
      -2.92694972e-06 -5.89976651e-07 6.00300041e-08 1.31817160e-06
      1.15020100e-06 -8.80013999e-07 -8.00747983e-08 3.72706694e-07
      6.19265165e-07 -3.76322441e-06 -7.58538079e-07 7.72032962e-08
      1.69478960e-06 1.47887158e-06 -1.13149645e-06 -1.02953521e-07
      4.79198320e-07 7.96198947e-07 1.07580661e-06 -1.33521826e-06
      -5.75025751e-07 -1.15613786e-11 5.90868240e-07 5.30362229e-07
      7.86758335e-07 -1.10152223e-06 1.20547475e-06 1.38318364e-06
      -1.71670922e-06 -7.39329835e-07 -2.66833292e-11 7.59639079e-07
      6.81932477e-07 1.01155422e-06 -1.41624730e-06 1.54989732e-06
      1.38320138e-06 -1.71671468e-06 -7.39326765e-07 -1.36163468e-11
      7.59679551e-07 6.81906272e-07 1.01154467e-06 -1.41624776e-06
      1.54991221e-06 1.77840639e-06 -2.20720472e-06 -9.50577089e-07
      -3.27022159e-11 9.76668275e-07 8.76785691e-07 1.30056731e-06
      -1.82089570e-06 1.99274564e-06 2.10880717e-06 5.08715118e-07
      -1.93555638e-06 -1.65062755e-10 -1.50585129e-06 1.00107712e-07
      5.38274492e-07 -1.42186400e-06 1.62041431e-06 2.71133013e-06
      6.54057033e-07 -2.48857828e-06 -1.71236192e-10 -1.93608025e-06
      1.28709331e-07 6.92067772e-07 -1.82811766e-06 2.08339634e-06
      2.71131262e-06 6.54057999e-07 -2.48857259e-06 -1.98159031e-10
      -1.93610367e-06 1.28709914e-07 6.92065896e-07 -1.82811709e-06
      2.08338315e-06 3.48598201e-06 8.40924884e-07 -3.19960054e-06
      -2.02077896e-10 -2.48925789e-06 1.65483414e-07 8.89800049e-07
      -2.35044490e-06 2.67864380e-06 -7.60186538e-07 3.73073021e-07
      1.11637257e-06 -1.63681476e-35 -1.44227796e-09 -1.15535158e-10
      9.25673532e-07 1.09365999e-06 -7.71074724e-07 -9.77446689e-07
      4.79665289e-07 1.43533600e-06 -7.44006707e-36 -1.14897913e-09
      -1.56689800e-10 1.19014942e-06 1.40613315e-06 -9.91446996e-07
      -9.77382115e-07 4.79667165e-07 1.43534169e-06 -3.60099235e-35
      -1.90315563e-09 -8.57670948e-11 1.19017693e-06 1.40614668e-06
      -9.91379579e-07 -1.25671636e-06 6.16714829e-07 1.84543887e-06
      -1.63681476e-35 -1.53999824e-09 -1.20743582e-10 1.53022359e-06
      1.80790130e-06 -1.27471469e-06 1.91945469e-06 -4.95284516e-16
      -5.05453101e-12 -1.02975666e-11 -1.50538438e-06 -2.63420553e-11
      1.49473931e-06 3.64785421e-07 7.26905228e-07 2.46787340e-06
      -3.82671274e-16 -6.49866402e-12 -8.86852484e-12 -1.93496089e-06
      -3.12652300e-11 1.92180664e-06 4.69000327e-07 9.34594198e-07
      2.46786976e-06 -1.06043972e-15 -1.11199348e-11 -1.47864793e-11
      -1.93548817e-06 -2.76036312e-11 1.92180983e-06 4.69003055e-07
      9.34591014e-07 3.17297895e-06 -8.22803199e-16 -1.42970445e-11
      -1.33910695e-11 -2.48779907e-06 -3.21435031e-11 2.47089702e-06
      6.02991804e-07 1.20161906e-06 1.22489939e-06 6.01531103e-10
      1.80000326e-09 0. 5.44101454e-07 -1.14586628e-12 -1.50353208e-06
      -6.09587801e-07 1.22489826e-06 1.57443924e-06 7.72714726e-10
      2.31224817e-09 0. 6.99560303e-07 -1.52549338e-12 -1.93255596e-06
      -7.83571124e-07 1.57443776e-06 1.57476302e-06 4.68538319e-10
      1.40203993e-09 0. 6.99559052e-07 -2.43048875e-12 -1.93366350e-06
      -7.83938390e-07 1.57476131e-06 2.02414071e-06 6.01529937e-10
      1.79999993e-09 0. 8.99434667e-07 -3.19207659e-12 -2.48542347e-06
      -1.00768330e-06 2.02413844e-06 3.94886030e-07 3.15029058e-10
      9.42683598e-10 0. -3.94203497e-08 -4.63626332e-10 2.36194069e-06
      7.89315948e-07 3.94886030e-07 5.07707114e-07 5.49050860e-10
      1.64296310e-09 0. -5.05960074e-08 -3.65878244e-10 3.03678962e-06
      1.01483488e-06 5.07707114e-07 5.07710638e-07 5.49050860e-10
      1.64296310e-09 0. -5.07702502e-08 -5.90811122e-10 3.03679099e-06
      1.01482760e-06 5.07710638e-07 6.52766289e-07 8.91082930e-10
      2.66645017e-09 0. -6.51637038e-08 -4.63626360e-10 3.90445621e-06
      1.30477849e-06 6.52766289e-07 9.90974968e-07 8.98665462e-07
      2.57598367e-06 -1.42870156e-12 -1.42039852e-07 0. 2.47669702e-12
      7.27469517e-13 9.90974968e-07 1.27411329e-06 1.15542514e-06
      3.31197361e-06 -1.76472780e-12 -1.82427797e-07 0. 1.92631978e-12
      5.14914771e-13 1.27411317e-06 1.27420572e-06 1.15542741e-06
      3.31197907e-06 -1.82486990e-12 -1.82623836e-07 0. 3.18639060e-12
      8.44397794e-13 1.27420560e-06 1.63826792e-06 1.48554716e-06
      4.25825147e-06 -2.25348256e-12 -2.34551536e-07 0. 2.47830402e-12
      5.44785408e-13 1.63826780e-06 9.90859803e-07 9.66933158e-07
      2.89344302e-06 -2.36058185e-07 -5.15779902e-07 -1.40978386e-07
      1.07007727e-11 3.57601470e-12 9.90863555e-07 1.27395936e-06
      1.24319672e-06 3.72013233e-06 -3.03502418e-07 -6.62638740e-07
      -1.81257931e-07 1.80616581e-11 6.03589357e-12 1.27396424e-06
      1.27396106e-06 1.24319297e-06 3.72014165e-06 -3.03503583e-07
      -6.63150900e-07 -1.81257931e-07 1.51925694e-11 5.07709630e-12
      1.27396618e-06 1.63794573e-06 1.59838703e-06 4.78302763e-06
      -3.90217650e-07 -8.51970924e-07 -2.33045924e-07 2.50664108e-11
      8.37676196e-12 1.63795232e-06 -7.13900704e-07 3.61527043e-07
      2.89354011e-06 -2.76367644e-12 1.94955396e-06 -3.06445928e-12
      7.67089517e-12 3.71041609e-12 -3.83208175e-07 -9.17868192e-07
      4.64825348e-07 3.72025443e-06 -3.55330305e-12 2.50653352e-06
      -3.03434469e-12 7.98040800e-12 3.55897104e-12 -4.92693971e-07
      -9.17884108e-07 4.64825121e-07 3.72028080e-06 -2.14952773e-12
      2.50655717e-06 -4.10716990e-12 1.34880501e-11 5.98209416e-12
      -4.92707272e-07 -1.18013099e-06 5.97638802e-07 4.78320271e-06
      -2.76368381e-12 3.22267056e-06 -4.11619740e-12 1.49218485e-11
      6.13354289e-12 -6.33477839e-07 -7.66871324e-07 -8.34651587e-07
      -2.14815054e-06 -1.08588605e-12 1.96742940e-06 -1.39731082e-18
      1.11638701e-06 2.81793928e-06 -1.79204434e-07 -9.85976840e-07
      -1.07312644e-06 -2.76191008e-06 -1.39613256e-12 2.52954396e-06
      -3.07408336e-18 1.43535226e-06 3.62306423e-06 -2.30400730e-07
      -9.85630436e-07 -1.07312610e-06 -2.76191304e-06 -2.38892825e-12
      2.52955579e-06 -3.07408336e-18 1.43535669e-06 3.62305968e-06
      -2.30052635e-07 -1.26723819e-06 -1.37973757e-06 -3.55103407e-06
      -3.07147515e-12 3.25227575e-06 -6.76298402e-18 1.84545524e-06
      4.65821859e-06 -2.95775550e-07 -5.83659869e-07 -4.37056400e-08
      1.19415267e-06 7.63169169e-07 -1.72887525e-07 -2.04143385e-06
      1.08796594e-09 3.58195862e-10 -8.08525954e-07 -7.50634001e-07
      -5.61912081e-08 1.53534199e-06 9.81220978e-07 -2.22280292e-07
      -2.62470553e-06 1.20537935e-09 3.96503635e-10 -1.03974207e-06
      -7.50421293e-07 -5.61968889e-08 1.53533369e-06 9.81213589e-07
      -2.22281841e-07 -2.62470553e-06 2.03432293e-09 6.76104561e-10
      -1.03953312e-06 -9.65102686e-07 -7.22509270e-08 1.97400436e-06
      1.26156476e-06 -2.85786172e-07 -3.37462779e-06 2.36685604e-09
      7.86947507e-10 -1.33681090e-06 -7.77982336e-07 1.92737801e-07
      5.41773602e-07 1.55918627e-07 -1.84313410e-06 2.49117466e-06
      4.21796727e-07 -2.54424720e-07 -6.49322658e-07 -1.00026364e-06
      2.47797942e-07 6.96566701e-07 2.00465479e-07 -2.36975234e-06
      3.20293975e-06 5.42314638e-07 -3.27115004e-07 -8.34839739e-07
      -1.00045895e-06 2.46874293e-07 6.96567724e-07 2.00468591e-07
      -2.36924961e-06 3.20293793e-06 5.42308840e-07 -3.27113781e-07
      -8.34841899e-07 -1.28630541e-06 3.17399667e-07 8.95588130e-07
      2.57743636e-07 -3.04618925e-06 4.11806377e-06 6.97259964e-07
      -4.20571638e-07 -1.07336348e-06 -1.60219304e-06 -2.13927933e-06
      9.93562026e-07 3.00574584e-07 1.27999328e-06 1.69479756e-06
      1.03025957e-06 -2.34694909e-07 -7.84456631e-07 -2.05996389e-06
      -2.75049911e-06 1.27744045e-06 3.86448079e-07 1.64570145e-06
      2.17903994e-06 1.32461719e-06 -3.01754255e-07 -1.00858767e-06
      -2.05996366e-06 -2.75050297e-06 1.27743112e-06 3.86458311e-07
      1.64571020e-06 2.17902630e-06 1.32461662e-06 -3.01754255e-07
      -1.00858881e-06 -2.64852633e-06 -3.53635755e-06 1.64241612e-06
      4.96868608e-07 2.11590759e-06 2.80162340e-06 1.70307521e-06
      -3.87974382e-07 -1.29675777e-06 -1.36177414e-06 -3.18226171e-06
      4.39255643e-07 1.40978727e-06 1.59735847e-09 1.22447989e-06
      1.87854664e-06 -3.81852601e-07 -1.70210001e-06 -1.75085495e-06
      -4.09147970e-06 5.64757102e-07 1.81257917e-06 1.24173782e-09
      1.57493309e-06 2.41557245e-06 -4.90952175e-07 -2.18841069e-06
      -1.75086393e-06 -4.09147697e-06 5.64754430e-07 1.81258463e-06
      2.05482786e-09 1.57432544e-06 2.41571297e-06 -4.90808759e-07
      -2.18841205e-06 -2.25111421e-06 -5.26047097e-06 7.26112603e-07
      2.33046057e-06 1.59790814e-09 2.02490628e-06 3.10630071e-06
      -6.31038461e-07 -2.81366783e-06 2.03216541e-06 2.47557455e-06
      -2.99245158e-07 -1.30417868e-06 -2.05128686e-06 -5.29079688e-12
      -7.52107780e-08 -2.99705306e-07 7.04580998e-08 2.61278296e-06
      3.18288357e-06 -3.84741156e-07 -1.67678957e-06 -2.63733523e-06
      -6.80244836e-12 -9.67000560e-08 -3.85336762e-07 9.05881521e-08
      2.61278183e-06 3.18289472e-06 -3.84751303e-07 -1.67679957e-06
      -2.63736820e-06 -1.16284525e-11 -9.67017471e-08 -3.85337245e-07
      9.05860702e-08 3.35928939e-06 4.09229597e-06 -4.94677010e-07
      -2.15586988e-06 -3.39085886e-06 -1.49508565e-11 -1.24331436e-07
      -4.95435359e-07 1.16466651e-07 -4.49804816e-07 3.78681705e-07
      -3.86977348e-07 2.24821861e-06 -1.45385764e-06 5.64477432e-07
      8.26011728e-07 -5.91394155e-07 -2.94555775e-07 -5.78323352e-07
      4.86868259e-07 -4.97552321e-07 2.89056629e-06 -1.86924535e-06
      7.25759151e-07 1.06201787e-06 -7.60364458e-07 -3.78713224e-07
      -5.78324034e-07 4.86875706e-07 -4.97543226e-07 2.89055993e-06
      -1.86925547e-06 7.25753750e-07 1.06201969e-06 -7.60363150e-07
      -3.78722461e-07 -7.43563248e-07 6.25972518e-07 -6.39711914e-07
      3.71643432e-06 -2.40332815e-06 9.33115302e-07 1.36545714e-06
      -9.77610398e-07 -4.86927547e-07 -1.17213744e-06 1.46599029e-06
      2.07013244e-07 -3.28335295e-06 -1.81977697e-07 2.09893187e-06
      3.07610662e-06 -4.06314513e-07 -1.67001497e-06 -1.50702863e-06
      1.88484626e-06 2.66185680e-07 -4.22146377e-06 -2.33972216e-07
      2.69862880e-06 3.95499364e-06 -5.22399091e-07 -2.14715351e-06
      -1.50703340e-06 1.88484285e-06 2.66169536e-07 -4.22143330e-06
      -2.33988871e-07 2.69862562e-06 3.95498955e-06 -5.22405173e-07
      -2.14716101e-06 -1.93760752e-06 2.42337160e-06 3.42251241e-07
      -5.42756970e-06 -3.00844022e-07 3.46966453e-06 5.08498579e-06
      -6.71657006e-07 -2.76062497e-06 -9.59966769e-07 2.82191877e-07
      -2.91398419e-06 -5.60417334e-07 1.18079492e-06 5.44092965e-11
      6.44935483e-08 9.86815394e-07 2.92054278e-06 -1.23424252e-06
      3.62824238e-07 -3.74654928e-06 -7.20541664e-07 1.51816425e-06
      4.49600739e-11 8.29131679e-08 1.26876455e-06 3.75497325e-06
      -1.23424434e-06 3.62824949e-07 -3.74655997e-06 -7.20540015e-07
      1.51816528e-06 7.17325088e-11 8.29207352e-08 1.26877205e-06
      3.75498348e-06 -1.58688420e-06 4.66497056e-07 -4.81700408e-06
      -9.26415112e-07 1.95192524e-06 6.00914249e-11 1.06603245e-07
      1.63128038e-06 4.82782252e-06 -3.30082253e-06 -5.60592127e-07
      -8.46422836e-07 2.45671617e-06 4.86577107e-07 1.02716314e-07
      1.59620782e-07 7.69698090e-07 -1.16857564e-06 -4.24415703e-06
      -7.20762330e-07 -1.08825873e-06 3.15863213e-06 6.26084557e-07
      1.32062823e-07 2.05229298e-07 9.89615728e-07 -1.50269602e-06
      -4.24367227e-06 -7.20764206e-07 -1.08825463e-06 3.15863804e-06
      6.25108498e-07 1.32064486e-07 2.05226826e-07 9.89602427e-07
      -1.50221501e-06 -5.45646208e-06 -9.26698135e-07 -1.39918598e-06
      4.06110166e-06 8.04335002e-07 1.69795882e-07 2.63866468e-07
      1.27235080e-06 -1.93172991e-06 6.86547263e-09 -1.18979699e-06
      -1.08781501e-06 5.36365690e-07 1.11415872e-07 -1.13795841e-06
      -3.73131087e-07 1.88681327e-06 8.75118303e-07 8.81967388e-09
      -1.52973519e-06 -1.39864528e-06 6.89612421e-07 1.43257026e-07
      -1.46308787e-06 -4.79745609e-07 2.42590318e-06 1.12515670e-06
      8.82254803e-09 -1.52973655e-06 -1.39862141e-06 6.89599517e-07
      1.43245771e-07 -1.46308662e-06 -4.79735263e-07 2.42590295e-06
      1.12515465e-06 1.13338192e-08 -1.96679935e-06 -1.79826088e-06
      8.86627220e-07 1.84183463e-07 -1.88110937e-06 -6.16810269e-07
      3.11901840e-06 1.44663318e-06 -5.81455708e-07 1.01613171e-06
      4.02334263e-06 1.40127739e-07 -2.09254267e-07 -2.10227654e-06
      -1.28961176e-07 -9.01621831e-07 5.76769388e-08 -7.47589240e-07
      1.30646072e-06 5.17287390e-06 1.80157372e-07 -2.69037741e-07
      -2.70292639e-06 -1.65801694e-07 -1.15922467e-06 7.41568940e-08
      -7.47593106e-07 1.30645935e-06 5.17287299e-06 1.80170204e-07
      -2.69035468e-07 -2.70293049e-06 -1.65807776e-07 -1.15923228e-06
      7.41571853e-08 -9.61195497e-07 1.67974099e-06 6.65084099e-06
      2.31638637e-07 -3.45898258e-07 -3.47519540e-06 -2.13174360e-07
      -1.49043672e-06 9.53461807e-08 -2.06503387e-07 -1.85493420e-07
      -8.25821703e-12 1.74773550e-06 -2.50728476e-07 -1.71651422e-07
      -5.84898032e-07 4.17705337e-07 -1.42435226e-06 -2.65504326e-07
      -2.38492277e-07 -6.42389527e-12 2.24706355e-06 -3.22349791e-07
      -2.20690325e-07 -7.52010294e-07 5.37049516e-07 -1.83131192e-06
      -2.65501171e-07 -2.38481732e-07 -1.06182190e-11 2.24708378e-06
      -3.22362865e-07 -2.20701139e-07 -7.52009328e-07 5.37051733e-07
      -1.83131465e-06 -3.41358799e-07 -3.06620336e-07 -8.26045395e-12
      2.88907586e-06 -4.14446703e-07 -2.83752996e-07 -9.66867105e-07
      6.90495142e-07 -2.35455059e-06 1.11752712e-07 2.70519337e-07
      1.11640452e-06 -5.76983368e-08 -4.90622369e-07 -1.36982237e-06
      -3.33811201e-08 5.25273720e-07 4.26403545e-07 1.43684886e-07
      3.47810385e-07 1.43536272e-06 -7.41899981e-08 -6.30793295e-07
      -1.76119727e-06 -4.29386056e-08 6.75354556e-07 5.48242156e-07
      1.43678733e-07 3.47810840e-07 1.43537738e-06 -7.41836743e-08
      -6.30818704e-07 -1.76119534e-06 -4.29063078e-08 6.75351600e-07
      5.48235619e-07 1.84733253e-07 4.47185244e-07 1.84546593e-06
      -9.53872785e-08 -8.11044629e-07 -2.26438988e-06 -5.51909984e-08
      8.68312725e-07 7.04885622e-07 -1.25771794e-06 7.89327316e-07
      2.36196252e-06 -7.56260126e-13 4.23997847e-07 -1.07395067e-06
      -1.55587065e-06 9.46550870e-07 3.47909094e-07 -1.61706157e-06
      1.01484852e-06 3.03680463e-06 -9.72332674e-13 5.44926650e-07
      -1.38080657e-06 -2.00040768e-06 1.21699429e-06 4.47315244e-07
      -1.61706896e-06 1.01484954e-06 3.03681009e-06 -1.66377459e-12
      5.45134185e-07 -1.38079349e-06 -2.00039835e-06 1.21699895e-06
      4.47308935e-07 -2.07908238e-06 1.30480555e-06 3.90446439e-06
      -2.13913739e-12 7.00612304e-07 -1.77532263e-06 -2.57194415e-06
      1.56471344e-06 5.75116019e-07 -1.12138457e-06 5.13027398e-11
      1.59326348e-08 -7.90733111e-07 1.92117909e-06 1.05966592e-06
      3.83027640e-07 -4.51304096e-08 -1.33700701e-06 -1.44167393e-06
      5.29607157e-11 2.04442792e-08 -1.01665375e-06 2.47009211e-06
      1.36243148e-06 4.92465688e-07 -5.80249093e-08 -1.71890133e-06
      -1.44178000e-06 5.30678626e-11 2.04459134e-08 -1.01666012e-06
      2.46960713e-06 1.36242852e-06 4.91716150e-07 -5.82802215e-08
      -1.71901138e-06 -1.85358044e-06 5.15163502e-11 2.62354867e-08
      -1.30713022e-06 3.17521562e-06 1.75169885e-06 6.32208696e-07
      -7.49318403e-08 -2.21001915e-06 1.22039921e-06 -2.00806250e-13
      1.07265362e-06 4.95200084e-07 5.47196521e-07 -4.35795410e-12
      -1.60191985e-06 -1.88399076e-06 9.13847373e-07 1.56908618e-06
      -2.58168839e-13 1.37912627e-06 6.36685854e-07 7.04020124e-07
      -3.38956163e-12 -2.05959395e-06 -2.42227043e-06 1.17494812e-06
      1.56906856e-06 -1.56181993e-13 1.37912593e-06 6.36689492e-07
      7.03538319e-07 -5.60306879e-12 -2.05962374e-06 -2.42228225e-06
      1.17492323e-06 2.01737589e-06 -2.00796560e-13 1.77316178e-06
      8.18600824e-07 9.05168690e-07 -4.35797535e-12 -2.64806545e-06
      -3.11435861e-06 1.51061749e-06 -3.59681025e-07 3.73070435e-07
      1.11636621e-06 -8.07318600e-07 -6.65900984e-07 -1.65033910e-07
      7.75987417e-07 3.11683976e-07 -3.59682105e-07 -4.62424651e-07
      4.79661935e-07 1.43532588e-06 -1.03798595e-06 -8.56157783e-07
      -2.12185768e-07 9.97701250e-07 4.00738088e-07 -4.62425390e-07
      -4.62446963e-07 4.79663129e-07 1.43533180e-06 -1.03798106e-06
      -8.56211500e-07 -2.12186649e-07 9.97701818e-07 4.00734848e-07
      -4.62447730e-07 -5.94546009e-07 6.16709769e-07 1.84542307e-06
      -1.33455353e-06 -1.10084272e-06 -2.72810581e-07 1.28276326e-06
      5.15232841e-07 -5.94546179e-07 8.29282669e-07 4.45767029e-07
      1.33390483e-06 0. -1.52910525e-06 -1.35243545e-06 -2.28008332e-07
      -2.38200737e-10 8.29282669e-07 1.06622019e-06 5.73129455e-07
      1.71502222e-06 0. -1.96599399e-06 -1.73862702e-06 -2.92860051e-07
      -2.28022518e-10 1.06622019e-06 1.06622110e-06 5.73129000e-07
      1.71502086e-06 0. -1.96610085e-06 -1.73884609e-06 -2.93382925e-07
      -3.82896687e-10 1.06622110e-06 1.37085499e-06 7.36880850e-07
      2.20502807e-06 0. -2.52784594e-06 -2.23537836e-06 -3.76829206e-07
      -3.91706972e-10 1.37085499e-06 -4.12868388e-08 -9.42016641e-07
      -3.12480984e-06 -2.49480024e-07 2.82785728e-09 -6.76142695e-15
      3.52054909e-12 1.15555758e-06 1.98161501e-07 -5.26539274e-08
      -1.21116898e-06 -4.01760735e-06 -3.20761529e-07 2.96236680e-09
      -5.25888706e-15 6.13579890e-12 1.48571723e-06 2.55209500e-07
      -5.30844062e-08 -1.21115704e-06 -4.01760963e-06 -3.20760961e-07
      4.49040538e-09 -8.69323466e-15 6.13579890e-12 1.48571451e-06
      2.54775898e-07 -6.76996095e-08 -1.55720807e-06 -5.16549107e-06
      -4.12408866e-07 4.90751306e-09 -6.76140450e-15 9.95809164e-12
      1.91020513e-06 3.28122468e-07 6.74366447e-07 7.71521798e-07
      8.72895157e-07 -7.61833746e-07 6.50279333e-07 -7.24712784e-14
      2.54109754e-12 -3.66308633e-12 5.61940112e-07 8.67041592e-07
      9.91949378e-07 1.12229407e-06 -9.79499077e-07 8.36079039e-07
      -9.31799058e-14 4.56090287e-12 -6.76473374e-12 7.22495258e-07
      8.67044491e-07 9.91959496e-07 1.12229054e-06 -9.79502488e-07
      8.36067898e-07 -1.59432797e-13 4.70771642e-12 -3.31820465e-12
      7.22497248e-07 1.11476993e-06 1.27536748e-06 1.44294552e-06
      -1.25935856e-06 1.07495168e-06 -2.04987015e-13 7.71620615e-12
      -6.90847162e-12 9.28926283e-07 3.28967963e-06 -2.08159986e-06
      -3.34285971e-07 -6.13875834e-12 -1.40952309e-07 -1.77372748e-08
      5.16442242e-07 -8.12127610e-08 3.23897802e-06 4.22958510e-06
      -2.67652240e-06 -4.30326196e-07 -5.61672150e-12 -1.81034224e-07
      -2.28050663e-08 6.63997128e-07 -1.04416181e-07 4.16439752e-06
      4.22958556e-06 -2.67651671e-06 -4.30320028e-07 -7.11772525e-12
      -1.81226369e-07 -2.28064572e-08 6.64007416e-07 -1.04412685e-07
      4.16439934e-06 5.43803480e-06 -3.44146679e-06 -5.53949860e-07
      -6.22511504e-12 -2.32760797e-07 -2.93225852e-08 8.53723861e-07
      -1.34244544e-07 5.35422441e-06 -5.54052576e-07 -6.21975801e-07
      3.69512145e-06 -4.10891454e-13 -1.36935507e-09 -2.31329261e-10
      7.10853314e-08 -2.73861502e-07 3.94792607e-07 -7.12704946e-07
      -7.99862562e-07 4.75033994e-06 -5.28275178e-13 -1.84867199e-09
      -1.79951609e-10 9.14594906e-08 -3.52105246e-07 5.07236962e-07
      -7.12678855e-07 -7.99653833e-07 4.75094885e-06 -3.19582224e-13
      -2.95683056e-09 -2.97475322e-10 9.13943481e-08 -3.52108486e-07
      5.07283630e-07 -9.16753436e-07 -1.02835668e-06 6.10768075e-06
      -4.10880694e-13 -3.91487731e-09 -2.31433220e-10 1.17589387e-07
      -4.52707781e-07 6.51767323e-07 3.97625371e-07 -2.13469889e-06
      -2.33131360e-07 -1.57305544e-06 -2.86097747e-06 -2.22775375e-11
      -2.90640344e-07 4.53834076e-07 2.13242470e-06 5.11228109e-07
      -2.74461354e-06 -2.99456474e-07 -2.02192268e-06 -3.67878692e-06
      -1.54310748e-11 -3.73881932e-07 5.83446422e-07 2.74168747e-06
      5.11085659e-07 -2.74447302e-06 -2.99326132e-07 -2.02249657e-06
      -3.67668395e-06 -3.05384190e-11 -3.73484426e-07 5.83569204e-07
      2.74153808e-06 6.57104465e-07 -3.52860957e-06 -3.84482945e-07
      -2.59961030e-06 -4.72766351e-06 -2.22775166e-11 -4.80453309e-07
      7.50233255e-07 3.52483312e-06 -5.83006909e-07 -5.91535581e-07
      5.85740167e-07 -7.51517746e-07 9.90081844e-07 -5.88444441e-13
      -7.09261556e-08 -4.33640281e-07 5.86655631e-07 -7.49574895e-07
      -7.60544481e-07 7.53095208e-07 -9.66242055e-07 1.27296357e-06
      -8.14790401e-13 -9.11943729e-08 -5.57538954e-07 7.54269877e-07
      -7.49662718e-07 -7.60540047e-07 7.53091513e-07 -9.66236257e-07
      1.27295914e-06 -4.90022573e-13 -9.11875517e-08 -5.57536225e-07
      7.54190694e-07 -9.63844741e-07 -9.77835498e-07 9.68261588e-07
      -1.24230974e-06 1.63666323e-06 -7.04882008e-13 -1.17245762e-07
      -7.16833938e-07 9.69671646e-07 -1.74409763e-06 1.80108952e-06
      1.10524536e-06 -1.57698162e-06 -2.03492550e-06 -2.29135721e-12
      2.36940105e-06 7.91821947e-07 -6.93135178e-07 -2.24241808e-06
      2.31568879e-06 1.42103033e-06 -2.02754768e-06 -2.61632886e-06
      -4.72741117e-12 3.04638843e-06 1.01806188e-06 -8.91178104e-07
      -2.24248220e-06 2.31569129e-06 1.42104273e-06 -2.02755677e-06
      -2.61635637e-06 -4.48277402e-13 3.04637729e-06 1.01805779e-06
      -8.91250352e-07 -2.88320052e-06 2.97732026e-06 1.82705560e-06
      -2.60685829e-06 -3.36388098e-06 -2.86672400e-12 3.91679077e-06
      1.30893829e-06 -1.14589886e-06 -3.02109038e-06 -2.01005400e-06
      -1.44931550e-06 1.68687279e-06 4.43614567e-07 1.05965375e-06
      2.22774702e-06 1.24250198e-06 -2.49198393e-07 -3.88425633e-06
      -2.58434716e-06 -1.86340310e-06 2.16883268e-06 5.70354700e-07
      1.36241215e-06 2.86424688e-06 1.59750118e-06 -3.20400630e-07
      -3.88426633e-06 -2.58435375e-06 -1.86339923e-06 2.16883996e-06
      5.70360271e-07 1.36240965e-06 2.86424529e-06 1.59749811e-06
      -3.20410152e-07 -4.99405269e-06 -3.32273044e-06 -2.39579572e-06
      2.78850371e-06 7.33311595e-07 1.75166963e-06 3.68260226e-06
      2.05392416e-06 -4.11959405e-07 1.01131798e-06 1.01126822e-08
      -1.07299904e-07 -2.27021997e-06 -2.52545146e-06 5.94290668e-07
      5.18060631e-07 -6.40002398e-08 2.84972521e-06 1.30026785e-06
      1.30081803e-08 -1.37966140e-07 -2.91897504e-06 -3.24700136e-06
      7.64101969e-07 6.66076573e-07 -8.22985982e-08 3.66393442e-06
      1.30025808e-06 1.30035422e-08 -1.37956278e-07 -2.91885954e-06
      -3.24705206e-06 7.64085826e-07 6.66079700e-07 -8.22904482e-08
      3.66393078e-06 1.67176302e-06 1.67267800e-08 -1.77384052e-07
      -3.75297418e-06 -4.17477122e-06 9.82414122e-07 8.56386521e-07
      -1.05818152e-07 4.71077101e-06 -3.70966950e-06 -1.36160929e-06
      2.91804417e-06 7.89135356e-07 -1.45137960e-06 1.04518313e-06
      1.13159717e-06 3.09276174e-07 5.14528892e-07 -4.76958212e-06
      -1.75063519e-06 3.75177501e-06 1.01460557e-06 -1.86606053e-06
      1.34380593e-06 1.45491333e-06 3.97651064e-07 6.61535012e-07
      -4.76960895e-06 -1.75064486e-06 3.75177956e-06 1.01460012e-06
      -1.86605996e-06 1.34380639e-06 1.45490253e-06 3.97635119e-07
      6.61511137e-07 -6.13236307e-06 -2.25082204e-06 4.82372116e-06
      1.30448973e-06 -2.39922088e-06 1.72774992e-06 1.87059265e-06
      5.11258349e-07 8.50511867e-07 -1.25445786e-06 -4.65641193e-07
      6.03352930e-07 -8.16928605e-07 2.49431582e-06 -4.78720752e-12
      -1.57472599e-07 -1.41408748e-07 -5.12624680e-08 -1.61286982e-06
      -5.98671761e-07 7.75741967e-07 -1.05033178e-06 3.20698359e-06
      -7.24374423e-12 -2.02468343e-07 -1.81811373e-07 -6.59160122e-08
      -1.61291234e-06 -5.98681140e-07 7.75740318e-07 -1.05034201e-06
      3.20698814e-06 -2.72958457e-12 -2.02464321e-07 -1.81809057e-07
      -6.59401422e-08 -2.07373864e-06 -7.69720202e-07 9.97383609e-07
      -1.35043354e-06 4.12327790e-06 -4.90930083e-12 -2.60315829e-07
      -2.33754818e-07 -8.47894199e-08 -1.20551374e-06 -9.89658204e-08
      -1.45746398e-07 -6.46195588e-07 1.34694835e-06 2.45048426e-07
      -6.80275249e-08 5.18553122e-07 -6.63991045e-07 -1.54994405e-06
      -1.27242686e-07 -1.87380792e-07 -8.30832619e-07 1.73178375e-06
      3.15062721e-07 -8.74643433e-08 6.66712253e-07 -8.53700726e-07
      -1.54997065e-06 -1.27240611e-07 -1.87389034e-07 -8.30816020e-07
      1.73179035e-06 3.15058315e-07 -8.74674413e-08 6.66719529e-07
      -8.53703682e-07 -1.99281635e-06 -1.63596297e-07 -2.40919434e-07
      -1.06820437e-06 2.22657945e-06 4.05075610e-07 -1.12458615e-07
      8.57212285e-07 -1.09761629e-06 -2.23549804e-07 -6.22953849e-07
      -1.49010077e-06 -1.50120752e-06 2.19489698e-06 1.05385459e-06
      1.04712376e-06 9.47581285e-08 -8.26634903e-07 -2.87411865e-07
      -8.00944633e-07 -1.91584036e-06 -1.93012352e-06 2.82219753e-06
      1.35495713e-06 1.34609309e-06 1.21760237e-07 -1.06281300e-06
      -2.87416611e-07 -8.00938267e-07 -1.91584672e-06 -1.93012943e-06
      2.82200563e-06 1.35495918e-06 1.34630693e-06 1.22175578e-07
      -1.06277525e-06 -3.69523690e-07 -1.02978288e-06 -2.46322725e-06
      -2.48159427e-06 3.62853370e-06 1.74209185e-06 1.73069782e-06
      1.56990708e-07 -1.36642143e-06 -4.73618286e-07 -1.28363490e-06
      -1.42924773e-06 2.17890579e-06 3.28771023e-07 -2.18104822e-11
      6.68356970e-09 9.58118562e-07 -8.68543907e-07 -6.08928985e-07
      -1.65039410e-06 -1.83761165e-06 2.80145605e-06 4.22712731e-07
      -1.74984905e-11 8.59617799e-09 1.23186578e-06 -1.11670965e-06
      -6.08994867e-07 -1.65040217e-06 -1.83760210e-06 2.80145446e-06
      4.22705767e-07 -2.71981465e-11 8.59399130e-09 1.23187090e-06
      -1.11675683e-06 -7.82981999e-07 -2.12195346e-06 -2.36264123e-06
      3.60187710e-06 5.43487999e-07 -2.14130554e-11 1.10533440e-08
      1.58383250e-06 -1.43584350e-06 -1.07049527e-06 -1.18825506e-06
      2.44885911e-07 5.47374952e-07 2.17133788e-06 1.15146202e-06
      -2.82612689e-07 -6.38706979e-07 -1.57095076e-06 -1.37634902e-06
      -1.52775192e-06 3.14838246e-07 7.03765636e-07 2.79174060e-06
      1.48045820e-06 -3.63364165e-07 -8.21193510e-07 -2.01978901e-06
      -1.37639529e-06 -1.52774987e-06 3.14852684e-07 7.03763703e-07
      2.79171832e-06 1.48045160e-06 -3.63359874e-07 -8.21186461e-07
      -2.01983676e-06 -1.76964875e-06 -1.96424389e-06 4.04791962e-07
      9.04836327e-07 3.58937837e-06 1.90344679e-06 -4.67183412e-07
      -1.05580966e-06 -2.59692683e-06 1.68658957e-07 1.77642335e-07
      5.31550825e-07 1.71585418e-06 -3.35740054e-07 -7.97897599e-07
      9.07027072e-07 -7.69588553e-07 -2.90704747e-06 2.16602189e-07
      2.28399486e-07 6.83429164e-07 2.20609354e-06 -4.31656787e-07
      -1.02586739e-06 1.16617957e-06 -9.89470436e-07 -3.73786997e-06
      2.17058059e-07 2.28396374e-07 6.83430301e-07 2.20609923e-06
      -4.32154110e-07 -1.02586819e-06 1.16617832e-06 -9.89474302e-07
      -3.73743455e-06 2.78759700e-07 2.93655319e-07 8.78704668e-07
      2.83640679e-06 -5.55615429e-07 -1.31897218e-06 1.49937421e-06
      -1.27218073e-06 -4.80557856e-06 -1.06898790e-06 -1.25917182e-07
      -2.17132239e-07 -1.43757427e-06 5.62619334e-07 -1.61837283e-06
      2.32300795e-06 1.46926129e-06 -1.57242914e-06 -1.37441634e-06
      -1.61888266e-07 -2.79164851e-07 -1.84830992e-06 7.23841822e-07
      -2.08076722e-06 2.98683699e-06 1.88909132e-06 -2.02169554e-06
      -1.37441384e-06 -1.61890512e-07 -2.79168660e-07 -1.84831072e-06
      7.23358994e-07 -2.08076267e-06 2.98661985e-06 1.88901015e-06
      -2.02169485e-06 -1.76710785e-06 -2.08138189e-07 -3.58924439e-07
      -2.37639983e-06 9.30642557e-07 -2.67526843e-06 3.84008399e-06
      2.42878036e-06 -2.59932335e-06 -1.99839701e-06 -4.32522910e-07
      5.31563501e-07 -5.12949579e-12 2.01753769e-09 -1.73501439e-06
      8.47083896e-08 8.87127896e-07 -1.51327049e-06 -2.56936232e-06
      -5.56103430e-07 6.83438941e-07 -4.46954496e-12 3.07704862e-09
      -2.23073266e-06 1.08909326e-07 1.14058776e-06 -1.94562722e-06
      -2.56940757e-06 -5.56105874e-07 6.83445478e-07 -6.59504092e-12
      2.58924437e-09 -2.23072766e-06 1.08918435e-07 1.14059446e-06
      -1.94572999e-06 -3.30351736e-06 -7.14996531e-07 8.78715866e-07
      -5.74653823e-12 3.95012245e-09 -2.86807858e-06 1.40036036e-07
      1.46647187e-06 -2.50164430e-06 -1.59903823e-06 5.82951998e-07
      2.45027672e-06 5.64516142e-12 4.49210347e-07 4.65698491e-07
      1.53676268e-07 -9.37601499e-07 -1.18799107e-06 -2.05589913e-06
      7.49509184e-07 3.15035390e-06 7.25805830e-12 5.77553351e-07
      5.98756003e-07 1.97579155e-07 -1.20548361e-06 -1.52737937e-06
      -2.05596575e-06 7.49510775e-07 3.15036277e-06 1.63669477e-11
      5.77576714e-07 5.98772090e-07 1.97583333e-07 -1.20548691e-06
      -1.52749601e-06 -2.64337586e-06 9.63656134e-07 4.05046376e-06
      2.10432036e-11 7.42595091e-07 7.69850828e-07 2.54029885e-07
      -1.54990664e-06 -1.96387464e-06 -3.49701761e-11 1.77656744e-07
      7.70110717e-07 3.96881106e-08 4.20688048e-06 -2.27727099e-07
      -1.34171131e-07 -1.96709152e-07 -6.00462840e-07 -6.31035779e-11
      2.28420248e-07 9.89091177e-07 3.60223886e-08 5.40967812e-06
      -2.92788172e-07 -1.72504429e-07 -2.52909615e-07 -7.72041631e-07
      -1.60283689e-10 2.28417250e-07 9.90145850e-07 4.96295662e-08
      5.40828250e-06 -2.92790133e-07 -1.72466258e-07 -2.52899923e-07
      -7.72168164e-07 -2.29381333e-10 2.93684963e-07 1.27169289e-06
      4.45167458e-08 6.95457584e-06 -3.76439630e-07 -2.21740606e-07
      -3.25154303e-07 -9.92810669e-07 7.76255263e-07 1.78850200e-07
      -8.17101693e-07 -5.35990637e-07 -1.08342796e-07 -1.08702721e-07
      -2.00437100e-07 -7.31849165e-11 7.76251056e-07 9.98042196e-07
      2.29645110e-07 -1.05147240e-06 -6.89130729e-07 -1.39329387e-07
      -1.39767110e-07 -2.57754124e-07 -1.12709050e-10 9.98035489e-07
      9.98041514e-07 2.29646616e-07 -1.05146819e-06 -6.89130729e-07
      -1.39296404e-07 -1.39762790e-07 -2.57653056e-07 -7.60401256e-11
      9.98035716e-07 1.28319596e-06 2.94867618e-07 -1.35306163e-06
      -8.86025362e-07 -1.79135910e-07 -1.79703321e-07 -3.31331563e-07
      -1.21698152e-10 1.28318675e-06 7.53269376e-08 1.78219622e-07
      5.33298987e-07 -2.05241484e-11 1.03518596e-06 -2.00725844e-06
      -1.14117836e-06 5.91669908e-11 7.53269376e-08 9.66064988e-08
      2.28995461e-07 6.85239229e-07 -1.99457274e-11 1.33095932e-06
      -2.58076170e-06 -1.46702712e-06 1.49467314e-10 9.66064988e-08
      9.68489147e-08 2.28995034e-07 6.85237808e-07 -3.32432033e-11
      1.33028345e-06 -2.58076079e-06 -1.46722982e-06 7.60024196e-11
      9.68489147e-08 1.24208370e-07 2.94237026e-07 8.80466018e-07
      -3.44581065e-11 1.71037175e-06 -3.31812203e-06 -1.88617844e-06
      1.92082836e-10 1.24208370e-07 -8.34119703e-07 -1.96094049e-07
      -5.86769431e-07 -1.88490543e-11 1.06381705e-07 -4.46933740e-07
      -5.20195655e-08 7.55902578e-16 -8.34110836e-07 -1.07244966e-06
      -2.52119975e-07 -7.54419318e-07 -1.92545094e-11 1.35697633e-07
      -5.74628302e-07 -6.68824782e-08 1.66230343e-15 -1.07243579e-06
      -1.07283245e-06 -2.52129098e-07 -7.54438759e-07 -2.08336005e-11
      1.36777544e-07 -5.74629098e-07 -6.68822935e-08 5.88985260e-16
      -1.07281846e-06 -1.37936900e-06 -3.24164773e-07 -9.69994744e-07
      -2.03832090e-11 1.74469747e-07 -7.38807842e-07 -8.59917577e-08
      1.29426687e-15 -1.37934808e-06 -1.50968253e-06 -1.96506264e-07
      -5.88005094e-07 -6.45804255e-09 -1.41167732e-07 -1.55207759e-14
      5.31601017e-07 -1.24747956e-07 -9.11556015e-07 -1.94102086e-06
      -2.52651972e-07 -7.55998542e-07 -8.30070324e-09 -1.81756718e-07
      -1.99513088e-14 6.83487087e-07 -1.60390258e-07 -1.17200602e-06
      -1.94078962e-06 -2.52652654e-07 -7.56006386e-07 -8.30368219e-09
      -1.81501349e-07 -1.20841905e-14 6.83486633e-07 -1.60390925e-07
      -1.17177115e-06 -2.49530103e-06 -3.24840528e-07 -9.71998020e-07
      -1.06729559e-08 -2.33687217e-07 -1.55280909e-14 8.78768503e-07
      -2.06216853e-07 -1.50656979e-06 1.77341619e-07 -7.96652330e-07
      -2.16512618e-07 -1.25894720e-11 1.17443358e-06 4.37348595e-12
      1.20218010e-06 3.19529505e-08 -1.12576117e-06 2.28029180e-07
      -1.02409149e-06 -2.77844208e-07 -9.79181059e-12 1.50928679e-06
      1.34244178e-12 1.54475254e-06 4.07803853e-08 -1.44738908e-06
      2.28125373e-07 -1.02426861e-06 -2.78372397e-07 -1.61864636e-11
      1.51048550e-06 1.02345866e-12 1.54653105e-06 4.13745198e-08
      -1.44729370e-06 2.93327844e-07 -1.31669060e-06 -3.57227009e-07
      -1.25894720e-11 1.94115387e-06 -4.18777990e-12 1.98722955e-06
      5.28074118e-08 -1.86078239e-06 -6.89683020e-07 -7.58694853e-07
      -9.08703655e-08 2.35787780e-07 2.21921869e-06 3.10047967e-13
      2.19459480e-07 -1.45191063e-06 -5.23722257e-08 -8.86737098e-07
      -9.75465127e-07 -1.16838088e-07 3.03146521e-07 2.85328088e-06
      9.72516989e-13 2.82171726e-07 -1.86673753e-06 -6.73374316e-08
      -8.86739656e-07 -9.75476951e-07 -1.16829128e-07 3.03146209e-07
      2.85327451e-06 1.08234222e-13 2.82162034e-07 -1.86672867e-06
      -6.73134153e-08 -1.14009617e-06 -1.25418478e-06 -1.50215712e-07
      3.89747584e-07 3.66849576e-06 8.77017588e-13 3.62792150e-07
      -2.40007375e-06 -8.65480203e-08 -1.91193953e-06 -4.92050383e-08
      2.64502631e-07 -2.93124458e-06 -3.82625643e-07 1.50251776e-06
      8.57020552e-07 7.31015461e-08 -8.55009205e-07 -2.45821161e-06
      -6.32620072e-08 3.40078884e-07 -3.76874596e-06 -4.91947389e-07
      1.93181086e-06 1.10188194e-06 9.39864009e-08 -1.09929783e-06
      -2.45777778e-06 -6.32618722e-08 3.40076156e-07 -3.76873754e-06
      -4.93672076e-07 1.93180836e-06 1.10188489e-06 9.39882838e-08
      -1.09886707e-06 -3.16000524e-06 -8.13346475e-08 4.37245859e-07
      -4.84552402e-06 -6.34721459e-07 2.48375636e-06 1.41670671e-06
      1.20840667e-07 -1.41282953e-06 1.94268608e-07 3.50795858e-07
      1.44347808e-07 -5.73688297e-08 -3.04564378e-06 -7.91192520e-07
      2.35188440e-06 3.44974723e-07 8.32718513e-07 2.49774132e-07
      4.51027006e-07 1.85626149e-07 -7.37802139e-08 -3.91583762e-06
      -1.01724322e-06 3.02385411e-06 4.43539989e-07 1.07063818e-06
      2.49767965e-07 4.51020668e-07 1.85583360e-07 -7.37608019e-08
      -3.91581762e-06 -1.01723344e-06 3.02385774e-06 4.43541467e-07
      1.07063954e-06 3.21130727e-07 5.79888592e-07 2.38653485e-07
      -9.48621448e-08 -5.03463571e-06 -1.30786589e-06 3.88781973e-06
      5.70269037e-07 1.37653683e-06 -2.92849762e-07 1.51199129e-06
      1.14876218e-06 -3.28873682e-07 -4.37485369e-06 -1.29455816e-06
      -2.38014096e-07 2.44485182e-06 2.95881534e-07 -3.76520063e-07
      1.94399172e-06 1.47698131e-06 -4.22836962e-07 -5.62440164e-06
      -1.66443181e-06 -3.06023196e-07 3.14338490e-06 3.80422676e-07
      -3.76522451e-07 1.94399809e-06 1.47698938e-06 -4.22839236e-07
      -5.62480773e-06 -1.66443283e-06 -3.06019388e-07 3.14337649e-06
      3.80408835e-07 -4.84098962e-07 2.49942968e-06 1.89898810e-06
      -5.43649435e-07 -7.23136827e-06 -2.13998464e-06 -3.93459999e-07
      4.04148932e-06 4.89101865e-07 -6.61430420e-07 1.24016094e-06
      2.46691206e-06 7.35980905e-07 -3.52251027e-06 -9.56556732e-07
      -1.15650494e-07 -1.04652138e-07 -6.74171076e-07 -8.50207925e-07
      1.59447859e-06 3.17174386e-06 9.46277794e-07 -4.52894164e-06
      -1.22985921e-06 -1.48696969e-07 -1.34556174e-07 -8.66587754e-07
      -8.50208380e-07 1.59434774e-06 3.17131526e-06 9.46260116e-07
      -4.52894801e-06 -1.22985796e-06 -1.48693303e-07 -1.34551414e-07
      -8.66577579e-07 -1.09286452e-06 2.04985759e-06 4.07740526e-06
      1.21664152e-06 -5.82293205e-06 -1.58124669e-06 -1.91181584e-07
      -1.72999066e-07 -1.11390921e-06 -2.01061175e-06 -2.62955973e-06
      1.82427073e-06 -1.03665718e-06 1.57303020e-06 -3.18927627e-11
      6.99974763e-08 9.12526502e-07 1.04015464e-06 -2.58507475e-06
      -3.38086693e-06 2.34548156e-06 -1.33284016e-06 2.02251158e-06
      -2.37760523e-11 8.99930086e-08 1.17324737e-06 1.33733784e-06
      -2.58506111e-06 -3.38086579e-06 2.34549998e-06 -1.33284743e-06
      2.02246883e-06 -3.78217457e-11 8.99975916e-08 1.17324669e-06
      1.33734352e-06 -3.32365312e-06 -4.34683352e-06 3.01563068e-06
      -1.71365480e-06 2.60037427e-06 -2.64765484e-11 1.15706364e-07
      1.50845869e-06 1.71943623e-06 1.24116752e-06 1.22203483e-06
      -8.53088181e-07 -1.09326004e-06 -4.12431677e-12 5.25965049e-08
      5.04139280e-07 -9.80148002e-07 2.20234043e-07 1.59579236e-06
      1.57119905e-06 -1.09683606e-06 -1.40561929e-06 -3.74881940e-12
      6.76268357e-08 6.48180105e-07 -1.26018608e-06 2.83161114e-07
      1.59578565e-06 1.57118484e-06 -1.09681389e-06 -1.40561997e-06
      -6.27651446e-12 6.76237519e-08 6.48176353e-07 -1.26019063e-06
      2.83163814e-07 2.05173183e-06 2.02010915e-06 -1.41020018e-06
      -1.80722509e-06 -6.07197192e-12 8.69483827e-08 8.33370962e-07
      -1.62023980e-06 3.64071752e-07 -4.13294536e-08 -1.75542027e-07
      -1.20926131e-06 -8.06136200e-07 1.28926092e-06 6.67307489e-08
      1.50175788e-06 -1.71599299e-06 -2.81790392e-07 -5.31450297e-08
      -2.25695231e-07 -1.55478415e-06 -1.03650200e-06 1.65762515e-06
      8.57958682e-08 1.93082656e-06 -2.20626930e-06 -3.62298579e-07
      -5.33277991e-08 -2.25692872e-07 -1.55477187e-06 -1.03646482e-06
      1.65762492e-06 8.57926139e-08 1.93084998e-06 -2.20627362e-06
      -3.62207828e-07 -6.85735486e-08 -2.90174427e-07 -1.99901751e-06
      -1.33265075e-06 2.13123690e-06 1.10303752e-07 2.48251467e-06
      -2.83662757e-06 -4.65691414e-07 -4.44553194e-07 -1.14967247e-06
      6.56548423e-07 1.08782831e-06 4.61996876e-07 -1.90592047e-07
      -2.70254276e-07 1.18366677e-06 -5.12969166e-07 -5.71567057e-07
      -1.47815786e-06 8.44131193e-07 1.39863050e-06 5.94014864e-07
      -2.45040184e-07 -3.47469580e-07 1.52185760e-06 -6.59531906e-07
      -5.71579108e-07 -1.47815285e-06 8.44130057e-07 1.39863846e-06
      5.93991103e-07 -2.45047062e-07 -3.47468784e-07 1.52185964e-06
      -6.59548220e-07 -7.34885589e-07 -1.90049263e-06 1.08530651e-06
      1.79824190e-06 7.63727030e-07 -3.15051892e-07 -4.46745304e-07
      1.95667667e-06 -8.47990862e-07 1.50457959e-06 -2.11865449e-06
      1.62193214e-06 1.25937981e-06 5.05242099e-07 5.04593970e-07
      2.46689098e-07 -5.62645482e-07 -2.21770597e-06 1.93445726e-06
      -2.72397415e-06 2.08535221e-06 1.61919172e-06 6.49598746e-07
      6.48759567e-07 3.17170844e-07 -7.23400774e-07 -2.85133387e-06
      1.93446476e-06 -2.72395800e-06 2.08532788e-06 1.61920161e-06
      6.49590675e-07 6.48763489e-07 3.17171470e-07 -7.23409755e-07
      -2.85133888e-06 2.48716651e-06 -3.50221876e-06 2.68114991e-06
      2.08181677e-06 8.35190235e-07 8.34119191e-07 4.07790765e-07
      -9.30097599e-07 -3.66600307e-06 7.73183729e-07 -2.68708436e-06
      6.27155657e-07 1.39413567e-06 3.26576924e-07 3.26947088e-07
      -1.84042540e-06 -6.94302642e-08 2.07609719e-06 9.94085667e-07
      -3.45481840e-06 8.06357946e-07 1.79245967e-06 4.19883406e-07
      4.20364330e-07 -2.36625488e-06 -8.92657468e-08 2.66925645e-06
      9.94077936e-07 -3.45483181e-06 8.06340779e-07 1.79246399e-06
      4.19872435e-07 4.20368707e-07 -2.36625760e-06 -8.92706211e-08
      2.66926781e-06 1.27809017e-06 -4.44192119e-06 1.03674256e-06
      2.30459636e-06 5.39834502e-07 5.40478766e-07 -3.04232321e-06
      -1.14774231e-07 3.43190140e-06 -1.39631527e-06 -1.20033951e-06
      1.58479088e-06 5.04638649e-07 -9.45745171e-09 -1.47854121e-06
      1.21246364e-06 1.40558495e-06 2.80372177e-07 -1.79526148e-06
      -1.54329939e-06 2.03759055e-06 6.48862908e-07 -1.21395205e-08
      -1.90098297e-06 1.55888097e-06 1.80717871e-06 3.60475468e-07
      -1.79527103e-06 -1.54327506e-06 2.03758964e-06 6.48819821e-07
      -1.21590764e-08 -1.90097410e-06 1.55888415e-06 1.80717313e-06
      3.60459637e-07 -2.30820478e-06 -1.98421799e-06 2.61976061e-06
      8.34250613e-07 -1.56073021e-08 -2.44411171e-06 2.00427871e-06
      2.32350590e-06 4.63444479e-07 1.46531431e-06 -8.96339714e-07
