%YAML:1.0
my_svm: !!opencv-ml-svm
   svm_type: C_SVC
   kernel: { type:LINEAR }
   C: 1.
   term_criteria: { epsilon:1.1920928955078125e-07, iterations:1000 }
   var_all: 17424
   var_count: 17424
   class_count: 3
   class_labels: !!opencv-matrix
      rows: 1
      cols: 3
      dt: i
      data: [ 0, 1, 2 ]
   sv_total: 3
   support_vectors:
      - [ 1.04245935e-02, 3.89378774e-03, 7.06058461e-03, 2.34082388e-03,
          1.29374461e-02, 1.14903215e-03, 5.75614348e-03, 3.37072322e-03,
          1.01889204e-02, 1.34028224e-02, 5.00660948e-03, 9.07882117e-03,
          3.00962664e-03, 1.66335013e-02, 1.47732813e-03, 7.40113668e-03,
          4.33384860e-03, 1.30998027e-02, 1.34031875e-02, 5.00623230e-03,
          9.07770637e-03, 3.00962827e-03, 1.66331101e-02, 1.47732720e-03,
          7.40062911e-03, 4.33363905e-03, 1.31000318e-02, 1.72323789e-02,
          6.43698405e-03, 1.16725275e-02, 3.86951654e-03, 2.13849694e-02,
          1.89942215e-03, 9.51558445e-03, 5.57190087e-03, 1.68425925e-02,
          9.95322596e-03, 6.48969784e-03, 8.39909818e-03, 3.01338639e-03,
          1.19130109e-02, 2.40704673e-03, 3.86506366e-03, 2.36118096e-03,
          8.94624274e-03, 1.27968257e-02, 8.34396109e-03, 1.07989535e-02,
          3.87433800e-03, 1.53163569e-02, 3.09481961e-03, 4.96936403e-03,
          3.03580426e-03, 1.15021290e-02, 1.27971116e-02, 8.34393874e-03,
          1.07989097e-02, 3.87431122e-03, 1.53164528e-02, 3.09477071e-03,
          4.96924901e-03, 3.03577236e-03, 1.15021989e-02, 1.64531991e-02,
          1.07280035e-02, 1.38844559e-02, 4.98123700e-03, 1.96921043e-02,
          3.97904869e-03, 6.38902979e-03, 3.90313589e-03, 1.47883063e-02,
          8.74531548e-03, 3.74438963e-03, 6.66108029e-03, 2.56927568e-03,
          8.57181195e-03, 2.60244426e-03, 6.10349653e-03, 3.44916014e-03,
          8.86008516e-03, 1.12442700e-02, 4.81376285e-03, 8.56294110e-03,
          3.30335693e-03, 1.10214809e-02, 3.34599963e-03, 7.84756802e-03,
          4.43466008e-03, 1.13918185e-02, 1.12440391e-02, 4.81424900e-03,
          8.56436696e-03, 3.30335787e-03, 1.10194180e-02, 3.34604387e-03,
          7.84621947e-03, 4.43392573e-03, 1.13915307e-02, 1.44569986e-02,
          6.18916703e-03, 1.10096494e-02, 4.24717739e-03, 1.41685698e-02,
          4.30205651e-03, 1.00882733e-02, 5.70079498e-03, 1.46466149e-02,
          7.59714423e-03, 2.97622313e-03, 3.48856789e-03, 3.50255752e-03,
          8.40662234e-03, 3.02166794e-03, 5.85099636e-03, 4.58587939e-03,
          7.07415584e-03, 9.76747088e-03, 3.82656627e-03, 4.48529189e-03,
          4.50328458e-03, 1.08086122e-02, 3.88492364e-03, 7.52283493e-03,
          5.89605933e-03, 9.09442920e-03, 9.76730790e-03, 3.82630876e-03,
          4.48456174e-03, 4.50328877e-03, 1.08079733e-02, 3.88500234e-03,
          7.52352644e-03, 5.89639600e-03, 9.09491256e-03, 1.25575988e-02,
          4.91953176e-03, 5.76585159e-03, 5.78993745e-03, 1.38960909e-02,
          4.99490229e-03, 9.67326667e-03, 7.58098951e-03, 1.16922827e-02,
          4.83509153e-03, 1.37782376e-03, 3.76078882e-03, 1.48716522e-03,
          4.02024947e-03, 2.02035578e-03, 6.82041561e-03, 3.35823931e-03,
          5.44075062e-03, 6.21635048e-03, 1.77139649e-03, 4.83508874e-03,
          1.91208266e-03, 5.16927382e-03, 2.59760185e-03, 8.76971055e-03,
          4.31794021e-03, 6.99507259e-03, 6.21651160e-03, 1.77129242e-03,
          4.83489409e-03, 1.91219687e-03, 5.16853016e-03, 2.59760208e-03,
          8.76894128e-03, 4.31728829e-03, 6.99385954e-03, 7.99240638e-03,
          2.27725902e-03, 6.21601939e-03, 2.45855539e-03, 6.64574327e-03,
          3.33977561e-03, 1.12751303e-02, 5.55106113e-03, 8.99187475e-03,
          4.04660078e-03, 2.37959344e-03, 4.22995351e-03, 2.63218698e-03,
          4.27848147e-03, 8.26847507e-04, 5.55801066e-03, 3.65903135e-03,
          4.32167854e-03, 5.20240003e-03, 3.05985659e-03, 5.43958694e-03,
          3.38414288e-03, 5.50108077e-03, 1.06078945e-03, 7.14465044e-03,
          4.70496528e-03, 5.55614755e-03, 5.20218071e-03, 3.05950409e-03,
          5.43873245e-03, 3.38391797e-03, 5.50058484e-03, 1.06479472e-03,
          7.14646745e-03, 4.70432919e-03, 5.55574987e-03, 6.68803928e-03,
          3.93413706e-03, 6.99403742e-03, 4.35062638e-03, 7.07240636e-03,
          1.36606407e-03, 9.18656215e-03, 6.04906119e-03, 7.14272587e-03,
          4.03712271e-03, 4.09047026e-03, 3.94479604e-03, 4.50790685e-04,
          6.47085533e-03, 2.57688574e-03, 3.15419515e-03, 1.90172950e-03,
          3.17067653e-03, 5.19012706e-03, 5.25925308e-03, 5.07211126e-03,
          5.79590851e-04, 8.31961818e-03, 3.31283780e-03, 4.05524625e-03,
          2.44508078e-03, 4.07613581e-03, 5.19048655e-03, 5.25920093e-03,
          5.07201394e-03, 5.79583342e-04, 8.31934623e-03, 3.31313931e-03,
          4.05533798e-03, 2.44540907e-03, 4.07637702e-03, 6.67289225e-03,
          6.76192855e-03, 6.52145781e-03, 7.45182158e-04, 1.06962351e-02,
          4.25936328e-03, 5.21381665e-03, 3.14409728e-03, 5.24047902e-03,
          5.02989348e-03, 1.35389308e-03, 6.85655186e-03, 1.28038146e-03,
          4.78349393e-03, 6.96623931e-04, 2.45853281e-03, 3.98968207e-03,
          5.98231796e-03, 6.46761525e-03, 1.74044340e-03, 8.81475583e-03,
          1.64619461e-03, 6.15015766e-03, 8.95554025e-04, 3.16118239e-03,
          5.12993289e-03, 7.69247534e-03, 6.46499312e-03, 1.74097810e-03,
          8.81637819e-03, 1.64620334e-03, 6.14934554e-03, 8.95659206e-04,
          3.16088134e-03, 5.12878224e-03, 7.68837286e-03, 8.31291825e-03,
          2.23804568e-03, 1.13342982e-02, 2.11653393e-03, 7.90623948e-03,
          1.15142623e-03, 4.06426238e-03, 6.59458898e-03, 9.88623872e-03,
          3.60421115e-03, 2.10336433e-03, 5.01595577e-03,
          -2.94131860e-05, 3.68792284e-03, 2.91991211e-03,
          2.52699875e-03, 5.34451334e-03, 5.90795372e-03, 4.63426625e-03,
          2.70409463e-03, 6.44838577e-03, -3.78113946e-05,
          4.74228896e-03, 3.75407655e-03, 3.24893533e-03, 6.87153079e-03,
          7.59622641e-03, 4.63370373e-03, 2.70392466e-03, 6.44873176e-03,
          -3.78575351e-05, 4.74135391e-03, 3.75417154e-03,
          3.24878120e-03, 6.87142694e-03, 7.59600988e-03, 5.95797924e-03,
          3.47617781e-03, 8.29032529e-03, -4.86667886e-05,
          6.09689299e-03, 4.82666865e-03, 4.17692261e-03, 8.83470941e-03,
          9.76666622e-03, -7.64846453e-04, 4.52938816e-03,
          5.01887035e-03, 1.94952206e-03, 1.07415598e-02, 4.00530873e-03,
          3.61435139e-03, 2.09821691e-03, 2.17402168e-03,
          -9.83475707e-04, 5.82346972e-03, 6.45275740e-03,
          2.50652456e-03, 1.38115250e-02, 5.14960103e-03, 4.64790221e-03,
          2.69867619e-03, 2.79518100e-03, -9.84705752e-04,
          5.82368625e-03, 6.45338558e-03, 2.50652898e-03, 1.38105117e-02,
          5.14939846e-03, 4.64587659e-03, 2.69772811e-03, 2.79388856e-03,
          -1.26618030e-03, 7.48755876e-03, 8.29711184e-03,
          3.22267506e-03, 1.77575927e-02, 6.62055053e-03, 5.97440032e-03,
          3.46975238e-03, 3.59215518e-03, 2.56161648e-03, 3.66254477e-03,
          6.31456031e-03, 3.07110581e-03, 8.12906027e-03, 2.67126667e-03,
          -8.40482768e-04, 1.78504479e-03, 2.85051693e-03,
          3.29399458e-03, 4.70899977e-03, 8.11879244e-03, 3.94853903e-03,
          1.04517704e-02, 3.43449810e-03, -1.08070520e-03,
          2.29502306e-03, 3.66541580e-03, 3.29307048e-03, 4.70939605e-03,
          8.11955519e-03, 3.94856231e-03, 1.04516083e-02, 3.43447784e-03,
          -1.08053919e-03, 2.29503727e-03, 3.66453663e-03,
          4.23457520e-03, 6.05495600e-03, 1.04395179e-02, 5.07669011e-03,
          1.34379389e-02, 4.41577332e-03, -1.38937356e-03,
          2.95071770e-03, 4.71214531e-03, 2.69446895e-03, 3.68878758e-03,
          6.83992682e-03, 2.49285041e-03, 4.34073433e-03, 1.93761708e-03,
          4.27156826e-03, 2.11872743e-03, 2.32406470e-04, 3.46433069e-03,
          4.74271411e-03, 8.79411306e-03, 3.20505071e-03, 5.58114890e-03,
          2.49129790e-03, 5.49237709e-03, 2.72420142e-03, 2.98825093e-04,
          3.46061517e-03, 4.74266522e-03, 8.79400503e-03, 3.20508773e-03,
          5.58020081e-03, 2.49122060e-03, 5.49204508e-03, 2.72408710e-03,
          2.95049889e-04, 4.44937916e-03, 6.09769672e-03, 1.13064768e-02,
          4.12077177e-03, 7.17480667e-03, 3.20309540e-03, 7.06166355e-03,
          3.50255705e-03, 3.79370409e-04, 5.11434441e-03, 2.75610620e-03,
          3.95975076e-03, 2.12846091e-03, 6.23389473e-03, 6.11059542e-04,
          6.34658849e-03, 3.38801928e-03, 2.17875240e-05, 6.57620328e-03,
          3.54357809e-03, 5.09116193e-03, 2.73659616e-03, 8.01462866e-03,
          7.85818091e-04, 8.16009659e-03, 4.35588416e-03, 2.83489608e-05,
          6.56904513e-03, 3.54339043e-03, 5.09097939e-03, 2.73660012e-03,
          8.01529083e-03, 7.85648765e-04, 8.15946516e-03, 4.35587438e-03,
          9.41483995e-06, 8.44670832e-03, 4.55580419e-03, 6.54561305e-03,
          3.51849059e-03, 1.03048868e-02, 1.01033819e-03, 1.04909930e-02,
          5.60023030e-03, 1.25368097e-05, 6.90466072e-03, 3.52743501e-03,
          8.05758499e-03, 3.05395876e-03, 3.57537903e-03, 2.31014332e-03,
          3.93363787e-03, 2.16453476e-03, 4.65963688e-03, 8.87688063e-03,
          4.53536958e-03, 1.03598563e-02, 3.92632186e-03, 4.59783711e-03,
          2.97080493e-03, 5.05832303e-03, 2.78291060e-03, 5.99040231e-03,
          8.87646060e-03, 4.53525921e-03, 1.03598433e-02, 3.92684527e-03,
          4.59684199e-03, 2.96964752e-03, 5.05742896e-03, 2.78319651e-03,
          5.99004701e-03, 1.14118978e-02, 5.83117083e-03, 1.33199310e-02,
          5.04854834e-03, 5.91141032e-03, 3.81891616e-03, 6.50342228e-03,
          3.57831479e-03, 7.70076830e-03, 7.94344954e-03, 5.20012574e-03,
          6.61207549e-03, 3.16176750e-03, 6.68347208e-03, 1.45143201e-03,
          1.66367344e-03, -8.81499145e-04, 4.86805011e-03,
          1.02129532e-02, 6.68590050e-03, 8.50136019e-03, 4.06522024e-03,
          8.59274995e-03, 1.86613214e-03, 2.13897577e-03,
          -1.13327405e-03, 6.25887746e-03, 1.02125658e-02,
          6.68586604e-03, 8.50090012e-03, 4.06512385e-03, 8.59286636e-03,
          1.86612201e-03, 2.13891687e-03, -1.13336579e-03,
          6.25617942e-03, 1.31303733e-02, 8.59614555e-03, 1.09298835e-02,
          5.22670383e-03, 1.10476036e-02, 2.39930651e-03, 2.74999393e-03,
          -1.45707908e-03, 8.04360118e-03, 7.62328831e-03,
          5.26885828e-03, 8.41049384e-03, 1.75271067e-03, 6.33644033e-03,
          1.12927554e-03, 3.55714816e-03, -5.83810965e-04,
          4.75560827e-03, 9.80107300e-03, 6.77394774e-03, 1.08130928e-02,
          2.25346931e-03, 8.14688113e-03, 1.45199103e-03, 4.57315845e-03,
          -7.50725565e-04, 6.11412711e-03, 9.80148744e-03,
          6.77391049e-03, 1.08125582e-02, 2.25348980e-03, 8.14671442e-03,
          1.45189418e-03, 4.57311748e-03, -7.50638370e-04,
          6.11451082e-03, 1.26015292e-02, 8.70893057e-03, 1.39013473e-02,
          2.89732334e-03, 1.04743857e-02, 1.86680502e-03, 5.87931368e-03,
          -9.65250016e-04, 7.86122214e-03, 6.90951990e-03,
          3.37241800e-03, 8.17634352e-03, 3.69803584e-03, 7.97075313e-03,
          1.09519204e-03, 3.07302992e-03, 1.06532709e-03, 7.72653567e-03,
          8.88390839e-03, 4.33602324e-03, 1.05126221e-02, 4.75461502e-03,
          1.02482093e-02, 1.40803983e-03, 3.95075371e-03, 1.36962521e-03,
          9.93435923e-03, 8.88140500e-03, 4.33582254e-03, 1.05120214e-02,
          4.75461641e-03, 1.02476571e-02, 1.40809896e-03, 3.95049527e-03,
          1.36960880e-03, 9.93186887e-03, 1.14192590e-02, 5.57470229e-03,
          1.35156875e-02, 6.11307472e-03, 1.31756859e-02, 1.81033078e-03,
          5.07884193e-03, 1.76082132e-03, 1.27698565e-02, 6.72587426e-03,
          4.75254515e-03, 7.44696101e-03, 3.62583250e-03, 7.44691677e-03,
          1.56708900e-03, 5.24472445e-03, 3.48317390e-03, 5.76483551e-03,
          8.64758808e-03, 6.11043582e-03, 9.57472250e-03, 4.66178823e-03,
          9.57418978e-03, 2.01487215e-03, 6.74322341e-03, 4.47844435e-03,
          7.41206761e-03, 8.64743069e-03, 6.11037202e-03, 9.57447384e-03,
          4.66178125e-03, 9.57473181e-03, 2.01483048e-03, 6.74272608e-03,
          4.47820220e-03, 7.41180172e-03, 1.11181699e-02, 7.85621908e-03,
          1.23101128e-02, 5.99372340e-03, 1.23098334e-02, 2.59055221e-03,
          8.66922736e-03, 5.75778913e-03, 9.52963438e-03, 5.26337419e-03,
          4.41301847e-03, 6.93220040e-03, 1.65873102e-03, 9.81325284e-03,
          -6.63266517e-04, 6.64971676e-03, 4.93378192e-03,
          5.92298899e-03, 6.76717935e-03, 5.67366229e-03, 8.91217124e-03,
          2.13264325e-03, 1.26197785e-02, -8.52632220e-04,
          8.54933821e-03, 6.34330045e-03, 7.61525379e-03, 6.76762359e-03,
          5.67386486e-03, 8.91279802e-03, 2.13262136e-03, 1.26164490e-02,
          -8.52740137e-04, 8.54986720e-03, 6.34352816e-03,
          7.61570735e-03, 8.70120898e-03, 7.29468837e-03, 1.14584640e-02,
          2.74192705e-03, 1.62246712e-02, -1.09620090e-03,
          1.09923026e-02, 8.15579295e-03, 9.79160052e-03, 5.93891647e-03,
          2.91231228e-03, 5.95615152e-03, 2.96930643e-03, 1.03941616e-02,
          8.63991852e-04, 4.03281953e-03, 3.47852497e-03, 7.33565493e-03,
          7.63563393e-03, 3.74453771e-03, 7.65832141e-03, 3.81738227e-03,
          1.33641828e-02, 1.11084303e-03, 5.18467696e-03, 4.47226921e-03,
          9.43144411e-03, 7.63534056e-03, 3.74463946e-03, 7.65860919e-03,
          3.81768309e-03, 1.33637823e-02, 1.11084548e-03, 5.18601760e-03,
          4.47271205e-03, 9.43114981e-03, 9.81671736e-03, 4.81471140e-03,
          9.84731317e-03, 4.90806717e-03, 1.71823427e-02, 1.42822543e-03,
          6.66725263e-03, 5.75047499e-03, 1.21256188e-02, 8.37400928e-03,
          3.80889396e-03, 7.27214338e-03, 1.80686719e-03, 8.01315811e-03,
          1.82329828e-03, 6.04209537e-03, 5.24705881e-03, 9.43371002e-03,
          1.07667288e-02, 4.89722937e-03, 9.35013592e-03, 2.32346915e-03,
          1.03039127e-02, 2.34451168e-03, 7.76842237e-03, 6.74646348e-03,
          1.21292658e-02, 1.07665500e-02, 4.89756512e-03, 9.35032591e-03,
          2.32311455e-03, 1.03029348e-02, 2.34402297e-03, 7.76802655e-03,
          6.74609328e-03, 1.21290563e-02, 1.38428938e-02, 6.29697228e-03,
          1.20221516e-02, 2.98731704e-03, 1.32482778e-02, 3.01409233e-03,
          9.98748001e-03, 8.67386349e-03, 1.55947711e-02, 7.55489897e-03,
          5.11569530e-03, 1.03676207e-02, 1.60064618e-03, 1.13960123e-02,
          2.08524987e-03, 7.54108140e-03, 5.30140521e-03, 8.50751903e-03,
          9.71336942e-03, 6.57735905e-03, 1.33298934e-02, 2.05797190e-03,
          1.46525949e-02, 2.68103415e-03, 9.69568174e-03, 6.81608869e-03,
          1.09381629e-02, 9.71306209e-03, 6.57739956e-03, 1.33300349e-02,
          2.05797609e-03, 1.46517474e-02, 2.68103462e-03, 9.69551411e-03,
          6.81604398e-03, 1.09378612e-02, 1.24881305e-02, 8.45670421e-03,
          1.71387382e-02, 2.64596706e-03, 1.88387055e-02, 3.44704301e-03,
          1.24656679e-02, 8.76348000e-03, 1.40628684e-02, 7.71809462e-03,
          4.97013889e-03, 8.03626236e-03, 1.66171382e-03, 8.41497909e-03,
          2.19549728e-03, 2.08003703e-03, 2.02579610e-03, 8.33945908e-03,
          9.92336031e-03, 6.39008963e-03, 1.03320703e-02, 2.13648914e-03,
          1.08188940e-02, 2.82278494e-03, 2.67448206e-03, 2.60464475e-03,
          1.07222600e-02, 9.92338173e-03, 6.39013853e-03, 1.03322119e-02,
          2.13648938e-03, 1.08180447e-02, 2.82277912e-03, 2.67399428e-03,
          2.60448223e-03, 1.07222777e-02, 1.27587570e-02, 8.21577851e-03,
          1.32839289e-02, 2.74691475e-03, 1.39084449e-02, 3.62929073e-03,
          3.43818334e-03, 3.34868394e-03, 1.37859117e-02, 3.01756663e-03,
          4.71073808e-03, 9.57180094e-03, 1.61697983e-03, 6.24605827e-03,
          2.11450155e-03, 4.80337348e-03, 3.46785900e-03, 4.16565267e-03,
          3.87898064e-03, 6.05675019e-03, 1.23068616e-02, 2.07896275e-03,
          8.03092588e-03, 2.71864561e-03, 6.17618486e-03, 4.45882278e-03,
          5.35509689e-03, 3.87970428e-03, 6.05664030e-03, 1.23064891e-02,
          2.07896344e-03, 8.02982692e-03, 2.71864701e-03, 6.17646053e-03,
          4.45890846e-03, 5.35581494e-03, 4.98722913e-03, 7.78722111e-03,
          1.58229619e-02, 2.67293840e-03, 1.03244223e-02, 3.49540450e-03,
          7.94170145e-03, 5.73307136e-03, 6.88509364e-03, 5.05249761e-03,
          2.89084110e-03, 2.82044406e-03, 9.21866973e-04, 5.94712561e-03,
          1.98762957e-03, 6.42802613e-03, 3.94627824e-03, 5.77968406e-03,
          6.49574352e-03, 3.71679873e-03, 3.62632098e-03, 1.18531147e-03,
          7.64796836e-03, 2.55558058e-03, 8.26423336e-03, 5.07376157e-03,
          7.43070291e-03, 6.49574958e-03, 3.71667161e-03, 3.62589536e-03,
          1.18523987e-03, 7.64634740e-03, 2.55552563e-03, 8.26447736e-03,
          5.07388078e-03, 7.43073272e-03, 8.35125986e-03, 4.77858167e-03,
          4.66191163e-03, 1.52394886e-03, 9.83315799e-03, 3.28574912e-03,
          1.06252795e-02, 6.52352907e-03, 9.55338776e-03, 4.71211411e-03,
          5.64489281e-04, 1.96069828e-03, 1.79346045e-03, 5.07914089e-03,
          1.00342883e-03, 2.48511578e-03, 3.44123645e-03, 6.31001312e-03,
          6.05884893e-03, 7.25825608e-04, 2.52068811e-03, 2.30599497e-03,
          6.52935496e-03, 1.29016046e-03, 3.19536519e-03, 4.42447700e-03,
          8.11327621e-03, 6.05743052e-03, 7.26760016e-04, 2.52092676e-03,
          2.30550044e-03, 6.53016008e-03, 1.29012344e-03, 3.19458731e-03,
          4.42409422e-03, 8.11161846e-03, 7.78866094e-03, 9.34475276e-04,
          3.24092107e-03, 2.96436553e-03, 8.39467440e-03, 1.65877852e-03,
          4.10760473e-03, 5.68816066e-03, 1.04297409e-02,
          -1.13751518e-03, 6.40919665e-04, 1.14202406e-03,
          1.92473107e-03, 7.56686786e-03, 3.43072391e-03, 7.20453402e-03,
          3.49544641e-03, -2.89734430e-03, -1.46279670e-03,
          8.24108312e-04, 1.46836648e-03, 2.47435737e-03, 9.72991716e-03,
          4.41094721e-03, 9.26303398e-03, 4.49430896e-03,
          -3.72550613e-03, -1.46683957e-03, 8.24016519e-04,
          1.46850559e-03, 2.47518555e-03, 9.72913019e-03, 4.41067899e-03,
          9.26299486e-03, 4.49420651e-03, -3.73276277e-03,
          -1.88629329e-03, 1.05953834e-03, 1.88814267e-03,
          3.18199978e-03, 1.25102801e-02, 5.67089394e-03, 1.19096441e-02,
          5.77847566e-03, -4.79971478e-03, 2.64430628e-03,
          -4.76542657e-04, 3.89719056e-03, 2.70686718e-03,
          4.88017639e-03, 2.35603610e-03, 3.53413192e-03, 1.84736168e-03,
          1.04276335e-03, 3.39987222e-03, -6.12636621e-04,
          5.01091685e-03, 3.48026748e-03, 6.27519237e-03, 3.02902050e-03,
          4.54394566e-03, 2.37479154e-03, 1.34014036e-03, 3.40052554e-03,
          -6.12722419e-04, 5.01053454e-03, 3.48024955e-03,
          6.27385546e-03, 3.02919070e-03, 4.54378361e-03, 2.37590401e-03,
          1.34201418e-03, 4.37216740e-03, -7.87707977e-04,
          6.44242903e-03, 4.47461894e-03, 8.06725956e-03, 3.89445666e-03,
          5.84208686e-03, 3.05423513e-03, 1.72473211e-03, 2.16444372e-03,
          2.05599866e-03, 5.58332074e-03, 8.79496045e-04, 7.10631302e-03,
          2.77340389e-03, 1.45126571e-04, -1.69765519e-03,
          2.42785388e-03, 2.78272852e-03, 2.64345831e-03, 7.17870472e-03,
          1.13076868e-03, 9.13666654e-03, 3.56565719e-03, 1.86657431e-04,
          -2.18268926e-03, 3.12141608e-03, 2.78245425e-03,
          2.64336681e-03, 7.17865955e-03, 1.13082118e-03, 9.13644675e-03,
          3.56580620e-03, 1.86635822e-04, -2.18233583e-03,
          3.12236976e-03, 3.57727800e-03, 3.39865428e-03, 9.22989659e-03,
          1.45389733e-03, 1.17468312e-02, 4.58441721e-03, 2.40045061e-04,
          -2.80584791e-03, 4.01433371e-03, 3.44626885e-03,
          -1.54692482e-03, 3.51599162e-03, 5.26588818e-04,
          6.32232334e-03, -4.82756470e-04, 2.54184823e-03,
          9.97091527e-04, 3.78410728e-03, 4.43033222e-03,
          -1.98876928e-03, 4.52094479e-03, 6.76994037e-04,
          8.12795386e-03, -6.20686391e-04, 3.26813385e-03,
          1.28197542e-03, 4.86468570e-03, 4.42860508e-03,
          -1.98888476e-03, 4.52067703e-03, 6.77037926e-04,
          8.12886655e-03, -6.20701292e-04, 3.26826493e-03,
          1.28190685e-03, 4.86291712e-03, 5.69317024e-03,
          -2.55696499e-03, 5.81279118e-03, 8.70414835e-04,
          1.04504395e-02, -7.98043795e-04, 4.20211069e-03,
          1.64816645e-03, 6.25155726e-03, 7.35943159e-03,
          -8.61287641e-04, 3.57925543e-04, 6.68917783e-04,
          1.42867269e-03, 3.34568508e-03, 9.73866147e-04,
          -7.15817558e-04, 5.77623164e-03, 9.46200639e-03,
          -1.10737537e-03, 4.60082403e-04, 8.60066270e-04,
          1.82725105e-03, 4.30159830e-03, 1.25290034e-03,
          -9.20075923e-04, 7.42626470e-03, 9.46295820e-03,
          -1.10756059e-03, 4.59597766e-04, 8.60035128e-04,
          1.83696696e-03, 4.30160062e-03, 1.25243480e-03,
          -9.20196413e-04, 7.42740184e-03, 1.21665075e-02,
          -1.42401410e-03, 5.90773008e-04, 1.10579689e-03,
          2.34945351e-03, 5.53063257e-03, 1.61128386e-03,
          -1.18277373e-03, 9.54910740e-03, 3.70203168e-03,
          6.81749487e-04, -2.19781883e-03, 1.07778446e-03,
          6.43429579e-03, 1.33040734e-03, 1.97673775e-03, 3.89102520e-03,
          8.02283001e-04, 4.76020388e-03, 8.76734382e-04,
          -2.82522663e-03, 1.38573698e-03, 8.27274099e-03,
          1.71052304e-03, 2.54204241e-03, 5.00292750e-03, 1.03196315e-03,
          4.75547696e-03, 8.76858074e-04, -2.82484596e-03,
          1.38572708e-03, 8.27218220e-03, 1.71051873e-03, 2.54148967e-03,
          5.00184484e-03, 1.02668593e-03, 6.11476135e-03, 1.12764491e-03,
          -3.63124930e-03, 1.78166747e-03, 1.06357597e-02,
          2.19923793e-03, 3.26830102e-03, 6.43117586e-03, 1.32061157e-03,
          1.14245093e-04, 4.80558537e-03, 5.39557450e-03, 1.33095236e-04,
          3.21752741e-03, 2.02219700e-03, 6.48710586e-04, 2.50777084e-05,
          -1.10327592e-03, 1.46625491e-04, 6.17872039e-03,
          6.93752756e-03, 1.71117717e-04, 4.13673464e-03, 2.59930175e-03,
          8.33601982e-04, 3.22070227e-05, -1.41875201e-03,
          1.46701728e-04, 6.17856160e-03, 6.93689100e-03, 1.71121035e-04,
          4.13647201e-03, 2.60015344e-03, 8.33455299e-04, 3.18164930e-05,
          -1.41878938e-03, 1.88280363e-04, 7.94400740e-03,
          8.91932286e-03, 2.20007118e-04, 5.31820953e-03, 3.34219844e-03,
          1.07100152e-03, 4.08607884e-05, -1.82448444e-03,
          1.48941763e-03, 2.02251947e-03, 3.32640857e-03, 3.38462624e-03,
          4.19425033e-03, 1.09224441e-03, 3.26424465e-03, 6.77820703e-04,
          6.27304777e-04, 1.91487046e-03, 2.59995554e-03, 4.27677203e-03,
          4.35134489e-03, 5.39230555e-03, 1.40441651e-03, 4.19697026e-03,
          8.71947035e-04, 8.06641183e-04, 1.91460561e-03, 2.60081794e-03,
          4.27702814e-03, 4.35164478e-03, 5.39243314e-03, 1.40430208e-03,
          4.19679983e-03, 8.71475786e-04, 8.04727955e-04, 2.46151350e-03,
          3.34336027e-03, 5.49898576e-03, 5.59456367e-03, 6.93274057e-03,
          1.80566264e-03, 5.39599406e-03, 1.12106430e-03, 1.03478716e-03,
          2.25261413e-03, 2.54584709e-03, 5.66074485e-03, 1.77087425e-03,
          4.75119706e-03, -1.91216334e-03, 4.20183269e-03,
          -7.18087016e-04, 4.91698598e-03, 2.89560249e-03,
          3.27316858e-03, 7.27808150e-03, 2.27683526e-03, 6.10896014e-03,
          -2.45850044e-03, 5.40278899e-03, -9.23107495e-04,
          6.32126257e-03, 2.89577502e-03, 3.27322772e-03, 7.27805682e-03,
          2.27679359e-03, 6.10863790e-03, -2.45849765e-03,
          5.40210912e-03, -9.23336716e-04, 6.32138830e-03,
          3.72234755e-03, 4.20835475e-03, 9.35747661e-03, 2.92730215e-03,
          7.85432104e-03, -3.16093280e-03, 6.94612460e-03,
          -1.18695782e-03, 8.12675618e-03, -1.27676525e-03,
          1.23410858e-03, 7.09082792e-03, 2.17671669e-03, 5.30904112e-03,
          1.24318292e-04, 5.27391769e-03, 1.57489534e-03, 1.21291471e-03,
          -1.64218689e-03, 1.58671674e-03, 9.11679585e-03,
          2.79860408e-03, 6.82626199e-03, 1.59837611e-04, 6.78098621e-03,
          2.02494883e-03, 1.55884377e-03, -1.64447504e-03,
          1.58616970e-03, 9.11687594e-03, 2.79863388e-03, 6.82547176e-03,
          1.59845440e-04, 6.78071892e-03, 2.02482939e-03, 1.55662245e-03,
          -2.11513788e-03, 2.03936803e-03, 1.17217181e-02,
          3.59820318e-03, 8.77605937e-03, 2.05515054e-04, 8.71836953e-03,
          2.60345940e-03, 2.00057682e-03, 2.06182199e-03, 2.52985419e-03,
          6.38941256e-03, 2.47052452e-03, 5.88394608e-03, 3.49915493e-03,
          1.40832469e-03, -1.85026624e-03, 2.43037636e-03,
          2.65085255e-03, 3.25265690e-03, 8.21489282e-03, 3.17638717e-03,
          7.56731071e-03, 4.50231275e-03, 1.81073253e-03,
          -2.37891497e-03, 3.12472950e-03, 2.65058991e-03,
          3.25248390e-03, 8.21461622e-03, 3.17582721e-03, 7.56453117e-03,
          4.49892553e-03, 1.81026792e-03, -2.37906654e-03,
          3.12445010e-03, 3.40782129e-03, 4.18174872e-03, 1.05615649e-02,
          4.08320455e-03, 9.72870179e-03, 5.78870298e-03, 2.32752552e-03,
          -3.05880280e-03, 4.01709881e-03, 5.03968261e-03,
          3.68348230e-03, 6.36938447e-03, 4.18120530e-04, 2.75797374e-03,
          8.32864258e-04, 5.50502678e-03, 5.98533836e-04, 3.49781592e-03,
          6.47902209e-03, 4.73536132e-03, 8.18923302e-03, 5.37395652e-04,
          3.54543934e-03, 1.07082573e-03, 7.07807206e-03, 7.69678445e-04,
          4.49674623e-03, 6.47913897e-03, 4.73579857e-03, 8.18890613e-03,
          5.37680287e-04, 3.54515971e-03, 1.07038056e-03, 7.07778055e-03,
          7.70128157e-04, 4.49717790e-03, 8.32958892e-03, 6.08818419e-03,
          1.05286241e-02, 6.91061839e-04, 4.55738511e-03, 1.37620396e-03,
          9.10023507e-03, 9.90337692e-04, 5.78151317e-03, 8.34459439e-03,
          1.82160898e-03, 5.14360936e-03, 2.62582675e-03, 4.77837492e-03,
          9.61583050e-04, 1.99462287e-03, -2.38552527e-03,
          4.82406141e-03, 1.07283043e-02, 2.34199618e-03, 6.61300635e-03,
          3.37607600e-03, 6.14344748e-03, 1.23637507e-03, 2.56389589e-03,
          -3.06721171e-03, 6.20191032e-03, 1.07294722e-02,
          2.34184135e-03, 6.61256164e-03, 3.37606389e-03, 6.14353828e-03,
          1.23632769e-03, 2.56552687e-03, -3.06647364e-03,
          6.20290311e-03, 1.37944445e-02, 3.01084574e-03, 8.50160047e-03,
          4.34067007e-03, 7.89860729e-03, 1.58963352e-03, 3.29773757e-03,
          -3.94274807e-03, 7.97457807e-03, 6.63903169e-03,
          2.96835415e-03, 5.41404029e-03, 1.76289422e-03, 6.28909841e-03,
          1.69236533e-04, 5.72079048e-03, 6.11807336e-04, 3.83707904e-03,
          8.53556953e-03, 3.81650450e-03, 6.96105417e-03, 2.26658047e-03,
          8.08651466e-03, 2.17590961e-04, 7.35599268e-03, 7.86832068e-04,
          4.93303873e-03, 8.53366125e-03, 3.81643209e-03, 6.96087675e-03,
          2.26663961e-03, 8.08622595e-03, 2.17586930e-04, 7.35441130e-03,
          7.86324497e-04, 4.93226713e-03, 1.09714279e-02, 4.90690488e-03,
          8.94988421e-03, 2.91425362e-03, 1.03972591e-02, 2.79756321e-04,
          9.45655908e-03, 1.01127510e-03, 6.34103874e-03, 8.13030172e-03,
          4.83463192e-03, 5.99760469e-03, 1.89275190e-04, 7.05113076e-03,
          1.36612263e-03, 7.50961190e-04, 1.45774393e-03, 7.08428863e-03,
          1.04539441e-02, 6.21594815e-03, 7.71118002e-03, 2.43352362e-04,
          9.06681456e-03, 1.75643107e-03, 9.65579937e-04, 1.87432976e-03,
          9.10907891e-03, 1.04537038e-02, 6.21599657e-03, 7.71144498e-03,
          2.43352202e-04, 9.06461198e-03, 1.75645179e-03, 9.64972714e-04,
          1.87402195e-03, 9.10882279e-03, 1.34413736e-02, 7.99198635e-03,
          9.91468132e-03, 3.12879332e-04, 1.16558829e-02, 2.25827959e-03,
          1.24075299e-03, 2.40956969e-03, 1.17122522e-02, 8.52163136e-03,
          4.93754400e-03, 5.76297380e-03, 8.15694337e-04, 1.04913041e-02,
          9.11662239e-04, 5.84786385e-03, 4.51984303e-03, 8.80084652e-03,
          1.09562902e-02, 6.34829002e-03, 7.40959961e-03, 1.04875548e-03,
          1.34879658e-02, 1.17214047e-03, 7.51860300e-03, 5.81133179e-03,
          1.13154436e-02, 1.09565677e-02, 6.34840364e-03, 7.40992650e-03,
          1.04874908e-03, 1.34886689e-02, 1.17197714e-03, 7.51775363e-03,
          5.81094017e-03, 1.13155637e-02, 1.40868966e-02, 8.16225912e-03,
          9.52712726e-03, 1.34839874e-03, 1.73414778e-02, 1.50683161e-03,
          9.66558140e-03, 7.47134443e-03, 1.45486714e-02, 7.12874997e-03,
          5.41426288e-03, 1.11795552e-02, 2.34195404e-03, 8.84533767e-03,
          1.17603538e-03, 3.59018845e-03, 3.06444266e-03, 7.88993295e-03,
          9.16553754e-03, 6.96129724e-03, 1.43740242e-02, 3.01108696e-03,
          1.13754123e-02, 1.51427661e-03, 4.61640395e-03, 3.93988565e-03,
          1.01441490e-02, 9.16623417e-03, 6.96123065e-03, 1.43741239e-02,
          3.01108439e-03, 1.13724833e-02, 1.51204353e-03, 4.61478019e-03,
          3.93972360e-03, 1.01453671e-02, 1.17851617e-02, 8.95028561e-03,
          1.84814148e-02, 3.87139828e-03, 1.46254096e-02, 1.94692460e-03,
          5.93386404e-03, 5.06521482e-03, 1.30439783e-02, 9.80095565e-03,
          3.18935001e-03, 3.94363841e-03, 1.97727676e-03, 1.03639057e-02,
          2.30478449e-03, 7.58768991e-03, 5.22263441e-03, 1.04962932e-02,
          1.26013272e-02, 4.10054857e-03, 5.07025653e-03, 2.54221051e-03,
          1.33259762e-02, 2.96330638e-03, 9.75603703e-03, 6.71495683e-03,
          1.34953307e-02, 1.26012126e-02, 4.10046009e-03, 5.07000508e-03,
          2.54221354e-03, 1.33257285e-02, 2.96329381e-03, 9.75457672e-03,
          6.71446463e-03, 1.34952171e-02, 1.62016861e-02, 5.27196378e-03,
          6.51840260e-03, 3.26855714e-03, 1.71343070e-02, 3.80996498e-03,
          1.25421574e-02, 8.63306504e-03, 1.73511170e-02, 4.53790557e-03,
          4.87856567e-03, 6.34722132e-03, 3.97291826e-03, 7.29023153e-03,
          2.61463062e-03, 5.98673616e-03, 3.32013099e-03, 4.00763331e-03,
          5.83492918e-03, 6.27230993e-03, 8.16056039e-03, 5.10804122e-03,
          9.37191490e-03, 3.36079393e-03, 7.69771216e-03, 4.26889956e-03,
          5.15320944e-03, 5.83490171e-03, 6.27270527e-03, 8.16101395e-03,
          5.10799466e-03, 9.37356427e-03, 3.36143444e-03, 7.69754685e-03,
          4.26905463e-03, 5.15313214e-03, 7.50263268e-03, 8.06473847e-03,
          1.04925353e-02, 6.56742603e-03, 1.20501313e-02, 4.32072068e-03,
          9.89746302e-03, 5.48898941e-03, 6.62614731e-03, 4.52067377e-03,
          5.92249027e-03, 5.40117174e-03, 1.97648560e-03, 6.77909283e-03,
          7.37969938e-04, 5.09174634e-03, 2.01304280e-03, 4.40902263e-03,
          5.81249967e-03, 7.61443656e-03, 6.94356766e-03, 2.54055858e-03,
          8.71543679e-03, 9.48676956e-04, 6.54643448e-03, 2.58818176e-03,
          5.66894282e-03, 5.81195671e-03, 7.61451619e-03, 6.94397651e-03,
          2.54107360e-03, 8.71595461e-03, 9.48818808e-04, 6.54637814e-03,
          2.58814148e-03, 5.66839986e-03, 7.47277914e-03, 9.78984404e-03,
          8.92694574e-03, 3.26627539e-03, 1.12055335e-02, 1.21972780e-03,
          8.41664802e-03, 3.32759018e-03, 7.28819892e-03, 7.97580369e-03,
          1.43494841e-03, 2.38669734e-03, -1.62874197e-03,
          7.51365488e-03, 2.29735114e-03, 5.82519127e-03, 3.27766896e-03,
          6.91337185e-03, 1.02528967e-02, 1.83966302e-03, 3.06752999e-03,
          -2.09409255e-03, 9.66058858e-03, 2.95385835e-03,
          7.48956157e-03, 4.21413453e-03, 8.88794288e-03, 1.02520343e-02,
          1.83503819e-03, 3.06787202e-03, -2.09507602e-03,
          9.65978112e-03, 2.95373332e-03, 7.48996995e-03, 4.21478972e-03,
          8.88876058e-03, 1.31789912e-02, 2.35255901e-03, 3.94301629e-03,
          -2.69366358e-03, 1.24199446e-02, 3.79781285e-03,
          9.62999929e-03, 5.41900098e-03, 1.14275347e-02, 6.61533978e-03,
          -1.73742371e-03, -9.15158424e-04, 1.09704642e-03,
          8.87812674e-03, 1.76317920e-03, 5.81339374e-03, 2.45851022e-03,
          2.90369964e-03, 8.50556698e-03, -2.23370502e-03,
          -1.17616961e-03, 1.41082297e-03, 1.14139430e-02,
          2.26698723e-03, 7.47453840e-03, 3.16098449e-03, 3.73345218e-03,
          8.50540120e-03, -2.23362888e-03, -1.17645471e-03,
          1.41047908e-03, 1.14153018e-02, 2.26693717e-03, 7.47429021e-03,
          3.16071440e-03, 3.73344682e-03, 1.09356819e-02,
          -2.87164748e-03, -1.51199056e-03, 1.81390310e-03,
          1.46757998e-02, 2.91468832e-03, 9.61002614e-03, 4.06383025e-03,
          4.80030570e-03, 3.04661435e-03, 1.00290729e-03, 1.73747470e-03,
          1.23415084e-03, 3.08459275e-03, 2.39276397e-03, 2.08518584e-03,
          2.03419081e-03, 1.69039168e-03, 3.91673949e-03, 1.28946034e-03,
          2.23393994e-03, 1.58679672e-03, 3.96705093e-03, 3.07640806e-03,
          2.68080668e-03, 2.61525228e-03, 2.17300374e-03, 3.91759351e-03,
          1.28945673e-03, 2.23388849e-03, 1.58676133e-03, 3.96563904e-03,
          3.07641597e-03, 2.68136058e-03, 2.61553563e-03, 2.17330828e-03,
          5.03647421e-03, 1.65788329e-03, 2.87219812e-03, 2.04016152e-03,
          5.10015246e-03, 3.95538844e-03, 3.44727538e-03, 3.36265680e-03,
          2.79379450e-03, 2.41213688e-03, 2.45178118e-03,
          -4.92316140e-05, 6.01955550e-03, 5.82426740e-03,
          1.38759962e-03, 4.81655402e-03, 2.32878560e-03, 1.33943788e-04,
          3.10142245e-03, 3.15227639e-03, -6.33856616e-05,
          7.73942564e-03, 7.48898927e-03, 1.78405317e-03, 6.19273260e-03,
          2.99427588e-03, 1.72340049e-04, 3.10103246e-03, 3.15233041e-03,
          -6.26633846e-05, 7.73942610e-03, 7.48827634e-03,
          1.78405631e-03, 6.19209372e-03, 2.99396319e-03, 1.72073327e-04,
          3.98717541e-03, 4.05297754e-03, -8.06798053e-05,
          9.95068718e-03, 9.62861348e-03, 2.29378231e-03, 7.96128996e-03,
          3.84953944e-03, 2.21400114e-04, 5.29345743e-05, 3.75790801e-03,
          2.82170973e-03, -2.69525032e-03, 2.57232133e-03,
          2.16291170e-03, 5.56084421e-03, 4.88456397e-04,
          -2.99428683e-03, 6.79925433e-05, 4.83153481e-03,
          3.62779479e-03, -3.46532860e-03, 3.30772181e-03,
          2.78089405e-03, 7.15002930e-03, 6.28129346e-04,
          -3.84985982e-03, 6.84537372e-05, 4.83152783e-03,
          3.62763833e-03, -3.46532837e-03, 3.30677093e-03,
          2.78088544e-03, 7.14928331e-03, 6.27888774e-04,
          -3.84944305e-03, 8.79267682e-05, 6.21188525e-03,
          4.66395495e-03, -4.45543090e-03, 4.25214320e-03,
          3.57543421e-03, 9.19241458e-03, 8.07432807e-04,
          -4.94936435e-03, 4.84038424e-03, 4.87984437e-03,
          4.74960543e-03, 5.93765697e-04, 4.17034654e-03,
          -3.76722892e-03, 1.40277052e-03, -4.22186218e-04,
          7.29489315e-04, 6.22373773e-03, 6.27368549e-03, 6.10548910e-03,
          7.63441552e-04, 5.36168832e-03, -4.84347856e-03,
          1.80330640e-03, -5.42926660e-04, 9.38294397e-04,
          6.22333307e-03, 6.27389597e-03, 6.10613264e-03, 7.63418735e-04,
          5.36151836e-03, -4.84357169e-03, 1.80342642e-03,
          -5.42808790e-04, 9.38120647e-04, 8.00192542e-03,
          8.06592312e-03, 7.84926768e-03, 9.81575227e-04, 6.89314166e-03,
          -6.22731913e-03, 2.31836201e-03, -6.98046235e-04,
          1.20664260e-03, 4.15163784e-04, 5.22964774e-03, 2.48164404e-03,
          3.77698714e-04, 6.06759451e-03, -1.08190207e-03,
          2.62729311e-03, -1.60572771e-03, 8.46189505e-04,
          5.33643644e-04, 6.72379322e-03, 3.19067645e-03, 4.86443983e-04,
          7.80122681e-03, -1.39102759e-03, 3.37881944e-03,
          -2.06420710e-03, 1.08782412e-03, 5.33914834e-04,
          6.72401022e-03, 3.19122756e-03, 4.85644472e-04, 7.80140376e-03,
          -1.39102165e-03, 3.37774842e-03, -2.06482946e-03,
          1.08405261e-03, 6.86282467e-04, 8.64510518e-03, 4.10299422e-03,
          6.25468674e-04, 1.00304205e-02, -1.78847020e-03,
          4.34393995e-03, -2.65439507e-03, 1.39360887e-03,
          6.89720456e-03, 5.58804348e-03, 3.29297129e-03,
          -7.19625968e-04, 3.23545886e-03, 3.98802198e-03,
          -1.24327431e-03, -1.51531247e-03, 3.49220354e-03,
          8.86806473e-03, 7.18460232e-03, 4.23392979e-03,
          -9.25234752e-04, 4.15958045e-03, 5.12747280e-03,
          -1.59837096e-03, -1.94823660e-03, 4.49022884e-03,
          8.86540767e-03, 7.18497206e-03, 4.23488161e-03,
          -9.25127824e-04, 4.15962003e-03, 5.12749096e-03,
          -1.59859669e-03, -1.94829027e-03, 4.48859157e-03,
          1.13986777e-02, 9.23778955e-03, 5.44498907e-03,
          -1.18945143e-03, 5.34770312e-03, 6.59250841e-03,
          -2.05517770e-03, -2.50491546e-03, 5.77137154e-03,
          -2.36152700e-04, 4.62473789e-03, 2.95909564e-03,
          1.14500592e-03, 3.00100562e-03, 1.64296781e-03, 4.85224975e-03,
          -1.82515248e-06, -9.19710146e-04, -3.04220564e-04,
          5.94615797e-03, 3.80483456e-03, 1.47213298e-03, 3.85907851e-03,
          2.11278023e-03, 6.23861654e-03, -2.37395125e-06,
          -1.18309283e-03, -3.03364301e-04, 5.94584504e-03,
          3.80398636e-03, 1.47213612e-03, 3.85829015e-03, 2.11210758e-03,
          6.23839814e-03, -2.34493132e-06, -1.18218071e-03,
          -3.90806381e-04, 7.64474319e-03, 4.89120232e-03,
          1.89272384e-03, 4.96148551e-03, 2.71607284e-03, 8.02080985e-03,
          -3.05058870e-06, -1.52072893e-03, 6.49595913e-03,
          1.85355823e-03, 1.19314971e-03, 2.58012698e-03, 4.26921435e-03,
          1.61637657e-03, -1.71357635e-04, 4.97430470e-03,
          1.68693939e-03, 8.35241005e-03, 2.38327030e-03, 1.53435580e-03,
          3.31731094e-03, 5.48880966e-03, 2.07821792e-03,
          -2.19985595e-04, 6.39573438e-03, 2.16938765e-03,
          8.34614411e-03, 2.38320301e-03, 1.53428048e-03, 3.31730209e-03,
          5.48843294e-03, 2.07806565e-03, -2.20897156e-04,
          6.39530225e-03, 2.16172868e-03, 1.07313506e-02, 3.06427828e-03,
          1.97303994e-03, 4.26510861e-03, 7.05632474e-03, 2.67182314e-03,
          -2.83584552e-04, 8.22278857e-03, 2.77996436e-03,
          3.54554737e-03, 5.14165824e-03, 4.27514687e-03, 2.32102349e-03,
          6.79652812e-03, 1.61300902e-03, 7.38708477e-04,
          -1.26300915e-03, 3.02642211e-03, 4.55925288e-03,
          6.61068223e-03, 5.49656246e-03, 2.98417965e-03, 8.73885397e-03,
          2.07307073e-03, 9.49736219e-04, -1.62390701e-03,
          3.89178633e-03, 4.55381488e-03, 6.61053648e-03, 5.49591938e-03,
          2.98425532e-03, 8.73788260e-03, 2.07386515e-03, 9.49539302e-04,
          -1.62358221e-03, 3.88622517e-03, 5.85579453e-03,
          8.49923305e-03, 7.06611108e-03, 3.83690768e-03, 1.12350136e-02,
          2.66537187e-03, 1.22079498e-03, -2.08751136e-03,
          4.99744061e-03, -1.19767932e-03, 1.26372091e-03,
          5.40421577e-03, 5.51990233e-04, 9.79089644e-03, 1.69627613e-03,
          1.96068641e-03, 1.85191538e-03, 2.26583681e-03,
          -1.54028868e-03, 1.62491226e-03, 6.94851205e-03,
          7.09704065e-04, 1.25882179e-02, 2.18093232e-03, 2.52102455e-03,
          2.38108565e-03, 2.91284919e-03, -1.53989147e-03,
          1.62477395e-03, 6.94848550e-03, 7.09738350e-04, 1.25877438e-02,
          2.18158960e-03, 2.52106274e-03, 2.38097110e-03, 2.91321054e-03,
          -1.98039506e-03, 2.08915980e-03, 8.93406849e-03,
          9.12524178e-04, 1.61841437e-02, 2.80490797e-03, 3.24154901e-03,
          3.06131481e-03, 3.74508207e-03, -2.66257138e-03,
          2.13342113e-03, 5.03456034e-03, 2.66094459e-03, 6.48771040e-03,
          7.70365121e-04, 2.85306154e-03, 4.02733684e-03, 9.24171822e-04,
          -3.42339091e-03, 2.74364790e-03, 6.47280691e-03,
          3.42121418e-03, 8.34234990e-03, 9.90479370e-04, 3.66756739e-03,
          5.17777260e-03, 1.18797412e-03, -3.42787500e-03,
          2.74321181e-03, 6.47371728e-03, 3.42121441e-03, 8.34100135e-03,
          9.90463770e-04, 3.66806099e-03, 5.17795887e-03, 1.18311425e-03,
          -4.40737698e-03, 3.52785853e-03, 8.32309481e-03,
          4.39870451e-03, 1.07254405e-02, 1.27346616e-03, 4.71523684e-03,
          6.65707747e-03, 1.52082916e-03, 1.21144590e-03, 9.13287047e-04,
          6.56891754e-03, 1.23183709e-03, 8.58421903e-03, 8.92729673e-04,
          3.13066965e-04, 7.78214657e-04, 1.61096267e-03, 1.55789068e-03,
          1.17421721e-03, 8.44572857e-03, 1.58396596e-03, 1.10364016e-02,
          1.14780979e-03, 4.02452803e-04, 1.00052927e-03, 2.07155780e-03,
          1.55781349e-03, 1.17420545e-03, 8.44574813e-03, 1.58379006e-03,
          1.10369725e-02, 1.14779861e-03, 4.03100159e-04, 1.00076653e-03,
          2.07153731e-03, 2.00331095e-03, 1.50968169e-03, 1.08587900e-02,
          2.03652703e-03, 1.41898133e-02, 1.47575920e-03, 5.18191897e-04,
          1.28665869e-03, 2.66381609e-03, 3.46820825e-03, 1.29837461e-03,
          4.43326589e-03, 1.75664749e-03, 8.06848146e-03,
          -9.27191519e-04, -9.40653335e-05, 9.82715283e-04,
          4.34223702e-03, 4.45919670e-03, 1.66912680e-03, 5.69929462e-03,
          2.25854223e-03, 1.03740674e-02, -1.19210698e-03,
          -1.21289660e-04, 1.26337749e-03, 5.58293797e-03,
          4.45942534e-03, 1.66906463e-03, 5.69910230e-03, 2.25854549e-03,
          1.03729917e-02, -1.19211152e-03, -1.20957156e-04,
          1.26350473e-03, 5.58313075e-03, 5.73363900e-03, 2.14566849e-03,
          7.32662063e-03, 2.90383864e-03, 1.33370971e-02,
          -1.53271924e-03, -1.55966249e-04, 1.62435952e-03,
          7.17838947e-03, 7.76999956e-03, 4.20706393e-03, 7.31607154e-03,
          6.37811201e-04, 5.85030019e-03, 1.86450547e-04,
          -2.92847003e-03, 5.43738483e-04, 5.52890310e-03,
          9.99013055e-03, 5.40915038e-03, 9.40653775e-03, 8.19936977e-04,
          7.52189104e-03, 2.40014706e-04, -3.76462797e-03,
          6.99212891e-04, 7.10870884e-03, 9.98419989e-03, 5.40888961e-03,
          9.40646976e-03, 8.20041925e-04, 7.52169406e-03, 2.39729517e-04,
          -3.76615138e-03, 6.98399730e-04, 7.10332068e-03,
          1.28369965e-02, 6.95437519e-03, 1.20942369e-02, 1.05420337e-03,
          9.67084710e-03, 3.08599847e-04, -4.84149018e-03,
          8.98097467e-04, 9.13299341e-03, 2.41730455e-03, 3.49547155e-03,
          6.46036863e-03, 1.78997579e-03, 3.61996819e-03, 4.22475452e-04,
          4.41774912e-03, 1.41760742e-03, 3.95506155e-03, 3.10757849e-03,
          4.49418370e-03, 8.30621552e-03, 2.30138097e-03, 4.65432275e-03,
          5.43183589e-04, 5.68003207e-03, 1.82266196e-03, 5.08471346e-03,
          3.10731819e-03, 4.49406821e-03, 8.30606278e-03, 2.30139866e-03,
          4.65419469e-03, 5.43183065e-04, 5.68022206e-03, 1.82274228e-03,
          5.08467341e-03, 3.99462972e-03, 5.77809522e-03, 1.06792580e-02,
          2.95892009e-03, 5.98406512e-03, 6.98379125e-04, 7.30322953e-03,
          2.34355615e-03, 6.53696805e-03, 8.76889005e-03, 4.32891492e-03,
          5.98548213e-03, 9.40351456e-04, 7.17816921e-03, 7.46695951e-05,
          3.18124983e-03, 1.48515019e-03, 7.85695575e-03, 1.12753948e-02,
          5.56585006e-03, 7.69559853e-03, 1.20902271e-03, 9.22981463e-03,
          9.60241669e-05, 4.09069657e-03, 1.90908904e-03, 1.01027731e-02,
          1.12737194e-02, 5.56568569e-03, 7.69537874e-03, 1.20902399e-03,
          9.22895130e-03, 9.59992467e-05, 4.08940902e-03, 1.90900103e-03,
          1.00961402e-02, 1.44962054e-02, 7.15601305e-03, 9.89403017e-03,
          1.55445852e-03, 1.18667465e-02, 1.23454112e-04, 5.25847776e-03,
          2.45392858e-03, 1.29820025e-02, 5.77477878e-03, 5.18529350e-03,
          7.56571535e-03, 1.87926297e-03, 9.57284216e-03, 1.73624337e-03,
          4.61519277e-03, 4.84219193e-03, 4.54663066e-03, 7.42449192e-03,
          6.66682003e-03, 9.72737931e-03, 2.41616438e-03, 1.23087279e-02,
          2.23279814e-03, 5.93394833e-03, 6.22560689e-03, 5.84541634e-03,
          7.42379436e-03, 6.66687544e-03, 9.72755998e-03, 2.41619465e-03,
          1.23066157e-02, 2.23230314e-03, 5.93445171e-03, 6.22595381e-03,
          5.84475044e-03, 9.54459049e-03, 8.57171603e-03, 1.25069004e-02,
          3.10649653e-03, 1.58238038e-02, 2.87072849e-03, 7.63017545e-03,
          8.00471008e-03, 7.51435524e-03, 5.81907202e-03, 2.70516239e-03,
          5.53285051e-03, 2.02391273e-03, 1.10751931e-02, 3.05773225e-03,
          5.56933368e-03, 3.83393769e-03, 6.26631361e-03, 7.48188375e-03,
          3.47814988e-03, 7.11370772e-03, 2.60217232e-03, 1.42402807e-02,
          3.93136684e-03, 7.16067478e-03, 4.92940703e-03, 8.05689208e-03,
          7.48254219e-03, 3.47805605e-03, 7.11364392e-03, 2.60217604e-03,
          1.42393401e-02, 3.93136032e-03, 7.16021098e-03, 4.92916815e-03,
          8.05755332e-03, 9.62069351e-03, 4.47189435e-03, 9.14616790e-03,
          3.34565318e-03, 1.83086842e-02, 5.05460193e-03, 9.20611713e-03,
          6.33757701e-03, 1.03599727e-02, 4.76316409e-03, 1.74096692e-03,
          5.22033358e-03, 3.80377378e-03, 6.76181167e-03, 3.08769546e-03,
          5.07667707e-03, 2.87615042e-03, 3.77855450e-03, 6.12332998e-03,
          2.23837770e-03, 6.71129487e-03, 4.89030639e-03, 8.69314931e-03,
          3.96977179e-03, 6.52688136e-03, 3.69790918e-03, 4.85740975e-03,
          6.12520007e-03, 2.23806151e-03, 6.71081152e-03, 4.89024213e-03,
          8.69296305e-03, 3.96988820e-03, 6.52690791e-03, 3.69790848e-03,
          4.85926354e-03, 7.87430909e-03, 2.87749758e-03, 8.62746220e-03,
          6.28711982e-03, 1.11758839e-02, 5.10398485e-03, 8.39138590e-03,
          4.75445576e-03, 6.24668412e-03, 6.08015619e-03, 2.07262835e-03,
          1.11688138e-03, -2.00389753e-04, 7.66736642e-03,
          1.93143275e-03, 3.71180358e-03, 9.40217462e-04, 5.27320476e-03,
          7.81623833e-03, 2.66503589e-03, 1.43592258e-03,
          -2.57697451e-04, 9.85675771e-03, 2.48325802e-03,
          4.77225985e-03, 1.20879349e-03, 6.77941414e-03, 7.81699084e-03,
          2.66477698e-03, 1.43657776e-03, -2.56962550e-04,
          9.85664222e-03, 2.48327013e-03, 4.77236370e-03, 1.20916474e-03,
          6.77976478e-03, 1.00489957e-02, 3.42643494e-03, 1.84694061e-03,
          -3.30448675e-04, 1.26711726e-02, 3.19275935e-03,
          6.13582041e-03, 1.55456644e-03, 8.71629920e-03, 8.09194334e-03,
          -1.68500366e-04, -5.54767624e-03, 8.83356086e-04,
          9.53721255e-03, 2.63443426e-03, 5.22985542e-03, 2.09655240e-03,
          5.26219094e-03, 1.04035372e-02, -2.16607586e-04,
          -7.14135030e-03, 1.13353832e-03, 1.22599537e-02,
          3.38623160e-03, 6.72363583e-03, 2.69522634e-03, 6.76447200e-03,
          1.04031721e-02, -2.16510438e-04, -7.13695539e-03,
          1.13238313e-03, 1.22614047e-02, 3.38769075e-03, 6.72570243e-03,
          2.69629946e-03, 6.76664384e-03, 1.33750066e-02,
          -2.78324616e-04, -9.18717310e-03, 1.45308522e-03,
          1.57618634e-02, 4.35444759e-03, 8.64673406e-03, 3.46623245e-03,
          8.69842526e-03, 5.63288014e-03, 3.51764983e-03,
          -1.30466942e-03, 1.83332933e-03, 2.54297093e-03,
          -4.29110922e-04, 3.56438546e-03, 4.39725304e-03,
          4.98746755e-03, 7.24201044e-03, 4.52271150e-03,
          -1.67738181e-03, 2.35715834e-03, 3.26948473e-03,
          -5.51715028e-04, 4.58309753e-03, 5.65365935e-03,
          6.41219458e-03, 7.24195503e-03, 4.52265376e-03,
          -1.67749554e-03, 2.35719630e-03, 3.26989894e-03,
          -5.51717007e-04, 4.58268588e-03, 5.65344468e-03,
          6.41213916e-03, 9.31074563e-03, 5.81486430e-03,
          -2.15671561e-03, 3.03070829e-03, 4.20409162e-03,
          -7.09351909e-04, 5.89243090e-03, 7.26877619e-03,
          8.24383926e-03, 2.13629892e-03, 1.91450980e-03, 5.88379148e-03,
          -2.57503521e-03, 4.38636169e-03, 1.78667461e-03,
          4.18686913e-03, 5.74094430e-03, 3.73461773e-03, 2.74631358e-03,
          2.46183039e-03, 7.56587554e-03, -3.31073580e-03,
          5.63936681e-03, 2.29714182e-03, 5.38310548e-03, 7.38121197e-03,
          4.80130082e-03, 2.74658971e-03, 2.46156752e-03, 7.56522734e-03,
          -3.31074768e-03, 5.63882198e-03, 2.29714974e-03,
          5.38324285e-03, 7.38134375e-03, 4.80158068e-03, 3.53087066e-03,
          3.16528184e-03, 9.72800702e-03, -4.25664475e-03,
          7.24960491e-03, 2.95346370e-03, 6.92129554e-03, 9.49029624e-03,
          6.17300952e-03, 1.02226761e-04, 3.76826758e-03, 5.15702134e-03,
          2.02590157e-03, 3.95569950e-03, 2.17365846e-03, 2.25088652e-03,
          2.28273938e-03, 1.59629015e-03, 1.30744753e-04, 4.84506041e-03,
          6.63087610e-03, 2.60473019e-03, 5.08536212e-03, 2.79469532e-03,
          2.89392262e-03, 2.93471618e-03, 2.05164473e-03, 1.17229509e-04,
          4.84502641e-03, 6.63039088e-03, 2.60473602e-03, 5.08475443e-03,
          2.79467506e-03, 2.89371843e-03, 2.93487101e-03, 2.04000412e-03,
          1.49837491e-04, 6.22950634e-03, 8.52532778e-03, 3.34894541e-03,
          6.53685164e-03, 3.59314261e-03, 3.72039899e-03, 3.77310440e-03,
          2.62192683e-03, 3.09969322e-03, 2.14142096e-03, 1.78526645e-03,
          3.30199348e-03, 5.67698060e-03, 1.43250497e-03, 4.39018989e-03,
          7.84348580e-04, -7.63597374e-04, 3.98526527e-03,
          2.75320862e-03, 2.29540025e-03, 4.24530264e-03, 7.29878992e-03,
          1.84180588e-03, 5.64407324e-03, 1.00828661e-03,
          -9.81814694e-04, 3.98191810e-03, 2.75347987e-03,
          2.29503145e-03, 4.24541486e-03, 7.29874941e-03, 1.84178713e-03,
          5.64463111e-03, 1.00848649e-03, -9.85101797e-04,
          5.11953980e-03, 3.54012800e-03, 2.95082829e-03, 5.45823900e-03,
          9.38386749e-03, 2.36802944e-03, 7.25679565e-03, 1.29641814e-03,
          -1.26661989e-03, 1.23780733e-03, 6.97534438e-03,
          3.33030755e-03, 1.66838791e-03, 3.10393679e-03,
          -1.95372896e-03, 4.51321388e-03, -2.84189591e-03,
          -2.56609847e-03, 1.59161421e-03, 8.96919705e-03,
          4.28186590e-03, 2.14506895e-03, 3.98986647e-03,
          -2.51192669e-03, 5.80251496e-03, -3.65393399e-03,
          -3.29927308e-03, 1.59084855e-03, 8.96838866e-03,
          4.28246334e-03, 2.14579096e-03, 3.99035309e-03,
          -2.51193857e-03, 5.80271333e-03, -3.65387416e-03,
          -3.29994410e-03, 2.04556645e-03, 1.15319388e-02,
          5.50607732e-03, 2.75887246e-03, 5.12928423e-03,
          -3.22962180e-03, 7.46038882e-03, -4.69792495e-03,
          -4.24278993e-03, 5.22472546e-04, 4.79127793e-03,
          8.55571649e-04, 1.53117871e-03, 1.88415637e-03, 1.86994299e-03,
          1.97824952e-03, 3.64387466e-04, -1.84022146e-03,
          6.71832997e-04, 6.16014469e-03, 1.09987578e-03, 1.96865760e-03,
          2.42269924e-03, 2.40421621e-03, 2.54304521e-03, 4.68340295e-04,
          -2.36590486e-03, 6.71782414e-04, 6.16085483e-03,
          1.09988451e-03, 1.96858286e-03, 2.42234860e-03, 2.40420224e-03,
          2.54275301e-03, 4.68306476e-04, -2.36617937e-03,
          8.63825553e-04, 7.92100839e-03, 1.41395046e-03, 2.53103394e-03,
          3.11472150e-03, 3.09112226e-03, 3.26871569e-03, 6.01904467e-04,
          -3.04210954e-03, 3.56306229e-03, 5.33631677e-03,
          4.62897774e-03, 1.93760463e-03, 2.73091649e-03, 2.40733847e-03,
          -2.22359340e-05, -2.55419756e-03, 1.22548445e-04,
          4.58111381e-03, 6.86096027e-03, 5.95153356e-03, 2.49120500e-03,
          3.51197761e-03, 3.09496745e-03, -2.85959286e-05,
          -3.28390463e-03, 1.57615112e-04, 4.57453728e-03,
          6.86080242e-03, 5.95153263e-03, 2.49117729e-03, 3.51111242e-03,
          3.09513067e-03, -2.81977009e-05, -3.28384340e-03,
          1.52504246e-04, 5.88159170e-03, 8.82100873e-03, 7.65195722e-03,
          3.20294104e-03, 4.51531494e-03, 3.97922052e-03,
          -3.62627834e-05, -4.22200141e-03, 1.96144785e-04,
          2.92625953e-03, 6.76677504e-04, 4.74005891e-03, 1.53143163e-04,
          4.99721104e-03, 4.60674660e-03, 2.09707141e-04,
          -1.25074841e-03, 1.36415020e-03, 3.76230339e-03,
          8.70009302e-04, 6.09434303e-03, 1.96906316e-04, 6.42634602e-03,
          5.92293730e-03, 2.69625714e-04, -1.60748116e-03,
          1.75430509e-03, 3.75758065e-03, 8.69917567e-04, 6.09457400e-03,
          1.96901281e-04, 6.42390642e-03, 5.92239713e-03, 2.69607932e-04,
          -1.60814903e-03, 1.74982694e-03, 4.83113481e-03,
          1.11845974e-03, 7.83585664e-03, 2.53168866e-04, 8.26105755e-03,
          7.61448266e-03, 3.46642570e-04, -2.06681713e-03,
          2.25028838e-03, 2.00123060e-03, 2.85779056e-03, 5.21062035e-03,
          -4.92481806e-04, 3.47229699e-03, 1.30806153e-03,
          -4.21491946e-04, 3.61795397e-03, -4.51272354e-04,
          2.57280539e-03, 3.67410132e-03, 6.69878768e-03,
          -6.33193820e-04, 4.46529547e-03, 1.68196182e-03,
          -5.41718618e-04, 4.65167174e-03, -5.80411521e-04,
          2.57301214e-03, 3.67440749e-03, 6.69929245e-03,
          -6.33187068e-04, 4.46459604e-03, 1.68179185e-03,
          -5.41986607e-04, 4.65057697e-03, -5.80430962e-04,
          3.30789411e-03, 4.72398056e-03, 8.61262809e-03,
          -8.14101484e-04, 5.74136991e-03, 2.16251961e-03,
          -6.96584000e-04, 5.97933447e-03, -7.46531005e-04,
          4.11970308e-03, 2.20595015e-04, 5.75514184e-03, 1.25388440e-03,
          -3.95539711e-04, 1.71638280e-03, -2.36974633e-03,
          1.31184340e-03, 4.31036949e-03, 5.29679283e-03, 2.83359812e-04,
          7.39942258e-03, 1.61214592e-03, -5.09041420e-04,
          2.20687105e-03, -3.04619595e-03, 1.68711063e-03,
          5.54202637e-03, 5.29583823e-03, 2.83731642e-04, 7.39973271e-03,
          1.61215418e-03, -5.09885431e-04, 2.20641913e-03,
          -3.04650818e-03, 1.68667512e-03, 5.54145686e-03,
          6.80897618e-03, 3.64461186e-04, 9.51388292e-03, 2.07278086e-03,
          -6.56197546e-04, 2.83694454e-03, -3.91614251e-03,
          2.16916669e-03, 7.12488918e-03, 4.31410363e-03,
          -1.46842096e-04, 4.23048763e-03, 9.90128494e-04,
          4.17752797e-03, 3.11914110e-03, 5.51572070e-03, 1.00773969e-03,
          3.81647516e-03, 5.54678822e-03, -1.88227772e-04,
          5.43934247e-03, 1.27300969e-03, 5.37124230e-03, 4.01063263e-03,
          7.09210522e-03, 1.29567541e-03, 4.90681268e-03, 5.54524548e-03,
          -1.88981314e-04, 5.43903047e-03, 1.27319444e-03,
          5.37099829e-03, 4.00988339e-03, 7.09112221e-03, 1.29566214e-03,
          4.90546133e-03, 7.12970737e-03, -2.42243419e-04,
          6.99322391e-03, 1.63694855e-03, 6.90574292e-03, 5.15596056e-03,
          9.11775418e-03, 1.66586367e-03, 6.30691415e-03, 3.76381818e-03,
          8.89630246e-05, 2.31619854e-03, 1.59350934e-03, 6.56397780e-03,
          -3.70183378e-03, 2.41539837e-03, 7.24573247e-03,
          5.93692670e-03, 4.83884057e-03, 1.14271243e-04, 2.97796796e-03,
          2.04888755e-03, 8.43967963e-03, -4.75947093e-03,
          3.10536753e-03, 9.31592286e-03, 7.63288001e-03, 4.84015374e-03,
          1.14588496e-04, 2.97800475e-03, 2.04878859e-03, 8.43854807e-03,
          -4.75947978e-03, 3.10573028e-03, 9.31602903e-03,
          7.63342809e-03, 6.22260012e-03, 1.47186438e-04, 3.82886082e-03,
          2.63427221e-03, 1.08499220e-02, -6.11929409e-03,
          3.99289513e-03, 1.19777275e-02, 9.81400721e-03,
          -5.94119891e-04, 1.44765875e-03, 6.65326789e-03,
          7.56592955e-04, 2.18978524e-03, 1.55313988e-03, 8.41671973e-03,
          2.64165062e-03, 3.14432778e-03, -7.63734512e-04,
          1.86127005e-03, 8.55400786e-03, 9.72762355e-04, 2.81623844e-03,
          1.99686363e-03, 1.08219068e-02, 3.39649501e-03, 4.04278887e-03,
          -7.64120894e-04, 1.86120044e-03, 8.55414942e-03,
          9.72770678e-04, 2.81530642e-03, 1.99700100e-03, 1.08210016e-02,
          3.39553109e-03, 4.04235348e-03, -9.82269761e-04,
          2.39296537e-03, 1.09979417e-02, 1.25070522e-03, 3.62070859e-03,
          2.56753410e-03, 1.39132431e-02, 4.36579576e-03, 5.19741606e-03,
          1.37087086e-03, 6.11866766e-04, 3.21498886e-03, 4.57905408e-04,
          5.82783250e-03, -1.62990100e-03, 2.45458010e-04,
          6.92123605e-04, 5.31127723e-03, 1.76273368e-03, 7.86539284e-04,
          4.13307315e-03, 5.88718161e-04, 7.49454135e-03,
          -2.09626160e-03, 3.15100158e-04, 8.89831572e-04,
          6.82897586e-03, 1.76239060e-03, 7.86878867e-04, 4.13358258e-03,
          5.88733586e-04, 7.49171665e-03, -2.09557661e-03,
          3.16186022e-04, 8.90116615e-04, 6.82862895e-03, 2.26616859e-03,
          1.01151317e-03, 5.31398412e-03, 7.56920839e-04, 9.63428337e-03,
          -2.69518001e-03, 4.05897183e-04, 1.14438240e-03,
          8.77991132e-03, 3.32165393e-03, -1.18166290e-03,
          3.75900534e-03, 1.02010497e-03, 1.09404372e-03, 9.26587847e-04,
          5.75595768e-03, 5.54521615e-03, 5.27852448e-03, 4.27067792e-03,
          -1.51920039e-03, 4.83310921e-03, 1.31167565e-03,
          1.40676321e-03, 1.19131652e-03, 7.40000419e-03, 7.12940842e-03,
          6.78663841e-03, 4.27078037e-03, -1.51925639e-03,
          4.83307615e-03, 1.31162850e-03, 1.40722981e-03, 1.19133212e-03,
          7.40082562e-03, 7.12966872e-03, 6.78676320e-03, 5.49097825e-03,
          -1.95322675e-03, 6.21408550e-03, 1.68652355e-03,
          1.80947070e-03, 1.53169944e-03, 9.51468665e-03, 9.16651729e-03,
          8.72579217e-03, 4.15155338e-03, 4.43955138e-03, 6.60030358e-03,
          -1.42335822e-03, 2.62905913e-03, 1.91040372e-03,
          2.52243481e-03, 3.10473680e-03, 6.39699725e-03, 5.33759175e-03,
          5.70792705e-03, 8.48613214e-03, -1.83003303e-03,
          3.38119664e-03, 2.45625945e-03, 3.24301957e-03, 3.99173843e-03,
          8.22460465e-03, 5.33802528e-03, 5.70763135e-03, 8.48588534e-03,
          -1.83002744e-03, 3.38043272e-03, 2.45620683e-03,
          3.24279605e-03, 3.99176171e-03, 8.22685100e-03, 6.86302176e-03,
          7.33829616e-03, 1.09104589e-02, -2.35289405e-03,
          4.34752787e-03, 3.15801403e-03, 4.16916702e-03, 5.13218064e-03,
          1.05772447e-02, 4.82221786e-03, 2.44944752e-03, 4.60000196e-03,
          5.58319152e-04, 6.67383941e-03, 2.73166434e-03, 1.04497862e-03,
          3.42254061e-03, 5.06152306e-03, 6.19987864e-03, 3.14921979e-03,
          5.91407390e-03, 7.17841205e-04, 8.58082250e-03, 3.51211941e-03,
          1.34325377e-03, 4.40035108e-03, 6.50756713e-03, 6.19985396e-03,
          3.14921187e-03, 5.91403944e-03, 7.17838178e-04, 8.58101435e-03,
          3.51214013e-03, 1.34414062e-03, 4.40060999e-03, 6.50751637e-03,
          7.97109213e-03, 4.04889695e-03, 7.60348933e-03, 9.22937761e-04,
          1.10329539e-02, 4.51558223e-03, 1.72780710e-03, 5.65785263e-03,
          8.36667139e-03, 4.11178917e-03, 2.89399689e-03, 5.64094028e-03,
          1.57645904e-03, 8.58194381e-03, 1.01459876e-03, 2.65609194e-03,
          2.94039422e-03, 4.47566668e-03, 5.28648449e-03, 3.72108514e-03,
          7.25333486e-03, 2.02687643e-03, 1.10348184e-02, 1.30445987e-03,
          3.41469795e-03, 3.78040993e-03, 5.75433020e-03, 5.28659904e-03,
          3.72093241e-03, 7.25282449e-03, 2.02673394e-03, 1.10345539e-02,
          1.30448595e-03, 3.41559527e-03, 3.78079340e-03, 5.75446710e-03,
          6.79692533e-03, 4.78435447e-03, 9.32595599e-03, 2.60580168e-03,
          1.41884293e-02, 1.67716469e-03, 4.39112308e-03, 4.86089522e-03,
          7.39847450e-03, 9.24302544e-03, 2.30516423e-03, 5.97247947e-03,
          1.96906691e-03, 4.51528654e-03, 2.09709210e-03, 5.08275954e-03,
          4.17022407e-03, 9.92581155e-03, 1.18840197e-02, 2.96382350e-03,
          7.67902937e-03, 2.53176177e-03, 5.80699556e-03, 2.69629736e-03,
          6.53494196e-03, 5.36167901e-03, 1.27618890e-02, 1.18837338e-02,
          2.96400068e-03, 7.67902983e-03, 2.53156619e-03, 5.80485817e-03,
          2.69618700e-03, 6.53494382e-03, 5.36171766e-03, 1.27613535e-02,
          1.52792530e-02, 3.81091097e-03, 9.87320114e-03, 3.25500476e-03,
          7.46548129e-03, 3.46657261e-03, 8.40202533e-03, 6.89358870e-03,
          1.64076239e-02, 6.25130534e-03, 1.49571663e-03, 3.69918044e-03,
          -2.01859302e-03, 6.78405166e-03, 3.42833740e-03,
          7.08813686e-03, 4.41290671e-03, 7.49462796e-03, 8.03746469e-03,
          1.92303746e-03, 4.75436961e-03, -2.59761722e-03,
          8.72176141e-03, 4.40784823e-03, 9.11337882e-03, 5.67375263e-03,
          9.63602401e-03, 8.03753547e-03, 1.92322663e-03, 4.75657266e-03,
          -2.59534060e-03, 8.72019678e-03, 4.40778071e-03,
          9.11329780e-03, 5.67373727e-03, 9.63609666e-03, 1.03340680e-02,
          2.47268612e-03, 6.11338206e-03, -3.33980238e-03,
          1.12109222e-02, 5.66712813e-03, 1.17171742e-02, 7.29482481e-03,
          1.23893619e-02, 5.58990194e-03, 1.01050304e-03, 2.02695560e-03,
          -1.23229565e-03, 3.35493893e-03, 4.36512474e-03,
          6.16547046e-03, 3.59033258e-03, 6.53871335e-03, 7.18683144e-03,
          1.29900163e-03, 2.60740914e-03, -1.58375723e-03,
          4.31217253e-03, 5.61228860e-03, 7.92712998e-03, 4.61618509e-03,
          8.40676576e-03, 7.18705868e-03, 1.29900326e-03, 2.60662218e-03,
          -1.58394163e-03, 4.31311270e-03, 5.61232120e-03,
          7.92666990e-03, 4.61600907e-03, 8.40694737e-03, 9.24026594e-03,
          1.66986894e-03, 3.35307163e-03, -2.03569559e-03,
          5.54373255e-03, 7.21582258e-03, 1.01915561e-02, 5.93492435e-03,
          1.08087379e-02, 3.35416710e-03, -6.39132864e-04,
          -1.07353751e-03, 2.62845703e-03, 9.12932400e-03,
          1.39697501e-03, 2.60640611e-03, 2.87148403e-03, 4.42896457e-03,
          4.31258371e-03, -8.21723253e-04, -1.38020201e-03,
          3.37948790e-03, 1.17364125e-02, 1.79604371e-03, 3.35128396e-03,
          3.69194872e-03, 5.69446245e-03, 4.31023585e-03,
          -8.21718830e-04, -1.38014974e-03, 3.37956613e-03,
          1.17376801e-02, 1.79611857e-03, 3.35096265e-03, 3.69186536e-03,
          5.69212716e-03, 5.54183917e-03, -1.05647161e-03,
          -1.77440129e-03, 4.34521167e-03, 1.50896451e-02,
          2.30920920e-03, 4.30862559e-03, 4.74673649e-03, 7.31855119e-03,
          2.56369472e-03, 4.37868206e-04, 6.43971725e-04,
          -1.37826556e-03, 2.45334278e-03, 3.24283121e-03,
          4.05444950e-03, 4.08268301e-03, 5.13878465e-03, 3.29591311e-03,
          5.62963483e-04, 8.27879529e-04, -1.77213096e-03,
          3.15506989e-03, 4.16946411e-03, 5.21315169e-03, 5.24925161e-03,
          6.60673296e-03, 3.29602463e-03, 5.62954519e-04, 8.27914628e-04,
          -1.77197566e-03, 3.15494253e-03, 4.16934071e-03,
          5.21263620e-03, 5.24938107e-03, 6.60687499e-03, 4.23740409e-03,
          7.23785895e-04, 1.06435304e-03, -2.27835099e-03,
          4.05734777e-03, 5.36072161e-03, 6.70233089e-03, 6.74931752e-03,
          8.49419832e-03, 3.28713050e-03, 5.88253746e-03, 4.28208336e-03,
          1.50523032e-03, 3.72716389e-03, -3.25015018e-04,
          -1.49972780e-04, -2.33201613e-03, -7.09324726e-04,
          4.22595488e-03, 7.56370369e-03, 5.50507242e-03, 1.93527865e-03,
          4.79185814e-03, -4.18244133e-04, -1.93158499e-04,
          -2.99750757e-03, -9.12448624e-04, 4.21985611e-03,
          7.56369904e-03, 5.50511805e-03, 1.93529285e-03, 4.79187863e-03,
          -4.17598436e-04, -1.92244726e-04, -2.99856882e-03,
          -9.14821110e-04, 5.42507181e-03, 9.72532295e-03,
          7.07741315e-03, 2.48821103e-03, 6.16071746e-03,
          -5.37385524e-04, -2.47604446e-04, -3.85427522e-03,
          -1.17678952e-03, 4.47337516e-03, 6.01852592e-03,
          3.68584367e-03, -2.07426329e-03, 3.73029453e-03,
          2.93184863e-03, -2.97075865e-04, 1.50978129e-04,
          3.97432857e-04, 5.75144775e-03, 7.73816463e-03, 4.73915879e-03,
          -2.66689737e-03, 4.79669217e-03, 3.76942335e-03,
          -3.82209662e-04, 1.94025502e-04, 5.10949641e-04,
          5.74840186e-03, 7.73856742e-03, 4.74033877e-03,
          -2.66690855e-03, 4.79584420e-03, 3.76810250e-03,
          -3.81885795e-04, 1.94229811e-04, 5.06129931e-04,
          7.39075756e-03, 9.94966365e-03, 6.09500101e-03,
          -3.42886685e-03, 6.16685534e-03, 4.84457891e-03,
          -4.91323706e-04, 2.49608769e-04, 6.50692498e-04,
          4.27955762e-03, 5.89374732e-03, 7.39154115e-04,
          -1.17423409e-03, 1.01304264e-03, 5.36353095e-04,
          1.04400818e-03, -1.45160337e-03, 1.02171407e-03,
          5.50213922e-03, 7.57762743e-03, 9.49438603e-04,
          -1.50985981e-03, 1.29679102e-03, 6.88622706e-04,
          1.34197867e-03, -1.86644972e-03, 1.31347554e-03,
          5.50046423e-03, 7.57656526e-03, 9.49869864e-04,
          -1.50972418e-03, 1.30216323e-03, 6.89589127e-04,
          1.34227378e-03, -1.86629267e-03, 1.30922219e-03,
          7.07183359e-03, 9.74123739e-03, 1.22009974e-03,
          -1.94124167e-03, 1.66689116e-03, 8.85362620e-04,
          1.72537251e-03, -2.39965180e-03, 1.68308394e-03,
          5.06157149e-03, 5.47449058e-03, -1.33899739e-03,
          1.86576974e-04, 2.13954318e-03, -1.60888874e-03,
          -1.46607251e-03, 1.63313831e-04, 5.30814286e-03,
          6.50775153e-03, 7.03870319e-03, -1.72155513e-03,
          2.39890564e-04, 2.75122351e-03, -2.06857291e-03,
          -1.88495847e-03, 2.09956517e-04, 6.82480307e-03,
          6.50787633e-03, 7.03861378e-03, -1.72143220e-03,
          2.39906629e-04, 2.75085797e-03, -2.06856267e-03,
          -1.88494730e-03, 2.09975406e-04, 6.82497630e-03,
          8.36729258e-03, 9.04973969e-03, -2.21325201e-03,
          3.08458752e-04, 3.53730796e-03, -2.65958230e-03,
          -2.42351322e-03, 2.69945536e-04, 8.77503119e-03,
          4.40661737e-04, -2.64033838e-03, 3.56013724e-03,
          2.93585612e-03, 5.20960009e-03, 1.72716472e-03, 9.21152357e-04,
          -6.79488934e-04, 1.68148754e-03, 5.66517992e-04,
          -3.39475181e-03, 4.57732985e-03, 3.77462455e-03,
          6.69809245e-03, 2.22065300e-03, 1.18439808e-03,
          -8.73631157e-04, 2.16190354e-03, 5.65864786e-04,
          -3.39476182e-03, 4.57729725e-03, 3.77466087e-03,
          6.69790246e-03, 2.22063810e-03, 1.18443486e-03,
          -8.73717596e-04, 2.16118945e-03, 7.27480045e-04,
          -4.36473358e-03, 5.88510977e-03, 4.85307444e-03,
          8.61163344e-03, 2.85512232e-03, 1.52292056e-03,
          -1.12335512e-03, 2.77866051e-03, -1.26125093e-03,
          -1.81314570e-03, 2.68198899e-03, 2.43841833e-03,
          5.44820772e-03, 3.31939268e-03, -5.45856124e-03,
          -2.28875945e-03, 4.51306906e-03, -1.62018649e-03,
          -2.33119400e-03, 3.44779086e-03, 3.13494075e-03,
          7.00779026e-03, 4.26816475e-03, -7.01813772e-03,
          -2.94269924e-03, 5.80209726e-03, -1.62169919e-03,
          -2.33095814e-03, 3.44808353e-03, 3.13512329e-03,
          7.00526033e-03, 4.26784903e-03, -7.01845298e-03,
          -2.94384104e-03, 5.80169074e-03, -2.08321400e-03,
          -2.99695577e-03, 4.43263212e-03, 4.03065514e-03,
          9.01055895e-03, 5.48771489e-03, -9.02370922e-03,
          -3.78494803e-03, 7.45877717e-03, -2.11291318e-03,
          -9.55571537e-04, -5.14916261e-04, 3.95680685e-03,
          5.51272370e-03, 4.15789243e-03, 5.22312056e-03,
          -9.88751883e-04, -3.97938164e-03, -2.71676434e-03,
          -1.23000494e-03, -6.62082573e-04, 5.08727925e-03,
          7.08772941e-03, 5.34618227e-03, 6.71544718e-03,
          -1.27012853e-03, -5.11502661e-03, -2.72097602e-03,
          -1.22879329e-03, -6.62188511e-04, 5.08731650e-03,
          7.08717527e-03, 5.34585025e-03, 6.71539269e-03,
          -1.27107685e-03, -5.12447301e-03, -3.49860475e-03,
          -1.58169412e-03, -8.51446297e-04, 6.54077856e-03,
          9.11200792e-03, 6.87364722e-03, 8.63408484e-03,
          -1.63279683e-03, -6.58690929e-03, 7.23620818e-04,
          1.29723514e-03, -3.16255057e-04, -5.44602808e-04,
          2.66559375e-03, 8.76303122e-04, 9.50663583e-04, 4.73350781e-04,
          5.54337632e-04, 9.30343755e-04, 1.66787172e-03,
          -4.06813109e-04, -7.00256380e-04, 3.42718582e-03,
          1.12667924e-03, 1.22240046e-03, 6.08611852e-04, 7.12676905e-04,
          9.26926034e-04, 1.66799861e-03, -4.06513311e-04,
          -7.00383447e-04, 3.42751108e-03, 1.12667878e-03,
          1.22222782e-03, 6.08605042e-04, 7.09000858e-04, 1.19172875e-03,
          2.14456627e-03, -5.22916787e-04, -9.00561048e-04,
          4.40679211e-03, 1.44859159e-03, 1.57158903e-03, 7.82514981e-04,
          9.11517709e-04, 1.43753644e-03, 5.94465714e-03, 9.64843086e-04,
          -1.64925135e-04, 6.31355331e-04, 1.08824472e-03,
          -1.36113144e-04, 2.48781452e-03, -1.41204114e-03,
          1.84819358e-03, 7.64315575e-03, 1.24060176e-03,
          -2.12017316e-04, 8.12328246e-04, 1.39916583e-03,
          -1.75272377e-04, 3.19845392e-03, -1.81553687e-03,
          1.84510939e-03, 7.64303934e-03, 1.24042714e-03,
          -2.12039668e-04, 8.11727310e-04, 1.39916490e-03,
          -1.75167574e-04, 3.19859828e-03, -1.81841094e-03,
          2.37219501e-03, 9.82679706e-03, 1.59494870e-03,
          -2.72584381e-04, 1.04440178e-03, 1.79891917e-03,
          -2.25562515e-04, 4.11227159e-03, -2.33802898e-03,
          3.18031479e-03, -1.40198367e-03, 3.40135768e-04,
          1.28009485e-03, -2.07662769e-03, 3.02639091e-03,
          2.47716694e-03, 2.56750267e-04, 4.42493241e-03, 4.08887025e-03,
          -1.80261268e-03, 4.37128852e-04, 1.64583034e-03,
          -2.67022685e-03, 3.89085989e-03, 3.18498421e-03,
          3.30118171e-04, 5.68911480e-03, 4.08866024e-03,
          -1.80235493e-03, 4.37537528e-04, 1.64584978e-03,
          -2.67038587e-03, 3.89106758e-03, 3.18489363e-03,
          3.30094190e-04, 5.68838278e-03, 5.25671290e-03,
          -2.31739390e-03, 5.62305213e-04, 2.11608503e-03,
          -3.43370927e-03, 5.00252517e-03, 4.09493502e-03,
          4.24420548e-04, 7.31352763e-03, 6.90591105e-06,
          -2.52004783e-03, 2.05091829e-03, 2.44120904e-03,
          6.29841583e-03, 4.85037803e-04, 2.86535849e-03, 4.82676225e-03,
          -1.35445327e-03, 9.26030680e-06, -3.24014318e-03,
          2.63663614e-03, 3.13873705e-03, 8.09798297e-03, 6.23649452e-04,
          3.68435262e-03, 6.20595459e-03, -1.74105051e-03,
          1.11294785e-05, -3.23989941e-03, 2.63672089e-03,
          3.13874288e-03, 8.09768587e-03, 6.23629603e-04, 3.68423504e-03,
          6.20446866e-03, -1.74195284e-03, 1.47995588e-05,
          -4.16569039e-03, 3.38973617e-03, 4.03557811e-03,
          1.04113379e-02, 8.01847025e-04, 4.73728497e-03, 7.97732454e-03,
          -2.23915302e-03, -1.72472428e-04, 1.23818091e-03,
          1.59053516e-03, 1.45072490e-03, 3.95911513e-03, 1.86178880e-03,
          5.35782101e-03, 4.54190653e-03, 1.93216454e-03,
          -2.21514405e-04, 1.59195194e-03, 2.04506563e-03,
          1.86521711e-03, 5.09514287e-03, 2.39630765e-03, 6.88860938e-03,
          5.83973387e-03, 2.48446572e-03, -2.23874245e-04,
          1.59199664e-03, 2.04512570e-03, 1.86521886e-03, 5.09018218e-03,
          2.39373534e-03, 6.88802823e-03, 5.83938649e-03, 2.48212717e-03,
          -2.87535368e-04, 2.04685936e-03, 2.62956531e-03,
          2.39813724e-03, 6.55075861e-03, 3.08097573e-03, 8.85601249e-03,
          7.50796264e-03, 3.19163362e-03, -2.70168157e-03,
          -3.48020834e-03, 2.12304574e-03, 8.26089876e-04,
          4.00954485e-03, 5.57385501e-04, 6.60982961e-03, 4.23964951e-03,
          9.01217863e-04, -3.47460853e-03, -4.47493000e-03,
          2.72962661e-03, 1.06211344e-03, 5.15497942e-03, 7.16681534e-04,
          8.49778019e-03, 5.45222592e-03, 1.15773606e-03,
          -3.47777270e-03, -4.47460171e-03, 2.72939331e-03,
          1.06212369e-03, 5.15457802e-03, 7.15926464e-04, 8.49758554e-03,
          5.45141334e-03, 1.15652068e-03, -4.47273115e-03,
          -5.75354323e-03, 3.50921531e-03, 1.36558502e-03,
          6.62712241e-03, 9.20532562e-04, 1.09247323e-02, 7.01056421e-03,
          1.48570433e-03, 7.94208376e-04, 2.03123712e-03, 3.88248428e-03,
          -3.78318247e-03, 3.55169503e-03, 2.89953372e-04,
          8.94906092e-03, 1.74467382e-03, 1.67587728e-04, 1.02194957e-03,
          2.61163828e-03, 4.99190809e-03, -4.86406730e-03,
          4.56622662e-03, 3.72797484e-04, 1.15060164e-02, 2.24312395e-03,
          2.16288405e-04, 1.02107122e-03, 2.61158845e-03, 4.99174045e-03,
          -4.86408034e-03, 4.56639938e-03, 3.72797775e-04,
          1.15059232e-02, 2.24110228e-03, 2.14002503e-04, 1.31386588e-03,
          3.35781788e-03, 6.41813362e-03, -6.25378545e-03,
          5.87077904e-03, 4.79311566e-04, 1.47934351e-02, 2.88138213e-03,
          2.76198494e-04, 1.37019041e-03, 3.15920496e-03, 4.64888103e-03,
          1.60514319e-03, 8.07263609e-03, -1.55442176e-04,
          2.98050372e-03, 4.66381619e-03, 1.86038809e-03, 1.76118559e-03,
          4.06168168e-03, 5.97667182e-03, 2.06377311e-03, 1.03786001e-02,
          -1.99932096e-04, 3.83251393e-03, 5.99670969e-03,
          2.39147223e-03, 1.76141132e-03, 4.06171195e-03, 5.97671978e-03,
          2.06369115e-03, 1.03781484e-02, -1.99251182e-04,
          3.83222639e-03, 5.99587290e-03, 2.39167851e-03, 2.26404401e-03,
          5.22200391e-03, 7.68376188e-03, 2.65333964e-03, 1.33426869e-02,
          -2.56280095e-04, 4.92770970e-03, 7.70946080e-03,
          3.07443039e-03, 2.89611262e-03, 2.59184814e-03, 4.20166133e-03,
          1.04049174e-03, 3.87946004e-03, 2.90675065e-03, 2.25944165e-03,
          1.59742159e-03, 6.28442620e-04, 3.72373173e-03, 3.33268056e-03,
          5.40302787e-03, 1.33777538e-03, 4.98969480e-03, 3.73734278e-03,
          2.90488545e-03, 2.05378910e-03, 8.08152021e-04, 3.72381532e-03,
          3.33255040e-03, 5.40223578e-03, 1.33763207e-03, 4.98828152e-03,
          3.73726198e-03, 2.90457625e-03, 2.05383007e-03, 8.08171171e-04,
          4.78796521e-03, 4.28509945e-03, 6.94687711e-03, 1.71981310e-03,
          6.41584164e-03, 4.80516907e-03, 3.73431272e-03, 2.64058891e-03,
          1.03927567e-03, 6.71154540e-03, 1.46870571e-03, 1.90745667e-03,
          2.73106131e-03, 1.01203145e-02, 4.53839777e-04, 7.87001278e-04,
          2.95964465e-03, 5.83809242e-03, 8.62915348e-03, 1.88845140e-03,
          2.45245034e-03, 3.51133570e-03, 1.30128283e-02, 5.83840010e-04,
          1.01382309e-03, 3.80538148e-03, 7.50612514e-03, 8.62947851e-03,
          1.88822963e-03, 2.45211157e-03, 3.51136085e-03, 1.30122043e-02,
          5.83513989e-04, 1.00954808e-03, 3.80447321e-03, 7.50612188e-03,
          1.10950749e-02, 2.42787227e-03, 3.15272296e-03, 4.51456942e-03,
          1.67312548e-02, 7.50658452e-04, 1.30051549e-03, 4.89162514e-03,
          9.65073705e-03, 5.75784780e-03, 1.08850398e-03, 2.80021853e-03,
          3.00971814e-03, 6.36108499e-03, 2.33895332e-03, 5.06855315e-03,
          2.09847279e-03, 7.04158004e-03, 7.40317674e-03, 1.39969646e-03,
          3.60091962e-03, 3.86974285e-03, 8.17920733e-03, 3.00814910e-03,
          6.51665963e-03, 2.69800890e-03, 9.05371923e-03, 7.40286103e-03,
          1.39985804e-03, 3.60128144e-03, 3.86963645e-03, 8.17805063e-03,
          3.00723081e-03, 6.51665730e-03, 2.69800052e-03, 9.05315112e-03,
          9.51826014e-03, 1.80006330e-03, 4.63104015e-03, 4.97538224e-03,
          1.05154980e-02, 3.86762689e-03, 8.37849174e-03, 3.46882339e-03,
          1.16400989e-02, 5.80251776e-03, 3.45765473e-03, 3.41835432e-03,
          -8.12529062e-04, 3.88972252e-03, 2.44784984e-03,
          2.65194592e-03, 2.55740434e-03, 5.57066966e-03, 7.46012479e-03,
          4.44548391e-03, 4.39478038e-03, -1.04469154e-03,
          5.00039523e-03, 3.14717717e-03, 3.40968254e-03, 3.28812981e-03,
          7.16206199e-03, 7.46057602e-03, 4.44541033e-03, 4.39478364e-03,
          -1.04468991e-03, 5.00089163e-03, 3.14723863e-03,
          3.40956706e-03, 3.28812306e-03, 7.16253836e-03, 9.59184114e-03,
          5.71543584e-03, 5.65011799e-03, -1.34318904e-03,
          6.42884802e-03, 4.04637493e-03, 4.38377727e-03, 4.22763638e-03,
          9.20868572e-03, 3.83137213e-03, -2.49809527e-04,
          1.29851652e-03, 1.86033722e-03, 4.93530463e-03, 1.56532752e-03,
          2.11898889e-03, 2.01365678e-03, 5.16981399e-03, 4.92599048e-03,
          -3.21374799e-04, 1.66939397e-03, 2.39187805e-03,
          6.34540711e-03, 2.01254757e-03, 2.72469176e-03, 2.58901645e-03,
          6.64700940e-03, 4.92613204e-03, -3.21278698e-04,
          1.66938256e-03, 2.39192066e-03, 6.34490140e-03, 2.01245211e-03,
          2.72428594e-03, 2.58879503e-03, 6.64698333e-03, 6.33352250e-03,
          -4.13319271e-04, 2.14618468e-03, 3.07534705e-03,
          8.15774966e-03, 2.58741691e-03, 3.50301014e-03, 3.32848821e-03,
          8.54625832e-03, 2.34202226e-03, 3.12791439e-03, 2.06945115e-03,
          -1.14908718e-04, 6.29325071e-03, 1.98357506e-03,
          2.35177460e-03, -2.66068650e-06, 4.21646284e-03,
          3.01083666e-03, 4.02159849e-03, 2.66051013e-03,
          -1.48545761e-04, 8.08992609e-03, 2.55021034e-03,
          3.02388333e-03, -3.36919470e-06, 5.42081706e-03,
          3.01093492e-03, 4.02134005e-03, 2.66014179e-03,
          -1.47839761e-04, 8.09189118e-03, 2.55030184e-03,
          3.02398833e-03, -2.94470101e-06, 5.42102708e-03,
          3.87077173e-03, 5.17028710e-03, 3.41990869e-03,
          -1.91115891e-04, 1.04020657e-02, 3.27883009e-03,
          3.88820725e-03, -3.71969941e-06, 6.96944306e-03,
          3.38926143e-03, 2.13672523e-03, 2.22283625e-03, 2.21062615e-03,
          4.59140446e-03, -2.62745796e-03, 2.91087339e-03,
          3.92422313e-03, 3.53362970e-03, 4.35748138e-03, 2.74723046e-03,
          2.85789184e-03, 2.84050149e-03, 5.90720819e-03,
          -3.37857311e-03, 3.74275958e-03, 5.04551362e-03,
          4.54310607e-03, 4.35792515e-03, 2.74711568e-03, 2.85759615e-03,
          2.84222909e-03, 5.90289710e-03, -3.37817147e-03,
          3.74278799e-03, 5.04551595e-03, 4.54343995e-03, 5.60286548e-03,
          3.53202200e-03, 3.67400050e-03, 3.65206716e-03, 7.59454910e-03,
          -4.34389384e-03, 4.81242361e-03, 6.48720004e-03,
          5.84139535e-03, 8.44058639e-04, 1.83493912e-03, 2.16956320e-03,
          4.51440318e-03, 1.52987824e-03, -2.09536753e-04,
          2.21347436e-03, 8.72830104e-04, 6.35095872e-04, 1.08479941e-03,
          2.35916930e-03, 2.78933789e-03, 5.80425002e-03, 1.95679604e-03,
          -2.69411190e-04, 2.84533645e-03, 1.12200854e-03,
          8.16167681e-04, 1.08524878e-03, 2.35927943e-03, 2.78961170e-03,
          5.80423186e-03, 1.96760753e-03, -2.69536889e-04,
          2.84640654e-03, 1.12231157e-03, 8.16473854e-04, 1.39478175e-03,
          3.03331111e-03, 3.58651462e-03, 7.46260723e-03, 2.51667877e-03,
          -3.46556713e-04, 3.65894660e-03, 1.44271273e-03,
          1.04925805e-03, -2.40712333e-03, 3.40306456e-03,
          5.93220582e-03, 8.16751912e-04, -3.60452826e-03,
          4.09573596e-03, 2.23214994e-03, -2.32235319e-03,
          -5.54234139e-04, -3.09485849e-03, 4.37526638e-03,
          7.62687111e-03, 1.05007982e-03, -4.63373307e-03,
          5.26595581e-03, 2.86989403e-03, -2.98588211e-03,
          -7.12595647e-04, -3.09514068e-03, 4.37437929e-03,
          7.62688695e-03, 1.05009833e-03, -4.63392865e-03,
          5.26596233e-03, 2.86990637e-03, -2.98588979e-03,
          -7.12587673e-04, -3.97944823e-03, 5.62407030e-03,
          9.80567560e-03, 1.35008851e-03, -5.95706049e-03,
          6.77053444e-03, 3.68986302e-03, -3.83899990e-03,
          -9.16196383e-04, -3.62174911e-03, -3.52561940e-03,
          3.07321153e-03, 3.50932381e-03, 4.49331291e-03, 2.02714303e-03,
          8.02921364e-04, 8.63500347e-04, -8.65619688e-04,
          -4.65707248e-03, -4.53170808e-03, 3.95150343e-03,
          4.51199245e-03, 5.76998852e-03, 2.60633021e-03, 1.03232241e-03,
          1.11021078e-03, -1.11365342e-03, -4.65682382e-03,
          -4.53256024e-03, 3.95173021e-03, 4.51156497e-03,
          5.77716716e-03, 2.60631368e-03, 1.03231834e-03, 1.11018878e-03,
          -1.11287669e-03, -5.98803628e-03, -5.82599500e-03,
          5.08109387e-03, 5.80058945e-03, 7.41862133e-03, 3.35097872e-03,
          1.32725958e-03, 1.42738095e-03, -1.43175921e-03,
          1.98460999e-03, 2.82529014e-04, -1.25570601e-04,
          2.44982378e-03, 1.75929978e-03, 2.56044441e-03, 3.83546809e-03,
          -5.10929676e-04, -3.27360979e-03, 2.55165854e-03,
          3.63295054e-04, -1.61426913e-04, 3.14978114e-03,
          2.26098020e-03, 3.29266256e-03, 4.93163057e-03,
          -6.56920951e-04, -4.20891168e-03, 2.55118567e-03,
          3.63285886e-04, -1.61433549e-04, 3.14979535e-03,
          2.26199091e-03, 3.29198851e-03, 4.93179029e-03,
          -6.56759483e-04, -4.20940248e-03, 3.28011694e-03,
          4.67137899e-04, -2.07530480e-04, 4.04974632e-03,
          2.90701841e-03, 4.23340779e-03, 6.34127809e-03,
          -8.44420225e-04, -5.41206868e-03, 3.38522717e-03,
          2.19588471e-03, 2.22639390e-03, -2.30366015e-03,
          3.83371394e-03, 2.23488873e-03, 5.83643210e-04,
          -1.97421666e-03, -3.60559276e-03, 4.35241405e-03,
          2.82327225e-03, 2.86249979e-03, -2.96200905e-03,
          4.93210461e-03, 2.87349033e-03, 7.50295818e-04,
          -2.53825937e-03, -4.63573402e-03, 4.35263105e-03,
          2.82310578e-03, 2.86245416e-03, -2.96184071e-03,
          4.92898887e-03, 2.87347753e-03, 7.50448322e-04,
          -2.53871595e-03, -4.63563949e-03, 5.59621258e-03,
          3.62969725e-03, 3.68028879e-03, -3.80828674e-03,
          6.34118496e-03, 3.69455083e-03, 9.64730280e-04,
          -3.26403859e-03, -5.96007193e-03, -1.61029806e-03,
          -3.53015750e-03, 3.45788151e-03, 3.16211022e-03,
          2.64493842e-03, 2.32418813e-03, 1.56849320e-03,
          -1.77823263e-03, -5.56742365e-04, -2.07046489e-03,
          -4.53908881e-03, 4.44584480e-03, 4.06558299e-03,
          3.40061868e-03, 2.98825279e-03, 2.01660790e-03,
          -2.28626793e-03, -7.15800386e-04, -2.07287376e-03,
          -4.53881826e-03, 4.44563245e-03, 4.06558905e-03,
          3.40080168e-03, 2.98823067e-03, 2.01666052e-03,
          -2.28628376e-03, -7.16616749e-04, -2.66522821e-03,
          -5.83602767e-03, 5.71580883e-03, 5.22720069e-03,
          4.37243842e-03, 3.84202483e-03, 2.59281532e-03,
          -2.93946778e-03, -9.21349914e-04, -1.54402037e-03,
          1.84639823e-03, -9.81164048e-05, -1.46221044e-03,
          5.19458018e-03, 2.92411511e-04, -1.22805208e-03,
          1.51813973e-03, -1.83242327e-03, -1.98513782e-03,
          2.37386371e-03, -1.26319559e-04, -1.88006111e-03,
          6.67834748e-03, 3.76314914e-04, -1.57874706e-03,
          1.95187971e-03, -2.35589081e-03, -1.98534806e-03,
          2.37393426e-03, -1.25809529e-04, -1.88010139e-03,
          6.67870976e-03, 3.75977339e-04, -1.57889118e-03,
          1.95193291e-03, -2.35618628e-03, -2.55255005e-03,
          3.05210194e-03, -1.61973730e-04, -2.41737138e-03,
          8.58640019e-03, 4.83858661e-04, -2.02977471e-03,
          2.50961026e-03, -3.02927825e-03, -6.55372255e-03,
          2.23711762e-03, -3.45822168e-03, 6.99369295e-04,
          5.62606729e-04, 1.78768067e-03, 4.64788778e-03, 1.78328296e-03,
          -9.46182234e-04, -8.42614844e-03, 2.87622702e-03,
          -4.44652326e-03, 8.99177277e-04, 7.23668549e-04,
          2.29796278e-03, 5.97635796e-03, 2.29293993e-03,
          -1.21645688e-03, -8.42593797e-03, 2.87625589e-03,
          -4.44645807e-03, 8.99192935e-04, 7.23478384e-04,
          2.29827687e-03, 5.97586390e-03, 2.29262304e-03,
          -1.21631438e-03, -1.08332643e-02, 3.69795715e-03,
          -5.71718160e-03, 1.15608959e-03, 9.30593815e-04,
          2.95430631e-03, 7.68389972e-03, 2.94784876e-03,
          -1.56375149e-03, -3.23139783e-03, -1.34865951e-03,
          -2.65020737e-03, 2.27573165e-03, 2.31897342e-03,
          2.12728442e-03, -7.20819167e-04, 2.57929997e-03,
          -2.84824811e-04, -4.15463373e-03, -1.73394172e-03,
          -3.40724015e-03, 2.92599737e-03, 2.98141828e-03,
          2.73508881e-03, -9.26486566e-04, 3.31623550e-03,
          -3.66346270e-04, -4.15456388e-03, -1.73400808e-03,
          -3.40756634e-03, 2.92629749e-03, 2.98117194e-03,
          2.73474050e-03, -9.27099725e-04, 3.31611792e-03,
          -3.66127584e-04, -5.34155546e-03, -2.22937576e-03,
          -4.38093953e-03, 3.76245426e-03, 3.83278215e-03,
          3.51610640e-03, -1.19162432e-03, 4.26357100e-03,
          -4.70918807e-04, 2.87749921e-03, -3.74310510e-03,
          -6.52354734e-04, 2.88144383e-03, 3.25223227e-04,
          1.60522363e-03, 2.44932179e-03, -1.71115040e-03,
          -1.17285317e-03, 3.69956833e-03, -4.81256749e-03,
          -8.38756154e-04, 3.70471436e-03, 4.19663877e-04,
          2.06399546e-03, 3.14913830e-03, -2.20006215e-03,
          -1.50799984e-03, 3.69979022e-03, -4.81255911e-03,
          -8.38723034e-04, 3.70492064e-03, 4.18119511e-04,
          2.06382456e-03, 3.14911408e-03, -2.20014364e-03,
          -1.50783709e-03, 4.75677848e-03, -6.18758146e-03,
          -1.07837678e-03, 4.76347096e-03, 5.39536297e-04,
          2.65366398e-03, 4.04887367e-03, -2.82877055e-03,
          -1.93870615e-03, -7.00031756e-04, 2.91070715e-03,
          1.33477058e-03, 1.18463021e-03, 5.91199799e-03,
          -1.39497919e-03, 1.81806448e-03, -2.79763713e-04,
          2.13001505e-03, -8.99788400e-04, 3.74234561e-03,
          1.71614857e-03, 1.52312662e-03, 7.60120293e-03,
          -1.79371890e-03, 2.33697472e-03, -3.59263999e-04,
          2.73953471e-03, -9.00995627e-04, 3.74237611e-03,
          1.71620445e-03, 1.52309332e-03, 7.60024413e-03,
          -1.79348071e-03, 2.33708508e-03, -3.59815342e-04,
          2.73860525e-03, -1.15809881e-03, 4.81163664e-03,
          2.20656605e-03, 1.95830246e-03, 9.77182295e-03,
          -2.30612792e-03, 3.00413370e-03, -4.62063297e-04,
          3.52227828e-03, 1.71315053e-03, 2.04690019e-04, 1.72035885e-04,
          2.85365444e-04, 2.94479378e-03, 3.18403145e-05, 6.25692727e-03,
          3.88899440e-04, -3.06533510e-03, 2.20242771e-03,
          2.63265218e-04, 2.21376657e-04, 3.66605964e-04, 3.78574547e-03,
          4.03293852e-05, 8.04463774e-03, 5.00031514e-04,
          -3.94132873e-03, 2.20292364e-03, 2.62902671e-04,
          2.20906659e-04, 3.66900000e-04, 3.78601230e-03, 4.09270251e-05,
          8.04450084e-03, 4.99938324e-04, -3.94105632e-03,
          2.83208000e-03, 3.38137121e-04, 2.84264359e-04, 4.71352891e-04,
          4.86719282e-03, 5.18381930e-05, 1.03429509e-02, 6.42801810e-04,
          -5.06730843e-03, 4.74904384e-03, 3.54400091e-03,
          2.10477714e-03, -9.64951978e-05, 8.45106610e-04,
          4.74714208e-04, -7.20135926e-04, 2.20113015e-03,
          4.48319409e-03, 6.10609725e-03, 4.55655064e-03, 2.70610093e-03,
          -1.23520440e-04, 1.09099178e-03, 6.11392665e-04,
          -9.26351815e-04, 2.82991794e-03, 5.76437823e-03,
          6.09100936e-03, 4.55649290e-03, 2.70622526e-03,
          -1.24023718e-04, 1.08636951e-03, 6.10365940e-04,
          -9.25391680e-04, 2.83014006e-03, 5.74898766e-03,
          7.83153344e-03, 5.85831981e-03, 3.47937830e-03,
          -1.58757903e-04, 1.40245107e-03, 7.86102377e-04,
          -1.19038438e-03, 3.63861490e-03, 7.39190448e-03,
          2.79716565e-03, -5.61501132e-04, -5.67120034e-04,
          -1.74718176e-03, 4.25424194e-03, -1.04288268e-03,
          4.16918704e-03, 6.61171740e-03, 4.66305809e-03, 3.59660061e-03,
          -7.21977325e-04, -7.29246240e-04, -2.24637589e-03,
          5.46925794e-03, -1.34069053e-03, 5.36104571e-03,
          8.50098766e-03, 5.99564193e-03, 3.59632098e-03,
          -7.21900666e-04, -7.29072024e-04, -2.24639196e-03,
          5.46933757e-03, -1.34084816e-03, 5.35987644e-03,
          8.50072317e-03, 5.99529920e-03, 4.62415675e-03,
          -9.28218651e-04, -9.37497185e-04, -2.88821710e-03,
          7.03138718e-03, -1.72374409e-03, 6.89212047e-03,
          1.09297689e-02, 7.70860305e-03, -1.26896694e-03,
          1.00814097e-04, 1.76122645e-03, -5.89820789e-04,
          2.05039908e-03, 3.87529086e-04, 9.51989461e-03, 3.85307218e-03,
          1.54131278e-03, -1.63138483e-03, 1.29537526e-04,
          2.26419652e-03, -7.58308161e-04, 2.63672811e-03,
          4.98288893e-04, 1.22395828e-02, 4.95386170e-03, 1.98184699e-03,
          -1.63176085e-03, 1.29567692e-04, 2.26427731e-03,
          -7.58349488e-04, 2.63630133e-03, 4.98251582e-04,
          1.22394841e-02, 4.95379372e-03, 1.98140694e-03,
          -2.09779339e-03, 1.66483849e-04, 2.91090785e-03,
          -9.74978786e-04, 3.39017506e-03, 6.40657207e-04,
          1.57361161e-02, 6.36905013e-03, 2.54772673e-03, 3.74621199e-03,
          2.49306811e-03, 3.88410641e-03, 7.52999505e-04, 9.47333500e-03,
          -7.13205663e-04, 3.41294333e-03, -1.25397986e-03,
          -6.27483067e-04, 4.81662946e-03, 3.20539973e-03,
          4.99394210e-03, 9.68136650e-04, 1.21817440e-02,
          -9.16943187e-04, 4.38784668e-03, -1.61235733e-03,
          -8.06683151e-04, 4.81677800e-03, 3.20537435e-03,
          4.99386014e-03, 9.68126580e-04, 1.21787572e-02,
          -9.16972640e-04, 4.38805483e-03, -1.61226559e-03,
          -8.06528958e-04, 6.19309163e-03, 4.12122952e-03,
          6.42079348e-03, 1.24472706e-03, 1.56606417e-02,
          -1.17891852e-03, 5.64149721e-03, -2.07303814e-03,
          -1.03686156e-03, 3.77394352e-03, 3.65211465e-03,
          6.29452290e-03, -1.11083442e-03, 6.85725035e-03,
          -3.70462280e-04, 5.15441969e-03, 3.91144975e-04,
          1.93389039e-03, 4.85248119e-03, 4.69565764e-03, 8.09317455e-03,
          -1.42822019e-03, 8.81468132e-03, -4.76066372e-04,
          6.62746700e-03, 5.02961106e-04, 2.48669763e-03, 4.85220086e-03,
          4.69608791e-03, 8.09317548e-03, -1.42821437e-03,
          8.81589111e-03, -4.76301502e-04, 6.62693009e-03,
          5.02418203e-04, 2.48623244e-03, 6.23888848e-03, 6.03793282e-03,
          1.04057873e-02, -1.83628139e-03, 1.13324234e-02,
          -6.12075964e-04, 8.52079596e-03, 6.46044093e-04,
          3.19692842e-03, 5.24846558e-03, 2.89116707e-03, 4.68233181e-03,
          1.24209549e-03, 4.12066560e-03, -2.39876634e-03,
          3.81608377e-03, 6.55257958e-04, 5.22195874e-03, 6.74754707e-03,
          3.71711631e-03, 6.01984560e-03, 1.59698632e-03, 5.29978471e-03,
          -3.08423606e-03, 4.90628136e-03, 8.42474750e-04,
          6.71346392e-03, 6.74738968e-03, 3.71733867e-03, 6.02051336e-03,
          1.59698364e-03, 5.29921148e-03, -3.08413268e-03,
          4.90636053e-03, 8.42469977e-04, 6.71330746e-03, 8.67459830e-03,
          4.77930903e-03, 7.74027919e-03, 2.05327291e-03, 6.81556808e-03,
          -3.96545185e-03, 6.30803313e-03, 1.08317588e-03,
          8.63077398e-03, 4.68799286e-03, 8.96210200e-04,
          -2.27812212e-03, -2.12672516e-03, 4.82521765e-03,
          1.69326516e-03, 3.90096428e-03, 3.41562624e-03, 5.74062672e-03,
          6.02721237e-03, 1.15222065e-03, -2.92911963e-03,
          -2.73392629e-03, 6.20375760e-03, 2.17697490e-03,
          5.01515623e-03, 4.39141970e-03, 7.38059217e-03, 6.02727663e-03,
          1.15218246e-03, -2.92925932e-03, -2.73436843e-03,
          6.20397227e-03, 2.17716722e-03, 5.01591153e-03, 4.39163251e-03,
          7.38065504e-03, 7.74908904e-03, 1.48131431e-03,
          -3.76632670e-03, -3.51505680e-03, 7.97641557e-03,
          2.79911142e-03, 6.44855388e-03, 5.64625673e-03, 9.48913861e-03,
          3.30068241e-03, 1.27394451e-04, 5.18775033e-03,
          -3.19593539e-03, 3.74960946e-03, 9.38961923e-04,
          2.12824089e-03, 3.08188261e-03, 5.69932954e-03, 4.24337201e-03,
          1.63807810e-04, 6.67005032e-03, -4.10905667e-03,
          4.82078316e-03, 1.20710360e-03, 2.73583084e-03, 3.96226579e-03,
          7.32734660e-03, 4.24354663e-03, 1.63729885e-04, 6.67003961e-03,
          -4.10891743e-03, 4.82092472e-03, 1.20723911e-03,
          2.73614679e-03, 3.96236684e-03, 7.32753426e-03, 5.45552233e-03,
          2.10530372e-04, 8.57587438e-03, -5.28289005e-03,
          6.19814824e-03, 1.55199307e-03, 3.51728685e-03, 5.09427302e-03,
          9.42064915e-03, 1.26324454e-03, 1.43742678e-03, 7.20677571e-03,
          9.94728762e-04, 6.56822114e-04, 1.30357919e-03, 3.08918441e-03,
          2.25373590e-03, 5.94635867e-03, 1.62377546e-03, 1.84796250e-03,
          9.26537905e-03, 1.27897144e-03, 8.44680879e-04, 1.67602417e-03,
          3.97148868e-03, 2.89756083e-03, 7.64492713e-03, 1.62407837e-03,
          1.84734119e-03, 9.26562306e-03, 1.27893209e-03, 8.44346941e-04,
          1.67603139e-03, 3.97263840e-03, 2.89796526e-03, 7.64539186e-03,
          2.08759261e-03, 2.37495033e-03, 1.19123319e-02, 1.64438540e-03,
          1.08584017e-03, 2.15489022e-03, 5.10726636e-03, 3.72582767e-03,
          9.82928742e-03, 7.97055909e-05, 3.73880030e-03, 4.95659234e-03,
          1.54417416e-03, 1.37946056e-03, -6.61364407e-04,
          2.14181095e-03, 1.40693330e-03, 4.65332484e-03, 1.02552018e-04,
          4.80685849e-03, 6.37229858e-03, 1.98537088e-03, 1.77292048e-03,
          -8.49845645e-04, 2.75398279e-03, 1.80891342e-03,
          5.98292612e-03, 1.02145175e-04, 4.80718724e-03, 6.37322664e-03,
          1.98538625e-03, 1.77228381e-03, -8.50323995e-04,
          2.75375135e-03, 1.80891156e-03, 5.98253449e-03, 1.31423629e-04,
          6.18045032e-03, 8.19355249e-03, 2.55264482e-03, 2.27778801e-03,
          -1.09265628e-03, 3.54082766e-03, 2.32574227e-03,
          7.69193284e-03, 1.08187692e-03, -6.49325491e-04,
          6.83127902e-04, -2.84592126e-04, -1.39335834e-03,
          2.64172000e-03, 2.50624516e-03, -2.07491044e-04,
          4.60164249e-03, 1.39090291e-03, -8.34903854e-04,
          8.75190774e-04, -3.65607237e-04, -1.79183588e-03,
          3.39661445e-03, 3.22221173e-03, -2.66759045e-04,
          5.91626810e-03, 1.39056798e-03, -8.34608916e-04,
          8.77369544e-04, -3.66986700e-04, -1.79068709e-03,
          3.39650107e-03, 3.22291511e-03, -2.66470393e-04,
          5.91602130e-03, 1.78776786e-03, -1.07314123e-03,
          1.12403987e-03, -4.71458625e-04, -2.30279495e-03,
          4.36708005e-03, 4.14361479e-03, -3.42584943e-04,
          7.60614732e-03, 4.77024936e-04, 1.97296101e-03, 2.77184765e-03,
          -2.64404737e-03, 5.19627659e-03, 3.64948064e-04,
          1.95081031e-03, -7.42500299e-04, 2.38028122e-03,
          6.14239776e-04, 2.53683794e-03, 3.56385577e-03,
          -3.39943217e-03, 6.68002898e-03, 4.69136023e-04,
          2.50814296e-03, -9.54637944e-04, 3.06063914e-03,
          6.13260025e-04, 2.53669848e-03, 3.56392842e-03,
          -3.39959515e-03, 6.68063806e-03, 4.69097809e-04,
          2.50732386e-03, -9.54584975e-04, 3.06082494e-03,
          7.89663347e-04, 3.26169236e-03, 4.58225934e-03,
          -4.37083375e-03, 8.58823676e-03, 6.03018969e-04,
          3.22364829e-03, -1.22731645e-03, 3.93570401e-03,
          1.28596241e-03, 1.76987448e-03, 4.65945667e-03,
          -2.03012559e-03, 1.45207008e-03, 3.29294824e-03,
          -1.77879259e-03, -2.61581456e-03, 1.39775220e-04,
          1.65335985e-03, 2.27553491e-03, 5.99075714e-03,
          -2.60998914e-03, 1.86700060e-03, 4.23377799e-03,
          -2.28713872e-03, -3.36336857e-03, 1.79661030e-04,
          1.65338558e-03, 2.27560382e-03, 5.99082233e-03,
          -2.61017983e-03, 1.86670164e-03, 4.23384551e-03,
          -2.28697620e-03, -3.36313946e-03, 1.79983050e-04,
          2.12575519e-03, 2.92575383e-03, 7.70251965e-03,
          -3.35572334e-03, 2.40011304e-03, 5.44349942e-03,
          -2.94055208e-03, -4.32426529e-03, 2.31342536e-04,
          -2.00582854e-03, 1.41989219e-03, -6.40225189e-04,
          4.08057543e-03, -2.66771391e-03, 3.87096952e-05,
          3.02952016e-03, 3.86645528e-03, 6.13159718e-05,
          -2.57880474e-03, 1.82509958e-03, -8.23273323e-04,
          5.24640968e-03, -3.43020773e-03, 4.97878427e-05,
          3.89508205e-03, 4.97111818e-03, 7.90136837e-05,
          -2.57903477e-03, 1.82561215e-03, -8.23170878e-04,
          5.24647813e-03, -3.43044591e-03, 4.97549954e-05,
          3.89512745e-03, 4.97115171e-03, 7.87305398e-05,
          -3.31575051e-03, 2.34660320e-03, -1.05852413e-03,
          6.74541388e-03, -4.41094721e-03, 6.39929931e-05,
          5.00800088e-03, 6.39143120e-03, 1.01454862e-04,
          -1.84184685e-03, -9.53502953e-04, -3.93347442e-03,
          -1.63723307e-03, 1.46736245e-04, 4.26079473e-03,
          2.71415082e-03, 4.07123286e-03, 2.03938293e-03,
          -2.36822967e-03, -1.22597627e-03, -5.05747972e-03,
          -2.10510986e-03, 1.88866456e-04, 5.47806779e-03,
          3.48969642e-03, 5.23459865e-03, 2.62197433e-03,
          -2.36842851e-03, -1.22605485e-03, -5.05755749e-03,
          -2.10503489e-03, 1.88705177e-04, 5.47817582e-03,
          3.48960026e-03, 5.23442542e-03, 2.62169144e-03,
          -3.04530375e-03, -1.57641177e-03, -6.50277454e-03,
          -2.70659640e-03, 2.42885493e-04, 7.04324432e-03,
          4.48672427e-03, 6.73017697e-03, 3.37063172e-03,
          -5.75858168e-03, -1.53962267e-03, 1.27388386e-03,
          3.94083653e-03, -9.12429008e-04, 2.15726974e-03,
          3.89993680e-03, -1.94504377e-04, -1.53301039e-03,
          -7.40387244e-03, -1.97934662e-03, 1.63785799e-03,
          5.06680086e-03, -1.17288996e-03, 2.77361530e-03,
          5.01424912e-03, -2.50089215e-04, -1.97102246e-03,
          -7.40399305e-03, -1.97953661e-03, 1.63784658e-03,
          5.06675150e-03, -1.17298053e-03, 2.77363695e-03,
          5.01407776e-03, -2.50106445e-04, -1.97107717e-03,
          -9.51939635e-03, -2.54490133e-03, 2.10581184e-03,
          6.51440909e-03, -1.50781719e-03, 3.56608280e-03,
          6.44672895e-03, -3.21581261e-04, -2.53425352e-03,
          -7.47293094e-03, 1.67601567e-04, 2.98511004e-03,
          2.86183693e-03, 2.94286665e-03, -1.92433392e-04,
          -2.96978658e-04, 3.49533092e-03, 6.22488384e-04,
          -9.60788969e-03, 2.15445485e-04, 3.83790256e-03,
          3.67951673e-03, 3.78361158e-03, -2.47402582e-04,
          -3.81653168e-04, 4.49404726e-03, 8.00825772e-04,
          -9.60842054e-03, 2.15530017e-04, 3.83814774e-03,
          3.67954979e-03, 3.78356664e-03, -2.47401535e-04,
          -3.81446531e-04, 4.49413341e-03, 7.99995905e-04,
          -1.23534715e-02, 2.77055660e-04, 4.93463688e-03,
          4.73086443e-03, 4.86449013e-03, -3.18073027e-04,
          -4.90204315e-04, 5.77823538e-03, 1.02918723e-03,
          -5.11036674e-03, 1.03261345e-06, -1.11419649e-03,
          2.92567827e-04, 3.33553413e-03, 2.26975232e-03, 1.58089900e-03,
          1.59342284e-03, -6.78018958e-04, -6.57066656e-03,
          1.34033269e-06, -1.43251964e-03, 3.76164971e-04,
          4.28874791e-03, 2.91826017e-03, 2.03303760e-03, 2.04884098e-03,
          -8.71910015e-04, -6.57573575e-03, 1.35322432e-06,
          -1.43247668e-03, 3.76755837e-04, 4.28854953e-03,
          2.91806203e-03, 2.03207671e-03, 2.04867707e-03,
          -8.76557431e-04, -8.45476706e-03, 1.75681248e-06,
          -1.84173218e-03, 4.84408170e-04, 5.51411230e-03,
          3.75180272e-03, 2.61325273e-03, 2.63421284e-03,
          -1.12722255e-03, -3.45158245e-04, 6.52636751e-04,
          -1.46925205e-03, 2.33577704e-03, -9.36093857e-04,
          1.84319669e-03, 1.84272401e-04, -1.82635049e-05,
          -5.19126188e-04, -4.43776458e-04, 8.39058834e-04,
          -1.88911671e-03, 3.00314883e-03, -1.20303815e-03,
          2.36978871e-03, 2.36761029e-04, -2.34269955e-05,
          -6.67405955e-04, -4.43432131e-04, 8.39122280e-04,
          -1.88903289e-03, 3.00295395e-03, -1.20373524e-03,
          2.36983667e-03, 2.37054250e-04, -2.31752965e-05,
          -6.67350832e-04, -5.70128614e-04, 1.07881275e-03,
          -2.42885877e-03, 3.86095000e-03, -1.54700235e-03,
          3.04688723e-03, 3.04578018e-04, -2.97256211e-05,
          -8.57968815e-04, -3.83030158e-03, -1.95341557e-03,
          -3.44727421e-04, 4.31741634e-03, 4.75577638e-03,
          3.11988592e-03, -6.09428025e-06, 1.13044334e-05,
          -2.10938882e-03, -4.92490735e-03, -2.51147989e-03,
          -4.43112513e-04, 5.55096939e-03, 6.11498393e-03,
          4.01179958e-03, -8.43181988e-06, 1.43179886e-05,
